~o
<STREAMINFO> 1 39
<VECSIZE> 39<NULLD><MFCC_D_A_0><DIAGC>
~s "silst"
<MEAN> 39
 -1.396763e+00 -3.401116e+00 -4.493513e+00 4.370747e+00 -2.478811e+00 -5.461772e+00 -3.341036e+00 9.456757e-01 -8.420397e+00 -2.667263e+00 -2.808007e+00 -9.795386e-01 6.601086e+01 2.393206e-02 8.897323e-03 8.482963e-03 -3.749841e-02 7.167844e-02 -3.042191e-02 -1.387776e-02 -3.581472e-02 -3.747743e-02 -4.419640e-02 -5.533015e-03 9.750389e-05 1.122114e-01 5.762072e-03 -2.267723e-02 -7.189528e-03 -4.851417e-02 -1.562551e-02 1.079471e-02 1.188798e-03 8.720670e-03 3.118085e-02 1.230955e-02 5.155748e-03 -3.315818e-03 3.783128e-02
<VARIANCE> 39
 8.149605e+01 5.515038e+01 6.035350e+01 1.087653e+02 6.430163e+01 6.391582e+01 6.308611e+01 6.635882e+01 7.709966e+01 4.392334e+01 4.917583e+01 3.488997e+01 1.051563e+02 4.071084e+00 4.252319e+00 3.694547e+00 3.595742e+00 3.532099e+00 4.698750e+00 3.676685e+00 3.890820e+00 4.645047e+00 2.995402e+00 3.403671e+00 2.566522e+00 3.245631e+00 5.875880e-01 7.309098e-01 5.841925e-01 5.885171e-01 5.844710e-01 7.878091e-01 6.404296e-01 6.710997e-01 7.985260e-01 5.496063e-01 5.911441e-01 4.442198e-01 4.615073e-01
<GCONST> 1.361872e+02
~h "@"
<BEGINHMM>
<NUMSTATES> 5
<STATE> 2
<MEAN> 39
 -2.860335e+00 -3.527785e+00 -3.109447e+00 -5.818367e+00 -4.532299e+00 -6.068105e+00 -8.222032e+00 -3.917310e+00 -4.259865e+00 -4.257667e+00 -3.074822e+00 -3.468199e+00 6.783517e+01 1.233970e+00 -6.144910e-01 -2.408029e-01 -6.242918e-01 -4.336711e-01 -5.150412e-01 -5.851126e-01 -8.680399e-02 -1.365315e-03 -5.974059e-02 -5.443068e-02 -1.306138e-01 1.428701e+00 9.685604e-02 2.049940e-02 -1.650887e-02 1.618048e-01 -1.124201e-01 2.201268e-02 1.452607e-02 -5.767753e-02 6.349869e-04 -4.662617e-02 -8.178715e-02 -9.832735e-02 -7.922073e-02
<VARIANCE> 39
 1.055753e+02 8.946703e+01 7.333862e+01 1.192700e+02 1.334370e+02 1.095872e+02 1.136317e+02 8.547189e+01 7.515829e+01 6.749798e+01 5.266624e+01 4.295940e+01 1.481081e+02 8.908090e+00 5.978734e+00 5.957302e+00 5.793649e+00 6.970775e+00 7.244808e+00 5.669749e+00 7.025858e+00 6.648020e+00 5.699757e+00 5.351452e+00 3.893810e+00 5.175316e+00 1.193235e+00 1.076374e+00 8.784783e-01 1.111883e+00 1.208010e+00 1.102679e+00 9.640561e-01 1.093787e+00 1.031433e+00 8.617966e-01 8.700103e-01 7.053600e-01 8.700977e-01
<GCONST> 1.531923e+02
<STATE> 3
<MEAN> 39
 2.224058e+00 -7.835570e+00 -4.260453e+00 -6.722769e+00 -8.775274e+00 -6.076469e+00 -1.094421e+01 -4.872660e+00 -4.084559e+00 -5.446844e+00 -3.808955e+00 -4.163023e+00 7.354018e+01 1.076044e+00 -3.722991e-01 -1.873929e-01 4.679375e-02 -5.255206e-01 -2.329275e-01 -2.891473e-01 -1.337850e-01 2.560905e-02 -1.611450e-01 -2.610672e-01 -2.460583e-01 6.223541e-01 -4.731759e-01 4.455714e-01 1.919852e-01 3.887609e-01 2.770214e-01 2.207308e-01 3.302794e-01 9.390453e-03 -1.414984e-02 -8.669738e-03 -5.511077e-02 7.533236e-03 -6.241363e-01
<VARIANCE> 39
 5.377667e+01 8.785210e+01 7.408263e+01 1.103814e+02 1.352645e+02 1.339720e+02 1.280734e+02 9.244385e+01 8.423489e+01 9.068766e+01 5.823306e+01 4.218346e+01 9.958675e+01 4.874274e+00 5.490194e+00 4.545520e+00 4.593234e+00 5.744451e+00 6.061174e+00 5.305683e+00 6.531419e+00 5.706339e+00 4.478842e+00 4.419692e+00 3.037181e+00 3.594754e+00 8.568029e-01 9.172815e-01 7.919920e-01 8.756093e-01 1.086556e+00 1.159728e+00 1.000106e+00 1.146426e+00 9.849151e-01 8.899213e-01 9.420143e-01 6.282098e-01 6.670227e-01
<GCONST> 1.489177e+02
<STATE> 4
<MEAN> 39
 2.815334e+00 -6.570503e+00 -4.727780e+00 -5.570500e+00 -7.941639e+00 -6.945073e+00 -9.574271e+00 -4.323566e+00 -4.422329e+00 -5.043313e+00 -4.292349e+00 -4.348329e+00 7.273109e+01 8.178598e-02 5.607533e-01 2.869554e-01 6.433306e-01 6.119805e-02 2.309314e-01 2.309810e-01 -1.272573e-01 -5.572257e-02 -1.545213e-01 -2.525386e-01 -1.399876e-01 -5.254366e-01 -4.915300e-01 2.758455e-01 1.807813e-01 1.839614e-01 2.338865e-01 2.010336e-01 1.946863e-01 3.386250e-02 1.904904e-02 2.893509e-02 3.225936e-02 3.046773e-02 -4.026389e-01
<VARIANCE> 39
 5.313148e+01 8.156574e+01 6.547908e+01 1.030998e+02 1.238248e+02 1.026142e+02 1.184076e+02 9.188097e+01 8.620325e+01 7.742779e+01 5.420747e+01 3.994694e+01 1.091772e+02 3.108454e+00 4.539083e+00 3.276493e+00 3.675908e+00 4.909923e+00 4.823327e+00 4.062548e+00 4.620487e+00 4.112046e+00 3.327882e+00 3.451373e+00 2.546170e+00 2.949760e+00 6.412402e-01 7.129249e-01 6.037012e-01 6.962934e-01 7.709017e-01 8.635826e-01 7.479700e-01 9.778973e-01 9.089062e-01 7.300494e-01 7.331067e-01 5.074875e-01 4.976647e-01
<GCONST> 1.414308e+02
<TRANSP> 5
 0.000000e+00 1.000000e+00 0.000000e+00 0.000000e+00 0.000000e+00
 0.000000e+00 3.685293e-01 6.314707e-01 0.000000e+00 0.000000e+00
 0.000000e+00 0.000000e+00 2.326473e-01 7.673528e-01 0.000000e+00
 0.000000e+00 0.000000e+00 0.000000e+00 1.811074e-01 8.188926e-01
 0.000000e+00 0.000000e+00 0.000000e+00 0.000000e+00 0.000000e+00
<ENDHMM>
~h "a"
<BEGINHMM>
<NUMSTATES> 5
<STATE> 2
<MEAN> 39
 1.978516e+00 -1.308398e+01 -6.062029e+00 -8.128054e+00 -6.770738e+00 -5.038211e+00 -7.458208e+00 -1.866591e+00 -3.274514e+00 -6.967382e+00 -6.958216e+00 -5.185308e+00 7.383395e+01 3.257115e-01 -8.518504e-01 -2.299755e-01 -7.265775e-02 4.145046e-01 1.495203e-01 7.152012e-02 4.360747e-01 -2.296536e-01 -3.404404e-01 -4.385941e-01 -4.472768e-02 5.191512e-01 -2.329687e-01 5.566851e-01 2.071940e-01 2.916779e-01 1.479558e-02 -1.149447e-02 7.121972e-03 -2.497943e-01 -4.855563e-02 1.053044e-01 1.056415e-01 8.784598e-02 -5.111465e-01
<VARIANCE> 39
 4.390325e+01 1.029145e+02 5.128722e+01 8.848629e+01 1.077035e+02 7.997348e+01 1.349060e+02 8.028089e+01 7.632879e+01 7.638387e+01 5.803767e+01 4.873951e+01 1.111231e+02 1.942613e+00 4.020851e+00 2.700240e+00 2.808623e+00 4.787188e+00 3.773615e+00 4.147487e+00 4.174376e+00 3.810213e+00 3.204616e+00 3.603393e+00 2.697852e+00 2.885144e+00 4.013690e-01 7.715020e-01 4.515768e-01 5.093767e-01 7.989318e-01 6.697556e-01 7.146525e-01 8.595864e-01 7.103547e-01 6.308179e-01 6.247942e-01 5.356307e-01 4.654546e-01
<GCONST> 1.374403e+02
<STATE> 3
<MEAN> 39
 2.400874e+00 -1.378626e+01 -6.233135e+00 -8.351027e+00 -6.746572e+00 -5.349112e+00 -7.074763e+00 -1.651653e+00 -3.927732e+00 -7.389620e+00 -7.389447e+00 -5.145077e+00 7.373885e+01 -2.351741e-02 1.080109e+00 2.695377e-01 6.593534e-01 -8.383549e-02 -1.108056e-01 -2.317930e-02 -3.440915e-01 -4.236645e-02 8.822413e-02 -7.478261e-02 -2.731474e-02 -9.423294e-01 -1.637272e-01 5.283323e-01 1.857569e-01 2.356782e-01 -5.885240e-02 9.094363e-03 1.145967e-02 -2.518984e-01 6.580111e-02 9.073196e-02 9.923941e-02 2.227860e-02 -4.107812e-01
<VARIANCE> 39
 3.785595e+01 9.614253e+01 4.928072e+01 8.178150e+01 1.093350e+02 8.186261e+01 1.556039e+02 7.938622e+01 8.022673e+01 8.523013e+01 5.673458e+01 4.618639e+01 9.340336e+01 1.007358e+00 3.169098e+00 1.868223e+00 2.509043e+00 3.750386e+00 3.243773e+00 3.275948e+00 3.668334e+00 3.003905e+00 2.499695e+00 2.669034e+00 2.222699e+00 1.790552e+00 2.599701e-01 4.836519e-01 3.533798e-01 4.255387e-01 6.813316e-01 6.183249e-01 6.640071e-01 7.630221e-01 6.109889e-01 5.354882e-01 5.307979e-01 4.532650e-01 2.395182e-01
<GCONST> 1.305238e+02
<STATE> 4
<MEAN> 39
 6.050509e-01 -8.416906e+00 -6.692643e+00 -5.576485e+00 -5.964209e+00 -5.391875e+00 -4.514335e+00 -2.128919e+00 -3.857295e+00 -5.996977e+00 -6.198909e+00 -4.519074e+00 7.010515e+01 -2.989544e-01 8.244587e-01 3.137490e-01 4.773955e-01 -9.616686e-02 2.217456e-01 -1.161359e-02 -2.801212e-01 -3.183922e-02 8.114924e-02 5.282415e-02 4.711770e-02 -9.962369e-01 -6.074244e-02 -8.611837e-03 4.851874e-02 -4.766000e-02 7.340875e-04 3.223354e-03 -1.671441e-02 -3.408651e-02 7.328060e-03 1.301631e-02 3.877262e-02 1.180399e-02 2.190218e-02
<VARIANCE> 39
 5.382476e+01 8.442630e+01 4.216621e+01 6.192452e+01 8.222127e+01 6.318685e+01 9.080902e+01 6.394505e+01 7.292348e+01 6.557384e+01 4.949820e+01 3.792404e+01 2.069149e+02 1.176995e+00 2.006471e+00 1.587005e+00 1.906138e+00 2.587994e+00 2.291324e+00 2.290168e+00 2.726815e+00 2.270895e+00 2.059697e+00 2.054416e+00 1.759000e+00 1.413288e+00 1.844123e-01 3.098740e-01 2.464809e-01 3.124484e-01 4.087001e-01 3.883244e-01 3.848953e-01 4.216092e-01 4.060211e-01 3.642170e-01 3.803348e-01 3.181356e-01 1.983011e-01
<GCONST> 1.205561e+02
<TRANSP> 5
 0.000000e+00 1.000000e+00 0.000000e+00 0.000000e+00 0.000000e+00
 0.000000e+00 3.961518e-01 6.038483e-01 0.000000e+00 0.000000e+00
 0.000000e+00 0.000000e+00 3.721882e-01 6.278118e-01 0.000000e+00
 0.000000e+00 0.000000e+00 0.000000e+00 6.418993e-01 3.581007e-01
 0.000000e+00 0.000000e+00 0.000000e+00 0.000000e+00 0.000000e+00
<ENDHMM>
~h "b"
<BEGINHMM>
<NUMSTATES> 5
<STATE> 2
<MEAN> 39
 2.981437e+00 -1.541617e-01 -1.642100e+00 -3.422855e+00 -7.599397e+00 -3.586621e+00 -9.787598e+00 -8.455552e+00 -6.284711e+00 -7.085927e+00 -5.768106e+00 -6.140013e+00 6.537667e+01 4.536231e-01 9.358176e-01 2.168255e-01 6.065058e-01 4.010731e-01 -2.675389e-02 2.017775e-01 -6.651632e-02 -1.777473e-01 -3.254573e-01 -6.657429e-01 -4.299438e-01 -3.028698e-01 -2.016367e-01 -5.991061e-01 -2.097257e-01 -4.398770e-01 -1.224930e-01 -2.126281e-01 -6.329454e-02 2.918918e-01 2.683913e-01 2.007038e-01 1.972087e-01 1.486812e-01 5.767977e-01
<VARIANCE> 39
 4.061300e+01 6.652619e+01 4.682037e+01 7.317129e+01 9.253468e+01 6.098723e+01 8.476357e+01 8.479055e+01 5.253337e+01 5.163783e+01 5.704651e+01 3.542542e+01 1.257373e+02 2.947877e+00 3.067798e+00 2.545991e+00 3.378562e+00 2.779325e+00 3.099067e+00 3.040698e+00 3.209757e+00 3.304965e+00 2.863442e+00 3.482027e+00 2.454493e+00 3.128535e+00 4.092076e-01 5.547249e-01 5.496408e-01 5.850776e-01 6.143398e-01 5.966568e-01 6.093780e-01 7.137442e-01 6.905725e-01 6.006486e-01 6.238621e-01 4.422524e-01 4.427323e-01
<GCONST> 1.324707e+02
<STATE> 3
<MEAN> 39
 3.964435e+00 -1.119021e+00 -2.886509e+00 -4.373050e+00 -6.998513e+00 -3.989371e+00 -1.007921e+01 -8.494175e+00 -5.097543e+00 -6.016944e+00 -6.140490e+00 -6.760935e+00 6.763532e+01 -1.084263e-01 -1.058250e+00 -5.344384e-01 -8.696216e-01 -1.163043e-01 -6.423169e-01 -1.047559e-01 7.116770e-01 8.414554e-01 3.598248e-01 9.701707e-02 -1.279868e-01 1.368605e+00 -2.443951e-01 -6.165141e-01 2.111398e-03 -3.574952e-01 -2.712612e-01 -9.591667e-02 1.183544e-02 3.004863e-01 1.931277e-01 7.413916e-02 2.394444e-01 1.997027e-01 4.177044e-01
<VARIANCE> 39
 3.695929e+01 7.079818e+01 5.076670e+01 8.390610e+01 9.339697e+01 6.009171e+01 9.156641e+01 8.628360e+01 6.188148e+01 6.696438e+01 8.286732e+01 4.190405e+01 1.202921e+02 2.677915e+00 5.147070e+00 4.628321e+00 5.206650e+00 4.519291e+00 4.748204e+00 3.978571e+00 5.534898e+00 5.482255e+00 4.089597e+00 4.617988e+00 3.231449e+00 4.680518e+00 4.264294e-01 7.477938e-01 7.491692e-01 9.199479e-01 7.715432e-01 7.718475e-01 7.944396e-01 9.453276e-01 9.330252e-01 8.710642e-01 1.036433e+00 6.896937e-01 7.362672e-01
<GCONST> 1.429340e+02
<STATE> 4
<MEAN> 39
 3.704299e+00 -1.890386e+00 -3.203950e+00 -6.235858e+00 -9.650336e+00 -6.513935e+00 -7.911037e+00 -5.192024e+00 -4.305375e+00 -8.056885e+00 -7.719933e+00 -6.862418e+00 6.733211e+01 -3.139255e-01 -1.217932e+00 -7.382789e-02 -1.075524e+00 -4.391291e-01 -2.207958e-01 -5.285100e-02 5.208780e-01 4.321870e-01 3.759179e-01 6.183501e-01 6.159848e-01 1.169292e+00 -8.425703e-02 -2.166087e-01 3.018120e-02 -2.594896e-01 -9.381188e-02 1.179591e-01 -5.647289e-02 -6.914178e-02 -6.609728e-03 6.517763e-02 1.997523e-01 2.201959e-01 1.348912e-01
<VARIANCE> 39
 3.004101e+01 7.588569e+01 3.941291e+01 8.282598e+01 7.748185e+01 5.147127e+01 6.194391e+01 6.104126e+01 4.770916e+01 5.439484e+01 6.381598e+01 3.825208e+01 1.229122e+02 1.947197e+00 4.202042e+00 4.014716e+00 4.358979e+00 4.014261e+00 3.934656e+00 3.359307e+00 4.396309e+00 3.918234e+00 3.574290e+00 3.574509e+00 2.877303e+00 2.963793e+00 2.614468e-01 6.242502e-01 4.345250e-01 8.704219e-01 6.161904e-01 6.224064e-01 5.636507e-01 6.141452e-01 7.081944e-01 6.088446e-01 6.350685e-01 5.095351e-01 5.187688e-01
<GCONST> 1.335447e+02
<TRANSP> 5
 0.000000e+00 1.000000e+00 0.000000e+00 0.000000e+00 0.000000e+00
 0.000000e+00 3.173143e-01 6.826857e-01 0.000000e+00 0.000000e+00
 0.000000e+00 0.000000e+00 3.039912e-01 6.960088e-01 0.000000e+00
 0.000000e+00 0.000000e+00 0.000000e+00 4.002453e-01 5.997547e-01
 0.000000e+00 0.000000e+00 0.000000e+00 0.000000e+00 0.000000e+00
<ENDHMM>
~h "c"
<BEGINHMM>
<NUMSTATES> 5
<STATE> 2
<MEAN> 39
 -1.107012e+01 -3.316613e+00 -2.028836e+00 -7.622884e+00 -5.442028e+00 -7.403907e+00 -6.596227e+00 -4.015844e+00 -2.345400e+00 -4.938704e+00 -3.721175e+00 -3.164803e+00 6.703669e+01 -7.016782e-01 -4.054595e-01 -3.959771e-01 -9.913809e-01 1.375434e-01 -2.582311e-01 2.179981e-01 4.681827e-01 2.208051e-01 3.705355e-01 4.544526e-01 7.549030e-02 1.214164e+00 5.905342e-01 -3.744408e-01 -3.116225e-02 -6.686336e-02 -2.948224e-01 5.755782e-03 -3.353982e-02 1.397830e-02 -8.285519e-02 -7.470088e-02 -8.899105e-02 -1.317442e-01 3.006784e-01
<VARIANCE> 39
 1.052846e+02 4.515025e+01 4.672999e+01 6.942916e+01 7.932970e+01 7.233424e+01 9.297598e+01 5.849147e+01 3.581935e+01 2.983298e+01 3.555938e+01 2.959835e+01 1.790415e+02 1.057206e+01 3.280178e+00 3.968507e+00 4.314896e+00 6.082939e+00 4.028066e+00 3.661384e+00 4.154301e+00 3.465432e+00 2.640650e+00 2.910796e+00 2.326947e+00 5.083975e+00 1.928797e+00 5.955290e-01 6.607539e-01 8.875074e-01 1.017665e+00 6.832719e-01 6.467537e-01 8.858573e-01 6.657732e-01 5.368631e-01 5.967312e-01 4.976493e-01 7.816648e-01
<GCONST> 1.388609e+02
<STATE> 3
<MEAN> 39
 -3.123131e+00 -8.685265e+00 -3.828753e+00 -9.023059e+00 -9.182571e+00 -6.220190e+00 -7.276978e+00 -3.234957e+00 -1.981070e+00 -4.968997e+00 -4.995899e+00 -4.928523e+00 7.542009e+01 2.158638e+00 -1.673443e+00 -6.172377e-01 -4.771343e-02 -4.955801e-01 5.026890e-01 -1.478259e-01 1.970561e-02 -3.448621e-01 -3.218946e-01 -5.539101e-01 -6.140467e-01 9.968557e-01 -3.660887e-01 1.107336e-01 9.270918e-02 1.544180e-01 2.474827e-01 2.442064e-01 -8.291005e-02 -1.674183e-01 -1.001019e-01 -9.254210e-02 -7.334139e-03 9.336419e-02 -2.689711e-01
<VARIANCE> 39
 6.574841e+01 5.944044e+01 3.615441e+01 6.737755e+01 6.794450e+01 7.275583e+01 1.065535e+02 7.180409e+01 4.580447e+01 4.063940e+01 3.718475e+01 2.831471e+01 1.982024e+02 9.187336e+00 4.351288e+00 2.325886e+00 2.704134e+00 3.825479e+00 3.790019e+00 3.399545e+00 3.698210e+00 3.094577e+00 3.373044e+00 3.111765e+00 2.931559e+00 2.695616e+00 1.025739e+00 4.932230e-01 4.318531e-01 5.815379e-01 7.539049e-01 6.431905e-01 5.697343e-01 6.294626e-01 6.418833e-01 4.864274e-01 4.635205e-01 3.901971e-01 4.537280e-01
<GCONST> 1.337761e+02
<STATE> 4
<MEAN> 39
 -1.272605e+00 -5.801182e+00 -2.634740e+00 -2.575369e+00 -8.979684e+00 -2.356232e-01 -3.532855e+00 -6.222024e+00 -1.592370e+00 -4.587348e+00 -4.229047e+00 -4.175640e+00 8.888077e+01 3.262316e-02 -1.197175e-02 2.252716e-02 2.025928e-02 -2.860091e-02 5.897386e-02 2.662744e-03 -1.517038e-02 -8.936692e-05 -1.495528e-02 -1.098702e-02 -8.909270e-03 -3.964011e-02 -8.415654e-03 9.933094e-03 1.913536e-02 7.217548e-03 -1.080971e-02 3.060965e-03 -1.433476e-02 -1.322168e-02 8.127000e-03 -6.314933e-03 -1.225641e-03 8.277207e-03 -2.002553e-02
<VARIANCE> 39
 2.173833e+01 2.883586e+01 3.221529e+01 3.204782e+01 2.762505e+01 4.535032e+01 2.905404e+01 2.963044e+01 3.395573e+01 2.708831e+01 2.528277e+01 2.298199e+01 7.876736e+01 1.116281e+00 1.296537e+00 1.201192e+00 1.426463e+00 2.029502e+00 2.514418e+00 1.789195e+00 2.007988e+00 2.092712e+00 1.804209e+00 1.682310e+00 1.580638e+00 2.202068e+00 1.825443e-01 1.972522e-01 1.868849e-01 2.497856e-01 3.690480e-01 4.310719e-01 3.349572e-01 3.765588e-01 3.981181e-01 3.398571e-01 3.078073e-01 2.913060e-01 2.976140e-01
<GCONST> 1.074960e+02
<TRANSP> 5
 0.000000e+00 1.000000e+00 0.000000e+00 0.000000e+00 0.000000e+00
 0.000000e+00 6.904498e-01 3.095502e-01 0.000000e+00 0.000000e+00
 0.000000e+00 0.000000e+00 3.485381e-01 6.514620e-01 0.000000e+00
 0.000000e+00 0.000000e+00 0.000000e+00 9.592822e-01 4.071774e-02
 0.000000e+00 0.000000e+00 0.000000e+00 0.000000e+00 0.000000e+00
<ENDHMM>
~h "d"
<BEGINHMM>
<NUMSTATES> 5
<STATE> 2
<MEAN> 39
 2.019726e+00 -1.796186e+00 -4.899263e-02 -6.817721e-01 -8.980631e+00 -5.574788e+00 -1.007409e+01 -6.104028e+00 -3.433542e+00 -8.058681e+00 -8.035677e+00 -5.875344e+00 6.512036e+01 -7.366157e-02 4.502966e-01 4.981210e-01 9.580678e-02 4.318258e-01 -1.098160e-01 -1.215013e-01 2.049670e-01 -1.765441e-01 -8.902566e-02 -2.012166e-01 -5.954316e-02 1.086187e-01 -2.402739e-01 -8.739745e-01 1.091577e-02 -8.184245e-01 -3.675815e-01 -2.041640e-01 -2.883159e-02 3.367603e-01 -4.091146e-02 2.171706e-01 4.926012e-01 2.308344e-01 8.979000e-01
<VARIANCE> 39
 4.241693e+01 6.343917e+01 5.398304e+01 7.077030e+01 1.003623e+02 6.446707e+01 9.757796e+01 7.450512e+01 6.190324e+01 6.351110e+01 5.505840e+01 3.887543e+01 1.150874e+02 2.929856e+00 3.821609e+00 3.009657e+00 3.492751e+00 4.200258e+00 4.326912e+00 3.123277e+00 3.787765e+00 3.606882e+00 3.125941e+00 3.565241e+00 2.419296e+00 3.638731e+00 4.360305e-01 7.162641e-01 6.842807e-01 7.608253e-01 9.220784e-01 9.758925e-01 6.972969e-01 9.194283e-01 7.762087e-01 6.730397e-01 7.102795e-01 5.283597e-01 5.683317e-01
<GCONST> 1.376274e+02
<STATE> 3
<MEAN> 39
 4.328036e-01 -4.127889e+00 9.915646e-01 -2.352745e+00 -9.135794e+00 -6.402606e+00 -1.142894e+01 -4.158884e+00 -3.446353e+00 -7.230975e+00 -5.632666e+00 -4.617914e+00 6.940878e+01 -3.437250e-01 -1.835053e+00 3.393648e-01 -1.720434e+00 -1.072870e+00 -6.643015e-01 -3.148244e-01 1.000028e+00 2.559216e-02 3.644270e-01 1.043527e+00 3.985913e-01 2.250376e+00 1.078305e-01 -4.159358e-01 -1.368544e-01 -3.072437e-01 -3.137855e-01 -6.086715e-03 9.650780e-02 4.373465e-02 8.349283e-02 9.077358e-02 1.275257e-01 -4.722814e-02 3.032330e-01
<VARIANCE> 39
 4.250631e+01 7.197846e+01 5.804090e+01 8.804757e+01 1.190345e+02 8.426447e+01 1.209919e+02 7.753933e+01 6.717188e+01 5.912003e+01 5.990656e+01 4.237193e+01 1.236306e+02 3.380712e+00 5.030614e+00 5.487803e+00 5.168149e+00 6.934100e+00 6.655223e+00 4.978021e+00 6.701117e+00 5.732963e+00 4.223680e+00 4.785851e+00 3.077054e+00 4.809908e+00 5.113311e-01 7.831510e-01 6.763075e-01 8.912663e-01 1.216454e+00 1.202303e+00 9.400224e-01 1.039333e+00 8.485445e-01 6.614925e-01 9.312447e-01 6.722991e-01 8.303918e-01
<GCONST> 1.462145e+02
<STATE> 4
<MEAN> 39
 5.464901e-01 -7.867170e+00 1.086425e+00 -5.930249e+00 -1.159126e+01 -7.276409e+00 -9.715173e+00 -2.184897e+00 -3.356075e+00 -5.643230e+00 -3.983170e+00 -4.209158e+00 7.359959e+01 -4.980638e-02 -1.605852e+00 1.144115e-01 -1.485073e+00 -8.447704e-01 -2.424925e-01 1.003484e-01 5.615000e-01 4.225039e-02 3.454272e-01 6.017848e-01 8.810801e-02 1.645977e+00 1.257989e-01 3.305721e-01 -1.838544e-01 2.855326e-01 2.474421e-01 1.267057e-01 1.368256e-01 -3.082605e-01 -2.552071e-02 -1.423581e-01 -2.450124e-01 -9.509686e-02 -3.762706e-01
<VARIANCE> 39
 4.091545e+01 6.870487e+01 7.394325e+01 1.167611e+02 1.208993e+02 8.002042e+01 1.172043e+02 8.158274e+01 8.119028e+01 5.353239e+01 4.987901e+01 3.838246e+01 1.221880e+02 2.595651e+00 3.870261e+00 5.547619e+00 5.136964e+00 6.304069e+00 6.718992e+00 5.682447e+00 6.465952e+00 5.361926e+00 3.749944e+00 4.525660e+00 3.683466e+00 3.435531e+00 3.549536e-01 5.584957e-01 4.834084e-01 6.971264e-01 9.413034e-01 8.979108e-01 7.387870e-01 8.435453e-01 7.263174e-01 6.906162e-01 6.680225e-01 4.775750e-01 5.988488e-01
<GCONST> 1.421283e+02
<TRANSP> 5
 0.000000e+00 1.000000e+00 0.000000e+00 0.000000e+00 0.000000e+00
 0.000000e+00 4.125341e-01 5.874658e-01 0.000000e+00 0.000000e+00
 0.000000e+00 0.000000e+00 3.412309e-01 6.587691e-01 0.000000e+00
 0.000000e+00 0.000000e+00 0.000000e+00 1.465151e-01 8.534849e-01
 0.000000e+00 0.000000e+00 0.000000e+00 0.000000e+00 0.000000e+00
<ENDHMM>
~h "e"
<BEGINHMM>
<NUMSTATES> 5
<STATE> 2
<MEAN> 39
 -3.550310e-01 -1.190486e+01 -7.244058e-01 -6.225829e+00 -1.339594e+01 -4.276646e+00 -5.028712e+00 -4.315839e+00 -5.021049e+00 -7.348689e+00 -5.691245e+00 -4.456140e+00 7.708337e+01 -1.269697e-01 -4.752820e-01 3.743924e-01 -1.616233e-01 3.184891e-02 1.293122e-01 2.240326e-01 3.192905e-01 -2.630075e-01 -1.977928e-02 1.848111e-02 3.765301e-02 3.118614e-01 -1.883329e-01 3.288208e-01 1.168461e-03 1.362804e-01 1.199442e-01 2.168316e-02 5.831582e-02 -8.212842e-02 9.702647e-02 7.548001e-02 1.655963e-02 5.130474e-03 -3.123240e-01
<VARIANCE> 39
 3.922659e+01 7.437905e+01 7.377325e+01 8.693274e+01 7.773102e+01 1.105792e+02 8.988749e+01 6.735143e+01 7.105159e+01 5.448899e+01 4.862248e+01 3.220767e+01 1.626879e+02 1.968341e+00 4.053905e+00 3.322386e+00 2.289634e+00 3.546377e+00 4.618702e+00 2.736634e+00 3.853174e+00 3.552237e+00 2.835012e+00 2.294185e+00 1.906148e+00 3.076873e+00 4.936965e-01 7.674117e-01 5.539639e-01 4.950321e-01 7.755848e-01 7.555852e-01 5.521935e-01 7.220628e-01 7.438757e-01 5.536789e-01 4.767025e-01 4.068995e-01 4.905872e-01
<GCONST> 1.341080e+02
<STATE> 3
<MEAN> 39
 -9.350904e-01 -1.253500e+01 -2.917510e-01 -8.673653e+00 -1.495498e+01 -5.496186e+00 -2.446174e+00 -3.318819e+00 -6.715904e+00 -8.112105e+00 -6.463423e+00 -4.304589e+00 6.981835e+01 -2.169995e-01 8.436092e-01 -2.482771e-01 4.854658e-01 1.425891e-01 -1.214983e-01 -6.751806e-02 6.668193e-02 1.893118e-01 7.227432e-03 7.795326e-03 -9.731794e-03 -7.918615e-01 -5.210530e-02 1.384220e-01 -6.500396e-02 1.064812e-01 8.383276e-02 -4.970355e-03 -5.182166e-02 -3.986972e-02 6.416193e-02 -1.041522e-02 -1.458926e-02 -1.616867e-02 -1.480420e-01
<VARIANCE> 39
 3.843229e+01 8.901350e+01 6.142303e+01 1.127771e+02 6.996056e+01 9.304851e+01 8.142859e+01 5.919325e+01 5.683998e+01 5.273241e+01 5.075306e+01 2.796479e+01 1.236085e+02 1.068929e+00 2.295586e+00 1.468607e+00 1.967998e+00 2.322460e+00 2.572568e+00 1.855376e+00 2.000536e+00 1.893291e+00 1.782463e+00 1.591760e+00 1.368493e+00 1.380388e+00 1.966956e-01 4.388530e-01 2.890679e-01 3.611778e-01 4.192555e-01 4.492733e-01 3.504048e-01 4.212731e-01 3.808969e-01 3.486257e-01 3.425878e-01 2.781897e-01 2.191601e-01
<GCONST> 1.191961e+02
<STATE> 4
<MEAN> 39
 -2.246900e+00 -5.521678e+00 -1.923632e+00 -1.465089e+00 -8.442795e+00 -5.369727e-02 -3.259359e+00 -5.534818e+00 -1.272377e+00 -4.546463e+00 -4.122588e+00 -3.729581e+00 8.717853e+01 -1.976917e-02 3.903277e-02 2.984019e-03 3.391534e-02 1.063935e-02 3.035258e-02 -9.948362e-04 -8.700578e-03 2.546118e-02 6.641944e-03 -2.105660e-03 3.015416e-03 -8.020176e-02 7.643418e-04 -6.701732e-03 7.496763e-03 -1.318646e-03 -9.958493e-03 1.732296e-03 -5.149859e-03 -8.693482e-03 4.709646e-04 -5.768296e-03 -2.207731e-03 4.407616e-03 -1.723124e-04
<VARIANCE> 39
 2.684635e+01 2.686004e+01 3.274333e+01 3.324224e+01 2.933672e+01 5.604639e+01 3.035035e+01 2.767924e+01 3.492258e+01 2.807623e+01 2.757147e+01 2.046414e+01 1.114154e+02 8.809785e-01 1.187845e+00 1.219487e+00 1.362907e+00 1.847756e+00 2.377698e+00 1.577330e+00 1.697320e+00 2.021771e+00 1.715671e+00 1.627536e+00 1.464005e+00 1.926706e+00 1.362376e-01 1.791518e-01 1.893096e-01 2.318317e-01 3.381883e-01 4.010931e-01 2.990112e-01 3.184186e-01 3.737442e-01 3.258431e-01 3.024648e-01 2.759386e-01 2.498009e-01
<GCONST> 1.059476e+02
<TRANSP> 5
 0.000000e+00 1.000000e+00 0.000000e+00 0.000000e+00 0.000000e+00
 0.000000e+00 5.448499e-01 4.551501e-01 0.000000e+00 0.000000e+00
 0.000000e+00 0.000000e+00 6.242245e-01 3.757755e-01 0.000000e+00
 0.000000e+00 0.000000e+00 0.000000e+00 9.598916e-01 4.010846e-02
 0.000000e+00 0.000000e+00 0.000000e+00 0.000000e+00 0.000000e+00
<ENDHMM>
~h "f"
<BEGINHMM>
<NUMSTATES> 5
<STATE> 2
<MEAN> 39
 -9.569450e+00 -6.378835e+00 -1.411848e+00 -3.460785e+00 -7.617050e+00 -7.397377e+00 -6.657538e+00 -4.103859e+00 -4.343010e+00 -5.026912e+00 -3.777219e+00 -4.274070e+00 6.598167e+01 -2.044952e+00 -3.511392e-01 -3.226063e-01 9.517693e-01 9.729791e-01 -2.275958e-01 4.746891e-01 2.958076e-01 5.866745e-01 4.812964e-01 3.220741e-01 3.275217e-01 -7.079062e-01 2.845417e-01 -2.690490e-01 -7.316696e-02 -3.722557e-01 -2.436530e-01 1.103215e-01 -1.426297e-01 -4.732267e-02 1.809975e-02 1.373914e-02 -9.872020e-03 2.252094e-03 2.053090e-01
<VARIANCE> 39
 7.467925e+01 4.224828e+01 4.042840e+01 8.930422e+01 1.008618e+02 6.477005e+01 6.307986e+01 4.213425e+01 4.060753e+01 3.463596e+01 3.098399e+01 2.323894e+01 9.890678e+01 3.620575e+00 2.289556e+00 2.215436e+00 5.766059e+00 3.871697e+00 3.905660e+00 2.877646e+00 2.431807e+00 3.479141e+00 2.843917e+00 3.138012e+00 2.355793e+00 1.201300e+00 7.470562e-01 3.899170e-01 3.887852e-01 8.221692e-01 5.923886e-01 6.262712e-01 5.120882e-01 4.733215e-01 6.956152e-01 5.562789e-01 4.976271e-01 4.259871e-01 1.961898e-01
<GCONST> 1.279056e+02
<STATE> 3
<MEAN> 39
 -1.373220e+01 -8.824844e+00 -3.900815e+00 -1.707441e+00 -4.276020e+00 -6.689139e+00 -5.999599e+00 -2.333645e+00 -2.076057e+00 -1.942840e+00 -1.763172e+00 -2.870673e+00 6.706342e+01 1.090312e+00 -2.199360e-01 1.416936e-01 -3.743235e-01 -8.650853e-01 6.954045e-02 8.864523e-02 -2.162023e-01 -5.325739e-01 -2.255255e-01 1.002289e-03 -6.836848e-02 1.933005e-01 1.079420e+00 3.143767e-01 2.325479e-01 -3.392851e-01 -6.070960e-01 1.586489e-02 -2.210875e-01 -3.556573e-01 -5.325854e-01 -3.632973e-01 -2.348391e-01 -1.682995e-01 3.565661e-01
<VARIANCE> 39
 7.072639e+01 4.725314e+01 4.131005e+01 6.964949e+01 8.280932e+01 8.448029e+01 6.986230e+01 4.963995e+01 3.995668e+01 3.475309e+01 2.845053e+01 2.572190e+01 1.170946e+02 6.711018e+00 3.379349e+00 3.579985e+00 3.331449e+00 4.553950e+00 3.726552e+00 2.592791e+00 3.261691e+00 4.100739e+00 3.026825e+00 2.654600e+00 2.103406e+00 1.474361e+00 6.477147e-01 6.212178e-01 5.759472e-01 7.702202e-01 8.538452e-01 6.838033e-01 6.157681e-01 6.026080e-01 6.718537e-01 6.380390e-01 6.720300e-01 4.388493e-01 2.737752e-01
<GCONST> 1.319323e+02
<STATE> 4
<MEAN> 39
 -6.895683e+00 -1.015103e+01 -2.204391e+00 -6.044139e+00 -1.147596e+01 -4.328876e+00 -3.532927e+00 -5.388156e+00 -5.453804e+00 -7.963910e+00 -6.264165e+00 -3.929435e+00 6.178358e+01 1.615991e+00 8.933129e-02 3.740815e-02 -9.427650e-01 -6.826623e-01 1.439113e-01 -3.029554e-01 -3.435853e-01 -4.721550e-01 -4.199743e-01 -3.835754e-01 -7.263992e-03 8.671910e-01 1.147971e-01 -3.625169e-02 3.104190e-02 -1.572740e-01 2.639093e-02 3.298211e-02 -8.527921e-02 8.983064e-03 6.206860e-02 2.340978e-02 -2.673352e-02 2.699882e-02 1.969948e-01
<VARIANCE> 39
 5.881087e+01 6.029545e+01 5.473013e+01 7.649043e+01 7.999033e+01 4.767672e+01 3.745322e+01 3.350747e+01 3.856120e+01 3.630503e+01 3.298821e+01 2.352024e+01 1.043373e+02 7.773561e+00 5.486122e+00 4.474259e+00 7.494768e+00 6.113209e+00 4.133477e+00 3.246721e+00 2.943103e+00 4.338534e+00 3.701324e+00 3.561723e+00 2.588310e+00 3.903549e+00 9.509157e-01 8.109369e-01 4.725879e-01 1.058653e+00 6.472183e-01 5.987394e-01 5.491683e-01 4.665295e-01 5.995877e-01 5.608320e-01 5.555401e-01 4.579777e-01 4.815329e-01
<GCONST> 1.347774e+02
<TRANSP> 5
 0.000000e+00 1.000000e+00 0.000000e+00 0.000000e+00 0.000000e+00
 0.000000e+00 6.478057e-01 3.521943e-01 0.000000e+00 0.000000e+00
 0.000000e+00 0.000000e+00 5.072753e-01 4.927247e-01 0.000000e+00
 0.000000e+00 0.000000e+00 0.000000e+00 6.584148e-01 3.415852e-01
 0.000000e+00 0.000000e+00 0.000000e+00 0.000000e+00 0.000000e+00
<ENDHMM>
~h "g"
<BEGINHMM>
<NUMSTATES> 5
<STATE> 2
<MEAN> 39
 1.652363e+00 -5.129637e-01 1.637435e-01 -5.772964e+00 -5.818720e+00 -6.846731e+00 -1.180162e+01 -5.200161e+00 -6.976508e+00 -2.544276e+00 -8.526154e-01 -5.991953e+00 6.679848e+01 -1.071260e-01 -7.672986e-01 1.308732e-01 -2.077580e-01 -4.323113e-01 -6.484236e-01 -5.292507e-01 2.510389e-01 -1.536070e-01 -8.012146e-02 9.042425e-01 3.367667e-01 1.108901e+00 1.408637e-01 -3.255073e-01 2.577735e-02 8.466203e-03 -3.781966e-01 -3.064439e-02 -1.684823e-02 -1.441390e-01 2.089017e-01 -8.421858e-02 1.192804e-01 -9.743983e-02 3.217682e-01
<VARIANCE> 39
 5.339412e+01 6.347195e+01 8.354648e+01 9.038416e+01 1.517667e+02 1.250349e+02 1.310603e+02 8.337468e+01 6.227622e+01 8.034213e+01 7.707540e+01 4.800805e+01 1.015298e+02 2.626513e+00 3.829391e+00 6.171096e+00 5.695450e+00 8.990045e+00 8.695894e+00 7.277266e+00 6.445023e+00 6.518624e+00 6.106983e+00 5.504370e+00 4.041229e+00 4.294285e+00 4.950863e-01 6.337095e-01 7.918760e-01 1.184900e+00 1.584591e+00 1.334691e+00 1.247450e+00 1.151546e+00 1.062963e+00 1.115162e+00 1.094518e+00 7.789333e-01 8.368217e-01
<GCONST> 1.512785e+02
<STATE> 3
<MEAN> 39
 2.976498e+00 -8.308030e+00 2.516374e-01 -3.525632e+00 -1.676597e+01 3.811545e-01 -1.869416e+01 -1.123909e+01 -2.673315e+00 -7.216662e+00 -2.228422e+00 -6.310272e+00 7.339686e+01 -1.221779e-02 -5.962636e-01 2.213936e-01 1.756664e-01 -1.640441e-01 -5.085533e-01 5.981773e-03 -1.467551e-02 6.129851e-01 -5.173118e-02 -4.232384e-01 -2.488179e-01 3.548397e-01 -6.273328e-02 6.867082e-02 -1.311540e-01 -2.130285e-01 2.982222e-01 3.220707e-03 1.410745e-01 2.670586e-01 -1.079906e-01 6.738174e-02 -1.941820e-01 -2.482361e-02 -3.503936e-02
<VARIANCE> 39
 4.111939e+01 5.828790e+01 7.863392e+01 8.510165e+01 1.361078e+02 1.988446e+02 1.802828e+02 1.542876e+02 9.081408e+01 7.882356e+01 9.504861e+01 5.018468e+01 8.480710e+01 1.304565e+00 3.157136e+00 4.524062e+00 5.642869e+00 7.439371e+00 5.868294e+00 4.349048e+00 8.062649e+00 6.341328e+00 4.119446e+00 5.181925e+00 3.949131e+00 3.004917e+00 2.409055e-01 4.829738e-01 7.873843e-01 9.085012e-01 1.153406e+00 1.299111e+00 8.707047e-01 1.424303e+00 1.005659e+00 7.956033e-01 1.002327e+00 7.838885e-01 6.073323e-01
<GCONST> 1.470348e+02
<STATE> 4
<MEAN> 39
 -7.221501e-01 -4.509195e+00 5.881834e-01 -2.682263e+00 -9.820225e+00 -7.119960e+00 -8.111347e+00 -4.204793e+00 -4.269831e+00 -5.112201e+00 8.145886e-01 -3.708936e+00 6.785461e+01 -2.108871e-01 -4.876851e-01 -2.433006e-01 -3.569919e-01 2.185170e-01 1.277454e-01 2.828086e-01 5.420533e-01 2.756695e-01 1.227861e-01 -1.353353e-01 9.300605e-02 2.907332e-01 -9.069771e-03 1.207466e-01 -9.704974e-02 -5.526003e-02 2.091563e-01 2.279104e-01 -3.897952e-02 4.548226e-02 -7.487093e-02 4.386430e-02 -1.071620e-01 -1.022585e-02 -1.094560e-01
<VARIANCE> 39
 1.101403e+02 6.428519e+01 7.288314e+01 9.073173e+01 1.158383e+02 2.049047e+02 1.599778e+02 9.496286e+01 8.932848e+01 8.113160e+01 1.321235e+02 6.637234e+01 2.626302e+02 1.261059e+00 2.499843e+00 3.088476e+00 3.551536e+00 4.247462e+00 4.067065e+00 3.417338e+00 5.328645e+00 3.648138e+00 2.942719e+00 3.591214e+00 3.016372e+00 2.433054e+00 2.232483e-01 3.798090e-01 4.380805e-01 5.951233e-01 7.885594e-01 6.673066e-01 5.317101e-01 7.748995e-01 7.967424e-01 5.690789e-01 6.913830e-01 5.356804e-01 4.530424e-01
<GCONST> 1.396035e+02
<TRANSP> 5
 0.000000e+00 1.000000e+00 0.000000e+00 0.000000e+00 0.000000e+00
 0.000000e+00 6.391345e-01 3.608655e-01 0.000000e+00 0.000000e+00
 0.000000e+00 0.000000e+00 5.751840e-01 4.248160e-01 0.000000e+00
 0.000000e+00 0.000000e+00 0.000000e+00 3.715931e-01 6.284068e-01
 0.000000e+00 0.000000e+00 0.000000e+00 0.000000e+00 0.000000e+00
<ENDHMM>
~h "h"
<BEGINHMM>
<NUMSTATES> 5
<STATE> 2
<MEAN> 39
 -7.503233e-01 -1.174143e+01 -3.555525e+00 -8.001709e+00 -3.891989e+00 -3.290566e+00 -3.944466e+00 -5.841403e+00 -5.473042e+00 -9.294483e+00 -7.405731e+00 -3.532305e+00 7.115627e+01 -5.397288e-01 2.102268e-01 2.159345e-01 2.300510e-01 4.162893e-01 1.274592e-01 3.494236e-01 -2.775067e-01 -2.588601e-01 -1.974232e-01 7.486264e-02 4.808904e-02 -4.440373e-01 9.986923e-03 3.061071e-02 -5.432854e-02 -9.177722e-03 -1.862129e-01 -2.523424e-02 -1.084472e-01 8.792401e-02 8.516006e-02 1.081559e-01 7.771756e-02 -1.291398e-02 -4.999109e-02
<VARIANCE> 39
 5.335066e+01 1.198658e+02 6.034242e+01 9.850114e+01 1.132004e+02 7.655969e+01 1.145970e+02 7.228866e+01 8.236412e+01 9.459258e+01 6.555286e+01 4.843232e+01 1.021185e+02 1.316187e+00 2.474245e+00 2.499332e+00 2.453391e+00 3.494116e+00 3.123147e+00 2.957604e+00 3.304038e+00 3.110064e+00 2.705706e+00 2.610051e+00 2.525527e+00 1.204030e+00 1.825760e-01 3.792712e-01 3.506840e-01 4.247496e-01 4.955766e-01 4.894408e-01 4.799943e-01 5.479370e-01 4.593445e-01 4.577114e-01 4.555428e-01 4.342373e-01 1.519398e-01
<GCONST> 1.283444e+02
<STATE> 3
<MEAN> 39
 -2.234167e+00 -9.703872e+00 -4.173696e+00 -7.748163e+00 -1.970276e+00 -4.533723e+00 -3.588084e+00 -6.680635e+00 -5.805416e+00 -9.254799e+00 -8.102512e+00 -4.817641e+00 6.879413e+01 -4.207487e-01 4.409286e-01 -8.537643e-02 2.194420e-01 -1.613479e-01 1.885291e-01 8.995707e-02 1.797149e-01 2.372358e-01 3.015527e-01 2.254145e-01 1.287474e-01 -7.430251e-01 8.846019e-02 -1.902083e-02 -8.498079e-02 -5.852775e-02 -1.955577e-01 -3.101750e-02 -9.496921e-02 9.002648e-02 5.348025e-02 1.042488e-01 7.373466e-02 4.815742e-02 1.139573e-02
<VARIANCE> 39
 5.950488e+01 9.239314e+01 6.294486e+01 9.218803e+01 1.347112e+02 8.419483e+01 1.167187e+02 8.121402e+01 1.004402e+02 9.002516e+01 7.187155e+01 4.448628e+01 1.134184e+02 1.109006e+00 1.820733e+00 1.861792e+00 2.096875e+00 2.675709e+00 2.430272e+00 2.669441e+00 2.770232e+00 2.474017e+00 2.688154e+00 2.529293e+00 2.213391e+00 1.135155e+00 1.653243e-01 3.004351e-01 3.002057e-01 3.726682e-01 4.664214e-01 4.610500e-01 4.883339e-01 5.258087e-01 5.275251e-01 4.958972e-01 4.951040e-01 4.230215e-01 1.300437e-01
<GCONST> 1.260076e+02
<STATE> 4
<MEAN> 39
 -8.303367e+00 -3.513921e+00 -6.243690e+00 -2.429642e+00 -1.775745e+00 -1.540890e+00 -1.860306e+00 -1.475720e+00 -2.868217e+00 -4.206475e+00 -3.087530e+00 -7.358849e-03 5.454857e+01 -1.934284e-01 1.054020e-01 3.777582e-02 1.200508e-01 -1.717157e-01 5.928583e-02 -5.255004e-02 1.056869e-01 -1.184938e-02 1.050524e-01 1.647789e-01 6.184746e-02 -3.261277e-01 2.951310e-02 -7.735773e-03 1.392124e-02 -1.251589e-02 -1.272001e-02 -2.729144e-02 -2.241277e-02 -1.164656e-02 -2.253803e-02 -1.991727e-02 -1.948225e-02 -1.984420e-02 3.746149e-02
<VARIANCE> 39
 8.829839e+01 5.982696e+01 4.994206e+01 7.258820e+01 9.105746e+01 7.161523e+01 7.762695e+01 8.289284e+01 6.205714e+01 6.543842e+01 1.132989e+02 5.262199e+01 1.622171e+02 4.534341e-01 7.382536e-01 9.296962e-01 1.044813e+00 1.452729e+00 1.620534e+00 1.627817e+00 1.687312e+00 1.883753e+00 1.757519e+00 1.806472e+00 1.496028e+00 4.428695e-01 6.206996e-02 1.055944e-01 1.372323e-01 1.713285e-01 2.340582e-01 2.657361e-01 2.776753e-01 2.950085e-01 3.311834e-01 3.184928e-01 3.010353e-01 2.618881e-01 4.342602e-02
<GCONST> 1.082249e+02
<TRANSP> 5
 0.000000e+00 1.000000e+00 0.000000e+00 0.000000e+00 0.000000e+00
 0.000000e+00 3.548939e-01 6.451061e-01 0.000000e+00 0.000000e+00
 0.000000e+00 0.000000e+00 4.037394e-01 5.962607e-01 0.000000e+00
 0.000000e+00 0.000000e+00 0.000000e+00 8.836214e-01 1.163786e-01
 0.000000e+00 0.000000e+00 0.000000e+00 0.000000e+00 0.000000e+00
<ENDHMM>
~h "i"
<BEGINHMM>
<NUMSTATES> 5
<STATE> 2
<MEAN> 39
 -9.741445e-01 -4.513200e+00 7.276047e+00 -7.548569e+00 -1.424174e+01 -8.800450e+00 -8.749523e+00 -7.870071e+00 -6.214953e+00 -5.847632e+00 -2.274530e+00 -4.284418e+00 7.115344e+01 3.819180e-01 -1.033695e-01 1.138066e+00 -7.459197e-01 -9.206222e-01 -1.370042e-01 -4.338048e-01 -4.718190e-01 5.456034e-03 -1.348461e-01 -6.376916e-02 9.618136e-02 7.453330e-01 -2.037955e-01 2.115228e-01 -4.530496e-01 2.246038e-01 5.200275e-01 1.522487e-01 2.347037e-01 1.888383e-01 2.114987e-01 3.347986e-02 -1.402022e-01 1.629474e-02 -4.096780e-01
<VARIANCE> 39
 3.862089e+01 7.016848e+01 1.075142e+02 1.537343e+02 1.364638e+02 1.304474e+02 1.302765e+02 7.076559e+01 7.818899e+01 5.425135e+01 9.153963e+01 3.808262e+01 1.010158e+02 3.737068e+00 3.124595e+00 4.908981e+00 7.012646e+00 6.963191e+00 6.220289e+00 5.428696e+00 4.859171e+00 4.555048e+00 3.532196e+00 4.288093e+00 3.120238e+00 2.945483e+00 6.090328e-01 5.500496e-01 7.928223e-01 1.083867e+00 1.254622e+00 1.039788e+00 8.857067e-01 8.228444e-01 8.214731e-01 6.456222e-01 7.873068e-01 5.062529e-01 5.381334e-01
<GCONST> 1.453555e+02
<STATE> 3
<MEAN> 39
 -8.393248e-01 -5.169750e+00 7.025315e+00 -9.843390e+00 -1.589667e+01 -7.556216e+00 -9.559454e+00 -8.004004e+00 -5.149199e+00 -6.330302e+00 -4.949204e+00 -3.883208e+00 7.101347e+01 -1.375999e-01 7.777362e-01 -3.726248e-01 7.753482e-01 6.800865e-01 1.255801e-01 3.421634e-01 -2.763874e-02 1.540498e-01 1.535980e-02 -2.105879e-01 3.031674e-03 -9.185787e-01 -1.831685e-01 1.258036e-01 -3.589719e-01 3.589036e-01 3.739766e-01 8.011438e-02 2.170816e-01 1.242925e-01 8.961851e-03 1.554462e-02 3.600283e-02 -7.702272e-02 -3.543086e-01
<VARIANCE> 39
 2.843098e+01 5.131367e+01 8.019967e+01 1.821723e+02 1.172841e+02 1.110959e+02 1.374284e+02 6.321223e+01 6.509414e+01 4.557926e+01 9.628207e+01 3.845409e+01 8.892587e+01 1.727653e+00 2.219205e+00 2.318426e+00 4.731832e+00 3.433638e+00 3.501050e+00 3.386223e+00 3.133116e+00 2.836277e+00 2.623684e+00 3.077507e+00 2.214778e+00 2.217584e+00 3.425783e-01 3.941298e-01 4.654856e-01 9.067470e-01 7.909912e-01 7.017583e-01 7.414470e-01 5.935777e-01 5.863052e-01 5.520699e-01 6.401550e-01 4.843544e-01 2.886726e-01
<GCONST> 1.332911e+02
<STATE> 4
<MEAN> 39
 -3.035309e+00 7.619047e-01 5.654122e+00 -6.380380e+00 -1.014374e+01 -8.460402e+00 -6.948040e+00 -9.018646e+00 -5.677224e+00 -6.274592e+00 -4.979909e+00 -3.073323e+00 6.300331e+01 -2.722173e-01 2.347279e-01 -5.226836e-01 5.071939e-01 3.911938e-01 3.450269e-01 1.295571e-01 1.838666e-01 2.515119e-02 1.634924e-02 -9.687672e-02 -1.072284e-02 -7.628966e-01 -2.521138e-02 -9.809850e-02 -7.336377e-02 -4.584160e-02 8.223196e-03 1.360474e-02 2.911752e-02 4.644936e-02 -1.215119e-02 2.247808e-02 3.551832e-02 -6.190692e-03 5.559532e-02
<VARIANCE> 39
 5.377912e+01 8.360177e+01 9.370313e+01 2.031439e+02 9.093935e+01 9.348944e+01 8.573351e+01 9.152210e+01 5.946945e+01 5.135474e+01 7.645457e+01 4.113599e+01 1.613604e+02 1.037157e+00 1.473795e+00 1.634506e+00 2.490471e+00 2.376204e+00 2.387256e+00 2.432411e+00 2.292591e+00 2.198966e+00 2.034251e+00 2.228190e+00 1.684781e+00 1.178977e+00 1.418086e-01 2.123649e-01 2.379345e-01 3.795546e-01 3.586759e-01 3.752548e-01 3.779079e-01 3.927919e-01 3.686832e-01 3.608789e-01 3.467831e-01 2.885918e-01 1.489864e-01
<GCONST> 1.213444e+02
<TRANSP> 5
 0.000000e+00 1.000000e+00 0.000000e+00 0.000000e+00 0.000000e+00
 0.000000e+00 5.094343e-01 4.905657e-01 0.000000e+00 0.000000e+00
 0.000000e+00 0.000000e+00 4.670640e-01 5.329361e-01 0.000000e+00
 0.000000e+00 0.000000e+00 0.000000e+00 7.317780e-01 2.682220e-01
 0.000000e+00 0.000000e+00 0.000000e+00 0.000000e+00 0.000000e+00
<ENDHMM>
~h "j"
<BEGINHMM>
<NUMSTATES> 5
<STATE> 2
<MEAN> 39
 -6.505949e+00 2.569663e+00 3.230418e+00 -6.583838e+00 -3.226321e+00 -7.368560e+00 -6.609237e+00 -5.076542e+00 -3.472441e+00 -5.654488e+00 -5.303572e+00 -3.973220e+00 6.393095e+01 -1.069086e+00 -3.563799e-02 1.130320e+00 -1.232165e+00 -2.599617e-01 -9.288092e-01 -1.721457e-01 -3.043318e-01 8.274227e-03 1.044159e-01 5.904835e-01 4.009078e-01 1.376460e+00 5.085984e-01 -5.786659e-01 -6.452814e-03 -6.322342e-02 -7.389535e-01 -2.764781e-01 -2.036194e-01 -5.264299e-02 -4.768830e-02 -5.242506e-02 1.557336e-01 1.148708e-01 4.943068e-01
<VARIANCE> 39
 8.807276e+01 5.655744e+01 7.263757e+01 1.332661e+02 1.133041e+02 8.023299e+01 8.042474e+01 4.421659e+01 4.705382e+01 3.923605e+01 5.375682e+01 3.008953e+01 1.047094e+02 9.510002e+00 4.469545e+00 4.518589e+00 8.649673e+00 1.062078e+01 5.790681e+00 3.721766e+00 4.277572e+00 3.783303e+00 3.209506e+00 4.112274e+00 2.740208e+00 4.021197e+00 1.933215e+00 8.133802e-01 8.773515e-01 1.878497e+00 1.737271e+00 8.929455e-01 7.003767e-01 8.182420e-01 7.110114e-01 6.052096e-01 6.722661e-01 5.161686e-01 5.429997e-01
<GCONST> 1.451552e+02
<STATE> 3
<MEAN> 39
 -2.382155e+00 -4.393281e+00 7.385663e+00 -6.215117e+00 -1.380936e+01 -1.090616e+01 -8.783695e+00 -6.900080e+00 -4.173758e+00 -6.099168e+00 -2.381724e+00 -1.382814e+00 7.382864e+01 1.858878e+00 -2.150208e+00 -2.590526e-01 -4.665697e-02 -2.032083e+00 -8.627727e-01 -5.601636e-01 3.277392e-01 7.917908e-02 3.178247e-02 2.742181e-01 6.759648e-02 1.488766e+00 -4.838409e-02 1.243104e-01 -6.761557e-01 4.730821e-02 8.321446e-01 3.639110e-01 1.923803e-01 3.903765e-01 1.068293e-01 -1.588691e-02 -2.908929e-01 -3.326504e-01 -4.151236e-01
<VARIANCE> 39
 3.404110e+01 6.045771e+01 8.021636e+01 1.457648e+02 9.313907e+01 1.350288e+02 8.768423e+01 5.201744e+01 5.305370e+01 4.309270e+01 6.363715e+01 2.916780e+01 9.278653e+01 5.389726e+00 5.855066e+00 6.213586e+00 5.808537e+00 8.684978e+00 6.199474e+00 4.724136e+00 4.970608e+00 4.096168e+00 3.001772e+00 3.330088e+00 3.008387e+00 2.947312e+00 9.512704e-01 7.648119e-01 7.243463e-01 8.266768e-01 1.144171e+00 1.079962e+00 7.179243e-01 7.055843e-01 7.210252e-01 5.877116e-01 6.690956e-01 4.988056e-01 5.548450e-01
<GCONST> 1.425598e+02
<STATE> 4
<MEAN> 39
 -3.959511e-01 -6.615601e+00 3.693899e+00 -6.408431e+00 -1.348994e+01 -9.304235e+00 -8.534401e+00 -4.997656e+00 -3.562479e+00 -6.493323e+00 -5.137848e+00 -3.379894e+00 7.218255e+01 2.249871e-01 -2.935393e-01 -7.659694e-01 1.445077e-02 5.258915e-01 2.235445e-01 1.353654e-01 3.949158e-01 1.121482e-02 6.234543e-02 -2.484220e-01 -3.244616e-01 -2.122243e-02 -2.482092e-01 2.949380e-01 -8.402115e-02 1.023015e-01 4.051298e-01 2.348540e-01 6.329605e-02 -7.361627e-02 -5.025427e-02 -1.935271e-02 -4.163263e-02 -9.954895e-02 -2.785634e-01
<VARIANCE> 39
 2.537263e+01 7.235294e+01 6.426620e+01 1.334624e+02 8.337610e+01 8.254641e+01 8.529990e+01 6.296220e+01 5.003535e+01 4.090107e+01 6.079214e+01 2.795527e+01 1.241663e+02 2.532748e+00 3.873914e+00 3.416436e+00 3.224886e+00 4.353343e+00 3.310148e+00 3.465846e+00 3.824574e+00 2.988448e+00 2.648928e+00 2.528029e+00 2.263498e+00 2.916001e+00 4.509961e-01 7.648079e-01 5.039732e-01 7.750469e-01 9.664430e-01 7.702457e-01 7.048033e-01 6.142558e-01 5.126044e-01 5.359242e-01 4.763627e-01 4.312268e-01 5.644361e-01
<GCONST> 1.337937e+02
<TRANSP> 5
 0.000000e+00 1.000000e+00 0.000000e+00 0.000000e+00 0.000000e+00
 0.000000e+00 6.897927e-01 3.102073e-01 0.000000e+00 0.000000e+00
 0.000000e+00 0.000000e+00 4.858965e-01 5.141035e-01 0.000000e+00
 0.000000e+00 0.000000e+00 0.000000e+00 5.383822e-01 4.616177e-01
 0.000000e+00 0.000000e+00 0.000000e+00 0.000000e+00 0.000000e+00
<ENDHMM>
~h "k"
<BEGINHMM>
<NUMSTATES> 5
<STATE> 2
<MEAN> 39
 -6.213599e+00 -3.236132e+00 -4.506571e+00 -4.459471e+00 -3.851835e+00 -4.064202e+00 -7.884641e+00 -3.476178e+00 -4.267185e+00 -3.066373e+00 -3.144510e+00 -4.145428e+00 6.006694e+01 -9.632286e-01 -1.005742e+00 -9.501257e-01 -8.811176e-01 1.279251e+00 -5.435823e-01 -1.004180e-01 7.039715e-01 6.058189e-02 7.321521e-01 3.172704e-01 8.470992e-02 7.632622e-01 4.406122e-01 -3.661607e-01 -5.934419e-02 -4.287900e-01 -1.951305e-01 -2.087849e-01 -2.320323e-02 6.865960e-02 -4.273701e-02 -1.069956e-01 -4.290379e-02 -8.523063e-02 8.427442e-01
<VARIANCE> 39
 5.940383e+01 5.885521e+01 6.265662e+01 8.371917e+01 1.153663e+02 8.514716e+01 1.002711e+02 7.819972e+01 5.740846e+01 5.511729e+01 4.756852e+01 4.481938e+01 1.260255e+02 4.085720e+00 4.871782e+00 5.078717e+00 5.652744e+00 9.159193e+00 5.454816e+00 5.155378e+00 5.372437e+00 5.141776e+00 4.395240e+00 4.163636e+00 3.737023e+00 5.074701e+00 7.255120e-01 7.739797e-01 7.514653e-01 8.765228e-01 1.557340e+00 9.451727e-01 8.529781e-01 9.470388e-01 1.033586e+00 8.490409e-01 7.775673e-01 6.497502e-01 6.152498e-01
<GCONST> 1.460695e+02
<STATE> 3
<MEAN> 39
 -5.353060e+00 -7.686211e+00 -8.119406e+00 -9.660856e+00 -1.589620e-01 -7.442063e+00 -7.754155e+00 -9.397072e-01 -3.383533e+00 -4.726346e-01 -2.234100e+00 -5.287843e+00 6.766952e+01 1.506901e+00 -8.449826e-01 1.061924e-02 -6.807947e-01 -1.033861e+00 -6.122120e-01 4.168031e-01 -1.614297e-02 1.303860e-01 -5.406972e-01 -2.488536e-01 -3.219965e-01 2.086370e+00 5.869853e-01 1.619418e-01 4.128505e-01 2.984009e-01 -6.430895e-01 2.680669e-01 5.007061e-02 -3.432816e-01 -1.280289e-01 -4.862419e-01 -1.838108e-01 -4.301148e-02 -7.899918e-02
<VARIANCE> 39
 7.678015e+01 7.471322e+01 9.224136e+01 1.292067e+02 1.961317e+02 1.172181e+02 1.257416e+02 8.766860e+01 6.407726e+01 8.512209e+01 6.077161e+01 6.547028e+01 1.048355e+02 5.830758e+00 5.286452e+00 5.187819e+00 5.348678e+00 8.766192e+00 6.282813e+00 6.361721e+00 6.172616e+00 6.440406e+00 6.132339e+00 5.360443e+00 3.897985e+00 4.813996e+00 1.048867e+00 1.018821e+00 9.863248e-01 1.041965e+00 2.038183e+00 1.180182e+00 1.320303e+00 1.177976e+00 1.127725e+00 1.161984e+00 1.002290e+00 8.309354e-01 6.647437e-01
<GCONST> 1.544235e+02
<STATE> 4
<MEAN> 39
 -6.079336e-01 -8.796539e+00 -5.545530e+00 -7.504031e+00 -6.656025e+00 -6.737997e+00 -6.599231e+00 -2.279933e+00 -4.436426e+00 -5.085018e+00 -4.196975e+00 -4.932377e+00 7.117211e+01 1.503910e+00 -5.819042e-01 3.955247e-01 -3.075461e-01 -1.052108e+00 1.826667e-01 -4.433999e-02 -4.004015e-01 -4.997013e-01 -9.565511e-01 -3.997018e-01 -1.893711e-01 1.185839e+00 -2.333595e-01 2.017668e-01 7.761052e-02 1.902409e-01 2.255764e-01 1.845186e-01 -1.288511e-01 -3.780729e-02 -1.953447e-02 1.385045e-01 -6.881535e-03 6.164830e-02 -4.106895e-01
<VARIANCE> 39
 5.056892e+01 8.234756e+01 7.024268e+01 1.059955e+02 9.931650e+01 9.725690e+01 9.951041e+01 7.944183e+01 6.431770e+01 6.983644e+01 5.374516e+01 4.401917e+01 1.241870e+02 5.197821e+00 5.516499e+00 4.375062e+00 4.994740e+00 6.666474e+00 6.509505e+00 5.034954e+00 4.946840e+00 5.348546e+00 4.956329e+00 4.650233e+00 3.494224e+00 3.881649e+00 6.330308e-01 7.813059e-01 5.659478e-01 7.084250e-01 9.064600e-01 8.381277e-01 8.353291e-01 8.451697e-01 8.025881e-01 8.139149e-01 7.457203e-01 5.195881e-01 6.988959e-01
<GCONST> 1.449529e+02
<TRANSP> 5
 0.000000e+00 1.000000e+00 0.000000e+00 0.000000e+00 0.000000e+00
 0.000000e+00 5.720364e-01 4.279636e-01 0.000000e+00 0.000000e+00
 0.000000e+00 0.000000e+00 4.491991e-01 5.508009e-01 0.000000e+00
 0.000000e+00 0.000000e+00 0.000000e+00 2.463004e-01 7.536996e-01
 0.000000e+00 0.000000e+00 0.000000e+00 0.000000e+00 0.000000e+00
<ENDHMM>
~h "l"
<BEGINHMM>
<NUMSTATES> 5
<STATE> 2
<MEAN> 39
 4.819781e+00 -7.389352e+00 -6.594402e+00 -9.284208e+00 -4.657257e+00 -8.122241e+00 -4.563640e+00 -9.090371e+00 8.770146e-01 -2.969958e-01 -7.554036e+00 -5.370451e+00 7.330124e+01 2.485829e-02 -1.408255e-01 -1.253559e-01 6.651363e-02 6.514643e-02 -6.288214e-02 2.668775e-01 -1.480875e-01 1.945412e-01 2.541736e-02 -3.408509e-01 9.194698e-02 -8.977301e-03 -9.073018e-02 1.348034e-01 9.058095e-02 -4.793372e-02 1.161412e-02 8.955026e-02 -1.546482e-02 1.301386e-01 -1.266407e-01 -1.226713e-01 7.976484e-02 4.037257e-02 -8.892923e-02
<VARIANCE> 39
 4.314755e+01 8.047221e+01 7.413964e+01 9.065044e+01 1.783379e+02 1.299812e+02 1.836355e+02 1.385011e+02 8.418973e+01 1.496664e+02 8.930497e+01 4.292732e+01 8.607719e+01 8.223417e-01 2.167686e+00 2.564788e+00 2.755661e+00 3.968050e+00 3.592337e+00 4.949523e+00 5.313278e+00 3.103639e+00 4.408507e+00 3.876137e+00 2.281528e+00 1.124681e+00 1.613567e-01 3.632498e-01 3.548866e-01 4.702256e-01 6.285921e-01 5.923048e-01 9.248298e-01 9.277597e-01 5.793583e-01 6.816232e-01 6.864436e-01 4.138946e-01 2.018971e-01
<GCONST> 1.348034e+02
<STATE> 3
<MEAN> 39
 4.315554e+00 -6.989241e+00 -6.933547e+00 -8.659774e+00 -4.978760e+00 -6.395436e+00 -3.880559e+00 -9.183060e+00 1.152981e-01 -3.225410e+00 -8.647728e+00 -5.055805e+00 7.237772e+01 -1.664367e-01 4.877880e-01 2.458934e-01 1.679785e-01 -1.676534e-01 3.115588e-01 -2.246439e-01 2.972829e-01 -2.893630e-01 -1.582254e-01 7.277751e-02 8.656169e-02 -5.729663e-01 -7.211303e-02 7.373968e-02 4.449738e-02 -4.940590e-02 4.324063e-02 6.775459e-02 -3.494100e-02 1.266952e-01 -6.827060e-02 -3.072717e-02 3.813985e-02 -2.150422e-02 -6.566992e-02
<VARIANCE> 39
 4.298867e+01 9.081682e+01 6.590785e+01 8.056670e+01 1.967625e+02 1.228895e+02 1.884393e+02 1.428023e+02 8.010912e+01 1.106500e+02 1.144498e+02 4.096988e+01 1.025182e+02 6.135477e-01 1.634795e+00 1.694677e+00 2.322892e+00 2.816795e+00 2.374233e+00 2.728354e+00 3.285980e+00 2.629186e+00 2.626089e+00 2.600364e+00 1.751451e+00 1.132676e+00 1.049047e-01 2.500073e-01 2.334078e-01 3.384149e-01 4.889776e-01 4.523514e-01 4.664538e-01 6.496992e-01 4.652289e-01 4.952953e-01 4.663988e-01 3.331148e-01 1.300306e-01
<GCONST> 1.257787e+02
<STATE> 4
<MEAN> 39
 -3.731344e+00 -3.764007e+00 -6.455133e+00 -3.045074e+00 -5.324480e+00 -3.712471e+00 -4.870100e+00 -1.677328e+00 -4.210977e+00 -5.135514e+00 -3.893515e+00 -2.090906e+00 6.086093e+01 -2.172631e-01 9.407236e-02 1.084949e-01 8.205081e-02 -3.884605e-02 1.382567e-01 -5.793876e-02 9.572855e-02 -3.606885e-02 -2.760451e-02 6.987236e-02 4.092931e-02 -3.078009e-01 -1.356704e-03 -3.593926e-03 1.234586e-02 5.611193e-04 1.549333e-02 -4.410284e-03 6.095390e-05 -2.770800e-02 -1.615664e-02 -2.747878e-03 -4.071007e-03 -4.365305e-03 5.626253e-03
<VARIANCE> 39
 7.661271e+01 9.323660e+01 5.156226e+01 6.410005e+01 7.000198e+01 7.063123e+01 6.287654e+01 7.321865e+01 6.228107e+01 6.008069e+01 6.084470e+01 4.001798e+01 2.602773e+02 4.579252e-01 7.114376e-01 9.108183e-01 1.139147e+00 1.495315e+00 1.639110e+00 1.620174e+00 1.830789e+00 1.844882e+00 1.709172e+00 1.752092e+00 1.429707e+00 4.433681e-01 5.199998e-02 1.103307e-01 1.268420e-01 1.838731e-01 2.335086e-01 2.663329e-01 2.710789e-01 2.997445e-01 3.150894e-01 2.985007e-01 2.974856e-01 2.642495e-01 4.721476e-02
<GCONST> 1.071672e+02
<TRANSP> 5
 0.000000e+00 1.000000e+00 0.000000e+00 0.000000e+00 0.000000e+00
 0.000000e+00 4.778593e-01 5.221407e-01 0.000000e+00 0.000000e+00
 0.000000e+00 0.000000e+00 4.338760e-01 5.661240e-01 0.000000e+00
 0.000000e+00 0.000000e+00 0.000000e+00 8.580119e-01 1.419881e-01
 0.000000e+00 0.000000e+00 0.000000e+00 0.000000e+00 0.000000e+00
<ENDHMM>
~h "m"
<BEGINHMM>
<NUMSTATES> 5
<STATE> 2
<MEAN> 39
 4.799406e+00 -4.299088e+00 -2.865369e+00 -4.873780e+00 -9.457097e+00 -1.074579e+00 -8.589618e+00 -8.914571e+00 -6.846904e+00 -7.277055e+00 -3.915491e+00 -5.067789e+00 6.915614e+01 2.244247e-01 6.413648e-01 7.681905e-02 6.065069e-01 -1.180746e-01 6.204102e-01 3.725215e-01 -8.203010e-01 -4.750861e-01 -4.638834e-01 -3.787298e-01 -2.662127e-01 -4.864802e-01 -1.342052e-01 -2.364607e-01 -9.580201e-02 -1.907094e-01 1.387094e-01 -5.470319e-02 8.862380e-03 1.960329e-01 2.040773e-01 7.242838e-02 -1.137094e-01 -4.639725e-02 1.999716e-01
<VARIANCE> 39
 3.753498e+01 8.864742e+01 5.594638e+01 9.646390e+01 1.085802e+02 9.144446e+01 1.234030e+02 9.631232e+01 5.800966e+01 5.720207e+01 5.291412e+01 3.154325e+01 1.111173e+02 9.737425e-01 2.258036e+00 4.182893e+00 5.128162e+00 3.224062e+00 3.780560e+00 2.913629e+00 3.844923e+00 3.377881e+00 2.715185e+00 3.094632e+00 2.262055e+00 1.583169e+00 1.742858e-01 3.658017e-01 4.877372e-01 7.142646e-01 4.773397e-01 5.594317e-01 5.003760e-01 6.819347e-01 5.868821e-01 4.727604e-01 5.570617e-01 3.614536e-01 2.417898e-01
<GCONST> 1.300893e+02
<STATE> 3
<MEAN> 39
 4.873521e+00 -4.224924e+00 -4.126701e+00 -5.091037e+00 -9.015806e+00 3.292262e-01 -7.190615e+00 -9.937605e+00 -6.579399e+00 -8.283873e+00 -5.871861e+00 -5.879176e+00 6.941461e+01 -7.325970e-02 5.693517e-02 -1.579900e-01 5.253152e-02 3.080462e-01 5.848242e-02 1.940239e-01 -2.425868e-02 3.407496e-01 -6.070699e-02 -5.650140e-01 -2.966434e-01 2.830006e-02 -1.470396e-01 -1.840977e-01 -2.782086e-02 -1.699709e-01 1.178862e-01 -2.456907e-01 -1.122029e-01 3.245431e-01 1.805513e-01 1.777527e-01 1.215641e-01 1.291939e-01 1.563973e-01
<VARIANCE> 39
 4.350937e+01 7.562814e+01 6.330250e+01 1.023915e+02 1.464290e+02 1.058758e+02 1.239510e+02 1.008218e+02 6.356948e+01 6.893103e+01 5.415000e+01 3.300457e+01 1.159639e+02 9.243547e-01 2.326909e+00 2.921129e+00 3.515088e+00 3.111641e+00 3.167074e+00 2.475580e+00 2.817765e+00 4.007642e+00 2.612294e+00 4.012984e+00 2.052055e+00 1.626281e+00 1.693486e-01 3.868065e-01 5.944071e-01 7.501970e-01 5.770227e-01 6.558853e-01 4.646801e-01 5.806973e-01 5.818534e-01 5.293131e-01 5.571260e-01 3.841710e-01 2.362706e-01
<GCONST> 1.305532e+02
<STATE> 4
<MEAN> 39
 3.653868e+00 -2.151036e-01 -3.869696e+00 -3.665235e+00 -6.630767e+00 -2.767442e+00 -4.776036e+00 -6.754904e+00 -6.769747e+00 -8.110179e+00 -7.914808e+00 -6.674235e+00 6.417963e+01 -2.805360e-01 -2.117149e-02 5.683980e-02 9.866969e-02 8.117190e-02 -1.239282e-02 -7.040232e-02 2.641153e-01 9.892625e-02 8.387389e-02 4.948241e-02 9.550976e-02 -1.745239e-01 -5.478738e-02 -1.791553e-01 -5.752284e-02 -1.486012e-01 5.352682e-02 -3.589018e-02 -6.860083e-02 1.219089e-01 6.281200e-02 1.229999e-02 1.009842e-01 9.049795e-02 1.178471e-01
<VARIANCE> 39
 4.966008e+01 8.390913e+01 4.268298e+01 9.717379e+01 1.326023e+02 7.115246e+01 8.271784e+01 7.130016e+01 6.306301e+01 5.252164e+01 6.062479e+01 3.062683e+01 1.309637e+02 7.643558e-01 1.658761e+00 1.701060e+00 2.359895e+00 2.161000e+00 2.178072e+00 1.861162e+00 2.274233e+00 2.203632e+00 1.960913e+00 2.030677e+00 1.519336e+00 1.038482e+00 1.196302e-01 2.603728e-01 3.101210e-01 3.979616e-01 4.290200e-01 3.843657e-01 3.485720e-01 4.156075e-01 4.187756e-01 3.503226e-01 3.650698e-01 2.856444e-01 1.425962e-01
<GCONST> 1.185076e+02
<TRANSP> 5
 0.000000e+00 1.000000e+00 0.000000e+00 0.000000e+00 0.000000e+00
 0.000000e+00 3.424508e-01 6.575491e-01 0.000000e+00 0.000000e+00
 0.000000e+00 0.000000e+00 2.513715e-01 7.486286e-01 0.000000e+00
 0.000000e+00 0.000000e+00 0.000000e+00 6.800390e-01 3.199609e-01
 0.000000e+00 0.000000e+00 0.000000e+00 0.000000e+00 0.000000e+00
<ENDHMM>
~h "n"
<BEGINHMM>
<NUMSTATES> 5
<STATE> 2
<MEAN> 39
 2.679200e+00 -7.595433e+00 -1.753471e+00 -3.762378e+00 -1.083270e+01 -5.593765e+00 -1.080981e+01 -5.035421e+00 -4.999512e+00 -7.198299e+00 -8.063486e+00 -5.823473e+00 7.029602e+01 2.326135e-01 1.466374e+00 5.628619e-01 1.256855e+00 -3.421642e-01 4.215652e-02 1.237003e-01 -1.285485e+00 5.868828e-02 -2.056701e-01 -3.849030e-01 -8.539423e-02 -1.338207e+00 -1.280467e-01 -8.795989e-02 -3.198151e-02 -1.181797e-01 1.317707e-01 1.129013e-01 1.200420e-01 6.663497e-02 1.946199e-02 2.940821e-02 1.069516e-01 7.490197e-02 6.229354e-02
<VARIANCE> 39
 3.380642e+01 7.017222e+01 4.478523e+01 7.562210e+01 1.171147e+02 6.385706e+01 1.221130e+02 8.938065e+01 5.268362e+01 6.413840e+01 4.963657e+01 3.148612e+01 1.173241e+02 9.534451e-01 2.228615e+00 2.346810e+00 2.536727e+00 3.477001e+00 2.866637e+00 2.842098e+00 5.905061e+00 2.746858e+00 2.237293e+00 2.566625e+00 1.947683e+00 1.353491e+00 1.499773e-01 3.842603e-01 3.173232e-01 4.322006e-01 5.578538e-01 4.479083e-01 4.546416e-01 7.954950e-01 4.661790e-01 3.969249e-01 4.257622e-01 3.167787e-01 2.285832e-01
<GCONST> 1.250129e+02
<STATE> 3
<MEAN> 39
 2.490097e+00 -4.349192e+00 -8.058038e-01 -1.217626e+00 -1.054686e+01 -5.287989e+00 -9.685772e+00 -7.609126e+00 -5.042311e+00 -7.346696e+00 -8.524150e+00 -5.628878e+00 6.733378e+01 -2.913703e-01 7.618930e-01 2.094728e-01 5.192276e-01 3.623446e-01 3.256364e-01 2.289441e-01 -2.588888e-01 -1.862537e-02 2.741559e-02 1.137109e-02 3.056260e-02 -8.673433e-01 -2.126127e-01 -3.606338e-01 -1.560904e-01 -3.905858e-01 1.869287e-01 4.371309e-02 1.885871e-02 4.075853e-01 1.157976e-02 1.115751e-01 2.047973e-01 4.933271e-02 2.561183e-01
<VARIANCE> 39
 3.753200e+01 5.998896e+01 4.503929e+01 7.251752e+01 1.133078e+02 5.811129e+01 1.007807e+02 7.927660e+01 5.154350e+01 6.213126e+01 4.731961e+01 3.183887e+01 1.220206e+02 1.238511e+00 1.814532e+00 1.685702e+00 1.978390e+00 2.747576e+00 2.174608e+00 2.261099e+00 3.447307e+00 2.447821e+00 2.035158e+00 2.303558e+00 1.794017e+00 1.201091e+00 1.828771e-01 3.582827e-01 4.080915e-01 4.441571e-01 6.245412e-01 4.578987e-01 4.683082e-01 7.269979e-01 4.760458e-01 4.282555e-01 4.631334e-01 3.445824e-01 2.055025e-01
<GCONST> 1.227526e+02
<STATE> 4
<MEAN> 39
 -5.266873e+00 -3.388741e+00 -4.811632e+00 -1.082830e+00 -4.906760e+00 -4.031085e+00 -6.630886e+00 -2.468677e+00 -4.521977e+00 -5.914622e+00 -4.610704e+00 -2.747063e+00 5.618674e+01 -2.509046e-01 4.342005e-02 -5.540649e-02 -1.053364e-02 6.270239e-02 1.089361e-01 6.159045e-02 9.612675e-02 2.975822e-02 8.591401e-02 1.434092e-01 8.014894e-02 -2.848433e-01 -2.252033e-02 -7.209216e-02 -7.668379e-03 -7.913176e-02 1.684045e-02 -2.090546e-02 -3.592999e-03 4.602167e-02 -8.603844e-03 2.334034e-05 1.812222e-02 1.030096e-02 8.890916e-02
<VARIANCE> 39
 7.349139e+01 5.388827e+01 4.618302e+01 5.519281e+01 6.657418e+01 4.916109e+01 6.068683e+01 5.513607e+01 3.940704e+01 3.962055e+01 4.545789e+01 3.922534e+01 1.579064e+02 5.567916e-01 8.454222e-01 9.527032e-01 1.108832e+00 1.493175e+00 1.588093e+00 1.616251e+00 1.848893e+00 1.828339e+00 1.695462e+00 1.688573e+00 1.428022e+00 5.040252e-01 9.811508e-02 1.550801e-01 1.689864e-01 2.327155e-01 2.867264e-01 2.851891e-01 3.150822e-01 3.741879e-01 3.396096e-01 3.270819e-01 3.217956e-01 2.728681e-01 7.978295e-02
<GCONST> 1.072794e+02
<TRANSP> 5
 0.000000e+00 1.000000e+00 0.000000e+00 0.000000e+00 0.000000e+00
 0.000000e+00 3.632334e-01 6.367666e-01 0.000000e+00 0.000000e+00
 0.000000e+00 0.000000e+00 3.210757e-01 6.789243e-01 0.000000e+00
 0.000000e+00 0.000000e+00 0.000000e+00 8.403580e-01 1.596421e-01
 0.000000e+00 0.000000e+00 0.000000e+00 0.000000e+00 0.000000e+00
<ENDHMM>
~h "o"
<BEGINHMM>
<NUMSTATES> 5
<STATE> 2
<MEAN> 39
 -2.934837e+00 -3.342883e+00 -5.315059e+00 -1.077362e+01 -4.397151e+00 -9.214003e-01 -6.210766e+00 -5.638829e+00 -3.986465e+00 -3.725966e+00 -2.025563e+00 -3.748273e+00 6.484341e+01 1.240887e+00 -5.126443e-01 -8.734182e-01 -1.831619e+00 1.890402e-01 6.653919e-01 -1.830654e-01 -4.451951e-01 -1.683745e-01 2.930588e-02 2.579472e-01 -3.037152e-01 1.460201e+00 2.442799e-01 -4.956416e-02 -2.634585e-02 1.309799e-01 -1.984329e-02 -1.407247e-01 -4.212984e-02 -8.403540e-02 1.467014e-02 3.786325e-02 -4.858950e-02 -9.694578e-02 1.618477e-01
<VARIANCE> 39
 8.767780e+01 8.035977e+01 1.124697e+02 1.706921e+02 9.937408e+01 9.334808e+01 1.014062e+02 8.602818e+01 7.688293e+01 4.959096e+01 5.963460e+01 4.026920e+01 1.484485e+02 8.624202e+00 4.224398e+00 7.608753e+00 8.568648e+00 7.117146e+00 8.192822e+00 5.286082e+00 7.141685e+00 6.316249e+00 5.097769e+00 6.275490e+00 3.779372e+00 4.843366e+00 1.219509e+00 7.282677e-01 1.124826e+00 1.555122e+00 1.098771e+00 1.158288e+00 9.121767e-01 1.276466e+00 1.079180e+00 7.583178e-01 8.977038e-01 6.271408e-01 7.612696e-01
<GCONST> 1.531107e+02
<STATE> 3
<MEAN> 39
 3.774411e+00 -4.802243e+00 -8.900791e+00 -1.572321e+01 -3.078585e+00 -1.080575e+00 -6.730989e+00 -8.387457e+00 -3.107531e+00 -2.379706e+00 7.867543e-02 -6.009552e+00 7.072364e+01 9.300694e-01 -3.734278e-01 -8.042849e-02 7.813254e-02 -1.870481e-01 -3.329149e-01 -3.371636e-01 -3.113040e-01 9.831384e-02 2.009392e-01 6.089835e-02 -3.122861e-01 6.644772e-01 -4.323061e-01 2.355852e-01 3.039744e-01 5.920912e-01 4.969016e-02 -2.924998e-01 9.958296e-02 2.143544e-01 2.822720e-02 -5.870594e-02 -1.773252e-01 8.699386e-02 -4.388670e-01
<VARIANCE> 39
 5.810741e+01 8.900484e+01 8.492230e+01 1.543827e+02 1.571924e+02 1.433564e+02 1.238923e+02 9.584212e+01 8.754711e+01 6.409197e+01 1.203628e+02 4.115932e+01 7.933951e+01 5.016426e+00 4.232852e+00 5.052853e+00 5.415179e+00 7.153274e+00 8.077182e+00 5.081765e+00 6.533720e+00 6.037547e+00 4.179192e+00 5.257150e+00 2.996659e+00 3.381824e+00 8.348330e-01 7.491187e-01 8.224240e-01 1.116689e+00 1.450939e+00 1.325087e+00 9.238001e-01 1.082943e+00 1.118507e+00 7.835560e-01 1.000461e+00 5.823202e-01 5.573071e-01
<GCONST> 1.505989e+02
<STATE> 4
<MEAN> 39
 4.798182e+00 -4.930914e+00 -1.033994e+01 -1.454126e+01 -5.078659e+00 -3.716486e-01 -5.969879e+00 -7.425736e+00 -2.883052e+00 -2.464844e+00 -1.526726e+00 -5.667883e+00 6.764811e+01 -3.690123e-01 4.829990e-01 5.400636e-01 1.244327e+00 -9.888570e-02 -6.477426e-01 4.157340e-02 2.022527e-01 2.812950e-02 -1.241292e-01 -4.474681e-01 4.255772e-02 -7.707517e-01 -2.764045e-01 1.188397e-01 2.127679e-01 2.200385e-01 8.043721e-04 -1.258842e-01 5.887907e-02 3.987822e-02 -2.222557e-03 -6.521986e-02 -1.650648e-02 8.952492e-02 -1.968184e-01
<VARIANCE> 39
 4.582781e+01 8.990699e+01 5.433025e+01 1.060203e+02 7.169041e+01 1.067297e+02 1.133158e+02 6.697567e+01 5.598837e+01 6.237006e+01 8.917813e+01 3.625110e+01 8.777129e+01 2.161531e+00 3.239184e+00 2.714845e+00 3.841113e+00 3.361601e+00 4.524871e+00 3.119604e+00 3.352582e+00 3.100920e+00 2.717745e+00 2.992429e+00 2.060941e+00 2.212832e+00 3.810823e-01 5.694261e-01 4.257484e-01 6.606307e-01 6.450756e-01 7.796710e-01 5.922526e-01 5.795971e-01 6.111860e-01 5.347129e-01 5.432050e-01 4.002584e-01 3.944911e-01
<GCONST> 1.332286e+02
<TRANSP> 5
 0.000000e+00 1.000000e+00 0.000000e+00 0.000000e+00 0.000000e+00
 0.000000e+00 4.826650e-01 5.173350e-01 0.000000e+00 0.000000e+00
 0.000000e+00 0.000000e+00 5.108405e-01 4.891596e-01 0.000000e+00
 0.000000e+00 0.000000e+00 0.000000e+00 6.627865e-01 3.372135e-01
 0.000000e+00 0.000000e+00 0.000000e+00 0.000000e+00 0.000000e+00
<ENDHMM>
~h "p"
<BEGINHMM>
<NUMSTATES> 5
<STATE> 2
<MEAN> 39
 -6.791470e+00 -2.966816e+00 -5.115750e+00 -4.815240e+00 -5.852727e+00 -3.772093e+00 -8.936004e+00 -5.374176e+00 -3.267480e+00 -3.273444e+00 -3.621666e+00 -4.145915e+00 5.779887e+01 8.111478e-02 -7.625939e-01 -7.017323e-01 -8.810670e-01 6.454426e-02 -3.487481e-01 9.656046e-02 3.015909e-01 1.343791e-01 3.144589e-01 4.901003e-01 2.035551e-01 1.532657e+00 6.538997e-01 -4.488409e-01 -1.285449e-01 -4.743311e-01 -2.731968e-01 -3.994017e-02 -1.294888e-01 -4.497902e-02 -6.458463e-02 -8.800907e-02 2.693331e-02 -1.027385e-01 1.032542e+00
<VARIANCE> 39
 7.769979e+01 5.417202e+01 4.875311e+01 6.533231e+01 6.341056e+01 5.971918e+01 8.917818e+01 7.496336e+01 4.626921e+01 4.615182e+01 4.004301e+01 3.686166e+01 1.280338e+02 6.222936e+00 4.141343e+00 5.235897e+00 5.238828e+00 5.957132e+00 5.494510e+00 4.722377e+00 5.685075e+00 4.458364e+00 4.030075e+00 3.849815e+00 3.353875e+00 8.163083e+00 8.597118e-01 6.851235e-01 7.933261e-01 8.503478e-01 1.046958e+00 1.006658e+00 8.543252e-01 1.057078e+00 7.923772e-01 7.595750e-01 7.720690e-01 6.115788e-01 8.752744e-01
<GCONST> 1.434733e+02
<STATE> 3
<MEAN> 39
 -6.433738e-01 -8.967369e+00 -3.547952e+00 -6.884376e+00 -1.249102e+01 -1.412597e+00 -1.451231e+01 -7.725024e+00 -4.067143e+00 -5.113008e+00 -1.571248e+00 -4.784782e+00 7.008766e+01 1.122610e+00 -9.009522e-01 -2.318696e-01 -7.952015e-01 -4.733855e-01 -1.407599e-01 -1.433610e-01 -1.926222e-01 -3.238134e-02 -7.366459e-02 3.019836e-02 -2.357508e-01 1.634856e+00 6.153805e-02 8.694532e-02 1.332912e-01 1.542153e-01 4.658458e-03 -1.759345e-03 1.780915e-02 -7.931890e-03 8.533895e-03 -1.012738e-01 -2.206243e-01 -5.154573e-02 -2.135151e-01
<VARIANCE> 39
 6.708482e+01 8.362074e+01 1.086020e+02 1.278987e+02 1.572180e+02 1.022709e+02 1.280588e+02 9.790527e+01 7.025464e+01 9.278861e+01 5.890067e+01 5.703853e+01 9.082912e+01 7.710574e+00 7.295169e+00 7.581321e+00 6.874700e+00 9.575014e+00 8.436316e+00 7.357809e+00 7.259037e+00 6.383475e+00 5.578012e+00 6.441498e+00 4.373045e+00 9.448130e+00 1.300190e+00 1.183408e+00 1.180001e+00 1.306499e+00 1.699273e+00 1.407886e+00 1.335799e+00 1.488300e+00 1.109685e+00 1.087501e+00 1.235144e+00 8.128141e-01 1.403852e+00
<GCONST> 1.588451e+02
<STATE> 4
<MEAN> 39
 2.822821e+00 -8.910408e+00 -7.623524e+00 -9.375394e+00 -7.879601e+00 -4.670636e+00 -7.594025e+00 -5.004818e+00 -3.584105e+00 -3.347847e+00 -3.267704e+00 -4.984486e+00 7.246862e+01 1.232714e+00 -7.728544e-01 8.998080e-02 -5.471766e-01 -4.162442e-01 -2.633216e-01 -2.008892e-01 -1.136335e-01 -1.207479e-02 -4.614929e-01 -6.906924e-01 -2.271339e-01 1.360919e+00 -5.249839e-01 4.959508e-01 3.622960e-01 4.865295e-01 2.009862e-01 1.027784e-01 6.310306e-03 2.675147e-02 2.502633e-02 -3.615397e-02 -1.108855e-01 1.068578e-01 -7.797172e-01
<VARIANCE> 39
 4.936213e+01 7.615406e+01 8.392327e+01 1.273948e+02 1.122963e+02 9.150399e+01 1.121144e+02 7.577029e+01 7.011060e+01 6.768013e+01 6.040588e+01 4.381804e+01 9.500129e+01 5.668350e+00 5.780055e+00 5.790188e+00 7.046094e+00 7.532161e+00 7.287241e+00 5.472211e+00 6.004147e+00 5.221286e+00 4.255990e+00 5.404675e+00 3.417008e+00 4.890676e+00 7.433696e-01 8.566530e-01 8.304895e-01 1.007506e+00 1.121152e+00 1.259825e+00 8.942833e-01 8.837126e-01 9.158704e-01 7.800466e-01 8.344945e-01 6.723463e-01 7.543243e-01
<GCONST> 1.489551e+02
<TRANSP> 5
 0.000000e+00 1.000000e+00 0.000000e+00 0.000000e+00 0.000000e+00
 0.000000e+00 6.017875e-01 3.982125e-01 0.000000e+00 0.000000e+00
 0.000000e+00 0.000000e+00 5.924219e-01 4.075781e-01 0.000000e+00
 0.000000e+00 0.000000e+00 0.000000e+00 2.080037e-01 7.919963e-01
 0.000000e+00 0.000000e+00 0.000000e+00 0.000000e+00 0.000000e+00
<ENDHMM>
~h "q"
<BEGINHMM>
<NUMSTATES> 5
<STATE> 2
<MEAN> 39
 -2.144034e+00 -2.104629e+01 9.184482e-01 -1.312157e+01 -9.322302e+00 4.539884e-01 -1.554234e+00 -3.539217e+00 -1.235518e+01 -1.019547e+01 -7.721643e+00 -3.693798e+00 6.960528e+01 6.417033e-02 2.152355e-01 -2.416920e-01 1.501077e-01 2.681067e-02 -6.134661e-01 -1.614444e-01 1.488123e-01 -3.679554e-01 -4.249858e-01 2.716815e-01 2.205787e-01 -2.026180e-01 1.787248e-02 2.303427e-01 -8.481885e-02 1.327366e-01 1.049497e-02 -1.068905e-01 1.441597e-02 -3.354694e-02 6.051388e-02 3.927476e-02 -1.045386e-03 1.778565e-02 -1.507381e-01
<VARIANCE> 39
 1.243426e+01 1.064075e+02 8.346729e+01 5.884842e+01 6.610662e+01 3.895830e+01 1.186643e+02 3.103287e+01 2.011550e+01 2.610039e+01 2.929346e+01 1.538238e+01 1.048884e+01 2.852620e-01 1.758433e+00 8.539397e-01 2.259205e+00 9.234027e-01 1.290920e+00 9.081901e-01 1.109765e+00 1.372145e+00 1.895110e+00 9.953842e-01 1.074633e+00 5.588438e-01 5.825247e-02 1.466575e-01 1.891304e-01 3.756695e-01 2.566134e-01 2.317706e-01 1.473234e-01 1.824874e-01 2.373881e-01 2.705067e-01 1.866216e-01 1.515216e-01 9.088796e-02
<GCONST> 9.619090e+01
<STATE> 3
<MEAN> 39
 -6.015875e+00 -9.165796e+00 -3.410243e+00 -5.051192e+00 -4.197896e+00 -3.988803e+00 -2.955413e+00 -2.228285e+00 -9.019048e+00 -1.044490e+01 -4.600861e+00 -1.992338e+00 5.965833e+01 -7.157690e-01 4.779362e-01 -6.440454e-01 5.550522e-01 3.605033e-01 1.181785e-01 5.574306e-01 -7.459536e-03 7.753803e-01 5.281323e-01 1.407053e-01 1.479258e-01 -1.263359e+00 -4.846182e-02 -1.231179e-01 3.151277e-02 -1.331202e-01 -6.165309e-02 1.133338e-01 -2.290388e-03 -4.436608e-02 -4.960733e-02 6.223683e-02 9.830183e-03 1.335676e-02 7.110229e-02
<VARIANCE> 39
 3.397102e+01 5.325749e+01 8.677337e+01 5.263926e+01 6.058158e+01 2.701875e+01 5.672478e+01 4.657346e+01 5.139232e+01 4.366198e+01 1.891313e+01 2.219994e+01 4.211316e+01 1.426896e+00 2.326863e+00 1.524471e+00 2.210057e+00 1.858281e+00 2.491173e+00 2.792385e+00 1.531605e+00 2.834714e+00 2.407135e+00 1.324517e+00 1.532017e+00 7.658156e-01 1.705514e-01 3.714125e-01 2.242407e-01 2.978148e-01 2.664743e-01 5.013176e-01 4.211411e-01 3.131608e-01 6.398678e-01 6.092128e-01 2.243975e-01 3.200887e-01 1.063919e-01
<GCONST> 1.128217e+02
<STATE> 4
<MEAN> 39
 -7.309865e+00 -6.296345e+00 -6.766104e+00 -2.496966e+00 4.054395e-01 -1.917220e+00 -2.515869e+00 9.227877e-01 -4.451253e+00 -4.764060e+00 -8.345886e-01 2.249071e+00 5.236159e+01 -2.413389e-02 -1.205001e-03 -4.192574e-02 1.249944e-02 -2.135867e-02 -6.135155e-04 -2.903617e-02 -4.517237e-02 -3.869406e-03 3.308351e-02 -1.142748e-02 -1.758296e-02 -5.697512e-02 1.094796e-03 1.279168e-03 -4.053976e-03 1.479949e-03 4.700601e-03 -2.803394e-03 -4.426164e-03 -2.093031e-04 2.106214e-03 -7.077886e-03 -5.179149e-03 -8.924251e-03 1.263777e-02
<VARIANCE> 39
 2.550060e+01 1.296060e+01 2.470778e+01 1.813612e+01 3.418154e+01 2.425904e+01 2.016775e+01 2.218310e+01 1.866054e+01 2.280057e+01 1.803609e+01 1.816727e+01 2.236364e+01 3.394823e-01 4.310174e-01 5.923530e-01 6.783122e-01 1.029245e+00 1.077383e+00 1.093206e+00 1.208466e+00 1.465863e+00 1.448503e+00 1.375676e+00 1.285379e+00 1.493119e-01 6.473812e-02 8.488272e-02 1.197512e-01 1.328570e-01 1.992205e-01 2.101082e-01 2.139132e-01 2.246659e-01 2.983995e-01 2.773692e-01 2.821581e-01 2.579715e-01 2.030352e-02
<GCONST> 8.376631e+01
<TRANSP> 5
 0.000000e+00 1.000000e+00 0.000000e+00 0.000000e+00 0.000000e+00
 0.000000e+00 8.569967e-01 1.430033e-01 0.000000e+00 0.000000e+00
 0.000000e+00 0.000000e+00 8.411619e-01 1.588381e-01 0.000000e+00
 0.000000e+00 0.000000e+00 0.000000e+00 9.786978e-01 2.130221e-02
 0.000000e+00 0.000000e+00 0.000000e+00 0.000000e+00 0.000000e+00
<ENDHMM>
~h "r"
<BEGINHMM>
<NUMSTATES> 5
<STATE> 2
<MEAN> 39
 1.023567e+00 -9.382934e+00 -5.041887e+00 -4.292871e+00 -9.961523e+00 -5.250227e+00 -9.879832e+00 -4.685304e+00 -1.737997e+00 -5.195996e+00 -4.746439e+00 -3.798049e+00 7.318427e+01 -5.034994e-02 6.503937e-02 3.610094e-01 4.479101e-01 -2.795178e-01 9.915406e-02 -2.389519e-01 6.306829e-02 5.649567e-02 -1.189264e-01 2.583272e-01 1.225771e-02 -2.604027e-01 -9.275167e-02 -4.880343e-03 7.142054e-02 -1.437915e-01 4.497901e-02 1.196847e-01 6.006578e-03 6.865529e-02 -1.845576e-01 3.795582e-02 1.088235e-01 -6.015722e-02 -5.078179e-02
<VARIANCE> 39
 5.762140e+01 7.192155e+01 6.897859e+01 7.840939e+01 1.122648e+02 9.283036e+01 1.155851e+02 9.856754e+01 9.019675e+01 7.166077e+01 5.473489e+01 3.832570e+01 1.017678e+02 3.715400e+00 3.911984e+00 3.610493e+00 3.316766e+00 5.189918e+00 4.682730e+00 3.305120e+00 4.592494e+00 4.020428e+00 3.613502e+00 3.677499e+00 2.680413e+00 2.761099e+00 7.349110e-01 7.593204e-01 5.738698e-01 6.294825e-01 9.181016e-01 7.476066e-01 6.085644e-01 8.727106e-01 8.414018e-01 7.315854e-01 6.951102e-01 5.520697e-01 5.115579e-01
<GCONST> 1.405659e+02
<STATE> 3
<MEAN> 39
 1.446974e+00 -9.020602e+00 -4.542481e+00 -3.840153e+00 -1.029914e+01 -5.594163e+00 -9.734259e+00 -4.006841e+00 -2.776910e+00 -5.169624e+00 -3.848511e+00 -4.034045e+00 7.289175e+01 -1.725645e-01 2.906415e-01 4.107380e-01 2.286482e-01 -5.531311e-03 2.246858e-01 -1.195367e-01 -2.632760e-02 -3.024924e-01 8.742814e-02 2.572654e-01 -1.327791e-01 -4.871608e-01 -1.059404e-01 2.803236e-02 1.346119e-03 -2.030466e-01 1.384524e-01 4.376518e-02 9.094613e-02 -4.027814e-02 -1.246842e-01 4.971494e-02 -5.912843e-02 -2.941921e-03 -9.941384e-04
<VARIANCE> 39
 5.638912e+01 7.222725e+01 7.366294e+01 7.597124e+01 1.212315e+02 9.152422e+01 1.214429e+02 9.249104e+01 8.607231e+01 6.836559e+01 5.398294e+01 3.780435e+01 1.107095e+02 2.815524e+00 3.284058e+00 3.020127e+00 2.916819e+00 4.281640e+00 3.712166e+00 2.986851e+00 4.358758e+00 3.911687e+00 3.268725e+00 3.360187e+00 2.461591e+00 2.374357e+00 4.592016e-01 5.919602e-01 5.093610e-01 5.881060e-01 8.290918e-01 7.209460e-01 6.018302e-01 8.067610e-01 6.989959e-01 6.322726e-01 5.933514e-01 4.853839e-01 3.910498e-01
<GCONST> 1.367809e+02
<STATE> 4
<MEAN> 39
 1.980421e+00 -6.785872e+00 -5.244998e+00 -2.944986e+00 -8.380670e+00 -6.312418e+00 -7.652732e+00 -3.580722e+00 -4.262981e+00 -3.959517e+00 -2.992234e+00 -3.781156e+00 7.139420e+01 -3.044509e-01 2.592693e-01 2.908358e-01 -3.210711e-02 9.876907e-02 2.693468e-01 7.021575e-02 -1.130822e-01 -2.755126e-01 5.891104e-02 1.165058e-02 -6.256352e-02 -4.176214e-01 -5.684996e-02 -5.245890e-02 -1.707718e-02 -1.510552e-01 5.474837e-02 3.734864e-03 4.306427e-02 3.900107e-03 -1.419616e-02 -3.656056e-02 -9.486498e-02 3.005180e-02 1.013005e-01
<VARIANCE> 39
 6.139143e+01 6.382846e+01 7.334144e+01 7.840365e+01 1.022616e+02 8.535827e+01 9.761092e+01 8.913983e+01 9.088365e+01 6.055513e+01 5.065868e+01 3.518017e+01 1.190521e+02 2.276735e+00 2.872842e+00 2.603820e+00 2.618248e+00 3.624434e+00 2.994069e+00 2.788361e+00 3.597792e+00 3.459740e+00 3.142135e+00 2.850579e+00 2.155771e+00 1.961468e+00 3.384702e-01 4.533646e-01 4.176163e-01 5.190971e-01 6.180232e-01 5.942765e-01 4.932510e-01 5.825758e-01 5.784072e-01 5.333408e-01 4.884085e-01 3.994245e-01 3.312615e-01
<GCONST> 1.314275e+02
<TRANSP> 5
 0.000000e+00 1.000000e+00 0.000000e+00 0.000000e+00 0.000000e+00
 0.000000e+00 2.404522e-01 7.595479e-01 0.000000e+00 0.000000e+00
 0.000000e+00 0.000000e+00 1.153096e-01 8.846903e-01 0.000000e+00
 0.000000e+00 0.000000e+00 0.000000e+00 3.732993e-01 6.267007e-01
 0.000000e+00 0.000000e+00 0.000000e+00 0.000000e+00 0.000000e+00
<ENDHMM>
~h "s"
<BEGINHMM>
<NUMSTATES> 5
<STATE> 2
<MEAN> 39
 -1.002120e+01 1.026355e+00 1.235452e-02 -6.673904e+00 1.161230e+00 -9.397616e+00 -4.137548e+00 -2.286671e+00 -4.356683e+00 -4.682209e+00 -3.941538e+00 -3.977540e+00 6.850259e+01 -3.377838e+00 7.820994e-01 4.381336e-01 -6.533769e-01 1.639827e+00 -3.598401e-01 1.127266e+00 7.120150e-01 4.662774e-01 -2.548859e-02 1.137921e+00 4.313094e-01 1.191125e-01 1.773356e-01 -4.462354e-01 -2.084792e-01 -1.260673e-01 -3.956355e-01 1.080739e-01 -1.633977e-01 -7.958291e-02 8.173312e-02 2.551633e-03 7.640169e-02 2.875388e-02 9.647797e-02
<VARIANCE> 39
 1.174061e+02 8.858265e+01 6.983205e+01 1.295573e+02 1.738920e+02 1.160624e+02 1.280811e+02 7.377212e+01 7.437493e+01 5.205757e+01 5.495291e+01 3.793554e+01 9.296326e+01 5.739872e+00 6.089326e+00 5.359355e+00 4.978490e+00 7.026960e+00 5.766772e+00 4.006983e+00 4.435683e+00 3.803397e+00 4.130299e+00 3.374695e+00 2.790840e+00 1.328706e+00 1.191220e+00 6.785124e-01 6.112601e-01 7.487603e-01 1.073990e+00 8.706360e-01 6.947308e-01 6.994886e-01 6.767486e-01 6.276797e-01 6.582874e-01 4.829646e-01 2.011554e-01
<GCONST> 1.428488e+02
<STATE> 3
<MEAN> 39
 -1.956058e+01 3.419312e-01 1.093617e+00 -9.827466e+00 3.374938e+00 -9.781714e+00 -1.729535e+00 -7.196748e-01 -1.269665e+00 -4.971778e+00 3.861980e-01 -1.802337e+00 6.907720e+01 6.826833e-01 -7.999651e-01 -4.073162e-01 8.040291e-02 -8.904058e-01 1.970658e-02 -2.239955e-01 -2.162614e-01 1.532305e-01 2.412006e-01 -6.736367e-02 8.489856e-02 -1.170779e-01 1.221172e+00 -7.225208e-02 -1.463515e-01 1.252819e-01 -3.994312e-01 -1.046262e-01 -3.927654e-01 -3.397261e-01 -1.990620e-01 1.308442e-02 -3.476066e-01 -2.136360e-01 6.597060e-02
<VARIANCE> 39
 8.991418e+01 1.280148e+02 9.483578e+01 1.281245e+02 1.784653e+02 1.412569e+02 1.040049e+02 7.150751e+01 6.422216e+01 5.440550e+01 3.751237e+01 4.226442e+01 8.025290e+01 7.746297e+00 2.663328e+00 3.902441e+00 2.357245e+00 3.779096e+00 3.255407e+00 3.425192e+00 3.691216e+00 3.438425e+00 2.829518e+00 2.733442e+00 2.152867e+00 1.374587e+00 7.598625e-01 6.954292e-01 7.001437e-01 5.272881e-01 6.695507e-01 6.794560e-01 6.770869e-01 7.568676e-01 6.350827e-01 6.935253e-01 5.433125e-01 4.502015e-01 2.844506e-01
<GCONST> 1.374779e+02
<STATE> 4
<MEAN> 39
 -9.669460e+00 -4.707272e+00 -3.189837e+00 -5.218785e+00 -4.854575e+00 -7.797098e+00 -3.193553e+00 -2.974803e+00 -3.523865e+00 -3.682081e+00 -2.747437e+00 -2.780662e+00 6.699156e+01 2.875431e+00 -4.580686e-01 -5.214854e-01 -1.887227e-01 -9.164883e-01 -2.626955e-01 -1.017906e+00 -7.983332e-01 -3.819749e-01 -2.633218e-01 -7.197852e-01 -4.376558e-01 5.079326e-01 7.133912e-02 2.521749e-02 1.442629e-01 -9.650527e-02 1.073904e-01 2.696672e-02 -7.171614e-02 3.352904e-02 -7.563815e-02 -1.381483e-01 -2.919159e-02 -1.257720e-02 1.818695e-01
<VARIANCE> 39
 9.814626e+01 7.434239e+01 7.109679e+01 8.951298e+01 1.183615e+02 9.876094e+01 8.475231e+01 6.805527e+01 7.359914e+01 4.669751e+01 4.158715e+01 3.477758e+01 1.160932e+02 8.197510e+00 5.662781e+00 4.979670e+00 4.051318e+00 4.836525e+00 4.150726e+00 4.515516e+00 4.829425e+00 4.241206e+00 4.307907e+00 3.411543e+00 3.054880e+00 3.436944e+00 1.158666e+00 5.520676e-01 5.316997e-01 4.834070e-01 5.394468e-01 6.379214e-01 6.669241e-01 6.195827e-01 6.255472e-01 5.311101e-01 5.575283e-01 4.079294e-01 3.880793e-01
<GCONST> 1.396531e+02
<TRANSP> 5
 0.000000e+00 1.000000e+00 0.000000e+00 0.000000e+00 0.000000e+00
 0.000000e+00 6.411802e-01 3.588197e-01 0.000000e+00 0.000000e+00
 0.000000e+00 0.000000e+00 6.611791e-01 3.388209e-01 0.000000e+00
 0.000000e+00 0.000000e+00 0.000000e+00 5.408210e-01 4.591790e-01
 0.000000e+00 0.000000e+00 0.000000e+00 0.000000e+00 0.000000e+00
<ENDHMM>
~h "t"
<BEGINHMM>
<NUMSTATES> 5
<STATE> 2
<MEAN> 39
 -4.693499e+00 -2.213087e+00 -2.978299e+00 -2.345719e+00 -6.791883e+00 -5.241568e+00 -6.641243e+00 -4.579531e+00 -3.902279e+00 -4.816704e+00 -4.785814e+00 -3.846599e+00 5.976131e+01 -1.185899e+00 -1.919886e-01 -2.766914e-01 -4.576949e-02 6.176783e-01 2.648344e-01 2.865894e-01 1.267790e-01 1.870061e-01 4.368027e-01 5.471150e-01 3.011134e-01 -7.697779e-01 1.446033e-01 -5.860537e-01 -1.495081e-01 -6.250396e-01 -1.488865e-01 -2.826693e-01 -1.977874e-02 1.215109e-01 -8.931661e-02 2.981110e-02 4.521131e-02 6.713457e-02 9.462814e-01
<VARIANCE> 39
 5.365430e+01 4.086927e+01 4.007013e+01 6.280582e+01 6.568305e+01 5.756153e+01 7.978909e+01 6.773321e+01 4.430914e+01 4.784974e+01 3.742377e+01 3.296832e+01 1.269258e+02 2.779271e+00 2.822742e+00 2.336945e+00 2.846346e+00 3.263243e+00 3.583261e+00 2.862370e+00 3.278880e+00 3.045423e+00 2.699744e+00 2.681973e+00 2.063233e+00 3.366455e+00 6.275073e-01 6.379006e-01 5.377893e-01 6.294008e-01 7.885116e-01 7.574207e-01 6.229157e-01 7.239362e-01 7.044950e-01 5.598724e-01 6.244022e-01 4.845692e-01 6.694338e-01
<GCONST> 1.315008e+02
<STATE> 3
<MEAN> 39
 -7.379344e+00 -4.382048e+00 -4.749594e+00 -5.236739e+00 -4.999324e+00 -6.130879e+00 -6.804875e+00 -3.840394e+00 -3.268093e+00 -2.771354e+00 -2.940615e+00 -2.686752e+00 6.357737e+01 2.074536e-01 -1.377746e+00 -4.138394e-01 -1.459103e+00 -1.580191e-01 -6.841613e-01 1.187498e-01 4.298364e-01 -9.049617e-02 2.022217e-02 1.680041e-01 1.372550e-01 2.464675e+00 7.898357e-01 -2.232096e-01 1.289241e-01 -1.962891e-01 -3.376265e-01 -4.076580e-02 -3.014854e-01 -1.177502e-01 -1.283511e-01 -2.209326e-01 -2.599068e-01 -2.222409e-01 6.442864e-01
<VARIANCE> 39
 7.196740e+01 5.410835e+01 4.916779e+01 9.485439e+01 8.040886e+01 7.791184e+01 8.336446e+01 7.060788e+01 4.927036e+01 4.926348e+01 4.167633e+01 3.560015e+01 1.528380e+02 7.171242e+00 5.164308e+00 5.298684e+00 4.861054e+00 6.903627e+00 6.297329e+00 5.211324e+00 6.072884e+00 5.559846e+00 3.996786e+00 4.467936e+00 3.693318e+00 6.438417e+00 1.013847e+00 7.508914e-01 8.610187e-01 9.777458e-01 1.183340e+00 1.153781e+00 9.342228e-01 9.512376e-01 9.757668e-01 7.635387e-01 7.916794e-01 6.440293e-01 1.101035e+00
<GCONST> 1.466722e+02
<STATE> 4
<MEAN> 39
 -3.879952e+00 -7.207479e+00 -4.756058e+00 -6.520864e+00 -6.844289e+00 -6.768305e+00 -6.093308e+00 -2.924418e+00 -3.992977e+00 -3.459758e+00 -3.586604e+00 -3.110340e+00 6.913659e+01 1.454099e+00 -1.176617e+00 9.429656e-02 -1.273741e+00 -5.781230e-01 -3.721908e-01 -6.314357e-01 -3.047207e-02 -3.403726e-01 -3.108391e-01 -3.373638e-01 -2.807479e-01 2.172558e+00 2.948086e-01 2.374653e-01 1.160280e-01 1.463888e-01 -4.570015e-03 1.794522e-01 -2.123013e-01 -1.693388e-01 -6.578889e-02 -1.177986e-01 -9.693633e-02 -9.704730e-02 -2.020267e-01
<VARIANCE> 39
 6.176011e+01 6.409241e+01 4.911971e+01 9.844077e+01 8.094033e+01 7.099251e+01 8.005787e+01 6.228762e+01 5.618212e+01 4.919396e+01 4.226564e+01 3.268566e+01 1.466628e+02 6.494435e+00 5.225388e+00 6.026592e+00 6.434508e+00 7.223405e+00 6.719358e+00 5.516282e+00 5.589292e+00 5.779641e+00 3.979162e+00 4.709910e+00 3.516013e+00 6.016201e+00 8.739231e-01 7.069320e-01 5.718322e-01 6.806990e-01 8.361117e-01 8.917602e-01 7.196102e-01 8.459681e-01 7.417543e-01 6.768339e-01 6.165335e-01 4.900115e-01 8.814953e-01
<GCONST> 1.437617e+02
<TRANSP> 5
 0.000000e+00 1.000000e+00 0.000000e+00 0.000000e+00 0.000000e+00
 0.000000e+00 5.046401e-01 4.953599e-01 0.000000e+00 0.000000e+00
 0.000000e+00 0.000000e+00 4.007849e-01 5.992150e-01 0.000000e+00
 0.000000e+00 0.000000e+00 0.000000e+00 1.977911e-01 8.022089e-01
 0.000000e+00 0.000000e+00 0.000000e+00 0.000000e+00 0.000000e+00
<ENDHMM>
~h "u"
<BEGINHMM>
<NUMSTATES> 5
<STATE> 2
<MEAN> 39
 -1.369060e+00 -3.399686e+00 -3.006697e+00 -9.198204e+00 -7.990359e+00 -3.589495e+00 -1.267308e+01 -6.183516e+00 -4.742548e+00 -5.497334e+00 -2.056679e+00 -3.718884e+00 6.781284e+01 1.244321e+00 -1.995338e-01 -4.048392e-01 -1.258785e+00 -5.052187e-01 2.474350e-01 -8.162296e-01 -5.751014e-01 -2.668879e-01 1.888970e-02 5.837315e-01 7.380968e-02 1.430204e+00 1.007969e-01 7.651533e-02 -1.080037e-02 2.162378e-01 -2.724838e-02 1.258041e-01 5.185518e-02 -8.150157e-02 2.083115e-02 8.497052e-02 -6.884881e-02 -1.126524e-01 -2.285086e-01
<VARIANCE> 39
 9.317054e+01 8.454211e+01 7.647696e+01 1.520229e+02 1.510805e+02 1.072038e+02 1.253504e+02 1.086864e+02 6.977811e+01 7.089162e+01 5.857724e+01 4.354920e+01 1.089655e+02 7.679383e+00 5.249073e+00 5.664180e+00 7.589305e+00 9.091763e+00 9.275612e+00 6.466761e+00 9.306023e+00 6.188620e+00 5.595562e+00 6.173564e+00 4.306558e+00 4.886660e+00 1.235321e+00 1.004513e+00 9.445096e-01 1.327464e+00 1.668743e+00 1.521027e+00 1.199379e+00 1.599841e+00 1.113025e+00 9.665052e-01 9.329920e-01 7.661895e-01 9.444923e-01
<GCONST> 1.563704e+02
<STATE> 3
<MEAN> 39
 4.331392e+00 -6.059929e+00 -5.001638e+00 -1.151020e+01 -1.227986e+01 4.367108e-01 -1.682854e+01 -9.283075e+00 -4.572080e+00 -5.327917e+00 -4.637679e-01 -4.281205e+00 7.226367e+01 3.525105e-01 -5.582661e-02 -1.003130e-01 1.403692e-01 1.885722e-01 -3.175065e-03 -1.526135e-01 -1.303829e-01 1.840069e-01 3.509933e-01 -3.608233e-01 -3.598491e-01 -3.013121e-02 -5.006379e-01 2.091865e-01 1.828240e-01 5.007532e-01 3.300002e-01 -3.270380e-01 4.540042e-01 2.924424e-01 9.156419e-02 -9.260623e-02 -3.429914e-01 -2.180567e-02 -4.616334e-01
<VARIANCE> 39
 3.901913e+01 7.312193e+01 5.498510e+01 1.427032e+02 1.264528e+02 1.149211e+02 1.501482e+02 1.287775e+02 7.188163e+01 9.769932e+01 8.383681e+01 4.739295e+01 6.570050e+01 2.791583e+00 4.740101e+00 3.406859e+00 6.130366e+00 6.195351e+00 6.919362e+00 5.790264e+00 6.701295e+00 5.727613e+00 5.173773e+00 5.251981e+00 3.667379e+00 2.876344e+00 5.074285e-01 6.753286e-01 6.017818e-01 1.078697e+00 1.053420e+00 1.340971e+00 1.043554e+00 1.318897e+00 9.872280e-01 1.042828e+00 1.114773e+00 7.710184e-01 4.999763e-01
<GCONST> 1.481725e+02
<STATE> 4
<MEAN> 39
 3.971569e+00 -1.722492e+00 -6.256766e+00 -1.289616e+01 -8.242836e+00 -4.218256e+00 -1.007552e+01 -6.186574e+00 -5.287432e+00 -4.443995e+00 -2.923300e+00 -4.146542e+00 6.709930e+01 -5.712177e-01 1.890332e-01 2.622995e-01 8.633845e-01 4.295712e-01 -2.357410e-01 5.207951e-01 2.922000e-01 1.270912e-01 -1.155412e-01 -4.573596e-01 -1.554385e-01 -6.764103e-01 -3.047468e-01 -1.103275e-01 1.282534e-01 2.078763e-01 5.553571e-02 -1.091259e-02 5.628058e-02 6.927277e-02 3.495285e-02 -4.366659e-02 3.661477e-02 5.703588e-02 -8.580218e-02
<VARIANCE> 39
 4.169403e+01 7.474037e+01 4.739129e+01 1.334732e+02 8.269411e+01 7.339365e+01 9.719224e+01 8.095431e+01 5.919321e+01 6.380528e+01 6.020174e+01 3.850872e+01 8.119991e+01 2.050952e+00 2.905662e+00 2.438372e+00 4.694015e+00 3.950956e+00 4.419711e+00 3.177919e+00 3.987193e+00 3.383262e+00 3.678272e+00 3.614384e+00 2.760120e+00 2.403283e+00 3.518408e-01 4.653852e-01 3.983731e-01 7.966066e-01 6.560491e-01 7.115464e-01 5.943010e-01 7.444461e-01 6.707386e-01 7.133298e-01 6.537714e-01 5.547913e-01 3.191458e-01
<GCONST> 1.344299e+02
<TRANSP> 5
 0.000000e+00 1.000000e+00 0.000000e+00 0.000000e+00 0.000000e+00
 0.000000e+00 5.231408e-01 4.768592e-01 0.000000e+00 0.000000e+00
 0.000000e+00 0.000000e+00 5.119465e-01 4.880535e-01 0.000000e+00
 0.000000e+00 0.000000e+00 0.000000e+00 5.586727e-01 4.413273e-01
 0.000000e+00 0.000000e+00 0.000000e+00 0.000000e+00 0.000000e+00
<ENDHMM>
~h "v"
<BEGINHMM>
<NUMSTATES> 5
<STATE> 2
<MEAN> 39
 -7.084312e+00 -9.258636e+00 -6.852721e+00 -7.746707e+00 -2.939642e+00 -7.991102e+00 -1.623377e+01 -3.807235e-01 -2.461068e+00 -5.756598e-01 -4.264486e+00 -7.599114e+00 7.204668e+01 -1.172751e+00 4.802893e-01 -2.910677e-01 3.600769e-01 4.077410e-01 -2.179268e-01 7.322196e-01 2.470315e-03 2.037759e-01 2.787604e-01 -1.141486e-01 1.424049e-01 -1.598161e-01 2.963068e-01 -3.683282e-01 8.794363e-02 -2.201158e-01 -4.793088e-01 4.507083e-02 9.979355e-02 -4.083450e-02 6.858056e-02 -2.656087e-01 9.999889e-02 3.947397e-02 2.691915e-01
<VARIANCE> 39
 1.035307e+02 4.207159e+01 2.663095e+01 3.071549e+01 3.567643e+01 4.175201e+01 5.458155e+01 9.836765e+01 2.531022e+01 2.414952e+01 1.709902e+01 1.277109e+01 2.119725e+01 1.135987e+01 3.863023e+00 2.243848e+00 3.444175e+00 3.961927e+00 4.897029e+00 5.202401e+00 4.548399e+00 2.789686e+00 1.989139e+00 3.145127e+00 1.538355e+00 1.267246e+00 1.465773e+00 6.960173e-01 3.238213e-01 4.677212e-01 4.694833e-01 4.202092e-01 9.093558e-01 8.054871e-01 4.819634e-01 4.787329e-01 3.635426e-01 1.980824e-01 3.774968e-01
<GCONST> 1.241227e+02
<STATE> 3
<MEAN> 39
 -1.021305e+01 -7.143143e+00 1.445528e+00 -7.098898e+00 -1.328811e+01 -1.817157e+01 -1.488922e+01 -3.941989e+00 -6.019253e+00 -7.326441e+00 -2.705223e+00 -4.553338e+00 7.626692e+01 -2.983269e-01 2.294254e-01 -1.309233e-01 -1.795979e-01 1.868294e-01 -1.913746e-02 3.681375e-01 4.833030e-02 -4.761578e-02 -2.250082e-01 -4.212666e-03 1.741023e-01 7.898110e-02 2.755731e-02 -4.596331e-02 -6.325157e-02 -5.242174e-02 2.862958e-02 4.913246e-02 7.697761e-03 6.977728e-03 5.814724e-02 -1.209083e-02 2.299310e-02 2.388704e-02 -1.125534e-02
<VARIANCE> 39
 1.152084e+02 5.708448e+01 4.335680e+01 1.643450e+01 1.180808e+02 4.251622e+01 5.267643e+01 3.497093e+01 2.407699e+01 3.445150e+01 3.813420e+01 2.019720e+01 1.985086e+01 1.077779e+01 6.027571e+00 2.750465e+00 1.886999e+00 1.204808e+01 4.006169e+00 6.314633e+00 3.865985e+00 2.764951e+00 2.125728e+00 5.905293e+00 1.994642e+00 2.499783e+00 1.608078e+00 1.171334e+00 3.076442e-01 2.824648e-01 2.088568e+00 8.793265e-01 1.333662e+00 7.172036e-01 5.916002e-01 3.620411e-01 1.306539e+00 3.438668e-01 5.633928e-01
<GCONST> 1.333178e+02
<STATE> 4
<MEAN> 39
 -6.481463e+00 -5.481359e+00 -8.869891e+00 -1.187485e+01 -1.478283e+00 -1.075627e+01 -7.275137e+00 -2.710336e+00 -3.057117e+00 -3.723770e-01 -1.180645e+00 -4.476743e+00 6.941872e+01 2.201803e+00 -1.217663e+00 -7.277993e-01 -1.084882e+00 -9.358383e-01 8.586065e-01 -3.811451e-01 -8.353124e-01 1.869234e-01 -3.151003e-01 2.660027e-02 -9.566692e-01 8.279450e-01 1.437147e-01 -1.514837e-01 3.395226e-01 1.038555e-01 -2.551676e-01 -3.891910e-02 -3.772158e-01 -4.518031e-02 -4.991627e-02 -1.447517e-02 -2.379163e-01 -2.037306e-01 1.868547e-01
<VARIANCE> 39
 1.187078e+02 5.502267e+01 3.964938e+01 6.478807e+01 4.254435e+01 5.623618e+01 4.269771e+01 5.051402e+01 2.680161e+01 5.208610e+01 8.138506e+01 2.689894e+01 5.871326e+01 9.329258e+00 2.330358e+00 5.586167e+00 3.274462e+00 3.348709e+00 2.903102e+00 4.681557e+00 3.924812e+00 4.119565e+00 3.502637e+00 2.952466e+00 2.975640e+00 2.662675e+00 1.534853e+00 3.103923e-01 7.920781e-01 6.948297e-01 3.535866e-01 6.376688e-01 9.399564e-01 4.647928e-01 4.417789e-01 5.278067e-01 5.176604e-01 5.061873e-01 3.077223e-01
<GCONST> 1.321371e+02
<TRANSP> 5
 0.000000e+00 1.000000e+00 0.000000e+00 0.000000e+00 0.000000e+00
 0.000000e+00 6.918251e-01 3.081749e-01 0.000000e+00 0.000000e+00
 0.000000e+00 0.000000e+00 8.826122e-01 1.173877e-01 0.000000e+00
 0.000000e+00 0.000000e+00 0.000000e+00 7.875577e-01 2.124423e-01
 0.000000e+00 0.000000e+00 0.000000e+00 0.000000e+00 0.000000e+00
<ENDHMM>
~h "w"
<BEGINHMM>
<NUMSTATES> 5
<STATE> 2
<MEAN> 39
 2.724250e+00 -1.084246e+01 -7.643715e+00 -1.319237e+01 -1.442991e+01 2.530345e+00 -1.570125e+01 -1.023106e+01 -3.892247e+00 -6.669357e+00 -3.044201e+00 -6.848984e+00 7.175040e+01 1.966432e-01 -7.743726e-01 1.093053e-02 -2.935281e-01 8.233073e-02 6.178181e-01 -4.507979e-01 1.077798e-01 3.053120e-01 -3.751782e-02 -6.259423e-02 -2.118671e-01 6.646709e-01 -8.158480e-02 -7.480216e-02 1.332397e-01 1.659591e-01 -8.568371e-03 -1.366756e-01 3.227561e-02 2.161726e-01 -9.272974e-02 -1.350880e-01 3.306675e-03 1.713000e-02 -6.136540e-02
<VARIANCE> 39
 2.652311e+01 5.743600e+01 5.473246e+01 1.192601e+02 9.664587e+01 7.180510e+01 1.006773e+02 8.034686e+01 5.367617e+01 4.157862e+01 5.686486e+01 4.085936e+01 7.707179e+01 2.602435e+00 4.558625e+00 2.573884e+00 7.102772e+00 5.059155e+00 5.648038e+00 5.410184e+00 7.179256e+00 4.411766e+00 4.346342e+00 4.062772e+00 4.119870e+00 3.859189e+00 5.015268e-01 7.069736e-01 4.148630e-01 1.187115e+00 9.817475e-01 1.069346e+00 1.083535e+00 1.252648e+00 7.466093e-01 9.088797e-01 6.768591e-01 8.938638e-01 6.135390e-01
<GCONST> 1.421824e+02
<STATE> 3
<MEAN> 39
 4.323403e+00 -1.429572e+01 -5.786757e+00 -1.562442e+01 -1.599046e+01 6.865516e+00 -2.075210e+01 -1.042390e+01 -3.757627e+00 -7.371943e+00 -1.919283e+00 -9.178942e+00 7.342846e+01 -6.532405e-02 -3.086400e-01 3.942035e-02 3.473916e-01 1.187608e-01 -1.816020e-01 -5.319495e-02 3.404571e-01 1.425129e-01 -2.072101e-02 -2.016840e-01 1.581002e-02 -4.135728e-02 -6.479958e-02 6.637485e-02 1.761627e-02 1.155460e-01 -1.000004e-02 -1.788988e-01 6.510390e-02 2.272186e-02 3.080674e-02 -1.092377e-02 -5.300754e-02 5.780520e-02 -4.548281e-02
<VARIANCE> 39
 1.215215e+01 5.271743e+01 3.039636e+01 1.086070e+02 5.917688e+01 6.100545e+01 7.715739e+01 7.402428e+01 6.781567e+01 4.926035e+01 6.562265e+01 3.660176e+01 3.274647e+01 1.037178e+00 3.283399e+00 1.966674e+00 4.077533e+00 3.224234e+00 3.059228e+00 3.379438e+00 5.148433e+00 3.841355e+00 4.338375e+00 3.195107e+00 3.839727e+00 1.955191e+00 1.964142e-01 5.139143e-01 3.344392e-01 5.619171e-01 6.286120e-01 5.182399e-01 6.495837e-01 8.323283e-01 6.549826e-01 7.733517e-01 6.061139e-01 7.248512e-01 3.083078e-01
<GCONST> 1.285327e+02
<STATE> 4
<MEAN> 39
 -2.642916e+00 -1.294703e+01 -7.353548e+00 -1.017946e+01 -9.253609e+00 -8.685164e-01 -1.141530e+01 -5.713611e+00 -4.638277e+00 -8.605656e+00 -7.376479e+00 -5.484807e+00 6.168332e+01 -1.723958e-01 -1.569849e-02 1.403617e-01 1.271319e-01 -2.005047e-01 -4.334541e-01 1.528640e-01 2.513170e-01 -1.533931e-01 -1.971205e-01 2.517899e-02 2.141592e-01 -1.734593e-01 4.005109e-03 1.486614e-01 -1.336138e-02 -6.343856e-02 -4.228516e-02 2.193393e-02 3.123120e-02 -6.924279e-02 3.476663e-03 8.479397e-02 8.379735e-02 -6.064434e-02 -5.404942e-02
<VARIANCE> 39
 7.846193e+01 1.133870e+02 1.947687e+01 5.626178e+01 5.555277e+01 5.054097e+01 1.074850e+02 3.480795e+01 3.763280e+01 5.368829e+01 4.030360e+01 3.447738e+01 1.706633e+02 7.534498e-01 2.207363e+00 1.726117e+00 2.736862e+00 3.065615e+00 2.664212e+00 2.316005e+00 2.874273e+00 2.836884e+00 2.608781e+00 2.227223e+00 2.308021e+00 8.477913e-01 1.160513e-01 4.137540e-01 2.677712e-01 4.164887e-01 4.181150e-01 4.062386e-01 4.218644e-01 5.934461e-01 4.770212e-01 5.050880e-01 3.159874e-01 4.442339e-01 1.343113e-01
<GCONST> 1.196738e+02
<TRANSP> 5
 0.000000e+00 1.000000e+00 0.000000e+00 0.000000e+00 0.000000e+00
 0.000000e+00 6.561107e-01 3.438892e-01 0.000000e+00 0.000000e+00
 0.000000e+00 0.000000e+00 8.409189e-01 1.590811e-01 0.000000e+00
 0.000000e+00 0.000000e+00 0.000000e+00 7.515962e-01 2.484039e-01
 0.000000e+00 0.000000e+00 0.000000e+00 0.000000e+00 0.000000e+00
<ENDHMM>
~h "y"
<BEGINHMM>
<NUMSTATES> 5
<STATE> 2
<MEAN> 39
 -3.923757e+00 -4.946511e+00 1.211361e+00 -5.238961e+00 -1.056959e+01 -4.844933e+00 -5.884348e+00 -5.392694e+00 -3.016364e+00 -4.608424e+00 -2.984703e+00 -2.424916e+00 6.701422e+01 5.625727e-01 -1.806497e-01 7.873035e-01 -4.575915e-01 -6.083145e-01 1.206555e-01 8.346517e-02 1.053787e-01 -2.898849e-01 -3.351092e-01 -1.519320e-01 -1.359736e-01 8.427382e-01 2.777370e-01 -1.699684e-01 2.034548e-02 -1.485857e-01 -7.576834e-02 -8.427804e-02 3.666352e-02 1.293347e-01 -1.659007e-01 -1.780812e-01 -1.133734e-01 -1.814373e-01 3.680824e-01
<VARIANCE> 39
 6.682442e+01 7.212592e+01 8.401609e+01 1.085505e+02 1.209995e+02 1.334451e+02 1.060597e+02 6.480735e+01 7.438225e+01 3.571913e+01 6.451687e+01 3.033975e+01 2.181578e+02 3.026788e+00 3.623890e+00 4.292533e+00 3.255882e+00 4.396169e+00 4.080753e+00 4.012775e+00 4.127733e+00 3.862870e+00 2.757347e+00 3.537424e+00 2.411654e+00 2.290823e+00 4.497188e-01 4.913193e-01 7.737272e-01 5.709433e-01 8.585163e-01 7.049158e-01 6.552027e-01 6.109127e-01 6.865826e-01 5.062605e-01 6.540340e-01 4.003768e-01 4.715678e-01
<GCONST> 1.378223e+02
<STATE> 3
<MEAN> 39
 -4.493672e-01 -3.514384e+00 5.347904e+00 -8.096449e+00 -1.201432e+01 -7.840862e+00 -5.078174e+00 -6.248532e+00 -3.652553e+00 -5.862839e+00 -2.125100e+00 -3.184171e+00 6.987535e+01 1.037738e+00 -1.411942e+00 -1.967057e-01 -8.659596e-01 -3.447035e-01 -5.664142e-01 6.452119e-01 6.409925e-01 5.060354e-02 -2.233020e-01 -2.625557e-01 -4.361432e-01 2.037893e+00 -1.210503e-01 -2.141361e-01 -5.841227e-01 1.759216e-01 5.450053e-01 1.004826e-01 1.285189e-01 1.658234e-01 4.999433e-02 -3.916484e-02 -1.997994e-01 -1.011239e-01 -1.317551e-01
<VARIANCE> 39
 3.920809e+01 9.493127e+01 1.192739e+02 1.224709e+02 1.490094e+02 1.438538e+02 1.208728e+02 8.761332e+01 7.897057e+01 4.895597e+01 1.031843e+02 3.645210e+01 1.358766e+02 3.372286e+00 4.885094e+00 8.778371e+00 4.562496e+00 8.254366e+00 6.760395e+00 6.268493e+00 6.373811e+00 6.145979e+00 4.220268e+00 6.224128e+00 3.358292e+00 4.469357e+00 3.923544e-01 8.270985e-01 9.269577e-01 8.530496e-01 1.319357e+00 9.840917e-01 8.719415e-01 1.044638e+00 9.286102e-01 6.963018e-01 1.068135e+00 5.678499e-01 5.360253e-01
<GCONST> 1.493755e+02
<STATE> 4
<MEAN> 39
 1.248680e+00 -1.150798e+01 5.322813e-01 -1.186550e+01 -1.047485e+01 -8.771116e+00 -5.629387e-01 -3.181341e+00 -3.809079e+00 -7.184323e+00 -6.018708e+00 -4.860141e+00 7.403815e+01 3.415231e-01 -8.761190e-01 -1.515074e+00 5.415975e-01 1.606148e+00 3.110715e-01 8.447887e-02 6.616881e-01 -3.384063e-01 -7.716908e-01 -7.388083e-01 -3.822834e-01 2.584366e-01 -3.101651e-02 4.710948e-01 -1.414516e-02 2.570885e-01 1.500596e-01 9.576972e-02 -4.298295e-01 -2.375387e-01 3.382748e-02 4.219285e-02 6.557186e-02 6.188450e-02 -4.254178e-01
<VARIANCE> 39
 2.892278e+01 6.559175e+01 5.783825e+01 1.175066e+02 1.237978e+02 9.562318e+01 1.823621e+02 6.655815e+01 9.009032e+01 5.244598e+01 8.196655e+01 3.349571e+01 7.116751e+01 1.038723e+00 2.557996e+00 3.011357e+00 3.415097e+00 4.914099e+00 4.326242e+00 3.899408e+00 4.223316e+00 3.761834e+00 3.824410e+00 4.693955e+00 2.301362e+00 1.454867e+00 1.870885e-01 3.480912e-01 5.078481e-01 4.943508e-01 7.736216e-01 6.501373e-01 7.147965e-01 6.940603e-01 7.025701e-01 5.601804e-01 5.937589e-01 4.131975e-01 1.965902e-01
<GCONST> 1.325970e+02
<TRANSP> 5
 0.000000e+00 1.000000e+00 0.000000e+00 0.000000e+00 0.000000e+00
 0.000000e+00 3.057139e-01 6.942861e-01 0.000000e+00 0.000000e+00
 0.000000e+00 0.000000e+00 5.700906e-01 4.299094e-01 0.000000e+00
 0.000000e+00 0.000000e+00 0.000000e+00 4.800682e-01 5.199319e-01
 0.000000e+00 0.000000e+00 0.000000e+00 0.000000e+00 0.000000e+00
<ENDHMM>
~h "z"
<BEGINHMM>
<NUMSTATES> 5
<STATE> 2
<MEAN> 39
 -5.032160e+00 -6.236022e+00 4.201901e+00 4.876619e+00 -9.905588e+00 -1.438607e+00 -4.725157e+00 -4.610784e+00 -3.652440e-01 -9.031868e+00 -8.437460e+00 -5.032693e+00 8.437115e+01 1.352172e-02 2.835795e-02 -1.045530e-01 2.153951e-02 1.776159e-02 2.064343e-01 1.186336e-01 2.819819e-02 4.819794e-02 8.188041e-02 1.982842e-01 1.243050e-01 -1.637380e-01 2.467814e-02 -2.216000e-02 -5.134167e-03 -1.707209e-02 -1.922713e-02 1.703489e-02 -6.842853e-04 -2.431400e-03 -5.544540e-03 -1.945082e-02 1.520966e-02 1.788085e-02 1.077578e-02
<VARIANCE> 39
 1.564774e+01 1.619774e+01 2.427558e+01 2.618076e+01 1.528569e+01 8.267358e+01 2.836955e+01 1.261433e+01 3.349269e+01 3.092930e+01 3.053316e+01 1.994857e+01 6.508306e+01 5.599426e-01 7.500255e-01 1.022283e+00 2.174669e+00 1.294807e+00 3.322560e+00 1.831230e+00 1.254537e+00 1.947114e+00 1.505588e+00 1.821975e+00 1.165371e+00 1.416389e+00 8.838505e-02 1.345382e-01 1.570930e-01 3.680268e-01 2.811545e-01 6.262004e-01 3.064713e-01 2.582119e-01 3.976894e-01 2.840340e-01 2.980254e-01 1.927271e-01 2.106788e-01
<GCONST> 1.004671e+02
<STATE> 3
<MEAN> 39
 -4.029644e-01 -7.059837e+00 -1.148599e+00 -2.585699e+00 -1.017880e+01 5.191713e-01 -3.267916e+00 -7.289342e+00 -1.490846e+00 -2.954258e+00 -2.478365e+00 -3.459898e+00 9.142860e+01 4.187636e-04 3.649580e-03 1.063174e-02 4.209080e-02 1.896540e-02 -1.970861e-03 5.609354e-03 5.241981e-03 1.070763e-02 7.257553e-03 -2.644469e-02 -1.311143e-02 -2.753026e-03 -6.389052e-03 4.107552e-04 5.437847e-03 1.029833e-03 -4.411543e-04 4.754719e-04 2.472859e-03 2.638546e-03 -3.034845e-03 -6.600732e-03 -5.182793e-03 2.046497e-03 -1.895598e-03
<VARIANCE> 39
 1.470244e+01 2.235097e+01 4.508997e+01 3.386150e+01 3.717660e+01 5.110332e+01 1.842432e+01 3.093739e+01 2.948813e+01 2.621570e+01 2.295196e+01 1.564622e+01 4.774952e+01 9.395350e-01 1.438712e+00 2.060194e+00 1.414124e+00 3.015372e+00 3.483347e+00 1.647621e+00 2.321544e+00 2.831053e+00 2.019776e+00 1.882982e+00 1.546230e+00 1.891967e+00 1.566593e-01 2.393417e-01 2.749074e-01 2.175195e-01 5.834256e-01 5.493882e-01 3.227123e-01 4.542911e-01 5.453542e-01 3.702854e-01 3.558061e-01 3.353359e-01 2.656090e-01
<GCONST> 1.094024e+02
<STATE> 4
<MEAN> 39
 -5.431120e+00 -4.270501e+00 2.685213e+00 4.228608e+00 -9.385745e+00 3.798136e+00 -6.943450e-01 -2.770397e+00 9.336923e-01 -8.542974e+00 -6.079966e+00 -3.639033e+00 8.057339e+01 -1.850989e-01 9.482346e-02 -8.610959e-02 -3.601383e-02 3.474852e-02 1.868035e-01 1.003692e-01 1.048834e-01 4.698234e-02 -3.800777e-02 5.658544e-02 4.457404e-02 -2.413213e-01 2.612315e-02 8.845376e-04 -1.899074e-02 -2.008987e-02 1.979853e-02 -3.959708e-02 -5.879125e-02 -2.218036e-02 3.292343e-02 1.443303e-02 -1.231691e-02 1.126128e-02 1.320127e-02
<VARIANCE> 39
 1.683280e+01 4.833301e+00 1.393195e+01 5.834167e+00 3.367772e+01 5.362893e+01 8.031456e+00 2.204329e+01 1.758542e+01 2.159547e+01 7.481396e+00 9.104046e+00 3.143382e+01 1.570507e-01 3.589479e-01 3.994117e-01 5.436852e-01 1.211644e+00 9.144174e-01 7.494851e-01 1.285447e+00 1.516376e+00 1.201398e+00 1.151582e+00 1.544059e+00 1.549532e-01 4.042694e-02 7.586148e-02 7.338404e-02 1.222463e-01 1.867075e-01 1.319250e-01 1.287714e-01 2.535762e-01 2.677515e-01 2.115093e-01 2.384723e-01 3.696574e-01 2.239585e-02
<GCONST> 7.500577e+01
<TRANSP> 5
 0.000000e+00 1.000000e+00 0.000000e+00 0.000000e+00 0.000000e+00
 0.000000e+00 9.575201e-01 4.247998e-02 0.000000e+00 0.000000e+00
 0.000000e+00 0.000000e+00 9.930280e-01 6.971990e-03 0.000000e+00
 0.000000e+00 0.000000e+00 0.000000e+00 9.480265e-01 5.197347e-02
 0.000000e+00 0.000000e+00 0.000000e+00 0.000000e+00 0.000000e+00
<ENDHMM>
~h "aw"
<BEGINHMM>
<NUMSTATES> 5
<STATE> 2
<MEAN> 39
 2.597733e-01 -8.010819e+00 -6.568847e+00 -5.951707e+00 -7.222507e+00 -1.610882e+00 -1.893696e+00 -4.177353e+00 -4.853332e+00 -5.100956e+00 -3.773898e+00 -2.841202e+00 8.863087e+01 8.395180e-02 1.042574e-01 -2.401903e-02 -4.964712e-02 7.856488e-02 4.200086e-01 2.230975e-02 2.664977e-02 8.108257e-02 8.078302e-02 1.219826e-01 -7.323555e-02 -1.418023e-01 -4.386739e-02 1.307280e-01 4.362261e-02 3.872567e-02 -4.695769e-02 5.755409e-02 1.216246e-02 -4.710282e-02 1.805644e-02 1.850658e-02 5.897488e-02 1.827737e-02 -1.859825e-01
<VARIANCE> 39
 2.244201e+01 5.880708e+01 1.922757e+01 4.143954e+01 3.180194e+01 3.424134e+01 3.120289e+01 3.207749e+01 3.474709e+01 3.050891e+01 2.955562e+01 2.073431e+01 1.589819e+02 1.196923e+00 1.711949e+00 1.075598e+00 1.324973e+00 2.415739e+00 3.017370e+00 1.863675e+00 1.811336e+00 1.939345e+00 1.637805e+00 1.701094e+00 1.665722e+00 2.641842e+00 2.379764e-01 3.361332e-01 2.067640e-01 2.691745e-01 4.535886e-01 4.895746e-01 3.519127e-01 3.407082e-01 3.932737e-01 3.331343e-01 3.474676e-01 2.931727e-01 4.509811e-01
<GCONST> 1.111878e+02
<STATE> 3
<MEAN> 39
 -2.933978e-01 -8.101559e+00 -1.154084e+01 -1.281969e+01 -5.108640e+00 -8.075755e-01 -5.949392e+00 -4.979164e+00 -5.092066e+00 -5.276877e+00 -4.047567e+00 -5.097196e+00 6.411725e+01 -3.694017e-01 7.638503e-01 8.594368e-02 2.027386e-01 -2.668356e-01 5.387339e-02 5.912987e-02 -1.182894e-01 -1.536744e-01 1.011737e-01 4.305152e-01 8.982851e-02 -9.377953e-01 -1.229972e-01 -2.942280e-02 1.267481e-01 1.857865e-01 3.485611e-03 -1.520786e-01 3.814436e-02 3.316797e-02 -2.925045e-03 -5.238514e-02 -6.285958e-02 7.992977e-02 -4.999625e-02
<VARIANCE> 39
 6.677956e+01 6.685774e+01 2.762961e+01 1.493223e+02 3.988781e+01 5.376074e+01 4.384305e+01 4.385429e+01 6.780585e+01 3.643708e+01 3.831424e+01 3.128043e+01 1.496109e+02 1.314364e+00 2.195992e+00 1.234911e+00 3.677019e+00 2.302090e+00 2.979272e+00 1.598871e+00 2.135636e+00 2.742344e+00 1.584011e+00 2.067921e+00 1.838021e+00 9.895965e-01 1.972429e-01 3.342949e-01 1.989471e-01 4.464635e-01 4.101019e-01 5.868264e-01 3.102057e-01 3.654574e-01 5.050626e-01 3.367045e-01 3.955000e-01 3.649721e-01 1.591358e-01
<GCONST> 1.177807e+02
<STATE> 4
<MEAN> 39
 -2.200235e+00 -2.335914e+00 -7.174512e+00 9.295618e+00 -2.594861e-01 1.829109e+00 2.870148e+00 8.892435e+00 -3.502346e+00 2.655056e+00 1.995252e+00 3.652271e+00 6.496589e+01 -7.635843e-02 1.096595e-02 5.782811e-02 1.232349e-01 6.560779e-02 8.969932e-02 3.895414e-02 4.361092e-02 4.597696e-02 -1.559999e-02 2.168159e-03 1.669098e-02 -1.083369e-01 1.367475e-02 -2.287776e-02 2.885815e-03 -4.016503e-03 -8.260503e-03 -4.044627e-02 -2.423481e-02 -2.087944e-02 -2.768132e-02 -1.792533e-02 -2.705131e-02 -2.436034e-02 3.419822e-02
<VARIANCE> 39
 4.978835e+01 2.612746e+01 2.332158e+01 6.453980e+01 4.609002e+01 5.839434e+01 3.257069e+01 5.515492e+01 5.982778e+01 3.055650e+01 4.025811e+01 3.140858e+01 5.289517e+01 5.072091e-01 7.326745e-01 8.732824e-01 1.398359e+00 1.123457e+00 1.389118e+00 1.314919e+00 1.362940e+00 1.822337e+00 1.244527e+00 1.487803e+00 1.107935e+00 4.714811e-01 7.555844e-02 1.274537e-01 1.287859e-01 2.021765e-01 1.817384e-01 2.574012e-01 2.404756e-01 2.337432e-01 3.206016e-01 2.329150e-01 2.467849e-01 1.992233e-01 6.543507e-02
<GCONST> 9.841703e+01
<TRANSP> 5
 0.000000e+00 1.000000e+00 0.000000e+00 0.000000e+00 0.000000e+00
