~o
<STREAMINFO> 1 39
<VECSIZE> 39<NULLD><MFCC_D_A_0><DIAGC>
~h "@"
<BEGINHMM>
<NUMSTATES> 5
<STATE> 2
<MEAN> 39
 -2.622611e+00 -3.605512e+00 -2.998908e+00 -4.868025e+00 -5.558965e+00 -5.628588e+00 -8.660774e+00 -3.912195e+00 -4.270820e+00 -4.299873e+00 -3.612221e+00 -3.263968e+00 6.758777e+01 9.849920e-01 -4.891034e-01 -1.467412e-01 -5.148135e-01 -2.658579e-01 -4.725639e-01 -4.891349e-01 -3.992112e-02 -4.052290e-02 -6.574493e-02 -4.344900e-02 -1.033486e-01 1.299201e+00 9.340277e-02 -5.462816e-02 -5.437863e-02 4.235294e-02 -9.944607e-02 -1.554694e-02 2.231911e-02 -1.577432e-02 -2.141450e-02 -6.185114e-02 -3.491412e-02 -6.408741e-02 4.500077e-02
<VARIANCE> 39
 9.790343e+01 9.257729e+01 6.529916e+01 1.158876e+02 1.250598e+02 9.900631e+01 1.163910e+02 8.875331e+01 7.199763e+01 6.541492e+01 4.993583e+01 4.201499e+01 1.432181e+02 8.427022e+00 6.145230e+00 5.702153e+00 5.649211e+00 6.915358e+00 6.804875e+00 5.412896e+00 6.978703e+00 6.405907e+00 5.275508e+00 5.052614e+00 3.820882e+00 5.651738e+00 1.248076e+00 1.117861e+00 8.590466e-01 1.052478e+00 1.229211e+00 1.107101e+00 9.605538e-01 1.168375e+00 1.038579e+00 8.622028e-01 8.828673e-01 6.986738e-01 9.356100e-01
<GCONST> 1.525689e+02
<STATE> 3
<MEAN> 39
 1.264277e+00 -6.440806e+00 -3.848221e+00 -6.099288e+00 -7.749728e+00 -6.686247e+00 -1.012010e+01 -4.566921e+00 -4.388180e+00 -4.955362e+00 -3.820786e+00 -3.915101e+00 7.226331e+01 1.015563e+00 -4.091614e-01 -2.591927e-01 -1.021407e-01 -4.992681e-01 -2.951997e-01 -1.796113e-01 -1.400270e-01 -7.781388e-02 -2.433437e-01 -1.545173e-01 -2.074036e-01 7.893032e-01 -3.325555e-01 2.692508e-01 1.102730e-01 2.634308e-01 1.716866e-01 2.113649e-01 2.555919e-01 3.128731e-02 1.180349e-02 -1.771315e-02 -2.415125e-02 -3.952600e-03 -4.538182e-01
<VARIANCE> 39
 6.797327e+01 8.472741e+01 7.257375e+01 1.146817e+02 1.348334e+02 1.160747e+02 1.287950e+02 9.229639e+01 8.550389e+01 8.092900e+01 5.581199e+01 4.037309e+01 1.033263e+02 5.591698e+00 5.973762e+00 4.928285e+00 4.781325e+00 6.065039e+00 6.379378e+00 5.634256e+00 6.653066e+00 5.865254e+00 4.632750e+00 4.760081e+00 3.251611e+00 4.444363e+00 9.793452e-01 9.869167e-01 8.036959e-01 9.054339e-01 1.189294e+00 1.123125e+00 1.025890e+00 1.184069e+00 1.016353e+00 8.918453e-01 9.114588e-01 6.356483e-01 7.517378e-01
<GCONST> 1.502880e+02
<STATE> 4
<MEAN> 39
 2.474397e+00 -5.795898e+00 -4.636453e+00 -4.842235e+00 -7.393012e+00 -7.010289e+00 -8.743873e+00 -4.054136e+00 -4.801393e+00 -4.899462e+00 -4.024698e+00 -3.942231e+00 7.188602e+01 1.774202e-01 2.008463e-01 8.208098e-02 3.173174e-01 -4.064923e-02 2.078347e-01 1.978560e-01 -5.137755e-02 -7.503372e-02 -2.128572e-01 -1.677877e-01 -1.266245e-01 -1.662104e-01 -3.515497e-01 1.737637e-01 1.178973e-01 1.157263e-01 1.732189e-01 1.610896e-01 1.171870e-01 2.720702e-02 2.169413e-02 4.894621e-02 2.723568e-02 4.431717e-03 -2.993978e-01
<VARIANCE> 39
 6.087960e+01 8.251574e+01 6.490225e+01 1.083333e+02 1.199423e+02 9.322472e+01 1.130517e+02 8.853696e+01 8.701953e+01 7.353578e+01 5.389025e+01 3.963520e+01 1.171313e+02 3.353223e+00 4.777075e+00 3.489782e+00 3.818631e+00 4.820464e+00 4.772707e+00 3.967784e+00 4.683159e+00 4.285340e+00 3.490712e+00 3.672893e+00 2.636606e+00 3.374447e+00 6.612364e-01 7.598892e-01 6.098607e-01 7.038312e-01 8.042629e-01 8.235050e-01 7.338440e-01 9.374251e-01 8.715878e-01 7.083515e-01 7.228262e-01 5.299507e-01 5.780835e-01
<GCONST> 1.420879e+02
<TRANSP> 5
 0.000000e+00 1.000000e+00 0.000000e+00 0.000000e+00 0.000000e+00
 0.000000e+00 3.903127e-01 6.096872e-01 0.000000e+00 0.000000e+00
 0.000000e+00 0.000000e+00 3.014244e-01 6.985757e-01 0.000000e+00
 0.000000e+00 0.000000e+00 0.000000e+00 2.261274e-01 7.738726e-01
 0.000000e+00 0.000000e+00 0.000000e+00 0.000000e+00 0.000000e+00
<ENDHMM>
~h "a"
<BEGINHMM>
<NUMSTATES> 5
<STATE> 2
<MEAN> 39
 1.790276e+00 -1.253285e+01 -6.036589e+00 -7.653991e+00 -6.797407e+00 -5.141422e+00 -6.859719e+00 -2.159458e+00 -3.784538e+00 -6.770618e+00 -6.632589e+00 -4.965118e+00 7.309282e+01 2.691836e-01 -5.117013e-01 -1.717564e-01 6.841795e-02 2.695778e-01 1.343990e-01 4.628764e-02 2.517181e-01 -1.512488e-01 -2.283200e-01 -3.286213e-01 -1.897669e-02 2.378050e-01 -1.978727e-01 4.664242e-01 1.760897e-01 2.191490e-01 1.675301e-03 -2.173896e-02 -6.691013e-03 -1.931122e-01 -5.002764e-03 8.728015e-02 8.279675e-02 5.983599e-02 -4.082095e-01
<VARIANCE> 39
 4.724666e+01 1.068150e+02 5.346337e+01 9.027542e+01 1.023045e+02 8.085159e+01 1.334831e+02 7.670134e+01 7.887450e+01 7.780035e+01 5.684705e+01 4.647346e+01 1.179856e+02 1.904553e+00 4.275063e+00 2.578147e+00 2.848942e+00 4.412446e+00 3.502667e+00 3.777277e+00 3.927735e+00 3.558385e+00 3.022145e+00 3.349993e+00 2.548690e+00 2.949444e+00 3.748277e-01 7.473911e-01 4.278240e-01 4.978957e-01 7.081670e-01 6.343102e-01 6.721998e-01 7.898799e-01 6.750002e-01 5.968340e-01 5.754693e-01 5.001581e-01 4.279139e-01
<GCONST> 1.361838e+02
<STATE> 3
<MEAN> 39
 2.170199e+00 -1.239737e+01 -6.090312e+00 -7.317911e+00 -6.911147e+00 -5.199916e+00 -6.915761e+00 -2.071854e+00 -4.026869e+00 -6.980082e+00 -6.925450e+00 -5.028672e+00 7.301583e+01 -8.607528e-02 8.500681e-01 2.154073e-01 5.664017e-01 -8.701991e-03 -9.594489e-03 2.521465e-02 -2.305965e-01 -2.507327e-02 5.266086e-02 -7.635379e-02 1.717273e-03 -8.176951e-01 -1.612803e-01 4.007501e-01 1.620322e-01 1.527832e-01 -3.510497e-02 -3.261878e-03 7.321849e-03 -1.933420e-01 3.270531e-02 7.748125e-02 9.074736e-02 2.774502e-02 -3.055018e-01
<VARIANCE> 39
 4.347986e+01 1.000272e+02 5.026540e+01 8.392744e+01 1.038682e+02 7.757612e+01 1.421504e+02 7.663962e+01 7.993319e+01 8.158398e+01 5.724279e+01 4.496856e+01 1.123669e+02 1.221061e+00 3.390151e+00 2.020705e+00 2.559692e+00 3.698719e+00 3.165411e+00 3.220075e+00 3.710731e+00 3.006263e+00 2.508932e+00 2.704290e+00 2.217722e+00 2.012523e+00 2.617072e-01 5.575361e-01 3.536359e-01 4.418091e-01 6.374990e-01 5.751439e-01 6.182111e-01 7.183722e-01 5.924057e-01 5.152197e-01 5.280809e-01 4.387608e-01 2.901798e-01
<GCONST> 1.310841e+02
<STATE> 4
<MEAN> 39
 5.427252e-01 -8.406426e+00 -6.879824e+00 -4.962736e+00 -5.840598e+00 -5.272427e+00 -4.475469e+00 -1.771977e+00 -4.449105e+00 -5.889789e+00 -5.824296e+00 -4.147669e+00 6.876035e+01 -3.077891e-01 7.464670e-01 2.910753e-01 3.943378e-01 -6.330936e-02 1.688121e-01 -2.150495e-02 -2.386317e-01 -3.419861e-02 7.941472e-02 5.636905e-02 3.830057e-02 -8.651772e-01 -4.888053e-02 2.510099e-03 5.733354e-02 -4.260658e-02 -5.876707e-03 -1.375748e-02 -2.585828e-02 -3.886125e-02 9.552383e-03 1.268652e-02 3.665110e-02 7.081943e-03 3.203136e-02
<VARIANCE> 39
 5.812690e+01 8.814486e+01 4.372511e+01 7.024139e+01 8.222258e+01 6.248311e+01 9.317755e+01 6.679307e+01 7.199263e+01 6.657916e+01 5.293460e+01 4.061610e+01 1.804253e+02 1.201033e+00 2.140550e+00 1.661075e+00 1.942460e+00 2.614982e+00 2.349422e+00 2.335957e+00 2.730814e+00 2.347122e+00 2.079609e+00 2.099485e+00 1.774943e+00 1.419735e+00 2.000350e-01 3.585007e-01 2.688748e-01 3.411548e-01 4.280153e-01 4.065435e-01 4.108896e-01 4.471408e-01 4.268032e-01 3.804123e-01 3.992734e-01 3.275076e-01 2.303083e-01
<GCONST> 1.221204e+02
<TRANSP> 5
 0.000000e+00 1.000000e+00 0.000000e+00 0.000000e+00 0.000000e+00
 0.000000e+00 3.588624e-01 6.411376e-01 0.000000e+00 0.000000e+00
 0.000000e+00 0.000000e+00 3.078426e-01 6.921574e-01 0.000000e+00
 0.000000e+00 0.000000e+00 0.000000e+00 6.241826e-01 3.758173e-01
 0.000000e+00 0.000000e+00 0.000000e+00 0.000000e+00 0.000000e+00
<ENDHMM>
~h "b"
<BEGINHMM>
<NUMSTATES> 5
<STATE> 2
<MEAN> 39
 2.633382e+00 -2.164062e+00 -2.122540e+00 -4.296556e+00 -8.615454e+00 -4.282931e+00 -9.801516e+00 -7.573195e+00 -5.593872e+00 -6.922642e+00 -5.952095e+00 -5.903945e+00 6.649808e+01 5.762267e-01 6.203994e-01 6.422797e-02 4.458097e-01 2.023711e-01 -9.627923e-02 3.262657e-02 -1.080962e-01 2.682527e-02 -2.451669e-01 -5.128922e-01 -3.748302e-01 -1.153335e-03 -1.716878e-01 -4.325009e-01 -9.217266e-02 -3.021770e-01 -7.258359e-02 -1.132194e-01 -5.982181e-03 2.184999e-01 1.875388e-01 1.116341e-01 1.065307e-01 9.488358e-02 4.010090e-01
<VARIANCE> 39
 4.529445e+01 7.307751e+01 5.151051e+01 8.671941e+01 9.369078e+01 6.758937e+01 9.023938e+01 8.791849e+01 5.598280e+01 5.693272e+01 6.378273e+01 3.771304e+01 1.377905e+02 3.173569e+00 4.405116e+00 3.271683e+00 4.467916e+00 3.525781e+00 3.691480e+00 3.226580e+00 4.064034e+00 4.058085e+00 3.294187e+00 3.958934e+00 2.609215e+00 4.437679e+00 4.534553e-01 7.562298e-01 5.809917e-01 7.166150e-01 6.819889e-01 6.784754e-01 6.649559e-01 7.789235e-01 7.521057e-01 6.564889e-01 7.006823e-01 4.907683e-01 5.930306e-01
<GCONST> 1.379037e+02
<STATE> 3
<MEAN> 39
 3.576324e+00 -3.478925e+00 -2.797984e+00 -5.095389e+00 -8.541113e+00 -5.012961e+00 -1.046362e+01 -7.487599e+00 -4.034632e+00 -6.705591e+00 -6.466573e+00 -6.549417e+00 6.883231e+01 -6.460109e-02 -8.082007e-01 -1.696608e-01 -5.016963e-01 -1.329624e-01 -3.417230e-01 2.589675e-02 5.488002e-01 5.373300e-01 1.292560e-01 -2.470786e-02 -7.530064e-02 9.144846e-01 -2.152981e-01 -3.454617e-01 4.283569e-02 -2.470100e-01 -1.407338e-01 4.022848e-03 2.624479e-02 1.712887e-01 4.801403e-02 5.793789e-02 1.802424e-01 1.618845e-01 1.967911e-01
<VARIANCE> 39
 3.393507e+01 8.120763e+01 5.013390e+01 8.970827e+01 9.583551e+01 6.627606e+01 9.555566e+01 8.485413e+01 6.259665e+01 6.486309e+01 7.972596e+01 4.302309e+01 1.164933e+02 2.417498e+00 6.038576e+00 4.347612e+00 5.701086e+00 4.482250e+00 4.810668e+00 3.756150e+00 5.480356e+00 5.162895e+00 3.912029e+00 4.534678e+00 3.180786e+00 5.250896e+00 4.096490e-01 8.777281e-01 7.040620e-01 1.000294e+00 7.784855e-01 7.794408e-01 7.357859e-01 9.576014e-01 8.992620e-01 7.928997e-01 1.007308e+00 6.598359e-01 8.072801e-01
<GCONST> 1.431097e+02
<STATE> 4
<MEAN> 39
 3.541142e+00 -2.819276e+00 -2.789253e+00 -5.994944e+00 -9.570260e+00 -6.248371e+00 -7.935168e+00 -4.763219e+00 -4.148217e+00 -7.771374e+00 -7.589819e+00 -6.287644e+00 6.763308e+01 -2.686948e-01 -7.004330e-01 7.030459e-03 -6.669435e-01 -2.241041e-01 -2.173261e-02 2.759248e-02 2.991484e-01 1.706548e-01 2.501440e-01 4.002127e-01 4.397581e-01 6.593950e-01 -8.245592e-02 -1.246752e-01 -3.246650e-03 -2.331871e-01 -6.022291e-02 6.486043e-02 -6.122067e-02 -5.446496e-02 -4.337318e-03 6.852131e-02 1.741929e-01 1.558652e-01 1.100725e-01
<VARIANCE> 39
 2.885314e+01 8.320404e+01 4.161761e+01 8.595278e+01 8.018894e+01 5.809405e+01 6.930728e+01 6.686372e+01 4.804912e+01 5.511557e+01 6.275000e+01 3.793795e+01 1.204314e+02 1.712988e+00 4.157332e+00 3.797848e+00 4.591286e+00 3.591631e+00 3.757935e+00 3.310379e+00 3.788927e+00 3.639489e+00 3.339627e+00 3.447248e+00 2.662706e+00 2.962586e+00 2.577490e-01 7.034314e-01 4.644668e-01 8.857070e-01 5.946178e-01 6.324698e-01 5.487398e-01 6.680799e-01 6.788098e-01 5.840716e-01 6.580935e-01 4.924270e-01 5.474727e-01
<GCONST> 1.335009e+02
<TRANSP> 5
 0.000000e+00 1.000000e+00 0.000000e+00 0.000000e+00 0.000000e+00
 0.000000e+00 3.271796e-01 6.728203e-01 0.000000e+00 0.000000e+00
 0.000000e+00 0.000000e+00 3.684636e-01 6.315364e-01 0.000000e+00
 0.000000e+00 0.000000e+00 0.000000e+00 4.549710e-01 5.450290e-01
 0.000000e+00 0.000000e+00 0.000000e+00 0.000000e+00 0.000000e+00
<ENDHMM>
~h "c"
<BEGINHMM>
<NUMSTATES> 5
<STATE> 2
<MEAN> 39
 -9.727933e+00 -4.075895e+00 -2.964492e+00 -7.048432e+00 -6.445486e+00 -6.954085e+00 -6.528071e+00 -4.287141e+00 -2.348288e+00 -4.654941e+00 -4.422767e+00 -3.479285e+00 6.905457e+01 -5.074697e-01 -4.440643e-01 -5.194971e-01 -8.341701e-01 1.799403e-01 -2.109712e-01 1.635417e-01 3.860967e-01 1.163200e-01 3.081881e-01 3.749513e-01 1.723848e-03 1.078653e+00 4.691241e-01 -2.828057e-01 7.346168e-03 -7.148328e-02 -2.575848e-01 8.399770e-02 -7.190953e-02 -1.822177e-02 -6.423783e-02 -1.218975e-01 -6.302992e-02 -1.219487e-01 1.957908e-01
<VARIANCE> 39
 1.097158e+02 3.897286e+01 4.288527e+01 6.368985e+01 7.022765e+01 6.392977e+01 8.778072e+01 5.184578e+01 3.592464e+01 2.751528e+01 3.446654e+01 2.956954e+01 2.245063e+02 8.684594e+00 3.030510e+00 3.219408e+00 3.602069e+00 4.572164e+00 3.771695e+00 3.504813e+00 3.744196e+00 3.279681e+00 2.554339e+00 2.655393e+00 2.164764e+00 5.370590e+00 1.647390e+00 5.297007e-01 5.161162e-01 7.944647e-01 7.642438e-01 6.154767e-01 5.805967e-01 7.042817e-01 6.885920e-01 4.915444e-01 5.162831e-01 4.808034e-01 8.813898e-01
<GCONST> 1.354390e+02
<STATE> 3
<MEAN> 39
 -3.351000e+00 -7.400385e+00 -3.765140e+00 -8.073732e+00 -9.044662e+00 -5.880300e+00 -7.022124e+00 -3.845285e+00 -1.470158e+00 -4.721052e+00 -5.094158e+00 -4.771529e+00 7.480798e+01 1.473142e+00 -1.052017e+00 -4.541148e-01 -2.224399e-01 -4.724054e-01 5.569568e-01 -9.122853e-02 5.587027e-02 -2.382765e-01 -1.899081e-01 -1.870927e-01 -4.608143e-01 5.714707e-01 -2.106489e-01 3.843279e-02 7.314279e-02 8.644208e-02 1.049732e-02 1.564763e-01 -5.764276e-02 -1.305283e-01 -1.087975e-01 -7.268459e-02 -5.318031e-03 1.097162e-01 -1.600811e-01
<VARIANCE> 39
 8.145615e+01 5.777081e+01 3.703079e+01 7.102274e+01 6.847613e+01 6.453243e+01 9.881706e+01 6.097043e+01 4.034687e+01 4.092681e+01 3.769621e+01 3.016026e+01 2.296768e+02 8.290034e+00 3.769770e+00 2.186351e+00 2.684418e+00 3.425140e+00 3.418481e+00 2.692681e+00 2.896538e+00 2.967887e+00 2.629863e+00 2.454830e+00 2.487514e+00 2.853966e+00 1.078012e+00 4.754509e-01 3.787923e-01 5.266295e-01 6.795302e-01 5.291916e-01 5.028849e-01 5.807293e-01 5.244224e-01 4.639846e-01 4.368028e-01 3.864032e-01 4.507861e-01
<GCONST> 1.311036e+02
<STATE> 4
<MEAN> 39
 -1.496215e+00 -5.764795e+00 -2.523560e+00 -2.297831e+00 -8.780541e+00 -2.068112e-01 -3.567072e+00 -6.164746e+00 -1.403147e+00 -4.408179e+00 -4.239175e+00 -4.164693e+00 8.878313e+01 2.362730e-02 -1.270234e-03 1.417202e-02 1.531759e-02 -3.631683e-02 4.465305e-02 -9.752906e-03 -2.014217e-02 -8.770638e-03 -1.629370e-02 -2.765298e-03 1.800824e-04 -4.987674e-02 -2.908569e-03 3.704156e-03 1.483670e-02 5.481247e-03 -1.293328e-02 -1.890218e-03 -9.674562e-03 -1.076965e-02 4.756914e-03 -4.150589e-03 -3.009631e-03 7.521879e-03 -8.529004e-03
<VARIANCE> 39
 2.227156e+01 2.794267e+01 3.169480e+01 3.228407e+01 2.532625e+01 4.562026e+01 2.878167e+01 2.888057e+01 3.240679e+01 2.658770e+01 2.623902e+01 2.231679e+01 8.200885e+01 1.075136e+00 1.268137e+00 1.157393e+00 1.412239e+00 1.887878e+00 2.406120e+00 1.717153e+00 1.973146e+00 2.086786e+00 1.782469e+00 1.686214e+00 1.526940e+00 2.130345e+00 1.705040e-01 1.914732e-01 1.824800e-01 2.495805e-01 3.523007e-01 4.139301e-01 3.248380e-01 3.719080e-01 3.954700e-01 3.399249e-01 3.144780e-01 2.854651e-01 2.837909e-01
<GCONST> 1.066788e+02
<TRANSP> 5
 0.000000e+00 1.000000e+00 0.000000e+00 0.000000e+00 0.000000e+00
 0.000000e+00 6.004125e-01 3.995875e-01 0.000000e+00 0.000000e+00
 0.000000e+00 0.000000e+00 2.831252e-01 7.168748e-01 0.000000e+00
 0.000000e+00 0.000000e+00 0.000000e+00 9.663202e-01 3.367984e-02
 0.000000e+00 0.000000e+00 0.000000e+00 0.000000e+00 0.000000e+00
<ENDHMM>
~h "d"
<BEGINHMM>
<NUMSTATES> 5
<STATE> 2
<MEAN> 39
 1.265443e+00 -3.446192e+00 -5.091901e-01 -1.474091e+00 -9.159287e+00 -5.994792e+00 -9.977486e+00 -5.190578e+00 -3.926179e+00 -7.734622e+00 -6.832505e+00 -5.229686e+00 6.660619e+01 6.621058e-02 3.104440e-01 3.673967e-01 9.673519e-02 1.611230e-01 -2.251081e-01 -1.921912e-01 1.778072e-01 -1.224569e-01 -1.174686e-01 -1.377310e-01 -9.863701e-02 2.022972e-01 -1.431458e-01 -5.959075e-01 -1.292525e-02 -5.654372e-01 -2.180243e-01 -1.104017e-01 1.828921e-02 2.556278e-01 -1.858671e-02 1.580878e-01 3.032252e-01 1.296365e-01 6.077792e-01
<VARIANCE> 39
 4.815247e+01 6.936202e+01 5.949799e+01 8.843470e+01 1.094569e+02 7.079116e+01 1.035108e+02 7.550887e+01 6.801425e+01 6.023132e+01 5.550913e+01 3.916137e+01 1.324629e+02 3.058232e+00 4.928934e+00 3.034236e+00 3.966741e+00 4.816545e+00 4.905855e+00 3.614871e+00 4.557653e+00 3.869441e+00 3.163782e+00 3.854541e+00 2.522159e+00 4.584215e+00 4.743694e-01 9.449685e-01 6.356200e-01 8.628571e-01 9.818635e-01 9.995658e-01 7.282726e-01 9.480733e-01 7.639440e-01 6.672676e-01 7.529417e-01 5.177134e-01 7.970981e-01
<GCONST> 1.409989e+02
<STATE> 3
<MEAN> 39
 9.995847e-01 -5.430004e+00 4.382021e-01 -2.886205e+00 -1.032117e+01 -6.914985e+00 -1.130936e+01 -3.660840e+00 -3.854728e+00 -7.523953e+00 -5.348469e+00 -4.808764e+00 7.020030e+01 -1.895032e-01 -1.317747e+00 1.765606e-01 -1.142449e+00 -6.977471e-01 -3.714082e-01 -1.055549e-01 7.932943e-01 2.078717e-02 3.151507e-01 6.642834e-01 1.602833e-01 1.457950e+00 1.648658e-02 -2.423165e-01 -6.649675e-02 -2.067857e-01 -1.057912e-01 6.526263e-02 1.159355e-01 -1.147350e-02 3.583892e-02 7.359222e-02 7.165792e-02 4.012337e-03 1.350319e-01
<VARIANCE> 39
 4.371613e+01 7.358952e+01 6.036863e+01 1.004724e+02 1.192970e+02 8.118248e+01 1.188977e+02 7.976501e+01 7.127827e+01 6.000792e+01 5.956819e+01 4.188058e+01 1.254397e+02 2.638419e+00 5.615641e+00 4.443987e+00 4.922712e+00 6.277527e+00 5.776042e+00 4.715201e+00 6.437683e+00 5.108350e+00 3.707321e+00 4.553484e+00 2.891940e+00 4.852724e+00 4.352229e-01 9.639429e-01 6.248046e-01 9.338343e-01 1.181719e+00 1.054744e+00 8.742905e-01 1.035386e+00 7.911883e-01 6.700081e-01 8.977345e-01 6.013449e-01 9.025391e-01
<GCONST> 1.450573e+02
<STATE> 4
<MEAN> 39
 9.113897e-01 -6.630358e+00 -1.074696e-01 -4.285783e+00 -1.040427e+01 -7.248812e+00 -9.164748e+00 -2.462285e+00 -4.114315e+00 -5.928042e+00 -4.499536e+00 -4.431952e+00 7.198607e+01 -1.016979e-01 -8.349374e-01 1.096735e-01 -8.858253e-01 -2.826677e-01 3.477392e-02 1.936451e-01 2.657781e-01 -3.941218e-02 2.503018e-01 3.060392e-01 9.681679e-02 7.744942e-01 3.169610e-02 1.790523e-01 -5.498613e-02 1.080425e-01 1.257350e-01 7.067009e-02 6.243543e-02 -2.249881e-01 -8.449787e-03 -8.403269e-02 -1.122588e-01 -4.693127e-03 -1.676826e-01
<VARIANCE> 39
 4.656072e+01 7.329335e+01 6.689148e+01 1.184511e+02 1.121965e+02 7.426320e+01 1.068513e+02 8.080820e+01 7.816853e+01 5.381649e+01 5.078527e+01 3.922650e+01 1.379407e+02 2.001798e+00 4.088869e+00 4.335131e+00 4.746568e+00 5.348678e+00 5.058409e+00 4.556055e+00 5.522179e+00 4.246603e+00 3.229950e+00 3.844272e+00 2.951880e+00 3.451384e+00 2.999202e-01 6.453206e-01 4.417315e-01 7.560412e-01 8.708308e-01 8.223017e-01 7.137453e-01 8.759683e-01 6.809192e-01 6.360176e-01 6.616837e-01 4.778812e-01 6.323589e-01
<GCONST> 1.396966e+02
<TRANSP> 5
 0.000000e+00 1.000000e+00 0.000000e+00 0.000000e+00 0.000000e+00
 0.000000e+00 3.819873e-01 6.180127e-01 0.000000e+00 0.000000e+00
 0.000000e+00 0.000000e+00 3.609526e-01 6.390474e-01 0.000000e+00
 0.000000e+00 0.000000e+00 0.000000e+00 2.393725e-01 7.606275e-01
 0.000000e+00 0.000000e+00 0.000000e+00 0.000000e+00 0.000000e+00
<ENDHMM>
~h "e"
<BEGINHMM>
<NUMSTATES> 5
<STATE> 2
<MEAN> 39
 -3.168399e-01 -1.111635e+01 -2.008336e+00 -5.871671e+00 -1.267886e+01 -5.408873e+00 -4.473132e+00 -4.104596e+00 -5.822745e+00 -6.747898e+00 -5.416657e+00 -4.472205e+00 7.541879e+01 -1.570255e-01 -2.670119e-01 2.987380e-01 1.358768e-02 1.176650e-02 1.650688e-01 2.123345e-01 1.643020e-01 -1.300474e-01 6.417414e-02 9.168434e-02 4.782208e-02 4.719413e-02 -1.447111e-01 2.578084e-01 1.430977e-03 1.049289e-01 7.295015e-02 2.448684e-02 1.932820e-02 -3.504745e-02 1.074418e-01 5.266888e-02 5.484209e-03 4.580503e-03 -2.484446e-01
<VARIANCE> 39
 4.421603e+01 7.751163e+01 6.752000e+01 8.876638e+01 7.408688e+01 9.745164e+01 8.313747e+01 6.321177e+01 6.540363e+01 5.238964e+01 4.623908e+01 2.934732e+01 1.878252e+02 1.715039e+00 3.443346e+00 2.713759e+00 2.063437e+00 2.878388e+00 3.661301e+00 2.390168e+00 3.039350e+00 3.103316e+00 2.344131e+00 2.071547e+00 1.669713e+00 2.861505e+00 3.905927e-01 6.314009e-01 4.707348e-01 4.420331e-01 6.245878e-01 6.411375e-01 4.916352e-01 6.075547e-01 6.311681e-01 5.075088e-01 4.218301e-01 3.447802e-01 4.228595e-01
<GCONST> 1.296475e+02
<STATE> 3
<MEAN> 39
 -9.073896e-01 -1.159765e+01 -1.705828e+00 -6.497387e+00 -1.340856e+01 -5.869133e+00 -3.356388e+00 -3.319933e+00 -7.062538e+00 -7.690369e+00 -5.645695e+00 -4.010764e+00 7.054547e+01 -2.797025e-01 6.487152e-01 -1.491497e-01 4.090703e-01 9.737768e-02 -3.236361e-02 -1.438484e-03 5.742560e-02 1.557359e-01 4.625294e-02 5.673604e-02 -3.830354e-03 -7.176106e-01 -3.612871e-02 1.168865e-01 -5.734314e-02 5.342150e-02 5.383433e-02 4.153773e-04 -4.400640e-02 -4.115490e-02 5.128589e-02 -2.520896e-02 -3.602509e-02 -2.309679e-02 -1.180812e-01
<VARIANCE> 39
 4.265678e+01 9.235706e+01 6.248264e+01 1.042033e+02 7.294135e+01 8.511108e+01 8.233910e+01 5.760134e+01 6.149255e+01 5.443497e+01 4.713632e+01 2.932753e+01 1.564757e+02 1.103030e+00 2.198647e+00 1.486365e+00 1.766737e+00 2.352860e+00 2.531873e+00 1.826852e+00 1.967798e+00 2.118117e+00 1.760331e+00 1.610235e+00 1.340387e+00 1.424065e+00 1.974744e-01 4.213347e-01 3.004145e-01 3.432125e-01 4.445569e-01 4.505229e-01 3.475265e-01 4.132763e-01 4.175270e-01 3.442979e-01 3.334548e-01 2.785968e-01 2.365264e-01
<GCONST> 1.196254e+02
<STATE> 4
<MEAN> 39
 -2.616690e+00 -5.516236e+00 -1.893118e+00 -1.368612e+00 -8.493484e+00 -8.023857e-02 -3.355884e+00 -5.515767e+00 -1.351331e+00 -4.718503e+00 -4.218225e+00 -3.656664e+00 8.554250e+01 -1.811223e-02 3.159564e-02 2.590659e-03 2.452949e-02 5.599194e-03 3.291374e-02 1.933516e-03 -6.321106e-03 2.471914e-02 8.840798e-03 -2.802159e-03 3.639056e-04 -7.271557e-02 2.960880e-03 -4.781888e-03 4.884809e-03 -1.798095e-03 -6.626520e-03 3.892824e-04 -4.107104e-03 -4.018466e-03 8.567539e-05 -6.023201e-03 -2.055975e-03 3.763133e-03 2.181965e-03
<VARIANCE> 39
 2.929241e+01 2.802673e+01 3.688850e+01 3.415496e+01 3.166220e+01 5.944825e+01 3.047081e+01 2.876382e+01 3.735007e+01 2.778543e+01 2.701212e+01 2.064921e+01 1.633230e+02 8.657204e-01 1.167564e+00 1.305872e+00 1.389068e+00 1.861144e+00 2.464207e+00 1.573758e+00 1.686106e+00 2.046842e+00 1.707059e+00 1.604354e+00 1.456129e+00 1.866196e+00 1.354822e-01 1.789991e-01 2.006482e-01 2.377580e-01 3.371061e-01 4.035138e-01 2.952471e-01 3.177661e-01 3.755224e-01 3.237052e-01 2.995341e-01 2.749467e-01 2.438083e-01
<GCONST> 1.068971e+02
<TRANSP> 5
 0.000000e+00 1.000000e+00 0.000000e+00 0.000000e+00 0.000000e+00
 0.000000e+00 4.575383e-01 5.424617e-01 0.000000e+00 0.000000e+00
 0.000000e+00 0.000000e+00 5.321240e-01 4.678760e-01 0.000000e+00
 0.000000e+00 0.000000e+00 0.000000e+00 9.651601e-01 3.483983e-02
 0.000000e+00 0.000000e+00 0.000000e+00 0.000000e+00 0.000000e+00
<ENDHMM>
~h "f"
<BEGINHMM>
<NUMSTATES> 5
<STATE> 2
<MEAN> 39
 -8.273525e+00 -6.929390e+00 -1.245152e+00 -3.428069e+00 -8.246086e+00 -7.381687e+00 -6.381942e+00 -4.424513e+00 -4.523314e+00 -4.617381e+00 -4.107792e+00 -4.297902e+00 6.731190e+01 -1.713709e+00 -3.537149e-01 -2.023741e-01 1.027089e+00 9.217182e-01 -2.404466e-01 5.187860e-01 2.113005e-01 4.018686e-01 2.730156e-01 2.604830e-01 2.273759e-01 -5.814244e-01 2.692931e-01 -2.167570e-01 -4.846111e-02 -3.576420e-01 -2.202206e-01 7.344799e-02 -1.472680e-01 -4.645967e-02 -7.188682e-03 -2.583109e-02 6.459259e-03 9.805514e-03 1.882753e-01
<VARIANCE> 39
 8.329994e+01 4.425231e+01 4.311801e+01 1.048078e+02 1.093685e+02 7.376742e+01 6.532227e+01 4.375753e+01 4.644233e+01 3.681525e+01 3.568649e+01 2.296805e+01 9.367921e+01 4.495638e+00 2.714520e+00 2.240792e+00 6.629268e+00 4.362043e+00 4.365454e+00 2.974494e+00 2.486231e+00 3.833697e+00 2.861130e+00 3.286407e+00 2.504547e+00 1.587273e+00 8.831926e-01 4.995398e-01 4.085540e-01 8.966331e-01 7.246099e-01 7.143874e-01 5.497156e-01 5.145558e-01 7.422160e-01 5.799963e-01 5.213344e-01 4.419998e-01 2.174896e-01
<GCONST> 1.314846e+02
<STATE> 3
<MEAN> 39
 -1.056789e+01 -8.931895e+00 -2.392492e+00 -2.149699e+00 -6.582153e+00 -7.091776e+00 -5.572122e+00 -4.130823e+00 -3.762671e+00 -4.075590e+00 -3.557706e+00 -3.800271e+00 6.674368e+01 8.717330e-01 -3.176513e-01 1.397852e-02 -4.709141e-01 -7.636609e-01 -2.881785e-02 6.475892e-02 -9.533694e-02 -2.021502e-01 -1.946995e-01 -9.175392e-03 6.251607e-02 3.253276e-01 7.118456e-01 1.124872e-01 1.016631e-01 -3.464298e-01 -4.394172e-01 6.587285e-02 -1.855558e-01 -1.542524e-01 -2.383494e-01 -1.634845e-01 -8.491839e-02 -5.356357e-02 2.874448e-01
<VARIANCE> 39
 7.553485e+01 5.714543e+01 5.013903e+01 8.351496e+01 1.011450e+02 7.850477e+01 6.573190e+01 4.605223e+01 4.718661e+01 3.482078e+01 3.325425e+01 2.544427e+01 1.132382e+02 8.507997e+00 3.956890e+00 3.901918e+00 5.273561e+00 6.250390e+00 4.397981e+00 3.162223e+00 3.275008e+00 4.439579e+00 3.180817e+00 3.046786e+00 2.369653e+00 2.323247e+00 9.550297e-01 7.912712e-01 5.773780e-01 1.077548e+00 9.839357e-01 7.478997e-01 6.425229e-01 6.420704e-01 8.127365e-01 6.057732e-01 6.543552e-01 4.532466e-01 3.300390e-01
<GCONST> 1.369370e+02
<STATE> 4
<MEAN> 39
 -7.038846e+00 -1.006210e+01 -1.837627e+00 -5.305132e+00 -1.133096e+01 -5.315403e+00 -3.063440e+00 -5.467418e+00 -4.714706e+00 -7.206156e+00 -5.947834e+00 -3.761500e+00 6.303625e+01 1.143494e+00 1.037007e-01 3.773475e-02 -7.220410e-01 -5.673153e-01 1.495447e-01 -2.816660e-01 -2.067135e-01 -2.466864e-01 -2.006358e-01 -1.809708e-01 -4.393065e-02 4.861692e-01 1.587339e-01 4.734791e-02 1.600498e-02 -9.082484e-02 2.320300e-02 2.905523e-02 -1.012187e-01 -1.352689e-02 -1.994838e-02 -6.623364e-03 -5.320872e-02 -3.327308e-02 1.390083e-01
<VARIANCE> 39
 6.280664e+01 5.680801e+01 5.153873e+01 8.961395e+01 9.589820e+01 5.391319e+01 4.238889e+01 3.622461e+01 4.136199e+01 3.258844e+01 3.756250e+01 2.370896e+01 1.007215e+02 6.905661e+00 4.864476e+00 3.606712e+00 6.766121e+00 5.458406e+00 3.879472e+00 3.168663e+00 2.738025e+00 3.860533e+00 3.193891e+00 3.457169e+00 2.360784e+00 3.215527e+00 9.241182e-01 7.728697e-01 4.324909e-01 9.773469e-01 6.661063e-01 6.269262e-01 5.647907e-01 4.789762e-01 6.134608e-01 5.041125e-01 5.692182e-01 4.249818e-01 4.374484e-01
<GCONST> 1.336966e+02
<TRANSP> 5
 0.000000e+00 1.000000e+00 0.000000e+00 0.000000e+00 0.000000e+00
 0.000000e+00 5.658038e-01 4.341961e-01 0.000000e+00 0.000000e+00
 0.000000e+00 0.000000e+00 5.226807e-01 4.773193e-01 0.000000e+00
 0.000000e+00 0.000000e+00 0.000000e+00 6.544005e-01 3.455995e-01
 0.000000e+00 0.000000e+00 0.000000e+00 0.000000e+00 0.000000e+00
<ENDHMM>
~h "g"
<BEGINHMM>
<NUMSTATES> 5
<STATE> 2
<MEAN> 39
 2.780653e+00 -1.545670e+00 -1.747797e-01 -5.856095e+00 -7.465435e+00 -5.182767e+00 -1.259156e+01 -6.477410e+00 -6.439271e+00 -3.329059e+00 6.088580e-01 -6.036069e+00 6.776681e+01 1.872005e-03 -5.178012e-01 2.250312e-01 -9.183899e-03 -3.678762e-01 -4.250563e-01 -5.794317e-01 -1.435972e-01 -2.284215e-01 -7.745166e-02 7.920685e-01 1.985786e-01 6.242316e-01 7.784200e-02 -1.650582e-01 1.782743e-02 6.303470e-02 -1.478318e-01 -1.000077e-01 4.400475e-02 -7.706007e-02 1.307949e-01 -4.569829e-02 -4.924132e-02 -1.239534e-01 1.740821e-01
<VARIANCE> 39
 5.333350e+01 7.402625e+01 8.976205e+01 8.601482e+01 1.698914e+02 1.569539e+02 1.505139e+02 9.234953e+01 7.299757e+01 8.898698e+01 9.108447e+01 5.292388e+01 1.049910e+02 2.058676e+00 3.650868e+00 5.522569e+00 5.591782e+00 7.194044e+00 8.650743e+00 6.863144e+00 6.529702e+00 6.723133e+00 5.704457e+00 6.261589e+00 4.110129e+00 4.037545e+00 3.773296e-01 6.008301e-01 7.489944e-01 1.001465e+00 1.220498e+00 1.352047e+00 1.220345e+00 1.128675e+00 1.071343e+00 1.082729e+00 1.185798e+00 7.616678e-01 7.406263e-01
<GCONST> 1.510207e+02
<STATE> 3
<MEAN> 39
 2.998121e+00 -6.822738e+00 -1.143931e-01 -4.007780e+00 -1.420509e+01 -1.973545e+00 -1.673846e+01 -1.075808e+01 -3.506055e+00 -6.189116e+00 -1.577718e+00 -6.251605e+00 7.220297e+01 -7.223383e-03 -4.375544e-01 1.617015e-01 2.092190e-01 -6.451572e-02 -5.093744e-01 7.804655e-02 -3.409070e-02 4.544164e-01 -9.308163e-02 -4.104306e-01 -2.177503e-01 2.626371e-01 -6.349456e-02 4.609964e-02 -9.494987e-02 -1.281813e-01 2.004279e-01 4.926738e-02 1.243748e-01 2.605746e-01 -1.494380e-02 1.032612e-02 -1.794785e-01 8.251185e-03 -5.066781e-02
<VARIANCE> 39
 4.858341e+01 5.635559e+01 9.712863e+01 8.589462e+01 1.746190e+02 1.971090e+02 2.000958e+02 1.486839e+02 1.043791e+02 8.825229e+01 1.287493e+02 5.726755e+01 9.204234e+01 1.252826e+00 2.884853e+00 4.287760e+00 4.745189e+00 7.015653e+00 5.541986e+00 4.199998e+00 7.239588e+00 6.229492e+00 4.098871e+00 6.041963e+00 3.755972e+00 3.206501e+00 2.205738e-01 4.614202e-01 7.108340e-01 8.400506e-01 1.200634e+00 1.086219e+00 7.695888e-01 1.299845e+00 1.108292e+00 8.252962e-01 1.144477e+00 7.459427e-01 5.854400e-01
<GCONST> 1.475072e+02
<STATE> 4
<MEAN> 39
 -4.099035e-02 -3.876712e+00 2.770898e-01 -2.033997e+00 -8.855623e+00 -6.574851e+00 -8.445433e+00 -5.342587e+00 -4.893552e+00 -4.685321e+00 9.432502e-01 -3.359067e+00 6.668643e+01 -2.092569e-01 -1.651161e-01 -1.004325e-01 -6.003147e-02 2.085500e-01 7.445338e-02 2.764847e-01 4.762375e-01 3.436218e-01 1.257181e-01 -3.861116e-01 1.757403e-02 -4.398540e-02 -3.274161e-02 6.825691e-02 -9.116487e-02 -7.073817e-02 1.499994e-01 1.420056e-01 1.108525e-02 1.526735e-01 -5.426381e-02 2.997415e-02 -4.191851e-02 -3.011663e-02 -3.955786e-02
<VARIANCE> 39
 1.094110e+02 6.636121e+01 9.141719e+01 9.008465e+01 1.314251e+02 1.865559e+02 1.503464e+02 1.087122e+02 9.169572e+01 8.528288e+01 1.445729e+02 7.160559e+01 2.265369e+02 1.043327e+00 2.497291e+00 2.595948e+00 2.855882e+00 3.393461e+00 4.147403e+00 3.077315e+00 4.518531e+00 3.507521e+00 2.882861e+00 3.448346e+00 2.785997e+00 2.406453e+00 1.847989e-01 3.762298e-01 4.732448e-01 5.548478e-01 6.503907e-01 6.314719e-01 5.092148e-01 7.395108e-01 7.448040e-01 5.951095e-01 6.611072e-01 4.941628e-01 3.602742e-01
<GCONST> 1.378936e+02
<TRANSP> 5
 0.000000e+00 1.000000e+00 0.000000e+00 0.000000e+00 0.000000e+00
 0.000000e+00 6.358141e-01 3.641859e-01 0.000000e+00 0.000000e+00
 0.000000e+00 0.000000e+00 5.627196e-01 4.372804e-01 0.000000e+00
 0.000000e+00 0.000000e+00 0.000000e+00 4.551871e-01 5.448129e-01
 0.000000e+00 0.000000e+00 0.000000e+00 0.000000e+00 0.000000e+00
<ENDHMM>
~h "h"
<BEGINHMM>
<NUMSTATES> 5
<STATE> 2
<MEAN> 39
 -4.382650e-01 -1.096382e+01 -3.880902e+00 -7.962583e+00 -4.344616e+00 -3.794691e+00 -4.556281e+00 -5.725215e+00 -5.224149e+00 -8.736952e+00 -7.456401e+00 -3.977875e+00 7.137447e+01 -4.205301e-01 2.016009e-01 1.072087e-01 2.051031e-01 3.507148e-01 1.268083e-01 3.524065e-01 -2.473440e-01 -2.657156e-02 -2.166470e-01 -5.298405e-02 2.122436e-02 -4.140701e-01 1.916414e-02 8.164769e-02 -3.131920e-02 3.446482e-02 -1.521582e-01 -2.812649e-02 -9.475142e-02 6.230932e-02 6.013235e-02 9.711996e-02 7.614852e-02 3.763562e-04 -8.290314e-02
<VARIANCE> 39
 5.298686e+01 1.091167e+02 6.253431e+01 1.040033e+02 1.268740e+02 8.035191e+01 1.180260e+02 7.647071e+01 8.774258e+01 9.231323e+01 7.118922e+01 4.748612e+01 1.205357e+02 1.280233e+00 2.529523e+00 2.344124e+00 2.610770e+00 3.359788e+00 3.152264e+00 3.077923e+00 3.325082e+00 3.161575e+00 2.729717e+00 2.879524e+00 2.438953e+00 1.393054e+00 1.865738e-01 3.947412e-01 3.433035e-01 4.330560e-01 5.281798e-01 5.015431e-01 5.080696e-01 5.645968e-01 4.926473e-01 4.911375e-01 4.902265e-01 4.383293e-01 1.845588e-01
<GCONST> 1.297448e+02
<STATE> 3
<MEAN> 39
 -1.132624e+00 -9.801497e+00 -4.288957e+00 -7.312665e+00 -3.585505e+00 -4.377009e+00 -4.288763e+00 -6.084770e+00 -5.307767e+00 -8.548790e+00 -7.535428e+00 -4.484504e+00 7.020986e+01 -3.343208e-01 4.107471e-01 -1.901261e-02 2.926849e-01 -1.012679e-02 1.382057e-01 1.580965e-01 2.506429e-02 1.905675e-01 1.164011e-01 5.772482e-02 8.364902e-02 -6.347347e-01 6.130851e-02 2.335015e-02 -4.250178e-02 -9.574348e-03 -1.650254e-01 -2.693429e-02 -9.082945e-02 9.820312e-02 1.968461e-02 1.145160e-01 7.484067e-02 2.455426e-02 -2.361439e-02
<VARIANCE> 39
 5.774777e+01 9.661768e+01 6.509606e+01 9.702383e+01 1.399986e+02 8.828790e+01 1.215171e+02 8.033445e+01 9.891639e+01 9.259395e+01 7.189817e+01 4.235732e+01 1.266763e+02 1.174264e+00 1.987465e+00 1.958824e+00 2.241143e+00 2.884972e+00 2.752176e+00 2.748037e+00 2.784879e+00 2.528156e+00 2.545966e+00 2.691279e+00 2.165907e+00 1.309816e+00 1.770858e-01 3.365166e-01 3.128462e-01 3.895555e-01 5.175197e-01 5.023789e-01 5.190179e-01 5.279722e-01 5.169867e-01 4.819005e-01 4.915117e-01 4.017028e-01 1.629688e-01
<GCONST> 1.275845e+02
<STATE> 4
<MEAN> 39
 -7.478102e+00 -3.107181e+00 -6.190862e+00 -2.428173e+00 -5.443291e-01 -1.754059e+00 -8.231130e-01 -1.647416e+00 -2.635793e+00 -4.455855e+00 -3.995037e+00 -3.907411e-01 5.548480e+01 -2.319582e-01 1.403738e-01 8.024845e-02 1.469031e-01 -1.938931e-01 8.832726e-02 -6.531929e-02 1.304795e-01 -2.278007e-02 1.302354e-01 1.911071e-01 6.290315e-02 -3.993345e-01 3.022669e-02 -9.318563e-03 1.594543e-02 -1.765475e-02 -2.059858e-02 -2.984830e-02 -3.060994e-02 -4.925508e-03 -3.021726e-02 -1.022314e-02 -4.977725e-03 -2.275444e-02 3.796524e-02
<VARIANCE> 39
 9.609457e+01 6.382351e+01 5.126292e+01 8.672060e+01 1.083642e+02 7.727148e+01 8.444553e+01 9.446971e+01 7.352298e+01 7.668685e+01 1.377884e+02 5.960460e+01 1.655346e+02 5.509625e-01 8.697562e-01 1.064621e+00 1.143062e+00 1.627652e+00 1.773836e+00 1.807533e+00 1.805646e+00 2.076776e+00 1.833784e+00 1.850456e+00 1.587835e+00 5.482500e-01 7.801638e-02 1.291834e-01 1.599305e-01 1.934905e-01 2.597254e-01 2.849781e-01 3.012262e-01 3.160413e-01 3.468490e-01 3.251778e-01 3.009359e-01 2.703834e-01 6.293376e-02
<GCONST> 1.126085e+02
<TRANSP> 5
 0.000000e+00 1.000000e+00 0.000000e+00 0.000000e+00 0.000000e+00
 0.000000e+00 3.141913e-01 6.858087e-01 0.000000e+00 0.000000e+00
 0.000000e+00 0.000000e+00 3.094021e-01 6.905979e-01 0.000000e+00
 0.000000e+00 0.000000e+00 0.000000e+00 8.839244e-01 1.160756e-01
 0.000000e+00 0.000000e+00 0.000000e+00 0.000000e+00 0.000000e+00
<ENDHMM>
~h "i"
<BEGINHMM>
<NUMSTATES> 5
<STATE> 2
<MEAN> 39
 -7.478927e-01 -4.443319e+00 6.537882e+00 -7.599737e+00 -1.348441e+01 -8.578152e+00 -8.261120e+00 -7.635010e+00 -6.256242e+00 -6.014813e+00 -3.269387e+00 -4.356408e+00 7.037981e+01 1.883219e-01 8.597418e-02 1.048851e+00 -6.194209e-01 -6.083338e-01 -1.807225e-01 -3.527451e-01 -4.386656e-01 4.137158e-02 -7.754489e-02 -1.493128e-01 1.316663e-01 4.874234e-01 -1.748995e-01 1.546561e-01 -3.860980e-01 2.521974e-01 4.019043e-01 1.258166e-01 2.226371e-01 1.765972e-01 1.568496e-01 2.881476e-02 -6.829208e-02 1.186781e-02 -3.351836e-01
<VARIANCE> 39
 3.806981e+01 6.796853e+01 1.041047e+02 1.755077e+02 1.386613e+02 1.155958e+02 1.183320e+02 6.552163e+01 7.590023e+01 4.966974e+01 9.286578e+01 3.653400e+01 1.026686e+02 2.975608e+00 3.062922e+00 4.489609e+00 7.052953e+00 6.163362e+00 5.568613e+00 5.033328e+00 4.286039e+00 4.163691e+00 3.254766e+00 4.154989e+00 2.962327e+00 3.077781e+00 5.134308e-01 5.241898e-01 7.295804e-01 1.129856e+00 1.112576e+00 9.070975e-01 8.476730e-01 7.296642e-01 7.521043e-01 6.044649e-01 7.617087e-01 5.065616e-01 4.948181e-01
<GCONST> 1.430746e+02
<STATE> 3
<MEAN> 39
 -7.765978e-01 -4.226818e+00 6.750429e+00 -8.434574e+00 -1.403077e+01 -8.337472e+00 -8.452438e+00 -8.214164e+00 -5.517411e+00 -6.107100e+00 -4.519401e+00 -4.008011e+00 7.050186e+01 -1.795531e-01 5.907276e-01 -3.029727e-01 6.335477e-01 5.671114e-01 1.364427e-01 2.783764e-01 5.418240e-02 1.740989e-01 2.129155e-02 -1.945440e-01 -2.167253e-03 -7.423111e-01 -1.498669e-01 5.286685e-02 -3.501197e-01 2.327605e-01 3.104799e-01 9.278805e-02 1.737884e-01 1.544632e-01 3.347507e-02 2.954024e-02 2.021909e-02 -4.635172e-02 -2.580340e-01
<VARIANCE> 39
 3.267395e+01 5.853519e+01 9.432978e+01 1.930118e+02 1.284403e+02 1.143830e+02 1.322881e+02 6.794543e+01 7.010796e+01 4.536879e+01 9.255154e+01 3.739183e+01 9.513132e+01 1.768421e+00 2.322655e+00 2.668211e+00 4.672563e+00 3.754588e+00 3.733776e+00 3.423225e+00 3.218605e+00 3.038040e+00 2.622750e+00 3.203852e+00 2.230471e+00 2.286993e+00 3.198719e-01 4.216449e-01 4.792018e-01 8.789417e-01 8.046513e-01 7.115303e-01 7.132632e-01 5.953023e-01 5.930609e-01 5.456979e-01 6.401905e-01 4.605581e-01 3.207245e-01
<GCONST> 1.345871e+02
<STATE> 4
<MEAN> 39
 -2.650546e+00 4.656411e-01 5.113872e+00 -4.471376e+00 -9.210304e+00 -8.777074e+00 -6.940698e+00 -8.187330e+00 -6.368483e+00 -5.975922e+00 -5.127249e+00 -3.234266e+00 6.317220e+01 -2.677800e-01 1.839797e-01 -5.235880e-01 4.611086e-01 3.580694e-01 3.498552e-01 1.235846e-01 2.224444e-01 3.309977e-02 1.576697e-02 -5.852210e-02 9.401899e-03 -6.962107e-01 -1.496228e-02 -9.438156e-02 -8.237187e-02 -6.608675e-02 1.370312e-02 1.600476e-02 3.532245e-02 3.969392e-02 -5.321148e-03 1.647314e-02 3.267163e-02 -3.842446e-03 6.488553e-02
<VARIANCE> 39
 5.352573e+01 8.160135e+01 9.264954e+01 2.264966e+02 1.031723e+02 9.575910e+01 8.139627e+01 9.405717e+01 6.403813e+01 5.018583e+01 7.536474e+01 4.090662e+01 1.485047e+02 1.035612e+00 1.478799e+00 1.726619e+00 2.639382e+00 2.338145e+00 2.550364e+00 2.406581e+00 2.234071e+00 2.256363e+00 2.046694e+00 2.318558e+00 1.736074e+00 1.187300e+00 1.532526e-01 2.412480e-01 2.583802e-01 4.106324e-01 3.893153e-01 4.108243e-01 3.937988e-01 3.879517e-01 3.918346e-01 3.718894e-01 3.786280e-01 3.063408e-01 1.756415e-01
<GCONST> 1.226941e+02
<TRANSP> 5
 0.000000e+00 1.000000e+00 0.000000e+00 0.000000e+00 0.000000e+00
 0.000000e+00 4.958091e-01 5.041909e-01 0.000000e+00 0.000000e+00
 0.000000e+00 0.000000e+00 4.119495e-01 5.880505e-01 0.000000e+00
 0.000000e+00 0.000000e+00 0.000000e+00 7.449631e-01 2.550369e-01
 0.000000e+00 0.000000e+00 0.000000e+00 0.000000e+00 0.000000e+00
<ENDHMM>
~h "j"
<BEGINHMM>
<NUMSTATES> 5
<STATE> 2
<MEAN> 39
 -4.872020e+00 8.559735e-01 2.930451e+00 -5.260059e+00 -5.118406e+00 -8.189851e+00 -6.283525e+00 -4.709667e+00 -4.674737e+00 -5.625839e+00 -5.018146e+00 -3.687657e+00 6.495654e+01 -6.355827e-01 5.669829e-02 1.036519e+00 -9.174942e-01 -3.379175e-01 -6.397884e-01 -2.747557e-01 -2.834426e-01 1.495569e-01 1.684562e-01 3.474980e-01 3.242945e-01 9.974934e-01 3.543023e-01 -4.940926e-01 -6.007244e-02 -1.381941e-01 -5.145523e-01 -1.692173e-01 -9.957796e-02 9.365149e-03 2.200820e-02 -2.629735e-02 7.970776e-02 8.825669e-02 3.853700e-01
<VARIANCE> 39
 7.228889e+01 6.374406e+01 7.032114e+01 1.325143e+02 1.121343e+02 7.678822e+01 7.518266e+01 4.521543e+01 4.378691e+01 3.768198e+01 5.278310e+01 3.002304e+01 1.153028e+02 8.252756e+00 5.107991e+00 4.217584e+00 8.125166e+00 9.740099e+00 5.318664e+00 3.494004e+00 3.626455e+00 3.272509e+00 3.117757e+00 4.149918e+00 2.593070e+00 4.831761e+00 1.573761e+00 8.682816e-01 8.361465e-01 1.500223e+00 1.660193e+00 8.580968e-01 6.365019e-01 7.611349e-01 6.012596e-01 5.810230e-01 6.584377e-01 4.786967e-01 5.539658e-01
<GCONST> 1.433761e+02
<STATE> 3
<MEAN> 39
 -2.013590e+00 -4.314752e+00 5.914370e+00 -5.352502e+00 -1.259461e+01 -9.498949e+00 -8.293660e+00 -6.358535e+00 -3.811474e+00 -5.515391e+00 -3.810262e+00 -2.094627e+00 7.171514e+01 1.032142e+00 -1.243564e+00 -1.920353e-01 -1.737038e-01 -1.177944e+00 -5.144167e-01 -2.492803e-01 2.272519e-01 6.547802e-02 9.817399e-03 4.639923e-02 1.180518e-01 8.775130e-01 -5.258821e-02 7.836856e-02 -4.955727e-01 7.811418e-02 5.126158e-01 1.742353e-01 1.508190e-01 2.702504e-01 -1.885722e-02 -7.712676e-02 -1.209875e-01 -2.090379e-01 -2.090247e-01
<VARIANCE> 39
 3.712839e+01 5.854498e+01 7.901791e+01 1.543548e+02 1.006166e+02 9.528099e+01 8.204954e+01 5.091451e+01 4.968304e+01 3.538383e+01 5.946236e+01 2.704837e+01 1.029849e+02 5.097543e+00 6.810808e+00 5.338943e+00 4.865455e+00 7.974744e+00 5.023721e+00 4.613162e+00 4.475195e+00 3.546557e+00 2.988786e+00 3.151923e+00 2.626868e+00 4.322007e+00 8.774362e-01 9.189376e-01 7.670428e-01 8.333215e-01 1.283948e+00 8.632469e-01 7.270007e-01 6.773480e-01 5.937976e-01 5.867624e-01 6.732284e-01 4.823669e-01 6.381873e-01
<GCONST> 1.413296e+02
<STATE> 4
<MEAN> 39
 -3.914360e-01 -5.475055e+00 2.981692e+00 -5.719895e+00 -1.195734e+01 -8.769214e+00 -7.881412e+00 -4.815267e+00 -4.173665e+00 -6.189199e+00 -5.278145e+00 -3.085123e+00 7.068723e+01 1.052518e-02 -1.624504e-01 -6.548144e-01 7.312014e-02 4.127737e-01 1.816990e-01 1.815111e-01 3.665096e-01 -3.579525e-02 -3.875748e-02 -7.656474e-02 -2.297614e-01 -2.341700e-02 -1.833699e-01 1.322642e-01 -5.403736e-02 8.914464e-02 2.831510e-01 1.571882e-01 3.802356e-02 -6.336868e-02 -5.110666e-02 -4.853205e-02 1.830017e-02 -7.805651e-02 -1.356491e-01
<VARIANCE> 39
 3.311661e+01 6.490999e+01 6.714764e+01 1.387871e+02 8.975992e+01 7.202481e+01 7.657462e+01 5.554639e+01 5.240279e+01 3.829280e+01 5.518439e+01 2.525035e+01 1.224162e+02 2.655525e+00 3.851630e+00 3.509846e+00 3.521217e+00 4.522214e+00 3.414820e+00 3.170582e+00 3.470176e+00 3.104068e+00 2.721648e+00 2.422939e+00 2.140254e+00 2.980925e+00 4.266161e-01 7.176327e-01 5.453326e-01 7.426161e-01 9.814130e-01 6.845363e-01 6.455719e-01 5.136313e-01 5.139705e-01 5.001308e-01 4.480566e-01 4.015068e-01 5.380846e-01
<GCONST> 1.328349e+02
<TRANSP> 5
 0.000000e+00 1.000000e+00 0.000000e+00 0.000000e+00 0.000000e+00
 0.000000e+00 6.447424e-01 3.552575e-01 0.000000e+00 0.000000e+00
 0.000000e+00 0.000000e+00 4.895348e-01 5.104653e-01 0.000000e+00
 0.000000e+00 0.000000e+00 0.000000e+00 5.366533e-01 4.633467e-01
 0.000000e+00 0.000000e+00 0.000000e+00 0.000000e+00 0.000000e+00
<ENDHMM>
~h "k"
<BEGINHMM>
<NUMSTATES> 5
<STATE> 2
<MEAN> 39
 -5.965739e+00 -3.761585e+00 -4.251758e+00 -4.395672e+00 -3.059999e+00 -4.574209e+00 -7.700843e+00 -3.192230e+00 -4.604049e+00 -2.659502e+00 -3.146674e+00 -4.174186e+00 6.129502e+01 -5.927539e-01 -9.960946e-01 -7.528363e-01 -8.771235e-01 1.042301e+00 -5.754287e-01 -1.545585e-02 6.434673e-01 5.555043e-02 5.927484e-01 2.043552e-01 3.295408e-02 1.006274e+00 4.615313e-01 -2.967194e-01 -2.422529e-02 -2.920380e-01 -2.760654e-01 -1.943894e-01 -1.059378e-03 2.135757e-02 -2.615212e-02 -1.411698e-01 -5.169868e-02 -7.702158e-02 7.046049e-01
<VARIANCE> 39
 6.272325e+01 6.735513e+01 7.345089e+01 1.068636e+02 1.429785e+02 8.560227e+01 1.095400e+02 8.430637e+01 5.903614e+01 6.423322e+01 5.155262e+01 5.121333e+01 1.255263e+02 5.160778e+00 5.672031e+00 5.436850e+00 6.029865e+00 9.967481e+00 5.872357e+00 5.454422e+00 5.808714e+00 5.495790e+00 4.966635e+00 4.696850e+00 3.944558e+00 5.827186e+00 8.746244e-01 9.621787e-01 8.552612e-01 1.057662e+00 1.864348e+00 1.032237e+00 9.988386e-01 1.046252e+00 1.109782e+00 9.727437e-01 8.796500e-01 7.187369e-01 8.082894e-01
<GCONST> 1.507005e+02
<STATE> 3
<MEAN> 39
 -3.672744e+00 -8.297200e+00 -6.642799e+00 -8.148414e+00 -2.710012e+00 -7.711865e+00 -7.393184e+00 -1.049639e+00 -3.790650e+00 -1.941988e+00 -2.996214e+00 -4.870450e+00 6.882482e+01 1.490297e+00 -8.549644e-01 -3.111199e-02 -5.498437e-01 -1.006148e+00 -5.140014e-01 2.604864e-01 -4.765979e-02 -2.489362e-03 -6.152177e-01 -2.573798e-01 -3.073016e-01 1.915170e+00 3.319700e-01 1.985695e-01 2.628700e-01 2.513992e-01 -3.427750e-01 2.648735e-01 -7.463656e-03 -2.700034e-01 -1.058992e-01 -3.008729e-01 -9.946444e-02 -1.380120e-02 -1.953636e-01
<VARIANCE> 39
 7.264964e+01 7.725049e+01 8.595171e+01 1.244250e+02 1.634094e+02 1.122370e+02 1.215413e+02 8.658488e+01 6.449589e+01 8.292458e+01 6.077451e+01 5.922536e+01 1.056024e+02 6.344357e+00 5.875376e+00 5.255812e+00 5.170719e+00 8.509680e+00 6.740644e+00 6.487252e+00 6.229445e+00 6.261843e+00 6.090120e+00 5.345552e+00 3.911533e+00 5.153755e+00 1.124657e+00 1.062738e+00 9.637175e-01 9.776834e-01 1.793226e+00 1.205923e+00 1.202888e+00 1.127474e+00 1.074664e+00 1.149198e+00 9.804314e-01 7.721663e-01 8.076723e-01
<GCONST> 1.540025e+02
<STATE> 4
<MEAN> 39
 -3.424396e-01 -9.169969e+00 -5.887112e+00 -7.071415e+00 -6.395816e+00 -6.965479e+00 -6.076120e+00 -2.047635e+00 -4.781096e+00 -4.865905e+00 -4.466904e+00 -4.593225e+00 7.051379e+01 1.050927e+00 -3.198233e-01 2.088959e-01 -1.096493e-01 -7.326653e-01 1.246904e-01 -1.098189e-02 -3.039849e-01 -3.434706e-01 -6.081527e-01 -2.502173e-01 -9.417807e-02 7.658411e-01 -2.217612e-01 2.210040e-01 9.258962e-02 1.562133e-01 1.601198e-01 1.606969e-01 -8.543516e-02 -5.447354e-02 5.624111e-03 1.316621e-01 2.262321e-02 5.957820e-02 -3.743949e-01
<VARIANCE> 39
 5.660224e+01 8.675781e+01 6.571136e+01 1.054805e+02 9.758663e+01 9.225825e+01 9.670560e+01 7.825008e+01 6.680064e+01 7.164729e+01 5.329615e+01 4.379860e+01 1.193693e+02 5.009870e+00 5.299526e+00 4.129486e+00 4.523731e+00 6.111302e+00 5.938933e+00 4.950191e+00 4.773481e+00 4.962636e+00 4.632077e+00 4.255317e+00 3.135881e+00 4.160191e+00 6.835668e-01 8.228415e-01 5.603896e-01 7.245584e-01 9.503809e-01 9.033658e-01 8.058298e-01 8.353993e-01 7.992914e-01 7.821620e-01 7.381717e-01 5.412731e-01 7.378958e-01
<GCONST> 1.444645e+02
<TRANSP> 5
 0.000000e+00 1.000000e+00 0.000000e+00 0.000000e+00 0.000000e+00
 0.000000e+00 5.960264e-01 4.039736e-01 0.000000e+00 0.000000e+00
 0.000000e+00 0.000000e+00 4.753500e-01 5.246500e-01 0.000000e+00
 0.000000e+00 0.000000e+00 0.000000e+00 3.308864e-01 6.691136e-01
 0.000000e+00 0.000000e+00 0.000000e+00 0.000000e+00 0.000000e+00
<ENDHMM>
~h "l"
<BEGINHMM>
<NUMSTATES> 5
<STATE> 2
<MEAN> 39
 4.591052e+00 -7.993986e+00 -6.517455e+00 -8.923078e+00 -6.314809e+00 -7.155575e+00 -5.461564e+00 -8.368781e+00 2.100608e-01 -1.816032e+00 -6.816204e+00 -5.687887e+00 7.340251e+01 5.511545e-02 -3.553404e-02 -7.148768e-02 9.780911e-02 -5.072866e-02 2.034949e-02 1.693470e-01 -2.577123e-01 1.404006e-01 8.106647e-02 -2.693125e-01 6.233585e-02 -9.174256e-02 -9.403470e-02 1.253157e-01 9.900111e-02 -2.163929e-02 3.588607e-02 7.715928e-02 -9.883473e-03 9.336575e-02 -1.181318e-01 -8.533704e-02 3.834132e-02 4.359823e-02 -9.337545e-02
<VARIANCE> 39
 4.298730e+01 8.176860e+01 7.372808e+01 9.349356e+01 1.695456e+02 1.215903e+02 1.774915e+02 1.356358e+02 8.791563e+01 1.409799e+02 8.162042e+01 3.977161e+01 9.230274e+01 8.254834e-01 2.179926e+00 2.412460e+00 2.663778e+00 3.674979e+00 3.413950e+00 4.454353e+00 4.826982e+00 3.052450e+00 3.826810e+00 3.365246e+00 2.195534e+00 1.138426e+00 1.497810e-01 3.342888e-01 3.276059e-01 4.253016e-01 5.868365e-01 5.505406e-01 7.905261e-01 8.655882e-01 5.558589e-01 6.202525e-01 6.048839e-01 3.896992e-01 1.868863e-01
<GCONST> 1.327095e+02
<STATE> 3
<MEAN> 39
 4.185022e+00 -7.842181e+00 -6.372048e+00 -8.267858e+00 -7.193353e+00 -6.252072e+00 -5.272763e+00 -8.254754e+00 -7.043560e-01 -3.659429e+00 -7.483109e+00 -5.225012e+00 7.292931e+01 -1.171565e-01 3.630917e-01 1.856157e-01 1.052644e-01 -4.583217e-02 2.383522e-01 -1.143526e-01 1.751724e-01 -2.259569e-01 -1.583223e-01 2.483400e-02 1.077332e-01 -3.944705e-01 -7.448547e-02 7.990983e-02 5.847932e-02 -2.332580e-02 5.971906e-02 6.539290e-02 -3.433940e-02 1.282833e-01 -9.517203e-02 -4.791082e-02 4.458357e-02 4.705377e-04 -7.085438e-02
<VARIANCE> 39
 4.473199e+01 9.125716e+01 6.926121e+01 8.255943e+01 1.720760e+02 1.123729e+02 1.795847e+02 1.420379e+02 8.446597e+01 1.120103e+02 8.994131e+01 3.896613e+01 1.033032e+02 7.244915e-01 1.809613e+00 1.777701e+00 2.417450e+00 2.961407e+00 2.693115e+00 3.065366e+00 3.718514e+00 2.680827e+00 2.911701e+00 2.667989e+00 1.943790e+00 1.090510e+00 1.111357e-01 2.746159e-01 2.576664e-01 3.642662e-01 5.129746e-01 5.034868e-01 5.617175e-01 7.061102e-01 4.962596e-01 5.244969e-01 4.869923e-01 3.522712e-01 1.470342e-01
<GCONST> 1.274804e+02
<STATE> 4
<MEAN> 39
 -2.328300e+00 -2.808903e+00 -6.351315e+00 -3.420099e+00 -5.754598e+00 -4.962845e+00 -4.765237e+00 -2.032030e+00 -3.899871e+00 -4.536359e+00 -4.311480e+00 -2.739214e+00 6.150690e+01 -2.447668e-01 1.251615e-01 1.488364e-01 1.563164e-01 -4.282943e-02 1.965465e-01 -8.362554e-02 9.711858e-02 -7.849316e-02 -4.398354e-02 1.062035e-01 6.528824e-02 -3.754204e-01 -1.048036e-02 -1.203838e-02 1.011281e-02 1.659149e-03 2.371304e-02 -5.685582e-04 2.923946e-03 -1.500070e-02 -1.230902e-02 -4.294930e-03 -1.013568e-03 -2.013209e-03 7.528314e-03
<VARIANCE> 39
 8.442464e+01 9.558349e+01 5.643845e+01 7.327459e+01 7.756979e+01 7.984286e+01 7.355569e+01 8.565005e+01 6.426328e+01 6.921762e+01 6.827145e+01 4.292483e+01 2.410992e+02 5.034139e-01 8.543400e-01 1.031287e+00 1.281064e+00 1.630056e+00 1.806153e+00 1.766518e+00 1.966407e+00 1.927305e+00 1.819260e+00 1.887764e+00 1.547886e+00 5.505782e-01 6.279426e-02 1.291910e-01 1.455992e-01 2.103935e-01 2.540785e-01 2.959971e-01 2.913523e-01 3.236113e-01 3.262080e-01 3.107961e-01 3.168769e-01 2.834684e-01 6.211793e-02
<GCONST> 1.111118e+02
<TRANSP> 5
 0.000000e+00 1.000000e+00 0.000000e+00 0.000000e+00 0.000000e+00
 0.000000e+00 4.440957e-01 5.559043e-01 0.000000e+00 0.000000e+00
 0.000000e+00 0.000000e+00 3.754860e-01 6.245140e-01 0.000000e+00
 0.000000e+00 0.000000e+00 0.000000e+00 8.552684e-01 1.447316e-01
 0.000000e+00 0.000000e+00 0.000000e+00 0.000000e+00 0.000000e+00
<ENDHMM>
~h "m"
<BEGINHMM>
<NUMSTATES> 5
<STATE> 2
<MEAN> 39
 4.587576e+00 -4.560150e+00 -3.677001e+00 -5.774773e+00 -9.786364e+00 -8.828806e-01 -7.987768e+00 -8.248304e+00 -6.502592e+00 -7.477004e+00 -4.784443e+00 -5.208704e+00 6.902007e+01 1.684836e-01 5.150267e-01 2.061304e-02 4.512679e-01 -5.494737e-02 5.274881e-01 2.709913e-01 -6.335666e-01 -3.374705e-01 -4.134221e-01 -3.592550e-01 -2.593098e-01 -4.021435e-01 -1.189226e-01 -1.836129e-01 -3.802028e-02 -1.079852e-01 1.136340e-01 -9.536729e-02 -2.840563e-02 1.624426e-01 1.692135e-01 8.688335e-02 -5.200890e-02 -5.358759e-03 1.467524e-01
<VARIANCE> 39
 4.511721e+01 9.391132e+01 5.573040e+01 1.014023e+02 1.148792e+02 9.292803e+01 1.241943e+02 9.471107e+01 5.937690e+01 6.124513e+01 5.402083e+01 3.204285e+01 1.199685e+02 1.030656e+00 2.409033e+00 3.906413e+00 4.701753e+00 3.231328e+00 3.609942e+00 2.825044e+00 3.755874e+00 3.417715e+00 2.629306e+00 3.211674e+00 2.250809e+00 1.637735e+00 1.716124e-01 3.853969e-01 4.964465e-01 6.827070e-01 4.974957e-01 5.825110e-01 4.951896e-01 6.436381e-01 5.736868e-01 4.766886e-01 5.718166e-01 3.718034e-01 2.534117e-01
<GCONST> 1.306672e+02
<STATE> 3
<MEAN> 39
 4.628299e+00 -4.266775e+00 -4.348409e+00 -5.500680e+00 -9.337654e+00 -2.940084e-01 -7.083477e+00 -8.888681e+00 -6.280094e+00 -8.150330e+00 -6.069299e+00 -5.750395e+00 6.897149e+01 -6.647610e-02 6.895912e-02 -9.196534e-02 1.248005e-01 2.442362e-01 3.727029e-02 1.149658e-01 -1.003989e-02 2.304558e-01 -4.851251e-02 -3.789706e-01 -1.648935e-01 -4.511367e-02 -1.209855e-01 -1.677605e-01 -7.026121e-03 -1.193909e-01 9.992465e-02 -1.945663e-01 -8.550165e-02 2.692412e-01 1.490520e-01 1.588813e-01 1.012355e-01 1.094980e-01 1.290837e-01
<VARIANCE> 39
 4.898253e+01 8.229323e+01 5.950330e+01 1.000365e+02 1.359072e+02 1.005311e+02 1.204834e+02 9.764780e+01 6.298113e+01 6.594168e+01 5.522407e+01 3.307597e+01 1.219564e+02 9.936076e-01 2.507699e+00 2.960336e+00 3.488578e+00 3.146539e+00 3.352710e+00 2.486606e+00 3.204323e+00 3.815661e+00 2.546938e+00 3.779453e+00 2.025412e+00 1.685209e+00 1.691965e-01 3.722106e-01 5.559677e-01 6.713807e-01 5.545884e-01 6.408237e-01 4.614714e-01 5.718655e-01 5.694245e-01 5.020786e-01 5.554168e-01 3.833025e-01 2.341924e-01
<GCONST> 1.303539e+02
<STATE> 4
<MEAN> 39
 3.273435e+00 -4.845041e-01 -4.334388e+00 -3.629258e+00 -6.677335e+00 -2.088955e+00 -5.019605e+00 -6.333589e+00 -6.893478e+00 -8.009512e+00 -7.154442e+00 -6.131905e+00 6.450823e+01 -3.051414e-01 -5.760400e-02 7.060265e-02 1.304104e-01 1.473419e-01 -3.688433e-02 -8.122706e-02 2.660272e-01 1.223999e-01 1.045789e-01 6.346649e-02 1.045515e-01 -1.685164e-01 -4.860722e-02 -1.510584e-01 -3.374591e-02 -1.219179e-01 3.741799e-02 -5.605875e-02 -4.598559e-02 1.047016e-01 3.819687e-02 2.232976e-02 9.572636e-02 7.621039e-02 1.092434e-01
<VARIANCE> 39
 5.482373e+01 9.150192e+01 4.442759e+01 9.911167e+01 1.270708e+02 7.629124e+01 8.531065e+01 7.280799e+01 6.527952e+01 5.296960e+01 6.347811e+01 3.338087e+01 1.397132e+02 8.769157e-01 1.834147e+00 1.878481e+00 2.422297e+00 2.387340e+00 2.437409e+00 1.948074e+00 2.364075e+00 2.295373e+00 2.068442e+00 2.209816e+00 1.622240e+00 1.146154e+00 1.421260e-01 2.873885e-01 3.430966e-01 4.258496e-01 4.443305e-01 4.240879e-01 3.598417e-01 4.304724e-01 4.394115e-01 3.680888e-01 3.967564e-01 3.044625e-01 1.680674e-01
<GCONST> 1.211233e+02
<TRANSP> 5
 0.000000e+00 1.000000e+00 0.000000e+00 0.000000e+00 0.000000e+00
 0.000000e+00 3.592136e-01 6.407863e-01 0.000000e+00 0.000000e+00
 0.000000e+00 0.000000e+00 3.069628e-01 6.930372e-01 0.000000e+00
 0.000000e+00 0.000000e+00 0.000000e+00 6.502953e-01 3.497047e-01
 0.000000e+00 0.000000e+00 0.000000e+00 0.000000e+00 0.000000e+00
<ENDHMM>
~h "n"
<BEGINHMM>
<NUMSTATES> 5
<STATE> 2
<MEAN> 39
 2.375843e+00 -7.230685e+00 -1.996748e+00 -3.721046e+00 -1.025160e+01 -5.471798e+00 -1.007496e+01 -4.766350e+00 -5.200370e+00 -7.204009e+00 -7.842297e+00 -5.762905e+00 6.992610e+01 1.369009e-01 1.199139e+00 4.287037e-01 9.574430e-01 -1.734759e-01 8.438303e-02 1.197779e-01 -8.621335e-01 2.683226e-03 -1.546554e-01 -2.985602e-01 -1.298671e-01 -1.086118e+00 -1.159751e-01 -7.763439e-02 -1.699122e-02 -8.855161e-02 1.254919e-01 6.047101e-02 8.442910e-02 5.585707e-02 1.484728e-02 5.341730e-02 1.014834e-01 6.734645e-02 5.177081e-02
<VARIANCE> 39
 3.919871e+01 7.699554e+01 4.617545e+01 8.395226e+01 1.154024e+02 6.213901e+01 1.184497e+02 8.424273e+01 5.473444e+01 6.175441e+01 5.160041e+01 3.202359e+01 1.227789e+02 1.049982e+00 2.550400e+00 2.273091e+00 2.648794e+00 3.282841e+00 2.682664e+00 2.701351e+00 5.437636e+00 2.715088e+00 2.207548e+00 2.541253e+00 1.865196e+00 1.636761e+00 1.889201e-01 4.458376e-01 3.499485e-01 4.757100e-01 5.899523e-01 4.748703e-01 4.793057e-01 8.242553e-01 4.869093e-01 4.052259e-01 4.606685e-01 3.378933e-01 2.666982e-01
<GCONST> 1.265937e+02
<STATE> 3
<MEAN> 39
 2.280964e+00 -4.710052e+00 -1.367807e+00 -1.885607e+00 -1.003825e+01 -5.290605e+00 -9.285416e+00 -6.334311e+00 -5.233334e+00 -7.256602e+00 -8.033462e+00 -5.735949e+00 6.789568e+01 -2.050283e-01 7.556328e-01 2.437060e-01 5.358413e-01 2.874876e-01 2.280443e-01 2.099617e-01 -2.700384e-01 -3.594645e-02 4.024270e-02 -9.627011e-03 2.882615e-03 -7.863775e-01 -1.818751e-01 -2.847094e-01 -9.953643e-02 -2.956514e-01 1.547301e-01 1.989909e-02 2.670123e-02 2.661223e-01 1.162040e-02 1.003643e-01 1.567995e-01 6.698453e-02 2.066139e-01
<VARIANCE> 39
 4.199979e+01 6.800425e+01 4.499659e+01 8.003879e+01 1.131436e+02 5.897797e+01 1.027527e+02 7.623713e+01 5.189862e+01 5.944875e+01 4.824979e+01 3.206946e+01 1.308548e+02 1.413195e+00 2.299995e+00 1.904540e+00 2.321669e+00 2.928813e+00 2.279640e+00 2.432953e+00 3.902433e+00 2.530785e+00 2.127570e+00 2.448965e+00 1.788418e+00 1.557683e+00 2.149539e-01 4.134338e-01 3.972284e-01 4.701310e-01 6.175247e-01 4.645673e-01 4.825944e-01 7.208308e-01 4.684220e-01 4.116728e-01 4.712392e-01 3.417346e-01 2.397287e-01
<GCONST> 1.249632e+02
<STATE> 4
<MEAN> 39
 -4.430682e+00 -3.210308e+00 -4.456704e+00 -4.472619e-01 -4.554620e+00 -4.065328e+00 -6.379730e+00 -2.123184e+00 -4.865874e+00 -5.527650e+00 -4.671671e+00 -2.896164e+00 5.830228e+01 -2.618285e-01 5.730763e-02 -3.032735e-02 1.855195e-02 1.071405e-01 1.082965e-01 9.193625e-02 8.779019e-02 1.591545e-02 9.003493e-02 1.384902e-01 8.565819e-02 -2.961982e-01 -2.597632e-02 -8.737630e-02 -1.521648e-02 -9.444550e-02 1.422751e-02 -2.281930e-02 -6.007710e-03 4.444497e-02 -4.158337e-04 7.597859e-03 2.405789e-02 1.552797e-02 1.024196e-01
<VARIANCE> 39
 7.798137e+01 5.253042e+01 4.160673e+01 6.671361e+01 7.020145e+01 4.813721e+01 6.310636e+01 6.353365e+01 4.026949e+01 4.173946e+01 4.474992e+01 3.802437e+01 1.696911e+02 7.639571e-01 1.081362e+00 1.111611e+00 1.352920e+00 1.714215e+00 1.679853e+00 1.728372e+00 2.049183e+00 1.864836e+00 1.702361e+00 1.786209e+00 1.453139e+00 7.117912e-01 1.263257e-01 1.974736e-01 1.981554e-01 2.748829e-01 3.203031e-01 3.037594e-01 3.318793e-01 3.952505e-01 3.469801e-01 3.256055e-01 3.325600e-01 2.772064e-01 1.187588e-01
<GCONST> 1.109967e+02
<TRANSP> 5
 0.000000e+00 1.000000e+00 0.000000e+00 0.000000e+00 0.000000e+00
 0.000000e+00 3.323445e-01 6.676555e-01 0.000000e+00 0.000000e+00
 0.000000e+00 0.000000e+00 2.709430e-01 7.290569e-01 0.000000e+00
 0.000000e+00 0.000000e+00 0.000000e+00 8.249063e-01 1.750937e-01
 0.000000e+00 0.000000e+00 0.000000e+00 0.000000e+00 0.000000e+00
<ENDHMM>
~h "o"
<BEGINHMM>
<NUMSTATES> 5
<STATE> 2
<MEAN> 39
 -2.653470e+00 -2.904188e+00 -6.141321e+00 -1.051832e+01 -3.691133e+00 -1.101289e+00 -5.958817e+00 -5.058178e+00 -4.117059e+00 -2.922915e+00 -1.813147e+00 -3.969900e+00 6.402575e+01 9.016558e-01 -4.264293e-01 -4.732201e-01 -1.762862e+00 1.482248e-01 4.185773e-01 3.838781e-04 -3.331184e-01 -1.773472e-01 -1.957731e-02 2.793875e-01 -2.233034e-01 1.426777e+00 2.242565e-01 -7.637188e-02 7.774639e-02 1.186078e-01 -7.238033e-02 -1.540505e-01 -3.001309e-02 -1.181952e-01 3.826315e-02 -2.514214e-02 -3.995412e-02 -6.731056e-02 2.083551e-01
<VARIANCE> 39
 1.000035e+02 7.620836e+01 1.044796e+02 1.667072e+02 9.590642e+01 8.915514e+01 9.725041e+01 8.891237e+01 7.101644e+01 5.266115e+01 6.957387e+01 4.194460e+01 1.385800e+02 9.488834e+00 4.362438e+00 8.147598e+00 8.984904e+00 6.814870e+00 7.716982e+00 5.360039e+00 7.432232e+00 6.588504e+00 4.875241e+00 6.617057e+00 3.787448e+00 5.388919e+00 1.364060e+00 7.553338e-01 1.197707e+00 1.684992e+00 1.125596e+00 1.199950e+00 9.145176e-01 1.303905e+00 1.123013e+00 8.213016e-01 1.021474e+00 6.703392e-01 8.584924e-01
<GCONST> 1.542722e+02
<STATE> 3
<MEAN> 39
 2.485452e+00 -4.033690e+00 -7.103952e+00 -1.542137e+01 -2.980041e+00 -2.814033e+00 -6.166880e+00 -7.725799e+00 -2.960332e+00 -2.562225e+00 -2.450383e-02 -5.721368e+00 7.016649e+01 8.329149e-01 -3.403010e-01 1.082758e-01 1.490500e-01 -3.639479e-01 -5.844331e-01 -2.752179e-01 -2.695838e-01 1.141717e-01 -1.460269e-03 9.706490e-02 -2.322502e-01 7.361494e-01 -2.585922e-01 1.281959e-01 1.731275e-01 5.228344e-01 -1.995324e-02 -1.594404e-01 7.354008e-02 1.436560e-01 2.803212e-02 -5.347746e-02 -1.480952e-01 5.656515e-02 -3.639831e-01
<VARIANCE> 39
 7.535489e+01 8.671870e+01 1.114082e+02 1.511555e+02 1.460179e+02 1.472255e+02 1.176049e+02 9.936913e+01 8.529312e+01 6.047977e+01 1.098033e+02 4.281411e+01 8.005168e+01 6.751697e+00 4.367223e+00 5.857393e+00 6.481994e+00 8.114356e+00 8.905938e+00 4.834323e+00 6.913248e+00 5.883073e+00 4.500997e+00 5.345967e+00 3.185195e+00 3.877926e+00 1.142801e+00 7.478830e-01 9.570009e-01 1.288212e+00 1.485891e+00 1.291969e+00 9.229268e-01 1.186688e+00 1.011822e+00 8.132676e-01 9.633364e-01 6.036084e-01 6.078064e-01
<GCONST> 1.527592e+02
<STATE> 4
<MEAN> 39
 4.323209e+00 -3.675292e+00 -9.144303e+00 -1.360520e+01 -4.745860e+00 -2.030131e+00 -4.611978e+00 -7.552217e+00 -2.840499e+00 -2.387087e+00 -1.844656e+00 -5.090265e+00 6.748563e+01 -2.454086e-01 2.354188e-01 4.892452e-01 1.030179e+00 -2.789804e-01 -5.338099e-01 8.370275e-02 1.599750e-01 -5.335966e-02 -1.895528e-01 -3.171904e-01 2.697467e-02 -5.474013e-01 -2.433276e-01 6.765830e-02 1.608336e-01 1.586432e-01 2.910323e-02 -4.987075e-02 2.290415e-02 4.069819e-02 -1.785424e-03 -2.371819e-02 -2.903941e-02 5.812832e-02 -1.821088e-01
<VARIANCE> 39
 5.671800e+01 8.811210e+01 7.277888e+01 1.064396e+02 8.821828e+01 1.253534e+02 1.046818e+02 7.360927e+01 5.926239e+01 6.124738e+01 9.236865e+01 3.768560e+01 9.947510e+01 2.776237e+00 3.382900e+00 3.363073e+00 4.283400e+00 3.958462e+00 5.279552e+00 3.190800e+00 3.759419e+00 3.305099e+00 2.962814e+00 3.199126e+00 2.207580e+00 2.542144e+00 4.571969e-01 5.741710e-01 5.329356e-01 7.045313e-01 7.214466e-01 8.764958e-01 5.874354e-01 6.417614e-01 6.143625e-01 5.735130e-01 5.742578e-01 4.129804e-01 4.497547e-01
<GCONST> 1.369304e+02
<TRANSP> 5
 0.000000e+00 1.000000e+00 0.000000e+00 0.000000e+00 0.000000e+00
 0.000000e+00 5.638824e-01 4.361176e-01 0.000000e+00 0.000000e+00
 0.000000e+00 0.000000e+00 5.547006e-01 4.452994e-01 0.000000e+00
 0.000000e+00 0.000000e+00 0.000000e+00 6.263464e-01 3.736535e-01
 0.000000e+00 0.000000e+00 0.000000e+00 0.000000e+00 0.000000e+00
<ENDHMM>
~h "p"
<BEGINHMM>
<NUMSTATES> 5
<STATE> 2
<MEAN> 39
 -6.875536e+00 -3.266759e+00 -4.848141e+00 -5.390773e+00 -6.183742e+00 -3.680469e+00 -1.004936e+01 -5.213986e+00 -3.179450e+00 -3.380279e+00 -3.446262e+00 -4.069410e+00 5.973670e+01 2.703250e-01 -6.847477e-01 -5.181985e-01 -8.280321e-01 1.227547e-01 -3.444740e-01 1.754034e-02 1.479730e-01 9.146256e-02 3.235458e-01 4.165856e-01 1.458229e-01 1.586361e+00 5.307904e-01 -3.504771e-01 -8.967984e-02 -3.604364e-01 -2.275344e-01 -6.969170e-02 -9.579100e-02 -3.770088e-02 -5.868214e-02 -6.771777e-02 -3.071554e-03 -8.382747e-02 7.927122e-01
<VARIANCE> 39
 9.247615e+01 6.340265e+01 6.130430e+01 8.059171e+01 8.268874e+01 6.656120e+01 1.047343e+02 8.277821e+01 5.309752e+01 5.236283e+01 4.597771e+01 4.124074e+01 1.462263e+02 7.451842e+00 5.023249e+00 6.214128e+00 5.995336e+00 7.279783e+00 6.285347e+00 5.473504e+00 6.445089e+00 5.084136e+00 4.544186e+00 4.444122e+00 3.575207e+00 8.838813e+00 1.075276e+00 8.480878e-01 9.326636e-01 1.042541e+00 1.259693e+00 1.182131e+00 1.004119e+00 1.176086e+00 9.313622e-01 8.541538e-01 8.765427e-01 6.588460e-01 1.290737e+00
<GCONST> 1.496361e+02
<STATE> 3
<MEAN> 39
 -9.569330e-01 -9.018337e+00 -3.640599e+00 -8.705822e+00 -1.207053e+01 -2.317600e+00 -1.620825e+01 -7.875166e+00 -3.981279e+00 -4.604857e+00 -2.306132e+00 -5.636890e+00 7.030170e+01 7.829494e-01 -6.326374e-01 -9.329806e-02 -4.674834e-01 -3.206956e-01 -2.180337e-01 -1.308315e-01 -1.248614e-01 -4.527032e-02 -8.086400e-02 -3.224366e-02 -1.614213e-01 1.145207e+00 -1.017379e-02 1.006947e-01 7.529729e-02 1.238260e-01 8.149117e-03 1.066395e-02 1.806784e-02 9.102760e-03 8.401483e-03 -8.223960e-02 -1.414604e-01 -2.860772e-02 -1.898475e-01
<VARIANCE> 39
 8.008654e+01 8.015651e+01 9.750279e+01 1.124005e+02 1.449103e+02 1.027325e+02 1.312881e+02 1.021493e+02 7.489390e+01 8.142173e+01 6.452237e+01 5.394935e+01 8.170923e+01 8.200577e+00 7.232390e+00 6.882680e+00 7.109497e+00 9.835424e+00 8.427998e+00 7.557285e+00 8.106652e+00 6.595633e+00 5.674573e+00 6.642205e+00 4.685187e+00 9.149770e+00 1.402046e+00 1.239506e+00 1.162118e+00 1.352860e+00 1.770042e+00 1.470178e+00 1.351236e+00 1.511726e+00 1.162174e+00 1.110706e+00 1.243295e+00 9.114234e-01 1.480737e+00
<GCONST> 1.593608e+02
<STATE> 4
<MEAN> 39
 2.518778e+00 -8.718821e+00 -6.187497e+00 -8.991175e+00 -7.797846e+00 -5.722706e+00 -8.198520e+00 -4.583652e+00 -3.369360e+00 -3.967657e+00 -3.793007e+00 -4.743201e+00 7.243832e+01 7.841682e-01 -3.746915e-01 1.154497e-01 -2.908185e-01 -2.941195e-01 -1.982249e-01 -1.667256e-01 -3.497946e-02 1.545853e-02 -3.771189e-01 -5.907133e-01 -1.685726e-01 8.288084e-01 -4.451264e-01 4.254685e-01 1.984548e-01 3.439642e-01 2.095381e-01 1.489092e-01 6.834672e-02 2.252828e-02 2.531402e-02 1.091506e-03 -2.679235e-02 6.721731e-02 -6.591818e-01
<VARIANCE> 39
 5.353057e+01 8.018698e+01 9.269456e+01 1.162207e+02 1.207421e+02 1.022414e+02 1.231630e+02 8.511530e+01 7.563982e+01 6.666212e+01 6.691590e+01 4.434909e+01 8.722900e+01 5.531350e+00 5.250914e+00 5.581554e+00 6.866740e+00 7.080357e+00 6.686456e+00 4.871174e+00 5.270595e+00 5.176971e+00 4.007652e+00 4.851354e+00 3.324680e+00 4.987396e+00 8.059955e-01 9.000888e-01 8.501159e-01 9.916084e-01 1.149060e+00 1.249179e+00 9.004059e-01 8.803822e-01 8.875687e-01 7.327378e-01 8.466526e-01 6.428115e-01 7.357808e-01
<GCONST> 1.488246e+02
<TRANSP> 5
 0.000000e+00 1.000000e+00 0.000000e+00 0.000000e+00 0.000000e+00
 0.000000e+00 6.136386e-01 3.863614e-01 0.000000e+00 0.000000e+00
 0.000000e+00 0.000000e+00 7.409741e-01 2.590259e-01 0.000000e+00
 0.000000e+00 0.000000e+00 0.000000e+00 3.117401e-01 6.882599e-01
 0.000000e+00 0.000000e+00 0.000000e+00 0.000000e+00 0.000000e+00
<ENDHMM>
~h "q"
<BEGINHMM>
<NUMSTATES> 5
<STATE> 2
<MEAN> 39
 -1.652519e+00 -2.182597e+01 -2.797053e-01 -1.329121e+01 -9.449667e+00 6.493893e-01 -9.380245e-02 -4.240654e+00 -1.194895e+01 -9.687586e+00 -8.424073e+00 -3.893591e+00 6.934187e+01 1.557710e-02 2.710594e-01 -3.018650e-01 1.081550e-01 4.363695e-02 -5.290719e-01 -1.312150e-01 1.141100e-01 -2.693273e-01 -4.527458e-01 3.392799e-01 1.471309e-01 -2.439808e-01 1.159894e-02 2.148559e-01 -1.082296e-01 6.856120e-02 -1.838930e-02 -1.167513e-01 -2.331970e-03 4.786386e-03 6.073153e-02 2.028359e-02 1.135281e-02 3.926465e-03 -1.135667e-01
<VARIANCE> 39
 1.272875e+01 1.010632e+02 5.730340e+01 6.689610e+01 6.124872e+01 4.071098e+01 7.117860e+01 2.783805e+01 2.325019e+01 2.915183e+01 2.391458e+01 1.513713e+01 1.257197e+01 3.408811e-01 1.778454e+00 9.462143e-01 2.754366e+00 1.179781e+00 1.404132e+00 1.023524e+00 1.191806e+00 1.594160e+00 2.047337e+00 1.080013e+00 1.239456e+00 7.424585e-01 6.418283e-02 1.546205e-01 2.016380e-01 3.990152e-01 2.710340e-01 3.001018e-01 1.452397e-01 2.014054e-01 2.669613e-01 2.945205e-01 2.058747e-01 1.705834e-01 1.143233e-01
<GCONST> 9.854636e+01
<STATE> 3
<MEAN> 39
 -4.993552e+00 -1.021783e+01 -4.618111e+00 -5.789016e+00 -5.796093e+00 -3.425289e+00 -2.004869e+00 -4.018446e+00 -9.980589e+00 -1.119745e+01 -4.590416e+00 -2.583066e+00 6.039626e+01 -8.339900e-01 4.928210e-01 -6.256183e-01 5.043924e-01 2.664469e-01 1.308922e-01 3.278672e-01 1.115182e-01 6.486323e-01 3.719457e-01 1.270747e-01 1.331913e-01 -1.160398e+00 -4.317519e-02 -1.630450e-01 3.859193e-02 -6.995900e-02 -3.189890e-02 7.412145e-02 2.489720e-03 -6.505516e-03 6.809742e-03 1.609122e-01 5.004129e-03 3.441175e-03 7.787897e-02
<VARIANCE> 39
 4.349765e+01 6.900355e+01 7.757050e+01 5.126437e+01 5.177115e+01 3.655820e+01 5.183550e+01 5.036853e+01 5.196631e+01 4.920034e+01 1.698045e+01 2.256616e+01 4.415284e+01 1.445145e+00 2.304596e+00 1.102761e+00 2.454642e+00 1.727767e+00 2.233377e+00 2.148664e+00 1.700822e+00 2.737339e+00 2.607405e+00 1.287745e+00 1.532528e+00 8.851858e-01 1.874405e-01 3.374918e-01 2.039341e-01 3.911678e-01 3.113107e-01 4.856268e-01 3.809325e-01 3.627171e-01 5.716431e-01 6.432595e-01 2.246669e-01 3.211327e-01 1.243623e-01
<GCONST> 1.134649e+02
<STATE> 4
<MEAN> 39
 -7.379655e+00 -6.345901e+00 -6.801619e+00 -2.966914e+00 -1.915268e-01 -2.145440e+00 -3.297808e+00 8.623509e-01 -4.642323e+00 -5.086328e+00 -6.445220e-01 1.858222e+00 5.252769e+01 -1.157608e-02 -5.293913e-03 -5.582810e-02 2.042990e-02 -3.152797e-02 -3.863566e-03 1.074045e-02 -3.093843e-02 -1.994492e-03 3.150780e-02 -3.559105e-03 3.444883e-03 -7.539835e-02 4.716625e-03 1.018300e-03 -2.095187e-03 2.619361e-03 5.500584e-03 -1.458130e-03 -8.477370e-03 -5.196547e-03 -4.225852e-03 -7.159025e-03 -4.116897e-03 -6.055195e-03 1.142057e-02
<VARIANCE> 39
 2.357262e+01 1.405524e+01 3.530819e+01 1.846359e+01 3.467788e+01 2.292827e+01 3.500820e+01 2.097361e+01 2.157128e+01 2.339614e+01 1.763706e+01 1.845191e+01 2.441701e+01 3.773721e-01 5.169493e-01 7.001492e-01 7.405599e-01 1.067685e+00 1.079819e+00 1.240026e+00 1.218020e+00 1.490390e+00 1.473714e+00 1.373723e+00 1.239764e+00 1.863468e-01 7.176146e-02 1.013850e-01 1.306482e-01 1.456604e-01 2.058574e-01 2.053786e-01 2.287765e-01 2.291208e-01 3.062485e-01 2.831511e-01 2.808203e-01 2.458737e-01 2.571886e-02
<GCONST> 8.656896e+01
<TRANSP> 5
 0.000000e+00 1.000000e+00 0.000000e+00 0.000000e+00 0.000000e+00
 0.000000e+00 8.431566e-01 1.568434e-01 0.000000e+00 0.000000e+00
 0.000000e+00 0.000000e+00 8.169881e-01 1.830119e-01 0.000000e+00
 0.000000e+00 0.000000e+00 0.000000e+00 9.821457e-01 1.785435e-02
 0.000000e+00 0.000000e+00 0.000000e+00 0.000000e+00 0.000000e+00
<ENDHMM>
~h "r"
<BEGINHMM>
<NUMSTATES> 5
<STATE> 2
<MEAN> 39
 9.930069e-01 -8.925251e+00 -5.352343e+00 -4.495688e+00 -9.270209e+00 -5.514735e+00 -9.585148e+00 -4.227812e+00 -3.000528e+00 -4.971043e+00 -4.059582e+00 -3.877789e+00 7.266190e+01 8.714218e-02 -6.959624e-02 1.805806e-01 2.586748e-01 -2.737937e-01 7.389107e-02 -2.328718e-01 2.763674e-02 6.775178e-02 -3.968806e-02 2.542742e-01 2.919115e-02 -7.978345e-02 -9.235546e-02 5.820414e-02 8.662713e-02 -6.852822e-02 3.687212e-02 9.462254e-02 -5.245269e-03 2.407931e-02 -1.194838e-01 2.331213e-02 2.800454e-02 -4.822168e-02 -8.500638e-02
<VARIANCE> 39
 6.269849e+01 7.264689e+01 6.339665e+01 8.571970e+01 1.137269e+02 8.374799e+01 1.211363e+02 9.637035e+01 8.890800e+01 6.653184e+01 5.341149e+01 4.099923e+01 1.120233e+02 3.532212e+00 3.965998e+00 3.200725e+00 3.381916e+00 4.861746e+00 4.294337e+00 3.336689e+00 4.696727e+00 4.280296e+00 3.550312e+00 3.548787e+00 2.697477e+00 3.036849e+00 6.653888e-01 7.642532e-01 5.482790e-01 6.318470e-01 8.774486e-01 7.374728e-01 6.136618e-01 8.712476e-01 8.444150e-01 6.788179e-01 6.801909e-01 5.420291e-01 5.259850e-01
<GCONST> 1.402322e+02
<STATE> 3
<MEAN> 39
 1.602191e+00 -9.076861e+00 -4.969515e+00 -4.355612e+00 -1.001414e+01 -5.387680e+00 -1.005466e+01 -4.048260e+00 -3.232522e+00 -4.995123e+00 -3.634676e+00 -4.048079e+00 7.284775e+01 -7.572933e-02 2.058471e-01 2.918865e-01 1.645623e-01 -8.533086e-02 2.109915e-01 -1.377877e-01 -3.534355e-02 -2.261401e-01 4.439687e-02 1.688498e-01 -1.056904e-01 -3.687896e-01 -1.143450e-01 9.500502e-02 6.059656e-02 -1.057321e-01 1.180328e-01 3.240738e-02 7.108337e-02 -3.875855e-02 -1.025926e-01 2.583202e-02 -8.270246e-02 -3.575666e-02 -6.163368e-02
<VARIANCE> 39
 5.865104e+01 7.393803e+01 6.841025e+01 8.009718e+01 1.167672e+02 8.386774e+01 1.277326e+02 9.463235e+01 8.556486e+01 6.500430e+01 5.311587e+01 3.956517e+01 1.143833e+02 2.642456e+00 3.333058e+00 2.905412e+00 3.061268e+00 4.398271e+00 3.661699e+00 3.098154e+00 4.644988e+00 4.093702e+00 3.291827e+00 3.371503e+00 2.430357e+00 2.450988e+00 4.713759e-01 5.991690e-01 4.939067e-01 5.649915e-01 8.135463e-01 6.916587e-01 5.884038e-01 8.317066e-01 7.208900e-01 6.310539e-01 5.972862e-01 4.780668e-01 4.028305e-01
<GCONST> 1.368908e+02
<STATE> 4
<MEAN> 39
 2.419021e+00 -6.699531e+00 -5.800704e+00 -3.061485e+00 -8.288655e+00 -5.939818e+00 -7.841451e+00 -3.028721e+00 -4.938535e+00 -3.890103e+00 -2.822569e+00 -3.676448e+00 7.127920e+01 -2.732694e-01 2.839001e-01 3.017581e-01 3.785925e-02 8.396580e-02 2.010018e-01 5.896212e-02 -1.364521e-01 -2.173737e-01 7.864764e-02 -3.998489e-02 -9.223540e-02 -4.023482e-01 -7.539394e-02 1.218550e-02 3.053387e-02 -7.960092e-02 7.634686e-02 -2.043343e-02 3.770003e-02 -1.531279e-03 -5.752681e-03 -2.098043e-02 -9.473537e-02 7.081610e-03 3.695913e-02
<VARIANCE> 39
 6.067452e+01 6.722668e+01 7.004624e+01 8.756954e+01 9.974145e+01 7.551366e+01 1.018278e+02 9.045625e+01 8.663002e+01 5.673788e+01 5.031921e+01 3.533704e+01 1.171040e+02 2.114146e+00 2.796784e+00 2.602600e+00 2.644388e+00 3.521176e+00 2.982094e+00 2.709103e+00 3.586301e+00 3.402143e+00 2.972343e+00 2.729234e+00 2.079161e+00 1.873055e+00 3.336044e-01 4.532568e-01 4.123351e-01 4.919563e-01 5.953696e-01 5.611616e-01 4.934568e-01 6.203433e-01 5.850869e-01 5.160736e-01 4.849296e-01 3.786307e-01 3.316433e-01
<GCONST> 1.307618e+02
<TRANSP> 5
 0.000000e+00 1.000000e+00 0.000000e+00 0.000000e+00 0.000000e+00
 0.000000e+00 2.593568e-01 7.406433e-01 0.000000e+00 0.000000e+00
 0.000000e+00 0.000000e+00 1.932311e-01 8.067689e-01 0.000000e+00
 0.000000e+00 0.000000e+00 0.000000e+00 4.200019e-01 5.799981e-01
 0.000000e+00 0.000000e+00 0.000000e+00 0.000000e+00 0.000000e+00
<ENDHMM>
~h "s"
<BEGINHMM>
<NUMSTATES> 5
<STATE> 2
<MEAN> 39
 -1.071790e+01 7.171065e-01 3.848904e-01 -7.057466e+00 1.725828e+00 -9.361347e+00 -3.823519e+00 -2.137480e+00 -4.208563e+00 -4.456452e+00 -3.078286e+00 -3.467154e+00 6.838148e+01 -2.974383e+00 4.835742e-01 5.309920e-01 -6.647514e-01 1.369495e+00 -3.093984e-01 1.018264e+00 6.070567e-01 4.571593e-01 9.730923e-03 9.788893e-01 4.301465e-01 1.898511e-01 2.579356e-01 -3.619677e-01 -1.858262e-01 -6.856292e-02 -3.725086e-01 6.304295e-02 -1.633151e-01 -8.821626e-02 4.464747e-02 2.838731e-03 1.284219e-02 -5.051546e-03 8.283848e-02
<VARIANCE> 39
 1.276736e+02 9.994837e+01 7.778056e+01 1.438434e+02 1.794150e+02 1.255562e+02 1.227799e+02 7.264445e+01 7.920528e+01 5.421441e+01 5.610245e+01 3.997595e+01 9.369617e+01 6.629584e+00 6.338604e+00 5.572865e+00 4.776440e+00 7.315110e+00 5.900977e+00 4.063154e+00 4.350679e+00 4.008934e+00 3.959692e+00 3.464268e+00 2.803829e+00 1.524391e+00 1.318277e+00 7.496073e-01 7.098003e-01 7.652936e-01 1.116093e+00 9.178306e-01 7.091351e-01 7.449083e-01 7.098590e-01 6.430752e-01 6.823465e-01 4.993329e-01 2.363210e-01
<GCONST> 1.447701e+02
<STATE> 3
<MEAN> 39
 -1.693194e+01 -1.148002e+00 1.245208e+00 -9.169724e+00 1.548423e+00 -9.684711e+00 -2.126246e+00 -1.397341e+00 -1.762993e+00 -4.464109e+00 -1.422535e-01 -1.922511e+00 6.935397e+01 1.225534e+00 -7.351650e-01 -5.089698e-01 4.032520e-02 -1.060582e+00 -1.627396e-01 -4.382695e-01 -3.778644e-01 5.062509e-02 1.898071e-01 -1.541536e-01 -5.530503e-02 1.928881e-01 1.067004e+00 -2.757771e-02 -1.733798e-01 9.330280e-02 -3.293010e-01 -9.092237e-02 -3.562449e-01 -2.914096e-01 -1.879769e-01 -4.181514e-02 -2.927310e-01 -1.963742e-01 1.015266e-01
<VARIANCE> 39
 1.082260e+02 1.364379e+02 1.021037e+02 1.297070e+02 1.794008e+02 1.496379e+02 1.025925e+02 7.132659e+01 7.193606e+01 5.630624e+01 4.023940e+01 4.345349e+01 8.184481e+01 1.040302e+01 3.976583e+00 5.384808e+00 2.962550e+00 5.136534e+00 4.173309e+00 4.260304e+00 4.736167e+00 4.284133e+00 3.481161e+00 3.256181e+00 2.615712e+00 2.004128e+00 1.133022e+00 8.046332e-01 8.174875e-01 5.682523e-01 8.175907e-01 8.017261e-01 7.849480e-01 8.495829e-01 7.357013e-01 7.251231e-01 6.042737e-01 4.855394e-01 3.343625e-01
<GCONST> 1.435070e+02
<STATE> 4
<MEAN> 39
 -1.012330e+01 -4.290144e+00 -2.348646e+00 -4.706816e+00 -3.601685e+00 -7.577134e+00 -2.891181e+00 -1.827858e+00 -3.649495e+00 -3.285979e+00 -1.696465e+00 -1.825722e+00 6.737790e+01 2.267224e+00 -3.224069e-01 -4.716448e-01 -1.244706e-02 -7.783271e-01 -1.405114e-01 -8.157961e-01 -5.816156e-01 -3.199207e-01 -2.076128e-01 -5.680963e-01 -3.414066e-01 2.646766e-01 8.002196e-02 5.195460e-02 9.309177e-02 -3.827563e-02 1.005807e-01 3.699621e-02 -4.433526e-02 9.635679e-03 -6.441013e-02 -8.059840e-02 -5.909118e-02 -3.981888e-02 6.788806e-02
<VARIANCE> 39
 1.208444e+02 8.667379e+01 8.173221e+01 1.048462e+02 1.240350e+02 1.066307e+02 8.531458e+01 7.532279e+01 7.542286e+01 4.866795e+01 4.372945e+01 3.840135e+01 1.124765e+02 7.527194e+00 5.090844e+00 4.201789e+00 3.735299e+00 4.223468e+00 3.816937e+00 4.151941e+00 4.311658e+00 3.823960e+00 3.691911e+00 3.113223e+00 2.682942e+00 3.024786e+00 1.174447e+00 5.952023e-01 5.696223e-01 5.019270e-01 5.746821e-01 6.353393e-01 6.342158e-01 6.312919e-01 6.362572e-01 5.179213e-01 5.317077e-01 3.941663e-01 3.986574e-01
<GCONST> 1.394206e+02
<TRANSP> 5
 0.000000e+00 1.000000e+00 0.000000e+00 0.000000e+00 0.000000e+00
 0.000000e+00 6.855969e-01 3.144031e-01 0.000000e+00 0.000000e+00
 0.000000e+00 0.000000e+00 6.346518e-01 3.653482e-01 0.000000e+00
 0.000000e+00 0.000000e+00 0.000000e+00 6.059119e-01 3.940881e-01
 0.000000e+00 0.000000e+00 0.000000e+00 0.000000e+00 0.000000e+00
<ENDHMM>
~h "t"
<BEGINHMM>
<NUMSTATES> 5
<STATE> 2
<MEAN> 39
 -4.300222e+00 -2.732902e+00 -3.015025e+00 -2.336755e+00 -6.923987e+00 -5.555207e+00 -6.559556e+00 -4.177927e+00 -4.476764e+00 -4.580352e+00 -4.356892e+00 -3.699694e+00 6.164158e+01 -9.907534e-01 -1.138527e-01 -2.484016e-01 -9.082159e-02 5.110053e-01 1.901030e-01 2.245328e-01 1.736579e-01 2.483773e-01 3.859570e-01 4.403632e-01 3.177011e-01 -5.130156e-01 1.764745e-01 -5.338103e-01 -1.255507e-01 -5.214250e-01 -1.494537e-01 -2.159676e-01 -1.555745e-02 7.579459e-02 -7.980029e-02 7.579574e-03 -1.014205e-02 3.856037e-02 8.222561e-01
<VARIANCE> 39
 5.774027e+01 4.609245e+01 4.389738e+01 7.529124e+01 7.158961e+01 6.244070e+01 8.133520e+01 6.974465e+01 4.818253e+01 4.985741e+01 3.926320e+01 3.400951e+01 1.430078e+02 3.644371e+00 3.798190e+00 2.737751e+00 3.444892e+00 3.735655e+00 4.103832e+00 3.122658e+00 3.622972e+00 3.607913e+00 2.867470e+00 2.963491e+00 2.279551e+00 4.553847e+00 7.194834e-01 7.130403e-01 5.525261e-01 6.807576e-01 8.116280e-01 7.895447e-01 6.402482e-01 7.378562e-01 7.732708e-01 5.735486e-01 6.292639e-01 4.957276e-01 8.470099e-01
<GCONST> 1.354659e+02
<STATE> 3
<MEAN> 39
 -5.313032e+00 -5.524939e+00 -4.549904e+00 -4.572918e+00 -6.043994e+00 -6.260458e+00 -6.532252e+00 -3.320795e+00 -4.211644e+00 -3.416489e+00 -3.516776e+00 -2.825813e+00 6.507288e+01 4.510252e-01 -1.135540e+00 -3.650825e-01 -1.078658e+00 -2.078015e-01 -4.077285e-01 5.110982e-02 2.343434e-01 -1.119638e-01 1.830378e-02 -2.632760e-02 6.680181e-02 1.835272e+00 4.693944e-01 -1.375180e-01 9.965777e-02 -1.367109e-01 -1.702936e-01 -9.726405e-03 -1.639253e-01 -6.072680e-02 -8.870815e-02 -1.678566e-01 -1.661199e-01 -1.310399e-01 3.828666e-01
<VARIANCE> 39
 6.826404e+01 6.234153e+01 4.724211e+01 9.732333e+01 7.929703e+01 6.840584e+01 8.160459e+01 6.854992e+01 5.063589e+01 5.015208e+01 3.984013e+01 3.467857e+01 1.510426e+02 6.619610e+00 5.982353e+00 4.563779e+00 4.974562e+00 5.787232e+00 5.657045e+00 4.798460e+00 5.368839e+00 5.418353e+00 3.835442e+00 4.074918e+00 3.333878e+00 7.762750e+00 1.082276e+00 9.101855e-01 7.449161e-01 9.310979e-01 1.074506e+00 1.012093e+00 8.758194e-01 8.742130e-01 9.546024e-01 7.128745e-01 7.435924e-01 5.748029e-01 1.249532e+00
<GCONST> 1.454379e+02
<STATE> 4
<MEAN> 39
 -3.714497e+00 -6.427451e+00 -5.102599e+00 -5.075183e+00 -6.278536e+00 -6.263587e+00 -5.775410e+00 -2.646987e+00 -4.385163e+00 -3.872392e+00 -3.816789e+00 -2.983730e+00 6.638203e+01 6.094682e-01 -7.150992e-01 2.985642e-02 -7.841191e-01 -1.912619e-01 -1.581654e-01 -2.742752e-01 3.510905e-02 -1.837147e-01 -1.717631e-01 -1.607257e-01 -9.365258e-02 1.191622e+00 1.808390e-01 1.069860e-01 1.193447e-01 2.010439e-02 -3.202707e-02 5.467026e-02 -1.503877e-01 -8.506735e-02 -3.363905e-02 -7.801100e-02 -4.929493e-02 -6.431061e-02 1.858210e-02
<VARIANCE> 39
 6.425124e+01 6.326418e+01 4.513128e+01 9.921596e+01 7.417525e+01 5.947536e+01 7.375092e+01 6.677742e+01 5.225564e+01 4.824886e+01 3.969091e+01 3.222241e+01 1.659390e+02 5.161836e+00 4.606865e+00 4.345860e+00 5.049502e+00 5.272120e+00 5.097165e+00 4.324812e+00 4.434017e+00 4.518820e+00 3.399767e+00 3.697080e+00 2.885857e+00 6.043636e+00 7.825894e-01 6.441944e-01 5.195474e-01 6.853883e-01 7.468709e-01 7.628984e-01 6.444563e-01 7.434909e-01 7.145946e-01 6.122306e-01 5.749645e-01 4.571604e-01 9.054319e-01
<GCONST> 1.395087e+02
<TRANSP> 5
 0.000000e+00 1.000000e+00 0.000000e+00 0.000000e+00 0.000000e+00
 0.000000e+00 4.230664e-01 5.769337e-01 0.000000e+00 0.000000e+00
 0.000000e+00 0.000000e+00 4.300021e-01 5.699978e-01 0.000000e+00
 0.000000e+00 0.000000e+00 0.000000e+00 3.493681e-01 6.506318e-01
 0.000000e+00 0.000000e+00 0.000000e+00 0.000000e+00 0.000000e+00
<ENDHMM>
~h "u"
<BEGINHMM>
<NUMSTATES> 5
<STATE> 2
<MEAN> 39
 -1.090699e+00 -3.461683e+00 -2.865001e+00 -8.428167e+00 -8.560413e+00 -2.874850e+00 -1.298328e+01 -6.817523e+00 -4.962993e+00 -5.224799e+00 -2.104505e+00 -3.639833e+00 6.715778e+01 9.279068e-01 -3.046111e-01 -2.803065e-01 -1.176744e+00 -3.376454e-01 1.405488e-01 -7.690919e-01 -4.084001e-01 -2.120754e-01 3.831070e-02 4.769491e-01 3.867745e-02 1.292163e+00 1.041581e-01 4.236568e-02 -2.088175e-02 1.453220e-01 -1.019996e-02 2.619224e-02 4.489798e-02 -5.065284e-02 2.144774e-02 6.028515e-02 -6.534441e-02 -1.056337e-01 -1.129450e-01
<VARIANCE> 39
 8.695328e+01 8.443639e+01 6.944919e+01 1.558163e+02 1.531604e+02 1.044816e+02 1.263789e+02 1.234826e+02 7.180099e+01 7.444816e+01 5.998469e+01 4.564756e+01 1.112336e+02 7.317766e+00 5.338353e+00 5.444188e+00 7.499932e+00 9.097554e+00 8.960187e+00 6.599098e+00 8.846044e+00 6.494716e+00 5.759330e+00 6.074891e+00 4.370989e+00 5.312317e+00 1.214503e+00 9.969304e-01 9.005783e-01 1.369274e+00 1.640389e+00 1.564974e+00 1.199994e+00 1.566298e+00 1.182521e+00 1.007827e+00 9.823359e-01 8.032496e-01 9.721052e-01
<GCONST> 1.567127e+02
<STATE> 3
<MEAN> 39
 3.702581e+00 -5.336235e+00 -4.611998e+00 -1.067259e+01 -1.074065e+01 -1.241205e+00 -1.528065e+01 -8.503583e+00 -4.621759e+00 -4.869328e+00 -1.615318e+00 -4.290439e+00 7.107627e+01 2.985762e-01 -6.068085e-02 -7.636713e-02 7.292561e-02 1.883986e-01 -2.068183e-01 1.233311e-02 2.087355e-02 1.620703e-01 1.833425e-01 -3.946069e-01 -3.304319e-01 1.324984e-01 -4.115164e-01 1.386794e-01 1.339555e-01 3.891914e-01 2.177455e-01 -1.767461e-01 3.643282e-01 2.393724e-01 7.516222e-02 -1.036173e-01 -2.122520e-01 1.106822e-02 -3.550185e-01
<VARIANCE> 39
 4.595588e+01 7.716901e+01 5.895824e+01 1.472543e+02 1.303690e+02 1.179518e+02 1.515348e+02 1.308165e+02 7.489310e+01 9.867743e+01 8.311186e+01 4.674352e+01 7.698985e+01 3.616018e+00 4.789999e+00 3.839210e+00 6.332044e+00 6.756765e+00 7.197330e+00 5.623534e+00 7.171753e+00 6.008175e+00 5.394296e+00 5.579326e+00 3.855303e+00 3.327718e+00 5.724663e-01 7.227030e-01 6.177619e-01 1.096324e+00 1.106174e+00 1.334171e+00 1.043220e+00 1.325008e+00 1.046335e+00 1.046673e+00 1.095894e+00 7.633488e-01 5.689637e-01
<GCONST> 1.501342e+02
<STATE> 4
<MEAN> 39
 3.025445e+00 -2.178112e+00 -5.405616e+00 -1.115455e+01 -7.707732e+00 -4.650004e+00 -9.893259e+00 -5.671131e+00 -5.107325e+00 -4.477874e+00 -3.144799e+00 -4.140249e+00 6.744958e+01 -5.542603e-01 8.186556e-02 2.061389e-01 7.073807e-01 3.608267e-01 -1.850946e-01 4.987470e-01 3.114951e-01 1.302643e-01 -1.115868e-01 -3.515675e-01 -1.224764e-01 -5.070056e-01 -2.556925e-01 -7.123799e-02 8.136380e-02 1.374190e-01 5.911005e-02 1.166004e-02 7.865790e-02 5.170238e-02 2.478174e-02 -3.486777e-02 4.067705e-02 7.249683e-02 -8.755418e-02
<VARIANCE> 39
 5.122651e+01 7.850964e+01 4.841550e+01 1.357545e+02 9.355991e+01 8.222074e+01 1.082756e+02 9.062395e+01 6.332117e+01 6.703065e+01 6.354387e+01 3.894653e+01 9.681562e+01 2.552780e+00 3.313188e+00 2.678861e+00 4.792372e+00 4.437185e+00 4.991817e+00 3.563472e+00 4.250322e+00 3.749041e+00 3.951922e+00 3.852696e+00 2.846038e+00 2.543777e+00 4.029497e-01 5.222211e-01 4.290748e-01 8.163434e-01 7.097321e-01 7.883038e-01 6.504290e-01 7.907124e-01 7.128191e-01 7.381790e-01 6.934354e-01 5.489471e-01 3.874436e-01
<GCONST> 1.377645e+02
<TRANSP> 5
 0.000000e+00 1.000000e+00 0.000000e+00 0.000000e+00 0.000000e+00
 0.000000e+00 5.906333e-01 4.093667e-01 0.000000e+00 0.000000e+00
 0.000000e+00 0.000000e+00 5.064827e-01 4.935173e-01 0.000000e+00
 0.000000e+00 0.000000e+00 0.000000e+00 4.920700e-01 5.079300e-01
 0.000000e+00 0.000000e+00 0.000000e+00 0.000000e+00 0.000000e+00
<ENDHMM>
~h "v"
<BEGINHMM>
<NUMSTATES> 5
<STATE> 2
<MEAN> 39
 -2.004470e+00 -9.425800e+00 -7.194327e+00 -9.511650e+00 -7.562311e+00 -4.534964e+00 -1.848032e+01 -6.440681e+00 -1.608268e+00 -2.650467e+00 -2.319601e+00 -6.945547e+00 7.149995e+01 -2.908100e-01 -3.785831e-01 -5.978351e-01 -3.136405e-01 1.217729e-01 -8.695260e-03 3.915024e-01 4.865579e-01 3.505958e-01 -1.129723e-01 7.949122e-02 -5.304867e-02 6.183695e-01 1.217679e-01 -1.888982e-01 3.805215e-02 -7.507773e-02 -2.076202e-01 -7.915679e-02 -1.702100e-02 -9.652074e-02 1.578157e-01 -1.241879e-01 4.643656e-02 -2.011118e-03 1.321863e-01
<VARIANCE> 39
 8.556383e+01 6.328019e+01 2.665903e+01 4.762975e+01 8.835818e+01 5.254529e+01 9.843748e+01 9.830748e+01 5.158326e+01 3.597634e+01 2.443202e+01 1.785692e+01 3.969054e+01 8.487637e+00 3.517931e+00 3.928677e+00 4.748217e+00 5.374155e+00 4.404338e+00 5.053285e+00 5.239539e+00 5.656239e+00 2.928951e+00 3.128091e+00 1.825868e+00 4.496628e+00 1.248534e+00 7.497776e-01 4.918109e-01 8.514976e-01 1.061996e+00 6.985196e-01 1.097535e+00 8.505536e-01 9.573647e-01 5.158284e-01 5.329864e-01 3.087454e-01 7.845445e-01
<GCONST> 1.370864e+02
<STATE> 3
<MEAN> 39
 -1.013233e+01 -6.815854e+00 9.850012e-01 -7.553051e+00 -1.264326e+01 -1.639288e+01 -1.555749e+01 -3.963973e+00 -4.974902e+00 -7.051967e+00 -1.937619e+00 -4.448331e+00 7.635091e+01 -2.553712e-01 1.673168e-01 -3.418683e-02 -3.021463e-01 1.010026e-01 -1.361054e-01 4.311956e-01 1.081721e-02 -2.536761e-02 -2.535457e-01 3.716862e-02 1.529257e-01 1.792758e-01 -5.177973e-02 2.372857e-02 4.028356e-02 6.060668e-02 1.038741e-02 -1.535070e-02 7.998623e-02 9.139033e-03 2.802650e-02 -1.015836e-02 -3.523027e-02 -4.135542e-03 -7.334216e-02
<VARIANCE> 39
 1.301077e+02 5.195784e+01 5.710821e+01 2.514764e+01 1.269365e+02 6.615921e+01 6.041631e+01 4.845763e+01 2.751147e+01 4.502986e+01 4.332349e+01 2.139750e+01 1.674274e+01 1.018169e+01 5.821249e+00 2.454590e+00 2.709331e+00 1.220139e+01 4.259428e+00 6.993354e+00 4.329036e+00 3.567099e+00 2.550716e+00 5.943426e+00 2.441604e+00 2.974141e+00 1.471167e+00 1.045610e+00 4.072601e-01 4.534039e-01 2.252552e+00 9.768283e-01 1.546755e+00 7.674731e-01 6.517094e-01 4.219870e-01 1.351838e+00 3.843465e-01 6.168957e-01
<GCONST> 1.381388e+02
<STATE> 4
<MEAN> 39
 -7.878081e+00 -6.003396e+00 -8.112123e+00 -1.191399e+01 -2.732618e+00 -9.612716e+00 -7.811066e+00 -1.709840e+00 -2.332294e+00 -1.111583e+00 -1.129125e+00 -3.755643e+00 7.046703e+01 1.825146e+00 -1.057014e+00 -2.568706e-01 -8.522855e-01 -1.093110e+00 5.310300e-01 -4.120196e-01 -7.361255e-01 3.695408e-02 -3.858753e-01 -3.141846e-01 -1.076139e+00 6.414264e-01 1.903028e-01 -7.245849e-02 1.892078e-01 1.020609e-01 -2.218802e-01 6.549121e-02 -3.026745e-01 -1.040017e-01 -1.616394e-01 5.523188e-02 -1.870919e-01 -1.620760e-01 9.261127e-02
<VARIANCE> 39
 1.077482e+02 4.955588e+01 3.099737e+01 5.485269e+01 5.127112e+01 6.800666e+01 4.667000e+01 5.533950e+01 2.712201e+01 5.584063e+01 7.223483e+01 2.963629e+01 6.622163e+01 9.971047e+00 2.369504e+00 3.252897e+00 3.504568e+00 3.418866e+00 3.202847e+00 6.199678e+00 3.718355e+00 2.965650e+00 2.859365e+00 2.632183e+00 2.922876e+00 2.566254e+00 1.565313e+00 2.906790e-01 5.838000e-01 6.248184e-01 2.796722e-01 4.814565e-01 8.651630e-01 6.344106e-01 3.024348e-01 4.515182e-01 4.566650e-01 4.312636e-01 4.150134e-01
<GCONST> 1.302482e+02
<TRANSP> 5
 0.000000e+00 1.000000e+00 0.000000e+00 0.000000e+00 0.000000e+00
 0.000000e+00 8.305165e-01 1.694835e-01 0.000000e+00 0.000000e+00
 0.000000e+00 0.000000e+00 8.596852e-01 1.403149e-01 0.000000e+00
 0.000000e+00 0.000000e+00 0.000000e+00 7.693217e-01 2.306783e-01
 0.000000e+00 0.000000e+00 0.000000e+00 0.000000e+00 0.000000e+00
<ENDHMM>
~h "w"
<BEGINHMM>
<NUMSTATES> 5
<STATE> 2
<MEAN> 39
 1.703870e+00 -1.213786e+01 -6.963264e+00 -1.513437e+01 -1.359170e+01 3.477374e+00 -1.859657e+01 -1.013025e+01 -3.186624e+00 -7.113249e+00 -4.022938e+00 -8.122073e+00 7.245266e+01 1.322591e-01 -3.520894e-01 -6.115481e-02 -7.868607e-02 -1.609953e-02 1.895334e-01 -2.217169e-01 9.998091e-02 4.033868e-02 -1.198153e-01 -4.423359e-02 -5.798034e-02 2.458083e-01 -3.466886e-02 -1.536790e-02 4.295906e-02 9.357147e-02 -1.767680e-02 -1.129293e-01 3.035759e-02 9.155302e-02 -3.709559e-02 -3.969152e-03 -5.661957e-03 6.151070e-02 -2.171319e-02
<VARIANCE> 39
 3.067845e+01 5.368557e+01 4.435537e+01 1.067289e+02 7.948765e+01 8.177622e+01 8.452962e+01 7.900149e+01 5.484451e+01 3.785414e+01 5.716252e+01 3.373378e+01 6.170252e+01 2.592331e+00 4.445057e+00 2.409868e+00 5.723968e+00 4.458081e+00 5.298608e+00 4.240396e+00 6.536129e+00 4.400329e+00 3.575256e+00 4.138579e+00 3.824172e+00 4.095730e+00 5.143901e-01 7.092131e-01 4.154960e-01 9.169278e-01 8.195737e-01 9.337812e-01 8.767371e-01 1.234989e+00 8.009580e-01 7.059868e-01 6.999077e-01 8.303285e-01 6.798178e-01
<GCONST> 1.392775e+02
<STATE> 3
<MEAN> 39
 3.597214e+00 -1.414081e+01 -5.022096e+00 -1.408155e+01 -1.561724e+01 4.900548e+00 -1.987990e+01 -1.026145e+01 -4.074094e+00 -8.417113e+00 -2.686268e+00 -8.693601e+00 7.238050e+01 -4.922256e-02 -1.784237e-01 7.426769e-02 2.493117e-01 -9.477431e-03 -1.943711e-01 -8.972351e-03 2.916260e-01 5.943670e-02 -9.027272e-03 -1.551575e-01 8.382153e-02 -6.578279e-02 -5.026770e-02 1.003032e-01 1.452871e-02 4.161085e-02 -2.392917e-02 -1.134393e-01 5.948288e-02 -2.612144e-03 1.114767e-02 4.514000e-02 -5.808174e-03 2.110414e-02 -6.484770e-02
<VARIANCE> 39
 1.529659e+01 5.608876e+01 3.932325e+01 9.204459e+01 6.454709e+01 7.060551e+01 9.147647e+01 7.845282e+01 6.408952e+01 5.581317e+01 6.436059e+01 3.958852e+01 4.582180e+01 1.238700e+00 3.412524e+00 2.412029e+00 4.440759e+00 4.094591e+00 3.364005e+00 3.398666e+00 5.413069e+00 3.861386e+00 4.269795e+00 3.463016e+00 3.817677e+00 2.332179e+00 2.285187e-01 5.698971e-01 3.945953e-01 6.951391e-01 7.439744e-01 5.365409e-01 6.443161e-01 8.864045e-01 6.712911e-01 7.664306e-01 6.055981e-01 7.787519e-01 3.684095e-01
<GCONST> 1.321328e+02
<STATE> 4
<MEAN> 39
 -2.025985e+00 -1.264213e+01 -5.979548e+00 -1.134296e+01 -1.153650e+01 -2.997722e+00 -8.452597e+00 -4.865867e+00 -5.215418e+00 -1.016885e+01 -8.353016e+00 -5.104785e+00 6.164559e+01 -1.453042e-01 1.122317e-01 1.757655e-02 1.044624e-01 -1.574576e-02 -2.155539e-01 9.993234e-02 7.732293e-02 -5.377186e-02 2.853817e-02 6.167310e-02 4.605002e-02 -2.188986e-01 -1.578550e-02 3.585657e-02 -1.074731e-02 -2.247202e-02 6.663653e-03 2.076994e-02 1.040900e-02 -2.652524e-02 2.443636e-02 4.133796e-02 2.165373e-02 -2.618775e-02 -5.587092e-03
<VARIANCE> 39
 5.838633e+01 9.174991e+01 2.959712e+01 6.329998e+01 6.618603e+01 5.117894e+01 9.546370e+01 3.537651e+01 3.667375e+01 4.732042e+01 3.682417e+01 3.144642e+01 1.072736e+02 1.051632e+00 2.868090e+00 1.566707e+00 3.257900e+00 3.139687e+00 2.515221e+00 2.288282e+00 2.551164e+00 2.662794e+00 2.484488e+00 2.125328e+00 2.232153e+00 1.265779e+00 1.592248e-01 4.183899e-01 2.379617e-01 5.132931e-01 5.005689e-01 4.169902e-01 4.290362e-01 5.025731e-01 5.002695e-01 4.669556e-01 3.776807e-01 4.181131e-01 1.672273e-01
<GCONST> 1.204868e+02
<TRANSP> 5
 0.000000e+00 1.000000e+00 0.000000e+00 0.000000e+00 0.000000e+00
 0.000000e+00 8.137224e-01 1.862777e-01 0.000000e+00 0.000000e+00
 0.000000e+00 0.000000e+00 8.435421e-01 1.564579e-01 0.000000e+00
 0.000000e+00 0.000000e+00 0.000000e+00 8.866882e-01 1.133119e-01
 0.000000e+00 0.000000e+00 0.000000e+00 0.000000e+00 0.000000e+00
<ENDHMM>
~h "y"
<BEGINHMM>
<NUMSTATES> 5
<STATE> 2
<MEAN> 39
 -2.214085e+00 -5.633166e+00 2.553610e-01 -4.468297e+00 -9.558770e+00 -6.304539e+00 -4.934505e+00 -4.623543e+00 -4.957244e+00 -4.641292e+00 -2.819452e+00 -2.986306e+00 6.858638e+01 4.347267e-01 -1.530522e-01 4.630763e-01 -3.024527e-01 -2.767251e-01 6.404144e-02 2.969867e-01 1.710148e-01 -2.368391e-01 -3.125366e-01 -2.927749e-01 -2.031065e-01 6.049975e-01 1.352483e-01 -1.377259e-01 3.389595e-03 -1.141208e-01 -5.878687e-03 2.109016e-02 3.445318e-02 7.943593e-02 -7.189272e-02 -1.420693e-01 -1.080613e-01 -1.227569e-01 2.023886e-01
<VARIANCE> 39
 6.744268e+01 7.128063e+01 8.123620e+01 1.327185e+02 1.078188e+02 1.149333e+02 9.890654e+01 6.253547e+01 7.475075e+01 3.958527e+01 7.244687e+01 3.024366e+01 2.045364e+02 2.824109e+00 3.345597e+00 4.354838e+00 2.935447e+00 4.048782e+00 4.325553e+00 3.817361e+00 4.216876e+00 3.777411e+00 2.806870e+00 3.650435e+00 2.306045e+00 2.272923e+00 4.441653e-01 4.887361e-01 7.130184e-01 5.389946e-01 7.666090e-01 7.187639e-01 5.862586e-01 6.182215e-01 6.726681e-01 4.752292e-01 6.681429e-01 3.840441e-01 4.451012e-01
<GCONST> 1.369442e+02
<STATE> 3
<MEAN> 39
 -2.945359e-01 -4.768908e+00 3.759749e+00 -7.420190e+00 -1.162172e+01 -6.805661e+00 -3.975059e+00 -5.477251e+00 -4.312350e+00 -6.338495e+00 -3.380305e+00 -3.605065e+00 6.965208e+01 8.249694e-01 -1.130670e+00 -1.417733e-01 -7.777077e-01 -1.459155e-01 -1.820001e-01 5.922281e-01 4.873071e-01 -6.077611e-03 -4.344497e-01 -4.157191e-01 -3.315911e-01 1.491194e+00 -7.584005e-02 -1.701308e-01 -4.091370e-01 1.624915e-01 3.881520e-01 9.246475e-02 -3.626830e-02 7.687894e-02 3.886473e-02 -3.138670e-02 -6.770912e-02 -4.749766e-02 -1.129744e-01
<VARIANCE> 39
 4.541315e+01 9.081191e+01 1.071521e+02 1.385248e+02 1.129960e+02 1.143047e+02 1.151490e+02 7.218240e+01 8.066582e+01 4.511936e+01 8.747074e+01 3.418054e+01 1.491206e+02 3.472926e+00 5.044980e+00 8.158472e+00 4.695129e+00 7.259516e+00 6.738311e+00 5.269267e+00 5.255772e+00 5.340598e+00 3.444020e+00 5.684937e+00 2.931738e+00 4.569218e+00 3.878380e-01 7.920308e-01 9.038067e-01 7.624326e-01 1.083424e+00 8.964370e-01 8.373303e-01 8.636663e-01 8.413025e-01 5.615399e-01 9.067577e-01 5.373812e-01 4.397959e-01
<GCONST> 1.460749e+02
<STATE> 4
<MEAN> 39
 1.380278e+00 -9.075293e+00 -5.499701e-01 -1.019199e+01 -8.408591e+00 -8.000401e+00 -4.927386e-01 -3.976553e+00 -4.157603e+00 -6.816778e+00 -6.871463e+00 -4.729438e+00 7.213291e+01 2.990383e-01 -5.708718e-01 -1.016363e+00 3.494416e-01 1.046015e+00 2.653471e-01 -9.311323e-02 4.426969e-01 -2.391848e-01 -5.116304e-01 -3.942474e-01 -2.792685e-01 1.683591e-01 -5.056210e-02 3.391180e-01 -2.728541e-02 2.357004e-01 7.699371e-02 2.416087e-02 -3.241857e-01 -1.272084e-01 3.450630e-02 5.766051e-02 9.506807e-02 5.024892e-02 -3.157104e-01
<VARIANCE> 39
 3.940918e+01 8.240732e+01 7.866261e+01 1.481086e+02 1.428714e+02 9.229904e+01 1.463530e+02 6.477876e+01 9.062675e+01 5.747599e+01 8.801711e+01 3.384518e+01 9.637999e+01 1.439932e+00 3.123442e+00 3.355382e+00 3.802989e+00 4.692326e+00 4.230015e+00 3.478072e+00 3.753923e+00 3.774007e+00 3.619596e+00 4.348958e+00 2.165933e+00 2.307113e+00 2.049922e-01 3.652762e-01 5.270207e-01 5.735150e-01 7.468669e-01 6.609257e-01 6.737112e-01 6.215648e-01 6.584651e-01 5.267760e-01 6.354811e-01 3.812745e-01 2.237687e-01
<GCONST> 1.348579e+02
<TRANSP> 5
 0.000000e+00 1.000000e+00 0.000000e+00 0.000000e+00 0.000000e+00
 0.000000e+00 3.040532e-01 6.959468e-01 0.000000e+00 0.000000e+00
 0.000000e+00 0.000000e+00 4.864805e-01 5.135195e-01 0.000000e+00
 0.000000e+00 0.000000e+00 0.000000e+00 4.091957e-01 5.908043e-01
 0.000000e+00 0.000000e+00 0.000000e+00 0.000000e+00 0.000000e+00
<ENDHMM>
~h "z"
<BEGINHMM>
<NUMSTATES> 5
<STATE> 2
<MEAN> 39
 -4.973484e+00 -6.274081e+00 3.893190e+00 4.932123e+00 -9.865274e+00 -1.423898e+00 -4.626621e+00 -4.529081e+00 -4.800642e-01 -9.084599e+00 -8.219029e+00 -4.789329e+00 8.413270e+01 3.902001e-02 3.367358e-02 -8.377469e-02 4.440761e-02 -1.583779e-02 1.831518e-01 4.286301e-02 -4.593403e-02 1.299002e-02 1.005677e-01 2.586288e-01 1.804599e-01 -1.712302e-01 2.438333e-02 -8.050682e-04 -5.546070e-03 -1.860398e-02 4.589392e-03 1.149564e-02 -4.199108e-03 -1.299764e-02 9.973508e-04 1.370284e-02 1.846477e-02 1.167861e-03 2.205606e-02
<VARIANCE> 39
 1.541291e+01 1.526633e+01 2.698625e+01 2.441960e+01 1.516821e+01 8.195898e+01 2.786944e+01 1.416814e+01 3.412183e+01 3.052075e+01 3.117388e+01 2.027727e+01 7.342049e+01 6.153875e-01 7.544970e-01 9.840231e-01 2.194535e+00 1.239317e+00 3.411887e+00 1.825144e+00 1.374856e+00 2.076365e+00 1.548075e+00 1.906842e+00 1.197123e+00 1.566886e+00 8.989584e-02 1.277883e-01 1.537874e-01 3.637182e-01 2.733553e-01 6.420370e-01 3.081670e-01 2.693047e-01 4.077531e-01 2.928082e-01 3.126151e-01 1.981492e-01 2.128333e-01
<GCONST> 1.011997e+02
<STATE> 3
<MEAN> 39
 -3.735423e-01 -6.956006e+00 -1.460663e+00 -2.503324e+00 -9.861822e+00 5.721118e-01 -3.288627e+00 -7.398634e+00 -1.537032e+00 -2.696129e+00 -2.310077e+00 -3.373204e+00 9.129367e+01 -9.881867e-03 6.275934e-03 2.582095e-02 1.735082e-02 -5.862443e-05 -1.633526e-03 -5.140000e-03 4.512272e-03 2.093148e-02 1.705654e-02 -3.073074e-02 -2.095763e-02 -6.109579e-03 -3.614974e-03 -9.317815e-04 2.525494e-03 -1.426524e-03 9.096956e-04 -6.532576e-04 4.770331e-03 1.083789e-02 3.115672e-03 -7.096990e-03 -5.701906e-03 -6.770142e-04 -2.343249e-03
<VARIANCE> 39
 1.407649e+01 2.079750e+01 4.291604e+01 3.380898e+01 3.247329e+01 4.717307e+01 1.883319e+01 2.798905e+01 2.868964e+01 2.533249e+01 2.332335e+01 1.462396e+01 5.296030e+01 8.568308e-01 1.392287e+00 2.033876e+00 1.429256e+00 2.692622e+00 3.230438e+00 1.677281e+00 2.177090e+00 2.768511e+00 1.954100e+00 1.868472e+00 1.452066e+00 1.956917e+00 1.462004e-01 2.349363e-01 2.724778e-01 2.172395e-01 5.392963e-01 5.042796e-01 3.273245e-01 4.273226e-01 5.366815e-01 3.596004e-01 3.530427e-01 3.181331e-01 2.672964e-01
<GCONST> 1.080697e+02
<STATE> 4
<MEAN> 39
 -4.202133e+00 -3.939732e+00 2.389594e+00 3.883236e+00 -9.054106e+00 2.208175e+00 -1.713517e+00 -2.457159e+00 8.232131e-01 -7.575652e+00 -5.523945e+00 -3.327473e+00 8.048595e+01 -1.332316e-01 2.712723e-02 -1.258467e-01 -3.128308e-02 1.080205e-01 1.561256e-01 6.786349e-02 1.119060e-01 1.238338e-01 -6.425200e-02 -3.695609e-02 -6.915135e-03 -1.712364e-01 3.509888e-02 -8.247161e-03 -1.731029e-02 -1.323559e-02 -9.461721e-03 -2.149497e-02 -2.814060e-02 -4.249986e-02 -2.415957e-02 -1.348931e-02 -7.551188e-03 1.541109e-02 1.959369e-02
<VARIANCE> 39
 2.032018e+01 7.176756e+00 3.392906e+01 8.192841e+00 3.873665e+01 5.449869e+01 1.336831e+01 2.634467e+01 1.921658e+01 2.746183e+01 1.174913e+01 1.170692e+01 9.035504e+01 2.521924e-01 6.259151e-01 7.456371e-01 9.453651e-01 2.558689e+00 9.967071e-01 7.582859e-01 1.308380e+00 1.704351e+00 1.832735e+00 1.593176e+00 1.824538e+00 2.590437e-01 5.309562e-02 1.134992e-01 1.328660e-01 1.943401e-01 4.448970e-01 1.447146e-01 1.507306e-01 2.680243e-01 3.009612e-01 2.944516e-01 3.353012e-01 4.362096e-01 5.342747e-02
<GCONST> 8.909513e+01
<TRANSP> 5
 0.000000e+00 1.000000e+00 0.000000e+00 0.000000e+00 0.000000e+00
 0.000000e+00 9.582486e-01 4.175143e-02 0.000000e+00 0.000000e+00
 0.000000e+00 0.000000e+00 9.921062e-01 7.893746e-03 0.000000e+00
 0.000000e+00 0.000000e+00 0.000000e+00 9.611185e-01 3.888150e-02
 0.000000e+00 0.000000e+00 0.000000e+00 0.000000e+00 0.000000e+00
<ENDHMM>
~h "aw"
<BEGINHMM>
<NUMSTATES> 5
<STATE> 2
<MEAN> 39
 1.648558e-01 -8.679848e+00 -8.215839e+00 -5.087404e+00 -7.073896e+00 -2.516418e+00 -1.395854e+00 -7.163131e-01 -4.061640e+00 -4.070057e+00 -3.552956e+00 -1.600484e+00 7.952608e+01 -2.356491e-01 5.779720e-02 -4.098870e-02 -2.038894e-01 2.227466e-01 7.039322e-01 8.646841e-02 2.128692e-01 2.801738e-01 3.004304e-01 2.953753e-01 1.473348e-02 -2.076950e-01 -5.621554e-02 1.360359e-01 7.885800e-02 5.619135e-02 -5.426233e-02 -4.648987e-02 -4.332334e-03 -9.304591e-02 -4.401064e-02 1.458962e-03 4.087955e-03 -1.333039e-02 -1.965154e-01
<VARIANCE> 39
 4.214750e+01 7.919884e+01 2.346250e+01 9.047363e+01 4.258101e+01 5.032577e+01 5.247444e+01 5.438129e+01 4.545441e+01 4.072894e+01 4.238324e+01 2.403782e+01 2.592580e+02 1.911592e+00 2.677149e+00 1.439816e+00 1.635383e+00 2.191893e+00 3.769919e+00 2.145925e+00 1.820161e+00 2.305702e+00 1.641752e+00 2.462125e+00 2.146598e+00 2.631199e+00 3.174019e-01 4.604605e-01 2.560572e-01 3.276356e-01 4.081405e-01 6.382900e-01 4.107679e-01 3.155880e-01 4.181708e-01 3.594218e-01 4.101239e-01 3.141157e-01 4.464102e-01
<GCONST> 1.204714e+02
<STATE> 3
<MEAN> 39
 -1.819026e-01 -7.403347e+00 -9.659978e+00 -7.967561e+00 -5.593104e+00 -1.566015e+00 -3.140694e+00 -1.740609e+00 -4.996304e+00 -4.600153e+00 -3.185178e+00 -3.138777e+00 6.839684e+01 -9.165151e-02 6.051760e-01 4.090222e-02 -3.106971e-02 -1.716961e-01 5.249538e-02 -7.465284e-02 -9.294710e-02 -2.595980e-01 4.171561e-02 1.928808e-01 -6.731061e-02 -5.917822e-01 -3.286495e-02 7.278292e-02 8.173624e-02 1.103016e-01 -1.878350e-02 -8.974794e-02 -2.511414e-02 -4.877825e-02 -1.435361e-02 -2.598416e-02 -4.525315e-02 1.805370e-02 -8.749781e-02
<VARIANCE> 39
 6.400349e+01 7.154253e+01 2.971569e+01 1.765309e+02 4.517051e+01 5.718363e+01 5.049963e+01 6.446748e+01 7.444904e+01 3.668733e+01 3.812249e+01 3.769093e+01 1.973491e+02 1.813872e+00 2.753171e+00 1.399162e+00 2.767784e+00 2.542035e+00 3.772729e+00 1.650497e+00 2.305723e+00 3.306357e+00 2.003677e+00 2.575199e+00 1.958024e+00 1.484389e+00 2.803665e-01 4.966803e-01 2.384569e-01 4.120016e-01 5.041103e-01 7.252175e-01 2.909706e-01 3.789619e-01 6.094592e-01 4.165514e-01 4.648066e-01 3.484583e-01 2.651246e-01
<GCONST> 1.235255e+02
<STATE> 4
<MEAN> 39
 -1.160074e+00 -3.214903e+00 -7.637018e+00 9.392722e+00 -1.160129e+00 -8.216871e-01 2.093466e+00 7.727700e+00 -5.836197e+00 2.299270e+00 1.826725e+00 3.331758e+00 6.610480e+01 -4.540723e-02 -9.769415e-03 2.019111e-02 4.819080e-02 2.201777e-02 6.650347e-02 2.966030e-02 1.835377e-02 1.044416e-02 1.503861e-02 8.448226e-03 -4.628319e-04 -5.846683e-02 1.592351e-02 -1.166828e-02 -7.276228e-04 -6.231037e-03 -1.581348e-02 -2.356829e-02 -7.475235e-03 -1.438804e-02 -1.972467e-02 -1.607596e-02 -1.363412e-02 -1.130499e-02 2.248962e-02
<VARIANCE> 39
 5.621612e+01 2.541321e+01 2.912295e+01 5.430975e+01 4.414564e+01 5.823351e+01 3.469652e+01 5.249376e+01 6.092652e+01 2.991140e+01 4.190966e+01 2.844242e+01 4.595682e+01 1.047281e+00 1.108380e+00 1.270505e+00 1.651047e+00 1.480812e+00 2.025721e+00 1.599529e+00 1.701287e+00 2.328655e+00 1.509671e+00 1.744566e+00 1.272906e+00 7.086874e-01 1.473165e-01 2.012296e-01 1.966830e-01 2.492223e-01 2.300592e-01 3.537286e-01 2.881598e-01 3.035571e-01 4.019085e-01 2.788842e-01 3.080622e-01 2.308942e-01 1.070465e-01
<GCONST> 1.062411e+02
<TRANSP> 5
 0.000000e+00 1.000000e+00 0.000000e+00 0.000000e+00 0.000000e+00
 0.000000e+00 6.202094e-01 3.797906e-01 0.000000e+00 0.000000e+00
 0.000000e+00 0.000000e+00 6.687050e-01 3.312951e-01 0.000000e+00
 0.000000e+00 0.000000e+00 0.000000e+00 9.627409e-01 3.725908e-02
 0.000000e+00 0.000000e+00 0.000000e+00 0.000000e+00 0.000000e+00
<ENDHMM>
~h "ay"
<BEGINHMM>
<NUMSTATES> 5
<STATE> 2
<MEAN> 39
 9.289033e-01 -1.606685e+01 -3.507028e+00 -7.739444e+00 -1.069329e+01 -7.395834e+00 -8.329421e+00 -1.328057e+00 -3.482940e+00 -8.645812e+00 -7.153471e+00 -5.220536e+00 7.569730e+01 1.956208e-02 -6.697032e-01 1.015991e+00 2.240470e-01 -7.258234e-01 3.262439e-01 -1.469234e-01 4.539995e-02 -7.068192e-01 -2.384399e-01 9.976432e-02 1.251565e-01 1.339677e-02 -3.188583e-01 4.976717e-01 1.086251e-01 -1.038959e-02 1.116877e-01 -8.581962e-03 4.604343e-02 -1.004325e-01 -8.900066e-02 1.851174e-01 7.984921e-02 1.264426e-01 -2.736461e-01
<VARIANCE> 39
