~o
<STREAMINFO> 1 39
<VECSIZE> 39<NULLD><MFCC_D_A_0><DIAGC>
~s "silst"
<MEAN> 39
 -5.541417e-02 -3.336666e+00 -5.116280e+00 7.375849e+00 -2.270112e+00 -5.371256e+00 -1.861676e+00 2.087864e+00 -1.015193e+01 -1.652965e+00 -2.107405e+00 -5.440516e-02 6.767947e+01 7.232297e-02 1.795107e-02 1.459254e-02 -3.272273e-02 2.006622e-02 -4.556404e-02 -4.311669e-02 -6.166198e-02 -5.992163e-02 -6.581465e-02 -3.810045e-02 -1.255878e-02 1.083802e-01 6.138640e-03 8.671575e-04 -6.831236e-03 -2.747529e-02 -1.464100e-02 -2.459786e-03 -2.008786e-03 1.412571e-02 3.236893e-02 1.494550e-02 -6.517662e-03 -1.026420e-02 4.996248e-03
<VARIANCE> 39
 7.091467e+01 5.732921e+01 6.074096e+01 7.908453e+01 5.803109e+01 6.608877e+01 5.733710e+01 6.176162e+01 7.790680e+01 4.139343e+01 4.697634e+01 3.585586e+01 6.822726e+01 4.390073e+00 4.855574e+00 4.133235e+00 3.568885e+00 3.345505e+00 5.213538e+00 3.692606e+00 3.894362e+00 5.405082e+00 3.017241e+00 3.541118e+00 2.753385e+00 2.938745e+00 6.322477e-01 8.627726e-01 6.386138e-01 5.803956e-01 5.368531e-01 8.610562e-01 6.389835e-01 6.673442e-01 9.262044e-01 5.519259e-01 6.173681e-01 4.703751e-01 4.403551e-01
<GCONST> 1.360917e+02
~h "@"
<BEGINHMM>
<NUMSTATES> 5
<STATE> 2
<MEAN> 39
 -1.269744e+00 -4.896532e+00 -4.058645e+00 -6.886549e+00 -6.230779e+00 -6.100470e+00 -9.599700e+00 -4.712681e+00 -4.223506e+00 -4.639174e+00 -3.235088e+00 -4.039998e+00 6.934596e+01 1.422976e+00 -7.680545e-01 -3.083973e-01 -4.533213e-01 -5.878090e-01 -2.453827e-01 -6.409450e-01 -4.455942e-02 1.275993e-01 -3.339278e-02 -9.771775e-02 -2.622772e-01 1.342788e+00 -1.358149e-01 1.912585e-01 1.471523e-01 3.241797e-01 1.608016e-02 1.452090e-01 1.190276e-01 -5.665663e-02 -2.434202e-03 -3.466775e-02 -8.504386e-02 -6.296781e-02 -3.645006e-01
<VARIANCE> 39
 9.239587e+01 8.109564e+01 6.765566e+01 1.163999e+02 1.388844e+02 1.182031e+02 1.180540e+02 8.651136e+01 7.910899e+01 7.681893e+01 6.312590e+01 4.278243e+01 1.526618e+02 7.393797e+00 5.238433e+00 5.166004e+00 5.215161e+00 6.772385e+00 6.660941e+00 5.812154e+00 7.479076e+00 6.267640e+00 5.502442e+00 5.024994e+00 3.665856e+00 4.789091e+00 9.592336e-01 9.080904e-01 8.245121e-01 1.038923e+00 1.154416e+00 1.033704e+00 9.558493e-01 1.070909e+00 9.432545e-01 8.537802e-01 8.868604e-01 6.630480e-01 9.481934e-01
<GCONST> 1.518082e+02
<STATE> 3
<MEAN> 39
 2.107326e+00 -8.055415e+00 -5.054133e+00 -6.976849e+00 -8.579342e+00 -6.161835e+00 -1.055581e+01 -3.934265e+00 -3.837341e+00 -5.302220e+00 -3.909307e+00 -4.454730e+00 7.371405e+01 8.149518e-01 -1.575342e-01 1.921015e-01 3.640676e-01 -3.771160e-01 1.120745e-01 -2.820094e-01 -1.416472e-01 5.548377e-02 -7.551277e-02 -3.041376e-01 -2.695509e-01 9.012151e-02 -5.476025e-01 5.843987e-01 2.923443e-01 4.791032e-01 3.104156e-01 1.548421e-01 3.301633e-01 -1.060559e-01 -7.999176e-02 -1.464708e-02 -7.396026e-02 3.952059e-02 -7.113789e-01
<VARIANCE> 39
 5.571215e+01 8.478165e+01 6.365199e+01 1.113935e+02 1.201491e+02 1.112745e+02 1.339307e+02 9.348414e+01 7.860841e+01 8.511922e+01 5.547316e+01 4.001825e+01 1.086667e+02 3.339652e+00 3.967160e+00 3.234628e+00 3.816216e+00 4.411613e+00 4.789636e+00 3.862818e+00 5.727054e+00 4.702515e+00 3.580200e+00 3.366423e+00 2.581009e+00 2.488896e+00 8.078702e-01 8.028915e-01 6.844754e-01 8.181958e-01 1.012172e+00 1.055441e+00 9.381726e-01 1.148374e+00 8.804785e-01 8.528389e-01 8.655359e-01 5.673593e-01 5.903789e-01
<GCONST> 1.438870e+02
<STATE> 4
<MEAN> 39
 2.559492e+00 -6.818686e+00 -4.429116e+00 -5.598748e+00 -8.205009e+00 -6.509452e+00 -9.871736e+00 -4.415758e+00 -4.230322e+00 -4.948910e+00 -4.193107e+00 -4.748252e+00 7.261470e+01 -6.080069e-02 8.700567e-01 5.964205e-01 9.539114e-01 1.220909e-01 2.821130e-01 2.718528e-01 -3.315413e-01 -8.902623e-02 -1.161640e-01 -2.978833e-01 -1.080960e-01 -8.937516e-01 -4.911678e-01 3.144915e-01 1.293873e-01 1.518006e-01 2.297620e-01 1.027364e-01 2.374662e-01 1.669940e-02 -1.752146e-02 -2.226757e-02 2.104313e-02 5.898544e-02 -3.612419e-01
<VARIANCE> 39
 5.333036e+01 8.314930e+01 6.418536e+01 1.037366e+02 1.216310e+02 1.031327e+02 1.241547e+02 9.524420e+01 8.151628e+01 8.100337e+01 5.264731e+01 3.935660e+01 1.118335e+02 2.616960e+00 3.883615e+00 2.889225e+00 3.443435e+00 4.518229e+00 4.350339e+00 3.781629e+00 4.409939e+00 3.773332e+00 3.034343e+00 3.385279e+00 2.380480e+00 2.620925e+00 6.122243e-01 6.323966e-01 5.522544e-01 6.373783e-01 7.547954e-01 7.872582e-01 7.244578e-01 1.017332e+00 8.258528e-01 7.334114e-01 6.707385e-01 4.743222e-01 3.887826e-01
<GCONST> 1.393284e+02
<TRANSP> 5
 0.000000e+00 1.000000e+00 0.000000e+00 0.000000e+00 0.000000e+00
 0.000000e+00 3.241941e-01 6.758059e-01 0.000000e+00 0.000000e+00
 0.000000e+00 0.000000e+00 1.250750e-01 8.749250e-01 0.000000e+00
 0.000000e+00 0.000000e+00 0.000000e+00 1.702532e-01 8.297468e-01
 0.000000e+00 0.000000e+00 0.000000e+00 0.000000e+00 0.000000e+00
<ENDHMM>
~h "a"
<BEGINHMM>
<NUMSTATES> 5
<STATE> 2
<MEAN> 39
 1.920573e+00 -1.162272e+01 -6.096751e+00 -7.811459e+00 -6.403058e+00 -5.018626e+00 -8.034922e+00 -2.370263e+00 -2.262411e+00 -5.967979e+00 -6.785512e+00 -5.713731e+00 7.351590e+01 4.589929e-01 -1.196909e+00 -3.080252e-01 -2.494705e-01 4.806293e-01 1.126244e-01 1.145548e-01 6.056272e-01 -9.388405e-02 -4.164405e-01 -5.992619e-01 -1.662884e-01 9.583972e-01 -2.469006e-01 4.542471e-01 2.243555e-01 2.772441e-01 7.533111e-02 1.894478e-02 4.007781e-02 -1.950881e-01 -1.461423e-01 4.228335e-02 8.701643e-02 1.384095e-01 -4.731294e-01
<VARIANCE> 39
 4.729275e+01 9.603886e+01 5.678305e+01 9.331878e+01 1.169486e+02 8.370808e+01 1.316668e+02 8.388158e+01 7.486572e+01 7.422795e+01 6.257791e+01 4.739194e+01 1.236725e+02 2.637801e+00 4.309282e+00 3.273337e+00 3.324433e+00 5.146489e+00 4.358174e+00 4.562308e+00 4.949820e+00 4.372821e+00 3.635107e+00 3.961755e+00 3.067117e+00 3.279472e+00 4.933417e-01 8.215408e-01 5.274587e-01 5.881256e-01 8.604548e-01 7.029254e-01 7.499341e-01 9.148243e-01 7.421103e-01 7.011754e-01 7.002949e-01 5.608361e-01 5.901774e-01
<GCONST> 1.410358e+02
<STATE> 3
<MEAN> 39
 2.175443e+00 -1.580257e+01 -5.990125e+00 -9.218340e+00 -6.060287e+00 -5.200439e+00 -6.871155e+00 -1.018197e+00 -4.231972e+00 -7.967910e+00 -8.008774e+00 -5.107657e+00 7.416469e+01 4.428926e-02 8.908597e-01 2.710532e-01 5.036021e-01 -1.258258e-01 -1.227867e-01 -5.989910e-02 -3.174323e-01 -1.543915e-01 4.607271e-02 -5.244665e-02 -3.040221e-03 -7.758401e-01 -1.211748e-01 6.540352e-01 1.708022e-01 2.667761e-01 -1.339432e-01 -5.802184e-02 -3.331017e-02 -3.067189e-01 1.007906e-01 1.183814e-01 1.131146e-01 7.337263e-04 -4.853510e-01
<VARIANCE> 39
 3.069850e+01 9.467223e+01 4.744135e+01 7.922363e+01 1.112165e+02 8.379151e+01 1.620057e+02 8.144151e+01 8.104837e+01 8.232172e+01 5.445467e+01 4.619215e+01 7.087465e+01 8.520354e-01 3.003143e+00 1.815347e+00 2.318353e+00 3.802805e+00 3.136286e+00 3.341701e+00 3.587887e+00 2.963397e+00 2.429208e+00 2.562095e+00 2.171326e+00 1.516021e+00 2.438592e-01 4.161795e-01 3.408107e-01 4.179721e-01 6.670054e-01 6.115788e-01 6.841919e-01 7.834254e-01 6.073898e-01 5.307187e-01 5.041824e-01 4.573236e-01 2.042260e-01
<GCONST> 1.289087e+02
<STATE> 4
<MEAN> 39
 4.287076e-01 -7.822654e+00 -6.252739e+00 -5.480064e+00 -5.874108e+00 -5.095504e+00 -4.522503e+00 -2.528857e+00 -3.120233e+00 -5.547252e+00 -5.951818e+00 -4.659574e+00 7.202644e+01 -2.460711e-01 8.993760e-01 3.401002e-01 5.492982e-01 -1.307393e-01 2.352174e-01 -1.240051e-04 -3.177185e-01 7.846523e-03 5.186379e-02 3.801851e-02 5.282777e-02 -1.080610e+00 -7.943734e-02 -1.864032e-02 3.855176e-02 -2.616157e-02 1.452065e-02 3.001065e-02 5.370102e-03 -2.997233e-02 -1.865234e-03 2.864948e-03 3.472305e-02 3.203941e-02 -1.262371e-03
<VARIANCE> 39
 4.647886e+01 6.970164e+01 4.217552e+01 5.569339e+01 8.339619e+01 6.502400e+01 8.762891e+01 6.224770e+01 6.587042e+01 6.199097e+01 5.100596e+01 3.664916e+01 2.524101e+02 1.205030e+00 2.096694e+00 1.585371e+00 1.942590e+00 2.633127e+00 2.376902e+00 2.330909e+00 2.971354e+00 2.337319e+00 2.087397e+00 2.119966e+00 1.795611e+00 1.542332e+00 1.875977e-01 2.571895e-01 2.272837e-01 2.794391e-01 4.039452e-01 3.823434e-01 3.801924e-01 4.028946e-01 4.110799e-01 3.638363e-01 3.788849e-01 3.152737e-01 1.677836e-01
<GCONST> 1.199378e+02
<TRANSP> 5
 0.000000e+00 1.000000e+00 0.000000e+00 0.000000e+00 0.000000e+00
 0.000000e+00 4.368868e-01 5.631132e-01 0.000000e+00 0.000000e+00
 0.000000e+00 0.000000e+00 5.242231e-01 4.757769e-01 0.000000e+00
 0.000000e+00 0.000000e+00 0.000000e+00 6.411171e-01 3.588829e-01
 0.000000e+00 0.000000e+00 0.000000e+00 0.000000e+00 0.000000e+00
<ENDHMM>
~h "b"
<BEGINHMM>
<NUMSTATES> 5
<STATE> 2
<MEAN> 39
 3.096369e+00 7.575234e-01 -1.735317e+00 -3.841773e+00 -8.206511e+00 -4.410517e+00 -8.780057e+00 -7.367331e+00 -5.766638e+00 -8.546846e+00 -7.654853e+00 -7.119390e+00 6.347453e+01 8.578904e-02 8.597167e-01 3.245326e-01 6.904250e-01 4.457179e-01 6.265806e-02 3.312261e-01 -7.943874e-03 -1.988155e-01 -1.935597e-01 -4.907120e-01 -2.904232e-01 -5.406783e-01 -1.104923e-01 -5.485129e-01 -2.196256e-01 -4.862589e-01 -1.324982e-01 -1.553014e-01 -1.381017e-01 1.492610e-01 1.817078e-01 2.414038e-01 3.365990e-01 2.281757e-01 5.755810e-01
<VARIANCE> 39
 3.815340e+01 5.542453e+01 3.633868e+01 5.826136e+01 8.077790e+01 5.411328e+01 6.460892e+01 6.730047e+01 4.001939e+01 4.511551e+01 5.641953e+01 3.236368e+01 1.008314e+02 1.474381e+00 2.052631e+00 1.683411e+00 2.175912e+00 2.072961e+00 2.291563e+00 2.197423e+00 2.160004e+00 2.252122e+00 2.210138e+00 2.621217e+00 1.986661e+00 1.526024e+00 2.774980e-01 4.057733e-01 4.199445e-01 4.791078e-01 5.161154e-01 4.992858e-01 4.804225e-01 5.663671e-01 5.166599e-01 4.800842e-01 5.492070e-01 3.678233e-01 2.912888e-01
<GCONST> 1.219008e+02
<STATE> 3
<MEAN> 39
 3.034862e+00 2.268752e+00 -6.709167e-01 -2.028384e+00 -6.313607e+00 -3.016819e+00 -8.732507e+00 -8.524323e+00 -6.587113e+00 -6.876575e+00 -6.091201e+00 -6.273148e+00 6.410064e+01 2.064100e-01 -8.673035e-01 -8.491302e-01 -1.036747e+00 -4.664067e-03 -5.877567e-01 -3.960955e-01 1.634296e-01 4.074398e-01 6.093431e-01 7.842557e-01 3.945237e-01 1.655341e+00 -1.212542e-01 -9.095961e-01 -3.051482e-01 -7.161656e-01 -4.112467e-01 -2.113567e-01 -1.835948e-01 2.203107e-01 3.988419e-01 1.963302e-01 3.475944e-01 2.138032e-01 7.887748e-01
<VARIANCE> 39
 4.000592e+01 7.534339e+01 4.464824e+01 7.088244e+01 9.040697e+01 5.732866e+01 7.131912e+01 7.859632e+01 5.592629e+01 5.105523e+01 6.066720e+01 4.251899e+01 1.288199e+02 4.762631e+00 4.037825e+00 5.180661e+00 4.161384e+00 4.442860e+00 4.940439e+00 3.611164e+00 4.957942e+00 4.702716e+00 3.997388e+00 4.315276e+00 2.540681e+00 3.190074e+00 5.538316e-01 6.942570e-01 7.884436e-01 7.755073e-01 7.666503e-01 8.353575e-01 6.903527e-01 9.904322e-01 9.524854e-01 7.307792e-01 8.709285e-01 7.007673e-01 4.256337e-01
<GCONST> 1.401091e+02
<STATE> 4
<MEAN> 39
 3.056842e+00 -2.465901e+00 -3.531008e+00 -4.885889e+00 -7.623315e+00 -5.202054e+00 -9.436144e+00 -7.329477e+00 -4.992568e+00 -5.920295e+00 -4.505187e+00 -5.468648e+00 7.018015e+01 -2.579889e-01 -2.262943e+00 -6.454680e-01 -2.002232e+00 -8.741414e-01 -5.932807e-01 -4.101870e-01 7.686726e-01 1.116139e+00 6.760440e-01 9.851965e-01 6.893223e-01 2.340077e+00 -1.134943e-01 -2.312661e-01 2.336601e-01 -1.372627e-01 -1.964124e-01 1.266090e-01 8.800581e-02 1.484445e-01 1.074712e-01 -9.150124e-02 -7.136899e-02 4.653186e-03 3.032593e-02
<VARIANCE> 39
 3.880052e+01 6.288792e+01 4.116263e+01 9.047379e+01 8.043336e+01 5.768046e+01 7.229414e+01 7.021169e+01 5.448564e+01 5.894459e+01 6.835918e+01 3.584993e+01 1.246499e+02 3.183084e+00 5.200450e+00 6.697262e+00 5.344403e+00 5.527655e+00 6.070354e+00 4.590394e+00 6.845511e+00 6.560736e+00 4.712549e+00 5.211410e+00 4.494071e+00 3.837239e+00 4.968644e-01 4.933404e-01 5.066223e-01 8.617917e-01 7.631063e-01 8.495644e-01 7.642970e-01 7.979542e-01 7.531123e-01 7.518203e-01 6.932987e-01 5.655789e-01 4.049214e-01
<GCONST> 1.410815e+02
<TRANSP> 5
 0.000000e+00 1.000000e+00 0.000000e+00 0.000000e+00 0.000000e+00
 0.000000e+00 5.556314e-01 4.443686e-01 0.000000e+00 0.000000e+00
 0.000000e+00 0.000000e+00 2.912023e-01 7.087978e-01 0.000000e+00
 0.000000e+00 0.000000e+00 0.000000e+00 1.787242e-01 8.212759e-01
 0.000000e+00 0.000000e+00 0.000000e+00 0.000000e+00 0.000000e+00
<ENDHMM>
~h "c"
<BEGINHMM>
<NUMSTATES> 5
<STATE> 2
<MEAN> 39
 -1.242503e+01 -2.236309e+00 -5.903561e-01 -9.298649e+00 -4.152318e+00 -6.630968e+00 -5.746916e+00 -4.114674e+00 -1.852662e+00 -4.358220e+00 -3.435744e+00 -3.210975e+00 6.529486e+01 -6.885495e-01 -3.594348e-01 2.512305e-02 -1.132344e+00 -4.044906e-02 -4.634704e-01 9.399605e-02 2.265521e-01 2.235118e-01 1.556341e-01 4.680526e-01 1.034232e-01 1.237164e+00 7.039827e-01 -3.567967e-01 -1.161777e-01 2.793679e-02 -3.326009e-01 -1.330190e-01 -3.325549e-02 2.988292e-02 -5.401558e-02 -5.208706e-02 -1.131726e-01 -1.092944e-01 3.485591e-01
<VARIANCE> 39
 1.034040e+02 5.347180e+01 6.969388e+01 9.534089e+01 9.869457e+01 8.634895e+01 9.475667e+01 6.402200e+01 3.980745e+01 3.419850e+01 4.125097e+01 3.233639e+01 1.338167e+02 1.231117e+01 3.632513e+00 5.013362e+00 6.134796e+00 7.681185e+00 4.772325e+00 4.072772e+00 5.708933e+00 3.796726e+00 3.025745e+00 3.473778e+00 2.742224e+00 4.742100e+00 2.195329e+00 6.932618e-01 9.904106e-01 1.338779e+00 1.258666e+00 7.795848e-01 7.507423e-01 1.189817e+00 7.386956e-01 6.342068e-01 6.897840e-01 5.950754e-01 7.505487e-01
<GCONST> 1.450270e+02
<STATE> 3
<MEAN> 39
 -2.533863e+00 -8.510344e+00 -2.340619e+00 -9.890920e+00 -9.965057e+00 -6.843543e+00 -5.855098e+00 -3.898228e+00 -1.666148e+00 -5.581042e+00 -4.152869e+00 -4.501801e+00 7.608060e+01 2.833954e+00 -1.788005e+00 -1.207350e+00 1.345940e-01 -2.327961e-01 -5.446677e-02 -1.947168e-01 -4.347737e-02 -4.010276e-01 -3.390227e-01 -8.022614e-01 -7.219574e-01 1.487564e+00 -5.485481e-01 1.476622e-01 -2.751471e-02 1.320923e-01 5.243824e-01 3.590952e-01 -2.264947e-03 -7.483193e-02 -3.203040e-02 1.515209e-02 -7.561689e-02 6.107431e-02 -3.008248e-01
<VARIANCE> 39
 5.749931e+01 5.853181e+01 4.779907e+01 6.709459e+01 7.941604e+01 1.134877e+02 9.204947e+01 7.390147e+01 5.995619e+01 4.652588e+01 4.828135e+01 2.551929e+01 1.427328e+02 8.460170e+00 4.401733e+00 3.986095e+00 4.064013e+00 4.730892e+00 4.940460e+00 4.444854e+00 4.726779e+00 4.449736e+00 4.690192e+00 3.943962e+00 3.072021e+00 2.807786e+00 1.029357e+00 5.302139e-01 6.699036e-01 5.693159e-01 7.798650e-01 8.142469e-01 6.591084e-01 7.315170e-01 7.995907e-01 6.335711e-01 7.054214e-01 4.422259e-01 3.686510e-01
<GCONST> 1.393824e+02
<STATE> 4
<MEAN> 39
 -7.200633e-01 -6.023257e+00 -2.645486e+00 -2.918892e+00 -9.067512e+00 -7.912567e-01 -3.736221e+00 -6.461728e+00 -1.893456e+00 -4.697272e+00 -4.588313e+00 -4.537128e+00 8.985005e+01 4.351574e-02 4.228298e-04 1.117906e-02 5.526992e-02 -1.218127e-02 8.102575e-02 -5.881215e-03 -8.133795e-03 2.054691e-02 -1.581487e-02 -2.227437e-02 6.928081e-03 -7.757254e-02 -2.558288e-02 2.242734e-02 2.671340e-02 8.087700e-03 -2.212227e-02 8.644328e-03 -1.335709e-02 -1.088031e-02 1.300005e-02 -4.874756e-03 2.428168e-03 1.514761e-02 -3.866420e-02
<VARIANCE> 39
 1.741341e+01 3.190387e+01 3.066790e+01 3.254321e+01 2.594048e+01 4.737897e+01 2.955222e+01 2.968518e+01 3.481791e+01 2.949825e+01 2.739757e+01 2.204887e+01 7.300327e+01 1.148997e+00 1.391807e+00 1.236503e+00 1.501343e+00 2.179874e+00 2.610416e+00 1.792991e+00 2.059637e+00 2.214225e+00 1.916773e+00 1.830781e+00 1.622453e+00 2.250602e+00 1.963547e-01 2.211476e-01 1.982142e-01 2.617229e-01 4.011279e-01 4.495673e-01 3.339134e-01 3.835377e-01 4.196277e-01 3.648377e-01 3.371579e-01 2.986557e-01 3.183222e-01
<GCONST> 1.087204e+02
<TRANSP> 5
 0.000000e+00 1.000000e+00 0.000000e+00 0.000000e+00 0.000000e+00
 0.000000e+00 7.605591e-01 2.394409e-01 0.000000e+00 0.000000e+00
 0.000000e+00 0.000000e+00 5.285612e-01 4.714388e-01 0.000000e+00
 0.000000e+00 0.000000e+00 0.000000e+00 9.477703e-01 5.222970e-02
 0.000000e+00 0.000000e+00 0.000000e+00 0.000000e+00 0.000000e+00
<ENDHMM>
~h "d"
<BEGINHMM>
<NUMSTATES> 5
<STATE> 2
<MEAN> 39
 2.258446e+00 -1.899959e+00 -4.923104e-02 -7.426918e-01 -9.617030e+00 -5.796807e+00 -9.899465e+00 -6.164114e+00 -3.263878e+00 -8.063071e+00 -8.128955e+00 -6.223062e+00 6.482441e+01 -2.710631e-01 5.668802e-01 4.859162e-01 1.174270e-01 5.944501e-01 3.589277e-02 -4.281595e-02 1.640654e-01 -1.905315e-01 -2.081455e-02 -1.772544e-01 -3.702589e-02 -1.136873e-01 -2.788215e-01 -8.860064e-01 8.733355e-02 -8.703728e-01 -3.611071e-01 -1.818531e-01 -6.420135e-02 3.259407e-01 -4.608229e-02 1.872638e-01 5.007354e-01 2.689083e-01 9.564828e-01
<VARIANCE> 39
 4.077498e+01 5.357441e+01 5.113309e+01 6.224566e+01 9.343323e+01 5.751749e+01 1.005208e+02 7.935301e+01 5.719390e+01 6.638077e+01 5.484530e+01 3.842545e+01 1.062975e+02 2.268480e+00 3.151793e+00 2.812143e+00 3.210679e+00 3.504809e+00 3.725948e+00 2.831336e+00 3.394818e+00 3.134578e+00 2.927444e+00 3.220533e+00 2.193518e+00 2.866492e+00 3.869721e-01 6.050583e-01 6.630315e-01 7.232692e-01 8.436413e-01 8.966967e-01 6.466787e-01 9.229349e-01 7.054919e-01 7.271852e-01 7.088851e-01 5.210027e-01 4.839222e-01
<GCONST> 1.344203e+02
<STATE> 3
<MEAN> 39
 -5.920076e-01 -1.365397e+00 1.092533e+00 -1.296112e+00 -6.745956e+00 -5.510099e+00 -9.646395e+00 -4.574696e+00 -3.826663e+00 -6.370559e+00 -6.024655e+00 -4.793586e+00 6.631998e+01 -4.534350e-01 -1.715096e+00 7.439009e-01 -1.792221e+00 -9.383832e-01 -8.061136e-01 -4.902892e-01 8.177615e-01 -1.379900e-01 1.693406e-01 1.032216e+00 6.329176e-01 2.485816e+00 1.714584e-01 -6.745359e-01 -9.941433e-02 -4.946023e-01 -6.030894e-01 -2.034206e-01 -5.599366e-02 8.660127e-02 9.328860e-02 6.320303e-02 2.552595e-01 2.123300e-02 6.519699e-01
<VARIANCE> 39
 5.134636e+01 6.621734e+01 6.252122e+01 7.732225e+01 1.092076e+02 7.712427e+01 1.104664e+02 7.572586e+01 6.247068e+01 5.642354e+01 5.529774e+01 4.160149e+01 1.349881e+02 4.635614e+00 4.721496e+00 6.084960e+00 5.641129e+00 7.333008e+00 7.075639e+00 4.999151e+00 6.945240e+00 5.817225e+00 5.034679e+00 5.092578e+00 3.308131e+00 4.499012e+00 5.860361e-01 6.539748e-01 6.393377e-01 8.017831e-01 1.054455e+00 1.300546e+00 8.670170e-01 1.074620e+00 8.416460e-01 6.486581e-01 8.293597e-01 6.396119e-01 5.555187e-01
<GCONST> 1.457904e+02
<STATE> 4
<MEAN> 39
 -3.746329e-01 -8.391167e+00 2.364602e+00 -6.584506e+00 -1.223531e+01 -7.763792e+00 -1.087761e+01 -2.387533e+00 -2.828278e+00 -5.739391e+00 -3.295059e+00 -3.174337e+00 7.425571e+01 8.788109e-02 -2.124306e+00 1.822025e-01 -1.841211e+00 -1.518669e+00 -4.931374e-01 -1.221260e-01 8.510046e-01 2.879686e-01 3.154062e-01 8.671463e-01 1.172898e-01 2.334394e+00 2.483836e-01 3.507507e-01 -3.160017e-01 3.624616e-01 2.524730e-01 2.057528e-01 2.440549e-01 -2.343729e-01 4.323499e-03 -1.014920e-01 -3.151956e-01 -2.705317e-01 -4.832094e-01
<VARIANCE> 39
 3.748088e+01 5.829626e+01 8.158766e+01 1.021961e+02 1.305558e+02 9.811908e+01 1.282288e+02 8.439657e+01 8.413797e+01 5.787444e+01 5.331831e+01 3.782354e+01 9.829868e+01 3.362316e+00 4.132847e+00 5.709497e+00 5.044927e+00 6.638448e+00 8.210346e+00 5.966456e+00 7.619671e+00 5.625430e+00 4.126128e+00 5.144843e+00 3.704009e+00 3.897072e+00 4.187524e-01 4.996800e-01 6.274253e-01 6.806525e-01 1.003624e+00 1.049594e+00 8.241432e-01 9.151545e-01 7.951145e-01 7.629918e-01 7.236873e-01 5.827251e-01 4.991101e-01
<GCONST> 1.443867e+02
<TRANSP> 5
 0.000000e+00 1.000000e+00 0.000000e+00 0.000000e+00 0.000000e+00
 0.000000e+00 4.253750e-01 5.746250e-01 0.000000e+00 0.000000e+00
 0.000000e+00 0.000000e+00 2.852048e-01 7.147952e-01 0.000000e+00
 0.000000e+00 0.000000e+00 0.000000e+00 2.504686e-01 7.495314e-01
 0.000000e+00 0.000000e+00 0.000000e+00 0.000000e+00 0.000000e+00
<ENDHMM>
~h "e"
<BEGINHMM>
<NUMSTATES> 5
<STATE> 2
<MEAN> 39
 -1.655374e+00 -1.218426e+01 3.073874e+00 -3.751838e+00 -1.519735e+01 -4.464688e-01 -6.784691e+00 -6.261463e+00 -1.333011e+00 -7.466639e+00 -5.383006e+00 -3.764283e+00 7.973542e+01 1.529750e-02 -5.238537e-01 1.911301e-01 -5.039745e-01 -1.757949e-02 -3.701360e-02 1.782890e-01 2.953374e-01 -4.260585e-01 -8.290963e-03 4.318260e-02 -1.120458e-02 6.193998e-01 -1.456389e-01 2.974451e-01 -7.838266e-02 6.145611e-02 2.152485e-01 -4.034678e-02 1.154828e-01 -6.247521e-02 -1.737387e-02 1.072846e-01 -6.283957e-03 -9.725126e-03 -2.056679e-01
<VARIANCE> 39
 3.931407e+01 6.573391e+01 1.098015e+02 8.611050e+01 9.413543e+01 1.780379e+02 9.025040e+01 7.530424e+01 9.059030e+01 5.229871e+01 5.377703e+01 3.579748e+01 1.542673e+02 2.320830e+00 4.134494e+00 5.378222e+00 2.921407e+00 4.630486e+00 7.346200e+00 3.340846e+00 4.358207e+00 4.410961e+00 3.292671e+00 2.968073e+00 2.188452e+00 3.194951e+00 5.218778e-01 7.596072e-01 7.023782e-01 5.255440e-01 8.167766e-01 1.077856e+00 6.489773e-01 8.320806e-01 8.419964e-01 6.147863e-01 5.684331e-01 4.224152e-01 5.454921e-01
<GCONST> 1.398770e+02
<STATE> 3
<MEAN> 39
 -1.530620e+00 -1.416061e+01 1.067589e+00 -1.080910e+01 -1.519817e+01 -4.879445e+00 -2.227139e+00 -3.819299e+00 -6.737168e+00 -8.231009e+00 -7.405921e+00 -4.753738e+00 7.070952e+01 -9.600110e-02 8.248191e-01 -2.873743e-01 4.466842e-01 1.901322e-01 -2.295583e-01 -4.695955e-02 8.231854e-02 1.289965e-01 -3.856627e-02 1.737662e-04 -4.069360e-04 -6.509753e-01 -6.008283e-02 2.962115e-01 -1.112446e-01 2.374235e-01 9.472253e-02 -3.645357e-02 -6.203172e-02 -5.448148e-02 1.358414e-01 -1.157010e-02 1.156939e-02 -2.656839e-03 -2.796962e-01
<VARIANCE> 39
 2.904942e+01 8.163440e+01 5.592559e+01 1.101850e+02 6.824777e+01 8.099828e+01 8.664181e+01 5.237976e+01 5.421468e+01 4.703603e+01 5.153713e+01 2.585508e+01 1.214310e+02 1.094202e+00 2.542245e+00 1.663521e+00 2.312650e+00 2.415281e+00 2.576281e+00 2.103643e+00 2.393530e+00 2.031476e+00 1.906852e+00 1.716734e+00 1.417939e+00 1.564569e+00 2.471107e-01 4.466392e-01 3.399799e-01 4.335711e-01 4.753942e-01 4.774283e-01 3.988748e-01 4.850908e-01 4.291059e-01 3.956258e-01 3.825113e-01 2.784520e-01 2.484158e-01
<GCONST> 1.209075e+02
<STATE> 4
<MEAN> 39
 -1.760180e+00 -5.606671e+00 -2.291746e+00 -1.589246e+00 -8.208037e+00 -5.989562e-01 -3.450350e+00 -5.452466e+00 -1.432441e+00 -4.369530e+00 -3.971604e+00 -3.793699e+00 8.804937e+01 -7.740040e-03 7.401620e-02 5.195627e-03 6.053811e-02 8.557152e-03 2.032555e-02 9.437790e-04 -1.377802e-02 3.543861e-02 8.688636e-03 -8.946865e-03 -2.447112e-03 -1.076253e-01 -3.397526e-03 -5.140147e-03 1.222296e-02 1.394799e-03 -1.390380e-02 9.358005e-03 -3.958991e-03 -1.405856e-02 3.698569e-03 -4.701422e-03 -2.556671e-03 7.034593e-03 -8.000057e-03
<VARIANCE> 39
 2.490244e+01 2.673476e+01 2.944534e+01 3.481555e+01 2.674391e+01 5.411197e+01 3.237779e+01 2.752357e+01 3.303328e+01 2.880022e+01 2.811598e+01 2.082052e+01 9.591762e+01 9.399933e-01 1.247968e+00 1.120231e+00 1.425374e+00 1.809218e+00 2.381385e+00 1.614997e+00 1.728536e+00 2.055873e+00 1.766316e+00 1.632752e+00 1.458343e+00 2.013924e+00 1.430550e-01 1.767310e-01 1.796299e-01 2.372269e-01 3.307975e-01 4.055811e-01 3.020260e-01 3.192244e-01 3.799845e-01 3.336970e-01 3.011374e-01 2.770151e-01 2.592129e-01
<GCONST> 1.058662e+02
<TRANSP> 5
 0.000000e+00 1.000000e+00 0.000000e+00 0.000000e+00 0.000000e+00
 0.000000e+00 6.768540e-01 3.231460e-01 0.000000e+00 0.000000e+00
 0.000000e+00 0.000000e+00 6.323914e-01 3.676087e-01 0.000000e+00
 0.000000e+00 0.000000e+00 0.000000e+00 9.489871e-01 5.101290e-02
 0.000000e+00 0.000000e+00 0.000000e+00 0.000000e+00 0.000000e+00
<ENDHMM>
~h "f"
<BEGINHMM>
<NUMSTATES> 5
<STATE> 2
<MEAN> 39
 -1.044098e+01 -6.967950e+00 -1.785033e+00 -3.737389e+00 -7.844879e+00 -5.933924e+00 -6.927659e+00 -4.572399e+00 -3.952193e+00 -6.208196e+00 -4.852363e+00 -4.442494e+00 6.206772e+01 -1.835359e+00 -2.939636e-01 -3.725819e-01 5.039654e-01 7.820131e-01 -2.687425e-01 2.786292e-01 1.220097e-01 5.522242e-01 5.022691e-01 2.097892e-01 3.082296e-01 -6.120047e-01 2.475429e-01 -2.620440e-01 -9.278146e-02 -3.544997e-01 -2.443447e-01 5.005630e-02 -1.186551e-01 -5.204707e-02 2.026285e-02 3.133368e-02 8.967096e-03 2.360460e-03 2.404489e-01
<VARIANCE> 39
 5.604935e+01 4.755197e+01 3.929350e+01 5.941752e+01 7.316321e+01 5.091903e+01 6.991009e+01 3.830779e+01 3.182152e+01 3.439698e+01 2.802453e+01 2.418093e+01 1.264278e+02 3.774467e+00 1.900190e+00 2.063558e+00 4.186989e+00 4.011826e+00 3.288330e+00 2.657271e+00 2.594144e+00 2.908632e+00 2.878307e+00 2.769739e+00 2.249586e+00 1.183074e+00 5.208109e-01 3.815062e-01 3.573790e-01 7.331834e-01 5.860465e-01 4.917718e-01 4.773088e-01 4.573682e-01 5.719160e-01 5.789101e-01 5.039422e-01 4.123549e-01 1.758672e-01
<GCONST> 1.244166e+02
<STATE> 3
<MEAN> 39
 -1.514873e+01 -8.425724e+00 -4.512398e+00 -3.258494e+00 -3.953604e+00 -7.806059e+00 -7.163707e+00 -2.702069e+00 -1.354291e+00 -1.325572e+00 -1.258198e+00 -2.566613e+00 6.774564e+01 6.549240e-01 -4.191012e-01 5.249954e-02 -1.012406e-01 -3.930885e-01 1.052472e-01 8.157493e-02 -1.346720e-01 -3.050783e-01 -8.558340e-02 9.112048e-02 8.321404e-04 1.038480e-01 1.135958e+00 3.095012e-01 2.877577e-01 -2.498275e-01 -5.807554e-01 1.263663e-01 -1.434069e-01 -2.858829e-01 -5.864300e-01 -3.807705e-01 -1.949524e-01 -2.135580e-01 2.672719e-01
<VARIANCE> 39
 6.738458e+01 4.963134e+01 4.145452e+01 6.779039e+01 7.331152e+01 8.400330e+01 6.982034e+01 4.656130e+01 3.535164e+01 3.307822e+01 2.790817e+01 2.292374e+01 1.177186e+02 5.529259e+00 2.481149e+00 2.942716e+00 2.327986e+00 3.501314e+00 3.007022e+00 2.194971e+00 2.712782e+00 3.640871e+00 2.685746e+00 2.358193e+00 1.903916e+00 1.131341e+00 5.526037e-01 4.345950e-01 5.343937e-01 6.815673e-01 7.941265e-01 6.965089e-01 5.332595e-01 5.684312e-01 5.457152e-01 5.590485e-01 6.032586e-01 3.791348e-01 2.496191e-01
<GCONST> 1.271533e+02
<STATE> 4
<MEAN> 39
 -7.379897e+00 -9.511588e+00 -2.952428e+00 -5.516159e+00 -9.672055e+00 -3.967026e+00 -4.807716e+00 -5.588356e+00 -5.459731e+00 -8.015413e+00 -5.961815e+00 -3.802703e+00 6.177605e+01 1.857494e+00 7.686840e-02 1.680104e-02 -9.472716e-01 -7.397391e-01 2.219831e-01 -3.079963e-01 -3.793279e-01 -6.039260e-01 -4.652046e-01 -4.458890e-01 -1.964789e-02 9.331377e-01 1.386314e-01 -3.887914e-02 6.131838e-02 -2.063090e-01 -8.672246e-02 -5.300868e-03 -1.068260e-01 -1.254959e-02 6.908612e-02 2.979452e-02 -5.136095e-02 1.895001e-02 2.242112e-01
<VARIANCE> 39
 5.512807e+01 6.266551e+01 5.935585e+01 7.584915e+01 7.676200e+01 5.017836e+01 5.589320e+01 4.159830e+01 4.092598e+01 4.673306e+01 3.125123e+01 2.661539e+01 1.236679e+02 8.407454e+00 5.384947e+00 4.244376e+00 8.115774e+00 6.644081e+00 4.144563e+00 3.263323e+00 3.245803e+00 4.399245e+00 4.097516e+00 3.654706e+00 2.647487e+00 3.593113e+00 9.171145e-01 8.268277e-01 5.026926e-01 1.162854e+00 6.080260e-01 6.069984e-01 5.717523e-01 5.310688e-01 5.963343e-01 6.056728e-01 5.449171e-01 4.943123e-01 4.878950e-01
<GCONST> 1.367604e+02
<TRANSP> 5
 0.000000e+00 1.000000e+00 0.000000e+00 0.000000e+00 0.000000e+00
 0.000000e+00 6.834497e-01 3.165503e-01 0.000000e+00 0.000000e+00
 0.000000e+00 0.000000e+00 5.399871e-01 4.600129e-01 0.000000e+00
 0.000000e+00 0.000000e+00 0.000000e+00 6.177209e-01 3.822791e-01
 0.000000e+00 0.000000e+00 0.000000e+00 0.000000e+00 0.000000e+00
<ENDHMM>
~h "g"
<BEGINHMM>
<NUMSTATES> 5
<STATE> 2
<MEAN> 39
 -1.811520e-01 -4.606183e-01 1.020840e-01 -4.229789e+00 -4.696549e+00 -6.400380e+00 -1.088336e+01 -5.181991e+00 -6.133575e+00 -2.843045e+00 -2.995669e+00 -5.961942e+00 6.529404e+01 -3.896773e-01 -8.056486e-01 -1.208122e-01 -4.992441e-01 8.583321e-02 -8.977297e-01 -3.198277e-01 6.579784e-01 -2.613776e-01 1.756398e-01 6.696639e-01 4.891053e-01 1.170582e+00 2.165943e-01 -4.615063e-01 3.032689e-02 -2.235984e-01 -5.465610e-01 -1.024740e-01 -1.272807e-01 -2.290524e-02 1.447208e-01 -1.040084e-01 2.957718e-01 1.094468e-02 5.967014e-01
<VARIANCE> 39
 6.025688e+01 6.107220e+01 6.692762e+01 7.936056e+01 1.304973e+02 9.103526e+01 1.108540e+02 7.487347e+01 5.730968e+01 6.633078e+01 6.414241e+01 4.881943e+01 1.023931e+02 3.469824e+00 3.947933e+00 5.348953e+00 5.064083e+00 8.690928e+00 7.639666e+00 5.451693e+00 5.651086e+00 4.843613e+00 5.170534e+00 4.644586e+00 3.353631e+00 4.541489e+00 6.111749e-01 7.133144e-01 7.662266e-01 1.032341e+00 1.524992e+00 1.295235e+00 1.008040e+00 9.893378e-01 9.103684e-01 9.265554e-01 8.599007e-01 6.856697e-01 7.221587e-01
<GCONST> 1.474020e+02
<STATE> 3
<MEAN> 39
 2.021504e+00 -8.517348e+00 2.975577e-01 -4.751269e+00 -1.794764e+01 9.149519e-01 -1.974403e+01 -1.206710e+01 -3.884258e+00 -6.835978e+00 -2.433387e+00 -6.734738e+00 7.283966e+01 9.742714e-02 -6.754445e-01 1.433038e-01 -5.337399e-02 -4.605655e-01 -3.155783e-01 -2.559268e-01 2.539916e-02 4.442883e-01 -8.173202e-02 5.227027e-02 -6.093879e-02 6.360994e-01 -5.582016e-03 6.508313e-03 -8.424697e-02 -1.401309e-01 1.713523e-01 2.321344e-02 1.251842e-01 1.682432e-01 -1.812662e-02 4.307068e-02 -1.326710e-01 -8.742492e-02 -2.785012e-02
<VARIANCE> 39
 3.630787e+01 6.078338e+01 7.041838e+01 9.302280e+01 1.480523e+02 1.629937e+02 1.629649e+02 1.412095e+02 7.885625e+01 6.581590e+01 7.214918e+01 4.893838e+01 7.864019e+01 2.087278e+00 3.531090e+00 4.807518e+00 6.554322e+00 8.166608e+00 7.274586e+00 5.867655e+00 8.160864e+00 6.923936e+00 4.409130e+00 5.562399e+00 4.293697e+00 4.005693e+00 3.361921e-01 4.865734e-01 7.999394e-01 1.162379e+00 1.223260e+00 1.337927e+00 1.057805e+00 1.468618e+00 1.048371e+00 8.897840e-01 1.030897e+00 8.605430e-01 7.688118e-01
<GCONST> 1.493659e+02
<STATE> 4
<MEAN> 39
 -1.412628e+00 -5.326968e+00 -1.551810e-02 -4.717447e+00 -9.869713e+00 -8.313931e+00 -8.098764e+00 -3.527350e+00 -4.146804e+00 -4.424543e+00 6.435860e-01 -3.657187e+00 7.019043e+01 9.465507e-02 -8.941255e-01 -4.078153e-01 -9.032254e-01 -1.702540e-03 1.023701e-01 1.256332e-01 6.586965e-01 2.782410e-01 -2.775871e-02 1.635945e-01 3.646996e-02 8.535553e-01 2.846398e-02 2.105297e-01 -5.332753e-02 1.218471e-01 2.805734e-01 3.950283e-01 2.097689e-02 -1.181551e-01 -5.647022e-02 4.274271e-02 -2.522677e-01 -5.881878e-02 -3.178047e-01
<VARIANCE> 39
 1.071853e+02 6.123533e+01 6.490337e+01 8.899910e+01 1.202493e+02 2.062864e+02 1.690388e+02 8.980170e+01 7.247465e+01 7.470432e+01 1.101996e+02 5.752020e+01 2.492410e+02 2.077808e+00 2.751583e+00 4.054677e+00 4.274856e+00 5.594854e+00 4.774227e+00 4.703656e+00 6.748415e+00 4.960227e+00 3.424119e+00 4.355628e+00 3.396992e+00 2.196558e+00 2.800839e-01 3.873407e-01 3.993382e-01 5.776262e-01 9.571779e-01 7.997530e-01 5.958067e-01 7.811607e-01 8.567654e-01 6.827596e-01 7.499091e-01 5.801384e-01 4.545723e-01
<GCONST> 1.425198e+02
<TRANSP> 5
 0.000000e+00 1.000000e+00 0.000000e+00 0.000000e+00 0.000000e+00
 0.000000e+00 5.969009e-01 4.030991e-01 0.000000e+00 0.000000e+00
 0.000000e+00 0.000000e+00 6.291696e-01 3.708304e-01 0.000000e+00
 0.000000e+00 0.000000e+00 0.000000e+00 2.944047e-01 7.055953e-01
 0.000000e+00 0.000000e+00 0.000000e+00 0.000000e+00 0.000000e+00
<ENDHMM>
~h "h"
<BEGINHMM>
<NUMSTATES> 5
<STATE> 2
<MEAN> 39
 -9.723886e-01 -1.262793e+01 -3.193437e+00 -7.855365e+00 -4.429605e+00 -3.636418e+00 -4.811338e+00 -5.655971e+00 -6.586612e+00 -1.034691e+01 -7.367602e+00 -3.822624e+00 7.066785e+01 -6.145003e-01 2.944531e-01 2.827615e-01 3.264826e-01 5.125318e-01 4.509149e-02 3.190439e-01 -2.838684e-01 -3.213469e-01 -2.015210e-01 8.108133e-02 6.124515e-02 -4.679932e-01 1.244526e-02 -1.563980e-02 -5.909009e-02 -5.452125e-02 -1.935128e-01 5.499356e-03 -1.209782e-01 8.106250e-02 1.157335e-01 1.308898e-01 8.229361e-02 -8.021068e-03 -3.417429e-02
<VARIANCE> 39
 4.292726e+01 1.179767e+02 5.446571e+01 8.962481e+01 9.852168e+01 7.083636e+01 1.001662e+02 6.864891e+01 7.805710e+01 9.367624e+01 5.430330e+01 4.286676e+01 8.907689e+01 1.448269e+00 2.620740e+00 2.295225e+00 2.543951e+00 3.441934e+00 2.815896e+00 2.999372e+00 3.094319e+00 3.102950e+00 2.545339e+00 2.621292e+00 2.480083e+00 1.158117e+00 1.750398e-01 4.095490e-01 3.309684e-01 4.369008e-01 4.931321e-01 4.809372e-01 5.351374e-01 5.461681e-01 4.852380e-01 4.547500e-01 4.611853e-01 4.055071e-01 1.580358e-01
<GCONST> 1.269385e+02
<STATE> 3
<MEAN> 39
 -2.832568e-01 -5.400919e+00 -5.903498e+00 -8.819692e+00 4.030084e+00 -5.190118e+00 -2.385992e-01 -8.006304e+00 -1.701293e+00 -8.808413e+00 -1.225986e+01 -3.868761e+00 6.723839e+01 -3.664556e-01 4.986384e-01 1.999205e-02 2.512517e-01 -3.456188e-01 3.684193e-01 -1.207669e-01 2.966006e-01 6.087503e-02 2.458359e-01 2.003336e-01 1.290883e-01 -8.871607e-01 7.011437e-02 -3.811428e-02 -5.843420e-02 -3.162533e-02 -1.813641e-01 -1.496176e-02 -8.024708e-02 5.486308e-02 1.180470e-02 5.866306e-02 6.796820e-02 -4.393836e-03 3.234762e-03
<VARIANCE> 39
 6.440795e+01 9.347914e+01 6.962141e+01 9.513007e+01 1.780022e+02 7.969076e+01 1.314523e+02 7.953835e+01 1.163528e+02 7.833692e+01 1.010307e+02 4.680927e+01 9.707438e+01 1.024319e+00 1.511484e+00 1.658718e+00 1.783390e+00 2.213609e+00 2.118911e+00 2.270112e+00 2.333275e+00 2.479221e+00 2.277587e+00 2.117889e+00 2.032295e+00 9.037570e-01 1.343818e-01 2.247859e-01 2.519227e-01 2.972047e-01 3.835302e-01 3.610741e-01 3.851024e-01 4.503638e-01 4.385543e-01 4.069994e-01 4.030842e-01 3.604536e-01 9.679148e-02
<GCONST> 1.221637e+02
<STATE> 4
<MEAN> 39
 -1.020840e+01 -4.162237e+00 -5.437157e+00 -3.059756e+00 -4.604370e+00 -1.663932e+00 -3.528461e+00 -1.795519e+00 -3.671496e+00 -4.567903e+00 -1.937086e+00 -5.394324e-01 5.261355e+01 -1.771459e-01 2.360024e-02 -9.066344e-03 7.804760e-02 -1.487751e-01 1.261281e-04 -8.949270e-03 6.902952e-02 3.464816e-02 1.071869e-01 1.701733e-01 5.114727e-02 -2.541075e-01 3.234236e-02 -1.062421e-02 1.340382e-02 -1.481379e-02 -7.701862e-04 -2.461144e-02 -9.661449e-03 -7.249305e-03 -1.373299e-02 -1.474434e-02 -2.280437e-02 -1.802968e-02 4.558319e-02
<VARIANCE> 39
 7.017335e+01 6.223935e+01 5.173303e+01 4.991321e+01 6.094155e+01 6.863734e+01 7.041837e+01 5.750584e+01 5.008206e+01 5.698182e+01 8.443258e+01 5.027375e+01 1.689320e+02 4.842620e-01 7.264748e-01 8.948079e-01 1.103819e+00 1.532167e+00 1.718489e+00 1.771959e+00 1.780255e+00 1.980883e+00 1.892637e+00 1.954488e+00 1.594911e+00 4.105598e-01 5.950781e-02 1.095572e-01 1.359429e-01 1.815534e-01 2.513372e-01 2.823872e-01 3.005295e-01 3.143614e-01 3.459796e-01 3.393190e-01 3.229288e-01 2.814787e-01 4.448473e-02
<GCONST> 1.072358e+02
<TRANSP> 5
 0.000000e+00 1.000000e+00 0.000000e+00 0.000000e+00 0.000000e+00
 0.000000e+00 4.521734e-01 5.478266e-01 0.000000e+00 0.000000e+00
 0.000000e+00 0.000000e+00 6.034420e-01 3.965580e-01 0.000000e+00
 0.000000e+00 0.000000e+00 0.000000e+00 8.598459e-01 1.401542e-01
 0.000000e+00 0.000000e+00 0.000000e+00 0.000000e+00 0.000000e+00
<ENDHMM>
~h "i"
<BEGINHMM>
<NUMSTATES> 5
<STATE> 2
<MEAN> 39
 -1.165659e+00 -4.396205e+00 7.516154e+00 -6.034376e+00 -1.446207e+01 -8.555581e+00 -8.539636e+00 -7.661170e+00 -6.099312e+00 -5.685244e+00 -8.883114e-01 -4.399295e+00 7.189560e+01 5.726280e-01 -2.645070e-01 1.090254e+00 -4.922350e-01 -1.170035e+00 -2.437692e-01 -3.991974e-01 -4.402359e-01 -1.149214e-01 -1.563291e-01 1.100870e-01 -6.693002e-02 8.732084e-01 -1.640411e-01 2.264744e-01 -4.433935e-01 7.992321e-02 5.593141e-01 1.732360e-01 1.752728e-01 1.533798e-01 2.047603e-01 6.417443e-02 -2.365316e-01 1.802165e-02 -3.801762e-01
<VARIANCE> 39
 4.526385e+01 7.829495e+01 1.169760e+02 1.168821e+02 1.374198e+02 1.680854e+02 1.415784e+02 8.604018e+01 8.353197e+01 6.003997e+01 8.656036e+01 4.083383e+01 1.112209e+02 4.246590e+00 3.362450e+00 5.709746e+00 6.542139e+00 7.829051e+00 6.919919e+00 5.643560e+00 5.514712e+00 5.075236e+00 3.871598e+00 4.658663e+00 3.283660e+00 2.964318e+00 6.338458e-01 6.366945e-01 8.640810e-01 8.925755e-01 1.392195e+00 1.229059e+00 9.068075e-01 9.258659e-01 8.789809e-01 6.800433e-01 8.128007e-01 5.198085e-01 5.928671e-01
<GCONST> 1.480286e+02
<STATE> 3
<MEAN> 39
 -8.403572e-01 -6.611495e+00 6.912692e+00 -1.316039e+01 -1.687851e+01 -7.387309e+00 -1.012373e+01 -7.124254e+00 -4.568687e+00 -6.768850e+00 -6.567047e+00 -3.455983e+00 7.110235e+01 1.015055e-02 6.933036e-01 -2.631596e-01 5.117418e-01 5.135244e-01 6.992199e-02 2.601520e-01 -1.375362e-02 1.179086e-01 -1.251853e-02 -2.427859e-01 4.131591e-02 -6.973206e-01 -1.835725e-01 2.284194e-01 -3.832722e-01 5.529454e-01 4.018298e-01 6.435484e-02 2.741558e-01 5.596636e-02 -2.549409e-02 -2.042792e-02 7.583430e-02 -1.055411e-01 -4.505951e-01
<VARIANCE> 39
 2.392466e+01 4.302502e+01 6.595295e+01 2.041719e+02 9.855644e+01 8.435419e+01 1.180824e+02 5.531266e+01 5.469742e+01 4.440296e+01 1.028523e+02 3.800216e+01 7.815921e+01 1.348139e+00 2.111965e+00 2.231742e+00 5.180948e+00 3.304153e+00 3.061143e+00 3.282252e+00 2.760485e+00 2.576135e+00 2.531599e+00 2.785230e+00 2.296913e+00 2.026342e+00 3.646858e-01 3.502146e-01 4.668179e-01 9.111413e-01 7.878454e-01 6.454454e-01 7.170925e-01 5.515057e-01 5.604542e-01 5.408249e-01 6.528256e-01 4.861813e-01 2.746899e-01
<GCONST> 1.306558e+02
<STATE> 4
<MEAN> 39
 -3.063723e+00 1.590187e+00 6.640977e+00 -6.668201e+00 -1.090562e+01 -8.664222e+00 -6.378353e+00 -9.667805e+00 -5.582647e+00 -6.319396e+00 -4.058551e+00 -3.044056e+00 6.299699e+01 -2.816508e-01 3.574043e-01 -5.464234e-01 6.233642e-01 5.360440e-01 3.852055e-01 1.337763e-01 1.322008e-01 1.178683e-02 1.194545e-02 -1.669617e-01 1.860358e-02 -8.911532e-01 -5.860905e-02 -9.814845e-02 -7.063436e-02 -4.586757e-02 3.969084e-02 1.408149e-02 -2.932540e-03 4.363453e-02 -4.187688e-03 2.739120e-02 2.040971e-02 3.224504e-03 3.183389e-02
<VARIANCE> 39
 5.444122e+01 8.398499e+01 9.839765e+01 1.503677e+02 8.252148e+01 1.026188e+02 9.789253e+01 9.724980e+01 5.881001e+01 5.381839e+01 7.594044e+01 4.294830e+01 1.731268e+02 1.164712e+00 1.658031e+00 1.717591e+00 2.753444e+00 2.624153e+00 2.631437e+00 2.713169e+00 2.562631e+00 2.272939e+00 2.135915e+00 2.448617e+00 1.769938e+00 1.402733e+00 1.473146e-01 2.096130e-01 2.418281e-01 3.394256e-01 3.646637e-01 3.767407e-01 3.949287e-01 4.232983e-01 3.780960e-01 3.583405e-01 3.435084e-01 2.895359e-01 1.268708e-01
<GCONST> 1.225615e+02
<TRANSP> 5
 0.000000e+00 1.000000e+00 0.000000e+00 0.000000e+00 0.000000e+00
 0.000000e+00 5.237523e-01 4.762476e-01 0.000000e+00 0.000000e+00
 0.000000e+00 0.000000e+00 5.351699e-01 4.648300e-01 0.000000e+00
 0.000000e+00 0.000000e+00 0.000000e+00 6.935194e-01 3.064806e-01
 0.000000e+00 0.000000e+00 0.000000e+00 0.000000e+00 0.000000e+00
<ENDHMM>
~h "j"
<BEGINHMM>
<NUMSTATES> 5
<STATE> 2
<MEAN> 39
 -6.827302e+00 1.851877e+00 2.743569e+00 -6.412815e+00 -3.582576e+00 -6.496694e+00 -7.502800e+00 -5.683856e+00 -3.782594e+00 -5.540111e+00 -5.770421e+00 -4.152642e+00 6.221399e+01 -1.092937e+00 1.551042e-01 9.927162e-01 -1.183082e+00 -2.963425e-02 -7.820648e-01 -7.295038e-02 -3.639778e-01 -7.697576e-02 -7.095690e-03 5.726020e-01 2.513963e-01 1.417591e+00 3.876930e-01 -5.132348e-01 2.651160e-02 -4.071779e-02 -6.941956e-01 -2.998382e-01 -2.405050e-01 -3.584760e-02 -7.210428e-02 -6.959648e-02 2.426673e-01 1.257509e-01 5.496438e-01
<VARIANCE> 39
 9.701644e+01 5.725779e+01 7.649165e+01 1.253363e+02 1.120031e+02 7.808755e+01 8.519690e+01 5.156507e+01 5.267937e+01 4.199292e+01 4.738544e+01 3.339437e+01 1.114866e+02 9.150970e+00 4.065514e+00 4.546221e+00 8.149815e+00 9.193912e+00 5.828257e+00 3.988569e+00 4.386784e+00 4.245776e+00 3.438926e+00 4.092318e+00 3.073837e+00 4.455372e+00 1.962285e+00 8.418289e-01 8.564713e-01 1.860532e+00 1.766272e+00 8.850684e-01 7.452021e-01 8.825275e-01 8.028348e-01 6.614040e-01 6.823676e-01 5.794671e-01 5.823315e-01
<GCONST> 1.463876e+02
<STATE> 3
<MEAN> 39
 -3.652292e+00 -2.392620e+00 6.681703e+00 -7.159948e+00 -1.244783e+01 -1.143883e+01 -8.809113e+00 -7.201104e+00 -4.839452e+00 -6.920486e+00 -1.566908e+00 -9.017161e-01 7.325596e+01 2.053825e+00 -2.513357e+00 2.938427e-02 2.278593e-02 -2.874105e+00 -9.670590e-01 -9.826616e-01 2.053030e-01 1.608576e-01 -1.155723e-01 7.934264e-01 2.340129e-01 1.899488e+00 2.449547e-01 -1.760518e-01 -6.496503e-01 1.224626e-01 5.946640e-01 4.368524e-01 1.026492e-01 4.666491e-01 2.353564e-01 1.155402e-01 -3.062344e-01 -4.011565e-01 -4.491160e-01
<VARIANCE> 39
 4.608547e+01 6.657476e+01 8.114491e+01 1.231209e+02 9.383909e+01 1.357446e+02 9.210501e+01 4.960334e+01 4.599427e+01 4.546360e+01 5.822844e+01 3.026089e+01 7.268928e+01 6.632230e+00 5.153858e+00 6.287814e+00 7.410458e+00 8.408319e+00 6.968659e+00 4.815024e+00 5.106344e+00 4.355172e+00 3.435925e+00 4.057747e+00 3.265486e+00 3.117247e+00 1.124488e+00 6.475424e-01 7.589918e-01 7.513425e-01 1.127129e+00 1.093785e+00 8.484058e-01 7.308575e-01 7.090612e-01 5.346562e-01 6.534258e-01 5.319493e-01 4.599449e-01
<GCONST> 1.433225e+02
<STATE> 4
<MEAN> 39
 -4.410442e-01 -8.331960e+00 3.489802e+00 -7.590347e+00 -1.523223e+01 -9.798043e+00 -8.760440e+00 -4.701138e+00 -3.642715e+00 -6.651789e+00 -3.630741e+00 -2.954926e+00 7.363322e+01 6.259990e-01 -9.721394e-01 -7.259719e-01 -8.075630e-02 1.002852e-01 1.026751e-01 -5.290494e-02 7.395003e-01 2.609809e-01 1.224829e-01 -1.932827e-01 -3.818195e-01 2.762509e-01 -3.224355e-01 5.179092e-01 -1.544024e-01 8.855085e-02 7.687303e-01 3.468708e-01 1.733205e-01 -3.031839e-02 -7.392395e-02 3.774332e-02 -2.324289e-01 -1.324188e-01 -4.808228e-01
<VARIANCE> 39
 2.575782e+01 6.714014e+01 6.562202e+01 1.110472e+02 9.020564e+01 1.096690e+02 9.486121e+01 7.422975e+01 5.071225e+01 4.760985e+01 7.210899e+01 2.725076e+01 9.793945e+01 2.670072e+00 3.937315e+00 3.811347e+00 3.143334e+00 4.199858e+00 3.111058e+00 3.987234e+00 4.154845e+00 3.513489e+00 2.194110e+00 3.021899e+00 2.839983e+00 2.535877e+00 5.730184e-01 6.954975e-01 5.189685e-01 8.212875e-01 9.898815e-01 8.413975e-01 6.228385e-01 6.686251e-01 6.064399e-01 5.778400e-01 5.803954e-01 4.417943e-01 5.174401e-01
<GCONST> 1.354783e+02
<TRANSP> 5
 0.000000e+00 1.000000e+00 0.000000e+00 0.000000e+00 0.000000e+00
 0.000000e+00 7.032154e-01 2.967846e-01 0.000000e+00 0.000000e+00
 0.000000e+00 0.000000e+00 4.071781e-01 5.928220e-01 0.000000e+00
 0.000000e+00 0.000000e+00 0.000000e+00 4.627757e-01 5.372243e-01
 0.000000e+00 0.000000e+00 0.000000e+00 0.000000e+00 0.000000e+00
<ENDHMM>
~h "k"
<BEGINHMM>
<NUMSTATES> 5
<STATE> 2
<MEAN> 39
 -5.487731e+00 -3.156122e+00 -4.117583e+00 -4.136285e+00 -5.354882e+00 -4.088312e+00 -6.928238e+00 -4.088557e+00 -4.220160e+00 -4.467588e+00 -3.856709e+00 -4.165577e+00 5.867622e+01 -1.095803e+00 -7.029535e-01 -9.088486e-01 -3.915555e-01 1.079621e+00 -3.992824e-01 -8.783005e-02 4.935783e-01 2.868267e-02 6.592457e-01 2.636876e-01 9.337807e-02 6.089255e-03 2.387521e-01 -3.986030e-01 -1.704441e-01 -5.479629e-01 5.313779e-02 -1.908423e-01 -1.066822e-01 1.465422e-01 -4.347740e-02 9.084607e-03 4.960354e-03 -4.503352e-02 8.510419e-01
<VARIANCE> 39
 5.285211e+01 5.289723e+01 5.300882e+01 5.975401e+01 7.811302e+01 7.256893e+01 8.355434e+01 6.021138e+01 4.894465e+01 4.310781e+01 4.109742e+01 3.564563e+01 1.223335e+02 3.051375e+00 4.019342e+00 3.802993e+00 4.877273e+00 6.471454e+00 4.434176e+00 4.187968e+00 4.222836e+00 4.162137e+00 3.588337e+00 3.557932e+00 2.983265e+00 4.174679e+00 5.510489e-01 6.146035e-01 5.648941e-01 7.260063e-01 1.129744e+00 7.840015e-01 6.700975e-01 7.423660e-01 7.833079e-01 6.814274e-01 6.420750e-01 5.377325e-01 5.135695e-01
<GCONST> 1.375908e+02
<STATE> 3
<MEAN> 39
 -6.957823e+00 -6.252668e+00 -9.050838e+00 -1.065261e+01 2.585560e+00 -6.536575e+00 -8.720770e+00 -9.460602e-01 -4.054081e+00 1.064114e-01 -2.007304e+00 -5.729274e+00 6.540262e+01 7.234989e-01 -6.959611e-01 -3.788019e-01 -1.042442e+00 3.913820e-03 -7.303138e-01 2.245704e-01 3.298454e-01 2.055706e-01 4.449163e-02 -1.830725e-02 -2.374999e-01 1.907213e+00 8.000374e-01 9.258203e-02 5.036489e-01 2.783972e-01 -9.521626e-01 1.324977e-01 2.100753e-01 -3.761423e-01 -8.665727e-03 -5.339825e-01 -1.764680e-01 -2.709937e-02 1.463423e-01
<VARIANCE> 39
 7.581619e+01 7.250857e+01 8.518137e+01 1.376597e+02 1.931126e+02 1.243800e+02 1.176907e+02 8.507075e+01 7.808887e+01 8.014104e+01 6.412227e+01 6.502307e+01 1.030573e+02 6.459531e+00 4.869324e+00 5.558447e+00 6.480211e+00 1.168555e+01 6.166199e+00 6.210130e+00 6.628472e+00 6.425431e+00 5.972756e+00 5.266929e+00 4.089164e+00 4.996846e+00 8.989393e-01 9.302015e-01 9.624547e-01 1.137865e+00 1.915396e+00 1.227817e+00 1.163845e+00 1.183733e+00 1.303491e+00 1.166678e+00 1.045178e+00 8.988099e-01 6.420547e-01
<GCONST> 1.550242e+02
<STATE> 4
<MEAN> 39
 -1.465305e+00 -7.744681e+00 -5.745940e+00 -7.845459e+00 -5.783622e+00 -6.823990e+00 -6.942668e+00 -2.367612e+00 -3.675941e+00 -4.076247e+00 -3.731772e+00 -4.867257e+00 7.036140e+01 1.851564e+00 -6.945003e-01 5.368271e-01 -3.622418e-01 -1.540207e+00 4.215095e-02 1.888621e-01 -5.094727e-01 -3.006072e-01 -1.170024e+00 -4.490634e-01 -2.088613e-01 1.560514e+00 -1.054592e-01 1.652801e-02 1.095247e-01 1.584973e-01 8.154047e-02 2.707433e-01 -1.039387e-01 -7.924659e-02 -1.103002e-01 -2.621223e-02 -4.481147e-02 2.926753e-02 -2.789664e-01
<VARIANCE> 39
 5.423900e+01 7.567997e+01 7.043516e+01 1.102289e+02 1.078433e+02 1.032265e+02 9.513992e+01 7.476725e+01 6.168041e+01 6.890070e+01 5.444083e+01 4.440125e+01 1.270526e+02 5.858814e+00 5.878235e+00 4.582372e+00 5.150280e+00 7.450343e+00 6.419895e+00 4.975813e+00 5.456270e+00 5.730654e+00 5.531859e+00 5.128421e+00 3.766245e+00 4.236493e+00 6.010762e-01 7.238430e-01 5.398870e-01 5.975473e-01 9.208128e-01 8.185259e-01 8.561746e-01 7.736303e-01 7.606577e-01 7.616360e-01 7.293809e-01 5.087951e-01 6.315165e-01
<GCONST> 1.452068e+02
<TRANSP> 5
 0.000000e+00 1.000000e+00 0.000000e+00 0.000000e+00 0.000000e+00
 0.000000e+00 5.834236e-01 4.165764e-01 0.000000e+00 0.000000e+00
 0.000000e+00 0.000000e+00 4.973262e-01 5.026739e-01 0.000000e+00
 0.000000e+00 0.000000e+00 0.000000e+00 2.213729e-01 7.786270e-01
 0.000000e+00 0.000000e+00 0.000000e+00 0.000000e+00 0.000000e+00
<ENDHMM>
~h "l"
<BEGINHMM>
<NUMSTATES> 5
<STATE> 2
<MEAN> 39
 4.772832e+00 -6.191876e+00 -5.564859e+00 -8.676510e+00 -4.400230e+00 -7.074837e+00 -4.837719e+00 -1.008670e+01 6.217582e-01 -1.167966e-01 -6.915320e+00 -4.969714e+00 7.245334e+01 -2.726205e-02 -2.356388e-01 -2.332349e-01 -9.101710e-02 3.104708e-01 -1.106605e-01 4.816860e-01 -5.302615e-02 2.172812e-01 -4.565662e-02 -4.296848e-01 6.684905e-02 1.505107e-01 -1.133679e-01 7.651307e-02 5.265700e-02 -7.109226e-02 4.249056e-02 4.930412e-02 3.831784e-02 1.890461e-01 -1.044585e-01 -1.569873e-01 7.128368e-02 2.259963e-02 -3.257687e-02
<VARIANCE> 39
 4.405537e+01 8.497742e+01 8.120867e+01 9.652867e+01 1.837135e+02 1.444380e+02 1.840278e+02 1.371665e+02 7.816692e+01 1.378179e+02 8.798116e+01 4.314216e+01 8.870124e+01 1.150691e+00 2.508362e+00 3.323739e+00 3.476712e+00 4.682550e+00 4.435737e+00 6.135361e+00 5.323594e+00 3.596824e+00 4.418061e+00 4.784096e+00 2.380677e+00 1.500213e+00 2.043549e-01 4.034140e-01 4.492331e-01 6.163276e-01 7.678761e-01 7.268088e-01 1.086618e+00 1.009568e+00 6.379799e-01 7.202445e-01 7.755145e-01 4.263971e-01 2.461298e-01
<GCONST> 1.392804e+02
<STATE> 3
<MEAN> 39
 4.977299e+00 -4.496888e+00 -8.058201e+00 -8.863690e+00 -1.834203e+00 -7.152841e+00 -1.599153e+00 -9.569468e+00 8.175480e-01 -1.983305e+00 -9.986499e+00 -5.446460e+00 7.005720e+01 -2.284665e-01 4.885138e-01 2.649412e-01 2.868558e-01 -2.130051e-01 2.844246e-01 -2.891814e-01 2.605712e-01 -3.154399e-01 -1.977285e-01 9.945788e-02 1.018270e-01 -6.393726e-01 -6.795861e-02 3.008451e-02 4.256418e-02 -6.214215e-02 -1.737466e-02 6.537035e-02 -5.569259e-02 1.090415e-01 -5.321329e-02 -2.618083e-02 6.231820e-02 -1.506763e-02 -3.944548e-02
<VARIANCE> 39
 3.983660e+01 9.136382e+01 6.553500e+01 7.887922e+01 1.849643e+02 1.184975e+02 1.823589e+02 1.330326e+02 8.222511e+01 1.150123e+02 1.274828e+02 4.519967e+01 9.841309e+01 6.549417e-01 1.480852e+00 1.633861e+00 2.054659e+00 2.600861e+00 2.312719e+00 2.599456e+00 2.947259e+00 2.330455e+00 2.596719e+00 2.609665e+00 1.675761e+00 1.095889e+00 9.593720e-02 2.322575e-01 2.344757e-01 3.150396e-01 4.384172e-01 4.001091e-01 4.148944e-01 5.606683e-01 4.100656e-01 4.455824e-01 4.402820e-01 2.987237e-01 1.215565e-01
<GCONST> 1.238559e+02
<STATE> 4
<MEAN> 39
 -4.838114e+00 -4.993512e+00 -5.882398e+00 -3.413205e+00 -5.682181e+00 -3.107830e+00 -5.584533e+00 -2.320697e+00 -4.189855e+00 -6.157188e+00 -3.940470e+00 -2.020409e+00 5.985448e+01 -2.322771e-01 3.063700e-02 9.821225e-02 4.514271e-02 -1.709503e-02 7.032011e-02 -5.640492e-02 9.641243e-02 -3.751830e-02 -2.518618e-02 7.480773e-02 4.041754e-02 -2.275049e-01 7.884060e-03 1.710556e-03 7.938061e-03 -1.233328e-02 1.285464e-02 2.205932e-03 8.357942e-03 -1.718266e-02 -1.083964e-02 5.370213e-03 -1.274863e-02 -1.298585e-02 1.286150e-02
<VARIANCE> 39
 6.621265e+01 9.405553e+01 5.077950e+01 5.235102e+01 6.238826e+01 6.752451e+01 6.053690e+01 6.428278e+01 6.096013e+01 5.697380e+01 5.060181e+01 3.734630e+01 2.690711e+02 4.792815e-01 7.297165e-01 9.327629e-01 1.178880e+00 1.533182e+00 1.669820e+00 1.707197e+00 1.944076e+00 1.897814e+00 1.775888e+00 1.801699e+00 1.461688e+00 4.300805e-01 5.464116e-02 1.130454e-01 1.323626e-01 1.883826e-01 2.434605e-01 2.783240e-01 2.926102e-01 3.201237e-01 3.307596e-01 3.173477e-01 3.070463e-01 2.704433e-01 4.665033e-02
<GCONST> 1.070817e+02
<TRANSP> 5
 0.000000e+00 1.000000e+00 0.000000e+00 0.000000e+00 0.000000e+00
 0.000000e+00 4.936096e-01 5.063903e-01 0.000000e+00 0.000000e+00
 0.000000e+00 0.000000e+00 5.563505e-01 4.436495e-01 0.000000e+00
 0.000000e+00 0.000000e+00 0.000000e+00 8.290790e-01 1.709211e-01
 0.000000e+00 0.000000e+00 0.000000e+00 0.000000e+00 0.000000e+00
<ENDHMM>
~h "m"
<BEGINHMM>
<NUMSTATES> 5
<STATE> 2
<MEAN> 39
 4.419039e+00 -3.404830e+00 -1.998608e+00 -3.205749e+00 -8.775854e+00 -1.510517e+00 -8.363424e+00 -9.663673e+00 -7.404928e+00 -6.703268e+00 -3.373163e+00 -4.798603e+00 6.832478e+01 2.187043e-01 7.206840e-01 2.371693e-01 7.707992e-01 -1.270330e-01 6.268685e-01 3.824513e-01 -9.731580e-01 -7.970147e-01 -4.937054e-01 -2.972141e-01 -1.520628e-01 -5.157282e-01 -8.093478e-02 -2.986835e-01 -2.139407e-01 -3.803230e-01 9.366431e-02 -6.867711e-03 5.222686e-02 3.275208e-01 2.276419e-01 3.597362e-02 -1.233158e-01 -6.087492e-02 2.833914e-01
<VARIANCE> 39
 3.888321e+01 8.346630e+01 5.253280e+01 8.625024e+01 1.050542e+02 8.697175e+01 1.093589e+02 8.976884e+01 5.638189e+01 5.624659e+01 5.232036e+01 3.318415e+01 1.162175e+02 1.066939e+00 1.961932e+00 3.558786e+00 4.209629e+00 2.754601e+00 3.557606e+00 2.819267e+00 3.399309e+00 2.859869e+00 2.518618e+00 2.724371e+00 2.000488e+00 1.305481e+00 1.727324e-01 3.436414e-01 4.427537e-01 5.939961e-01 4.460877e-01 4.717758e-01 4.767039e-01 6.353462e-01 5.565795e-01 4.533541e-01 5.233186e-01 3.703861e-01 2.090204e-01
<GCONST> 1.271984e+02
<STATE> 3
<MEAN> 39
 4.763442e+00 -3.691527e+00 -3.646137e+00 -4.610797e+00 -8.776253e+00 8.585804e-01 -6.527611e+00 -1.034872e+01 -7.498909e+00 -8.264977e+00 -5.222253e+00 -5.606554e+00 6.899650e+01 5.874561e-02 -3.032834e-02 -3.814772e-01 -2.083497e-01 2.682392e-01 1.579449e-01 2.773485e-01 -4.356356e-02 2.887301e-01 -1.451694e-01 -6.968918e-01 -3.194649e-01 1.728563e-01 -1.354816e-01 -2.123731e-01 -6.593527e-02 -2.116043e-01 1.081054e-01 -2.708547e-01 -1.332191e-01 3.630708e-01 2.732065e-01 1.968352e-01 8.845277e-02 1.084790e-01 1.886186e-01
<VARIANCE> 39
 4.599564e+01 7.897746e+01 6.746378e+01 9.539816e+01 1.452213e+02 1.096935e+02 1.215189e+02 9.981219e+01 6.398711e+01 6.645964e+01 5.551014e+01 3.379642e+01 1.188595e+02 9.597049e-01 2.254145e+00 3.482362e+00 3.670475e+00 3.215278e+00 3.412261e+00 2.525244e+00 2.682666e+00 4.089013e+00 2.444195e+00 4.333448e+00 2.131582e+00 1.455263e+00 1.840722e-01 3.911495e-01 6.447030e-01 7.926443e-01 5.936745e-01 7.031196e-01 4.823204e-01 6.072757e-01 6.421375e-01 5.363216e-01 6.232606e-01 3.839823e-01 2.371245e-01
<GCONST> 1.315835e+02
<STATE> 4
<MEAN> 39
 3.103462e+00 -1.052740e+00 -3.683840e+00 -4.261379e+00 -7.318499e+00 -2.638387e+00 -5.125070e+00 -7.796034e+00 -7.221940e+00 -8.891226e+00 -8.246771e+00 -6.784949e+00 6.407579e+01 -2.435250e-01 -5.506787e-02 -4.943941e-02 -5.245010e-02 4.614979e-02 -1.033426e-02 -7.386281e-02 3.144445e-01 1.266396e-01 6.725220e-02 2.140286e-02 5.297416e-02 -1.097727e-01 -6.544577e-02 -1.719620e-01 -3.947181e-02 -1.212907e-01 9.158158e-02 -2.063642e-02 -8.553032e-02 1.520380e-01 1.252432e-01 2.461509e-02 8.275260e-02 6.716113e-02 1.039087e-01
<VARIANCE> 39
 5.737353e+01 7.888528e+01 4.555725e+01 8.194149e+01 1.373428e+02 7.071090e+01 7.883370e+01 6.039495e+01 6.235242e+01 5.012613e+01 6.742316e+01 3.358463e+01 1.510722e+02 7.345840e-01 1.690351e+00 1.778725e+00 2.249743e+00 2.077453e+00 2.090553e+00 1.765529e+00 2.273449e+00 2.240150e+00 1.969601e+00 2.010429e+00 1.563519e+00 1.030718e+00 1.098277e-01 2.422708e-01 2.876473e-01 3.363980e-01 3.988917e-01 3.485580e-01 3.302428e-01 4.055634e-01 3.967737e-01 3.546520e-01 3.478053e-01 2.796296e-01 1.205073e-01
<GCONST> 1.175278e+02
<TRANSP> 5
 0.000000e+00 1.000000e+00 0.000000e+00 0.000000e+00 0.000000e+00
 0.000000e+00 3.007718e-01 6.992282e-01 0.000000e+00 0.000000e+00
 0.000000e+00 0.000000e+00 2.290805e-01 7.709195e-01 0.000000e+00
 0.000000e+00 0.000000e+00 0.000000e+00 6.720305e-01 3.279695e-01
 0.000000e+00 0.000000e+00 0.000000e+00 0.000000e+00 0.000000e+00
<ENDHMM>
~h "n"
<BEGINHMM>
<NUMSTATES> 5
<STATE> 2
<MEAN> 39
 2.297773e+00 -6.049731e+00 -1.380971e+00 -2.644372e+00 -9.774779e+00 -5.703873e+00 -9.887765e+00 -5.214229e+00 -4.841238e+00 -6.525222e+00 -7.655608e+00 -5.789015e+00 6.981523e+01 2.546590e-01 1.460528e+00 6.727487e-01 1.412987e+00 -4.342325e-01 1.090772e-01 1.570858e-01 -1.526883e+00 1.110198e-01 -1.864526e-01 -3.946954e-01 -1.456037e-02 -1.414253e+00 -1.350104e-01 -1.933765e-01 -9.354937e-02 -2.278162e-01 8.961123e-02 1.449365e-01 1.370243e-01 1.339279e-01 1.188978e-02 1.688189e-02 1.076379e-01 9.187281e-02 1.475900e-01
<VARIANCE> 39
 3.938026e+01 6.841665e+01 4.665934e+01 7.680455e+01 1.125840e+02 6.808971e+01 1.171794e+02 7.978707e+01 5.145230e+01 6.127721e+01 5.197162e+01 3.307492e+01 1.288785e+02 1.103137e+00 2.222360e+00 2.521211e+00 2.606354e+00 3.617206e+00 2.998701e+00 2.939589e+00 6.062748e+00 2.992245e+00 2.487525e+00 2.669125e+00 2.101958e+00 1.346857e+00 1.421221e-01 3.469354e-01 3.030193e-01 4.028760e-01 5.220757e-01 4.504767e-01 4.090051e-01 6.500280e-01 4.422367e-01 3.899878e-01 4.105973e-01 3.135384e-01 2.162706e-01
<GCONST> 1.250620e+02
<STATE> 3
<MEAN> 39
 2.549560e+00 -4.632890e+00 9.147149e-02 -6.932815e-01 -1.098798e+01 -4.976655e+00 -1.055404e+01 -8.782161e+00 -4.435884e+00 -7.149526e+00 -8.802107e+00 -5.383822e+00 6.706405e+01 -2.702787e-01 6.315860e-01 4.841228e-02 3.436383e-01 2.592480e-01 3.024301e-01 2.459071e-01 -1.741579e-01 -1.775475e-02 5.193371e-04 8.162078e-02 7.644276e-02 -7.924720e-01 -1.933580e-01 -3.082718e-01 -1.725831e-01 -3.774562e-01 2.109476e-01 3.959302e-02 6.855401e-03 4.373882e-01 -2.449842e-02 7.604641e-02 1.722118e-01 1.597977e-02 2.346083e-01
<VARIANCE> 39
 3.632416e+01 5.987671e+01 4.336699e+01 6.756186e+01 1.172138e+02 5.937527e+01 9.919419e+01 8.232557e+01 4.901718e+01 5.889972e+01 4.679141e+01 3.200475e+01 1.131687e+02 1.032543e+00 1.699973e+00 1.467232e+00 1.688618e+00 2.502464e+00 2.062020e+00 2.056596e+00 3.126368e+00 2.301732e+00 1.971456e+00 2.160330e+00 1.762043e+00 9.993484e-01 1.513435e-01 3.323727e-01 3.801148e-01 4.381443e-01 6.114094e-01 4.430536e-01 4.524085e-01 7.313148e-01 4.595695e-01 4.245445e-01 4.342581e-01 3.664909e-01 1.934162e-01
<GCONST> 1.207198e+02
<STATE> 4
<MEAN> 39
 -6.595589e+00 -3.982610e+00 -5.047438e+00 -1.849957e+00 -4.900740e+00 -3.462941e+00 -6.352170e+00 -2.312304e+00 -4.301417e+00 -6.013384e+00 -4.030538e+00 -2.254319e+00 5.499688e+01 -2.067208e-01 1.587306e-02 -8.256149e-02 -2.064011e-02 4.423625e-02 8.603784e-02 3.482737e-02 7.376892e-02 1.350780e-02 8.455721e-02 1.261387e-01 5.857700e-02 -2.348017e-01 -1.343613e-02 -4.393604e-02 3.468834e-03 -5.569760e-02 2.524548e-02 -1.794486e-02 -5.315656e-03 3.238786e-02 -9.242250e-03 -1.460774e-03 3.263301e-03 3.674291e-03 7.154806e-02
<VARIANCE> 39
 6.656741e+01 5.554342e+01 4.934690e+01 4.350421e+01 6.418720e+01 5.260691e+01 5.721104e+01 4.998910e+01 4.086626e+01 3.690400e+01 4.467341e+01 3.804539e+01 1.459684e+02 4.512141e-01 7.471064e-01 8.817075e-01 1.052425e+00 1.427950e+00 1.521945e+00 1.561328e+00 1.803096e+00 1.801509e+00 1.669412e+00 1.681467e+00 1.422520e+00 4.351885e-01 8.640257e-02 1.371113e-01 1.567187e-01 2.123277e-01 2.713262e-01 2.701812e-01 3.024797e-01 3.617996e-01 3.388186e-01 3.237577e-01 3.204072e-01 2.707283e-01 6.281882e-02
<GCONST> 1.050915e+02
<TRANSP> 5
 0.000000e+00 1.000000e+00 0.000000e+00 0.000000e+00 0.000000e+00
 0.000000e+00 2.292039e-01 7.707961e-01 0.000000e+00 0.000000e+00
 0.000000e+00 0.000000e+00 4.754628e-01 5.245372e-01 0.000000e+00
 0.000000e+00 0.000000e+00 0.000000e+00 8.486685e-01 1.513315e-01
 0.000000e+00 0.000000e+00 0.000000e+00 0.000000e+00 0.000000e+00
<ENDHMM>
~h "o"
<BEGINHMM>
<NUMSTATES> 5
<STATE> 2
<MEAN> 39
 -1.454543e+00 -4.511388e+00 -5.573443e+00 -1.093446e+01 -5.714719e+00 -1.368296e+00 -6.685091e+00 -6.890038e+00 -3.439527e+00 -4.164625e+00 -2.090791e+00 -3.897904e+00 6.719426e+01 1.489328e+00 -4.795320e-01 -1.016915e+00 -1.435060e+00 2.172110e-02 7.460679e-01 -2.001540e-01 -6.277624e-01 -1.132918e-01 2.159758e-01 3.242882e-01 -2.408880e-01 1.259354e+00 8.418995e-02 -1.891959e-02 7.457253e-03 1.220192e-01 6.697431e-02 -3.947976e-02 6.348986e-03 1.072172e-02 -3.416779e-02 3.933679e-02 -4.583549e-02 -9.382702e-02 1.687578e-02
<VARIANCE> 39
 7.455425e+01 8.065139e+01 1.105406e+02 1.458901e+02 1.054205e+02 9.373472e+01 9.851266e+01 7.666015e+01 6.853893e+01 4.970378e+01 5.593641e+01 3.626974e+01 1.495245e+02 7.144624e+00 3.967260e+00 6.800920e+00 6.873312e+00 6.959639e+00 7.441194e+00 5.054690e+00 6.263237e+00 4.773968e+00 4.289419e+00 5.151814e+00 3.240142e+00 4.708645e+00 1.055093e+00 6.861157e-01 9.989341e-01 1.259629e+00 1.069697e+00 1.097114e+00 9.090049e-01 1.056874e+00 8.704726e-01 6.392105e-01 7.229195e-01 5.028142e-01 7.576671e-01
<GCONST> 1.490771e+02
<STATE> 3
<MEAN> 39
 5.659265e+00 -6.272999e+00 -1.094132e+01 -1.643078e+01 -5.359181e+00 1.030090e+00 -6.842821e+00 -9.525449e+00 -3.248595e+00 -1.870830e+00 7.928053e-01 -5.574883e+00 7.186461e+01 8.287361e-01 -4.524431e-01 2.666172e-02 2.378944e-01 1.315054e-02 -9.668861e-03 -4.391647e-01 -3.042845e-01 2.902472e-02 3.197928e-01 2.555173e-02 -4.522744e-01 4.664573e-01 -5.926010e-01 3.538862e-01 4.317563e-01 7.269375e-01 1.386932e-01 -4.126610e-01 4.698010e-02 3.134612e-01 3.052828e-02 -1.052094e-01 -2.861232e-01 5.836768e-02 -5.809695e-01
<VARIANCE> 39
 4.115084e+01 9.106853e+01 5.728852e+01 1.411473e+02 1.070752e+02 8.874605e+01 1.263281e+02 8.774846e+01 7.444270e+01 6.582891e+01 1.124269e+02 4.175893e+01 7.029385e+01 2.574055e+00 3.824425e+00 3.418453e+00 4.573164e+00 4.883697e+00 6.138829e+00 4.678858e+00 5.261637e+00 5.230782e+00 3.659702e+00 4.699876e+00 2.770577e+00 2.792198e+00 5.783610e-01 7.089416e-01 6.848346e-01 8.256055e-01 1.153716e+00 1.010753e+00 8.111863e-01 9.512022e-01 9.479972e-01 7.473891e-01 9.256370e-01 6.000780e-01 4.221511e-01
<GCONST> 1.434040e+02
<STATE> 4
<MEAN> 39
 5.194880e+00 -6.379970e+00 -1.025946e+01 -1.412746e+01 -6.295089e+00 1.705985e-01 -7.463166e+00 -6.867656e+00 -3.325379e+00 -2.785728e+00 -1.607203e+00 -6.043352e+00 6.935908e+01 -3.956463e-01 8.008836e-01 6.247649e-01 1.409789e+00 -2.693017e-02 -6.805754e-01 -2.737140e-02 1.985702e-01 1.108941e-01 -1.307584e-01 -5.475873e-01 2.083085e-02 -1.004525e+00 -3.093844e-01 1.679145e-01 1.926908e-01 2.450313e-01 4.713159e-03 -1.568557e-01 1.252499e-01 9.649658e-03 1.479813e-03 -6.636213e-02 1.477476e-03 1.243319e-01 -2.482065e-01
<VARIANCE> 39
 3.816649e+01 9.759264e+01 4.351110e+01 9.968897e+01 6.562466e+01 8.490589e+01 1.178838e+02 6.395937e+01 4.793487e+01 6.391109e+01 7.513111e+01 3.762786e+01 8.196247e+01 1.561990e+00 3.199570e+00 2.247248e+00 3.748213e+00 3.368817e+00 4.284363e+00 2.713631e+00 3.111394e+00 2.797607e+00 2.470411e+00 2.725077e+00 1.813494e+00 1.919294e+00 2.885473e-01 5.494557e-01 3.510979e-01 5.976965e-01 5.929244e-01 6.669449e-01 5.685650e-01 5.274140e-01 5.552951e-01 4.977724e-01 4.743959e-01 3.684382e-01 2.885188e-01
<GCONST> 1.291265e+02
<TRANSP> 5
 0.000000e+00 1.000000e+00 0.000000e+00 0.000000e+00 0.000000e+00
 0.000000e+00 4.616584e-01 5.383416e-01 0.000000e+00 0.000000e+00
 0.000000e+00 0.000000e+00 4.667565e-01 5.332435e-01 0.000000e+00
 0.000000e+00 0.000000e+00 0.000000e+00 6.251338e-01 3.748662e-01
 0.000000e+00 0.000000e+00 0.000000e+00 0.000000e+00 0.000000e+00
<ENDHMM>
~h "p"
<BEGINHMM>
<NUMSTATES> 5
<STATE> 2
<MEAN> 39
 -5.975355e+00 -3.493186e+00 -5.430504e+00 -5.019979e+00 -6.163304e+00 -3.652982e+00 -8.948226e+00 -6.205299e+00 -3.446260e+00 -4.040692e+00 -4.259187e+00 -4.521025e+00 5.682533e+01 -5.906913e-01 -3.460726e-01 -5.532432e-01 -3.659980e-01 9.259520e-02 -3.087510e-01 2.134748e-01 3.065169e-01 2.137451e-01 3.291334e-01 4.042967e-01 2.812975e-01 3.146526e-01 4.667317e-01 -4.222985e-01 -1.605805e-01 -4.840543e-01 -2.210382e-01 -3.157755e-02 -7.335361e-02 4.699080e-02 -2.599537e-02 -4.387209e-02 9.999675e-02 -3.986683e-02 1.014012e+00
<VARIANCE> 39
 6.501671e+01 4.253766e+01 4.384987e+01 5.140039e+01 5.394542e+01 4.996007e+01 8.611066e+01 6.888767e+01 4.429024e+01 4.120361e+01 3.618179e+01 3.298534e+01 1.084893e+02 3.725758e+00 2.579580e+00 3.134234e+00 3.381095e+00 3.937933e+00 3.677845e+00 3.516586e+00 3.961014e+00 3.382806e+00 3.047571e+00 2.946542e+00 2.489512e+00 6.189805e+00 6.805474e-01 5.055497e-01 6.011007e-01 6.558652e-01 8.032961e-01 7.649770e-01 6.705270e-01 7.690294e-01 6.381692e-01 5.951822e-01 6.326708e-01 5.075221e-01 6.297640e-01
<GCONST> 1.335562e+02
<STATE> 3
<MEAN> 39
 2.225977e-01 -9.783637e+00 -3.687737e+00 -4.929776e-01 -1.335130e+01 7.579795e-01 -1.285181e+01 -2.724018e+00 -2.012080e+00 -9.962750e+00 -2.499129e+00 2.435273e-02 6.867139e+01 8.895240e-01 -7.722175e-01 -5.237834e-01 -9.965358e-01 -3.243352e-01 -1.042718e-01 -4.283926e-02 -8.283357e-02 -6.176703e-02 -2.114829e-02 2.358218e-01 -4.501075e-02 1.780392e+00 3.698150e-01 -7.511825e-02 3.710248e-02 -5.842647e-02 -6.870507e-02 4.219598e-02 -5.369558e-02 -1.523739e-01 -1.018678e-01 -1.045867e-01 -1.731802e-01 -1.760032e-01 1.489683e-01
<VARIANCE> 39
 1.078937e+02 1.162583e+02 9.154602e+01 1.293508e+02 1.520252e+02 1.131207e+02 1.246273e+02 8.137037e+01 5.535365e+01 1.499673e+02 5.830727e+01 5.005230e+01 1.252212e+02 7.416115e+00 7.259575e+00 7.703008e+00 6.501702e+00 8.150021e+00 8.264264e+00 5.975849e+00 5.245250e+00 4.670931e+00 5.109361e+00 5.647498e+00 3.799494e+00 8.760489e+00 1.119426e+00 1.269739e+00 1.115248e+00 9.747672e-01 1.423703e+00 1.441073e+00 1.187753e+00 1.123679e+00 8.673787e-01 9.957457e-01 1.068506e+00 6.880231e-01 9.676349e-01
<GCONST> 1.562222e+02
<STATE> 4
<MEAN> 39
 1.805010e+00 -7.387604e+00 -9.194423e+00 -9.967821e+00 -7.653848e+00 -3.600064e+00 -7.513657e+00 -5.782190e+00 -2.912115e+00 -2.698533e+00 -2.005046e+00 -4.790975e+00 7.145529e+01 1.961202e+00 -1.472349e+00 -2.768631e-01 -9.731541e-01 -6.060607e-01 -5.586808e-02 -2.446102e-01 -4.686955e-01 -9.564252e-03 -2.318719e-01 -4.449429e-01 -6.225384e-01 2.315843e+00 -3.950375e-01 2.362708e-01 4.953623e-01 5.231443e-01 1.087039e-01 -9.733572e-03 -1.031821e-01 6.207824e-02 1.398348e-03 -1.032145e-01 -3.162180e-01 2.967802e-02 -7.497578e-01
<VARIANCE> 39
 5.829329e+01 6.483421e+01 6.628387e+01 1.169879e+02 8.834204e+01 6.605302e+01 8.478637e+01 6.900478e+01 4.660939e+01 6.094106e+01 5.018843e+01 3.820994e+01 1.132873e+02 6.327594e+00 5.943933e+00 6.243330e+00 6.676305e+00 7.711016e+00 8.363924e+00 6.198414e+00 6.494877e+00 5.430647e+00 4.917831e+00 5.875860e+00 3.659787e+00 5.699800e+00 7.954924e-01 7.362291e-01 7.671278e-01 1.073093e+00 1.002214e+00 1.042354e+00 8.418422e-01 9.344704e-01 8.189231e-01 8.003049e-01 8.466824e-01 6.737813e-01 9.351926e-01
<GCONST> 1.477933e+02
<TRANSP> 5
 0.000000e+00 1.000000e+00 0.000000e+00 0.000000e+00 0.000000e+00
 0.000000e+00 6.486669e-01 3.513331e-01 0.000000e+00 0.000000e+00
 0.000000e+00 0.000000e+00 5.573453e-01 4.426546e-01 0.000000e+00
 0.000000e+00 0.000000e+00 0.000000e+00 2.342310e-01 7.657691e-01
 0.000000e+00 0.000000e+00 0.000000e+00 0.000000e+00 0.000000e+00
<ENDHMM>
~h "q"
<BEGINHMM>
<NUMSTATES> 5
<STATE> 2
<MEAN> 39
 -2.571850e+00 -1.981916e+01 2.742112e+00 -1.310751e+01 -1.126164e+01 -1.247931e-01 -1.614617e+00 -3.658843e+00 -1.230419e+01 -1.030231e+01 -6.900490e+00 -3.565363e+00 6.959473e+01 9.643105e-02 7.697891e-02 -2.349225e-01 3.542266e-01 -3.003383e-02 -5.471198e-01 -1.248307e-01 6.510507e-02 -3.198756e-01 -5.092699e-01 1.409541e-01 2.312061e-01 -1.556221e-01 -1.263657e-02 2.282448e-01 -8.693509e-02 1.500682e-01 1.108201e-01 -1.121244e-01 3.256341e-02 -4.024844e-02 6.206966e-02 3.761854e-02 -5.679215e-02 1.699778e-02 -1.637419e-01
<VARIANCE> 39
 1.234180e+01 1.302780e+02 7.920591e+01 3.342795e+01 4.913634e+01 4.001972e+01 1.453869e+02 2.869964e+01 2.391962e+01 2.896238e+01 3.598232e+01 1.568702e+01 1.459807e+01 3.429214e-01 1.454972e+00 7.821528e-01 1.397819e+00 9.796770e-01 1.503288e+00 1.164308e+00 1.253045e+00 1.523638e+00 1.833981e+00 1.053691e+00 8.012071e-01 5.908237e-01 6.087769e-02 1.453484e-01 1.868317e-01 3.004668e-01 2.806573e-01 2.161296e-01 1.781891e-01 2.017029e-01 2.290661e-01 2.796164e-01 1.767273e-01 1.253061e-01 9.728278e-02
<GCONST> 9.628563e+01
<STATE> 3
<MEAN> 39
 -6.991187e+00 -8.789797e+00 -2.447854e+00 -4.071153e+00 -4.647109e+00 -4.208230e+00 -9.945073e-01 -1.690647e+00 -8.241527e+00 -1.047171e+01 -4.203436e+00 -1.117603e+00 5.905356e+01 -7.725548e-01 4.556216e-01 -5.759581e-01 4.859513e-01 5.229960e-01 9.544459e-02 4.358663e-01 -3.602277e-02 7.465598e-01 6.679370e-01 1.717247e-01 1.965174e-01 -1.119562e+00 -5.596395e-02 -1.687692e-01 3.964315e-02 -1.585362e-01 -6.938604e-02 9.831105e-02 -6.863226e-02 -1.736527e-02 -4.152268e-02 6.153366e-02 -2.687659e-02 4.478722e-02 1.052349e-01
<VARIANCE> 39
 2.901333e+01 5.586622e+01 5.701891e+01 2.192689e+01 7.442219e+01 1.895539e+01 5.201479e+01 4.037181e+01 6.495863e+01 5.357592e+01 1.678486e+01 2.354773e+01 4.596352e+01 1.376242e+00 2.493575e+00 1.301391e+00 2.210577e+00 1.569870e+00 2.127417e+00 3.073921e+00 1.476819e+00 2.861139e+00 2.144338e+00 1.147466e+00 1.726252e+00 7.322552e-01 1.781011e-01 4.261475e-01 1.802429e-01 2.884537e-01 2.576885e-01 4.459884e-01 4.367861e-01 3.339659e-01 6.396790e-01 5.547289e-01 2.076083e-01 3.493786e-01 7.743000e-02
<GCONST> 1.104155e+02
<STATE> 4
<MEAN> 39
 -8.242332e+00 -6.559555e+00 -6.967774e+00 -3.665354e+00 -1.022718e+00 -1.997742e+00 -2.339554e+00 -5.337309e-01 -3.922162e+00 -4.148770e+00 -2.036838e+00 1.539589e+00 5.147884e+01 -2.284202e-02 -3.228758e-02 -6.765370e-02 1.330325e-02 -4.884955e-02 -8.392023e-04 -5.228649e-02 -6.569210e-02 -7.723738e-03 2.657469e-02 -6.932078e-02 -4.670283e-02 -6.222229e-02 -2.277086e-03 1.211261e-02 -6.042616e-03 4.520813e-03 6.770307e-03 -1.418160e-03 1.767988e-03 1.112201e-03 -3.209339e-03 -5.764443e-03 -2.416524e-03 -2.172928e-02 1.225286e-02
<VARIANCE> 39
 2.618854e+01 1.730935e+01 2.954130e+01 1.519922e+01 4.413037e+01 2.997760e+01 2.172546e+01 2.212436e+01 1.959345e+01 2.935978e+01 1.935579e+01 2.166919e+01 2.072217e+01 2.302337e-01 3.937924e-01 5.877358e-01 7.216713e-01 1.177082e+00 1.041577e+00 1.124566e+00 1.243447e+00 1.461452e+00 1.484892e+00 1.397293e+00 1.413305e+00 1.067595e-01 5.222145e-02 7.758261e-02 1.123806e-01 1.427419e-01 2.311538e-01 2.008123e-01 2.268901e-01 2.258198e-01 2.906737e-01 2.753807e-01 2.796786e-01 2.849774e-01 1.880796e-02
<GCONST> 8.447662e+01
<TRANSP> 5
 0.000000e+00 1.000000e+00 0.000000e+00 0.000000e+00 0.000000e+00
 0.000000e+00 8.438070e-01 1.561930e-01 0.000000e+00 0.000000e+00
 0.000000e+00 0.000000e+00 8.055027e-01 1.944972e-01 0.000000e+00
 0.000000e+00 0.000000e+00 0.000000e+00 9.613780e-01 3.862194e-02
 0.000000e+00 0.000000e+00 0.000000e+00 0.000000e+00 0.000000e+00
<ENDHMM>
~h "r"
<BEGINHMM>
<NUMSTATES> 5
<STATE> 2
<MEAN> 39
 1.208603e+00 -8.727084e+00 -4.810781e+00 -3.174025e+00 -1.032766e+01 -5.016781e+00 -9.901419e+00 -4.922163e+00 -1.521573e+00 -5.331191e+00 -4.910604e+00 -3.910386e+00 7.247856e+01 -4.751769e-01 5.193661e-01 6.156997e-01 6.802821e-01 8.950382e-02 5.151191e-02 -1.744206e-01 -3.007326e-03 1.383895e-01 -7.166672e-02 2.010755e-01 1.664614e-01 -6.787761e-01 -1.552589e-01 -5.526051e-02 3.107285e-02 -2.586778e-01 9.101798e-02 7.764099e-02 3.341184e-02 1.045599e-01 -2.262844e-01 3.616015e-02 1.540061e-01 -2.418686e-02 3.829758e-02
<VARIANCE> 39
 5.608978e+01 7.321260e+01 6.742728e+01 7.989864e+01 1.212138e+02 9.617223e+01 1.108150e+02 1.075317e+02 8.047319e+01 7.757173e+01 5.377358e+01 3.934259e+01 1.039743e+02 3.981888e+00 3.714473e+00 3.739154e+00 3.316295e+00 5.017998e+00 4.542695e+00 3.435752e+00 4.673891e+00 3.610089e+00 3.663918e+00 3.653351e+00 2.582292e+00 2.433821e+00 6.272626e-01 6.040215e-01 5.498060e-01 5.664358e-01 8.254971e-01 7.584574e-01 6.348304e-01 9.227048e-01 7.994677e-01 6.526783e-01 6.850380e-01 5.005691e-01 4.136344e-01
<GCONST> 1.394659e+02
<STATE> 3
<MEAN> 39
 9.983274e-02 -6.700028e+00 -3.967021e+00 -2.459993e+00 -8.415326e+00 -5.879239e+00 -8.633838e+00 -4.059124e+00 -2.222747e+00 -4.617614e+00 -3.908646e+00 -3.720149e+00 7.120596e+01 -5.150515e-01 2.148010e-01 4.915985e-01 1.492906e-01 7.681894e-02 1.571641e-01 -8.242670e-02 7.428664e-02 -2.182600e-01 3.545541e-02 3.303081e-01 4.660691e-02 -3.771289e-01 4.253469e-02 -2.508125e-01 -9.971324e-02 -3.944880e-01 -6.961114e-02 6.705815e-02 3.246188e-02 4.110199e-02 -2.016760e-01 1.555863e-02 3.041144e-02 -6.108298e-02 2.498918e-01
<VARIANCE> 39
 5.948581e+01 6.101448e+01 6.589423e+01 7.950062e+01 1.078396e+02 8.852122e+01 1.082403e+02 9.173666e+01 7.553651e+01 6.057275e+01 4.984529e+01 3.619992e+01 1.214556e+02 3.151733e+00 3.046648e+00 3.180429e+00 2.605896e+00 4.194453e+00 3.691574e+00 3.061952e+00 4.147415e+00 3.721146e+00 3.604388e+00 3.213941e+00 2.348266e+00 2.151043e+00 5.092462e-01 6.004613e-01 5.081792e-01 6.718428e-01 8.661342e-01 7.353529e-01 6.570129e-01 6.913334e-01 6.743618e-01 5.687077e-01 6.379046e-01 5.394138e-01 4.411196e-01
<GCONST> 1.362289e+02
<STATE> 4
<MEAN> 39
 -5.539957e-01 -7.048224e+00 -3.624494e+00 -3.221208e+00 -8.633155e+00 -5.473889e+00 -8.631076e+00 -4.001605e+00 -2.360576e+00 -4.227262e+00 -3.401119e+00 -3.570156e+00 7.133996e+01 -1.959745e-01 -1.768668e-01 1.843445e-01 -4.001033e-01 -1.400469e-01 2.056964e-01 -3.461227e-03 -2.143728e-02 -3.962530e-01 2.190913e-02 2.183861e-01 -4.431552e-02 3.675689e-02 1.190907e-01 -1.511406e-01 -9.572764e-02 -2.265866e-01 -3.115642e-02 2.478207e-02 4.029752e-02 -1.233801e-02 -9.469232e-02 -2.556196e-02 -7.418325e-02 -6.466112e-02 2.000157e-01
<VARIANCE> 39
 6.997231e+01 6.553385e+01 7.388712e+01 7.910878e+01 1.074129e+02 9.426338e+01 1.044411e+02 9.184103e+01 7.328630e+01 6.018222e+01 4.540218e+01 3.325594e+01 1.391462e+02 3.089780e+00 3.379283e+00 3.060218e+00 2.905900e+00 4.453723e+00 3.555243e+00 3.305588e+00 4.114064e+00 3.983455e+00 3.380195e+00 3.319468e+00 2.452729e+00 2.564366e+00 4.943495e-01 5.325826e-01 4.981007e-01 5.794642e-01 7.673416e-01 6.994654e-01 6.269775e-01 6.327268e-01 6.399980e-01 6.022187e-01 5.334274e-01 4.932057e-01 4.117827e-01
<GCONST> 1.360618e+02
<TRANSP> 5
 0.000000e+00 1.000000e+00 0.000000e+00 0.000000e+00 0.000000e+00
 0.000000e+00 2.068388e-01 7.931612e-01 0.000000e+00 0.000000e+00
 0.000000e+00 0.000000e+00 9.787772e-03 9.902123e-01 0.000000e+00
 0.000000e+00 0.000000e+00 0.000000e+00 2.156655e-01 7.843345e-01
 0.000000e+00 0.000000e+00 0.000000e+00 0.000000e+00 0.000000e+00
<ENDHMM>
~h "s"
<BEGINHMM>
<NUMSTATES> 5
<STATE> 2
<MEAN> 39
 -7.619905e+00 5.584192e-01 -3.992540e-01 -6.561103e+00 -1.289137e-01 -9.598187e+00 -4.629039e+00 -2.835423e+00 -4.310747e+00 -4.965146e+00 -4.837453e+00 -4.485173e+00 6.822639e+01 -3.642349e+00 1.522957e+00 2.368029e-01 -4.913785e-01 2.101387e+00 -7.217339e-01 1.208661e+00 7.095852e-01 3.703637e-01 -1.012886e-01 1.083534e+00 2.214245e-01 -8.154141e-03 -1.133754e-01 -3.961820e-01 -2.458477e-01 -1.859317e-01 -3.340022e-01 1.660530e-01 -1.618651e-01 -6.044248e-02 9.910288e-02 -5.972552e-02 1.683371e-01 2.220253e-02 1.278748e-01
<VARIANCE> 39
 9.571330e+01 8.061784e+01 6.981963e+01 1.101254e+02 1.771540e+02 1.123999e+02 1.304816e+02 7.644382e+01 7.340325e+01 5.356052e+01 6.031824e+01 3.669238e+01 1.022898e+02 6.141298e+00 4.948992e+00 4.588703e+00 5.905127e+00 7.267068e+00 5.779439e+00 4.143948e+00 4.828085e+00 3.998556e+00 4.201772e+00 3.625764e+00 2.838428e+00 1.481361e+00 1.043668e+00 6.595448e-01 5.549056e-01 7.592974e-01 1.162344e+00 9.259750e-01 7.085386e-01 7.374619e-01 7.151110e-01 6.367390e-01 6.390260e-01 4.747628e-01 1.864094e-01
<GCONST> 1.428100e+02
<STATE> 3
<MEAN> 39
 -2.087827e+01 2.729156e+00 -1.354560e+00 -1.019644e+01 4.279249e+00 -1.117776e+01 -2.980143e+00 -7.912073e-01 -2.050043e+00 -5.586301e+00 -2.791272e-01 -2.825943e+00 6.809117e+01 -3.449977e-01 -6.095621e-01 -3.533108e-01 1.437771e-02 -4.578358e-01 2.141745e-01 9.490587e-02 7.087193e-02 2.086599e-01 1.246607e-01 9.879282e-02 2.152882e-01 -3.396920e-01 1.171103e+00 -3.035790e-01 7.828624e-03 7.196557e-02 -4.686627e-01 -1.908862e-02 -2.995827e-01 -2.342765e-01 -8.932133e-02 8.161620e-02 -3.131159e-01 -1.059040e-01 3.288265e-03
<VARIANCE> 39
 8.519827e+01 7.401657e+01 6.918512e+01 1.169979e+02 1.494185e+02 9.413465e+01 1.051520e+02 6.854126e+01 5.984906e+01 4.262864e+01 3.740453e+01 3.500191e+01 8.395461e+01 5.194998e+00 1.846616e+00 2.279388e+00 1.889979e+00 2.667017e+00 2.676524e+00 2.726818e+00 2.891469e+00 2.729720e+00 2.460362e+00 2.483793e+00 1.861664e+00 9.939581e-01 7.419821e-01 4.893326e-01 4.614840e-01 5.265118e-01 5.827979e-01 5.775416e-01 5.846595e-01 6.753367e-01 5.647471e-01 5.952046e-01 4.970823e-01 4.208162e-01 2.163508e-01
<GCONST> 1.298614e+02
<STATE> 4
<MEAN> 39
 -1.090312e+01 -3.493534e+00 -3.578922e+00 -6.637042e+00 -4.486246e+00 -8.877883e+00 -3.264942e+00 -2.743143e+00 -2.829193e+00 -4.436507e+00 -3.483760e+00 -3.404171e+00 6.661636e+01 3.509070e+00 -9.245163e-01 -2.826951e-01 -4.228300e-01 -1.415648e+00 -1.521876e-01 -1.187866e+00 -9.163478e-01 -9.900569e-02 -6.841682e-02 -7.299919e-01 -3.614896e-01 7.915944e-01 2.757329e-01 -3.406885e-02 1.248657e-01 -1.198846e-01 -1.186065e-02 5.061254e-02 -2.094291e-01 -1.128670e-01 -1.299310e-01 -1.495248e-01 -2.283415e-02 -4.508945e-02 3.215748e-01
<VARIANCE> 39
 9.698628e+01 6.420516e+01 6.458567e+01 8.895499e+01 1.241572e+02 9.297147e+01 8.443156e+01 6.720628e+01 6.591239e+01 4.292402e+01 4.068480e+01 3.138287e+01 1.152287e+02 9.050204e+00 4.505117e+00 5.600845e+00 4.209631e+00 5.404331e+00 4.377400e+00 4.927424e+00 5.506305e+00 4.585376e+00 4.806159e+00 3.827497e+00 3.339362e+00 3.182261e+00 1.209688e+00 4.901613e-01 5.136070e-01 4.992081e-01 6.282890e-01 6.596619e-01 7.937736e-01 7.284520e-01 6.343619e-01 6.197885e-01 6.242861e-01 4.573622e-01 3.861116e-01
<GCONST> 1.405945e+02
<TRANSP> 5
 0.000000e+00 1.000000e+00 0.000000e+00 0.000000e+00 0.000000e+00
 0.000000e+00 5.515015e-01 4.484985e-01 0.000000e+00 0.000000e+00
 0.000000e+00 0.000000e+00 6.986459e-01 3.013541e-01 0.000000e+00
 0.000000e+00 0.000000e+00 0.000000e+00 5.145367e-01 4.854632e-01
 0.000000e+00 0.000000e+00 0.000000e+00 0.000000e+00 0.000000e+00
<ENDHMM>
~h "t"
<BEGINHMM>
<NUMSTATES> 5
<STATE> 2
<MEAN> 39
 -4.725948e+00 -2.510865e+00 -3.072509e+00 -2.857472e+00 -7.163076e+00 -5.480482e+00 -6.448635e+00 -4.706435e+00 -3.883067e+00 -5.285544e+00 -5.203689e+00 -4.002292e+00 5.888350e+01 -1.176317e+00 -1.182228e-01 -2.865459e-01 5.791554e-02 6.398961e-01 2.702149e-01 2.127081e-01 3.640083e-02 3.247139e-02 3.393357e-01 4.198021e-01 1.631729e-01 -1.031046e+00 5.220882e-02 -5.124618e-01 -9.216660e-02 -5.745522e-01 -8.924253e-02 -2.435196e-01 -3.063201e-02 1.356879e-01 -5.258901e-02 4.502275e-02 8.106586e-02 8.406128e-02 8.414013e-01
<VARIANCE> 39
 5.032079e+01 3.887909e+01 4.050521e+01 5.033026e+01 6.467567e+01 5.387603e+01 7.705462e+01 6.047045e+01 4.410648e+01 4.730240e+01 3.498913e+01 3.086817e+01 1.221313e+02 2.238650e+00 2.327902e+00 2.097918e+00 2.450966e+00 3.072639e+00 3.005964e+00 2.589201e+00 2.848515e+00 2.611901e+00 2.528540e+00 2.446425e+00 1.875450e+00 2.708040e+00 5.139109e-01 5.540527e-01 4.737312e-01 6.034527e-01 7.338381e-01 6.881837e-01 5.772761e-01 6.469030e-01 6.025476e-01 5.255151e-01 5.715733e-01 4.346828e-01 5.745542e-01
<GCONST> 1.275557e+02
<STATE> 3
<MEAN> 39
 -7.834268e+00 -3.465569e+00 -4.241249e+00 -4.933058e+00 -4.688920e+00 -5.663738e+00 -7.005313e+00 -3.952420e+00 -3.556754e+00 -2.652404e+00 -2.906885e+00 -3.038400e+00 6.115260e+01 -6.074377e-01 -1.240492e+00 -2.524391e-01 -1.678519e+00 3.058212e-01 -8.453193e-01 2.033575e-01 7.152373e-01 -2.165834e-02 1.252177e-01 4.456743e-01 3.862450e-01 2.318949e+00 8.259458e-01 -2.736014e-01 8.676628e-02 -2.882328e-01 -3.758890e-01 -1.567573e-01 -3.123519e-01 -1.013609e-01 -5.550123e-02 -1.973474e-01 -2.159020e-01 -1.767101e-01 9.297724e-01
<VARIANCE> 39
 6.908414e+01 4.791859e+01 4.999043e+01 8.312099e+01 7.489796e+01 7.019838e+01 8.655832e+01 7.456703e+01 5.203511e+01 5.002278e+01 4.196607e+01 3.499825e+01 1.522763e+02 5.987310e+00 4.591687e+00 5.942664e+00 5.162247e+00 7.232193e+00 6.235094e+00 5.314898e+00 6.344400e+00 5.198672e+00 4.128861e+00 4.429533e+00 3.466315e+00 5.817151e+00 9.004797e-01 6.615492e-01 8.589981e-01 9.219624e-01 1.138050e+00 1.033071e+00 8.978323e-01 9.946252e-01 8.844416e-01 7.486658e-01 7.742271e-01 6.271043e-01 8.576930e-01
<GCONST> 1.452684e+02
<STATE> 4
<MEAN> 39
 -5.639038e+00 -7.746113e+00 -4.586106e+00 -8.304715e+00 -6.431767e+00 -7.753022e+00 -6.525523e+00 -2.621922e+00 -3.406388e+00 -3.272768e+00 -3.071082e+00 -2.772688e+00 6.982664e+01 1.947740e+00 -1.279738e+00 7.169735e-02 -1.217625e+00 -8.832402e-01 -4.553037e-01 -8.481480e-01 -1.317311e-01 -1.421465e-01 -3.198123e-01 -3.647679e-01 -3.868081e-01 2.663152e+00 5.375642e-01 2.672263e-01 9.966854e-02 3.446213e-01 -1.380502e-01 3.553490e-01 -2.281041e-01 -2.927387e-01 -1.239735e-01 -1.214215e-01 -1.439672e-01 -1.769141e-01 -3.989414e-01
<VARIANCE> 39
 6.566082e+01 6.410639e+01 5.742200e+01 1.127859e+02 9.543576e+01 8.355846e+01 8.559490e+01 6.330249e+01 5.596513e+01 4.902053e+01 4.423459e+01 3.275956e+01 1.197940e+02 5.851233e+00 5.191994e+00 6.596070e+00 6.745228e+00 7.103010e+00 7.152128e+00 5.941807e+00 5.461627e+00 6.041335e+00 4.339427e+00 4.887147e+00 3.623114e+00 6.222394e+00 1.042894e+00 8.048848e-01 7.775168e-01 7.920808e-01 1.114508e+00 9.865167e-01 8.730295e-01 1.054009e+00 8.324887e-01 7.683646e-01 7.009201e-01 5.710945e-01 7.610944e-01
<GCONST> 1.466629e+02
<TRANSP> 5
 0.000000e+00 1.000000e+00 0.000000e+00 0.000000e+00 0.000000e+00
 0.000000e+00 5.616852e-01 4.383148e-01 0.000000e+00 0.000000e+00
 0.000000e+00 0.000000e+00 4.025037e-01 5.974963e-01 0.000000e+00
 0.000000e+00 0.000000e+00 0.000000e+00 2.861549e-01 7.138451e-01
 0.000000e+00 0.000000e+00 0.000000e+00 0.000000e+00 0.000000e+00
<ENDHMM>
~h "u"
<BEGINHMM>
<NUMSTATES> 5
<STATE> 2
<MEAN> 39
 -5.851910e-01 -2.490562e+00 -3.397089e+00 -9.903158e+00 -6.815118e+00 -4.935459e+00 -1.158586e+01 -6.034391e+00 -4.785286e+00 -4.925857e+00 -1.649984e+00 -3.801016e+00 6.749037e+01 1.533938e+00 1.153587e-01 -5.319684e-01 -1.223542e+00 -6.770540e-01 4.759558e-01 -6.884508e-01 -7.202786e-01 -2.879771e-01 1.327280e-01 5.439457e-01 5.523326e-02 1.071357e+00 -4.640115e-02 5.392337e-02 3.602096e-02 2.739496e-01 2.558226e-02 2.285670e-01 1.600535e-01 -3.592032e-02 4.524122e-03 4.855878e-02 -6.933614e-02 -7.192770e-02 -3.066494e-01
<VARIANCE> 39
 9.006451e+01 8.599718e+01 7.228979e+01 1.458936e+02 1.511228e+02 1.109982e+02 1.214078e+02 9.367697e+01 6.423679e+01 6.867548e+01 5.782149e+01 3.996371e+01 1.148643e+02 6.957281e+00 4.631374e+00 5.189837e+00 6.970490e+00 7.231853e+00 7.945168e+00 6.068125e+00 7.731088e+00 5.529448e+00 5.000033e+00 5.506255e+00 3.989853e+00 3.740579e+00 1.035090e+00 8.115053e-01 7.776057e-01 1.234203e+00 1.295357e+00 1.243995e+00 1.175886e+00 1.191662e+00 9.819459e-01 8.764298e-01 8.541768e-01 6.476855e-01 8.258898e-01
<GCONST> 1.521977e+02
<STATE> 3
<MEAN> 39
 4.231769e+00 -5.542473e+00 -5.411957e+00 -1.252241e+01 -1.247384e+01 1.678200e+00 -1.647988e+01 -9.383108e+00 -5.094282e+00 -5.394012e+00 8.281624e-01 -3.877385e+00 7.225288e+01 3.830748e-01 -5.625571e-02 -5.049275e-02 1.763490e-01 5.747823e-02 3.985860e-01 -1.838784e-01 -2.757859e-01 1.310778e-01 3.927439e-01 -2.069135e-01 -2.555955e-01 -2.144554e-01 -5.301910e-01 2.097470e-01 2.260758e-01 6.007737e-01 4.151045e-01 -4.481820e-01 4.424830e-01 2.767442e-01 1.297784e-01 -6.873038e-02 -4.436939e-01 -9.184425e-02 -4.868686e-01
<VARIANCE> 39
 3.824140e+01 7.196888e+01 4.678891e+01 1.316270e+02 1.172776e+02 1.119459e+02 1.491674e+02 1.222112e+02 6.533130e+01 8.252616e+01 7.415195e+01 4.735315e+01 6.737234e+01 1.997309e+00 4.099038e+00 2.668435e+00 5.671173e+00 5.136282e+00 5.912288e+00 5.506627e+00 5.447560e+00 5.188993e+00 4.975889e+00 4.368921e+00 3.381296e+00 2.378746e+00 4.788501e-01 6.097495e-01 5.121725e-01 9.601252e-01 8.925091e-01 1.207629e+00 9.975089e-01 1.165771e+00 8.934075e-01 9.439906e-01 9.786847e-01 7.500600e-01 3.760137e-01
<GCONST> 1.438547e+02
<STATE> 4
<MEAN> 39
 5.064030e+00 -6.543927e-01 -6.974975e+00 -1.407672e+01 -9.034960e+00 -3.713011e+00 -9.184910e+00 -6.288615e+00 -5.389808e+00 -4.749435e+00 -2.665933e+00 -3.792919e+00 6.625108e+01 -4.441503e-01 2.104894e-01 2.784579e-01 8.334269e-01 3.942137e-01 -1.386719e-01 4.130028e-01 2.129233e-01 1.453633e-01 -5.880915e-02 -4.692078e-01 -2.062394e-01 -6.460925e-01 -2.914470e-01 -1.003565e-01 1.542062e-01 2.463247e-01 9.863476e-02 -7.529057e-02 2.260870e-02 5.168678e-02 3.805039e-02 -3.550247e-02 -1.260964e-05 1.227754e-02 -7.005277e-02
<VARIANCE> 39
 3.804535e+01 8.094877e+01 4.404005e+01 1.252294e+02 7.289045e+01 6.273441e+01 9.239108e+01 7.809278e+01 5.203867e+01 6.218914e+01 5.736955e+01 3.805360e+01 7.186099e+01 1.371829e+00 2.371025e+00 1.949987e+00 4.342010e+00 3.485097e+00 3.830466e+00 2.863078e+00 3.428129e+00 2.892728e+00 3.460093e+00 3.229145e+00 2.463116e+00 1.932318e+00 2.805434e-01 3.876790e-01 3.393532e-01 6.605061e-01 5.678971e-01 5.990691e-01 5.144283e-01 6.887032e-01 5.845351e-01 6.732002e-01 5.716029e-01 4.850698e-01 2.318319e-01
<GCONST> 1.294021e+02
<TRANSP> 5
 0.000000e+00 1.000000e+00 0.000000e+00 0.000000e+00 0.000000e+00
 0.000000e+00 4.576297e-01 5.423703e-01 0.000000e+00 0.000000e+00
 0.000000e+00 0.000000e+00 4.580134e-01 5.419866e-01 0.000000e+00
 0.000000e+00 0.000000e+00 0.000000e+00 6.262251e-01 3.737749e-01
 0.000000e+00 0.000000e+00 0.000000e+00 0.000000e+00 0.000000e+00
<ENDHMM>
~h "v"
<BEGINHMM>
<NUMSTATES> 5
<STATE> 2
<MEAN> 39
 -1.250166e+01 -9.533303e+00 -7.816422e+00 -8.474578e+00 -2.581835e+00 -8.510375e+00 -1.454212e+01 -9.208094e-02 -1.954212e+00 -1.820938e+00 -4.022926e+00 -6.596279e+00 7.291682e+01 -1.220605e+00 -8.196244e-02 -7.878293e-02 7.081696e-01 2.324524e-01 1.639216e-01 1.173700e+00 2.562752e-01 2.760343e-01 1.317596e-01 5.283623e-02 2.983512e-01 -5.957481e-01 6.770151e-01 -2.016382e-01 1.399019e-01 -2.212950e-01 -4.684486e-01 7.499032e-02 -5.457260e-02 -1.453697e-01 -5.249174e-02 -5.107609e-02 1.343186e-01 -6.191566e-02 7.823342e-02
<VARIANCE> 39
 9.440601e+01 3.702392e+01 1.807735e+01 1.426840e+01 2.105025e+01 5.801394e+01 5.439502e+01 5.950245e+01 2.134258e+01 2.117397e+01 1.329494e+01 1.444321e+01 1.443168e+01 9.538932e+00 3.516191e+00 1.229213e+00 2.020438e+00 2.646245e+00 4.246054e+00 3.562695e+00 3.841428e+00 2.379367e+00 2.559380e+00 2.197403e+00 1.564775e+00 6.750631e-01 1.125006e+00 6.797876e-01 3.010813e-01 3.269313e-01 2.934134e-01 4.925327e-01 8.490189e-01 6.506627e-01 4.198724e-01 4.473284e-01 3.268125e-01 3.220107e-01 2.332457e-01
<GCONST> 1.162323e+02
<STATE> 3
<MEAN> 39
 -8.677129e+00 -7.538165e+00 -6.384784e+00 -6.559664e+00 -2.456932e+00 -1.138970e+01 -6.778719e+00 1.488612e+00 -3.168573e+00 -1.630461e+00 -2.984798e+00 -3.692806e+00 6.730933e+01 2.505114e+00 3.131054e-01 1.015843e-01 -5.530040e-01 -1.601773e+00 1.120752e+00 -7.985909e-02 1.211688e-01 -1.105783e+00 -6.249035e-01 6.649442e-01 -8.442007e-01 3.352245e-01 4.816555e-01 -2.859554e-01 1.960401e-02 -4.647919e-01 -5.966706e-01 7.249673e-03 -8.669808e-01 -3.874835e-01 3.295984e-02 -1.137321e-01 3.207174e-01 -4.733819e-01 8.087312e-01
<VARIANCE> 39
 5.130807e+01 7.338835e+01 3.111176e+01 1.354640e+01 5.141443e+01 4.553689e+01 3.318568e+01 2.693745e+01 2.856588e+01 3.276775e+01 3.287849e+01 1.249730e+01 2.466018e+01 1.143802e+01 6.079884e-01 4.059331e+00 9.401945e-01 5.478895e+00 4.193636e+00 3.496543e+00 2.134116e+00 2.051719e+00 1.506513e+00 3.158382e+00 1.618349e+00 2.334944e+00 7.858549e-01 2.164094e-01 7.051035e-01 2.193141e-01 3.708059e-01 3.512203e-01 5.810835e-01 2.636326e-01 4.309911e-01 3.039584e-01 6.024857e-01 3.787386e-01 2.514873e-01
<GCONST> 1.161615e+02
<STATE> 4
<MEAN> 39
 -4.923485e+00 -2.431702e+00 -7.280309e+00 -9.233879e+00 1.828915e-01 -8.658724e+00 -4.291112e+00 -5.590305e-01 -3.322453e+00 6.264212e-01 1.164255e+00 -5.136910e+00 6.438864e+01 1.618317e+00 -6.452314e-01 -3.649217e-01 -1.439840e+00 -1.064761e+00 3.988196e-01 -7.607629e-01 -1.557243e+00 -1.342469e-01 1.277238e-01 5.364862e-01 -6.315294e-01 1.192673e+00 1.829968e-01 -1.445713e-01 3.440443e-01 8.599202e-02 -1.706250e-01 -2.511773e-01 -1.635152e-01 -2.260017e-01 7.853238e-02 5.223057e-02 -1.958711e-01 1.411765e-03 2.769821e-01
<VARIANCE> 39
 8.988554e+01 3.221767e+01 4.993789e+01 8.649332e+01 4.594324e+01 5.019275e+01 4.306861e+01 7.442079e+01 3.108267e+01 5.746278e+01 6.678437e+01 2.400881e+01 4.155910e+01 1.088907e+01 6.998979e-01 1.044214e+01 3.063088e+00 3.573307e+00 4.690171e+00 4.108751e+00 3.229834e+00 4.053034e+00 2.779611e+00 3.172927e+00 2.424355e+00 2.327150e+00 1.607817e+00 1.971566e-01 1.140533e+00 6.766288e-01 3.397084e-01 7.512561e-01 7.611911e-01 5.998979e-01 5.328465e-01 4.586637e-01 5.145996e-01 2.995966e-01 2.675305e-01
<GCONST> 1.304823e+02
<TRANSP> 5
 0.000000e+00 1.000000e+00 0.000000e+00 0.000000e+00 0.000000e+00
 0.000000e+00 7.841347e-01 2.158652e-01 0.000000e+00 0.000000e+00
 0.000000e+00 0.000000e+00 1.786782e-01 8.213218e-01 0.000000e+00
 0.000000e+00 0.000000e+00 0.000000e+00 7.582036e-01 2.417964e-01
 0.000000e+00 0.000000e+00 0.000000e+00 0.000000e+00 0.000000e+00
<ENDHMM>
~h "w"
<BEGINHMM>
<NUMSTATES> 5
<STATE> 2
<MEAN> 39
 3.612944e+00 -5.524760e+00 -9.303484e+00 -1.676283e+01 -9.978875e+00 2.265507e+00 -1.005335e+01 -7.792001e+00 -4.725352e+00 -5.181496e+00 -2.022761e+00 -5.014960e+00 6.853259e+01 2.544488e-01 -7.955563e-01 -2.474644e-01 -6.746253e-01 4.268161e-01 8.526121e-01 -5.233521e-01 -1.620264e-01 2.574283e-01 1.920429e-01 2.672179e-01 -3.709676e-01 9.532572e-01 -1.251897e-01 -1.918453e-01 1.047826e-01 2.622710e-01 3.436076e-02 -1.024706e-01 -2.880920e-02 1.707691e-01 4.987668e-02 -6.471578e-02 -8.896365e-02 -6.179383e-02 -6.477393e-02
<VARIANCE> 39
 4.836628e+01 5.931283e+01 4.470522e+01 1.100754e+02 1.044051e+02 6.570950e+01 1.125980e+02 7.944015e+01 4.749869e+01 4.377398e+01 5.241537e+01 3.814702e+01 1.005650e+02 2.864585e+00 4.136652e+00 2.653793e+00 6.160963e+00 4.650143e+00 4.707789e+00 4.998405e+00 6.324687e+00 3.860380e+00 4.381622e+00 3.580388e+00 3.111558e+00 4.140648e+00 4.374819e-01 5.071401e-01 4.509484e-01 9.373279e-01 7.798776e-01 9.109851e-01 9.195735e-01 1.231766e+00 6.263206e-01 9.279249e-01 6.847202e-01 6.681907e-01 5.365621e-01
<GCONST> 1.398582e+02
<STATE> 3
<MEAN> 39
 4.314110e+00 -1.316684e+01 -6.536417e+00 -1.763794e+01 -1.482576e+01 7.179750e+00 -2.014752e+01 -8.965931e+00 -4.574834e+00 -6.575579e+00 -6.920531e-01 -9.288634e+00 7.340606e+01 -1.334853e-01 -5.228729e-01 -1.206642e-03 4.551605e-01 2.908580e-01 -2.075963e-01 8.799043e-04 3.513831e-01 3.171372e-01 7.390198e-02 -3.422143e-01 -1.671342e-01 -4.592650e-02 -8.469900e-02 3.093798e-02 3.078873e-02 1.833174e-01 -4.586809e-02 -2.265667e-01 8.685745e-02 1.731516e-02 4.579241e-02 -5.028252e-02 -1.104837e-01 9.035071e-02 -3.914510e-02
<VARIANCE> 39
 1.353546e+01 4.594166e+01 2.607406e+01 1.090844e+02 7.050644e+01 6.433199e+01 7.975026e+01 6.680031e+01 7.278773e+01 4.326551e+01 6.490049e+01 3.759436e+01 3.542053e+01 9.646716e-01 3.473400e+00 1.742635e+00 4.223710e+00 2.947873e+00 3.186661e+00 3.885365e+00 4.649015e+00 4.265037e+00 3.992689e+00 3.106051e+00 4.167766e+00 1.752170e+00 1.684725e-01 4.880185e-01 3.119340e-01 5.624733e-01 5.864322e-01 5.476294e-01 7.257500e-01 6.844674e-01 7.752661e-01 7.131804e-01 5.730637e-01 7.940660e-01 2.492186e-01
<GCONST> 1.279373e+02
<STATE> 4
<MEAN> 39
 -6.469522e+00 -8.816838e+00 -7.680280e+00 -7.229311e+00 -5.732935e+00 -1.608207e+00 -1.085354e+01 -3.435186e+00 -4.735776e+00 -5.943049e+00 -4.305059e+00 -4.268152e+00 5.480578e+01 -1.513978e-01 -6.176731e-02 3.702206e-02 1.555853e-01 -6.313916e-02 -2.255002e-01 6.619541e-02 1.190589e-01 -5.584877e-02 -1.457087e-01 -7.876693e-02 1.504233e-01 -1.892885e-01 1.222479e-02 6.837752e-02 2.366114e-03 -3.461993e-02 -4.312631e-02 -8.647957e-03 1.789511e-02 -2.430170e-02 -5.328657e-03 -6.261493e-03 2.144179e-02 1.892277e-02 -9.571973e-03
<VARIANCE> 39
 6.330629e+01 7.545821e+01 1.778538e+01 5.248710e+01 4.280487e+01 3.604585e+01 7.937698e+01 4.453031e+01 4.001581e+01 4.264764e+01 4.002100e+01 3.111163e+01 1.458349e+02 4.499749e-01 9.437307e-01 1.058731e+00 1.835813e+00 1.743456e+00 1.865466e+00 2.003803e+00 2.360809e+00 2.369968e+00 2.332614e+00 1.945940e+00 1.731504e+00 4.729471e-01 7.193125e-02 1.851461e-01 1.848233e-01 2.918278e-01 3.402408e-01 3.007412e-01 3.476087e-01 4.475345e-01 4.239088e-01 4.466701e-01 3.322136e-01 3.111425e-01 6.965856e-02
<GCONST> 1.087919e+02
<TRANSP> 5
 0.000000e+00 1.000000e+00 0.000000e+00 0.000000e+00 0.000000e+00
 0.000000e+00 6.185140e-01 3.814860e-01 0.000000e+00 0.000000e+00
 0.000000e+00 0.000000e+00 8.015618e-01 1.984382e-01 0.000000e+00
 0.000000e+00 0.000000e+00 0.000000e+00 8.448738e-01 1.551262e-01
 0.000000e+00 0.000000e+00 0.000000e+00 0.000000e+00 0.000000e+00
<ENDHMM>
~h "y"
<BEGINHMM>
<NUMSTATES> 5
<STATE> 2
<MEAN> 39
 -7.187440e+00 -2.731942e+00 8.795211e-01 -4.830754e+00 -8.796360e+00 -4.556094e+00 -6.353885e+00 -5.546280e+00 -3.638402e+00 -4.894233e+00 -3.000876e+00 -1.968271e+00 6.170644e+01 6.818902e-01 4.065776e-02 9.250962e-01 -4.626220e-01 -5.109028e-01 -1.950290e-02 -1.567104e-01 -1.064526e-02 -2.727316e-01 -2.642939e-01 -7.730000e-02 -1.565467e-01 8.878909e-01 3.321576e-01 -1.830555e-01 6.936134e-02 -1.690203e-01 -1.842620e-01 -1.459742e-01 2.528734e-02 9.774061e-02 -1.574919e-01 -1.339474e-01 -2.878661e-02 -1.311309e-01 4.561625e-01
<VARIANCE> 39
 8.978737e+01 8.400065e+01 7.759639e+01 1.054821e+02 1.104568e+02 1.134480e+02 1.022652e+02 6.682771e+01 6.304533e+01 3.671018e+01 5.184320e+01 2.857871e+01 2.362705e+02 4.110250e+00 3.600835e+00 4.779502e+00 4.014287e+00 5.009923e+00 4.175922e+00 4.021157e+00 4.475483e+00 4.387354e+00 3.024938e+00 3.479935e+00 2.500242e+00 2.876512e+00 5.565913e-01 6.299974e-01 7.811162e-01 7.151771e-01 1.034281e+00 7.624082e-01 7.438039e-01 7.549790e-01 7.956945e-01 5.223196e-01 5.942992e-01 4.216244e-01 4.859353e-01
<GCONST> 1.403508e+02
<STATE> 3
<MEAN> 39
 -3.721449e-01 -9.600322e-01 5.506946e+00 -9.710941e+00 -9.850517e+00 -9.579933e+00 -5.105406e+00 -6.927502e+00 -4.983633e+00 -5.809894e+00 -8.136513e-01 -3.482117e+00 6.810988e+01 1.063175e+00 -1.508187e+00 5.461716e-02 -7.569137e-01 -7.344097e-01 -7.521230e-01 6.529324e-01 6.672381e-01 8.625726e-02 -2.373074e-01 1.064851e-01 -3.297901e-01 2.134029e+00 -1.677462e-01 -3.023678e-01 -6.202240e-01 2.063561e-01 4.887323e-01 1.578327e-01 2.345687e-01 2.490899e-01 1.755042e-01 1.152067e-03 -2.163373e-01 -6.823235e-02 -1.565581e-01
<VARIANCE> 39
 4.791817e+01 9.880822e+01 1.371890e+02 1.408226e+02 1.962143e+02 1.464873e+02 1.352065e+02 1.026156e+02 8.634038e+01 6.079262e+01 1.209212e+02 4.484988e+01 1.113800e+02 4.794205e+00 4.752153e+00 8.131559e+00 5.434430e+00 8.650260e+00 6.646179e+00 6.656137e+00 6.685931e+00 6.918705e+00 4.775379e+00 6.148953e+00 3.594052e+00 4.447937e+00 5.426333e-01 7.335722e-01 1.007656e+00 8.996992e-01 1.516363e+00 1.004101e+00 8.632439e-01 1.080145e+00 9.548823e-01 8.105897e-01 1.170990e+00 6.578971e-01 4.676175e-01
<GCONST> 1.525914e+02
<STATE> 4
<MEAN> 39
 1.190834e+00 -1.197492e+01 2.187429e+00 -1.163281e+01 -1.282371e+01 -8.575115e+00 -2.926405e+00 -1.583131e+00 -3.890785e+00 -7.088229e+00 -4.183251e+00 -5.067620e+00 7.464553e+01 3.782398e-01 -1.196013e+00 -1.602646e+00 4.893104e-01 1.742910e+00 2.874935e-01 4.217531e-01 9.947201e-01 -1.511804e-01 -6.668317e-01 -9.904865e-01 -4.558202e-01 4.186798e-01 -3.307056e-02 4.975617e-01 -1.154666e-01 2.222314e-01 3.441128e-01 1.525017e-01 -3.804701e-01 -3.630785e-01 -2.309800e-02 6.821087e-03 -4.590053e-02 4.049347e-02 -4.537969e-01
<VARIANCE> 39
 2.415917e+01 5.988411e+01 4.776112e+01 1.058762e+02 1.133792e+02 9.753382e+01 2.098157e+02 7.310014e+01 8.585925e+01 5.252679e+01 8.227939e+01 3.222532e+01 5.309518e+01 9.752446e-01 2.167012e+00 3.740508e+00 2.972873e+00 5.401948e+00 4.119488e+00 4.420422e+00 4.478177e+00 3.639128e+00 3.691242e+00 4.962069e+00 2.350242e+00 1.195102e+00 1.842433e-01 3.476012e-01 4.281858e-01 3.944893e-01 7.205376e-01 6.202567e-01 7.606205e-01 7.344220e-01 7.185686e-01 5.711272e-01 5.727753e-01 3.922612e-01 1.736975e-01
<GCONST> 1.311296e+02
<TRANSP> 5
 0.000000e+00 1.000000e+00 0.000000e+00 0.000000e+00 0.000000e+00
 0.000000e+00 5.259220e-01 4.740780e-01 0.000000e+00 0.000000e+00
 0.000000e+00 0.000000e+00 5.783397e-01 4.216603e-01 0.000000e+00
 0.000000e+00 0.000000e+00 0.000000e+00 5.437217e-01 4.562783e-01
 0.000000e+00 0.000000e+00 0.000000e+00 0.000000e+00 0.000000e+00
<ENDHMM>
~h "z"
<BEGINHMM>
<NUMSTATES> 5
<STATE> 2
<MEAN> 39
 -5.172774e+00 -6.283786e+00 4.098346e+00 4.776068e+00 -9.830750e+00 -1.392481e+00 -4.645999e+00 -4.518209e+00 -3.395112e-01 -9.249697e+00 -8.405717e+00 -5.028587e+00 8.441611e+01 1.591596e-02 4.089055e-02 -8.691807e-02 4.616826e-02 2.083576e-02 2.027474e-01 1.196401e-01 5.465884e-02 6.796986e-02 1.102425e-01 1.936137e-01 1.261960e-01 -1.965348e-01 2.813575e-02 -1.077703e-02 -2.365360e-03 -6.033343e-03 -2.213293e-02 1.050531e-02 8.710713e-03 -1.406170e-02 -1.500418e-03 -7.462343e-03 5.676856e-03 1.271931e-02 -9.566051e-04
<VARIANCE> 39
 1.441384e+01 1.567344e+01 2.543000e+01 2.861065e+01 1.587888e+01 8.211621e+01 2.763145e+01 1.315759e+01 3.354592e+01 3.263231e+01 2.988235e+01 1.932008e+01 6.300101e+01 5.498952e-01 7.474187e-01 1.012662e+00 2.175806e+00 1.234512e+00 3.290441e+00 1.795138e+00 1.261559e+00 1.902490e+00 1.589188e+00 1.762803e+00 1.194521e+00 1.389758e+00 8.504596e-02 1.297938e-01 1.577208e-01 3.726642e-01 2.851954e-01 6.237343e-01 3.114446e-01 2.433629e-01 3.973594e-01 2.934898e-01 3.051145e-01 1.871611e-01 2.045855e-01
<GCONST> 1.003109e+02
<STATE> 3
<MEAN> 39
 -4.152731e-01 -7.009487e+00 -8.701446e-01 -2.295796e+00 -1.040606e+01 2.900667e-01 -3.167555e+00 -6.959805e+00 -1.538578e+00 -3.406935e+00 -2.571195e+00 -3.505077e+00 9.129395e+01 -2.862043e-03 9.929148e-03 -3.552357e-03 4.076626e-02 2.461646e-02 1.067977e-02 2.310499e-03 2.657836e-03 2.041934e-02 1.234529e-02 -2.524444e-02 -8.265927e-03 -2.665956e-02 -6.061394e-03 2.923923e-03 3.838821e-03 2.793701e-03 3.911236e-03 2.497298e-03 3.519768e-03 1.286369e-03 2.150745e-03 2.672624e-03 -2.886379e-03 4.462731e-03 -3.902850e-03
<VARIANCE> 39
 1.435624e+01 2.200396e+01 4.631282e+01 3.539719e+01 3.854474e+01 5.212669e+01 1.797995e+01 3.356787e+01 2.910007e+01 3.096389e+01 2.269748e+01 1.570226e+01 4.694539e+01 9.216630e-01 1.430310e+00 2.014953e+00 1.397727e+00 3.020495e+00 3.449323e+00 1.621502e+00 2.334924e+00 2.799274e+00 2.069705e+00 1.886817e+00 1.608165e+00 1.844002e+00 1.531242e-01 2.386138e-01 2.705497e-01 2.161654e-01 5.711304e-01 5.373220e-01 3.164384e-01 4.540299e-01 5.380989e-01 3.692782e-01 3.602832e-01 3.538246e-01 2.575571e-01
<GCONST> 1.095348e+02
<STATE> 4
<MEAN> 39
 -7.791693e+00 -3.960925e+00 8.185905e-01 3.465659e+00 -6.695338e+00 7.505831e+00 -1.514474e-01 -4.316588e+00 2.417277e+00 -6.541484e+00 -6.689010e+00 -3.370917e+00 7.789146e+01 -1.958012e-01 1.378231e-01 1.257892e-01 4.237241e-02 -2.488915e-02 -1.598535e-02 2.224898e-01 2.493375e-01 3.503315e-02 6.286635e-02 1.000908e-01 8.576235e-02 -1.692993e-01 3.764776e-02 2.141197e-03 -3.296967e-04 -1.877937e-02 -2.437204e-02 -5.637028e-02 -8.687492e-02 -5.910508e-02 1.905605e-03 -2.660247e-02 -4.611559e-03 -2.240766e-03 3.359008e-02
<VARIANCE> 39
 2.602835e+00 1.887077e+00 4.788834e+00 4.716695e+00 8.430393e+00 1.307954e+01 4.939797e+00 1.262447e+01 9.213718e+00 5.115584e+00 7.518676e+00 6.869952e+00 9.419983e+00 1.017047e-01 1.323210e-01 1.382892e-01 5.825606e-01 4.194701e-01 5.632427e-01 8.950213e-01 8.096781e-01 1.575570e+00 9.867499e-01 8.722142e-01 8.897874e-01 6.779995e-02 2.362869e-02 2.105354e-02 3.814327e-02 1.050493e-01 9.721377e-02 1.035800e-01 1.192935e-01 1.844459e-01 2.407828e-01 1.399214e-01 1.578487e-01 1.865935e-01 9.047246e-03
<GCONST> 5.100599e+01
<TRANSP> 5
 0.000000e+00 1.000000e+00 0.000000e+00 0.000000e+00 0.000000e+00
 0.000000e+00 9.572600e-01 4.274007e-02 0.000000e+00 0.000000e+00
 0.000000e+00 0.000000e+00 9.933026e-01 6.697346e-03 0.000000e+00
 0.000000e+00 0.000000e+00 0.000000e+00 9.258762e-01 7.412376e-02
 0.000000e+00 0.000000e+00 0.000000e+00 0.000000e+00 0.000000e+00
<ENDHMM>
~h "aw"
<BEGINHMM>
<NUMSTATES> 5
<STATE> 2
<MEAN> 39
 -2.235525e-01 -5.686460e+00 -4.115406e+00 -3.717414e+00 -7.915950e+00 -1.313062e+00 -2.648376e+00 -4.959005e+00 -3.309196e+00 -4.746475e+00 -3.236499e+00 -3.581417e+00 9.025761e+01 2.871546e-03 4.982854e-02 2.700003e-02 3.584242e-02 -1.628988e-02 1.302801e-01 3.101660e-02 2.114211e-02 6.408699e-02 1.436800e-02 2.937202e-02 -6.557582e-04 -1.117157e-01 -1.101246e-02 2.857952e-02 1.830252e-02 1.370071e-02 -1.121682e-02 5.159593e-03 2.101004e-03 -1.635855e-02 -3.408957e-03 2.141099e-03 9.728484e-03 1.153159e-02 -4.343250e-02
<VARIANCE> 39
 1.999318e+01 2.972234e+01 2.604383e+01 3.410990e+01 2.669303e+01 3.459584e+01 2.780282e+01 2.733427e+01 3.193878e+01 2.509213e+01 2.404435e+01 1.973819e+01 8.304269e+01 9.665838e-01 1.298909e+00 1.057194e+00 1.303892e+00 2.062628e+00 2.323522e+00 1.720316e+00 1.785529e+00 2.002462e+00 1.653653e+00 1.589877e+00 1.562053e+00 2.391552e+00 1.597660e-01 2.044645e-01 1.842905e-01 2.339871e-01 3.864611e-01 3.851648e-01 3.269063e-01 3.482763e-01 3.656591e-01 3.216454e-01 3.034493e-01 2.972298e-01 3.333920e-01
<GCONST> 1.055128e+02
<STATE> 3
<MEAN> 39
 -1.824784e+00 -9.740687e+00 -1.093747e+01 -1.353028e+01 -4.809250e+00 -3.559962e-01 -6.657111e+00 -5.223124e+00 -3.858508e+00 -5.577698e+00 -4.871772e+00 -5.544945e+00 6.267814e+01 -3.854182e-01 6.239989e-01 1.051991e-01 1.319438e-01 -1.423008e-01 3.154390e-02 -3.507688e-02 -3.964133e-02 -7.327681e-02 1.520284e-01 3.630760e-01 7.784022e-02 -7.800305e-01 -7.212014e-02 6.259155e-03 6.028892e-02 7.064184e-02 -1.550381e-02 -1.848138e-01 2.983473e-02 3.524208e-02 -4.091337e-02 -2.278011e-02 -4.515553e-02 5.241256e-02 -2.137753e-02
<VARIANCE> 39
 7.794295e+01 8.569311e+01 3.915115e+01 1.438444e+02 3.654443e+01 5.130889e+01 4.421301e+01 3.939237e+01 4.455856e+01 3.184887e+01 3.542727e+01 2.511477e+01 1.223516e+02 9.852972e-01 1.895397e+00 1.216755e+00 3.615214e+00 1.892513e+00 2.332511e+00 1.443384e+00 2.080327e+00 2.347711e+00 1.645290e+00 1.955894e+00 1.726180e+00 7.639046e-01 1.368454e-01 2.463982e-01 2.164295e-01 4.882677e-01 3.385545e-01 4.553846e-01 2.987383e-01 3.711204e-01 4.694378e-01 3.182740e-01 3.570347e-01 3.370660e-01 1.079081e-01
<GCONST> 1.140128e+02
<STATE> 4
<MEAN> 39
 -7.772041e+00 -2.673843e+00 -3.968717e+00 4.686687e+00 -2.775935e+00 5.484884e+00 9.911804e-01 3.245078e+00 3.167591e-01 -2.850055e-01 -1.174157e-01 1.531709e+00 6.682493e+01 -1.361399e-01 1.207352e-02 2.577354e-02 6.301294e-02 3.046360e-02 2.006787e-02 1.982407e-02 4.763849e-02 2.640138e-02 -6.161799e-02 -2.642448e-02 4.965732e-02 -1.518515e-01 2.886974e-02 -7.506115e-04 7.776427e-05 -1.226328e-02 -1.712551e-02 -4.761248e-02 -2.539660e-02 -1.171351e-02 -2.931735e-02 -2.160629e-02 -3.595351e-02 -3.573612e-02 3.803020e-02
<VARIANCE> 39
 2.188939e+01 3.013770e+01 2.798164e+01 6.548843e+01 4.445616e+01 3.522812e+01 2.829189e+01 7.572063e+01 3.352336e+01 3.445373e+01 2.768262e+01 3.453243e+01 1.159212e+02 2.294328e-01 4.565973e-01 5.346444e-01 6.325229e-01 7.095551e-01 8.456033e-01 9.609181e-01 1.034325e+00 1.179964e+00 1.064535e+00 1.070103e+00 9.411438e-01 1.976802e-01 4.561913e-02 6.396720e-02 7.745226e-02 1.309801e-01 1.285873e-01 1.932745e-01 2.038584e-01 1.955109e-01 2.449548e-01 2.203121e-01 2.100431e-01 1.832644e-01 3.206072e-02
<GCONST> 8.717100e+01
<TRANSP> 5
 0.000000e+00 1.000000e+00 0.000000e+00 0.000000e+00 0.000000e+00
