~o
<STREAMINFO> 1 39
<VECSIZE> 39<NULLD><MFCC_D_A_0><DIAGC>
~s "silst"
<MEAN> 39
 -8.579961e-01 -3.310293e+00 -4.803925e+00 5.975094e+00 -2.359499e+00 -5.381440e+00 -2.572179e+00 1.628370e+00 -9.379930e+00 -2.186304e+00 -2.400360e+00 -4.513611e-01 6.657837e+01 5.438530e-02 1.012346e-02 1.759182e-02 -3.097258e-02 5.612809e-02 -3.136934e-02 -2.967850e-02 -3.711003e-02 -4.375389e-02 -5.529558e-02 -1.911416e-02 -7.316144e-03 1.180212e-01 1.088749e-02 -9.801923e-03 -7.817597e-03 -3.613008e-02 -1.555159e-02 1.117328e-03 -7.492003e-04 9.748687e-03 2.919779e-02 1.085809e-02 -5.111838e-03 -8.062553e-03 2.399275e-02
<VARIANCE> 39
 7.889169e+01 5.717841e+01 6.057769e+01 9.340221e+01 6.010556e+01 6.467849e+01 5.985214e+01 6.363672e+01 7.918353e+01 4.353256e+01 4.933514e+01 3.615643e+01 8.891489e+01 4.313392e+00 4.607503e+00 3.951589e+00 3.552329e+00 3.441275e+00 4.918616e+00 3.662881e+00 3.873776e+00 5.035575e+00 3.006007e+00 3.494889e+00 2.671191e+00 3.070511e+00 6.263391e-01 8.049335e-01 6.158150e-01 5.759602e-01 5.568125e-01 8.182979e-01 6.349029e-01 6.688301e-01 8.652916e-01 5.497719e-01 6.040047e-01 4.558756e-01 4.480569e-01
<GCONST> 1.363482e+02
~h "@"
<BEGINHMM>
<NUMSTATES> 5
<STATE> 2
<MEAN> 39
 -2.670550e+00 -3.757182e+00 -3.581351e+00 -6.830441e+00 -4.653154e+00 -6.277628e+00 -8.789476e+00 -4.333621e+00 -3.990386e+00 -4.554125e+00 -2.981702e+00 -3.726607e+00 6.822364e+01 1.364361e+00 -6.435550e-01 -3.044873e-01 -5.946815e-01 -5.018787e-01 -4.277680e-01 -6.119922e-01 -1.071011e-01 5.268168e-02 -4.488438e-02 -4.828458e-02 -1.713350e-01 1.400945e+00 -6.254688e-04 7.913502e-02 5.024286e-02 2.407903e-01 -5.690301e-02 9.322656e-02 6.052445e-02 -5.693471e-02 1.087758e-02 -3.137265e-02 -7.464150e-02 -8.206689e-02 -2.064136e-01
<VARIANCE> 39
 1.134005e+02 8.721953e+01 7.528915e+01 1.165972e+02 1.408871e+02 1.177016e+02 1.120170e+02 8.680932e+01 7.610927e+01 7.127283e+01 5.839674e+01 4.407520e+01 1.535483e+02 8.557042e+00 5.538665e+00 5.719897e+00 5.545664e+00 7.136697e+00 7.040091e+00 5.720129e+00 7.144659e+00 6.369043e+00 5.715844e+00 5.334550e+00 3.834894e+00 4.841561e+00 1.097580e+00 1.000564e+00 8.646498e-01 1.098424e+00 1.206199e+00 1.048126e+00 9.516929e-01 1.083599e+00 9.570190e-01 8.641267e-01 8.852169e-01 7.011349e-01 8.677120e-01
<GCONST> 1.529725e+02
<STATE> 3
<MEAN> 39
 2.369308e+00 -8.291277e+00 -4.546754e+00 -6.960614e+00 -9.319632e+00 -5.486220e+00 -1.121985e+01 -4.780047e+00 -3.882153e+00 -5.752077e+00 -3.596230e+00 -4.201799e+00 7.378962e+01 9.551622e-01 -3.029405e-01 -5.944590e-02 1.469846e-01 -4.119069e-01 -9.151739e-02 -3.309450e-01 -8.039657e-02 6.329925e-02 -7.762077e-02 -2.888375e-01 -2.702344e-01 3.949342e-01 -5.194625e-01 5.015824e-01 2.312104e-01 4.424971e-01 3.057267e-01 1.816325e-01 3.343976e-01 -2.359554e-02 -5.559313e-02 -3.307433e-03 -7.835484e-02 1.587996e-02 -6.670568e-01
<VARIANCE> 39
 5.366829e+01 8.893177e+01 6.987209e+01 1.112777e+02 1.348586e+02 1.276882e+02 1.345246e+02 9.716243e+01 8.077727e+01 9.232371e+01 6.027381e+01 4.399376e+01 1.021145e+02 4.089742e+00 4.946430e+00 4.128802e+00 4.221006e+00 5.386579e+00 5.602144e+00 4.623911e+00 6.332450e+00 5.189878e+00 4.170676e+00 4.033441e+00 2.855589e+00 3.138045e+00 8.042240e-01 8.758906e-01 7.565143e-01 8.466469e-01 1.071377e+00 1.123200e+00 9.619716e-01 1.164404e+00 9.124835e-01 8.719997e-01 9.278103e-01 6.072776e-01 6.288827e-01
<GCONST> 1.473127e+02
<STATE> 4
<MEAN> 39
 2.811592e+00 -6.830365e+00 -4.682206e+00 -5.949685e+00 -8.135080e+00 -6.766186e+00 -9.984653e+00 -4.344031e+00 -4.293613e+00 -4.906959e+00 -4.046936e+00 -4.557608e+00 7.280905e+01 3.229678e-04 7.218797e-01 3.927464e-01 8.085501e-01 1.309985e-01 2.529765e-01 2.508795e-01 -2.279226e-01 -5.789298e-02 -1.109029e-01 -2.891518e-01 -1.259726e-01 -7.222654e-01 -5.115185e-01 2.970223e-01 1.715204e-01 2.032431e-01 2.298650e-01 1.622386e-01 2.338647e-01 1.569913e-02 7.028731e-03 -6.591283e-03 2.420303e-02 3.884517e-02 -3.984795e-01
<VARIANCE> 39
 5.250827e+01 8.236643e+01 6.252042e+01 1.023247e+02 1.222870e+02 1.018351e+02 1.233963e+02 9.317297e+01 8.355895e+01 7.983524e+01 5.594484e+01 4.219300e+01 1.100176e+02 2.785944e+00 4.187413e+00 3.135133e+00 3.532666e+00 4.911689e+00 4.571738e+00 4.035474e+00 4.588544e+00 3.847715e+00 3.178688e+00 3.402145e+00 2.441156e+00 2.733959e+00 6.103521e-01 6.686500e-01 5.651997e-01 6.698008e-01 7.524903e-01 8.583153e-01 7.244033e-01 1.004101e+00 8.586385e-01 7.380802e-01 7.122723e-01 4.957274e-01 4.343448e-01
<GCONST> 1.404294e+02
<TRANSP> 5
 0.000000e+00 1.000000e+00 0.000000e+00 0.000000e+00 0.000000e+00
 0.000000e+00 3.594622e-01 6.405378e-01 0.000000e+00 0.000000e+00
 0.000000e+00 0.000000e+00 2.031813e-01 7.968187e-01 0.000000e+00
 0.000000e+00 0.000000e+00 0.000000e+00 1.830386e-01 8.169614e-01
 0.000000e+00 0.000000e+00 0.000000e+00 0.000000e+00 0.000000e+00
<ENDHMM>
~h "a"
<BEGINHMM>
<NUMSTATES> 5
<STATE> 2
<MEAN> 39
 1.951524e+00 -1.270566e+01 -5.994370e+00 -8.000998e+00 -6.702918e+00 -4.974121e+00 -7.919862e+00 -1.926763e+00 -2.779933e+00 -6.739097e+00 -6.954373e+00 -5.371840e+00 7.388567e+01 3.634767e-01 -1.034163e+00 -2.507761e-01 -1.681656e-01 4.573502e-01 1.486685e-01 9.882034e-02 5.467948e-01 -2.206885e-01 -3.838511e-01 -4.889286e-01 -6.623119e-02 7.118293e-01 -2.353362e-01 5.385145e-01 2.134510e-01 2.988820e-01 4.204385e-02 -3.360678e-05 1.848818e-02 -2.464008e-01 -1.053402e-01 9.125440e-02 1.020277e-01 1.022903e-01 -5.163029e-01
<VARIANCE> 39
 4.382196e+01 9.921350e+01 5.220461e+01 9.125521e+01 1.127199e+02 8.127760e+01 1.361278e+02 8.249902e+01 7.519766e+01 7.399603e+01 5.904998e+01 4.826395e+01 1.137404e+02 2.143211e+00 3.972353e+00 2.873138e+00 2.953290e+00 4.868265e+00 3.962438e+00 4.315215e+00 4.579123e+00 4.054649e+00 3.356547e+00 3.699144e+00 2.817902e+00 2.962807e+00 4.291944e-01 7.895421e-01 4.746278e-01 5.332080e-01 8.328174e-01 6.816985e-01 7.268353e-01 8.988216e-01 7.238137e-01 6.553401e-01 6.549195e-01 5.467793e-01 5.168915e-01
<GCONST> 1.386692e+02
<STATE> 3
<MEAN> 39
 2.408266e+00 -1.465004e+01 -6.145970e+00 -8.779343e+00 -6.406472e+00 -5.366734e+00 -6.998882e+00 -1.398799e+00 -4.036443e+00 -7.603926e+00 -7.608150e+00 -5.104095e+00 7.395655e+01 1.520464e-02 1.078230e+00 2.796760e-01 6.136363e-01 -1.399569e-01 -1.414812e-01 -4.802433e-02 -3.613701e-01 -9.104802e-02 8.084886e-02 -5.454241e-02 -3.736373e-02 -9.182637e-01 -1.482691e-01 5.890986e-01 1.816444e-01 2.615519e-01 -9.182737e-02 -8.961637e-03 -7.389509e-03 -2.693552e-01 8.791913e-02 9.447552e-02 9.905800e-02 8.356405e-03 -4.535717e-01
<VARIANCE> 39
 3.487070e+01 9.540058e+01 4.923405e+01 8.305850e+01 1.139228e+02 8.475745e+01 1.608764e+02 8.139425e+01 8.142171e+01 8.585982e+01 5.663576e+01 4.656904e+01 8.210298e+01 9.267436e-01 3.031160e+00 1.816107e+00 2.462223e+00 3.781352e+00 3.241475e+00 3.327632e+00 3.616101e+00 3.000357e+00 2.509707e+00 2.641083e+00 2.209442e+00 1.646202e+00 2.541711e-01 4.420017e-01 3.577924e-01 4.251983e-01 6.872190e-01 6.289732e-01 6.837025e-01 7.783543e-01 6.144488e-01 5.433717e-01 5.226225e-01 4.541254e-01 2.159747e-01
<GCONST> 1.300953e+02
<STATE> 4
<MEAN> 39
 5.137035e-01 -8.149061e+00 -6.398819e+00 -5.627131e+00 -5.860474e+00 -5.270145e+00 -4.552850e+00 -2.415450e+00 -3.482302e+00 -5.889570e+00 -6.204885e+00 -4.649684e+00 7.065357e+01 -2.868610e-01 8.631018e-01 3.235818e-01 5.156381e-01 -1.142724e-01 2.460556e-01 -1.577698e-03 -2.914948e-01 -2.199215e-02 5.629256e-02 4.924922e-02 5.478743e-02 -1.053188e+00 -6.882747e-02 -1.838887e-02 3.876808e-02 -4.260739e-02 5.638052e-03 1.203802e-02 -6.990315e-03 -2.953037e-02 7.422304e-03 1.124109e-02 3.653925e-02 2.160948e-02 1.637790e-02
<VARIANCE> 39
 4.968017e+01 7.962808e+01 4.199554e+01 5.818744e+01 8.307086e+01 6.398884e+01 9.048817e+01 6.345432e+01 6.962074e+01 6.455231e+01 4.936430e+01 3.641742e+01 2.271857e+02 1.190506e+00 2.020213e+00 1.578556e+00 1.920972e+00 2.629356e+00 2.340610e+00 2.297316e+00 2.776093e+00 2.283569e+00 2.104289e+00 2.075385e+00 1.757951e+00 1.450533e+00 1.829115e-01 2.846479e-01 2.376523e-01 2.981887e-01 4.036190e-01 3.815027e-01 3.790422e-01 4.110571e-01 4.066018e-01 3.617931e-01 3.747602e-01 3.132654e-01 1.813882e-01
<GCONST> 1.201206e+02
<TRANSP> 5
 0.000000e+00 1.000000e+00 0.000000e+00 0.000000e+00 0.000000e+00
 0.000000e+00 4.197836e-01 5.802163e-01 0.000000e+00 0.000000e+00
 0.000000e+00 0.000000e+00 4.419600e-01 5.580400e-01 0.000000e+00
 0.000000e+00 0.000000e+00 0.000000e+00 6.437997e-01 3.562003e-01
 0.000000e+00 0.000000e+00 0.000000e+00 0.000000e+00 0.000000e+00
<ENDHMM>
~h "b"
<BEGINHMM>
<NUMSTATES> 5
<STATE> 2
<MEAN> 39
 3.097039e+00 3.804873e-01 -1.303196e+00 -3.131594e+00 -7.300104e+00 -3.510652e+00 -9.504347e+00 -8.184224e+00 -6.082541e+00 -7.495914e+00 -6.421454e+00 -6.537576e+00 6.443816e+01 2.488035e-01 9.764318e-01 3.141577e-01 7.153066e-01 4.954177e-01 3.831776e-02 3.170329e-01 -4.286926e-02 -2.612365e-01 -3.047586e-01 -6.262935e-01 -4.122935e-01 -4.823414e-01 -1.461294e-01 -6.080207e-01 -2.706546e-01 -4.939275e-01 -1.550381e-01 -2.313445e-01 -1.429569e-01 2.344523e-01 2.412546e-01 2.259440e-01 2.841300e-01 1.918142e-01 6.266468e-01
<VARIANCE> 39
 3.757177e+01 6.185556e+01 4.169841e+01 6.845489e+01 8.667101e+01 5.774160e+01 7.720790e+01 8.024905e+01 4.679914e+01 4.950410e+01 5.602827e+01 3.341833e+01 1.120097e+02 2.227944e+00 2.437133e+00 2.055638e+00 2.667291e+00 2.396275e+00 2.680314e+00 2.648982e+00 2.730635e+00 2.728232e+00 2.539648e+00 3.104723e+00 2.267505e+00 2.214167e+00 3.398697e-01 4.596389e-01 5.029865e-01 5.261437e-01 5.849779e-01 5.472641e-01 5.461536e-01 6.468754e-01 6.220786e-01 5.394745e-01 5.982879e-01 4.050183e-01 3.563897e-01
<GCONST> 1.276439e+02
<STATE> 3
<MEAN> 39
 4.016200e+00 4.646536e-01 -2.249933e+00 -3.072695e+00 -6.145932e+00 -3.295779e+00 -9.122584e+00 -8.721566e+00 -5.660612e+00 -5.985219e+00 -5.969165e+00 -6.572571e+00 6.618068e+01 -2.155831e-02 -1.099324e+00 -7.802316e-01 -9.623619e-01 -5.438324e-02 -7.304332e-01 -2.828130e-01 5.059367e-01 7.685900e-01 4.844802e-01 3.274031e-01 1.669118e-02 1.561952e+00 -2.252527e-01 -7.601005e-01 -8.299601e-02 -5.129453e-01 -3.787416e-01 -1.952488e-01 -8.220145e-02 3.121887e-01 3.198601e-01 1.008864e-01 2.692336e-01 2.096661e-01 6.078845e-01
<VARIANCE> 39
 3.951719e+01 6.619591e+01 5.036862e+01 7.800656e+01 9.190144e+01 5.959815e+01 8.391738e+01 8.623454e+01 6.048247e+01 6.686687e+01 7.915590e+01 4.124002e+01 1.250978e+02 3.247862e+00 4.181901e+00 4.910543e+00 4.702797e+00 4.423633e+00 4.825043e+00 3.604571e+00 5.113245e+00 5.244478e+00 4.173255e+00 4.442533e+00 2.850562e+00 3.824612e+00 4.540779e-01 6.998970e-01 8.314947e-01 8.493962e-01 7.738014e-01 7.542713e-01 7.401769e-01 9.581536e-01 9.019036e-01 8.656251e-01 9.795476e-01 6.796756e-01 5.816850e-01
<GCONST> 1.416599e+02
<STATE> 4
<MEAN> 39
 3.449950e+00 -1.965315e+00 -3.276166e+00 -5.544552e+00 -8.958708e+00 -6.152206e+00 -8.138461e+00 -5.807931e+00 -4.006602e+00 -7.590883e+00 -7.253016e+00 -6.678077e+00 6.834264e+01 -3.068878e-01 -1.601062e+00 -2.250832e-01 -1.428698e+00 -6.829557e-01 -4.321926e-01 -1.669125e-01 6.068619e-01 6.455340e-01 4.506588e-01 7.694316e-01 7.527666e-01 1.623488e+00 -7.894541e-02 -2.072226e-01 8.672161e-02 -2.595137e-01 -1.459672e-01 1.314900e-01 -1.012166e-02 -1.504905e-02 -5.675130e-03 1.714984e-02 1.379822e-01 1.975111e-01 1.012187e-01
<VARIANCE> 39
 3.315311e+01 6.790576e+01 3.828850e+01 8.315783e+01 7.496505e+01 5.302223e+01 6.380188e+01 6.204269e+01 5.022845e+01 5.638678e+01 6.681834e+01 3.751067e+01 1.351159e+02 2.362745e+00 4.744445e+00 4.868631e+00 4.786391e+00 4.641518e+00 4.636135e+00 3.584717e+00 5.140290e+00 4.901517e+00 3.953869e+00 4.042430e+00 3.233383e+00 3.185893e+00 3.191457e-01 5.577564e-01 4.575444e-01 8.966935e-01 6.480032e-01 6.726148e-01 6.331283e-01 6.099387e-01 7.164488e-01 6.521766e-01 6.298084e-01 5.196711e-01 4.780102e-01
<GCONST> 1.359420e+02
<TRANSP> 5
 0.000000e+00 1.000000e+00 0.000000e+00 0.000000e+00 0.000000e+00
 0.000000e+00 4.300567e-01 5.699433e-01 0.000000e+00 0.000000e+00
 0.000000e+00 0.000000e+00 2.580035e-01 7.419966e-01 0.000000e+00
 0.000000e+00 0.000000e+00 0.000000e+00 3.279409e-01 6.720591e-01
 0.000000e+00 0.000000e+00 0.000000e+00 0.000000e+00 0.000000e+00
<ENDHMM>
~h "c"
<BEGINHMM>
<NUMSTATES> 5
<STATE> 2
<MEAN> 39
 -1.189738e+01 -2.472733e+00 -1.481417e+00 -8.548095e+00 -4.652003e+00 -7.435248e+00 -6.218472e+00 -3.855823e+00 -2.171073e+00 -4.684155e+00 -3.424219e+00 -3.201876e+00 6.578367e+01 -6.737459e-01 -3.397065e-01 -2.053301e-01 -1.049191e+00 8.598566e-04 -4.125737e-01 1.800877e-01 3.736168e-01 1.039289e-01 2.707452e-01 4.822062e-01 1.000345e-01 1.220850e+00 6.163344e-01 -3.811274e-01 -6.356135e-02 -3.130276e-02 -3.178624e-01 -4.251402e-02 -1.751799e-02 2.597461e-02 -5.401682e-02 -5.520258e-02 -9.829386e-02 -9.896582e-02 3.653010e-01
<VARIANCE> 39
 1.025996e+02 4.774551e+01 5.191824e+01 8.547124e+01 8.788403e+01 8.112616e+01 9.277956e+01 5.756841e+01 3.637431e+01 2.979250e+01 4.063617e+01 2.862160e+01 1.533001e+02 1.151451e+01 3.299743e+00 4.404421e+00 5.185067e+00 7.199113e+00 4.700077e+00 3.619930e+00 4.735083e+00 3.628775e+00 2.710197e+00 3.177280e+00 2.494370e+00 5.207464e+00 2.101374e+00 6.093913e-01 7.515908e-01 1.088666e+00 1.157760e+00 7.678517e-01 6.718004e-01 1.010129e+00 6.884272e-01 5.719818e-01 6.553318e-01 5.373267e-01 7.759528e-01
<GCONST> 1.415530e+02
<STATE> 3
<MEAN> 39
 -2.825212e+00 -8.808427e+00 -3.488763e+00 -9.827380e+00 -9.619149e+00 -6.832369e+00 -6.270656e+00 -2.526687e+00 -2.227609e+00 -5.067605e+00 -4.862532e+00 -5.067225e+00 7.535928e+01 2.518661e+00 -1.817516e+00 -8.281949e-01 1.718160e-01 -4.200324e-01 3.557440e-01 -2.318205e-01 -1.085341e-01 -3.526419e-01 -4.166625e-01 -7.961286e-01 -6.327462e-01 1.220506e+00 -4.757128e-01 1.471382e-01 2.894693e-02 1.465698e-01 4.046229e-01 2.875038e-01 -8.434813e-02 -2.068653e-01 -4.958240e-02 -5.593992e-02 -1.721325e-02 1.060318e-01 -3.017213e-01
<VARIANCE> 39
 6.031407e+01 5.726686e+01 3.500987e+01 7.000262e+01 6.665593e+01 8.496721e+01 1.124369e+02 7.212498e+01 5.100236e+01 4.429908e+01 4.228104e+01 2.734478e+01 1.699657e+02 8.834562e+00 4.224795e+00 2.842625e+00 3.560649e+00 4.514347e+00 4.413852e+00 3.704913e+00 4.183582e+00 3.776781e+00 4.178298e+00 3.516277e+00 3.178502e+00 2.788240e+00 1.047971e+00 5.258330e-01 5.203493e-01 6.038568e-01 8.075523e-01 7.924072e-01 5.921393e-01 6.267520e-01 7.279922e-01 5.539091e-01 5.919724e-01 4.543087e-01 4.360621e-01
<GCONST> 1.368050e+02
<STATE> 4
<MEAN> 39
 -9.149739e-01 -5.774858e+00 -2.851695e+00 -2.942696e+00 -9.102748e+00 -5.598406e-01 -3.603421e+00 -6.231443e+00 -1.853578e+00 -4.806756e+00 -4.395193e+00 -4.291556e+00 8.923482e+01 3.833201e-02 -1.131276e-02 2.048260e-02 3.688328e-02 -2.264571e-02 6.137542e-02 -3.978782e-03 -1.947324e-02 6.790364e-03 -2.141375e-02 -1.777180e-02 1.066629e-03 -5.370830e-02 -1.410554e-02 1.750296e-02 2.259216e-02 5.138921e-03 -1.587775e-02 4.693616e-03 -1.226850e-02 -1.217155e-02 9.111206e-03 -3.567617e-03 7.951448e-04 9.660042e-03 -2.652524e-02
<VARIANCE> 39
 1.915111e+01 2.973792e+01 3.074189e+01 3.225953e+01 2.697238e+01 4.388804e+01 3.002208e+01 2.935440e+01 3.539862e+01 2.830754e+01 2.637649e+01 2.372782e+01 7.559167e+01 1.142161e+00 1.310388e+00 1.163383e+00 1.447996e+00 2.113463e+00 2.563028e+00 1.844698e+00 2.018553e+00 2.132851e+00 1.858459e+00 1.748638e+00 1.647077e+00 2.230877e+00 1.874384e-01 1.987901e-01 1.843448e-01 2.541884e-01 3.874580e-01 4.403930e-01 3.484576e-01 3.759010e-01 4.003277e-01 3.513597e-01 3.203216e-01 3.021720e-01 3.064498e-01
<GCONST> 1.079893e+02
<TRANSP> 5
 0.000000e+00 1.000000e+00 0.000000e+00 0.000000e+00 0.000000e+00
 0.000000e+00 7.384028e-01 2.615972e-01 0.000000e+00 0.000000e+00
 0.000000e+00 0.000000e+00 4.435585e-01 5.564415e-01 0.000000e+00
 0.000000e+00 0.000000e+00 0.000000e+00 9.540195e-01 4.598042e-02
 0.000000e+00 0.000000e+00 0.000000e+00 0.000000e+00 0.000000e+00
<ENDHMM>
~h "d"
<BEGINHMM>
<NUMSTATES> 5
<STATE> 2
<MEAN> 39
 2.277502e+00 -1.589819e+00 8.057749e-02 -6.948274e-01 -9.213672e+00 -5.577759e+00 -9.955748e+00 -6.238905e+00 -3.368253e+00 -8.116353e+00 -8.289176e+00 -6.140392e+00 6.480649e+01 -2.038480e-01 4.634386e-01 5.337845e-01 4.679215e-02 4.887450e-01 -2.759632e-02 -6.334042e-02 2.095226e-01 -1.982724e-01 -4.475677e-02 -1.782476e-01 -2.794660e-02 4.187512e-02 -2.698158e-01 -9.041028e-01 4.739995e-02 -8.717420e-01 -3.753455e-01 -2.193500e-01 -4.037589e-02 3.389955e-01 -4.319548e-02 2.083572e-01 5.132716e-01 2.651300e-01 9.545894e-01
<VARIANCE> 39
 4.045760e+01 5.793646e+01 5.262947e+01 6.577236e+01 9.537527e+01 6.047181e+01 9.747980e+01 7.702831e+01 5.835425e+01 6.445101e+01 5.378605e+01 3.925549e+01 1.078888e+02 2.524077e+00 3.337672e+00 2.899724e+00 3.355092e+00 3.786069e+00 3.963998e+00 2.936119e+00 3.565090e+00 3.350585e+00 3.030482e+00 3.405610e+00 2.352269e+00 3.124093e+00 4.008274e-01 6.364099e-01 6.775370e-01 7.352223e-01 8.769570e-01 9.306885e-01 6.715791e-01 9.247220e-01 7.324136e-01 6.910630e-01 6.909985e-01 5.317857e-01 4.890639e-01
<GCONST> 1.355998e+02
<STATE> 3
<MEAN> 39
 -1.673158e-01 -2.816966e+00 1.063479e+00 -1.873316e+00 -7.839737e+00 -5.754381e+00 -1.068042e+01 -4.430896e+00 -3.586662e+00 -6.777194e+00 -5.964524e+00 -4.541552e+00 6.813757e+01 -4.142643e-01 -1.894146e+00 4.944215e-01 -1.893858e+00 -1.095980e+00 -8.274993e-01 -4.172341e-01 9.796039e-01 -4.788817e-02 2.642331e-01 1.078691e+00 5.486373e-01 2.530239e+00 1.576238e-01 -5.491183e-01 -1.454452e-01 -3.940672e-01 -4.699117e-01 -1.099550e-01 3.711954e-02 7.087894e-02 9.392209e-02 8.700806e-02 2.014279e-01 -4.570829e-02 4.675756e-01
<VARIANCE> 39
 4.635973e+01 6.733597e+01 6.068978e+01 8.155597e+01 1.139987e+02 8.539320e+01 1.184979e+02 7.736333e+01 6.620379e+01 5.754681e+01 5.653016e+01 4.228309e+01 1.315679e+02 4.048825e+00 4.831565e+00 5.965499e+00 5.210699e+00 7.254170e+00 7.247118e+00 4.969999e+00 6.943494e+00 5.739749e+00 4.647839e+00 5.015771e+00 3.158299e+00 4.648426e+00 5.431852e-01 6.792799e-01 6.455854e-01 8.061286e-01 1.139456e+00 1.339060e+00 9.253844e-01 1.081537e+00 8.787866e-01 6.663686e-01 8.626807e-01 6.846828e-01 6.806688e-01
<GCONST> 1.462649e+02
<STATE> 4
<MEAN> 39
 1.961466e-01 -8.394428e+00 1.716458e+00 -6.702662e+00 -1.223030e+01 -7.603288e+00 -1.017888e+01 -2.196810e+00 -3.105930e+00 -5.564739e+00 -3.618843e+00 -3.660395e+00 7.402396e+01 3.466241e-02 -1.933979e+00 1.432222e-01 -1.737614e+00 -1.218784e+00 -3.972167e-01 3.549989e-02 7.275274e-01 1.693878e-01 3.489295e-01 7.368264e-01 6.143239e-02 2.046808e+00 1.920230e-01 3.831785e-01 -2.692990e-01 3.736616e-01 3.062241e-01 1.847770e-01 1.923371e-01 -2.954140e-01 -2.503290e-02 -1.481139e-01 -2.983602e-01 -1.892413e-01 -4.699574e-01
<VARIANCE> 39
 3.848689e+01 6.423280e+01 7.884196e+01 1.108225e+02 1.256805e+02 8.794930e+01 1.233241e+02 8.058022e+01 8.273018e+01 5.621466e+01 5.027463e+01 3.850616e+01 1.095863e+02 3.055202e+00 3.959989e+00 5.618131e+00 5.084537e+00 6.541809e+00 7.647971e+00 5.949487e+00 7.134988e+00 5.648898e+00 3.928574e+00 4.801537e+00 3.894145e+00 3.434459e+00 3.808587e-01 5.007455e-01 5.482191e-01 6.598409e-01 9.328516e-01 9.334105e-01 7.569041e-01 8.219658e-01 7.500693e-01 7.205250e-01 6.755318e-01 5.127971e-01 5.358414e-01
<GCONST> 1.429718e+02
<TRANSP> 5
 0.000000e+00 1.000000e+00 0.000000e+00 0.000000e+00 0.000000e+00
 0.000000e+00 4.322771e-01 5.677229e-01 0.000000e+00 0.000000e+00
 0.000000e+00 0.000000e+00 2.975947e-01 7.024053e-01 0.000000e+00
 0.000000e+00 0.000000e+00 0.000000e+00 1.770445e-01 8.229555e-01
 0.000000e+00 0.000000e+00 0.000000e+00 0.000000e+00 0.000000e+00
<ENDHMM>
~h "e"
<BEGINHMM>
<NUMSTATES> 5
<STATE> 2
<MEAN> 39
 -6.324809e-01 -1.232200e+01 2.106316e-01 -5.582212e+00 -1.386043e+01 -3.353891e+00 -5.672914e+00 -4.663115e+00 -3.855546e+00 -7.341910e+00 -5.566015e+00 -4.620858e+00 7.821602e+01 -5.574796e-02 -5.405803e-01 2.766040e-01 -3.674488e-01 1.872183e-02 1.787173e-02 2.319091e-01 3.354052e-01 -3.653232e-01 -2.308355e-02 3.173478e-02 2.099149e-03 5.116182e-01 -1.820448e-01 3.290460e-01 -1.899798e-02 1.110454e-01 1.539846e-01 8.983370e-03 8.144456e-02 -7.610305e-02 5.946446e-02 8.055057e-02 1.433924e-02 1.762159e-02 -2.791995e-01
<VARIANCE> 39
 3.650321e+01 6.750487e+01 8.759240e+01 8.918401e+01 8.538038e+01 1.278793e+02 9.538683e+01 7.028762e+01 7.524377e+01 5.482634e+01 5.151306e+01 3.427747e+01 1.681597e+02 2.013751e+00 4.149926e+00 3.887611e+00 2.747871e+00 4.005503e+00 5.372422e+00 3.124012e+00 4.133720e+00 3.828306e+00 3.105548e+00 2.577835e+00 2.066248e+00 3.329018e+00 5.077155e-01 7.563273e-01 6.136225e-01 5.356508e-01 8.198440e-01 8.618831e-01 6.062095e-01 7.891766e-01 7.984241e-01 5.959034e-01 5.324075e-01 4.248705e-01 5.540794e-01
<GCONST> 1.369811e+02
<STATE> 3
<MEAN> 39
 -1.507077e+00 -1.304278e+01 6.595818e-01 -9.900555e+00 -1.499694e+01 -5.022759e+00 -2.322801e+00 -3.877466e+00 -6.382193e+00 -8.261338e+00 -6.889932e+00 -4.467517e+00 6.977645e+01 -1.553683e-01 8.449708e-01 -2.914629e-01 4.950320e-01 1.718508e-01 -1.823154e-01 -8.389433e-02 9.129814e-02 1.567276e-01 -2.307288e-02 -1.162441e-02 -6.511254e-03 -7.370786e-01 -5.551429e-02 1.911036e-01 -7.578934e-02 1.553653e-01 8.844222e-02 -2.188298e-02 -6.541044e-02 -4.390765e-02 8.223800e-02 -8.922772e-03 -5.929656e-03 -7.491346e-03 -1.869794e-01
<VARIANCE> 39
 3.516973e+01 8.613775e+01 6.228284e+01 1.066696e+02 6.980662e+01 9.336583e+01 8.025687e+01 5.523818e+01 5.621787e+01 5.112966e+01 5.215337e+01 2.644010e+01 1.289539e+02 1.032633e+00 2.335353e+00 1.533763e+00 2.101187e+00 2.319160e+00 2.484966e+00 1.977897e+00 2.164639e+00 1.950763e+00 1.821481e+00 1.692718e+00 1.429088e+00 1.426961e+00 2.015965e-01 4.235602e-01 2.956470e-01 3.877121e-01 4.118671e-01 4.383475e-01 3.586485e-01 4.423719e-01 3.892953e-01 3.641468e-01 3.584286e-01 2.751980e-01 2.180851e-01
<GCONST> 1.195169e+02
<STATE> 4
<MEAN> 39
 -2.006272e+00 -5.636194e+00 -2.088997e+00 -1.510495e+00 -8.307262e+00 -3.103808e-01 -3.432957e+00 -5.591514e+00 -1.396153e+00 -4.480711e+00 -4.057587e+00 -3.805659e+00 8.784142e+01 -1.238071e-02 5.892869e-02 5.338912e-03 4.650604e-02 8.040867e-03 3.105133e-02 2.582560e-03 -7.518733e-03 2.899769e-02 5.450042e-03 -3.619913e-03 3.340772e-03 -9.719104e-02 -8.917175e-04 -6.638646e-03 9.654135e-03 -1.185254e-03 -1.337993e-02 5.906059e-03 -4.762138e-03 -1.174198e-02 2.779657e-03 -5.817804e-03 -2.575707e-03 6.718171e-03 -4.101741e-03
<VARIANCE> 39
 2.543352e+01 2.622780e+01 3.097691e+01 3.360891e+01 2.749655e+01 5.545189e+01 3.085826e+01 2.797392e+01 3.444120e+01 2.867067e+01 2.775920e+01 2.041325e+01 9.725481e+01 9.066272e-01 1.196257e+00 1.201004e+00 1.394535e+00 1.799142e+00 2.399699e+00 1.576962e+00 1.709383e+00 2.040853e+00 1.727903e+00 1.628743e+00 1.468883e+00 1.971715e+00 1.385769e-01 1.785240e-01 1.893344e-01 2.338814e-01 3.288883e-01 4.064381e-01 2.987893e-01 3.188357e-01 3.786055e-01 3.264566e-01 2.999285e-01 2.780217e-01 2.538491e-01
<GCONST> 1.057673e+02
<TRANSP> 5
 0.000000e+00 1.000000e+00 0.000000e+00 0.000000e+00 0.000000e+00
 0.000000e+00 6.266866e-01 3.733133e-01 0.000000e+00 0.000000e+00
 0.000000e+00 0.000000e+00 6.436911e-01 3.563088e-01 0.000000e+00
 0.000000e+00 0.000000e+00 0.000000e+00 9.534487e-01 4.655131e-02
 0.000000e+00 0.000000e+00 0.000000e+00 0.000000e+00 0.000000e+00
<ENDHMM>
~h "f"
<BEGINHMM>
<NUMSTATES> 5
<STATE> 2
<MEAN> 39
 -9.829133e+00 -6.493554e+00 -1.494720e+00 -3.826953e+00 -7.872569e+00 -6.709854e+00 -6.323434e+00 -4.591919e+00 -4.317053e+00 -5.591560e+00 -4.108606e+00 -4.386269e+00 6.408710e+01 -2.013569e+00 -3.475696e-01 -3.723851e-01 7.905962e-01 8.932948e-01 -2.908819e-01 3.895954e-01 2.635094e-01 5.973296e-01 4.954972e-01 3.081992e-01 3.249428e-01 -6.518854e-01 2.573516e-01 -2.874066e-01 -8.944393e-02 -3.649658e-01 -2.534641e-01 9.658694e-02 -1.457539e-01 -4.780591e-02 3.605425e-02 3.055922e-02 -1.335985e-02 8.640646e-04 2.249331e-01
<VARIANCE> 39
 6.433897e+01 4.288125e+01 3.996280e+01 7.296658e+01 9.032446e+01 6.092136e+01 6.346462e+01 3.712643e+01 3.646968e+01 3.313298e+01 2.911986e+01 2.261385e+01 1.121373e+02 3.617790e+00 2.062175e+00 2.075983e+00 5.115240e+00 3.959409e+00 3.565483e+00 2.779325e+00 2.508779e+00 3.268352e+00 2.885198e+00 2.816418e+00 2.158990e+00 1.203853e+00 6.316966e-01 3.636419e-01 3.612841e-01 7.478946e-01 6.007681e-01 5.669923e-01 4.735355e-01 4.670692e-01 6.250860e-01 5.404638e-01 4.660144e-01 4.151652e-01 1.794510e-01
<GCONST> 1.256475e+02
<STATE> 3
<MEAN> 39
 -1.468946e+01 -9.085146e+00 -4.306654e+00 -2.429859e+00 -4.099713e+00 -6.991692e+00 -6.371503e+00 -2.416002e+00 -1.687938e+00 -1.609768e+00 -1.474787e+00 -2.685146e+00 6.743032e+01 9.450527e-01 -2.830540e-01 1.643434e-01 -2.026284e-01 -7.063128e-01 7.130384e-02 6.318878e-02 -1.842640e-01 -4.714331e-01 -1.786726e-01 1.673111e-02 -9.721521e-02 1.702857e-01 1.120275e+00 3.476548e-01 2.707439e-01 -3.015725e-01 -6.095756e-01 2.528551e-02 -1.960530e-01 -3.497266e-01 -5.978375e-01 -4.064336e-01 -2.193947e-01 -1.986202e-01 3.130225e-01
<VARIANCE> 39
 6.767904e+01 4.649652e+01 4.210175e+01 6.865220e+01 7.577227e+01 8.752274e+01 6.983837e+01 4.362232e+01 3.812910e+01 3.274843e+01 2.682995e+01 2.284678e+01 1.149952e+02 5.954801e+00 2.804255e+00 3.231192e+00 2.529800e+00 3.879337e+00 3.343214e+00 2.296292e+00 2.873564e+00 3.704556e+00 2.683403e+00 2.362447e+00 1.911539e+00 1.199506e+00 5.878096e-01 4.985954e-01 5.360338e-01 6.782024e-01 8.172437e-01 6.650486e-01 5.719870e-01 5.465301e-01 5.902677e-01 5.562591e-01 5.922012e-01 4.047886e-01 2.440114e-01
<GCONST> 1.282027e+02
<STATE> 4
<MEAN> 39
 -6.573797e+00 -9.852126e+00 -2.263494e+00 -5.737134e+00 -1.097643e+01 -4.113932e+00 -3.559139e+00 -5.365625e+00 -5.736816e+00 -8.110934e+00 -6.341885e+00 -3.950947e+00 6.232959e+01 1.798331e+00 4.446754e-02 6.522972e-02 -1.080180e+00 -7.988036e-01 2.013227e-01 -2.912998e-01 -4.000105e-01 -5.337669e-01 -4.507267e-01 -4.141545e-01 -1.515769e-02 1.004373e+00 1.080346e-01 -6.297483e-02 4.084202e-02 -2.076802e-01 -6.471099e-03 2.995416e-02 -9.999777e-02 -4.127786e-03 1.016499e-01 5.185261e-02 -2.494466e-02 3.501687e-02 2.121047e-01
<VARIANCE> 39
 5.640898e+01 6.317826e+01 5.865124e+01 7.653510e+01 7.919563e+01 5.255065e+01 4.056705e+01 3.420934e+01 3.789536e+01 3.941412e+01 3.236713e+01 2.447680e+01 1.058497e+02 8.287502e+00 5.369285e+00 4.412179e+00 7.824469e+00 6.524652e+00 4.228162e+00 3.284013e+00 2.972185e+00 4.355049e+00 3.816011e+00 3.642408e+00 2.684077e+00 4.024727e+00 9.718963e-01 7.921230e-01 4.776286e-01 1.101920e+00 6.596608e-01 6.099461e-01 5.447722e-01 4.724371e-01 5.890061e-01 5.552334e-01 5.514947e-01 4.650877e-01 4.888805e-01
<GCONST> 1.355309e+02
<TRANSP> 5
 0.000000e+00 1.000000e+00 0.000000e+00 0.000000e+00 0.000000e+00
 0.000000e+00 6.663097e-01 3.336903e-01 0.000000e+00 0.000000e+00
 0.000000e+00 0.000000e+00 5.325658e-01 4.674342e-01 0.000000e+00
 0.000000e+00 0.000000e+00 0.000000e+00 6.308222e-01 3.691778e-01
 0.000000e+00 0.000000e+00 0.000000e+00 0.000000e+00 0.000000e+00
<ENDHMM>
~h "g"
<BEGINHMM>
<NUMSTATES> 5
<STATE> 2
<MEAN> 39
 8.709012e-01 -4.671368e-01 4.714224e-01 -5.110687e+00 -5.348288e+00 -6.927886e+00 -1.139699e+01 -4.896517e+00 -6.513427e+00 -2.429703e+00 -1.763489e+00 -5.995819e+00 6.595063e+01 -1.557737e-01 -8.335118e-01 2.605241e-02 -3.222806e-01 -3.271877e-01 -8.660041e-01 -4.847498e-01 4.295825e-01 -1.822093e-01 1.964559e-02 8.335816e-01 4.001272e-01 1.198189e+00 1.791793e-01 -3.916918e-01 2.811216e-02 -8.592506e-02 -4.855869e-01 -3.403943e-02 -5.239463e-02 -9.770297e-02 1.928203e-01 -1.164182e-01 1.897337e-01 -6.509817e-02 4.478028e-01
<VARIANCE> 39
 5.669592e+01 6.813559e+01 7.722091e+01 8.114688e+01 1.390561e+02 1.122146e+02 1.222287e+02 8.022303e+01 5.950679e+01 7.283401e+01 7.157744e+01 5.171182e+01 9.938932e+01 3.056881e+00 4.017161e+00 6.185911e+00 5.299562e+00 9.621696e+00 8.429425e+00 6.267163e+00 6.165056e+00 5.843107e+00 5.788527e+00 5.203206e+00 3.626418e+00 4.361757e+00 5.547525e-01 6.909238e-01 8.143392e-01 1.132992e+00 1.569868e+00 1.311407e+00 1.107614e+00 1.103140e+00 1.004964e+00 1.021981e+00 9.872318e-01 7.369458e-01 7.990425e-01
<GCONST> 1.500618e+02
<STATE> 3
<MEAN> 39
 2.613445e+00 -8.616098e+00 5.426437e-01 -3.993583e+00 -1.796765e+01 7.390339e-01 -1.939176e+01 -1.192247e+01 -2.993401e+00 -6.887481e+00 -2.174753e+00 -6.720048e+00 7.309112e+01 2.834485e-02 -6.606078e-01 1.523041e-01 6.602120e-02 -2.318828e-01 -3.799132e-01 -1.306636e-01 2.752309e-02 5.190108e-01 -6.145789e-02 -2.097757e-01 -1.494399e-01 4.814543e-01 -5.188496e-02 5.244316e-02 -1.070932e-01 -1.914487e-01 2.795939e-01 1.702738e-02 1.348915e-01 2.158430e-01 -1.000676e-01 6.199206e-02 -1.725331e-01 -5.378531e-02 -2.741145e-02
<VARIANCE> 39
 3.922772e+01 6.053893e+01 7.641180e+01 8.449393e+01 1.409341e+02 1.748761e+02 1.676994e+02 1.509969e+02 8.483540e+01 7.332696e+01 8.291272e+01 4.980458e+01 8.255238e+01 1.590551e+00 3.370454e+00 4.739773e+00 5.839581e+00 7.415739e+00 6.163783e+00 5.253556e+00 8.325195e+00 6.601898e+00 4.170058e+00 5.243642e+00 4.350102e+00 3.466043e+00 2.973097e-01 4.794580e-01 8.299614e-01 9.735563e-01 1.146400e+00 1.345333e+00 9.798090e-01 1.429612e+00 9.687523e-01 8.345034e-01 1.041533e+00 8.366063e-01 6.887906e-01
<GCONST> 1.481211e+02
<STATE> 4
<MEAN> 39
 -1.521171e+00 -4.879187e+00 4.097895e-01 -3.539671e+00 -1.014757e+01 -7.776534e+00 -8.010363e+00 -4.094540e+00 -4.180784e+00 -4.916828e+00 8.245323e-01 -3.660882e+00 6.838894e+01 -1.098234e-01 -7.095364e-01 -3.906949e-01 -6.741821e-01 1.539137e-01 1.899503e-01 2.695264e-01 5.667313e-01 2.879371e-01 1.133203e-01 -1.477982e-02 9.277633e-02 6.069613e-01 4.507074e-03 1.810828e-01 -7.329207e-02 4.949212e-03 2.557522e-01 3.377780e-01 -1.814217e-02 -4.444632e-02 -5.030659e-02 5.393716e-02 -1.679131e-01 -3.300680e-02 -1.951530e-01
<VARIANCE> 39
 1.111833e+02 6.390866e+01 6.896837e+01 8.434261e+01 1.144250e+02 2.188288e+02 1.583293e+02 9.456536e+01 8.022900e+01 7.970868e+01 1.305065e+02 6.372825e+01 2.898801e+02 1.584545e+00 2.472096e+00 3.531429e+00 3.721186e+00 4.716937e+00 4.506353e+00 3.852192e+00 6.076284e+00 4.239171e+00 3.119545e+00 4.007018e+00 3.258430e+00 2.302407e+00 2.543493e-01 3.741849e-01 4.030449e-01 6.003261e-01 8.604999e-01 6.732730e-01 5.168165e-01 7.965060e-01 8.466406e-01 6.012924e-01 7.207478e-01 5.805460e-01 4.610034e-01
<GCONST> 1.410262e+02
<TRANSP> 5
 0.000000e+00 1.000000e+00 0.000000e+00 0.000000e+00 0.000000e+00
 0.000000e+00 6.350722e-01 3.649278e-01 0.000000e+00 0.000000e+00
 0.000000e+00 0.000000e+00 6.126593e-01 3.873407e-01 0.000000e+00
 0.000000e+00 0.000000e+00 0.000000e+00 3.394433e-01 6.605567e-01
 0.000000e+00 0.000000e+00 0.000000e+00 0.000000e+00 0.000000e+00
<ENDHMM>
~h "h"
<BEGINHMM>
<NUMSTATES> 5
<STATE> 2
<MEAN> 39
 -7.661772e-01 -1.187162e+01 -3.378492e+00 -7.924634e+00 -4.077406e+00 -3.360485e+00 -4.218355e+00 -5.638299e+00 -5.684009e+00 -9.542523e+00 -7.493126e+00 -3.343074e+00 7.097874e+01 -6.114143e-01 2.335053e-01 2.862138e-01 2.748082e-01 4.793744e-01 1.115376e-01 3.533406e-01 -2.769710e-01 -3.384225e-01 -2.421460e-01 9.968762e-02 7.840800e-02 -4.446965e-01 6.332680e-03 1.044543e-02 -4.586633e-02 -2.449331e-02 -2.035469e-01 -2.332824e-02 -1.255747e-01 8.487325e-02 1.062073e-01 1.128454e-01 8.606427e-02 -2.541636e-02 -3.983194e-02
<VARIANCE> 39
 4.924481e+01 1.231678e+02 5.930602e+01 9.762822e+01 1.081587e+02 7.323347e+01 1.111654e+02 6.934823e+01 7.919444e+01 9.229714e+01 6.171081e+01 4.636669e+01 9.828466e+01 1.421573e+00 2.517091e+00 2.452078e+00 2.502215e+00 3.548452e+00 3.055235e+00 2.935051e+00 3.157298e+00 3.193094e+00 2.671013e+00 2.546307e+00 2.480870e+00 1.199755e+00 1.823083e-01 3.992636e-01 3.377422e-01 4.287929e-01 4.816456e-01 4.907011e-01 4.871618e-01 5.376160e-01 4.618431e-01 4.647777e-01 4.518528e-01 4.178577e-01 1.608191e-01
<GCONST> 1.279224e+02
<STATE> 3
<MEAN> 39
 -2.540903e+00 -8.777334e+00 -4.541449e+00 -7.854787e+00 -2.919066e-01 -4.851962e+00 -2.916876e+00 -7.098562e+00 -4.888752e+00 -9.451431e+00 -9.021669e+00 -4.731463e+00 6.758990e+01 -3.936235e-01 4.416015e-01 -1.050966e-01 1.903273e-01 -2.527169e-01 2.428633e-01 1.499144e-02 2.604891e-01 2.486747e-01 3.647700e-01 2.413879e-01 1.290536e-01 -7.870290e-01 1.040849e-01 -3.482564e-02 -8.889873e-02 -5.424113e-02 -1.971876e-01 -2.710709e-02 -8.389325e-02 7.586061e-02 5.975794e-02 8.749656e-02 5.504701e-02 3.039806e-02 1.597261e-02
<VARIANCE> 39
 5.970455e+01 8.571960e+01 6.384028e+01 9.163294e+01 1.490366e+02 7.707018e+01 1.172164e+02 8.098513e+01 1.081351e+02 8.506022e+01 7.901204e+01 4.266346e+01 1.130065e+02 1.173342e+00 1.800031e+00 1.729829e+00 2.063806e+00 2.543770e+00 2.280750e+00 2.599124e+00 2.639061e+00 2.558716e+00 2.635375e+00 2.419041e+00 2.169896e+00 1.114157e+00 1.609091e-01 2.866884e-01 2.824203e-01 3.626069e-01 4.456148e-01 4.315226e-01 4.698208e-01 5.256370e-01 5.157099e-01 5.051921e-01 4.751505e-01 4.039952e-01 1.224883e-01
<GCONST> 1.252572e+02
<STATE> 4
<MEAN> 39
 -9.178686e+00 -3.617774e+00 -5.937767e+00 -3.025818e+00 -2.929790e+00 -1.839000e+00 -2.436661e+00 -1.966027e+00 -3.330802e+00 -4.420533e+00 -2.806689e+00 -1.079546e-01 5.343378e+01 -1.801977e-01 6.320810e-02 1.734216e-02 1.086922e-01 -1.758506e-01 3.998750e-02 -4.732320e-02 1.096064e-01 9.566923e-03 1.026600e-01 1.669825e-01 5.451706e-02 -2.967962e-01 2.981248e-02 -8.136121e-03 1.388583e-02 -1.365661e-02 -7.792273e-03 -2.610553e-02 -1.800706e-02 -1.238573e-02 -1.791349e-02 -1.886576e-02 -1.807788e-02 -1.968968e-02 3.956130e-02
<VARIANCE> 39
 8.366255e+01 6.088668e+01 5.228279e+01 5.797536e+01 8.694235e+01 6.980154e+01 7.432427e+01 6.650728e+01 5.632204e+01 6.038253e+01 1.056353e+02 4.981433e+01 1.671157e+02 4.763995e-01 7.503476e-01 9.004669e-01 1.055975e+00 1.494900e+00 1.653677e+00 1.690987e+00 1.737957e+00 1.970170e+00 1.798343e+00 1.891093e+00 1.526414e+00 4.412399e-01 6.079065e-02 1.051132e-01 1.348055e-01 1.710897e-01 2.402044e-01 2.742285e-01 2.877187e-01 3.039478e-01 3.351519e-01 3.221014e-01 3.111639e-01 2.670422e-01 4.204986e-02
<GCONST> 1.078140e+02
<TRANSP> 5
 0.000000e+00 1.000000e+00 0.000000e+00 0.000000e+00 0.000000e+00
 0.000000e+00 3.797672e-01 6.202327e-01 0.000000e+00 0.000000e+00
 0.000000e+00 0.000000e+00 4.994359e-01 5.005642e-01 0.000000e+00
 0.000000e+00 0.000000e+00 0.000000e+00 8.681568e-01 1.318432e-01
 0.000000e+00 0.000000e+00 0.000000e+00 0.000000e+00 0.000000e+00
<ENDHMM>
~h "i"
<BEGINHMM>
<NUMSTATES> 5
<STATE> 2
<MEAN> 39
 -1.195230e+00 -4.472540e+00 7.476722e+00 -6.878303e+00 -1.422339e+01 -8.739145e+00 -8.678004e+00 -7.726133e+00 -6.069199e+00 -5.675620e+00 -1.526301e+00 -4.291606e+00 7.148639e+01 4.885264e-01 -1.757352e-01 1.137225e+00 -6.517594e-01 -1.058220e+00 -1.597188e-01 -4.389114e-01 -4.685949e-01 -2.670150e-02 -1.523296e-01 9.360462e-03 2.794177e-02 8.333471e-01 -1.899644e-01 2.292923e-01 -4.619914e-01 1.608152e-01 5.548975e-01 1.753940e-01 2.106839e-01 1.710040e-01 2.054419e-01 5.100270e-02 -1.895062e-01 1.628412e-02 -4.103432e-01
<VARIANCE> 39
 4.226533e+01 7.629295e+01 1.141773e+02 1.379436e+02 1.378720e+02 1.550053e+02 1.335310e+02 7.794440e+01 8.004079e+01 5.783182e+01 8.857926e+01 3.929646e+01 1.071655e+02 4.161486e+00 3.173115e+00 5.293660e+00 6.838155e+00 7.397744e+00 6.658060e+00 5.485211e+00 5.223915e+00 4.845824e+00 3.664340e+00 4.432526e+00 3.168608e+00 2.883886e+00 6.499798e-01 5.888770e-01 8.347411e-01 9.987015e-01 1.327419e+00 1.157225e+00 9.035096e-01 8.647827e-01 8.544630e-01 6.566467e-01 8.145326e-01 5.063625e-01 5.774924e-01
<GCONST> 1.469377e+02
<STATE> 3
<MEAN> 39
 -8.396362e-01 -5.874293e+00 7.042274e+00 -1.093621e+01 -1.655824e+01 -7.315622e+00 -9.966939e+00 -7.635323e+00 -4.845549e+00 -6.502379e+00 -5.524884e+00 -3.786089e+00 7.112408e+01 -7.472440e-02 7.929022e-01 -3.495304e-01 7.237427e-01 6.455024e-01 1.037058e-01 3.338000e-01 -5.190812e-02 1.271740e-01 2.155980e-02 -2.297672e-01 1.523014e-02 -8.855869e-01 -1.864877e-01 1.730995e-01 -3.629804e-01 4.426587e-01 3.898146e-01 6.601761e-02 2.440165e-01 8.909383e-02 -1.397015e-02 -2.698666e-03 5.400146e-02 -8.918080e-02 -3.977721e-01
<VARIANCE> 39
 2.687542e+01 4.789264e+01 7.343516e+01 1.886071e+02 1.087974e+02 1.034198e+02 1.307865e+02 6.059631e+01 5.936964e+01 4.584052e+01 9.836907e+01 3.913133e+01 8.453925e+01 1.560443e+00 2.165242e+00 2.240382e+00 4.832837e+00 3.379920e+00 3.359320e+00 3.357220e+00 2.952263e+00 2.676422e+00 2.655882e+00 2.992686e+00 2.257152e+00 2.146404e+00 3.557195e-01 3.834859e-01 4.656006e-01 9.384795e-01 7.927009e-01 6.878421e-01 7.393106e-01 5.706957e-01 5.818809e-01 5.530129e-01 6.510303e-01 4.907404e-01 2.911829e-01
<GCONST> 1.324414e+02
<STATE> 4
<MEAN> 39
 -3.067928e+00 1.077223e+00 6.067781e+00 -7.077007e+00 -1.054531e+01 -8.316600e+00 -6.828580e+00 -9.403502e+00 -5.379989e+00 -6.411941e+00 -4.864907e+00 -3.173109e+00 6.321459e+01 -2.796410e-01 2.833969e-01 -5.195518e-01 5.502937e-01 4.392207e-01 3.629119e-01 1.296545e-01 1.531993e-01 9.731666e-03 8.243547e-03 -1.246732e-01 -4.263762e-04 -8.163036e-01 -3.450684e-02 -1.026337e-01 -7.058180e-02 -3.956835e-02 1.429951e-02 3.004994e-03 1.191930e-02 4.504770e-02 -1.366139e-02 2.448924e-02 3.348855e-02 -1.464268e-03 5.057215e-02
<VARIANCE> 39
 5.352005e+01 8.459686e+01 9.476134e+01 1.756452e+02 8.341989e+01 9.663629e+01 8.917736e+01 9.055398e+01 5.605725e+01 5.166663e+01 7.598409e+01 4.126925e+01 1.691167e+02 1.083168e+00 1.543733e+00 1.652203e+00 2.562402e+00 2.487715e+00 2.450498e+00 2.527684e+00 2.366632e+00 2.197611e+00 2.065044e+00 2.285803e+00 1.722494e+00 1.260442e+00 1.419762e-01 2.066483e-01 2.362860e-01 3.636891e-01 3.573371e-01 3.729249e-01 3.859255e-01 3.994987e-01 3.704101e-01 3.579082e-01 3.366953e-01 2.833619e-01 1.368676e-01
<GCONST> 1.213998e+02
<TRANSP> 5
 0.000000e+00 1.000000e+00 0.000000e+00 0.000000e+00 0.000000e+00
 0.000000e+00 5.134703e-01 4.865297e-01 0.000000e+00 0.000000e+00
 0.000000e+00 0.000000e+00 5.010412e-01 4.989587e-01 0.000000e+00
 0.000000e+00 0.000000e+00 0.000000e+00 7.164775e-01 2.835225e-01
 0.000000e+00 0.000000e+00 0.000000e+00 0.000000e+00 0.000000e+00
<ENDHMM>
~h "j"
<BEGINHMM>
<NUMSTATES> 5
<STATE> 2
<MEAN> 39
 -6.658269e+00 2.603322e+00 3.288924e+00 -6.084633e+00 -3.398865e+00 -6.743607e+00 -6.780655e+00 -5.337393e+00 -3.649658e+00 -5.535867e+00 -5.553642e+00 -3.969085e+00 6.303044e+01 -1.069039e+00 5.509567e-03 1.092227e+00 -1.274399e+00 -2.130908e-01 -9.160632e-01 -1.930105e-01 -3.559147e-01 -9.083101e-02 2.681247e-02 6.389026e-01 3.708488e-01 1.538147e+00 4.856252e-01 -5.793235e-01 4.150758e-03 -4.930532e-02 -7.404522e-01 -3.172631e-01 -2.581275e-01 -5.840122e-02 -6.102394e-02 -9.462369e-02 2.015058e-01 1.154900e-01 5.486110e-01
<VARIANCE> 39
 9.232701e+01 5.449977e+01 7.432657e+01 1.333659e+02 1.139116e+02 7.898041e+01 8.285107e+01 4.861559e+01 4.895513e+01 3.998715e+01 5.019964e+01 2.963634e+01 1.083900e+02 9.680985e+00 4.381231e+00 4.517141e+00 8.492270e+00 1.022486e+01 5.863049e+00 3.962449e+00 4.453747e+00 4.122300e+00 3.409421e+00 3.903685e+00 2.735366e+00 4.164099e+00 2.011063e+00 8.512348e-01 8.863525e-01 1.923117e+00 1.774934e+00 8.866094e-01 7.345148e-01 8.672040e-01 7.957013e-01 6.388975e-01 6.618738e-01 5.150580e-01 5.665562e-01
<GCONST> 1.459268e+02
<STATE> 3
<MEAN> 39
 -2.828890e+00 -3.610054e+00 7.061352e+00 -6.610544e+00 -1.339570e+01 -1.143814e+01 -9.066377e+00 -7.086250e+00 -4.516509e+00 -6.550417e+00 -1.722545e+00 -1.086946e+00 7.385025e+01 2.072932e+00 -2.482632e+00 -1.993410e-01 2.155824e-02 -2.469733e+00 -9.354304e-01 -8.654478e-01 3.002118e-01 1.416165e-01 -9.296381e-02 4.953279e-01 7.601374e-02 1.771768e+00 5.470133e-02 1.746380e-02 -6.664015e-01 7.547589e-02 7.872854e-01 4.437409e-01 2.001715e-01 4.430378e-01 1.685931e-01 7.074352e-02 -3.346417e-01 -3.910691e-01 -4.678556e-01
<VARIANCE> 39
 3.859798e+01 6.271569e+01 7.961028e+01 1.390077e+02 9.364873e+01 1.340636e+02 9.166875e+01 5.090089e+01 5.087941e+01 4.496909e+01 6.170475e+01 2.950328e+01 7.887774e+01 5.652544e+00 5.246460e+00 6.346638e+00 6.572230e+00 8.239105e+00 6.844210e+00 5.071183e+00 5.076555e+00 4.262696e+00 3.186195e+00 3.612942e+00 3.169316e+00 2.880372e+00 1.023466e+00 6.933086e-01 6.932576e-01 7.891449e-01 1.102729e+00 1.088183e+00 7.853826e-01 7.087024e-01 7.346815e-01 5.629324e-01 6.307725e-01 4.871697e-01 4.905319e-01
<GCONST> 1.426575e+02
<STATE> 4
<MEAN> 39
 -2.432278e-01 -7.658566e+00 3.803791e+00 -6.836675e+00 -1.407473e+01 -9.598717e+00 -8.484962e+00 -5.047927e+00 -3.680765e+00 -6.276646e+00 -4.499184e+00 -3.382409e+00 7.324094e+01 4.270594e-01 -5.996358e-01 -8.031008e-01 -5.499082e-02 4.111322e-01 1.807720e-01 3.709412e-02 5.103116e-01 5.724151e-02 1.012730e-01 -2.690124e-01 -3.379261e-01 9.887102e-02 -2.892092e-01 4.301803e-01 -1.299927e-01 6.438858e-02 5.670244e-01 2.691945e-01 1.168620e-01 -4.278652e-02 -5.218585e-02 4.320578e-02 -1.083441e-01 -9.288615e-02 -3.861050e-01
<VARIANCE> 39
 2.327185e+01 7.144466e+01 7.028289e+01 1.297803e+02 8.704064e+01 9.024914e+01 9.333964e+01 7.267872e+01 5.012154e+01 4.274541e+01 6.478283e+01 3.003946e+01 1.191259e+02 2.393207e+00 3.676301e+00 3.287641e+00 3.009260e+00 4.042925e+00 3.081647e+00 3.718253e+00 3.956093e+00 3.395653e+00 2.378677e+00 2.608563e+00 2.351822e+00 2.830747e+00 5.077507e-01 7.269585e-01 4.818827e-01 8.018201e-01 9.451935e-01 7.736420e-01 6.889077e-01 6.512768e-01 5.686576e-01 5.516927e-01 4.973350e-01 4.278567e-01 5.345215e-01
<GCONST> 1.342522e+02
<TRANSP> 5
 0.000000e+00 1.000000e+00 0.000000e+00 0.000000e+00 0.000000e+00
 0.000000e+00 6.964927e-01 3.035073e-01 0.000000e+00 0.000000e+00
 0.000000e+00 0.000000e+00 4.543785e-01 5.456215e-01 0.000000e+00
 0.000000e+00 0.000000e+00 0.000000e+00 5.170439e-01 4.829561e-01
 0.000000e+00 0.000000e+00 0.000000e+00 0.000000e+00 0.000000e+00
<ENDHMM>
~h "k"
<BEGINHMM>
<NUMSTATES> 5
<STATE> 2
<MEAN> 39
 -5.901177e+00 -3.158751e+00 -4.376420e+00 -4.406320e+00 -4.565979e+00 -4.012252e+00 -7.544363e+00 -3.833808e+00 -4.335538e+00 -3.606479e+00 -3.431684e+00 -4.172690e+00 5.935539e+01 -1.063713e+00 -9.134015e-01 -9.850471e-01 -7.148729e-01 1.271940e+00 -4.877605e-01 -1.334375e-01 6.422242e-01 2.954942e-02 7.692641e-01 3.047999e-01 7.963669e-02 4.582906e-01 3.643193e-01 -4.023369e-01 -1.170062e-01 -5.170634e-01 -8.053069e-02 -1.931231e-01 -6.446917e-02 1.046406e-01 -3.332844e-02 -5.235713e-02 -2.020826e-02 -7.655673e-02 8.883761e-01
<VARIANCE> 39
 5.711459e+01 5.556462e+01 5.642823e+01 7.016225e+01 9.468134e+01 8.119006e+01 9.417345e+01 6.818954e+01 5.332597e+01 4.957266e+01 4.451728e+01 3.940874e+01 1.245478e+02 3.550124e+00 4.464439e+00 4.622697e+00 5.368721e+00 8.329665e+00 4.964860e+00 4.792585e+00 4.902978e+00 4.660106e+00 4.031150e+00 4.016984e+00 3.468575e+00 4.664524e+00 6.242903e-01 6.788853e-01 6.621282e-01 7.685728e-01 1.331226e+00 8.572561e-01 7.572136e-01 8.343161e-01 9.007095e-01 7.739592e-01 7.191690e-01 5.918334e-01 5.335243e-01
<GCONST> 1.421695e+02
<STATE> 3
<MEAN> 39
 -6.217813e+00 -7.075405e+00 -8.922112e+00 -1.034873e+01 1.385402e+00 -6.961467e+00 -8.305012e+00 -9.340627e-01 -3.543388e+00 2.576125e-01 -2.069220e+00 -5.560624e+00 6.665627e+01 1.223249e+00 -7.854940e-01 -1.236298e-01 -8.197745e-01 -6.631776e-01 -6.499231e-01 3.660350e-01 1.089097e-01 2.333620e-01 -2.767640e-01 -1.808465e-01 -3.046104e-01 2.039587e+00 7.250026e-01 1.261868e-01 4.857438e-01 3.131611e-01 -8.416929e-01 2.135850e-01 1.362182e-01 -3.816037e-01 -8.084346e-02 -5.643401e-01 -1.970336e-01 -3.285668e-02 2.855049e-02
<VARIANCE> 39
 7.743604e+01 7.348783e+01 8.647089e+01 1.279183e+02 2.020213e+02 1.185946e+02 1.226916e+02 8.844197e+01 6.856170e+01 8.246339e+01 6.175707e+01 6.684564e+01 1.025396e+02 5.790963e+00 5.024538e+00 5.148344e+00 5.601861e+00 9.869719e+00 5.963514e+00 6.329963e+00 6.084280e+00 6.091410e+00 6.067067e+00 5.242735e+00 3.937901e+00 4.892053e+00 9.644272e-01 9.711087e-01 9.757352e-01 1.077876e+00 2.058230e+00 1.174764e+00 1.278845e+00 1.165266e+00 1.210391e+00 1.141661e+00 1.035929e+00 8.852016e-01 6.288959e-01
<GCONST> 1.543301e+02
<STATE> 4
<MEAN> 39
 -9.151592e-01 -8.398034e+00 -5.448746e+00 -7.635944e+00 -6.588812e+00 -6.598001e+00 -6.831417e+00 -2.363393e+00 -3.921730e+00 -4.670285e+00 -4.087124e+00 -4.952982e+00 7.108447e+01 1.677287e+00 -6.950226e-01 4.809225e-01 -3.448583e-01 -1.267144e+00 1.167853e-01 2.956413e-02 -4.969896e-01 -4.382208e-01 -1.089991e+00 -4.440075e-01 -2.248066e-01 1.393445e+00 -1.835415e-01 1.301789e-01 6.992406e-02 1.846963e-01 1.969117e-01 2.043823e-01 -1.248119e-01 -5.559293e-02 -7.323236e-02 7.189353e-02 -8.237114e-03 6.215943e-02 -3.622986e-01
<VARIANCE> 39
 4.972108e+01 8.039587e+01 6.984190e+01 1.075368e+02 1.039529e+02 1.000978e+02 1.012602e+02 8.003178e+01 6.149299e+01 6.735464e+01 5.479058e+01 4.457571e+01 1.253506e+02 5.431016e+00 5.751348e+00 4.485537e+00 5.230534e+00 7.115093e+00 6.630555e+00 5.058088e+00 5.282609e+00 5.468914e+00 5.194722e+00 4.918598e+00 3.657651e+00 4.002307e+00 5.966350e-01 7.667021e-01 5.568335e-01 6.831590e-01 9.089426e-01 8.255101e-01 8.581709e-01 8.311910e-01 7.693255e-01 7.800213e-01 7.501495e-01 5.138394e-01 6.673208e-01
<GCONST> 1.452231e+02
<TRANSP> 5
 0.000000e+00 1.000000e+00 0.000000e+00 0.000000e+00 0.000000e+00
 0.000000e+00 5.695832e-01 4.304168e-01 0.000000e+00 0.000000e+00
 0.000000e+00 0.000000e+00 4.566058e-01 5.433943e-01 0.000000e+00
 0.000000e+00 0.000000e+00 0.000000e+00 2.378155e-01 7.621845e-01
 0.000000e+00 0.000000e+00 0.000000e+00 0.000000e+00 0.000000e+00
<ENDHMM>
~h "l"
<BEGINHMM>
<NUMSTATES> 5
<STATE> 2
<MEAN> 39
 4.863130e+00 -6.775182e+00 -6.245794e+00 -8.987590e+00 -4.173427e+00 -7.960153e+00 -4.057169e+00 -9.336637e+00 9.489375e-01 2.211276e-02 -7.580360e+00 -5.044175e+00 7.285442e+01 -4.865540e-03 -2.239101e-01 -1.883442e-01 3.044431e-02 1.930805e-01 -9.513277e-02 4.196134e-01 -3.278363e-02 2.649195e-01 -6.263213e-02 -3.971129e-01 1.267685e-01 7.990672e-02 -9.730758e-02 1.163228e-01 8.052677e-02 -5.520380e-02 1.328340e-02 7.795705e-02 -1.304453e-02 1.513631e-01 -1.141942e-01 -1.432390e-01 9.888276e-02 3.499450e-02 -6.723124e-02
<VARIANCE> 39
 4.411895e+01 7.956381e+01 7.998664e+01 9.184340e+01 1.815751e+02 1.353559e+02 1.853906e+02 1.356529e+02 8.117123e+01 1.482697e+02 8.825619e+01 4.291946e+01 8.723206e+01 8.988547e-01 2.300175e+00 2.950289e+00 2.941822e+00 4.223709e+00 4.031630e+00 5.472536e+00 5.332908e+00 3.263605e+00 4.448189e+00 4.305886e+00 2.293922e+00 1.251577e+00 1.750286e-01 3.842499e-01 3.956068e-01 5.222858e-01 6.695421e-01 6.427218e-01 1.014803e+00 9.537274e-01 5.969091e-01 6.999392e-01 7.129417e-01 4.191766e-01 2.168713e-01
<GCONST> 1.366132e+02
<STATE> 3
<MEAN> 39
 4.510913e+00 -5.575007e+00 -7.218563e+00 -8.685077e+00 -3.083202e+00 -6.431287e+00 -2.346453e+00 -9.536038e+00 9.953855e-01 -2.915248e+00 -9.586735e+00 -4.927455e+00 7.127148e+01 -1.887154e-01 5.125355e-01 2.393585e-01 2.368454e-01 -2.016939e-01 3.179400e-01 -2.618187e-01 3.070955e-01 -2.857257e-01 -1.622882e-01 8.797508e-02 1.052606e-01 -6.466619e-01 -6.995416e-02 4.549736e-02 3.278553e-02 -5.971272e-02 1.068109e-02 6.653463e-02 -5.091344e-02 1.107657e-01 -5.513486e-02 -2.123807e-02 4.766686e-02 -2.831114e-02 -5.096486e-02
<VARIANCE> 39
 4.271222e+01 9.064444e+01 6.837823e+01 7.961478e+01 2.022331e+02 1.233227e+02 1.889638e+02 1.405605e+02 8.454572e+01 1.124306e+02 1.254263e+02 4.257160e+01 1.004298e+02 6.160154e-01 1.454281e+00 1.644054e+00 2.120036e+00 2.655027e+00 2.341907e+00 2.671123e+00 3.010109e+00 2.498502e+00 2.464521e+00 2.548024e+00 1.667894e+00 1.083943e+00 1.010953e-01 2.309148e-01 2.293068e-01 3.181459e-01 4.630988e-01 4.154225e-01 4.207627e-01 5.882306e-01 4.332502e-01 4.566741e-01 4.397646e-01 3.088054e-01 1.192788e-01
<GCONST> 1.244370e+02
<STATE> 4
<MEAN> 39
 -4.522658e+00 -4.288164e+00 -5.901943e+00 -3.013564e+00 -5.510728e+00 -3.266694e+00 -5.211339e+00 -1.958486e+00 -3.978585e+00 -5.708534e+00 -3.931771e+00 -2.050626e+00 6.027935e+01 -2.158855e-01 6.359521e-02 9.792902e-02 6.019282e-02 -4.183258e-02 1.022288e-01 -6.766743e-02 9.185322e-02 -3.888765e-02 -2.266936e-02 7.876982e-02 3.525675e-02 -2.690167e-01 3.557686e-03 2.112791e-03 1.124606e-02 -5.629718e-03 1.479183e-02 -1.519951e-03 7.927400e-04 -2.664686e-02 -1.728950e-02 5.347310e-04 -1.065185e-02 -1.106340e-02 8.099942e-03
<VARIANCE> 39
 7.320802e+01 9.683073e+01 5.318228e+01 6.074369e+01 6.573457e+01 6.976913e+01 6.080473e+01 6.728806e+01 5.964938e+01 5.739233e+01 5.465116e+01 3.752192e+01 2.644063e+02 4.552853e-01 7.028509e-01 9.264256e-01 1.147582e+00 1.471836e+00 1.638281e+00 1.655839e+00 1.852369e+00 1.875489e+00 1.715227e+00 1.757541e+00 1.433125e+00 4.225561e-01 5.080992e-02 1.106726e-01 1.289483e-01 1.783612e-01 2.307993e-01 2.679285e-01 2.824104e-01 3.070508e-01 3.212725e-01 3.009380e-01 2.960715e-01 2.628133e-01 4.356644e-02
<GCONST> 1.066618e+02
<TRANSP> 5
 0.000000e+00 1.000000e+00 0.000000e+00 0.000000e+00 0.000000e+00
 0.000000e+00 4.792554e-01 5.207446e-01 0.000000e+00 0.000000e+00
 0.000000e+00 0.000000e+00 5.091968e-01 4.908032e-01 0.000000e+00
 0.000000e+00 0.000000e+00 0.000000e+00 8.440025e-01 1.559975e-01
 0.000000e+00 0.000000e+00 0.000000e+00 0.000000e+00 0.000000e+00
<ENDHMM>
~h "m"
<BEGINHMM>
<NUMSTATES> 5
<STATE> 2
<MEAN> 39
 4.583523e+00 -3.941160e+00 -2.238621e+00 -3.992932e+00 -9.103822e+00 -1.255474e+00 -8.689918e+00 -9.176938e+00 -7.095030e+00 -6.977361e+00 -3.478993e+00 -4.895287e+00 6.886457e+01 2.464407e-01 6.690974e-01 7.753628e-02 6.518578e-01 -8.330020e-02 6.755399e-01 4.220546e-01 -9.059777e-01 -6.026391e-01 -4.397734e-01 -3.333539e-01 -2.204837e-01 -4.904810e-01 -1.123463e-01 -2.737007e-01 -1.490236e-01 -2.741658e-01 1.102988e-01 -3.839715e-02 3.668987e-02 2.558057e-01 2.215678e-01 5.143776e-02 -1.300279e-01 -5.669139e-02 2.420802e-01
<VARIANCE> 39
 3.812374e+01 8.604179e+01 5.567850e+01 9.339983e+01 1.053810e+02 8.785786e+01 1.215884e+02 9.486612e+01 5.860149e+01 5.684314e+01 5.532859e+01 3.363007e+01 1.120268e+02 1.006474e+00 2.200455e+00 4.236943e+00 5.068019e+00 3.156466e+00 3.823946e+00 2.900003e+00 3.753051e+00 3.105846e+00 2.636930e+00 2.976465e+00 2.142989e+00 1.533027e+00 1.787519e-01 3.548512e-01 4.852331e-01 6.767142e-01 4.655005e-01 5.299895e-01 5.073764e-01 7.008861e-01 5.808593e-01 4.643366e-01 5.586593e-01 3.568493e-01 2.337887e-01
<GCONST> 1.296160e+02
<STATE> 3
<MEAN> 39
 4.763867e+00 -4.048944e+00 -3.866337e+00 -4.821948e+00 -8.823833e+00 7.315925e-01 -6.978194e+00 -1.023926e+01 -6.810547e+00 -8.203337e+00 -5.607373e+00 -5.739651e+00 6.937438e+01 -3.494607e-02 1.254600e-02 -2.204571e-01 -3.592174e-02 2.992001e-01 8.468566e-02 2.431087e-01 -3.634357e-02 3.265132e-01 -8.996471e-02 -6.247857e-01 -3.248944e-01 1.035160e-01 -1.413324e-01 -1.956652e-01 -3.367241e-02 -1.966067e-01 8.571468e-02 -2.648132e-01 -1.171857e-01 3.483185e-01 2.075742e-01 1.814803e-01 1.280793e-01 1.291370e-01 1.713175e-01
<VARIANCE> 39
 4.591299e+01 7.463421e+01 6.636746e+01 1.038114e+02 1.473756e+02 1.088823e+02 1.267235e+02 9.923513e+01 6.463139e+01 6.909747e+01 5.729121e+01 3.467595e+01 1.175997e+02 8.955966e-01 2.288944e+00 3.131623e+00 3.584294e+00 3.133135e+00 3.202837e+00 2.455800e+00 2.711741e+00 3.927656e+00 2.491205e+00 4.168020e+00 2.003407e+00 1.570990e+00 1.821014e-01 3.944737e-01 6.321369e-01 7.848445e-01 5.860975e-01 6.757880e-01 4.752882e-01 5.973791e-01 5.900231e-01 5.257800e-01 5.787015e-01 3.828769e-01 2.426898e-01
<GCONST> 1.311227e+02
<STATE> 4
<MEAN> 39
 3.627875e+00 -4.191561e-01 -3.596642e+00 -3.928049e+00 -7.056693e+00 -2.825475e+00 -4.833528e+00 -7.257909e+00 -7.059196e+00 -8.293220e+00 -7.845249e+00 -6.781482e+00 6.428575e+01 -2.654877e-01 -1.917358e-02 1.465271e-02 4.313118e-02 6.294806e-02 1.517892e-02 -5.245397e-02 2.821147e-01 1.000773e-01 7.326061e-02 2.852248e-02 7.102939e-02 -1.573275e-01 -6.300616e-02 -1.859253e-01 -5.846163e-02 -1.476529e-01 6.883914e-02 -2.769178e-02 -7.610178e-02 1.407502e-01 9.527601e-02 1.465622e-02 9.410311e-02 8.747430e-02 1.129721e-01
<VARIANCE> 39
 5.011272e+01 8.384267e+01 4.349573e+01 9.245294e+01 1.332263e+02 7.005132e+01 8.354272e+01 6.627328e+01 6.292937e+01 5.257339e+01 6.186984e+01 3.182443e+01 1.356685e+02 7.474913e-01 1.658171e+00 1.738413e+00 2.357073e+00 2.061813e+00 2.067551e+00 1.809182e+00 2.311441e+00 2.214539e+00 1.934252e+00 1.989769e+00 1.519484e+00 1.051140e+00 1.143448e-01 2.510382e-01 2.984459e-01 3.759853e-01 4.188423e-01 3.593102e-01 3.421498e-01 4.187626e-01 4.003990e-01 3.517990e-01 3.560399e-01 2.789130e-01 1.337133e-01
<GCONST> 1.179403e+02
<TRANSP> 5
 0.000000e+00 1.000000e+00 0.000000e+00 0.000000e+00 0.000000e+00
 0.000000e+00 3.266838e-01 6.733162e-01 0.000000e+00 0.000000e+00
 0.000000e+00 0.000000e+00 2.366188e-01 7.633811e-01 0.000000e+00
 0.000000e+00 0.000000e+00 0.000000e+00 6.781167e-01 3.218833e-01
 0.000000e+00 0.000000e+00 0.000000e+00 0.000000e+00 0.000000e+00
<ENDHMM>
~h "n"
<BEGINHMM>
<NUMSTATES> 5
<STATE> 2
<MEAN> 39
 2.603320e+00 -7.304084e+00 -1.562610e+00 -3.438337e+00 -1.058782e+01 -5.633081e+00 -1.064371e+01 -5.022608e+00 -4.945771e+00 -6.970733e+00 -7.856597e+00 -5.798853e+00 7.020528e+01 2.691639e-01 1.511372e+00 5.919237e-01 1.347150e+00 -4.220003e-01 4.268897e-02 1.375068e-01 -1.459504e+00 1.007221e-01 -1.998222e-01 -4.020811e-01 -5.004295e-02 -1.397981e+00 -1.318545e-01 -1.127283e-01 -5.437602e-02 -1.543586e-01 1.194366e-01 1.337197e-01 1.325604e-01 7.623420e-02 1.890778e-02 2.105901e-02 1.019329e-01 8.282967e-02 8.648398e-02
<VARIANCE> 39
 3.469204e+01 6.938992e+01 4.482637e+01 7.783825e+01 1.176446e+02 6.794842e+01 1.231974e+02 8.732997e+01 5.244576e+01 6.515735e+01 5.031258e+01 3.233138e+01 1.187551e+02 9.947944e-01 2.188382e+00 2.438596e+00 2.593439e+00 3.563627e+00 2.951309e+00 2.904112e+00 6.057197e+00 2.877294e+00 2.369372e+00 2.549515e+00 1.996054e+00 1.297350e+00 1.407834e-01 3.662256e-01 3.042481e-01 4.124577e-01 5.395967e-01 4.467407e-01 4.367624e-01 7.537795e-01 4.580116e-01 3.929874e-01 4.100996e-01 3.139609e-01 2.218036e-01
<GCONST> 1.250035e+02
<STATE> 3
<MEAN> 39
 2.513226e+00 -4.419055e+00 -3.601517e-01 -8.801577e-01 -1.062455e+01 -5.185666e+00 -1.003320e+01 -8.295023e+00 -4.744002e+00 -7.224897e+00 -8.628320e+00 -5.425312e+00 6.701344e+01 -2.973188e-01 7.024409e-01 1.189922e-01 4.285001e-01 3.191076e-01 3.350057e-01 2.371853e-01 -2.301377e-01 -3.305862e-03 3.290949e-02 4.848333e-02 5.344715e-02 -8.407431e-01 -2.095020e-01 -3.508789e-01 -1.698168e-01 -3.981116e-01 1.957981e-01 5.108608e-02 1.133911e-02 4.496504e-01 -6.152038e-04 9.773724e-02 1.987413e-01 2.872430e-02 2.528963e-01
<VARIANCE> 39
 3.736116e+01 5.854122e+01 4.588931e+01 7.058558e+01 1.170140e+02 6.003316e+01 1.007302e+02 8.171697e+01 5.199677e+01 6.161100e+01 4.816034e+01 3.251006e+01 1.164429e+02 1.145875e+00 1.724787e+00 1.582162e+00 1.852009e+00 2.594532e+00 2.124767e+00 2.087959e+00 3.277670e+00 2.406343e+00 1.981438e+00 2.241456e+00 1.776646e+00 1.082084e+00 1.657781e-01 3.397010e-01 4.064655e-01 4.447244e-01 6.415793e-01 4.582596e-01 4.673905e-01 7.337011e-01 4.745040e-01 4.345315e-01 4.474164e-01 3.634762e-01 2.010073e-01
<GCONST> 1.220370e+02
<STATE> 4
<MEAN> 39
 -5.975762e+00 -3.777019e+00 -5.013364e+00 -1.644649e+00 -5.190027e+00 -3.807318e+00 -6.753948e+00 -2.605359e+00 -4.384212e+00 -6.099276e+00 -4.464168e+00 -2.604611e+00 5.538105e+01 -2.319255e-01 3.625704e-02 -6.819014e-02 -1.165539e-02 4.421775e-02 9.047861e-02 4.309335e-02 8.251795e-02 1.681411e-02 8.710513e-02 1.374751e-01 6.456126e-02 -2.657367e-01 -2.033833e-02 -5.771280e-02 -4.382683e-04 -6.679811e-02 2.218987e-02 -1.775836e-02 -3.934694e-03 4.262232e-02 -8.754863e-03 -6.047334e-04 1.078418e-02 6.116690e-03 7.808585e-02
<VARIANCE> 39
 7.102839e+01 5.498649e+01 4.898219e+01 4.685917e+01 6.699467e+01 5.184866e+01 6.004753e+01 5.142734e+01 4.097866e+01 3.868255e+01 4.588980e+01 3.857244e+01 1.496117e+02 4.868465e-01 7.882118e-01 9.110768e-01 1.053400e+00 1.472091e+00 1.556328e+00 1.589252e+00 1.818135e+00 1.831334e+00 1.681662e+00 1.687160e+00 1.434344e+00 4.650026e-01 8.939370e-02 1.427868e-01 1.602661e-01 2.176077e-01 2.803220e-01 2.792349e-01 3.075314e-01 3.663299e-01 3.402803e-01 3.265052e-01 3.226911e-01 2.734579e-01 6.950481e-02
<GCONST> 1.061242e+02
<TRANSP> 5
 0.000000e+00 1.000000e+00 0.000000e+00 0.000000e+00 0.000000e+00
 0.000000e+00 3.303868e-01 6.696132e-01 0.000000e+00 0.000000e+00
 0.000000e+00 0.000000e+00 3.876110e-01 6.123890e-01 0.000000e+00
 0.000000e+00 0.000000e+00 0.000000e+00 8.436900e-01 1.563100e-01
 0.000000e+00 0.000000e+00 0.000000e+00 0.000000e+00 0.000000e+00
<ENDHMM>
~h "o"
<BEGINHMM>
<NUMSTATES> 5
<STATE> 2
<MEAN> 39
 -2.908107e+00 -3.626508e+00 -5.354663e+00 -1.119273e+01 -5.034678e+00 -1.196934e+00 -6.400510e+00 -6.128201e+00 -3.939635e+00 -4.316086e+00 -2.138395e+00 -3.732314e+00 6.571360e+01 1.359350e+00 -5.186171e-01 -9.347757e-01 -1.682876e+00 1.223009e-01 6.437177e-01 -2.520599e-01 -5.441899e-01 -7.804625e-02 1.276990e-01 3.158116e-01 -2.937908e-01 1.449635e+00 1.903877e-01 -3.011239e-02 -2.340417e-02 1.592165e-01 2.637260e-02 -1.152710e-01 -1.630477e-02 -5.186629e-02 1.314950e-02 6.463996e-02 -4.074001e-02 -1.080326e-01 9.182519e-02
<VARIANCE> 39
 8.997245e+01 7.737588e+01 1.102703e+02 1.596711e+02 1.095370e+02 9.254775e+01 9.962892e+01 8.397365e+01 7.779563e+01 5.180959e+01 5.744650e+01 3.896461e+01 1.528862e+02 8.244991e+00 4.225166e+00 7.004366e+00 8.104825e+00 7.135521e+00 7.837174e+00 5.281692e+00 6.806195e+00 5.724606e+00 4.873071e+00 5.787279e+00 3.567675e+00 4.911432e+00 1.189641e+00 7.202655e-01 1.052490e+00 1.427739e+00 1.095312e+00 1.134351e+00 9.344804e-01 1.222708e+00 1.003544e+00 7.293606e-01 8.136521e-01 5.784959e-01 8.067271e-01
<GCONST> 1.520684e+02
<STATE> 3
<MEAN> 39
 4.717649e+00 -5.553534e+00 -9.798196e+00 -1.574890e+01 -4.498098e+00 -1.030060e-01 -7.291081e+00 -8.886284e+00 -2.923085e+00 -2.105577e+00 -4.696295e-02 -5.879393e+00 7.127782e+01 8.811707e-01 -3.987257e-01 -3.089559e-02 1.527125e-01 -7.919343e-02 -1.601859e-01 -3.694186e-01 -3.101081e-01 6.943855e-02 3.101051e-01 1.189317e-01 -3.776992e-01 5.520515e-01 -5.069929e-01 2.689875e-01 3.657263e-01 6.245911e-01 8.655343e-02 -3.249584e-01 9.854294e-02 2.639332e-01 2.473213e-02 -7.229397e-02 -2.317945e-01 8.608118e-02 -4.937481e-01
<VARIANCE> 39
 4.471144e+01 9.350468e+01 7.022587e+01 1.455695e+02 1.263196e+02 1.062632e+02 1.257396e+02 8.903448e+01 8.336561e+01 6.743885e+01 1.184328e+02 4.144588e+01 7.390194e+01 3.851255e+00 4.071913e+00 4.205019e+00 5.005783e+00 5.998434e+00 6.901411e+00 5.063299e+00 6.090947e+00 5.745617e+00 3.973421e+00 4.981766e+00 3.003957e+00 3.339538e+00 7.239983e-01 7.522967e-01 7.691309e-01 1.012250e+00 1.275467e+00 1.165593e+00 8.931294e-01 1.025675e+00 1.065646e+00 7.595477e-01 9.769121e-01 6.179439e-01 5.166867e-01
<GCONST> 1.475772e+02
<STATE> 4
<MEAN> 39
 5.082338e+00 -5.691144e+00 -1.061528e+01 -1.470069e+01 -5.433717e+00 1.453899e-01 -7.001582e+00 -7.286400e+00 -3.015059e+00 -2.690790e+00 -1.347393e+00 -6.134589e+00 6.852306e+01 -4.041603e-01 6.056864e-01 5.629581e-01 1.324949e+00 -2.640031e-03 -6.742205e-01 4.128828e-02 1.953377e-01 8.121656e-02 -1.026342e-01 -5.476158e-01 3.658869e-02 -8.952675e-01 -3.068699e-01 1.462781e-01 2.207590e-01 2.433702e-01 -1.211515e-02 -1.570560e-01 8.389679e-02 3.532664e-02 6.089678e-03 -7.785671e-02 -1.092874e-02 1.176936e-01 -2.299300e-01
<VARIANCE> 39
 4.198196e+01 9.202448e+01 4.657626e+01 1.016510e+02 6.548425e+01 8.721204e+01 1.176082e+02 6.503852e+01 4.838580e+01 6.218347e+01 8.345818e+01 3.667045e+01 8.112517e+01 1.778139e+00 3.225237e+00 2.420420e+00 3.701465e+00 3.226057e+00 4.274824e+00 2.934516e+00 3.119211e+00 2.827429e+00 2.580111e+00 2.881104e+00 1.937944e+00 2.072461e+00 3.288718e-01 5.645797e-01 3.838002e-01 6.372457e-01 5.975087e-01 7.084834e-01 5.721466e-01 5.401747e-01 5.694715e-01 5.314596e-01 5.290442e-01 3.815148e-01 3.493561e-01
<GCONST> 1.306634e+02
<TRANSP> 5
 0.000000e+00 1.000000e+00 0.000000e+00 0.000000e+00 0.000000e+00
 0.000000e+00 4.678263e-01 5.321737e-01 0.000000e+00 0.000000e+00
 0.000000e+00 0.000000e+00 4.952933e-01 5.047067e-01 0.000000e+00
 0.000000e+00 0.000000e+00 0.000000e+00 6.535322e-01 3.464678e-01
 0.000000e+00 0.000000e+00 0.000000e+00 0.000000e+00 0.000000e+00
<ENDHMM>
~h "p"
<BEGINHMM>
<NUMSTATES> 5
<STATE> 2
<MEAN> 39
 -6.518682e+00 -2.957099e+00 -5.189003e+00 -4.751774e+00 -5.943173e+00 -3.781244e+00 -8.739619e+00 -5.869894e+00 -3.393044e+00 -3.578752e+00 -3.865756e+00 -4.286019e+00 5.724293e+01 -2.093318e-01 -6.148305e-01 -6.944859e-01 -7.280397e-01 5.611271e-02 -2.959841e-01 1.611689e-01 3.098517e-01 1.978712e-01 3.151465e-01 4.598250e-01 2.622978e-01 1.059355e+00 6.160762e-01 -4.555900e-01 -1.505063e-01 -5.198857e-01 -2.668609e-01 -2.555929e-02 -1.104386e-01 -3.189236e-03 -3.860781e-02 -7.050714e-02 4.442280e-02 -7.487799e-02 1.068809e+00
<VARIANCE> 39
 7.092469e+01 4.824529e+01 4.542639e+01 5.809875e+01 5.907602e+01 5.359725e+01 8.482536e+01 7.069932e+01 4.483561e+01 4.190403e+01 3.856058e+01 3.462148e+01 1.163198e+02 5.145499e+00 3.407027e+00 4.305341e+00 4.375927e+00 5.087565e+00 4.717621e+00 4.184860e+00 4.899116e+00 3.878221e+00 3.571461e+00 3.453092e+00 2.936196e+00 7.483450e+00 7.686871e-01 6.041391e-01 7.176104e-01 7.349628e-01 9.313653e-01 8.993747e-01 7.639951e-01 9.362277e-01 7.105673e-01 6.721105e-01 7.035521e-01 5.581800e-01 6.979311e-01
<GCONST> 1.389478e+02
<STATE> 3
<MEAN> 39
 -6.699212e-01 -8.764006e+00 -4.485353e+00 -5.100175e+00 -1.215018e+01 -7.654420e-01 -1.275140e+01 -5.906374e+00 -2.989309e+00 -6.306004e+00 -1.862382e+00 -2.644897e+00 6.946230e+01 1.222423e+00 -1.046721e+00 -4.148753e-01 -1.140319e+00 -5.294695e-01 -7.271276e-02 -1.046157e-01 -1.875912e-01 3.280595e-03 -9.265491e-02 1.470994e-01 -1.674442e-01 2.040340e+00 1.935225e-01 2.500296e-02 1.392878e-01 1.077690e-01 -9.577723e-03 -2.096821e-03 -9.453490e-03 -4.604897e-02 -3.384480e-02 -1.105640e-01 -2.320342e-01 -1.282530e-01 -1.049530e-01
<VARIANCE> 39
 7.522435e+01 9.473377e+01 1.026917e+02 1.315440e+02 1.483536e+02 1.064750e+02 1.199327e+02 8.942142e+01 5.968126e+01 1.087667e+02 5.693650e+01 5.429087e+01 1.063552e+02 7.937820e+00 7.319827e+00 8.008011e+00 6.585578e+00 9.013573e+00 8.813298e+00 6.565027e+00 6.310495e+00 5.666479e+00 5.401264e+00 5.996577e+00 4.163422e+00 9.281745e+00 1.202875e+00 1.201502e+00 1.147631e+00 1.168738e+00 1.577094e+00 1.493162e+00 1.286789e+00 1.335115e+00 1.023172e+00 1.065582e+00 1.173872e+00 7.437498e-01 1.285120e+00
<GCONST> 1.577433e+02
<STATE> 4
<MEAN> 39
 2.363047e+00 -8.186995e+00 -8.325393e+00 -9.839142e+00 -7.885028e+00 -3.913569e+00 -7.380530e+00 -5.539629e+00 -2.962578e+00 -3.321407e+00 -2.807875e+00 -4.722585e+00 7.200895e+01 1.519350e+00 -1.132958e+00 -2.334163e-02 -8.170968e-01 -5.221018e-01 -2.148604e-01 -2.191962e-01 -1.541913e-01 2.730957e-02 -3.871855e-01 -5.923975e-01 -3.557000e-01 1.798777e+00 -4.812828e-01 3.962218e-01 4.336641e-01 5.371799e-01 1.606792e-01 1.762442e-02 -5.412875e-02 4.708575e-02 -9.768317e-03 -5.261292e-02 -1.897971e-01 6.449261e-02 -7.710116e-01
<VARIANCE> 39
 5.281155e+01 7.008486e+01 7.758408e+01 1.213285e+02 1.069275e+02 8.388841e+01 9.909279e+01 7.320347e+01 5.723483e+01 6.664173e+01 5.669139e+01 4.273853e+01 1.066035e+02 5.964744e+00 5.935556e+00 6.113533e+00 6.975162e+00 7.616345e+00 7.974316e+00 5.998464e+00 6.396705e+00 5.244181e+00 4.524495e+00 5.835587e+00 3.497863e+00 4.745324e+00 7.399957e-01 7.721093e-01 8.051032e-01 9.829307e-01 1.091275e+00 1.166912e+00 8.742636e-01 8.809574e-01 8.760877e-01 7.882532e-01 8.427895e-01 6.938369e-01 8.413957e-01
<GCONST> 1.486636e+02
<TRANSP> 5
 0.000000e+00 1.000000e+00 0.000000e+00 0.000000e+00 0.000000e+00
 0.000000e+00 6.204642e-01 3.795358e-01 0.000000e+00 0.000000e+00
 0.000000e+00 0.000000e+00 4.969963e-01 5.030037e-01 0.000000e+00
 0.000000e+00 0.000000e+00 0.000000e+00 1.683782e-01 8.316218e-01
 0.000000e+00 0.000000e+00 0.000000e+00 0.000000e+00 0.000000e+00
<ENDHMM>
~h "q"
<BEGINHMM>
<NUMSTATES> 5
<STATE> 2
<MEAN> 39
 -2.352030e+00 -2.026287e+01 1.305666e+00 -1.322580e+01 -9.374647e+00 1.726921e-01 -2.012439e+00 -3.403898e+00 -1.246574e+01 -1.025576e+01 -7.328334e+00 -3.666148e+00 6.955969e+01 7.132543e-02 1.819337e-01 -2.058466e-01 1.606360e-01 1.753205e-02 -5.848742e-01 -2.036852e-01 1.487512e-01 -3.862765e-01 -4.353594e-01 2.479685e-01 2.076613e-01 -1.758174e-01 1.637807e-02 2.252714e-01 -9.675714e-02 1.533906e-01 4.610353e-02 -1.241016e-01 2.853424e-02 -3.035348e-02 7.646173e-02 6.986479e-02 -2.841822e-02 1.339183e-02 -1.618147e-01
<VARIANCE> 39
 1.341223e+01 1.132095e+02 9.418909e+01 5.298577e+01 6.388079e+01 3.850003e+01 1.273567e+02 2.857013e+01 1.948574e+01 2.573349e+01 3.422761e+01 1.537536e+01 1.126365e+01 2.991431e-01 1.771009e+00 8.700157e-01 2.160985e+00 9.107344e-01 1.434871e+00 1.034121e+00 1.129057e+00 1.363203e+00 1.920041e+00 1.041344e+00 9.363802e-01 5.470500e-01 5.729158e-02 1.485292e-01 1.927345e-01 3.924243e-01 2.747460e-01 2.067898e-01 1.537818e-01 1.940505e-01 2.306763e-01 2.695716e-01 1.934359e-01 1.400581e-01 9.083228e-02
<GCONST> 9.666896e+01
<STATE> 3
<MEAN> 39
 -6.595867e+00 -8.830080e+00 -3.587593e+00 -5.150111e+00 -3.929586e+00 -4.456462e+00 -2.733547e+00 -1.765542e+00 -8.584990e+00 -1.013195e+01 -4.722116e+00 -1.793268e+00 5.895112e+01 -7.087252e-01 4.204131e-01 -5.660355e-01 5.770422e-01 3.589679e-01 7.447965e-02 4.778964e-01 -2.054506e-02 8.332596e-01 5.466873e-01 1.622083e-01 1.784803e-01 -1.253345e+00 -4.539659e-02 -1.164245e-01 3.693469e-02 -1.456228e-01 -5.845832e-02 1.086823e-01 -4.007524e-02 -2.471281e-02 -5.895751e-02 2.683198e-02 -6.584487e-03 2.468652e-02 8.164285e-02
<VARIANCE> 39
 2.980470e+01 4.610649e+01 7.793030e+01 4.869342e+01 6.263800e+01 2.143803e+01 5.296534e+01 4.053513e+01 5.430124e+01 4.549314e+01 1.721067e+01 2.289403e+01 4.183383e+01 1.419154e+00 2.356859e+00 1.677052e+00 2.161138e+00 1.906011e+00 2.658942e+00 3.004957e+00 1.526242e+00 2.772973e+00 2.337938e+00 1.275025e+00 1.555359e+00 7.508429e-01 1.731440e-01 3.829848e-01 2.522615e-01 2.908915e-01 2.626512e-01 5.306886e-01 4.621452e-01 3.236611e-01 6.520931e-01 5.874374e-01 2.354575e-01 3.109556e-01 9.538229e-02
<GCONST> 1.123294e+02
<STATE> 4
<MEAN> 39
 -7.287835e+00 -6.315666e+00 -6.776703e+00 -2.484014e+00 4.176634e-01 -1.918836e+00 -2.545594e+00 9.240929e-01 -4.470112e+00 -4.751575e+00 -8.021228e-01 2.279409e+00 5.233868e+01 -1.907980e-02 -6.124530e-03 -4.668536e-02 8.008838e-03 -2.047378e-02 -3.567455e-03 -3.272600e-02 -4.159420e-02 -3.908160e-03 3.240079e-02 -2.248175e-02 -2.065859e-02 -4.925904e-02 -6.931713e-04 3.772679e-03 -6.666387e-03 6.315870e-04 4.457220e-03 -2.374433e-03 3.471930e-03 1.800197e-03 2.376531e-03 -5.403096e-03 -5.655970e-03 -8.963382e-03 1.048644e-02
<VARIANCE> 39
 2.567728e+01 1.278142e+01 2.392487e+01 1.811395e+01 3.409373e+01 2.444496e+01 2.044900e+01 2.232250e+01 1.840586e+01 2.285219e+01 1.820782e+01 1.827258e+01 2.245766e+01 3.234148e-01 4.148940e-01 5.654365e-01 6.803372e-01 1.035692e+00 1.061562e+00 1.081199e+00 1.221678e+00 1.460993e+00 1.448096e+00 1.376315e+00 1.287462e+00 1.368894e-01 6.221619e-02 8.183986e-02 1.122600e-01 1.341193e-01 2.001602e-01 2.087990e-01 2.116166e-01 2.278109e-01 2.957231e-01 2.762786e-01 2.835286e-01 2.589993e-01 1.910689e-02
<GCONST> 8.333709e+01
<TRANSP> 5
 0.000000e+00 1.000000e+00 0.000000e+00 0.000000e+00 0.000000e+00
 0.000000e+00 8.594617e-01 1.405383e-01 0.000000e+00 0.000000e+00
 0.000000e+00 0.000000e+00 8.440201e-01 1.559800e-01 0.000000e+00
 0.000000e+00 0.000000e+00 0.000000e+00 9.783637e-01 2.163631e-02
 0.000000e+00 0.000000e+00 0.000000e+00 0.000000e+00 0.000000e+00
<ENDHMM>
~h "r"
<BEGINHMM>
<NUMSTATES> 5
<STATE> 2
<MEAN> 39
 1.053590e+00 -9.313952e+00 -4.801910e+00 -3.634772e+00 -1.047337e+01 -4.670677e+00 -1.033004e+01 -4.995588e+00 -1.291837e+00 -5.365211e+00 -4.767795e+00 -3.673987e+00 7.301165e+01 -2.288942e-01 1.921377e-01 4.790499e-01 5.256143e-01 -1.864518e-01 8.326805e-02 -1.999349e-01 4.435194e-02 6.133002e-02 -1.204148e-01 2.417154e-01 6.743246e-02 -3.715725e-01 -9.878281e-02 -3.058426e-02 4.731899e-02 -2.094405e-01 5.045805e-02 9.833822e-02 2.763433e-02 6.473497e-02 -2.168058e-01 4.659485e-02 1.303974e-01 -6.448850e-02 -6.910052e-03
<VARIANCE> 39
 5.823704e+01 7.395013e+01 6.898223e+01 7.940663e+01 1.181157e+02 9.636121e+01 1.117923e+02 1.017736e+02 8.552045e+01 7.912714e+01 5.393205e+01 3.954615e+01 1.020714e+02 3.822586e+00 3.832442e+00 3.734825e+00 3.380818e+00 5.339667e+00 4.702125e+00 3.361408e+00 4.790690e+00 4.000282e+00 3.726374e+00 3.728195e+00 2.626673e+00 2.749319e+00 7.273415e-01 6.937386e-01 5.779334e-01 6.223776e-01 9.208969e-01 7.838295e-01 6.240817e-01 9.198477e-01 8.512222e-01 7.471675e-01 7.208230e-01 5.395987e-01 4.881053e-01
<GCONST> 1.409590e+02
<STATE> 3
<MEAN> 39
 9.192225e-01 -7.971129e+00 -4.289370e+00 -3.110915e+00 -9.519358e+00 -5.578479e+00 -9.150666e+00 -4.100448e+00 -2.483062e+00 -4.870966e+00 -3.651044e+00 -3.808393e+00 7.214006e+01 -3.066337e-01 2.512037e-01 4.306874e-01 1.778696e-01 3.116516e-02 1.559092e-01 -4.338949e-02 -2.777741e-02 -3.108067e-01 9.929206e-02 2.736852e-01 -9.938847e-02 -4.227000e-01 -5.665120e-02 -7.194410e-02 -4.441469e-02 -2.950355e-01 8.253231e-02 5.191614e-02 7.922412e-02 -1.760232e-02 -1.549055e-01 4.653709e-02 -3.917002e-02 -2.453620e-02 9.009858e-02
<VARIANCE> 39
 5.588911e+01 6.715259e+01 7.370203e+01 8.028539e+01 1.206215e+02 9.227655e+01 1.164443e+02 9.321686e+01 8.146310e+01 6.679684e+01 5.195239e+01 3.768324e+01 1.166323e+02 3.030524e+00 3.221300e+00 3.032168e+00 2.817856e+00 4.246597e+00 3.708751e+00 3.025080e+00 4.178063e+00 3.929990e+00 3.355828e+00 3.328580e+00 2.414331e+00 2.417101e+00 4.882174e-01 6.087406e-01 5.170478e-01 6.337279e-01 8.513398e-01 7.295608e-01 6.366901e-01 7.680777e-01 6.941064e-01 6.248931e-01 6.000409e-01 5.127579e-01 4.208992e-01
<GCONST> 1.370065e+02
<STATE> 4
<MEAN> 39
 9.765594e-01 -6.940595e+00 -4.382552e+00 -3.127607e+00 -8.332329e+00 -5.722202e+00 -7.970721e+00 -4.123039e+00 -2.986255e+00 -3.930929e+00 -3.306286e+00 -3.906042e+00 7.156435e+01 -3.168873e-01 1.320125e-01 2.366680e-01 -2.129991e-01 5.742729e-02 2.361064e-01 1.015265e-01 -1.045770e-01 -3.436781e-01 5.873462e-02 7.038318e-02 -5.066444e-02 -2.871320e-01 -9.519707e-03 -8.757542e-02 -4.736015e-02 -1.885394e-01 3.436889e-02 1.601497e-02 4.234930e-02 4.804147e-03 -4.153259e-02 -3.602176e-02 -8.315044e-02 1.051306e-02 1.383781e-01
<VARIANCE> 39
 6.269339e+01 6.084746e+01 7.715491e+01 7.798222e+01 1.075163e+02 9.057133e+01 9.845893e+01 8.881016e+01 7.893453e+01 6.309747e+01 4.724072e+01 3.439260e+01 1.328568e+02 2.643363e+00 3.068324e+00 2.764630e+00 2.699829e+00 3.812790e+00 3.116367e+00 2.976838e+00 3.778904e+00 3.636752e+00 3.261672e+00 3.028188e+00 2.296804e+00 2.307618e+00 3.893251e-01 4.793798e-01 4.494085e-01 5.464557e-01 6.523780e-01 6.299765e-01 5.286461e-01 6.148772e-01 5.961536e-01 5.456479e-01 4.867076e-01 4.281859e-01 3.631118e-01
<GCONST> 1.331293e+02
<TRANSP> 5
 0.000000e+00 1.000000e+00 0.000000e+00 0.000000e+00 0.000000e+00
 0.000000e+00 2.560191e-01 7.439809e-01 0.000000e+00 0.000000e+00
 0.000000e+00 0.000000e+00 5.979868e-02 9.402013e-01 0.000000e+00
 0.000000e+00 0.000000e+00 0.000000e+00 3.188444e-01 6.811556e-01
 0.000000e+00 0.000000e+00 0.000000e+00 0.000000e+00 0.000000e+00
<ENDHMM>
~h "s"
<BEGINHMM>
<NUMSTATES> 5
<STATE> 2
<MEAN> 39
 -8.851460e+00 7.200993e-01 -3.524508e-01 -6.536218e+00 3.555117e-01 -9.455219e+00 -4.458527e+00 -2.515239e+00 -4.353817e+00 -4.882213e+00 -4.489659e+00 -4.344646e+00 6.843303e+01 -3.562958e+00 1.103152e+00 3.404428e-01 -5.839733e-01 1.845792e+00 -4.953476e-01 1.161465e+00 7.429242e-01 4.219975e-01 -6.888159e-02 1.157171e+00 3.440204e-01 5.490727e-02 5.744997e-02 -4.460695e-01 -2.226858e-01 -1.635031e-01 -3.806124e-01 1.385988e-01 -1.728351e-01 -7.976298e-02 9.440029e-02 -2.758611e-02 1.238073e-01 3.206157e-02 1.124884e-01
<VARIANCE> 39
 1.055812e+02 8.393916e+01 6.832209e+01 1.160590e+02 1.768484e+02 1.119808e+02 1.286884e+02 7.396183e+01 7.376482e+01 5.116337e+01 5.540788e+01 3.692185e+01 9.844831e+01 5.724437e+00 5.622291e+00 5.100917e+00 5.361589e+00 7.001284e+00 5.722492e+00 4.013604e+00 4.621152e+00 3.810746e+00 4.184910e+00 3.455850e+00 2.839084e+00 1.398530e+00 1.121325e+00 6.644410e-01 5.761328e-01 7.465132e-01 1.089816e+00 8.762028e-01 6.956271e-01 7.091150e-01 6.744869e-01 6.188707e-01 6.496794e-01 4.876448e-01 1.947850e-01
<GCONST> 1.424781e+02
<STATE> 3
<MEAN> 39
 -2.038571e+01 1.478652e+00 -8.230102e-02 -1.014751e+01 4.088779e+00 -1.042987e+01 -2.371967e+00 -5.250143e-01 -1.625743e+00 -5.251048e+00 2.634079e-01 -2.243508e+00 6.871477e+01 1.871675e-01 -7.162149e-01 -3.567317e-01 5.326241e-02 -6.850244e-01 1.354033e-01 -5.852500e-02 -7.582140e-02 1.963888e-01 1.848374e-01 8.484274e-03 1.666279e-01 -2.698330e-01 1.218462e+00 -1.634290e-01 -7.612219e-02 1.130233e-01 -4.399148e-01 -7.009192e-02 -3.543903e-01 -3.022038e-01 -1.499647e-01 5.212428e-02 -3.460425e-01 -1.739048e-01 2.491089e-02
<VARIANCE> 39
 8.579481e+01 1.046159e+02 8.226363e+01 1.237695e+02 1.656427e+02 1.188715e+02 1.067475e+02 7.075776e+01 6.134593e+01 4.846522e+01 3.738204e+01 3.853221e+01 8.171156e+01 6.319849e+00 2.118743e+00 2.903011e+00 2.042220e+00 3.056244e+00 2.877887e+00 3.062552e+00 3.198139e+00 2.989243e+00 2.560338e+00 2.565227e+00 1.977058e+00 1.102855e+00 7.015790e-01 5.895402e-01 5.871393e-01 5.143495e-01 6.213435e-01 6.195165e-01 6.238915e-01 7.270566e-01 5.966116e-01 6.501583e-01 5.228942e-01 4.394494e-01 2.537294e-01
<GCONST> 1.334712e+02
<STATE> 4
<MEAN> 39
 -9.790574e+00 -4.357605e+00 -3.505908e+00 -5.818756e+00 -5.430126e+00 -8.046516e+00 -3.322612e+00 -3.409600e+00 -3.264191e+00 -4.175274e+00 -3.381328e+00 -3.347282e+00 6.666919e+01 3.244970e+00 -6.779348e-01 -4.584438e-01 -3.209593e-01 -1.122643e+00 -2.825351e-01 -1.110052e+00 -8.735949e-01 -2.758697e-01 -2.220346e-01 -7.846783e-01 -4.356652e-01 7.173817e-01 1.287112e-01 -9.148270e-04 1.452879e-01 -1.197422e-01 7.967488e-02 2.783826e-02 -1.130095e-01 5.248785e-04 -9.297451e-02 -1.576374e-01 -2.121059e-02 -1.119251e-02 2.649018e-01
<VARIANCE> 39
 8.943334e+01 6.947145e+01 6.636554e+01 8.916295e+01 1.196665e+02 9.683366e+01 8.281263e+01 6.578101e+01 7.058817e+01 4.502773e+01 3.947021e+01 3.220894e+01 1.217794e+02 8.658426e+00 5.258202e+00 5.416422e+00 4.236720e+00 5.329010e+00 4.425602e+00 4.774086e+00 5.230667e+00 4.463768e+00 4.620452e+00 3.622168e+00 3.249055e+00 3.471678e+00 1.140937e+00 5.043097e-01 5.128009e-01 4.846084e-01 5.743081e-01 6.665841e-01 7.341530e-01 6.553443e-01 6.257750e-01 5.697927e-01 5.944592e-01 4.302326e-01 3.951511e-01
<GCONST> 1.401784e+02
<TRANSP> 5
 0.000000e+00 1.000000e+00 0.000000e+00 0.000000e+00 0.000000e+00
 0.000000e+00 5.905346e-01 4.094654e-01 0.000000e+00 0.000000e+00
 0.000000e+00 0.000000e+00 6.830943e-01 3.169057e-01 0.000000e+00
 0.000000e+00 0.000000e+00 0.000000e+00 5.066476e-01 4.933524e-01
 0.000000e+00 0.000000e+00 0.000000e+00 0.000000e+00 0.000000e+00
<ENDHMM>
~h "t"
<BEGINHMM>
<NUMSTATES> 5
<STATE> 2
<MEAN> 39
 -4.603536e+00 -2.315225e+00 -3.052006e+00 -2.702212e+00 -6.922161e+00 -5.333263e+00 -6.572299e+00 -4.707425e+00 -3.889879e+00 -5.093193e+00 -5.007978e+00 -3.992466e+00 5.931772e+01 -1.194902e+00 -1.799565e-01 -2.716825e-01 -2.419636e-02 6.244718e-01 2.620336e-01 2.679914e-01 7.934897e-02 7.469523e-02 3.754065e-01 4.841567e-01 2.427980e-01 -8.662792e-01 9.359705e-02 -5.539960e-01 -1.188321e-01 -6.113266e-01 -1.078537e-01 -2.656468e-01 -3.093412e-02 1.431098e-01 -5.956655e-02 4.015795e-02 7.327854e-02 7.855461e-02 9.133239e-01
<VARIANCE> 39
 5.160147e+01 4.075820e+01 4.067635e+01 5.297967e+01 6.419281e+01 5.451707e+01 7.852807e+01 6.484404e+01 4.410424e+01 4.748505e+01 3.544300e+01 3.146603e+01 1.240907e+02 2.525385e+00 2.596362e+00 2.224697e+00 2.623947e+00 3.222750e+00 3.263663e+00 2.754214e+00 3.079826e+00 2.786752e+00 2.665313e+00 2.537857e+00 1.961511e+00 3.030557e+00 5.694551e-01 5.992403e-01 5.052460e-01 6.177189e-01 7.737260e-01 7.131000e-01 6.124609e-01 6.940203e-01 6.495441e-01 5.498036e-01 5.974853e-01 4.618241e-01 6.159832e-01
<GCONST> 1.295479e+02
<STATE> 3
<MEAN> 39
 -8.109066e+00 -3.798238e+00 -4.681706e+00 -5.395836e+00 -4.555850e+00 -6.061672e+00 -6.806991e+00 -3.835522e+00 -3.345627e+00 -2.712566e+00 -2.664305e+00 -2.737385e+00 6.254803e+01 -1.762014e-01 -1.307556e+00 -3.291613e-01 -1.574109e+00 3.471573e-02 -8.035422e-01 1.496164e-01 6.213390e-01 -1.410499e-02 5.216695e-02 3.235804e-01 2.524599e-01 2.492814e+00 8.916586e-01 -2.642818e-01 1.357371e-01 -2.191938e-01 -4.073232e-01 -6.915817e-02 -3.500166e-01 -1.374578e-01 -9.849249e-02 -2.100511e-01 -2.565740e-01 -2.355281e-01 7.834614e-01
<VARIANCE> 39
 7.079725e+01 4.959810e+01 4.953471e+01 8.832150e+01 7.934304e+01 7.635179e+01 8.645504e+01 7.244393e+01 5.029446e+01 4.933013e+01 4.102154e+01 3.580046e+01 1.538571e+02 6.758095e+00 4.827551e+00 5.688214e+00 4.874871e+00 7.267350e+00 6.408678e+00 5.438068e+00 6.287893e+00 5.489103e+00 4.076132e+00 4.492534e+00 3.680768e+00 5.943905e+00 9.555755e-01 6.813890e-01 8.744102e-01 9.766180e-01 1.188899e+00 1.120186e+00 9.479161e-01 9.938414e-01 9.412006e-01 7.705125e-01 7.947301e-01 6.674327e-01 9.515128e-01
<GCONST> 1.463321e+02
<STATE> 4
<MEAN> 39
 -4.411510e+00 -7.507169e+00 -4.666247e+00 -7.378020e+00 -6.958071e+00 -7.193090e+00 -6.189281e+00 -2.919070e+00 -3.736307e+00 -3.370284e+00 -3.294604e+00 -3.009032e+00 6.973813e+01 1.810873e+00 -1.359012e+00 1.097270e-01 -1.315171e+00 -7.682718e-01 -3.788660e-01 -7.932453e-01 -8.524294e-02 -2.760912e-01 -3.480039e-01 -3.791125e-01 -3.604976e-01 2.498908e+00 3.664340e-01 2.608162e-01 9.424016e-02 2.410154e-01 -1.138530e-02 2.800111e-01 -2.072218e-01 -2.129935e-01 -9.297306e-02 -1.131379e-01 -1.181659e-01 -1.203925e-01 -3.309856e-01
<VARIANCE> 39
 5.933806e+01 6.585477e+01 5.252097e+01 1.043919e+02 8.882871e+01 8.098087e+01 8.275780e+01 6.136983e+01 5.658919e+01 4.937057e+01 4.395626e+01 3.227047e+01 1.346666e+02 6.469014e+00 5.236460e+00 6.629950e+00 6.872705e+00 7.615499e+00 7.188062e+00 5.993794e+00 5.735785e+00 6.213424e+00 4.259199e+00 4.995173e+00 3.761567e+00 5.912606e+00 8.906462e-01 7.371996e-01 6.229042e-01 6.883479e-01 9.170263e-01 9.418458e-01 7.664927e-01 9.114364e-01 7.732334e-01 7.400607e-01 6.501783e-01 5.145745e-01 8.171378e-01
<GCONST> 1.453066e+02
<TRANSP> 5
 0.000000e+00 1.000000e+00 0.000000e+00 0.000000e+00 0.000000e+00
 0.000000e+00 5.426406e-01 4.573594e-01 0.000000e+00 0.000000e+00
 0.000000e+00 0.000000e+00 3.975442e-01 6.024558e-01 0.000000e+00
 0.000000e+00 0.000000e+00 0.000000e+00 2.043572e-01 7.956428e-01
 0.000000e+00 0.000000e+00 0.000000e+00 0.000000e+00 0.000000e+00
<ENDHMM>
~h "u"
<BEGINHMM>
<NUMSTATES> 5
<STATE> 2
<MEAN> 39
 -1.189080e+00 -2.812997e+00 -3.116053e+00 -9.925295e+00 -7.080650e+00 -4.500773e+00 -1.166659e+01 -5.705841e+00 -4.909457e+00 -5.248172e+00 -1.820333e+00 -3.857744e+00 6.762384e+01 1.392905e+00 -4.478076e-02 -4.999076e-01 -1.302560e+00 -5.476202e-01 3.611490e-01 -7.823391e-01 -6.777954e-01 -2.536908e-01 9.325241e-02 5.868183e-01 5.305813e-02 1.282157e+00 3.724451e-02 7.536101e-02 8.509251e-03 2.597097e-01 3.272500e-04 1.838072e-01 9.194498e-02 -9.146304e-02 3.104046e-02 8.147765e-02 -6.301223e-02 -9.491353e-02 -2.799719e-01
<VARIANCE> 39
 9.398572e+01 8.405758e+01 7.727468e+01 1.518916e+02 1.573916e+02 1.101095e+02 1.244276e+02 9.911263e+01 6.742251e+01 6.787730e+01 5.864864e+01 4.219353e+01 1.136426e+02 7.507695e+00 4.844353e+00 5.654407e+00 7.516976e+00 8.296438e+00 8.538605e+00 6.315760e+00 8.579187e+00 5.743448e+00 5.238792e+00 5.886146e+00 4.183308e+00 4.296459e+00 1.161221e+00 9.318794e-01 9.044442e-01 1.310334e+00 1.500531e+00 1.379111e+00 1.195598e+00 1.413157e+00 1.031859e+00 9.098883e-01 8.971039e-01 7.124100e-01 8.572854e-01
<GCONST> 1.546757e+02
<STATE> 3
<MEAN> 39
 4.279559e+00 -5.944834e+00 -5.185888e+00 -1.194234e+01 -1.258198e+01 1.144510e+00 -1.684966e+01 -9.393627e+00 -4.705184e+00 -5.409716e+00 3.335119e-01 -4.136380e+00 7.242480e+01 3.712679e-01 -6.096105e-02 -7.426107e-02 1.678549e-01 1.703285e-01 2.007669e-01 -2.186137e-01 -2.316944e-01 1.898615e-01 3.997046e-01 -2.803605e-01 -3.078406e-01 -1.090286e-01 -5.209274e-01 2.157837e-01 2.013223e-01 5.404893e-01 3.840843e-01 -3.868400e-01 4.651039e-01 2.858234e-01 9.565932e-02 -8.648608e-02 -3.993626e-01 -4.911124e-02 -4.836609e-01
<VARIANCE> 39
 3.904139e+01 7.033549e+01 5.080692e+01 1.411639e+02 1.231127e+02 1.132867e+02 1.477287e+02 1.313320e+02 6.812688e+01 9.331065e+01 7.682460e+01 4.728690e+01 6.612578e+01 2.408859e+00 4.425389e+00 3.010492e+00 5.938327e+00 5.720457e+00 6.486437e+00 5.767015e+00 6.095435e+00 5.432080e+00 5.057150e+00 4.797589e+00 3.505881e+00 2.526038e+00 4.894990e-01 6.264350e-01 5.495767e-01 1.054602e+00 9.901338e-01 1.307392e+00 1.024698e+00 1.280543e+00 9.553303e-01 1.007216e+00 1.048953e+00 7.573540e-01 4.272714e-01
<GCONST> 1.462049e+02
<STATE> 4
<MEAN> 39
 4.424353e+00 -1.444882e+00 -6.669188e+00 -1.371962e+01 -8.413317e+00 -3.881456e+00 -9.608870e+00 -6.358142e+00 -5.341823e+00 -4.442986e+00 -2.849472e+00 -4.044483e+00 6.669388e+01 -5.101106e-01 2.186785e-01 2.823090e-01 8.776689e-01 4.486893e-01 -1.902135e-01 4.650773e-01 2.407144e-01 1.345844e-01 -1.047369e-01 -4.835773e-01 -1.973411e-01 -6.840055e-01 -2.999575e-01 -1.090598e-01 1.456291e-01 2.288636e-01 6.075899e-02 -4.474226e-02 3.636587e-02 5.789997e-02 3.470319e-02 -4.483460e-02 1.962502e-02 3.801938e-02 -7.786088e-02
<VARIANCE> 39
 3.936889e+01 7.456718e+01 4.513171e+01 1.324863e+02 7.685502e+01 6.677076e+01 9.316114e+01 7.923808e+01 5.640952e+01 6.206410e+01 5.671694e+01 3.766925e+01 7.617935e+01 1.692288e+00 2.614516e+00 2.174067e+00 4.555642e+00 3.682588e+00 4.018449e+00 3.025087e+00 3.753355e+00 3.212149e+00 3.570067e+00 3.393696e+00 2.651360e+00 2.185360e+00 3.119799e-01 4.269745e-01 3.617062e-01 7.468075e-01 6.147230e-01 6.500563e-01 5.595831e-01 7.076573e-01 6.336012e-01 6.968479e-01 6.090901e-01 5.241475e-01 2.745550e-01
<GCONST> 1.318710e+02
<TRANSP> 5
 0.000000e+00 1.000000e+00 0.000000e+00 0.000000e+00 0.000000e+00
 0.000000e+00 4.706858e-01 5.293143e-01 0.000000e+00 0.000000e+00
 0.000000e+00 0.000000e+00 4.891547e-01 5.108454e-01 0.000000e+00
 0.000000e+00 0.000000e+00 0.000000e+00 6.018880e-01 3.981120e-01
 0.000000e+00 0.000000e+00 0.000000e+00 0.000000e+00 0.000000e+00
<ENDHMM>
~h "v"
<BEGINHMM>
<NUMSTATES> 5
<STATE> 2
<MEAN> 39
 -1.125734e+01 -9.477869e+00 -7.653594e+00 -8.217571e+00 -2.684698e+00 -7.978642e+00 -1.519422e+01 -2.578233e-01 -1.857492e+00 -1.447788e+00 -3.990807e+00 -6.958950e+00 7.264553e+01 -1.109586e+00 4.343906e-02 -8.546147e-02 5.547639e-01 1.369936e-01 3.696758e-02 9.991285e-01 1.477166e-01 2.818352e-01 1.249149e-01 7.822794e-02 3.469386e-01 -4.570335e-01 5.487524e-01 -2.453789e-01 1.422632e-01 -2.045387e-01 -5.437344e-01 1.388731e-02 6.286204e-03 -1.247590e-01 -4.893222e-02 -1.488509e-01 1.081149e-01 1.833574e-02 1.495586e-01
<VARIANCE> 39
 9.905638e+01 3.959920e+01 1.883189e+01 1.789282e+01 2.195365e+01 4.840055e+01 5.388476e+01 6.919762e+01 2.251914e+01 1.960100e+01 1.427631e+01 1.279584e+01 1.526684e+01 1.049841e+01 3.560736e+00 1.373297e+00 2.170849e+00 3.342377e+00 4.395822e+00 4.259915e+00 3.746733e+00 2.314239e+00 2.702913e+00 2.355446e+00 1.600082e+00 9.796084e-01 1.117913e+00 7.070325e-01 2.337005e-01 3.310533e-01 3.296553e-01 4.520277e-01 8.221864e-01 6.061714e-01 4.299206e-01 4.274418e-01 2.971012e-01 2.443172e-01 3.063672e-01
<GCONST> 1.174033e+02
<STATE> 3
<MEAN> 39
 -1.019603e+01 -7.052095e+00 1.779322e+00 -6.954630e+00 -1.365086e+01 -1.816023e+01 -1.447750e+01 -3.706570e+00 -6.145089e+00 -7.778562e+00 -2.578305e+00 -4.153299e+00 7.613260e+01 -2.446662e-01 3.022498e-01 -4.758874e-02 -1.268176e-01 8.468588e-02 1.838052e-02 2.763143e-01 -1.258470e-02 -1.245726e-01 -1.766316e-01 -4.466551e-02 7.605170e-02 4.109916e-02 5.672606e-03 -5.115496e-02 -7.937381e-02 -7.951399e-02 4.265556e-02 2.388647e-02 -4.952771e-02 -2.031658e-02 5.091243e-02 3.258804e-02 1.727237e-02 -3.824111e-02 3.200259e-02
<VARIANCE> 39
 1.142261e+02 5.595927e+01 4.128180e+01 1.652253e+01 1.136024e+02 4.690355e+01 5.156437e+01 3.642752e+01 2.316071e+01 3.144252e+01 3.955765e+01 1.867677e+01 2.243134e+01 1.081420e+01 5.942019e+00 2.407799e+00 1.657853e+00 1.233003e+01 4.165705e+00 6.106953e+00 3.620834e+00 2.854745e+00 2.096470e+00 5.915882e+00 1.963720e+00 2.535288e+00 1.631956e+00 1.156909e+00 3.217221e-01 3.021342e-01 2.131667e+00 8.884398e-01 1.376409e+00 7.194056e-01 5.717459e-01 3.407425e-01 1.357659e+00 3.510935e-01 6.116710e-01
<GCONST> 1.332096e+02
<STATE> 4
<MEAN> 39
 -6.793062e+00 -4.271007e+00 -8.555031e+00 -1.140526e+01 -1.022672e+00 -1.034958e+01 -5.880505e+00 -2.175892e+00 -3.121291e+00 -4.681687e-01 -1.192716e+00 -4.256508e+00 6.825428e+01 2.304287e+00 -1.151112e+00 -6.118621e-01 -1.227776e+00 -1.094176e+00 7.538099e-01 -6.630106e-01 -1.262933e+00 2.539343e-01 1.481650e-01 1.310011e-01 -1.054040e+00 1.015831e+00 2.198992e-01 -1.625184e-01 4.067040e-01 8.041599e-02 -2.375739e-01 -1.183660e-01 -3.550096e-01 -1.154334e-01 2.810400e-03 -1.890250e-02 -1.847391e-01 -1.664647e-01 2.554580e-01
<VARIANCE> 39
 1.232535e+02 4.517921e+01 4.182772e+01 7.033190e+01 4.026328e+01 5.679363e+01 4.298520e+01 5.565769e+01 2.755987e+01 5.625731e+01 7.711656e+01 2.421635e+01 5.750142e+01 9.879680e+00 2.035944e+00 8.135782e+00 3.090039e+00 2.993703e+00 3.440013e+00 3.852723e+00 3.055802e+00 4.190770e+00 3.237381e+00 3.386597e+00 2.598020e+00 2.324404e+00 1.662034e+00 2.701188e-01 9.772061e-01 6.888162e-01 3.433604e-01 6.658773e-01 9.028619e-01 5.197908e-01 5.282039e-01 5.156451e-01 5.059137e-01 4.002478e-01 3.132712e-01
<GCONST> 1.318965e+02
<TRANSP> 5
 0.000000e+00 1.000000e+00 0.000000e+00 0.000000e+00 0.000000e+00
 0.000000e+00 7.755681e-01 2.244319e-01 0.000000e+00 0.000000e+00
 0.000000e+00 0.000000e+00 8.793644e-01 1.206356e-01 0.000000e+00
 0.000000e+00 0.000000e+00 0.000000e+00 7.959861e-01 2.040140e-01
 0.000000e+00 0.000000e+00 0.000000e+00 0.000000e+00 0.000000e+00
<ENDHMM>
~h "w"
<BEGINHMM>
<NUMSTATES> 5
<STATE> 2
<MEAN> 39
 3.139936e+00 -9.039340e+00 -8.310209e+00 -1.408327e+01 -1.324362e+01 2.251962e+00 -1.292362e+01 -9.588323e+00 -4.669360e+00 -5.639668e+00 -2.953898e+00 -5.669919e+00 7.011409e+01 3.490438e-01 -8.913606e-01 -1.253576e-01 -5.705391e-01 2.690980e-01 7.951586e-01 -5.787487e-01 -1.857629e-02 3.621200e-01 9.037770e-02 1.215739e-01 -2.827574e-01 8.935221e-01 -1.050302e-01 -1.092492e-01 1.432063e-01 2.454053e-01 1.004341e-02 -1.645116e-01 8.590240e-03 1.996246e-01 -1.517966e-02 -1.418660e-01 -4.893961e-02 -1.150621e-02 -6.842259e-02
<VARIANCE> 39
 3.683653e+01 6.527411e+01 5.640100e+01 1.242002e+02 9.922060e+01 7.001540e+01 1.141932e+02 8.271066e+01 5.079343e+01 4.253124e+01 5.711169e+01 4.139637e+01 9.779632e+01 2.912026e+00 4.436015e+00 2.714910e+00 6.779768e+00 5.082670e+00 5.439188e+00 5.328550e+00 6.156326e+00 4.320535e+00 4.462450e+00 3.958693e+00 3.945654e+00 3.831009e+00 5.137559e-01 6.209054e-01 4.408152e-01 1.104733e+00 9.664553e-01 1.033589e+00 1.035637e+00 1.144628e+00 7.262598e-01 9.427224e-01 6.881428e-01 8.353137e-01 5.512042e-01
<GCONST> 1.424559e+02
<STATE> 3
<MEAN> 39
 4.368518e+00 -1.425679e+01 -5.937751e+00 -1.634907e+01 -1.593116e+01 6.973806e+00 -2.055974e+01 -1.006998e+01 -4.201261e+00 -6.727379e+00 -1.434499e+00 -9.205719e+00 7.355202e+01 -7.597614e-02 -3.506369e-01 -3.399422e-02 3.963149e-01 1.793356e-01 -1.855346e-01 -4.221312e-02 2.768022e-01 2.522991e-01 4.881939e-02 -2.800402e-01 -7.389396e-02 -3.047811e-02 -7.400813e-02 3.727327e-02 1.828209e-02 1.454539e-01 -3.464187e-03 -1.973365e-01 7.571332e-02 3.433667e-02 3.801285e-02 -3.537152e-02 -1.000773e-01 7.538158e-02 -2.840528e-02
<VARIANCE> 39
 1.244316e+01 4.791368e+01 2.999041e+01 1.109151e+02 6.096886e+01 6.305094e+01 7.571555e+01 6.719125e+01 6.848923e+01 4.619679e+01 6.244112e+01 3.678458e+01 3.045547e+01 1.081383e+00 3.366467e+00 1.918298e+00 4.150253e+00 3.089983e+00 3.127834e+00 3.552783e+00 5.018114e+00 3.979198e+00 4.007121e+00 3.122448e+00 3.842397e+00 1.901589e+00 1.945325e-01 4.979787e-01 3.137839e-01 5.566465e-01 6.010450e-01 5.209113e-01 6.511678e-01 7.627878e-01 6.829121e-01 7.352880e-01 5.618290e-01 7.253691e-01 2.889317e-01
<GCONST> 1.278256e+02
<STATE> 4
<MEAN> 39
 -4.729335e+00 -1.099100e+01 -7.494688e+00 -9.357533e+00 -8.018559e+00 -9.170222e-01 -1.109133e+01 -5.407705e+00 -4.243733e+00 -6.864871e+00 -6.557137e+00 -5.273347e+00 5.877786e+01 -1.406613e-01 -5.265664e-02 1.239005e-01 1.475669e-01 -2.070780e-01 -4.335321e-01 1.310035e-01 2.074388e-01 -1.367877e-01 -2.342773e-01 -3.575175e-02 2.800419e-01 -1.287012e-01 1.758020e-02 1.534356e-01 5.067057e-03 -6.354770e-02 -8.117762e-02 -2.544159e-02 4.092987e-02 -4.201921e-02 -7.716535e-03 4.916608e-02 9.411371e-02 -3.534274e-02 -4.905083e-02
<VARIANCE> 39
 8.436462e+01 1.152942e+02 1.620979e+01 5.053597e+01 4.428056e+01 4.626646e+01 1.085358e+02 3.632338e+01 3.651627e+01 5.241488e+01 4.032018e+01 3.210314e+01 1.959982e+02 6.076645e-01 1.502377e+00 1.595314e+00 2.327250e+00 2.490899e+00 2.331708e+00 2.278273e+00 2.770694e+00 2.741940e+00 2.599464e+00 2.269159e+00 2.167161e+00 6.285782e-01 9.063268e-02 3.175562e-01 2.256639e-01 3.606824e-01 3.960570e-01 3.763261e-01 3.800540e-01 5.209828e-01 4.789189e-01 5.063930e-01 3.507393e-01 4.133369e-01 1.176804e-01
<GCONST> 1.163213e+02
<TRANSP> 5
 0.000000e+00 1.000000e+00 0.000000e+00 0.000000e+00 0.000000e+00
 0.000000e+00 6.021498e-01 3.978503e-01 0.000000e+00 0.000000e+00
 0.000000e+00 0.000000e+00 8.245001e-01 1.754999e-01 0.000000e+00
 0.000000e+00 0.000000e+00 0.000000e+00 7.699853e-01 2.300147e-01
 0.000000e+00 0.000000e+00 0.000000e+00 0.000000e+00 0.000000e+00
<ENDHMM>
~h "y"
<BEGINHMM>
<NUMSTATES> 5
<STATE> 2
<MEAN> 39
 -5.906969e+00 -4.208283e+00 1.200135e+00 -5.044691e+00 -1.020042e+01 -4.057680e+00 -5.991325e+00 -5.593990e+00 -2.736147e+00 -4.990687e+00 -3.021320e+00 -2.180529e+00 6.484534e+01 6.498668e-01 -3.279220e-02 1.028272e+00 -4.664614e-01 -6.907839e-01 2.532524e-02 -1.087845e-01 2.048898e-02 -2.978058e-01 -3.565272e-01 -1.118274e-01 -1.466878e-01 9.015548e-01 3.550323e-01 -1.453014e-01 7.656951e-02 -1.585120e-01 -1.430042e-01 -1.333122e-01 -7.005669e-04 1.226580e-01 -2.025777e-01 -1.605864e-01 -6.122106e-02 -1.626799e-01 4.455418e-01
<VARIANCE> 39
 7.815044e+01 7.944506e+01 8.365308e+01 1.082673e+02 1.232308e+02 1.373316e+02 1.148636e+02 6.372825e+01 7.301306e+01 3.805237e+01 5.782025e+01 2.759951e+01 2.405666e+02 3.696029e+00 3.644497e+00 4.304064e+00 3.518899e+00 4.590608e+00 4.069252e+00 4.031691e+00 4.123846e+00 4.040629e+00 2.867061e+00 3.524214e+00 2.546663e+00 2.437614e+00 4.648781e-01 5.088587e-01 7.749629e-01 6.208142e-01 8.669044e-01 7.411730e-01 6.849854e-01 6.436738e-01 6.970229e-01 5.331582e-01 5.898690e-01 3.874665e-01 4.633649e-01
<GCONST> 1.388670e+02
<STATE> 3
<MEAN> 39
 -2.798144e-01 -1.972714e+00 5.621673e+00 -8.793693e+00 -1.121816e+01 -8.898776e+00 -5.270152e+00 -6.627102e+00 -4.207370e+00 -5.880597e+00 -1.462213e+00 -3.230808e+00 6.904990e+01 1.092690e+00 -1.443185e+00 -3.455055e-02 -8.409151e-01 -5.152662e-01 -6.205082e-01 6.118700e-01 6.571848e-01 1.541627e-01 -1.352130e-01 -6.485109e-02 -4.085646e-01 2.161341e+00 -1.542731e-01 -2.616355e-01 -6.257895e-01 1.885059e-01 5.349725e-01 1.607696e-01 2.150703e-01 2.055652e-01 1.100328e-01 -2.613399e-02 -2.342330e-01 -1.082742e-01 -1.477463e-01
<VARIANCE> 39
 4.017097e+01 1.036244e+02 1.272028e+02 1.347920e+02 1.732435e+02 1.519060e+02 1.332843e+02 9.996513e+01 8.297198e+01 5.391930e+01 1.110783e+02 3.673345e+01 1.282044e+02 3.975622e+00 4.561714e+00 8.288641e+00 5.019248e+00 8.625741e+00 7.001917e+00 6.441886e+00 6.736919e+00 6.322691e+00 4.427745e+00 6.060860e+00 3.367843e+00 4.432842e+00 4.638576e-01 7.475808e-01 9.200528e-01 8.764266e-01 1.459496e+00 1.051286e+00 8.599600e-01 1.123293e+00 9.262009e-01 7.509196e-01 1.109601e+00 5.833412e-01 5.126783e-01
<GCONST> 1.509971e+02
<STATE> 4
<MEAN> 39
 1.190143e+00 -1.203375e+01 1.483907e+00 -1.174301e+01 -1.167388e+01 -8.709392e+00 -2.221211e+00 -2.069660e+00 -3.810965e+00 -7.240939e+00 -5.171601e+00 -4.972643e+00 7.457023e+01 4.004123e-01 -1.024359e+00 -1.607152e+00 5.462979e-01 1.748523e+00 3.576646e-01 2.204113e-01 8.012588e-01 -2.394584e-01 -7.284588e-01 -9.170330e-01 -4.494233e-01 3.459917e-01 -2.364959e-02 5.057025e-01 -6.512848e-02 2.420269e-01 2.180761e-01 1.270433e-01 -4.154275e-01 -3.316083e-01 -2.902687e-03 3.201688e-02 2.647685e-02 5.513197e-02 -4.523608e-01
<VARIANCE> 39
 2.608277e+01 6.392973e+01 4.962952e+01 1.119450e+02 1.149793e+02 9.397883e+01 1.975104e+02 7.203950e+01 8.587941e+01 5.166638e+01 8.268822e+01 3.256282e+01 6.140852e+01 8.898831e-01 2.155043e+00 3.224867e+00 3.246993e+00 5.107729e+00 4.172785e+00 4.144163e+00 4.520823e+00 3.615960e+00 3.831417e+00 4.859692e+00 2.263826e+00 1.250380e+00 1.804157e-01 3.342802e-01 4.604661e-01 4.383827e-01 7.414439e-01 6.337678e-01 7.243643e-01 7.167255e-01 7.132249e-01 5.658727e-01 5.718901e-01 4.156362e-01 1.820919e-01
<GCONST> 1.313563e+02
<TRANSP> 5
 0.000000e+00 1.000000e+00 0.000000e+00 0.000000e+00 0.000000e+00
 0.000000e+00 4.263074e-01 5.736926e-01 0.000000e+00 0.000000e+00
 0.000000e+00 0.000000e+00 5.819301e-01 4.180699e-01 0.000000e+00
 0.000000e+00 0.000000e+00 0.000000e+00 5.276163e-01 4.723837e-01
 0.000000e+00 0.000000e+00 0.000000e+00 0.000000e+00 0.000000e+00
<ENDHMM>
~h "z"
<BEGINHMM>
<NUMSTATES> 5
<STATE> 2
<MEAN> 39
 -5.027764e+00 -6.234121e+00 4.201504e+00 4.885754e+00 -9.890052e+00 -1.445009e+00 -4.744617e+00 -4.613002e+00 -3.545756e-01 -9.019297e+00 -8.431967e+00 -5.032752e+00 8.437360e+01 9.897623e-03 2.603430e-02 -1.015605e-01 2.411429e-02 1.551381e-02 2.162215e-01 1.248114e-01 3.172830e-02 5.951869e-02 8.108391e-02 1.862517e-01 1.181294e-01 -1.721006e-01 2.373881e-02 -2.130624e-02 -3.513537e-03 -1.732267e-02 -2.208108e-02 1.957798e-02 1.847192e-03 -1.995881e-03 -6.965355e-03 -2.212083e-02 1.407999e-02 1.909724e-02 7.611835e-03
<VARIANCE> 39
 1.564127e+01 1.626689e+01 2.424826e+01 2.631112e+01 1.521115e+01 8.251424e+01 2.824861e+01 1.258730e+01 3.354227e+01 3.105771e+01 3.035686e+01 1.979213e+01 6.521973e+01 5.504193e-01 7.435563e-01 1.013508e+00 2.165694e+00 1.270395e+00 3.295059e+00 1.825807e+00 1.246498e+00 1.912438e+00 1.505679e+00 1.791164e+00 1.161250e+00 1.400984e+00 8.765572e-02 1.329694e-01 1.576988e-01 3.695172e-01 2.840258e-01 6.186537e-01 3.038903e-01 2.575035e-01 3.931102e-01 2.851699e-01 2.945810e-01 1.929215e-01 2.084308e-01
<GCONST> 1.002766e+02
<STATE> 3
<MEAN> 39
 -3.927794e-01 -7.075733e+00 -9.990448e-01 -2.474630e+00 -1.026751e+01 3.820417e-01 -3.199971e+00 -7.135766e+00 -1.539932e+00 -3.110434e+00 -2.502632e+00 -3.463719e+00 9.144302e+01 5.365879e-03 2.158114e-04 8.957834e-03 4.815819e-02 -9.259339e-03 -1.460707e-02 5.698564e-03 2.194474e-02 1.633513e-02 -1.270475e-02 -2.502603e-02 -1.209569e-02 -1.098919e-02 -5.324744e-03 3.347687e-03 3.691013e-03 1.417291e-03 5.094216e-04 8.150542e-04 4.398725e-04 9.540651e-04 4.258386e-04 -2.678817e-03 -4.318838e-03 2.727901e-03 -3.736332e-03
<VARIANCE> 39
 1.456719e+01 2.209767e+01 4.603429e+01 3.434512e+01 3.763023e+01 5.208802e+01 1.844346e+01 3.243217e+01 2.959418e+01 2.763601e+01 2.270491e+01 1.558352e+01 4.712405e+01 9.328105e-01 1.427627e+00 2.028247e+00 1.409337e+00 3.034774e+00 3.465241e+00 1.630656e+00 2.331430e+00 2.839618e+00 2.030533e+00 1.869108e+00 1.553550e+00 1.875917e+00 1.555970e-01 2.388003e-01 2.719633e-01 2.180937e-01 5.788346e-01 5.457715e-01 3.193987e-01 4.556196e-01 5.459048e-01 3.688159e-01 3.536776e-01 3.375576e-01 2.632093e-01
<GCONST> 1.094322e+02
<STATE> 4
<MEAN> 39
 -6.193673e+00 -3.888174e+00 1.884479e+00 4.107187e+00 -8.626982e+00 5.424479e+00 -8.907307e-01 -3.485409e+00 1.658593e+00 -7.970869e+00 -6.346701e+00 -3.646405e+00 7.909917e+01 -2.459236e-01 1.371498e-01 -7.054977e-02 -8.675987e-02 2.710158e-01 3.142414e-01 1.114679e-01 -2.858151e-02 -8.740488e-03 1.185496e-01 6.384774e-02 5.821043e-02 -2.010085e-01 1.816757e-02 -1.813563e-02 -4.782240e-03 -2.539285e-02 2.166537e-02 -5.687981e-02 -5.470941e-02 -1.422454e-02 2.960175e-03 -1.220188e-02 -2.147806e-02 1.565821e-03 3.526061e-02
<VARIANCE> 39
 1.351902e+01 3.653597e+00 9.486586e+00 5.437665e+00 2.884667e+01 3.539085e+01 8.299609e+00 1.751685e+01 1.204051e+01 1.889780e+01 7.054061e+00 9.049939e+00 1.513855e+01 1.362609e-01 3.238368e-01 4.297713e-01 4.376670e-01 7.557712e-01 8.025947e-01 7.876539e-01 1.136318e+00 1.322067e+00 9.855860e-01 1.207306e+00 1.498183e+00 9.758455e-02 3.804465e-02 5.749110e-02 7.163180e-02 1.028632e-01 1.704839e-01 1.295722e-01 1.365866e-01 2.292334e-01 2.341335e-01 2.039119e-01 2.411279e-01 3.538796e-01 1.176112e-02
<GCONST> 6.859873e+01
<TRANSP> 5
 0.000000e+00 1.000000e+00 0.000000e+00 0.000000e+00 0.000000e+00
 0.000000e+00 9.573847e-01 4.261526e-02 0.000000e+00 0.000000e+00
 0.000000e+00 0.000000e+00 9.931545e-01 6.845557e-03 0.000000e+00
 0.000000e+00 0.000000e+00 0.000000e+00 9.411689e-01 5.883109e-02
 0.000000e+00 0.000000e+00 0.000000e+00 0.000000e+00 0.000000e+00
<ENDHMM>
~h "aw"
<BEGINHMM>
<NUMSTATES> 5
<STATE> 2
<MEAN> 39
 -4.499135e-01 -6.797021e+00 -5.507393e+00 -5.171871e+00 -7.986735e+00 -1.447748e+00 -2.066269e+00 -4.742447e+00 -3.900949e+00 -4.859721e+00 -3.387018e+00 -3.432285e+00 9.073335e+01 2.581850e-02 1.144683e-02 1.921004e-02 4.288283e-02 2.757811e-02 1.521843e-01 -1.896700e-02 -2.860421e-03 6.698236e-02 3.468588e-02 2.402646e-02 -5.536001e-02 -7.266778e-02 -1.545717e-02 5.657876e-02 2.143937e-02 1.273310e-02 -2.396282e-02 2.282915e-02 8.984689e-03 -1.828418e-02 7.804204e-03 6.076565e-03 2.201184e-02 1.132586e-02 -8.205693e-02
<VARIANCE> 39
 2.072145e+01 3.770247e+01 2.188645e+01 3.132577e+01 2.948573e+01 3.354737e+01 2.619538e+01 2.544643e+01 3.152035e+01 2.638270e+01 2.500621e+01 1.986263e+01 1.009206e+02 1.079582e+00 1.422338e+00 9.786702e-01 1.314786e+00 2.205844e+00 2.385700e+00 1.723013e+00 1.726516e+00 1.859671e+00 1.671992e+00 1.568177e+00 1.646106e+00 2.592460e+00 1.871653e-01 2.454076e-01 1.804864e-01 2.521774e-01 3.983158e-01 3.861861e-01 3.342716e-01 3.391629e-01 3.547179e-01 3.150773e-01 3.098065e-01 3.047899e-01 3.800515e-01
<GCONST> 1.065421e+02
<STATE> 3
<MEAN> 39
 -1.179738e+00 -8.975629e+00 -1.155236e+01 -1.366812e+01 -5.018766e+00 -4.730183e-01 -6.612221e+00 -5.185770e+00 -3.515338e+00 -5.804998e+00 -5.004768e+00 -5.881953e+00 6.343200e+01 -3.756090e-01 7.374526e-01 8.553554e-02 2.076646e-01 -1.775000e-01 3.397484e-02 -6.539695e-03 -8.035010e-02 -1.537995e-01 9.669317e-02 4.343655e-01 8.855112e-02 -9.223773e-01 -1.276746e-01 -1.092127e-02 1.288584e-01 1.354067e-01 -6.581727e-03 -1.499855e-01 7.408839e-02 6.440213e-02 -4.305129e-02 -3.224770e-02 -3.577558e-02 9.446365e-02 -4.161005e-02
<VARIANCE> 39
 7.744196e+01 7.353663e+01 2.862528e+01 1.415589e+02 3.787346e+01 5.423894e+01 4.875274e+01 4.095095e+01 5.116304e+01 3.547367e+01 3.339996e+01 2.465575e+01 1.392897e+02 1.115471e+00 2.027224e+00 1.248957e+00 3.668846e+00 2.042162e+00 2.651266e+00 1.655173e+00 2.174096e+00 2.506445e+00 1.700400e+00 2.086933e+00 1.832474e+00 8.956578e-01 1.653789e-01 2.786726e-01 1.952754e-01 4.907920e-01 3.696814e-01 5.062986e-01 3.263820e-01 3.564934e-01 4.792233e-01 3.468726e-01 3.883407e-01 3.746877e-01 1.294200e-01
<GCONST> 1.159850e+02
<STATE> 4
<MEAN> 39
 -6.597989e+00 -2.110984e+00 -5.681890e+00 6.925265e+00 -1.554997e-01 4.863633e+00 2.135735e+00 7.226955e+00 -1.782837e-01 1.351817e+00 1.159286e+00 2.888964e+00 6.382283e+01 -1.347294e-01 3.362929e-02 9.746255e-02 1.120243e-01 2.369830e-02 9.962250e-02 7.612321e-02 6.776609e-02 2.735939e-02 -3.542265e-02 3.317451e-02 6.731944e-02 -1.929255e-01 8.878803e-03 -2.361507e-02 1.756959e-02 -1.318880e-02 -1.927962e-02 -4.390789e-02 -2.548053e-02 -2.624479e-02 -4.070703e-02 -2.645347e-02 -4.183342e-02 -2.684024e-02 5.002706e-02
<VARIANCE> 39
 2.923627e+01 3.733522e+01 2.688729e+01 7.247523e+01 4.249720e+01 4.713881e+01 3.617967e+01 6.668927e+01 4.110488e+01 3.330347e+01 2.621132e+01 3.592251e+01 8.532213e+01 3.137953e-01 6.755458e-01 7.495882e-01 8.403275e-01 8.779652e-01 1.156223e+00 1.111268e+00 1.069466e+00 1.384889e+00 9.987109e-01 1.055890e+00 9.486638e-01 3.629707e-01 6.362277e-02 9.565113e-02 9.906238e-02 1.483776e-01 1.631595e-01 2.249724e-01 2.178076e-01 2.039919e-01 2.738862e-01 2.228311e-01 1.948052e-01 1.979626e-01 4.772094e-02
<GCONST> 9.280644e+01
<TRANSP> 5
 0.000000e+00 1.000000e+00 0.000000e+00 0.000000e+00 0.000000e+00
