~o
<STREAMINFO> 1 39
<VECSIZE> 39<NULLD><MFCC_D_A_0><DIAGC>
~h "@"
<BEGINHMM>
<NUMSTATES> 5
<STATE> 2
<MEAN> 39
 -2.044420e+00 -5.049539e+00 -3.801166e+00 -4.117033e+00 -6.325067e+00 -4.810665e+00 -6.603635e+00 -3.521358e+00 -4.320853e+00 -5.071697e+00 -4.017599e+00 -3.509438e+00 6.805781e+01 1.394235e-02 -5.586206e-03 -9.830443e-03 -8.028161e-03 -4.099292e-03 -3.760475e-03 -4.677481e-03 -2.265402e-04 -3.385317e-03 -3.356547e-03 6.350902e-03 -3.258529e-05 2.094663e-02 -3.969937e-04 -1.117319e-03 -1.526220e-03 2.658064e-04 1.154918e-03 -3.902684e-04 -1.448233e-04 -4.191319e-04 -7.599441e-04 6.033309e-04 1.212487e-03 1.175047e-03 -9.391108e-04
<VARIANCE> 39
 8.085384e+01 7.921281e+01 6.934324e+01 1.074957e+02 1.096391e+02 8.648894e+01 1.060902e+02 8.349902e+01 6.535561e+01 5.783000e+01 5.702783e+01 4.198041e+01 1.923875e+02 3.239395e+00 3.222463e+00 2.793243e+00 3.244294e+00 4.044347e+00 3.722756e+00 3.240566e+00 3.708711e+00 3.365163e+00 2.855084e+00 3.055593e+00 2.278129e+00 3.015825e+00 4.990142e-01 5.380203e-01 4.467421e-01 5.682766e-01 7.036487e-01 6.511962e-01 5.835539e-01 6.641261e-01 6.071979e-01 5.343909e-01 5.577657e-01 4.281346e-01 4.687129e-01
<GCONST> 1.362075e+02
<STATE> 3
<MEAN> 39
 -2.014060e+00 -5.065715e+00 -3.828469e+00 -4.138054e+00 -6.328146e+00 -4.824795e+00 -6.611490e+00 -3.523250e+00 -4.330631e+00 -5.076100e+00 -3.999211e+00 -3.504094e+00 6.810401e+01 1.299387e-02 -7.316204e-03 -1.212335e-02 -7.168911e-03 -2.353473e-03 -4.472857e-03 -4.109049e-03 -8.851200e-04 -4.233137e-03 -2.228183e-03 8.327130e-03 2.623225e-03 1.784841e-02 -4.126120e-05 -8.934639e-04 -9.505197e-04 2.487223e-04 8.389911e-04 -2.261985e-05 3.757357e-04 -1.700415e-04 -1.622338e-04 3.596369e-04 2.506052e-04 7.781762e-04 -1.392089e-03
<VARIANCE> 39
 8.087486e+01 7.932211e+01 6.936443e+01 1.074354e+02 1.096728e+02 8.655323e+01 1.062690e+02 8.344637e+01 6.556783e+01 5.793695e+01 5.689624e+01 4.201687e+01 1.926084e+02 3.239679e+00 3.224037e+00 2.802080e+00 3.250447e+00 4.048986e+00 3.722497e+00 3.251288e+00 3.714930e+00 3.365636e+00 2.854949e+00 3.052382e+00 2.281208e+00 3.000850e+00 4.971846e-01 5.380203e-01 4.472885e-01 5.693487e-01 7.026179e-01 6.505889e-01 5.854962e-01 6.652841e-01 6.068637e-01 5.337598e-01 5.569447e-01 4.285169e-01 4.658963e-01
<GCONST> 1.362166e+02
<STATE> 4
<MEAN> 39
 -2.032210e+00 -4.990636e+00 -3.933404e+00 -4.000995e+00 -5.962914e+00 -4.875629e+00 -6.243214e+00 -3.296242e+00 -4.311661e+00 -4.995245e+00 -3.933247e+00 -3.358840e+00 6.804119e+01 1.120839e-02 -8.122507e-03 -1.234735e-02 -6.701433e-03 -9.184286e-04 -4.071955e-03 -1.853075e-03 -6.680057e-04 -3.334624e-03 -6.319504e-04 8.135747e-03 3.912422e-03 1.281419e-02 3.179663e-05 -7.625161e-04 -3.753928e-04 -8.541597e-05 3.226645e-04 5.742896e-04 4.230244e-04 1.719960e-04 4.786108e-04 3.964926e-04 -4.424692e-04 1.238573e-04 -1.230494e-03
<VARIANCE> 39
 7.870708e+01 7.749612e+01 6.965012e+01 1.051524e+02 1.062107e+02 8.514552e+01 1.001135e+02 8.214689e+01 6.501699e+01 5.676230e+01 5.630800e+01 4.140810e+01 1.981280e+02 3.117548e+00 3.106629e+00 2.736698e+00 3.193045e+00 3.890562e+00 3.625063e+00 3.188010e+00 3.619015e+00 3.289906e+00 2.794354e+00 2.971417e+00 2.224828e+00 2.897648e+00 4.755220e-01 5.168164e-01 4.348386e-01 5.577204e-01 6.735125e-01 6.316133e-01 5.733174e-01 6.471229e-01 5.924137e-01 5.213166e-01 5.404869e-01 4.167519e-01 4.446785e-01
<GCONST> 1.352326e+02
<TRANSP> 5
 0.000000e+00 1.000000e+00 0.000000e+00 0.000000e+00 0.000000e+00
 0.000000e+00 5.999334e-01 4.000666e-01 0.000000e+00 0.000000e+00
 0.000000e+00 0.000000e+00 5.999247e-01 4.000753e-01 0.000000e+00
 0.000000e+00 0.000000e+00 0.000000e+00 7.119879e-01 2.880122e-01
 0.000000e+00 0.000000e+00 0.000000e+00 0.000000e+00 0.000000e+00
<ENDHMM>
~h "a"
<BEGINHMM>
<NUMSTATES> 5
<STATE> 2
<MEAN> 39
 -1.915818e+00 -6.088285e+00 -4.151636e+00 -4.788421e+00 -6.434680e+00 -4.362103e+00 -6.028425e+00 -3.436921e+00 -4.084517e+00 -5.251278e+00 -4.446308e+00 -3.415468e+00 6.791090e+01 -4.145977e-03 4.091628e-03 2.490342e-03 -1.207290e-04 1.391985e-03 2.167641e-03 8.683484e-04 -8.765273e-04 4.749994e-04 3.165189e-03 3.803458e-03 1.549216e-03 -5.013369e-03 -1.351902e-03 1.282776e-03 4.620705e-04 1.356807e-03 5.436627e-04 2.644359e-04 4.346278e-04 -7.507933e-04 -1.071781e-05 4.800042e-05 1.202747e-03 1.145527e-04 -1.684539e-03
<VARIANCE> 39
 7.532275e+01 8.364756e+01 6.806933e+01 9.984447e+01 1.037532e+02 8.286559e+01 1.031146e+02 7.768694e+01 6.428260e+01 6.074952e+01 5.941462e+01 4.177465e+01 2.037112e+02 2.853220e+00 3.116679e+00 2.686558e+00 3.174868e+00 3.799797e+00 3.468047e+00 3.141583e+00 3.590480e+00 3.209291e+00 2.759889e+00 2.957905e+00 2.246788e+00 2.812687e+00 4.362703e-01 5.071256e-01 4.252088e-01 5.434480e-01 6.548811e-01 5.996367e-01 5.626670e-01 6.408166e-01 5.774459e-01 5.124937e-01 5.325381e-01 4.195701e-01 4.181450e-01
<GCONST> 1.346243e+02
<STATE> 3
<MEAN> 39
 -1.927070e+00 -6.077792e+00 -4.146744e+00 -4.784626e+00 -6.430360e+00 -4.357264e+00 -6.028028e+00 -3.438809e+00 -4.083852e+00 -5.243421e+00 -4.435771e+00 -3.411514e+00 6.789670e+01 -6.201024e-03 6.387775e-03 2.710450e-03 2.590701e-03 2.646048e-03 2.196201e-03 1.653376e-03 -2.397917e-03 4.328127e-04 3.234793e-03 5.434163e-03 1.461270e-03 -8.067461e-03 -1.180126e-03 1.238554e-03 2.548690e-04 1.258477e-03 4.002263e-04 -7.290026e-05 2.171331e-04 -6.040536e-04 1.248438e-04 -8.808728e-05 7.741794e-04 1.742017e-04 -1.732280e-03
<VARIANCE> 39
 7.541615e+01 8.346532e+01 6.813938e+01 1.000919e+02 1.037974e+02 8.292221e+01 1.030533e+02 7.784168e+01 6.415725e+01 6.079873e+01 5.955793e+01 4.178931e+01 2.036449e+02 2.853705e+00 3.112951e+00 2.683877e+00 3.172126e+00 3.793796e+00 3.465625e+00 3.138069e+00 3.585295e+00 3.206524e+00 2.758897e+00 2.957372e+00 2.242912e+00 2.811802e+00 4.361612e-01 5.063049e-01 4.247022e-01 5.424068e-01 6.536812e-01 5.986432e-01 5.618679e-01 6.399397e-01 5.768855e-01 5.125853e-01 5.325438e-01 4.184241e-01 4.167675e-01
<GCONST> 1.346014e+02
<STATE> 4
<MEAN> 39
 -2.030964e+00 -5.891692e+00 -4.210101e+00 -4.567608e+00 -6.063387e+00 -4.387768e+00 -5.717139e+00 -3.210491e+00 -4.024103e+00 -5.128691e+00 -4.357018e+00 -3.261196e+00 6.769370e+01 -7.274887e-03 7.662513e-03 2.304136e-03 5.050065e-03 3.694373e-03 1.462858e-03 1.478033e-03 -2.951230e-03 1.288562e-03 3.075165e-03 4.996113e-03 1.252994e-03 -1.034863e-02 -9.296824e-04 1.006016e-03 2.295892e-04 9.496976e-04 3.515488e-04 -2.560252e-04 -1.044571e-04 -2.599568e-04 2.800352e-04 -8.305963e-05 2.382969e-04 1.133091e-04 -1.455197e-03
<VARIANCE> 39
 7.386234e+01 8.081812e+01 6.838305e+01 9.801599e+01 1.008919e+02 8.181346e+01 9.668790e+01 7.709855e+01 6.289217e+01 5.925735e+01 5.920617e+01 4.105767e+01 2.086379e+02 2.748706e+00 2.995590e+00 2.622131e+00 3.092261e+00 3.662158e+00 3.397017e+00 3.066572e+00 3.483553e+00 3.130214e+00 2.704096e+00 2.889331e+00 2.180964e+00 2.737478e+00 4.188722e-01 4.862204e-01 4.131790e-01 5.278050e-01 6.318732e-01 5.858554e-01 5.481985e-01 6.211852e-01 5.634050e-01 5.019950e-01 5.191541e-01 4.056123e-01 4.011129e-01
<GCONST> 1.336317e+02
<TRANSP> 5
 0.000000e+00 1.000000e+00 0.000000e+00 0.000000e+00 0.000000e+00
 0.000000e+00 6.095970e-01 3.904029e-01 0.000000e+00 0.000000e+00
 0.000000e+00 0.000000e+00 6.095995e-01 3.904004e-01 0.000000e+00
 0.000000e+00 0.000000e+00 0.000000e+00 7.232130e-01 2.767870e-01
 0.000000e+00 0.000000e+00 0.000000e+00 0.000000e+00 0.000000e+00
<ENDHMM>
~h "b"
<BEGINHMM>
<NUMSTATES> 5
<STATE> 2
<MEAN> 39
 -1.399942e+00 -5.259490e+00 -3.326198e+00 -4.952171e+00 -7.231521e+00 -4.887743e+00 -6.742060e+00 -3.935408e+00 -3.704710e+00 -5.662635e+00 -4.537838e+00 -3.834768e+00 6.884991e+01 -1.343981e-02 3.497420e-03 7.296492e-03 6.229071e-03 -1.596987e-02 -3.259428e-03 6.723493e-03 6.067978e-03 -1.341052e-03 -7.108266e-03 1.396758e-02 -2.150327e-03 -1.111203e-02 -4.779891e-03 -1.675645e-04 -4.798724e-04 -8.549674e-04 2.659071e-03 1.489017e-04 4.731816e-04 6.495403e-04 3.331138e-04 1.235204e-03 -6.547372e-06 -3.000204e-04 -3.441632e-04
<VARIANCE> 39
 7.293659e+01 7.934743e+01 6.503061e+01 1.021329e+02 1.033593e+02 8.446794e+01 1.037536e+02 8.266131e+01 6.200142e+01 5.743690e+01 5.995159e+01 4.210609e+01 1.884191e+02 2.953259e+00 3.305870e+00 2.713146e+00 3.366179e+00 3.839219e+00 3.635100e+00 3.197925e+00 3.623005e+00 3.287963e+00 2.876405e+00 3.091736e+00 2.290807e+00 2.994814e+00 4.451803e-01 5.408244e-01 4.288470e-01 5.867689e-01 6.695487e-01 6.303028e-01 5.764738e-01 6.406376e-01 5.899818e-01 5.376522e-01 5.677979e-01 4.286751e-01 4.541454e-01
<GCONST> 1.353878e+02
<STATE> 3
<MEAN> 39
 -1.439681e+00 -5.249454e+00 -3.313702e+00 -4.936327e+00 -7.265509e+00 -4.893903e+00 -6.729140e+00 -3.926059e+00 -3.708717e+00 -5.681828e+00 -4.509527e+00 -3.841977e+00 6.881850e+01 -2.222686e-02 2.872904e-03 4.385138e-03 4.373104e-03 -1.008319e-02 -1.356507e-03 7.056110e-03 5.403544e-03 3.202520e-04 -2.896635e-03 1.316523e-02 -2.087182e-03 -1.366935e-02 -3.500380e-03 -6.496009e-04 -1.649514e-03 -1.478464e-03 2.455677e-03 1.029401e-03 3.970394e-05 -2.144118e-04 9.143129e-04 2.394936e-03 -5.297926e-04 2.193616e-04 -5.505190e-04
<VARIANCE> 39
 7.300124e+01 7.941635e+01 6.480805e+01 1.019383e+02 1.029972e+02 8.443677e+01 1.036613e+02 8.257919e+01 6.141874e+01 5.728383e+01 5.978980e+01 4.208278e+01 1.889688e+02 2.943687e+00 3.294303e+00 2.718753e+00 3.375194e+00 3.836146e+00 3.626607e+00 3.188994e+00 3.613514e+00 3.276397e+00 2.870913e+00 3.090589e+00 2.291940e+00 2.993330e+00 4.449903e-01 5.396256e-01 4.294676e-01 5.878122e-01 6.707173e-01 6.283054e-01 5.753067e-01 6.398793e-01 5.888668e-01 5.363541e-01 5.685729e-01 4.289694e-01 4.528000e-01
<GCONST> 1.353403e+02
<STATE> 4
<MEAN> 39
 -1.602861e+00 -5.112671e+00 -3.340506e+00 -4.729270e+00 -6.902640e+00 -4.926945e+00 -6.358998e+00 -3.653968e+00 -3.611982e+00 -5.615179e+00 -4.440498e+00 -3.700020e+00 6.875431e+01 -2.534442e-02 -1.072722e-03 -2.614178e-03 6.988622e-04 -5.961780e-03 3.205877e-03 5.016239e-03 3.339966e-03 2.341082e-03 1.791119e-03 1.238798e-02 -1.477142e-03 -1.652625e-02 -1.485443e-03 -1.509957e-03 -2.292104e-03 -1.612761e-03 1.327305e-03 1.502083e-03 -3.910455e-04 -3.497713e-04 9.511310e-04 2.208067e-03 8.486371e-05 4.763577e-04 -6.802742e-04
<VARIANCE> 39
 7.158133e+01 7.687010e+01 6.496028e+01 9.940105e+01 1.000369e+02 8.372512e+01 9.734926e+01 8.057272e+01 5.984063e+01 5.592549e+01 5.904129e+01 4.139213e+01 1.949550e+02 2.847823e+00 3.169400e+00 2.664996e+00 3.307566e+00 3.695607e+00 3.546200e+00 3.120465e+00 3.509553e+00 3.193337e+00 2.808255e+00 3.013961e+00 2.229871e+00 2.905979e+00 4.295812e-01 5.181617e-01 4.201451e-01 5.747005e-01 6.464513e-01 6.124320e-01 5.625963e-01 6.226298e-01 5.748758e-01 5.253374e-01 5.529940e-01 4.162324e-01 4.349414e-01
<GCONST> 1.343642e+02
<TRANSP> 5
 0.000000e+00 1.000000e+00 0.000000e+00 0.000000e+00 0.000000e+00
 0.000000e+00 6.030896e-01 3.969103e-01 0.000000e+00 0.000000e+00
 0.000000e+00 0.000000e+00 6.030850e-01 3.969149e-01 0.000000e+00
 0.000000e+00 0.000000e+00 0.000000e+00 7.153904e-01 2.846096e-01
 0.000000e+00 0.000000e+00 0.000000e+00 0.000000e+00 0.000000e+00
<ENDHMM>
~h "c"
<BEGINHMM>
<NUMSTATES> 5
<STATE> 2
<MEAN> 39
 -3.770504e+00 -6.068533e+00 -3.104044e+00 -4.548531e+00 -6.890168e+00 -2.810495e+00 -5.938026e+00 -4.812228e+00 -2.033807e+00 -5.379266e+00 -4.706388e+00 -3.542008e+00 7.187213e+01 1.349687e-01 -2.717176e-02 -1.981522e-02 -6.523342e-02 -2.948533e-02 6.337368e-02 -1.373744e-02 -1.295008e-02 -4.762867e-03 -1.822236e-02 -6.286256e-03 -1.788516e-02 7.734510e-02 4.529258e-03 5.248633e-03 1.670247e-03 5.555161e-03 -6.804677e-04 -1.484657e-03 8.916261e-03 -3.592178e-03 -8.539361e-03 -4.985198e-03 -8.047166e-03 -1.022648e-03 -1.667687e-02
<VARIANCE> 39
 7.589817e+01 6.480414e+01 6.093057e+01 7.920768e+01 9.452979e+01 7.909283e+01 9.728065e+01 6.042850e+01 5.110826e+01 4.483220e+01 5.521766e+01 3.397910e+01 2.639079e+02 3.598680e+00 2.810234e+00 2.585584e+00 2.904081e+00 3.448843e+00 3.015313e+00 2.861581e+00 3.387372e+00 2.912278e+00 2.466137e+00 2.696241e+00 2.109498e+00 3.026364e+00 5.590445e-01 4.632329e-01 4.193536e-01 5.183218e-01 5.887213e-01 5.261855e-01 5.191237e-01 6.091409e-01 5.196012e-01 4.630834e-01 4.832703e-01 3.988945e-01 4.338822e-01
<GCONST> 1.317619e+02
<STATE> 3
<MEAN> 39
 -3.478568e+00 -6.112986e+00 -3.146881e+00 -4.683672e+00 -6.934614e+00 -2.671135e+00 -5.927355e+00 -4.834174e+00 -2.056913e+00 -5.424829e+00 -4.750610e+00 -3.578267e+00 7.202386e+01 1.303578e-01 -1.645667e-02 -1.511847e-02 -4.718227e-02 -2.961467e-02 5.518575e-02 -4.093833e-03 -1.665457e-02 -1.133257e-02 -2.249839e-02 -2.491856e-02 -1.660058e-02 5.262132e-02 -6.288445e-03 6.163991e-03 2.702829e-03 8.241491e-03 2.006409e-03 -4.570049e-03 2.534958e-03 -2.284458e-03 -1.950093e-03 -1.215407e-04 -6.143604e-03 2.475690e-03 -1.061316e-02
<VARIANCE> 39
 7.420384e+01 6.527374e+01 6.091003e+01 7.991507e+01 9.544463e+01 7.964442e+01 9.830652e+01 6.175804e+01 5.120905e+01 4.532096e+01 5.593112e+01 3.409805e+01 2.603734e+02 3.536469e+00 2.854168e+00 2.609380e+00 2.914289e+00 3.440056e+00 3.031259e+00 2.835100e+00 3.426530e+00 2.878011e+00 2.473622e+00 2.726122e+00 2.108588e+00 2.917474e+00 5.507959e-01 4.694926e-01 4.264110e-01 5.222772e-01 5.936436e-01 5.258293e-01 5.141206e-01 6.167366e-01 5.132062e-01 4.617998e-01 4.905854e-01 3.964765e-01 4.197115e-01
<GCONST> 1.317943e+02
<STATE> 4
<MEAN> 39
 -3.235910e+00 -5.965181e+00 -3.201125e+00 -4.594719e+00 -6.539590e+00 -2.579308e+00 -5.434894e+00 -4.710685e+00 -2.098558e+00 -5.365697e+00 -4.807740e+00 -3.407690e+00 7.215757e+01 9.260895e-02 -2.695034e-03 -9.497478e-03 -2.925876e-02 -1.748794e-02 3.965709e-02 -1.637358e-03 -8.671593e-03 -4.442186e-03 -7.973786e-03 -1.868176e-02 -6.195560e-03 3.848768e-02 -1.078352e-02 4.700075e-03 2.275911e-03 5.337267e-03 2.699576e-03 -4.670486e-03 -6.425667e-04 1.292781e-03 2.206624e-03 3.883833e-03 2.295293e-03 3.638025e-03 -3.999159e-03
<VARIANCE> 39
 6.913560e+01 6.328933e+01 6.121412e+01 7.791054e+01 9.704755e+01 7.975983e+01 9.414162e+01 6.193774e+01 5.118402e+01 4.469126e+01 5.633699e+01 3.452837e+01 2.624331e+02 3.192059e+00 2.746183e+00 2.567961e+00 2.885358e+00 3.343954e+00 3.018727e+00 2.782768e+00 3.340794e+00 2.771900e+00 2.398368e+00 2.666872e+00 2.052354e+00 2.822151e+00 5.030091e-01 4.502120e-01 4.212559e-01 5.141244e-01 5.832465e-01 5.188833e-01 5.004202e-01 6.040890e-01 4.963559e-01 4.470434e-01 4.799762e-01 3.852762e-01 4.018378e-01
<GCONST> 1.308698e+02
<TRANSP> 5
 0.000000e+00 1.000000e+00 0.000000e+00 0.000000e+00 0.000000e+00
 0.000000e+00 6.117021e-01 3.882979e-01 0.000000e+00 0.000000e+00
 0.000000e+00 0.000000e+00 6.117035e-01 3.882966e-01 0.000000e+00
 0.000000e+00 0.000000e+00 0.000000e+00 7.244998e-01 2.755002e-01
 0.000000e+00 0.000000e+00 0.000000e+00 0.000000e+00 0.000000e+00
<ENDHMM>
~h "d"
<BEGINHMM>
<NUMSTATES> 5
<STATE> 2
<MEAN> 39
 -2.031954e+00 -5.577721e+00 -3.125831e+00 -4.236213e+00 -6.833190e+00 -5.093509e+00 -6.788647e+00 -3.719822e+00 -4.036093e+00 -5.289998e+00 -4.229707e+00 -3.443736e+00 6.826904e+01 7.958137e-03 -8.956776e-03 -6.209505e-03 -1.705819e-02 8.658549e-03 8.286053e-03 4.925976e-03 5.771416e-03 5.135443e-03 -4.618241e-04 -4.904739e-03 -3.515059e-03 1.380956e-02 -5.161560e-04 3.891909e-04 1.503592e-03 2.175816e-03 6.784454e-04 1.315419e-03 8.746777e-04 6.267934e-04 1.083730e-03 6.521238e-04 1.849857e-05 4.341132e-05 -3.186050e-03
<VARIANCE> 39
 7.462090e+01 7.913782e+01 7.071313e+01 1.093267e+02 1.058533e+02 8.300064e+01 9.966555e+01 7.913110e+01 6.597552e+01 5.944562e+01 5.991416e+01 4.165961e+01 2.080158e+02 2.741040e+00 3.104028e+00 2.668096e+00 3.308930e+00 3.950786e+00 3.546932e+00 3.213204e+00 3.685488e+00 3.267413e+00 2.791404e+00 3.048826e+00 2.244580e+00 2.903190e+00 4.204789e-01 5.103981e-01 4.217940e-01 5.672456e-01 6.872728e-01 6.199597e-01 5.808489e-01 6.595130e-01 5.857536e-01 5.188321e-01 5.542731e-01 4.191066e-01 4.470720e-01
<GCONST> 1.351948e+02
<STATE> 3
<MEAN> 39
 -2.016995e+00 -5.592645e+00 -3.135085e+00 -4.266263e+00 -6.810243e+00 -5.078018e+00 -6.772277e+00 -3.706483e+00 -4.018691e+00 -5.282482e+00 -4.241396e+00 -3.451813e+00 6.829500e+01 6.007536e-03 -7.426796e-03 -3.036788e-03 -1.196756e-02 9.680584e-03 7.794063e-03 6.347011e-03 5.915915e-03 6.596673e-03 1.501985e-03 -4.036048e-03 -2.076972e-03 9.362606e-03 -8.717962e-04 4.985583e-04 9.843770e-04 2.294877e-03 1.776233e-04 -7.783087e-04 3.229249e-04 4.944726e-04 5.463130e-04 8.686680e-04 8.355140e-04 8.608982e-04 -1.891167e-03
<VARIANCE> 39
 7.459340e+01 7.933186e+01 7.083531e+01 1.091326e+02 1.060238e+02 8.303093e+01 9.971286e+01 7.924701e+01 6.589000e+01 5.966940e+01 5.995921e+01 4.160976e+01 2.080745e+02 2.741652e+00 3.097439e+00 2.667212e+00 3.310045e+00 3.929418e+00 3.536291e+00 3.221437e+00 3.687735e+00 3.261317e+00 2.801160e+00 3.052331e+00 2.242014e+00 2.893889e+00 4.206370e-01 5.109325e-01 4.218966e-01 5.672362e-01 6.856358e-01 6.173993e-01 5.826732e-01 6.598518e-01 5.866749e-01 5.208784e-01 5.539109e-01 4.179944e-01 4.438446e-01
<GCONST> 1.351880e+02
<STATE> 4
<MEAN> 39
 -2.057152e+00 -5.463658e+00 -3.231219e+00 -4.089456e+00 -6.397346e+00 -5.107597e+00 -6.368345e+00 -3.425107e+00 -3.963163e+00 -5.146994e+00 -4.187206e+00 -3.303875e+00 6.819802e+01 3.928927e-03 -4.528676e-03 -1.784202e-03 -5.638607e-03 8.159895e-03 3.634430e-03 6.973686e-03 6.145272e-03 5.195219e-03 3.058114e-03 -1.017729e-03 1.993058e-04 6.205392e-03 -5.814699e-04 4.222855e-04 7.073149e-05 1.686173e-03 -2.691114e-04 -1.270460e-03 1.002598e-04 8.178797e-04 -8.422080e-04 2.830103e-04 1.277815e-03 9.376668e-04 -1.098741e-03
<VARIANCE> 39
 7.228223e+01 7.744061e+01 7.117318e+01 1.063743e+02 1.024821e+02 8.181106e+01 9.359657e+01 7.810749e+01 6.424078e+01 5.819625e+01 5.906067e+01 4.055690e+01 2.124388e+02 2.640573e+00 2.982459e+00 2.613253e+00 3.235599e+00 3.766115e+00 3.458226e+00 3.147774e+00 3.588742e+00 3.178470e+00 2.753568e+00 2.974218e+00 2.176007e+00 2.817319e+00 4.057280e-01 4.909655e-01 4.122917e-01 5.535104e-01 6.580488e-01 6.037716e-01 5.682763e-01 6.410983e-01 5.728000e-01 5.122536e-01 5.377544e-01 4.052357e-01 4.260405e-01
<GCONST> 1.341726e+02
<TRANSP> 5
 0.000000e+00 1.000000e+00 0.000000e+00 0.000000e+00 0.000000e+00
 0.000000e+00 6.096207e-01 3.903793e-01 0.000000e+00 0.000000e+00
 0.000000e+00 0.000000e+00 6.096155e-01 3.903845e-01 0.000000e+00
 0.000000e+00 0.000000e+00 0.000000e+00 7.233829e-01 2.766172e-01
 0.000000e+00 0.000000e+00 0.000000e+00 0.000000e+00 0.000000e+00
<ENDHMM>
~h "e"
<BEGINHMM>
<NUMSTATES> 5
<STATE> 2
<MEAN> 39
 -2.997882e+00 -6.756133e+00 -2.598333e+00 -3.357316e+00 -8.444071e+00 -3.681856e+00 -5.216490e+00 -3.954168e+00 -3.936637e+00 -5.386588e+00 -4.289717e+00 -3.333464e+00 7.022256e+01 -1.688163e-02 -8.556215e-03 2.449316e-02 1.394592e-02 -1.454334e-03 1.703135e-02 1.080439e-03 -1.528702e-02 -8.413133e-03 2.784035e-03 -6.197563e-04 -2.586925e-03 -1.433359e-02 -2.007272e-03 1.537361e-03 -3.823672e-04 -1.512140e-03 7.831507e-04 -1.039668e-03 1.262660e-03 -6.296635e-04 -1.691154e-03 -1.470318e-04 1.041816e-03 7.333670e-04 -2.129826e-03
<VARIANCE> 39
 6.788412e+01 7.472864e+01 6.730335e+01 1.007954e+02 9.294538e+01 8.601347e+01 8.349133e+01 7.215926e+01 6.449970e+01 5.548320e+01 5.126358e+01 3.831894e+01 2.212959e+02 2.875871e+00 3.103651e+00 2.698156e+00 2.936707e+00 3.542974e+00 3.445762e+00 2.775365e+00 3.191183e+00 3.115110e+00 2.555199e+00 2.595978e+00 2.060422e+00 2.647837e+00 4.334395e-01 5.079939e-01 4.163076e-01 4.976494e-01 6.051525e-01 5.757113e-01 4.992772e-01 5.717593e-01 5.576747e-01 4.747062e-01 4.795202e-01 3.800634e-01 3.905621e-01
<GCONST> 1.321864e+02
<STATE> 3
<MEAN> 39
 -3.041722e+00 -6.769585e+00 -2.540442e+00 -3.333501e+00 -8.443338e+00 -3.639620e+00 -5.211710e+00 -3.995678e+00 -3.961973e+00 -5.376416e+00 -4.298127e+00 -3.337589e+00 7.018884e+01 -1.837335e-02 -4.539568e-03 2.213064e-02 1.058265e-02 -4.825208e-04 1.463591e-02 2.767020e-03 -1.637591e-02 -1.259661e-02 2.435456e-03 -2.128468e-05 -1.128066e-03 -1.725837e-02 -3.212558e-04 3.052417e-03 -2.162095e-03 -1.668526e-03 5.250387e-04 -1.487307e-03 6.205208e-04 -8.333344e-04 -1.112691e-03 5.337046e-04 8.461147e-05 5.028122e-04 -2.024189e-03
<VARIANCE> 39
 6.750880e+01 7.517017e+01 6.750710e+01 1.015757e+02 9.295291e+01 8.588786e+01 8.320956e+01 7.178774e+01 6.447502e+01 5.548492e+01 5.115103e+01 3.824099e+01 2.225019e+02 2.871498e+00 3.100931e+00 2.706236e+00 2.946924e+00 3.520029e+00 3.449525e+00 2.768271e+00 3.195753e+00 3.124454e+00 2.554125e+00 2.599907e+00 2.060070e+00 2.633093e+00 4.324553e-01 5.081471e-01 4.165599e-01 4.982798e-01 6.020910e-01 5.751479e-01 4.981679e-01 5.713687e-01 5.589572e-01 4.741324e-01 4.789841e-01 3.802831e-01 3.880954e-01
<GCONST> 1.321695e+02
<STATE> 4
<MEAN> 39
 -3.146176e+00 -6.643111e+00 -2.493739e+00 -3.176280e+00 -8.215889e+00 -3.525710e+00 -4.960843e+00 -3.927393e+00 -3.882694e+00 -5.287008e+00 -4.324886e+00 -3.262644e+00 7.023831e+01 -1.487542e-02 1.988809e-03 1.545398e-02 6.140132e-03 3.410031e-04 9.957111e-03 2.549192e-03 -1.658648e-02 -1.419580e-02 4.513953e-03 -1.929460e-03 -4.342892e-04 -1.644333e-02 8.912317e-04 3.094641e-03 -2.827249e-03 -1.173020e-03 1.146221e-04 -1.826141e-03 -3.032119e-05 -6.360153e-04 4.994127e-05 1.139965e-03 -2.265638e-04 4.432038e-05 -1.447650e-03
<VARIANCE> 39
 6.540583e+01 7.344357e+01 6.753408e+01 1.004059e+02 9.062881e+01 8.452309e+01 7.797876e+01 6.971494e+01 6.400123e+01 5.426133e+01 5.032329e+01 3.738851e+01 2.296573e+02 2.749936e+00 2.976541e+00 2.644746e+00 2.894057e+00 3.359068e+00 3.383581e+00 2.696777e+00 3.103831e+00 3.068302e+00 2.516354e+00 2.543186e+00 2.014271e+00 2.569277e+00 4.123901e-01 4.850697e-01 4.053340e-01 4.866340e-01 5.739388e-01 5.620728e-01 4.844663e-01 5.543905e-01 5.482609e-01 4.666617e-01 4.664607e-01 3.717738e-01 3.723027e-01
<GCONST> 1.311823e+02
<TRANSP> 5
 0.000000e+00 1.000000e+00 0.000000e+00 0.000000e+00 0.000000e+00
 0.000000e+00 6.170643e-01 3.829357e-01 0.000000e+00 0.000000e+00
 0.000000e+00 0.000000e+00 6.170672e-01 3.829328e-01 0.000000e+00
 0.000000e+00 0.000000e+00 0.000000e+00 7.299972e-01 2.700028e-01
 0.000000e+00 0.000000e+00 0.000000e+00 0.000000e+00 0.000000e+00
<ENDHMM>
~h "f"
<BEGINHMM>
<NUMSTATES> 5
<STATE> 2
<MEAN> 39
 -3.495550e+00 -6.957804e+00 -2.774045e+00 -3.979550e+00 -7.563013e+00 -4.291685e+00 -5.666724e+00 -3.705766e+00 -4.752213e+00 -5.738020e+00 -4.334129e+00 -3.125474e+00 6.908964e+01 -1.994142e-02 2.925321e-02 2.360381e-02 1.162578e-02 -4.350268e-03 -7.767951e-03 -3.706223e-03 -8.153146e-03 -2.115313e-02 -1.188803e-02 -1.706009e-02 7.795624e-03 -3.774928e-02 5.533924e-03 -1.043638e-03 2.021905e-04 -8.028628e-04 -5.507290e-03 3.851198e-03 8.443507e-04 -1.914821e-04 1.383445e-04 1.902299e-03 1.612751e-03 -7.819224e-04 -2.448278e-03
<VARIANCE> 39
 7.577511e+01 7.652069e+01 6.700153e+01 1.188493e+02 9.724660e+01 7.800838e+01 7.343588e+01 7.103512e+01 6.233160e+01 5.632255e+01 5.504967e+01 3.313557e+01 1.797155e+02 3.699852e+00 3.157549e+00 2.551085e+00 3.714886e+00 4.121145e+00 3.762000e+00 3.007620e+00 3.348090e+00 3.268411e+00 2.813413e+00 2.703300e+00 2.085587e+00 2.399789e+00 5.413986e-01 5.305012e-01 3.973210e-01 6.577210e-01 6.818143e-01 6.347374e-01 5.420236e-01 6.110306e-01 5.996310e-01 5.198095e-01 4.977953e-01 3.862277e-01 3.679897e-01
<GCONST> 1.339173e+02
<STATE> 3
<MEAN> 39
 -3.538492e+00 -6.897879e+00 -2.733105e+00 -3.952094e+00 -7.583017e+00 -4.321736e+00 -5.671077e+00 -3.713235e+00 -4.800363e+00 -5.756783e+00 -4.372917e+00 -3.116145e+00 6.899557e+01 -8.628219e-03 2.628318e-02 2.260588e-02 1.239610e-02 -1.588980e-02 -1.721066e-03 6.640636e-04 -7.373648e-03 -1.957384e-02 -5.594409e-03 -1.307918e-02 5.586701e-03 -4.168044e-02 6.053396e-03 -9.874103e-04 -6.109436e-04 8.443685e-04 -4.943127e-03 3.108524e-03 1.842347e-03 -1.378996e-04 3.344604e-03 2.681006e-03 1.232075e-03 -5.479323e-04 -2.150424e-03
<VARIANCE> 39
 7.583072e+01 7.676373e+01 6.765350e+01 1.189436e+02 9.847945e+01 7.748954e+01 7.368462e+01 7.072871e+01 6.225141e+01 5.530762e+01 5.445961e+01 3.277789e+01 1.801990e+02 3.704630e+00 3.167383e+00 2.523724e+00 3.714505e+00 4.138423e+00 3.781591e+00 3.010146e+00 3.344851e+00 3.231653e+00 2.800861e+00 2.688801e+00 2.067363e+00 2.401827e+00 5.407479e-01 5.305660e-01 3.936870e-01 6.558216e-01 6.848648e-01 6.382641e-01 5.407187e-01 6.109982e-01 5.951748e-01 5.193172e-01 4.933849e-01 3.812629e-01 3.668054e-01
<GCONST> 1.338328e+02
<STATE> 4
<MEAN> 39
 -3.460565e+00 -6.659948e+00 -2.738120e+00 -3.710550e+00 -7.324613e+00 -4.333008e+00 -5.383947e+00 -3.441123e+00 -4.818599e+00 -5.640417e+00 -4.414577e+00 -3.032168e+00 6.892717e+01 2.449681e-03 2.123186e-02 1.472507e-02 1.600635e-02 -2.439088e-02 -1.660348e-03 7.268559e-03 -4.885380e-03 -1.132800e-02 2.115961e-03 -8.375531e-03 2.443779e-03 -4.037041e-02 5.473975e-03 2.833721e-05 -1.611438e-03 1.705557e-03 -3.144548e-03 2.842200e-03 2.122578e-03 -5.372871e-04 4.799214e-03 1.763778e-03 6.610941e-04 3.090330e-04 -1.700339e-03
<VARIANCE> 39
 7.286985e+01 7.518331e+01 6.843483e+01 1.179980e+02 9.861388e+01 7.786172e+01 7.071114e+01 7.030095e+01 6.237394e+01 5.360904e+01 5.352786e+01 3.253661e+01 1.848821e+02 3.524719e+00 3.075980e+00 2.446769e+00 3.646798e+00 3.980826e+00 3.788453e+00 2.955001e+00 3.276764e+00 3.160675e+00 2.723971e+00 2.644115e+00 2.023187e+00 2.376449e+00 5.157372e-01 5.134037e-01 3.824280e-01 6.392493e-01 6.613458e-01 6.388487e-01 5.301577e-01 6.002933e-01 5.829311e-01 5.061046e-01 4.810567e-01 3.716406e-01 3.577589e-01
<GCONST> 1.330742e+02
<TRANSP> 5
 0.000000e+00 1.000000e+00 0.000000e+00 0.000000e+00 0.000000e+00
 0.000000e+00 6.133299e-01 3.866701e-01 0.000000e+00 0.000000e+00
 0.000000e+00 0.000000e+00 6.133301e-01 3.866698e-01 0.000000e+00
 0.000000e+00 0.000000e+00 0.000000e+00 7.262172e-01 2.737829e-01
 0.000000e+00 0.000000e+00 0.000000e+00 0.000000e+00 0.000000e+00
<ENDHMM>
~h "g"
<BEGINHMM>
<NUMSTATES> 5
<STATE> 2
<MEAN> 39
 -1.378955e+00 -4.368803e+00 -2.819957e+00 -3.780532e+00 -6.817710e+00 -4.244716e+00 -7.414978e+00 -5.101336e+00 -4.570832e+00 -5.027452e+00 -3.542139e+00 -3.595846e+00 6.826227e+01 -2.449151e-03 -2.698446e-02 -2.178113e-04 2.593555e-02 1.163061e-02 1.787376e-02 -2.536721e-02 1.026001e-02 1.653453e-02 -1.268294e-02 -2.604655e-02 -3.606535e-03 1.204142e-02 -2.212362e-03 -2.056345e-03 -2.160821e-03 -5.182821e-04 4.246841e-03 -1.116924e-03 -6.862857e-04 3.289902e-03 3.385684e-03 3.893984e-04 -3.007182e-03 2.526592e-03 -1.136623e-04
<VARIANCE> 39
 7.451765e+01 7.817731e+01 8.473100e+01 1.048195e+02 1.124786e+02 9.308114e+01 1.171540e+02 9.073370e+01 6.722913e+01 6.057450e+01 6.924346e+01 4.373841e+01 2.241534e+02 2.317014e+00 2.765699e+00 2.759863e+00 3.307887e+00 3.853712e+00 3.805266e+00 3.251914e+00 3.833109e+00 3.576136e+00 2.878329e+00 3.292344e+00 2.446636e+00 2.786801e+00 3.496487e-01 4.533440e-01 4.395818e-01 5.768788e-01 6.662885e-01 6.483739e-01 5.800834e-01 6.669469e-01 6.437080e-01 5.289046e-01 5.893696e-01 4.648750e-01 4.153588e-01
<GCONST> 1.361731e+02
<STATE> 3
<MEAN> 39
 -1.392789e+00 -4.417135e+00 -2.821874e+00 -3.714587e+00 -6.782410e+00 -4.203758e+00 -7.475257e+00 -5.074905e+00 -4.536675e+00 -5.058064e+00 -3.598982e+00 -3.604858e+00 6.827202e+01 -6.121440e-03 -2.934035e-02 -4.200156e-03 2.379219e-02 1.807086e-02 1.619474e-02 -2.667439e-02 1.749471e-02 2.389366e-02 -1.201522e-02 -3.008218e-02 9.548665e-04 1.012844e-02 -1.816931e-03 -7.232023e-04 -1.611828e-03 -1.618077e-03 3.091058e-03 -1.731205e-03 2.028492e-04 4.063777e-03 2.215262e-03 6.646009e-04 -1.339426e-03 2.212569e-03 -1.779417e-03
<VARIANCE> 39
 7.448150e+01 7.833503e+01 8.434897e+01 1.050427e+02 1.129728e+02 9.307622e+01 1.172309e+02 9.081930e+01 6.742272e+01 6.087098e+01 6.973286e+01 4.402523e+01 2.238380e+02 2.313019e+00 2.750748e+00 2.762216e+00 3.321449e+00 3.871285e+00 3.811868e+00 3.240491e+00 3.846854e+00 3.567979e+00 2.893632e+00 3.299756e+00 2.445301e+00 2.775329e+00 3.493257e-01 4.501478e-01 4.396745e-01 5.782478e-01 6.692535e-01 6.485836e-01 5.780597e-01 6.680678e-01 6.397771e-01 5.310904e-01 5.896707e-01 4.646440e-01 4.147372e-01
<GCONST> 1.361969e+02
<STATE> 4
<MEAN> 39
 -1.544887e+00 -4.347635e+00 -2.983933e+00 -3.477853e+00 -6.348437e+00 -4.230195e+00 -7.073929e+00 -4.731046e+00 -4.416512e+00 -4.947733e+00 -3.589654e+00 -3.384854e+00 6.806281e+01 -8.283990e-03 -2.434571e-02 -5.570103e-03 1.907589e-02 1.881980e-02 1.429678e-02 -2.468751e-02 2.530212e-02 2.399822e-02 -9.375975e-03 -2.552022e-02 2.715284e-03 1.902631e-03 -1.342469e-03 -2.388353e-04 -8.252076e-04 -2.088259e-03 9.212409e-04 -1.471126e-03 8.304538e-04 4.418268e-03 5.406853e-04 1.491405e-03 7.946249e-04 1.186106e-03 -2.624857e-03
<VARIANCE> 39
 7.269138e+01 7.594990e+01 8.410152e+01 1.013648e+02 1.083317e+02 9.122244e+01 1.088380e+02 8.885835e+01 6.627974e+01 5.918249e+01 6.835983e+01 4.303475e+01 2.294503e+02 2.237338e+00 2.628201e+00 2.698169e+00 3.210532e+00 3.726799e+00 3.723887e+00 3.111965e+00 3.693706e+00 3.449789e+00 2.827485e+00 3.176994e+00 2.341838e+00 2.689622e+00 3.373544e-01 4.287378e-01 4.266551e-01 5.555830e-01 6.437544e-01 6.306646e-01 5.548283e-01 6.389797e-01 6.160781e-01 5.185907e-01 5.659539e-01 4.429283e-01 3.985494e-01
<GCONST> 1.349374e+02
<TRANSP> 5
 0.000000e+00 1.000000e+00 0.000000e+00 0.000000e+00 0.000000e+00
 0.000000e+00 6.049456e-01 3.950544e-01 0.000000e+00 0.000000e+00
 0.000000e+00 0.000000e+00 6.049442e-01 3.950558e-01 0.000000e+00
 0.000000e+00 0.000000e+00 0.000000e+00 7.190308e-01 2.809692e-01
 0.000000e+00 0.000000e+00 0.000000e+00 0.000000e+00 0.000000e+00
<ENDHMM>
~h "h"
<BEGINHMM>
<NUMSTATES> 5
<STATE> 2
<MEAN> 39
 -2.439486e+00 -5.916659e+00 -3.738866e+00 -5.244462e+00 -6.263067e+00 -3.896502e+00 -5.404540e+00 -3.912787e+00 -3.854846e+00 -5.459696e+00 -4.544725e+00 -3.324355e+00 6.783022e+01 1.464653e-02 1.315968e-02 6.738922e-03 6.999522e-03 3.946034e-03 -1.937503e-02 -4.798220e-03 -1.506699e-02 1.425769e-02 2.187261e-03 -1.175498e-03 -6.546658e-03 1.638008e-02 -6.621502e-04 3.804324e-03 1.278281e-03 2.359633e-03 2.113992e-03 -5.376220e-04 -1.898450e-04 8.436522e-04 4.654117e-04 2.260044e-04 -1.722085e-03 5.615564e-04 -4.040398e-03
<VARIANCE> 39
 7.691492e+01 8.735197e+01 7.086121e+01 1.020177e+02 1.092898e+02 8.101076e+01 1.047911e+02 7.696053e+01 6.335683e+01 6.476736e+01 6.361588e+01 4.165601e+01 2.212224e+02 2.744679e+00 3.006015e+00 2.708031e+00 3.081651e+00 3.784397e+00 3.399830e+00 3.165890e+00 3.415651e+00 3.143343e+00 2.763474e+00 2.966321e+00 2.197839e+00 2.666446e+00 4.138491e-01 4.875170e-01 4.240470e-01 5.246481e-01 6.389514e-01 5.749608e-01 5.558628e-01 6.015082e-01 5.647460e-01 5.078878e-01 5.233527e-01 4.080852e-01 3.832201e-01
<GCONST> 1.342930e+02
<STATE> 3
<MEAN> 39
 -2.398321e+00 -5.882237e+00 -3.723334e+00 -5.226809e+00 -6.226380e+00 -3.944290e+00 -5.407045e+00 -3.943362e+00 -3.818217e+00 -5.454572e+00 -4.565039e+00 -3.341085e+00 6.787440e+01 1.335353e-02 2.068222e-02 1.030289e-02 1.174175e-02 9.318683e-03 -1.918614e-02 -2.857684e-03 -1.250914e-02 1.517109e-02 3.080762e-03 -6.711340e-03 -5.301684e-03 8.152825e-03 -8.133781e-04 3.257017e-03 1.145777e-03 1.816565e-03 2.517614e-03 3.526336e-04 1.119102e-03 1.147150e-03 8.156637e-05 2.271948e-04 -2.536974e-03 5.905172e-04 -3.471716e-03
<VARIANCE> 39
 7.718007e+01 8.737061e+01 7.093616e+01 1.027377e+02 1.108400e+02 8.178632e+01 1.052126e+02 7.737970e+01 6.342065e+01 6.497791e+01 6.417709e+01 4.156743e+01 2.200976e+02 2.757145e+00 3.021158e+00 2.720060e+00 3.090035e+00 3.784772e+00 3.415940e+00 3.167856e+00 3.418026e+00 3.152661e+00 2.759446e+00 2.971495e+00 2.198931e+00 2.673870e+00 4.152875e-01 4.905680e-01 4.247926e-01 5.258891e-01 6.382385e-01 5.785607e-01 5.565725e-01 6.023114e-01 5.658618e-01 5.071998e-01 5.232964e-01 4.086638e-01 3.851044e-01
<GCONST> 1.344013e+02
<STATE> 4
<MEAN> 39
 -2.406579e+00 -5.666144e+00 -3.762166e+00 -4.998872e+00 -5.811990e+00 -3.970196e+00 -5.081830e+00 -3.811950e+00 -3.693518e+00 -5.340107e+00 -4.560753e+00 -3.234587e+00 6.778048e+01 1.194905e-02 2.415056e-02 1.220290e-02 1.197975e-02 1.484326e-02 -1.367529e-02 2.900218e-03 -8.142550e-03 1.518888e-02 1.772171e-03 -1.301565e-02 -4.136411e-03 1.900559e-03 -1.011343e-03 1.887943e-03 5.835424e-04 3.287433e-04 1.361155e-03 2.115853e-03 1.603000e-03 1.111740e-03 1.241442e-04 -3.711863e-04 -1.439892e-03 5.992092e-04 -2.705318e-03
<VARIANCE> 39
 7.584461e+01 8.529565e+01 7.049314e+01 1.023209e+02 1.100955e+02 8.160883e+01 1.001633e+02 7.724124e+01 6.290184e+01 6.378058e+01 6.442547e+01 4.073619e+01 2.231564e+02 2.687028e+00 2.951221e+00 2.665634e+00 3.042189e+00 3.682785e+00 3.369689e+00 3.106575e+00 3.332528e+00 3.094036e+00 2.700145e+00 2.920141e+00 2.151174e+00 2.639765e+00 4.032977e-01 4.802010e-01 4.144236e-01 5.164754e-01 6.217659e-01 5.704520e-01 5.472077e-01 5.887001e-01 5.541675e-01 4.957002e-01 5.128592e-01 3.994482e-01 3.750333e-01
<GCONST> 1.337100e+02
<TRANSP> 5
 0.000000e+00 1.000000e+00 0.000000e+00 0.000000e+00 0.000000e+00
 0.000000e+00 6.052307e-01 3.947692e-01 0.000000e+00 0.000000e+00
 0.000000e+00 0.000000e+00 6.052316e-01 3.947684e-01 0.000000e+00
 0.000000e+00 0.000000e+00 0.000000e+00 7.168401e-01 2.831598e-01
 0.000000e+00 0.000000e+00 0.000000e+00 0.000000e+00 0.000000e+00
<ENDHMM>
~h "i"
<BEGINHMM>
<NUMSTATES> 5
<STATE> 2
<MEAN> 39
 -2.640707e+00 -4.794662e+00 -1.974388e+00 -4.083148e+00 -6.977405e+00 -5.364196e+00 -5.921424e+00 -4.256663e+00 -4.672865e+00 -5.305594e+00 -4.322106e+00 -3.407774e+00 6.714710e+01 -3.865900e-03 2.546561e-03 -8.199651e-03 3.837638e-03 -1.477823e-03 7.993751e-04 1.660458e-03 6.707537e-03 4.215817e-03 -1.118257e-03 -1.802464e-03 -1.652181e-03 -1.367852e-02 -2.882420e-05 -7.594773e-05 -1.389920e-03 5.925490e-04 5.799119e-04 2.198595e-04 1.087424e-03 5.601626e-05 1.244210e-03 4.227129e-04 -2.660583e-04 2.847659e-04 -1.255189e-03
<VARIANCE> 39
 7.379231e+01 8.020869e+01 8.144208e+01 1.292687e+02 1.130926e+02 8.949931e+01 9.765321e+01 7.826305e+01 6.552223e+01 5.787355e+01 6.489319e+01 3.991229e+01 1.930711e+02 2.871044e+00 2.922215e+00 2.845991e+00 3.496768e+00 3.892909e+00 3.633439e+00 3.234882e+00 3.400349e+00 3.260100e+00 2.759965e+00 2.972242e+00 2.222059e+00 2.637449e+00 4.334344e-01 4.783211e-01 4.354637e-01 5.874271e-01 6.640558e-01 6.128055e-01 5.716625e-01 6.000255e-01 5.806283e-01 5.089597e-01 5.290571e-01 4.087829e-01 3.962844e-01
<GCONST> 1.350967e+02
<STATE> 3
<MEAN> 39
 -2.650741e+00 -4.787433e+00 -1.993340e+00 -4.070511e+00 -6.983588e+00 -5.364292e+00 -5.917826e+00 -4.242845e+00 -4.666286e+00 -5.310553e+00 -4.321296e+00 -3.411961e+00 6.711190e+01 -4.126874e-03 1.987115e-03 -1.001467e-02 4.747666e-03 -5.006120e-04 1.628067e-03 4.143143e-03 6.246591e-03 6.035257e-03 -1.769701e-04 -1.176088e-03 -1.023656e-03 -1.587857e-02 -2.916057e-04 -3.068393e-04 -6.907092e-04 5.319291e-04 7.727402e-04 4.370662e-04 1.357868e-03 -1.683446e-04 9.797653e-04 5.049769e-04 1.516355e-04 5.960351e-04 -1.152371e-03
<VARIANCE> 39
 7.382001e+01 8.030842e+01 8.148840e+01 1.290573e+02 1.128838e+02 8.952021e+01 9.751894e+01 7.833368e+01 6.548672e+01 5.780005e+01 6.467698e+01 3.992376e+01 1.930065e+02 2.864194e+00 2.911960e+00 2.834296e+00 3.478142e+00 3.892785e+00 3.624926e+00 3.230272e+00 3.392479e+00 3.259995e+00 2.758292e+00 2.966502e+00 2.223170e+00 2.628273e+00 4.321285e-01 4.758361e-01 4.337263e-01 5.849130e-01 6.637011e-01 6.109366e-01 5.701656e-01 5.990021e-01 5.806829e-01 5.083533e-01 5.276887e-01 4.090437e-01 3.947374e-01
<GCONST> 1.350315e+02
<STATE> 4
<MEAN> 39
 -2.702942e+00 -4.663229e+00 -2.165150e+00 -3.888729e+00 -6.657302e+00 -5.347921e+00 -5.594212e+00 -4.018622e+00 -4.593438e+00 -5.227263e+00 -4.289194e+00 -3.263708e+00 6.687352e+01 -5.156301e-03 1.218402e-03 -9.352956e-03 4.476490e-03 9.267858e-04 3.289418e-03 6.335658e-03 5.049935e-03 5.683766e-03 8.235184e-04 1.232577e-03 3.783466e-04 -1.670288e-02 -4.163914e-04 -3.935412e-04 -4.514340e-04 1.565723e-04 9.839215e-04 5.792962e-04 1.163313e-03 -1.292117e-04 6.455759e-04 4.896816e-04 1.557434e-04 6.665867e-04 -9.804070e-04
<VARIANCE> 39
 7.215568e+01 7.868812e+01 8.177733e+01 1.257064e+02 1.096299e+02 8.839635e+01 9.218761e+01 7.797166e+01 6.480419e+01 5.689900e+01 6.366068e+01 3.946474e+01 1.974178e+02 2.749237e+00 2.797857e+00 2.758788e+00 3.386029e+00 3.763539e+00 3.554577e+00 3.152849e+00 3.308254e+00 3.206921e+00 2.702445e+00 2.893471e+00 2.171334e+00 2.546599e+00 4.137806e-01 4.564559e-01 4.216014e-01 5.687970e-01 6.415092e-01 5.989798e-01 5.547832e-01 5.842185e-01 5.712594e-01 4.975064e-01 5.131900e-01 3.991674e-01 3.783446e-01
<GCONST> 1.340973e+02
<TRANSP> 5
 0.000000e+00 1.000000e+00 0.000000e+00 0.000000e+00 0.000000e+00
 0.000000e+00 6.102882e-01 3.897118e-01 0.000000e+00 0.000000e+00
 0.000000e+00 0.000000e+00 6.102769e-01 3.897230e-01 0.000000e+00
 0.000000e+00 0.000000e+00 0.000000e+00 7.232369e-01 2.767631e-01
 0.000000e+00 0.000000e+00 0.000000e+00 0.000000e+00 0.000000e+00
<ENDHMM>
~h "j"
<BEGINHMM>
<NUMSTATES> 5
<STATE> 2
<MEAN> 39
 -2.631922e+00 -5.214453e+00 -2.043135e+00 -3.916033e+00 -7.176910e+00 -5.424832e+00 -6.427953e+00 -3.514965e+00 -3.840247e+00 -5.528728e+00 -4.728486e+00 -3.336496e+00 6.774657e+01 5.175662e-02 1.088175e-02 2.018371e-02 -7.702325e-03 -4.660771e-03 -2.473016e-02 9.888604e-03 -1.562508e-02 -1.364361e-02 -1.193098e-02 -1.705210e-02 -1.482640e-02 4.909125e-02 -1.305983e-02 -3.055854e-03 -6.200669e-03 1.475593e-03 6.758690e-03 9.355356e-04 6.884104e-03 3.666990e-03 1.302070e-04 3.250150e-04 -2.228410e-03 1.349211e-04 -1.194164e-02
<VARIANCE> 39
 6.531825e+01 6.606398e+01 7.570203e+01 1.070616e+02 9.902651e+01 8.373151e+01 9.237595e+01 6.794878e+01 6.005156e+01 5.152814e+01 5.590309e+01 3.621549e+01 1.964503e+02 2.841594e+00 3.202931e+00 2.792363e+00 3.253015e+00 4.074582e+00 3.571255e+00 3.110888e+00 3.301486e+00 3.264498e+00 2.685521e+00 2.796696e+00 2.154332e+00 2.943316e+00 4.595808e-01 5.480420e-01 4.296319e-01 5.687735e-01 7.443300e-01 6.314057e-01 5.822030e-01 6.123595e-01 6.144456e-01 5.088001e-01 5.093036e-01 4.061037e-01 4.380391e-01
<GCONST> 1.340756e+02
<STATE> 3
<MEAN> 39
 -2.573253e+00 -5.203304e+00 -2.011069e+00 -3.935715e+00 -7.155051e+00 -5.489161e+00 -6.390193e+00 -3.537737e+00 -3.868862e+00 -5.543963e+00 -4.774784e+00 -3.363525e+00 6.783115e+01 1.518659e-02 -1.445321e-03 1.132365e-02 -7.807216e-03 1.492716e-02 -2.792633e-02 1.152916e-02 -1.042275e-02 -1.998121e-02 -7.337722e-03 -1.721137e-02 -1.449439e-02 3.391852e-02 -1.730690e-02 -5.396607e-03 -3.294524e-03 -9.010155e-04 9.204444e-03 -1.770208e-03 -5.079305e-04 2.975437e-03 -2.364707e-03 2.491734e-03 5.998476e-04 6.632602e-04 -4.861656e-03
<VARIANCE> 39
 6.471485e+01 6.597234e+01 7.618443e+01 1.085068e+02 9.938580e+01 8.392974e+01 9.239709e+01 6.824143e+01 6.040455e+01 5.178708e+01 5.756104e+01 3.632679e+01 1.959115e+02 2.769826e+00 3.219526e+00 2.793751e+00 3.266482e+00 4.016250e+00 3.607511e+00 3.106155e+00 3.277751e+00 3.274168e+00 2.671703e+00 2.785354e+00 2.153461e+00 2.870355e+00 4.502814e-01 5.486593e-01 4.330856e-01 5.702265e-01 7.357283e-01 6.376415e-01 5.815429e-01 6.056368e-01 6.157920e-01 5.048704e-01 5.070975e-01 4.051642e-01 4.308152e-01
<GCONST> 1.340235e+02
<STATE> 4
<MEAN> 39
 -2.647340e+00 -5.199118e+00 -2.178222e+00 -3.839766e+00 -6.684173e+00 -5.530480e+00 -6.141560e+00 -3.342060e+00 -3.792134e+00 -5.472284e+00 -4.793167e+00 -3.287356e+00 6.778403e+01 -1.865800e-02 -8.290768e-03 8.273746e-03 -1.474757e-02 2.913413e-02 -2.685696e-02 -2.403268e-04 -5.392621e-03 -2.156604e-02 -3.462269e-03 -1.382229e-02 -1.216384e-02 2.723785e-02 -1.093324e-02 -3.027686e-03 -9.287003e-04 -2.160688e-03 3.890266e-03 -1.520143e-04 -3.239876e-03 1.134113e-03 2.579152e-04 7.496142e-04 1.379249e-03 8.492730e-04 -1.045153e-03
<VARIANCE> 39
 6.287228e+01 6.372852e+01 7.763931e+01 1.075059e+02 9.735983e+01 8.442852e+01 8.715902e+01 6.782554e+01 5.986388e+01 5.079119e+01 5.908364e+01 3.600991e+01 2.007185e+02 2.600024e+00 3.094737e+00 2.763562e+00 3.211641e+00 3.840360e+00 3.572435e+00 3.045572e+00 3.186180e+00 3.167403e+00 2.600126e+00 2.727839e+00 2.103441e+00 2.745262e+00 4.222845e-01 5.232340e-01 4.277389e-01 5.571541e-01 7.019348e-01 6.268285e-01 5.672705e-01 5.858477e-01 5.913232e-01 4.921052e-01 4.935290e-01 3.939785e-01 4.031440e-01
<GCONST> 1.330642e+02
<TRANSP> 5
 0.000000e+00 1.000000e+00 0.000000e+00 0.000000e+00 0.000000e+00
 0.000000e+00 6.141990e-01 3.858009e-01 0.000000e+00 0.000000e+00
 0.000000e+00 0.000000e+00 6.141935e-01 3.858065e-01 0.000000e+00
 0.000000e+00 0.000000e+00 0.000000e+00 7.275323e-01 2.724677e-01
 0.000000e+00 0.000000e+00 0.000000e+00 0.000000e+00 0.000000e+00
<ENDHMM>
~h "k"
<BEGINHMM>
<NUMSTATES> 5
<STATE> 2
<MEAN> 39
 -2.160478e+00 -5.883779e+00 -4.195023e+00 -4.942485e+00 -6.141591e+00 -4.667850e+00 -6.311376e+00 -3.361568e+00 -4.454196e+00 -5.187742e+00 -4.189315e+00 -3.605149e+00 6.713606e+01 1.085469e-02 -2.231042e-03 3.096826e-03 7.765286e-03 -5.275992e-03 -1.278319e-02 -2.976518e-03 -2.936273e-03 2.627316e-03 -2.696938e-03 -4.435133e-03 -4.935297e-03 1.711128e-02 -1.978812e-03 7.899993e-04 1.010571e-03 5.657227e-04 -1.012225e-03 9.769704e-04 1.975227e-03 -1.806854e-03 1.244565e-03 -1.460151e-03 -1.270905e-03 5.002224e-04 -3.293222e-03
<VARIANCE> 39
 7.539510e+01 8.289474e+01 6.728414e+01 1.052590e+02 1.089918e+02 8.591486e+01 9.866102e+01 8.059125e+01 6.058628e+01 6.002329e+01 5.840148e+01 4.143528e+01 1.957149e+02 3.131520e+00 3.319320e+00 2.837922e+00 3.434281e+00 4.294574e+00 3.790323e+00 3.301416e+00 3.751979e+00 3.342662e+00 2.979651e+00 3.051492e+00 2.313006e+00 3.170398e+00 4.884309e-01 5.483615e-01 4.592536e-01 5.914772e-01 7.545352e-01 6.590527e-01 5.996578e-01 6.786026e-01 6.098302e-01 5.600417e-01 5.589737e-01 4.337212e-01 4.787473e-01
<GCONST> 1.365605e+02
<STATE> 3
<MEAN> 39
 -2.141862e+00 -5.885307e+00 -4.183380e+00 -4.930749e+00 -6.157317e+00 -4.694016e+00 -6.311499e+00 -3.368207e+00 -4.450425e+00 -5.201501e+00 -4.201648e+00 -3.619072e+00 6.716869e+01 6.120161e-03 -1.184944e-03 5.469541e-03 7.090967e-03 -9.141250e-03 -1.152830e-02 1.335802e-03 -5.345047e-03 4.612054e-03 -5.972595e-03 -5.536181e-03 -3.359450e-03 9.774527e-03 -2.554759e-03 3.136538e-04 1.174326e-03 -1.814176e-04 -1.360511e-03 1.150171e-03 1.992427e-03 -6.156602e-04 1.257542e-03 -1.512767e-03 -1.175789e-04 7.117457e-04 -3.585655e-03
<VARIANCE> 39
 7.532250e+01 8.292715e+01 6.743569e+01 1.054718e+02 1.091389e+02 8.632009e+01 9.837486e+01 8.065900e+01 6.055817e+01 5.978419e+01 5.833227e+01 4.138164e+01 1.948127e+02 3.115778e+00 3.291489e+00 2.832417e+00 3.429158e+00 4.271898e+00 3.783727e+00 3.283963e+00 3.745637e+00 3.333308e+00 2.965254e+00 3.048597e+00 2.306416e+00 3.144470e+00 4.864360e-01 5.432029e-01 4.583202e-01 5.897408e-01 7.498271e-01 6.573758e-01 5.957338e-01 6.771119e-01 6.077232e-01 5.573829e-01 5.579851e-01 4.319583e-01 4.752686e-01
<GCONST> 1.364485e+02
<STATE> 4
<MEAN> 39
 -2.213734e+00 -5.758111e+00 -4.247756e+00 -4.752485e+00 -5.836868e+00 -4.731785e+00 -5.999123e+00 -3.132165e+00 -4.389680e+00 -5.162279e+00 -4.190946e+00 -3.472820e+00 6.696230e+01 -9.269872e-04 -3.674629e-04 7.293061e-03 4.432486e-03 -1.111887e-02 -8.706103e-03 4.131904e-03 -3.371980e-03 6.337769e-03 -7.087730e-03 -3.265346e-03 -1.847322e-03 2.282605e-03 -2.539447e-03 3.001638e-04 1.164101e-03 -3.336242e-04 -4.976215e-04 1.560602e-03 1.009969e-03 7.614386e-04 9.946651e-04 -5.374829e-04 6.860615e-04 6.740812e-04 -2.548025e-03
<VARIANCE> 39
 7.338564e+01 8.057283e+01 6.782206e+01 1.028324e+02 1.058316e+02 8.521846e+01 9.228040e+01 7.928008e+01 5.990095e+01 5.785840e+01 5.753106e+01 4.060573e+01 1.983975e+02 2.967664e+00 3.144845e+00 2.750055e+00 3.336508e+00 4.085760e+00 3.678107e+00 3.191966e+00 3.624946e+00 3.241875e+00 2.870345e+00 2.966410e+00 2.227416e+00 3.014733e+00 4.626130e-01 5.162451e-01 4.429464e-01 5.717728e-01 7.167277e-01 6.387454e-01 5.771204e-01 6.542159e-01 5.891674e-01 5.387336e-01 5.401554e-01 4.162147e-01 4.511937e-01
<GCONST> 1.352484e+02
<TRANSP> 5
 0.000000e+00 1.000000e+00 0.000000e+00 0.000000e+00 0.000000e+00
 0.000000e+00 6.048883e-01 3.951117e-01 0.000000e+00 0.000000e+00
 0.000000e+00 0.000000e+00 6.048810e-01 3.951189e-01 0.000000e+00
 0.000000e+00 0.000000e+00 0.000000e+00 7.181820e-01 2.818180e-01
 0.000000e+00 0.000000e+00 0.000000e+00 0.000000e+00 0.000000e+00
<ENDHMM>
~h "l"
<BEGINHMM>
<NUMSTATES> 5
<STATE> 2
<MEAN> 39
 -1.751187e+00 -5.137800e+00 -3.499197e+00 -4.945117e+00 -6.629989e+00 -4.461457e+00 -5.697125e+00 -4.337333e+00 -3.658409e+00 -5.097640e+00 -4.539831e+00 -3.566425e+00 6.879297e+01 -1.334543e-02 1.454164e-02 8.350406e-03 3.976477e-03 -3.367534e-03 2.156919e-03 2.839892e-03 3.178224e-03 -1.929746e-03 5.600624e-03 5.303435e-03 8.054496e-03 -1.982100e-02 -8.281798e-04 -1.090131e-03 -5.814527e-04 4.153807e-04 3.335769e-04 -2.597438e-04 1.763133e-04 1.310186e-03 9.040273e-04 1.061772e-03 3.309057e-04 4.919674e-04 -9.126271e-04
<VARIANCE> 39
 7.854041e+01 8.696962e+01 7.229175e+01 1.016015e+02 1.071694e+02 8.987240e+01 9.980548e+01 8.349682e+01 6.534798e+01 6.397117e+01 6.330693e+01 4.045450e+01 2.237591e+02 2.757290e+00 2.808832e+00 2.674009e+00 3.165840e+00 3.824342e+00 3.606058e+00 3.175094e+00 3.512468e+00 3.226828e+00 2.794855e+00 2.980561e+00 2.216809e+00 2.462553e+00 4.077491e-01 4.472167e-01 4.046308e-01 5.361815e-01 6.469343e-01 6.124384e-01 5.635142e-01 6.192899e-01 5.750035e-01 5.081506e-01 5.278099e-01 4.087945e-01 3.527246e-01
<GCONST> 1.343988e+02
<STATE> 3
<MEAN> 39
 -1.782909e+00 -5.106496e+00 -3.476631e+00 -4.934115e+00 -6.642826e+00 -4.452489e+00 -5.696570e+00 -4.332496e+00 -3.654903e+00 -5.082668e+00 -4.530344e+00 -3.549083e+00 6.874542e+01 -1.523379e-02 1.105913e-02 7.529770e-03 4.805588e-03 -2.532179e-03 2.984087e-03 3.262152e-03 5.703000e-03 3.454837e-05 7.618594e-03 6.583492e-03 9.054691e-03 -2.096272e-02 -5.649747e-04 -1.693719e-03 -4.256672e-04 4.330063e-04 4.171826e-04 1.059010e-03 3.927693e-04 1.178011e-03 7.355608e-04 6.326756e-04 8.412428e-04 6.265427e-05 -3.624589e-04
<VARIANCE> 39
 7.856618e+01 8.643779e+01 7.247020e+01 1.020354e+02 1.071330e+02 9.016162e+01 9.939021e+01 8.320958e+01 6.548397e+01 6.404034e+01 6.341660e+01 4.030495e+01 2.235757e+02 2.747843e+00 2.798051e+00 2.674722e+00 3.159834e+00 3.806544e+00 3.606476e+00 3.179649e+00 3.503762e+00 3.228889e+00 2.793472e+00 2.980901e+00 2.217567e+00 2.468841e+00 4.070264e-01 4.463643e-01 4.059653e-01 5.351640e-01 6.457762e-01 6.123931e-01 5.652876e-01 6.168450e-01 5.753185e-01 5.080297e-01 5.280176e-01 4.094017e-01 3.533197e-01
<GCONST> 1.343829e+02
<STATE> 4
<MEAN> 39
 -1.887177e+00 -4.944562e+00 -3.555121e+00 -4.730377e+00 -6.361853e+00 -4.465457e+00 -5.423663e+00 -4.118370e+00 -3.617287e+00 -4.971265e+00 -4.493885e+00 -3.401512e+00 6.855939e+01 -1.592231e-02 7.140073e-03 8.046198e-03 5.334847e-03 -1.980097e-03 6.866818e-03 2.309350e-03 6.930662e-03 1.641785e-03 6.716840e-03 8.073387e-03 7.147525e-03 -1.956629e-02 -4.613473e-04 -1.232885e-03 -1.437467e-06 5.395391e-04 3.877720e-04 1.632367e-03 2.524030e-04 8.391863e-04 -9.516889e-05 -1.520062e-04 1.104597e-03 -6.430207e-04 -1.856259e-04
<VARIANCE> 39
 7.673703e+01 8.375819e+01 7.241105e+01 1.007727e+02 1.039271e+02 8.921175e+01 9.368609e+01 8.190044e+01 6.503266e+01 6.270717e+01 6.273177e+01 3.947106e+01 2.283047e+02 2.666011e+00 2.699693e+00 2.620185e+00 3.089043e+00 3.673313e+00 3.542600e+00 3.128758e+00 3.397491e+00 3.182264e+00 2.748183e+00 2.912657e+00 2.170106e+00 2.432401e+00 3.952351e-01 4.304210e-01 3.978288e-01 5.213950e-01 6.236158e-01 6.008202e-01 5.560418e-01 5.973964e-01 5.659779e-01 4.989895e-01 5.139493e-01 4.006717e-01 3.450640e-01
<GCONST> 1.335385e+02
<TRANSP> 5
 0.000000e+00 1.000000e+00 0.000000e+00 0.000000e+00 0.000000e+00
 0.000000e+00 6.109012e-01 3.890989e-01 0.000000e+00 0.000000e+00
 0.000000e+00 0.000000e+00 6.109033e-01 3.890967e-01 0.000000e+00
 0.000000e+00 0.000000e+00 0.000000e+00 7.234682e-01 2.765318e-01
 0.000000e+00 0.000000e+00 0.000000e+00 0.000000e+00 0.000000e+00
<ENDHMM>
~h "m"
<BEGINHMM>
<NUMSTATES> 5
<STATE> 2
<MEAN> 39
 -1.387440e+00 -4.953580e+00 -3.302585e+00 -4.505227e+00 -6.849885e+00 -3.835198e+00 -5.800086e+00 -4.143434e+00 -4.484189e+00 -5.837116e+00 -4.360307e+00 -3.724936e+00 6.796161e+01 -1.319129e-02 5.178735e-03 6.717002e-03 7.253401e-03 3.702083e-03 -1.789374e-02 3.683011e-03 2.156247e-03 -5.411252e-03 5.808876e-03 4.769643e-03 5.930573e-03 -7.424108e-03 -6.656235e-04 -1.472934e-04 -1.061038e-03 5.187636e-04 1.116620e-03 -9.146184e-04 2.042654e-04 1.402361e-03 6.524544e-04 1.803863e-03 -4.522812e-04 -6.429523e-04 -1.542638e-04
<VARIANCE> 39
 7.603571e+01 8.643623e+01 7.263045e+01 1.057716e+02 1.062226e+02 8.980990e+01 1.022607e+02 8.212727e+01 6.456353e+01 6.118802e+01 6.087836e+01 4.073581e+01 2.092738e+02 2.756120e+00 3.015629e+00 2.803976e+00 3.375047e+00 3.830472e+00 3.737722e+00 3.088669e+00 3.496946e+00 3.247973e+00 2.820891e+00 2.971675e+00 2.216117e+00 2.614102e+00 4.084361e-01 4.901840e-01 4.388659e-01 5.785953e-01 6.576069e-01 6.321960e-01 5.512569e-01 6.187900e-01 5.723421e-01 5.162289e-01 5.282168e-01 4.094624e-01 3.877436e-01
<GCONST> 1.348917e+02
<STATE> 3
<MEAN> 39
 -1.412735e+00 -4.944177e+00 -3.289054e+00 -4.485174e+00 -6.843792e+00 -3.871479e+00 -5.795064e+00 -4.141567e+00 -4.492401e+00 -5.820571e+00 -4.351720e+00 -3.713561e+00 6.794312e+01 -1.249086e-02 4.255802e-03 3.892471e-03 7.749733e-03 4.772983e-03 -1.911766e-02 3.324917e-03 4.933927e-03 -3.966633e-03 7.964305e-03 4.008031e-03 4.243002e-03 -6.772977e-03 3.179844e-04 -3.312860e-04 -9.082136e-04 -3.983630e-06 -1.842527e-04 1.567107e-05 -1.263819e-04 1.190505e-03 6.519841e-04 7.418158e-04 -3.077152e-04 -9.218050e-04 4.696214e-04
<VARIANCE> 39
 7.618077e+01 8.632790e+01 7.306556e+01 1.054602e+02 1.058759e+02 8.934089e+01 1.020832e+02 8.229282e+01 6.459782e+01 6.137635e+01 6.064397e+01 4.087974e+01 2.094986e+02 2.762057e+00 3.017316e+00 2.805055e+00 3.364900e+00 3.841101e+00 3.731318e+00 3.087084e+00 3.497349e+00 3.249552e+00 2.826632e+00 2.979128e+00 2.221411e+00 2.618053e+00 4.088605e-01 4.902054e-01 4.383741e-01 5.770983e-01 6.579920e-01 6.311944e-01 5.516416e-01 6.193376e-01 5.727975e-01 5.166969e-01 5.301455e-01 4.102571e-01 3.885287e-01
<GCONST> 1.349084e+02
<STATE> 4
<MEAN> 39
 -1.543323e+00 -4.803889e+00 -3.337024e+00 -4.306903e+00 -6.503027e+00 -3.969544e+00 -5.469903e+00 -3.961220e+00 -4.439346e+00 -5.680628e+00 -4.340971e+00 -3.582647e+00 6.779897e+01 -8.346412e-03 1.487549e-03 1.618317e-03 6.117151e-03 1.980518e-03 -1.508103e-02 1.321843e-03 5.729642e-03 -5.118655e-04 7.389707e-03 3.473912e-03 3.116098e-03 -5.010770e-03 6.295886e-04 -5.897919e-04 -3.913501e-04 -6.230986e-04 -9.238693e-04 9.176158e-04 -1.201205e-04 7.359879e-04 1.028918e-03 -4.337737e-05 -2.691139e-04 -2.417132e-04 6.814884e-04
<VARIANCE> 39
 7.499834e+01 8.433904e+01 7.422638e+01 1.026226e+02 1.031177e+02 8.749874e+01 9.635294e+01 8.098895e+01 6.400561e+01 6.020372e+01 6.026164e+01 4.050444e+01 2.148871e+02 2.664775e+00 2.911001e+00 2.752311e+00 3.281723e+00 3.731193e+00 3.646753e+00 3.019584e+00 3.400289e+00 3.193082e+00 2.769774e+00 2.918985e+00 2.183379e+00 2.557995e+00 3.930342e-01 4.705184e-01 4.275619e-01 5.618640e-01 6.381317e-01 6.148679e-01 5.385953e-01 6.021066e-01 5.628473e-01 5.058600e-01 5.183865e-01 4.024514e-01 3.749506e-01
<GCONST> 1.340445e+02
<TRANSP> 5
 0.000000e+00 1.000000e+00 0.000000e+00 0.000000e+00 0.000000e+00
 0.000000e+00 6.075705e-01 3.924294e-01 0.000000e+00 0.000000e+00
 0.000000e+00 0.000000e+00 6.075712e-01 3.924288e-01 0.000000e+00
 0.000000e+00 0.000000e+00 0.000000e+00 7.195444e-01 2.804556e-01
 0.000000e+00 0.000000e+00 0.000000e+00 0.000000e+00 0.000000e+00
<ENDHMM>
~h "n"
<BEGINHMM>
<NUMSTATES> 5
<STATE> 2
<MEAN> 39
 -2.101206e+00 -5.605291e+00 -3.355346e+00 -4.049288e+00 -6.717234e+00 -4.094487e+00 -6.502757e+00 -3.626743e+00 -4.315115e+00 -5.405920e+00 -4.548873e+00 -3.540634e+00 6.748416e+01 -7.499977e-03 -6.589065e-04 -7.438457e-03 -6.431667e-03 8.380029e-03 3.749418e-03 1.308271e-02 3.589479e-03 -3.058736e-03 1.316711e-03 8.742817e-03 1.215181e-02 -8.831924e-03 -2.359324e-03 -6.329501e-05 -4.517260e-04 -3.712769e-04 1.047304e-03 6.333239e-04 1.322233e-03 2.201167e-03 1.640014e-03 8.842406e-04 -9.997407e-05 -2.553062e-04 -2.081567e-03
<VARIANCE> 39
 7.378410e+01 7.800537e+01 6.781975e+01 1.037318e+02 1.073701e+02 8.124687e+01 1.029210e+02 7.832885e+01 6.108711e+01 5.624260e+01 5.778049e+01 3.985687e+01 1.970980e+02 2.766561e+00 2.988858e+00 2.614666e+00 3.253090e+00 3.830561e+00 3.401063e+00 3.086087e+00 3.718049e+00 3.134539e+00 2.678814e+00 2.945549e+00 2.155694e+00 2.682102e+00 4.280691e-01 4.856242e-01 4.163404e-01 5.538663e-01 6.643016e-01 5.882937e-01 5.571433e-01 6.612011e-01 5.638006e-01 4.981649e-01 5.283640e-01 4.029424e-01 4.025911e-01
<GCONST> 1.339507e+02
<STATE> 3
<MEAN> 39
 -2.122937e+00 -5.610462e+00 -3.370151e+00 -4.059345e+00 -6.694894e+00 -4.083504e+00 -6.475058e+00 -3.617057e+00 -4.316921e+00 -5.400842e+00 -4.530210e+00 -3.516173e+00 6.746285e+01 -1.235967e-02 1.292690e-04 -6.988984e-03 -5.096182e-03 1.264611e-02 4.420172e-03 1.355906e-02 7.415000e-03 1.170879e-03 2.836517e-03 5.943347e-03 9.620663e-03 -1.249434e-02 -1.992992e-03 6.526781e-05 -3.795087e-04 1.192015e-04 1.448700e-03 2.732110e-04 4.388718e-04 1.356287e-03 1.904337e-03 8.614822e-04 -1.020745e-03 -1.123466e-03 -1.386493e-03
<VARIANCE> 39
 7.379727e+01 7.807681e+01 6.786256e+01 1.038748e+02 1.069950e+02 8.124140e+01 1.026148e+02 7.828259e+01 6.101137e+01 5.623778e+01 5.780889e+01 3.983150e+01 1.973592e+02 2.769544e+00 2.993078e+00 2.608817e+00 3.239866e+00 3.811864e+00 3.400079e+00 3.082367e+00 3.711065e+00 3.137177e+00 2.680399e+00 2.937002e+00 2.147724e+00 2.685544e+00 4.282612e-01 4.862931e-01 4.147904e-01 5.516190e-01 6.605785e-01 5.875986e-01 5.568768e-01 6.591846e-01 5.646558e-01 4.979135e-01 5.264645e-01 4.013605e-01 4.026852e-01
<GCONST> 1.339079e+02
<STATE> 4
<MEAN> 39
 -2.250474e+00 -5.483546e+00 -3.505968e+00 -3.884277e+00 -6.269758e+00 -4.124117e+00 -6.073323e+00 -3.320242e+00 -4.235259e+00 -5.288197e+00 -4.446363e+00 -3.325111e+00 6.722038e+01 -1.415305e-02 -8.798490e-05 -5.680491e-03 -2.920154e-03 1.491715e-02 3.559722e-03 1.163334e-02 7.802088e-03 4.928298e-03 3.681857e-03 2.447894e-03 5.708805e-03 -1.144665e-02 -1.173149e-03 -3.673646e-04 -5.556112e-04 4.410110e-05 6.929518e-04 -8.365134e-05 2.739953e-04 2.209106e-04 1.308935e-03 6.106615e-04 -6.420547e-04 -1.065242e-03 -3.748742e-04
<VARIANCE> 39
 7.170747e+01 7.607271e+01 6.838882e+01 1.016722e+02 1.037434e+02 7.990235e+01 9.561727e+01 7.685699e+01 5.990332e+01 5.486090e+01 5.714402e+01 3.925530e+01 2.025883e+02 2.680122e+00 2.892569e+00 2.542723e+00 3.149821e+00 3.653555e+00 3.328610e+00 3.014678e+00 3.590070e+00 3.073352e+00 2.626631e+00 2.858556e+00 2.088031e+00 2.623212e+00 4.124500e-01 4.694252e-01 4.030598e-01 5.353352e-01 6.329011e-01 5.741821e-01 5.433891e-01 6.378875e-01 5.532379e-01 4.879262e-01 5.115251e-01 3.899350e-01 3.886522e-01
<GCONST> 1.329118e+02
<TRANSP> 5
 0.000000e+00 1.000000e+00 0.000000e+00 0.000000e+00 0.000000e+00
 0.000000e+00 6.104275e-01 3.895725e-01 0.000000e+00 0.000000e+00
 0.000000e+00 0.000000e+00 6.104211e-01 3.895790e-01 0.000000e+00
 0.000000e+00 0.000000e+00 0.000000e+00 7.248121e-01 2.751879e-01
 0.000000e+00 0.000000e+00 0.000000e+00 0.000000e+00 0.000000e+00
<ENDHMM>
~h "o"
<BEGINHMM>
<NUMSTATES> 5
<STATE> 2
<MEAN> 39
 -1.894797e+00 -4.854947e+00 -4.343642e+00 -5.988614e+00 -6.117692e+00 -4.276302e+00 -5.897947e+00 -3.967720e+00 -3.908481e+00 -4.814896e+00 -4.075917e+00 -3.767735e+00 6.751470e+01 1.902814e-02 1.862794e-04 3.292204e-02 -1.660906e-04 -2.415929e-02 -6.156895e-03 -9.666312e-03 -9.341958e-03 -1.399066e-02 -1.730478e-02 -1.290489e-02 -1.706019e-02 1.997350e-02 -1.633799e-03 -9.400483e-04 1.701592e-03 1.272183e-03 -4.029578e-04 -7.940084e-04 -6.189623e-04 1.609136e-03 -6.695912e-04 1.153473e-03 2.077527e-03 1.080074e-03 2.879964e-04
<VARIANCE> 39
 8.036595e+01 7.834491e+01 7.434129e+01 1.108893e+02 1.079367e+02 8.926389e+01 1.008063e+02 8.408546e+01 6.238195e+01 5.786357e+01 6.596090e+01 3.990207e+01 1.946653e+02 3.418986e+00 2.991687e+00 3.033401e+00 3.827973e+00 4.155907e+00 3.911952e+00 3.203414e+00 3.728956e+00 3.316697e+00 2.851462e+00 3.050542e+00 2.250030e+00 3.029314e+00 5.352336e-01 5.012859e-01 4.749396e-01 6.564855e-01 7.229989e-01 6.599975e-01 5.729986e-01 6.679732e-01 5.928192e-01 5.275641e-01 5.354775e-01 4.200464e-01 4.629650e-01
<GCONST> 1.367202e+02
<STATE> 3
<MEAN> 39
 -1.851418e+00 -4.852782e+00 -4.262764e+00 -5.994229e+00 -6.185280e+00 -4.291821e+00 -5.922961e+00 -3.978420e+00 -3.938839e+00 -4.853633e+00 -4.101373e+00 -3.808972e+00 6.756361e+01 1.539064e-02 -1.784094e-03 3.713816e-02 2.274331e-03 -2.762720e-02 -5.720544e-03 -1.183633e-02 -7.261923e-03 -1.578967e-02 -1.571039e-02 -7.187766e-03 -1.391966e-02 1.927788e-02 -1.501450e-03 -2.454629e-04 1.992746e-03 9.392105e-04 -1.260697e-03 3.716132e-04 -1.201414e-03 1.320688e-03 -8.658952e-04 4.969900e-04 2.294742e-03 1.532450e-03 -5.976515e-04
<VARIANCE> 39
 7.970432e+01 7.921549e+01 7.495914e+01 1.112245e+02 1.083597e+02 8.964057e+01 1.010194e+02 8.430863e+01 6.259976e+01 5.816032e+01 6.596886e+01 3.985493e+01 1.943983e+02 3.381846e+00 2.990241e+00 3.043849e+00 3.842950e+00 4.177344e+00 3.921038e+00 3.210594e+00 3.715397e+00 3.315368e+00 2.843680e+00 3.043150e+00 2.249610e+00 3.026081e+00 5.294285e-01 5.012817e-01 4.753597e-01 6.580378e-01 7.257036e-01 6.601351e-01 5.748442e-01 6.653439e-01 5.917361e-01 5.256188e-01 5.341869e-01 4.197865e-01 4.620912e-01
<GCONST> 1.367337e+02
<STATE> 4
<MEAN> 39
 -1.895544e+00 -4.785230e+00 -4.225237e+00 -5.857331e+00 -5.926431e+00 -4.338943e+00 -5.624136e+00 -3.699956e+00 -3.913403e+00 -4.857165e+00 -4.114007e+00 -3.654455e+00 6.741331e+01 9.646093e-03 -1.300979e-03 3.926015e-02 2.149463e-03 -3.232706e-02 -2.487690e-03 -1.270677e-02 -6.348422e-03 -1.531257e-02 -1.367065e-02 -1.625587e-03 -9.232298e-03 1.395423e-02 -2.053807e-03 4.482459e-04 1.456447e-03 6.985244e-04 -9.223308e-04 1.235663e-03 -5.830374e-04 5.201822e-04 -4.983709e-04 3.301677e-04 1.904614e-03 1.849024e-03 -2.138899e-03
<VARIANCE> 39
 7.699314e+01 7.838587e+01 7.561219e+01 1.094130e+02 1.068946e+02 8.860570e+01 9.522870e+01 8.232217e+01 6.154573e+01 5.742544e+01 6.461874e+01 3.944390e+01 2.002890e+02 3.203162e+00 2.872771e+00 2.978050e+00 3.755152e+00 4.051294e+00 3.835084e+00 3.129910e+00 3.562276e+00 3.214372e+00 2.765813e+00 2.961175e+00 2.200477e+00 2.914908e+00 5.008042e-01 4.810755e-01 4.633868e-01 6.387073e-01 7.011967e-01 6.435214e-01 5.592567e-01 6.365030e-01 5.732423e-01 5.100242e-01 5.191556e-01 4.088054e-01 4.398097e-01
<GCONST> 1.356866e+02
<TRANSP> 5
 0.000000e+00 1.000000e+00 0.000000e+00 0.000000e+00 0.000000e+00
 0.000000e+00 6.089434e-01 3.910566e-01 0.000000e+00 0.000000e+00
 0.000000e+00 0.000000e+00 6.089398e-01 3.910602e-01 0.000000e+00
 0.000000e+00 0.000000e+00 0.000000e+00 7.228795e-01 2.771205e-01
 0.000000e+00 0.000000e+00 0.000000e+00 0.000000e+00 0.000000e+00
<ENDHMM>
~h "p"
<BEGINHMM>
<NUMSTATES> 5
<STATE> 2
<MEAN> 39
 -2.073253e+00 -5.439304e+00 -4.250141e+00 -5.117868e+00 -6.862332e+00 -4.152588e+00 -6.516703e+00 -4.072717e+00 -3.802249e+00 -4.817447e+00 -4.171833e+00 -3.485819e+00 6.709978e+01 2.177404e-02 9.420770e-03 -4.963385e-05 -1.868388e-03 -2.552111e-02 1.144595e-02 -2.205253e-03 -1.375881e-02 7.695724e-03 9.711166e-03 -3.934494e-03 -5.257673e-03 7.738975e-03 -2.835357e-03 1.150611e-04 8.217617e-04 -5.015176e-05 2.379675e-03 1.307187e-03 -3.094359e-04 2.173368e-04 -9.463340e-04 7.373892e-04 2.465234e-03 -1.663084e-04 -1.548741e-03
<VARIANCE> 39
 7.846042e+01 7.909251e+01 7.166265e+01 1.070939e+02 1.082689e+02 8.490327e+01 1.112656e+02 8.457907e+01 6.361411e+01 6.206717e+01 6.016671e+01 4.210355e+01 1.970271e+02 3.314791e+00 3.261081e+00 3.028826e+00 3.600172e+00 4.157504e+00 3.913483e+00 3.357471e+00 3.801708e+00 3.425355e+00 2.975003e+00 3.129311e+00 2.459459e+00 3.546677e+00 5.300113e-01 5.529928e-01 4.805157e-01 6.286657e-01 7.282844e-01 6.815200e-01 6.005074e-01 6.884177e-01 6.182525e-01 5.583202e-01 5.656991e-01 4.671232e-01 5.505025e-01
<GCONST> 1.377677e+02
<STATE> 3
<MEAN> 39
 -2.034395e+00 -5.420784e+00 -4.245263e+00 -5.124010e+00 -6.908388e+00 -4.119921e+00 -6.523063e+00 -4.096471e+00 -3.786544e+00 -4.795850e+00 -4.173293e+00 -3.494576e+00 6.711314e+01 1.751094e-02 7.935311e-03 7.039257e-04 -3.768193e-03 -1.968936e-02 1.339933e-02 -4.085288e-03 -1.213230e-02 4.423154e-03 8.020406e-03 3.860321e-04 -4.514060e-03 7.313047e-03 -1.929912e-03 -8.084898e-04 1.277246e-04 -7.582437e-04 3.121449e-03 6.874356e-04 -5.443534e-04 8.914201e-04 -1.907565e-03 -9.693201e-04 2.227203e-03 5.762552e-04 1.210085e-04
<VARIANCE> 39
 7.837227e+01 7.952123e+01 7.165440e+01 1.073776e+02 1.086805e+02 8.516206e+01 1.118374e+02 8.480020e+01 6.380358e+01 6.206519e+01 5.989673e+01 4.218882e+01 1.966408e+02 3.303554e+00 3.258761e+00 3.013564e+00 3.590767e+00 4.164399e+00 3.942933e+00 3.365115e+00 3.816017e+00 3.425945e+00 2.979330e+00 3.129730e+00 2.457357e+00 3.515929e+00 5.289365e-01 5.506310e-01 4.783102e-01 6.262035e-01 7.305285e-01 6.866329e-01 6.016485e-01 6.915144e-01 6.183844e-01 5.576447e-01 5.662658e-01 4.673113e-01 5.474614e-01
<GCONST> 1.377801e+02
<STATE> 4
<MEAN> 39
 -2.090226e+00 -5.280561e+00 -4.275295e+00 -4.928113e+00 -6.560370e+00 -4.151914e+00 -6.120923e+00 -3.877534e+00 -3.742581e+00 -4.724723e+00 -4.126417e+00 -3.348921e+00 6.697311e+01 1.407448e-02 6.101770e-03 2.013881e-04 -6.917431e-03 -1.113725e-02 1.168642e-02 -4.429104e-03 -7.260997e-03 -3.712624e-05 3.769377e-03 2.979515e-03 -2.448512e-03 8.562545e-03 -1.028650e-03 -3.882514e-04 -1.440032e-04 -6.429041e-04 2.748320e-03 -5.631774e-04 -9.294221e-05 8.821848e-04 -1.586992e-03 -1.315517e-03 1.053408e-03 5.898779e-04 4.948030e-04
<VARIANCE> 39
 7.678223e+01 7.867678e+01 7.169795e+01 1.055559e+02 1.057642e+02 8.454718e+01 1.060144e+02 8.386543e+01 6.306596e+01 6.072743e+01 5.896302e+01 4.157329e+01 2.017156e+02 3.164669e+00 3.135657e+00 2.923702e+00 3.493797e+00 4.026860e+00 3.872050e+00 3.287102e+00 3.711116e+00 3.347900e+00 2.910690e+00 3.046141e+00 2.383302e+00 3.366957e+00 5.018158e-01 5.267942e-01 4.614158e-01 6.056062e-01 7.058424e-01 6.700285e-01 5.862941e-01 6.706853e-01 6.029761e-01 5.413668e-01 5.496075e-01 4.522626e-01 5.177613e-01
<GCONST> 1.367508e+02
<TRANSP> 5
 0.000000e+00 1.000000e+00 0.000000e+00 0.000000e+00 0.000000e+00
 0.000000e+00 5.995460e-01 4.004540e-01 0.000000e+00 0.000000e+00
 0.000000e+00 0.000000e+00 5.995409e-01 4.004591e-01 0.000000e+00
 0.000000e+00 0.000000e+00 0.000000e+00 7.117546e-01 2.882454e-01
 0.000000e+00 0.000000e+00 0.000000e+00 0.000000e+00 0.000000e+00
<ENDHMM>
~h "q"
<BEGINHMM>
<NUMSTATES> 5
<STATE> 2
<MEAN> 39
 -4.744957e+00 -7.161544e+00 -3.920221e+00 -3.640386e+00 -5.193423e+00 -2.511589e+00 -3.702642e+00 -6.004214e-01 -6.154834e+00 -5.053392e+00 -4.109273e+00 -1.700732e+00 6.028864e+01 3.313544e-02 1.024032e-02 2.390206e-02 4.336494e-02 -5.526561e-03 -5.755171e-02 -2.474014e-02 -1.765427e-02 -1.677728e-02 -9.252028e-03 -1.259613e-02 1.951865e-03 1.874114e-02 -5.301422e-03 1.825573e-03 7.138471e-04 3.063058e-03 3.668814e-03 -2.744683e-03 -2.882931e-03 -1.655407e-03 2.150528e-03 1.820838e-03 -6.319616e-04 -1.477654e-04 -3.861814e-03
<VARIANCE> 39
 5.512420e+01 8.422743e+01 6.093440e+01 8.617448e+01 7.149231e+01 4.617268e+01 6.637464e+01 4.916648e+01 4.414844e+01 4.053080e+01 3.639988e+01 2.557773e+01 1.190453e+02 1.955721e+00 2.474864e+00 2.153735e+00 2.979241e+00 2.712056e+00 2.680094e+00 2.726827e+00 2.952662e+00 2.946324e+00 2.199739e+00 2.462009e+00 1.798702e+00 2.425677e+00 3.162214e-01 4.176268e-01 3.825226e-01 4.974869e-01 4.833804e-01 4.735045e-01 4.514781e-01 5.294937e-01 5.118042e-01 4.260163e-01 4.719454e-01 3.630347e-01 3.513906e-01
<GCONST> 1.248104e+02
<STATE> 3
<MEAN> 39
 -4.652257e+00 -7.122497e+00 -3.830848e+00 -3.528984e+00 -5.206859e+00 -2.694393e+00 -3.797040e+00 -6.639342e-01 -6.198253e+00 -5.071189e+00 -4.146119e+00 -1.694528e+00 6.034637e+01 1.678657e-02 1.294875e-02 2.178447e-02 4.843696e-02 3.262721e-03 -5.948815e-02 -2.852299e-02 -2.259781e-02 -9.930094e-03 -3.384556e-04 -9.845525e-03 1.954689e-03 7.022984e-03 -6.049469e-03 2.257806e-04 -4.626904e-04 4.465257e-04 3.283132e-03 4.470783e-04 -2.039419e-03 -3.910108e-03 4.101617e-05 2.410540e-03 5.745941e-04 -7.669035e-04 -3.938953e-03
<VARIANCE> 39
 5.624209e+01 8.498618e+01 6.198079e+01 8.286239e+01 7.236746e+01 4.623308e+01 6.563669e+01 4.929877e+01 4.340561e+01 3.985855e+01 3.635233e+01 2.529582e+01 1.187471e+02 1.973411e+00 2.518850e+00 2.173516e+00 2.951600e+00 2.747584e+00 2.639753e+00 2.720680e+00 2.983356e+00 2.962468e+00 2.186028e+00 2.462192e+00 1.794603e+00 2.445875e+00 3.188593e-01 4.257500e-01 3.829618e-01 4.921531e-01 4.889635e-01 4.668249e-01 4.528075e-01 5.336940e-01 5.178190e-01 4.226701e-01 4.712882e-01 3.626078e-01 3.531568e-01
<GCONST> 1.248436e+02
<STATE> 4
<MEAN> 39
 -4.677918e+00 -6.529656e+00 -3.579839e+00 -3.240843e+00 -4.995096e+00 -2.959507e+00 -4.257915e+00 -7.826540e-01 -6.063415e+00 -4.866874e+00 -3.994547e+00 -1.583242e+00 6.010852e+01 2.263989e-03 8.756675e-03 1.892868e-02 4.026675e-02 8.190393e-03 -5.415848e-02 -2.836275e-02 -3.201189e-02 -9.375460e-03 1.323820e-02 -2.663855e-03 -2.497061e-04 1.893840e-03 -4.070005e-03 -1.665356e-03 -1.504101e-03 -2.137314e-03 1.904880e-03 2.711047e-03 -2.273218e-04 -4.861807e-03 -2.518606e-03 2.726982e-03 1.275276e-03 -1.752968e-03 -2.002507e-03
<VARIANCE> 39
 5.562290e+01 8.253306e+01 6.451395e+01 7.542580e+01 7.088336e+01 4.610831e+01 6.432817e+01 4.833500e+01 4.203304e+01 3.715218e+01 3.614706e+01 2.520666e+01 1.220764e+02 1.940611e+00 2.529171e+00 2.256246e+00 2.830439e+00 2.713052e+00 2.546705e+00 2.734463e+00 3.008760e+00 2.974762e+00 2.122190e+00 2.386864e+00 1.807405e+00 2.457693e+00 3.188524e-01 4.272591e-01 3.931848e-01 4.740719e-01 4.833382e-01 4.577338e-01 4.593652e-01 5.352216e-01 5.291815e-01 4.097064e-01 4.573126e-01 3.648596e-01 3.537737e-01
<GCONST> 1.244519e+02
<TRANSP> 5
 0.000000e+00 1.000000e+00 0.000000e+00 0.000000e+00 0.000000e+00
 0.000000e+00 6.587975e-01 3.412025e-01 0.000000e+00 0.000000e+00
 0.000000e+00 0.000000e+00 6.587985e-01 3.412015e-01 0.000000e+00
 0.000000e+00 0.000000e+00 0.000000e+00 7.773961e-01 2.226038e-01
 0.000000e+00 0.000000e+00 0.000000e+00 0.000000e+00 0.000000e+00
<ENDHMM>
~h "r"
<BEGINHMM>
<NUMSTATES> 5
<STATE> 2
<MEAN> 39
 -2.013460e+00 -6.021138e+00 -4.209968e+00 -4.146514e+00 -6.840006e+00 -4.177661e+00 -6.692246e+00 -3.711578e+00 -4.215470e+00 -4.921705e+00 -3.799021e+00 -3.308274e+00 6.880450e+01 -1.032968e-03 1.494795e-03 1.664280e-02 7.875464e-04 -8.293750e-03 3.526723e-03 -1.616706e-02 -1.431951e-03 -6.191252e-03 -3.987654e-03 8.113760e-03 1.915479e-03 -6.805993e-03 -9.575682e-04 1.285831e-03 2.991273e-04 -2.874267e-04 -2.563823e-04 2.762041e-04 1.431874e-04 2.355081e-04 8.947030e-04 4.350196e-04 -5.279791e-04 5.569003e-06 -1.733306e-03
<VARIANCE> 39
 7.865608e+01 7.862310e+01 7.043197e+01 1.055437e+02 1.019000e+02 8.720259e+01 1.067064e+02 8.295451e+01 6.830133e+01 5.767453e+01 5.712900e+01 4.046333e+01 1.944974e+02 3.134803e+00 3.100265e+00 2.731429e+00 3.157096e+00 3.785393e+00 3.566989e+00 3.122234e+00 3.722093e+00 3.377182e+00 2.815789e+00 2.936189e+00 2.264530e+00 2.900308e+00 4.790619e-01 5.157189e-01 4.310798e-01 5.474250e-01 6.586698e-01 6.141505e-01 5.594820e-01 6.658999e-01 6.092121e-01 5.264622e-01 5.332428e-01 4.245476e-01 4.452734e-01
<GCONST> 1.353257e+02
<STATE> 3
<MEAN> 39
 -2.015308e+00 -6.017250e+00 -4.171343e+00 -4.147464e+00 -6.861900e+00 -4.172886e+00 -6.728733e+00 -3.712128e+00 -4.225772e+00 -4.932250e+00 -3.783168e+00 -3.303710e+00 6.878735e+01 -1.515885e-03 4.119725e-03 1.643488e-02 1.654722e-04 -9.312063e-03 3.149058e-03 -1.573104e-02 -1.410579e-03 -5.169881e-03 -4.117404e-03 6.420556e-03 1.984110e-03 -9.390197e-03 -4.305927e-04 1.167860e-03 3.296942e-04 -2.264822e-05 -2.423077e-04 -2.584953e-04 7.809132e-04 -1.992218e-04 6.034923e-04 1.912653e-04 -7.004438e-04 1.077396e-04 -1.066545e-03
<VARIANCE> 39
 7.876734e+01 7.853599e+01 7.079973e+01 1.055057e+02 1.018790e+02 8.727660e+01 1.068972e+02 8.306745e+01 6.810166e+01 5.782759e+01 5.706982e+01 4.055088e+01 1.942169e+02 3.114292e+00 3.090180e+00 2.729020e+00 3.164907e+00 3.797614e+00 3.557481e+00 3.124155e+00 3.715057e+00 3.365371e+00 2.820010e+00 2.925066e+00 2.258497e+00 2.873801e+00 4.764413e-01 5.144989e-01 4.299579e-01 5.484270e-01 6.601951e-01 6.125109e-01 5.591296e-01 6.640850e-01 6.064610e-01 5.265837e-01 5.312731e-01 4.229128e-01 4.415998e-01
<GCONST> 1.352750e+02
<STATE> 4
<MEAN> 39
 -2.082213e+00 -5.856194e+00 -4.151505e+00 -3.968315e+00 -6.550439e+00 -4.218009e+00 -6.384769e+00 -3.448451e+00 -4.192530e+00 -4.876567e+00 -3.726618e+00 -3.162949e+00 6.865606e+01 -2.079886e-03 5.127375e-03 1.606125e-02 6.453168e-04 -9.659144e-03 1.904104e-03 -1.228648e-02 -6.617527e-04 -4.981421e-03 -5.048495e-03 4.439924e-03 2.311721e-03 -1.071316e-02 -5.273282e-04 7.787632e-04 6.737204e-04 3.638080e-04 -7.951041e-05 -2.672313e-04 1.207076e-03 -2.481542e-04 8.686344e-05 -4.879211e-05 -5.632902e-04 1.253111e-05 -8.036778e-04
<VARIANCE> 39
 7.641557e+01 7.607539e+01 7.155042e+01 1.034811e+02 9.934921e+01 8.624612e+01 1.006167e+02 8.176596e+01 6.686427e+01 5.658331e+01 5.634991e+01 3.989345e+01 2.001560e+02 2.966131e+00 2.968781e+00 2.669945e+00 3.095596e+00 3.676634e+00 3.484842e+00 3.060063e+00 3.589243e+00 3.284655e+00 2.768468e+00 2.843429e+00 2.197979e+00 2.762136e+00 4.526748e-01 4.929198e-01 4.191102e-01 5.347605e-01 6.375636e-01 5.986895e-01 5.460434e-01 6.404437e-01 5.907343e-01 5.155337e-01 5.153599e-01 4.103866e-01 4.197710e-01
<GCONST> 1.342517e+02
<TRANSP> 5
 0.000000e+00 1.000000e+00 0.000000e+00 0.000000e+00 0.000000e+00
 0.000000e+00 5.997970e-01 4.002031e-01 0.000000e+00 0.000000e+00
 0.000000e+00 0.000000e+00 5.997883e-01 4.002118e-01 0.000000e+00
 0.000000e+00 0.000000e+00 0.000000e+00 7.118073e-01 2.881927e-01
 0.000000e+00 0.000000e+00 0.000000e+00 0.000000e+00 0.000000e+00
<ENDHMM>
~h "s"
<BEGINHMM>
<NUMSTATES> 5
<STATE> 2
<MEAN> 39
 -3.644173e+00 -5.241939e+00 -2.921556e+00 -4.064095e+00 -6.031376e+00 -4.769508e+00 -5.648226e+00 -3.366132e+00 -4.332480e+00 -4.867283e+00 -3.895008e+00 -2.929120e+00 6.733314e+01 1.398398e-02 1.027020e-03 1.164713e-02 9.891178e-03 -1.827978e-02 7.960748e-03 -6.773099e-03 -1.498184e-02 -8.903529e-03 -5.864433e-03 3.437296e-04 -5.339288e-03 -1.566403e-03 1.874974e-03 -9.254282e-05 -3.465084e-04 -5.609561e-04 -1.828672e-03 7.177272e-04 -8.076591e-04 -6.056626e-04 1.153942e-03 -1.217151e-05 5.606154e-05 1.078280e-04 -2.390425e-03
<VARIANCE> 39
 8.843151e+01 8.218819e+01 7.650253e+01 1.145024e+02 1.143305e+02 9.070869e+01 9.545821e+01 8.170895e+01 6.761019e+01 5.830830e+01 5.770715e+01 4.135704e+01 1.873071e+02 3.985072e+00 3.329542e+00 3.009062e+00 3.211169e+00 4.004698e+00 3.667534e+00 3.211090e+00 3.645163e+00 3.292593e+00 2.822286e+00 2.938711e+00 2.258512e+00 2.525683e+00 5.811065e-01 5.405726e-01 4.582540e-01 5.426366e-01 6.746088e-01 6.208037e-01 5.666982e-01 6.416904e-01 5.865629e-01 5.188736e-01 5.312746e-01 4.148012e-01 3.791156e-01
<GCONST> 1.360905e+02
<STATE> 3
<MEAN> 39
 -3.615657e+00 -5.244871e+00 -2.895286e+00 -4.041608e+00 -6.074155e+00 -4.750999e+00 -5.660331e+00 -3.394603e+00 -4.354654e+00 -4.878768e+00 -3.889628e+00 -2.937319e+00 6.732754e+01 1.652981e-02 4.662781e-04 8.751869e-03 8.160955e-03 -1.971341e-02 7.763237e-03 -8.474155e-03 -1.368034e-02 -7.159906e-03 -4.450039e-03 1.548507e-03 -4.980999e-03 -4.561090e-03 1.191041e-03 -7.686840e-04 -1.774538e-03 -7.900634e-04 -3.047130e-04 -2.752070e-05 -9.022723e-04 7.418039e-04 9.302517e-04 8.157555e-04 5.589192e-04 -3.519320e-05 -1.198006e-03
<VARIANCE> 39
 8.778548e+01 8.252631e+01 7.647826e+01 1.148690e+02 1.140939e+02 9.050075e+01 9.571092e+01 8.162547e+01 6.754902e+01 5.824092e+01 5.770287e+01 4.131616e+01 1.875600e+02 3.958832e+00 3.331254e+00 3.001946e+00 3.207981e+00 4.002044e+00 3.658417e+00 3.206573e+00 3.632802e+00 3.288933e+00 2.815529e+00 2.936008e+00 2.257354e+00 2.525266e+00 5.788876e-01 5.403008e-01 4.580300e-01 5.420347e-01 6.754286e-01 6.198440e-01 5.658675e-01 6.382306e-01 5.868636e-01 5.175836e-01 5.309940e-01 4.148465e-01 3.798514e-01
<GCONST> 1.360495e+02
<STATE> 4
<MEAN> 39
 -3.547822e+00 -5.174591e+00 -2.988652e+00 -3.877734e+00 -5.836545e+00 -4.686206e+00 -5.449682e+00 -3.213971e+00 -4.310485e+00 -4.828842e+00 -3.843263e+00 -2.844814e+00 6.714448e+01 1.455660e-02 -1.224253e-03 2.195255e-03 7.863398e-03 -1.558805e-02 4.657110e-03 -8.700032e-03 -8.911242e-03 -7.631632e-03 -1.119767e-03 3.665612e-03 -4.058692e-03 -5.667049e-03 4.668961e-04 -9.418011e-04 -2.251497e-03 -2.631877e-04 7.317078e-04 -5.764925e-04 -6.072905e-04 1.152199e-03 3.826483e-04 9.634963e-04 6.026137e-04 1.679012e-05 -7.235090e-04
<VARIANCE> 39
 8.385552e+01 8.092468e+01 7.667606e+01 1.123255e+02 1.102616e+02 8.867430e+01 9.086343e+01 8.048658e+01 6.622723e+01 5.687186e+01 5.697733e+01 4.057256e+01 1.934164e+02 3.746708e+00 3.196710e+00 2.920296e+00 3.131976e+00 3.852866e+00 3.579479e+00 3.126278e+00 3.515011e+00 3.209143e+00 2.750766e+00 2.857905e+00 2.195786e+00 2.469203e+00 5.475150e-01 5.166879e-01 4.448024e-01 5.291777e-01 6.518903e-01 6.066129e-01 5.509545e-01 6.172408e-01 5.727769e-01 5.055237e-01 5.158356e-01 4.037465e-01 3.668066e-01
<GCONST> 1.349995e+02
<TRANSP> 5
 0.000000e+00 1.000000e+00 0.000000e+00 0.000000e+00 0.000000e+00
 0.000000e+00 6.115482e-01 3.884518e-01 0.000000e+00 0.000000e+00
 0.000000e+00 0.000000e+00 6.115555e-01 3.884445e-01 0.000000e+00
 0.000000e+00 0.000000e+00 0.000000e+00 7.258509e-01 2.741491e-01
 0.000000e+00 0.000000e+00 0.000000e+00 0.000000e+00 0.000000e+00
<ENDHMM>
~h "t"
<BEGINHMM>
<NUMSTATES> 5
<STATE> 2
<MEAN> 39
 -2.604091e+00 -5.601867e+00 -3.997750e+00 -4.521583e+00 -6.645782e+00 -4.552155e+00 -6.166246e+00 -3.499789e+00 -4.509923e+00 -4.958821e+00 -4.115328e+00 -3.103789e+00 6.673339e+01 8.766000e-03 -6.819833e-03 4.994726e-03 2.784180e-03 -5.607096e-03 6.940167e-04 -5.822254e-03 -5.257046e-03 -5.435158e-03 -7.181761e-03 -1.591652e-03 -4.321386e-03 7.313191e-03 -4.523842e-04 -7.522293e-04 1.200272e-03 7.823653e-04 7.227060e-04 -1.114453e-03 -3.541645e-06 4.087147e-04 -3.946140e-04 3.659178e-04 4.683755e-04 -5.269292e-04 -5.863479e-04
<VARIANCE> 39
 7.271855e+01 7.758375e+01 6.712759e+01 1.120152e+02 9.948142e+01 8.019498e+01 9.474586e+01 7.988737e+01 6.134747e+01 5.868305e+01 5.555063e+01 3.841389e+01 1.904991e+02 3.095095e+00 3.098711e+00 2.717732e+00 3.311747e+00 3.766846e+00 3.580416e+00 3.134030e+00 3.531617e+00 3.287826e+00 2.782375e+00 2.909899e+00 2.208788e+00 3.189649e+00 4.945292e-01 5.191633e-01 4.384722e-01 5.702738e-01 6.615605e-01 6.238549e-01 5.661926e-01 6.404782e-01 5.998094e-01 5.232023e-01 5.321977e-01 4.147561e-01 4.950062e-01
<GCONST> 1.349406e+02
<STATE> 3
<MEAN> 39
 -2.587650e+00 -5.620522e+00 -3.988366e+00 -4.516267e+00 -6.654816e+00 -4.556270e+00 -6.176402e+00 -3.515007e+00 -4.521791e+00 -4.970887e+00 -4.117193e+00 -3.113639e+00 6.675028e+01 7.774802e-03 -8.775637e-03 7.388727e-03 4.906464e-03 -4.247871e-03 -1.595300e-03 -5.427856e-03 -4.884632e-03 -6.173276e-03 -6.688612e-03 -6.585094e-04 -4.655714e-03 6.028890e-03 -9.071738e-04 -7.555232e-04 7.785903e-04 7.164723e-04 9.423097e-04 -9.876944e-04 4.946567e-04 3.406724e-04 -5.135682e-04 1.360340e-04 2.523796e-04 1.031635e-04 -9.407354e-04
<VARIANCE> 39
 7.261570e+01 7.766095e+01 6.724058e+01 1.117822e+02 9.962135e+01 8.007150e+01 9.503546e+01 7.981037e+01 6.167406e+01 5.871252e+01 5.554079e+01 3.851486e+01 1.905208e+02 3.084001e+00 3.087890e+00 2.711056e+00 3.304714e+00 3.753893e+00 3.563619e+00 3.126719e+00 3.528244e+00 3.283328e+00 2.778399e+00 2.902186e+00 2.209078e+00 3.164491e+00 4.912543e-01 5.162973e-01 4.366861e-01 5.689472e-01 6.590730e-01 6.213855e-01 5.639683e-01 6.392282e-01 5.992399e-01 5.233305e-01 5.311512e-01 4.148321e-01 4.903728e-01
<GCONST> 1.348696e+02
<STATE> 4
<MEAN> 39
 -2.628732e+00 -5.547297e+00 -4.063713e+00 -4.296122e+00 -6.321732e+00 -4.571450e+00 -5.896718e+00 -3.263261e+00 -4.479330e+00 -4.905050e+00 -4.067296e+00 -2.973045e+00 6.656455e+01 5.157972e-03 -9.519193e-03 7.153056e-03 5.706807e-03 -2.039137e-03 -3.784787e-03 -3.517593e-03 -4.524839e-03 -5.879724e-03 -6.180455e-03 -5.781453e-05 -2.626680e-03 4.797600e-03 -9.756047e-04 -4.728895e-04 2.682760e-04 2.910631e-04 5.999641e-04 -2.726656e-04 5.090205e-04 4.194200e-04 -8.923103e-05 -1.779475e-04 1.436122e-04 6.244090e-04 -6.845562e-04
<VARIANCE> 39
 7.038236e+01 7.565141e+01 6.770068e+01 1.089573e+02 9.718545e+01 7.853716e+01 8.960357e+01 7.833916e+01 6.113394e+01 5.740468e+01 5.459337e+01 3.810846e+01 1.952973e+02 2.940999e+00 2.960307e+00 2.629732e+00 3.228682e+00 3.610431e+00 3.470282e+00 3.044073e+00 3.421916e+00 3.202500e+00 2.712954e+00 2.820098e+00 2.153839e+00 3.028961e+00 4.649814e-01 4.926286e-01 4.211111e-01 5.539652e-01 6.320017e-01 6.038552e-01 5.471518e-01 6.180469e-01 5.832093e-01 5.108857e-01 5.153379e-01 4.032286e-01 4.641535e-01
<GCONST> 1.337604e+02
<TRANSP> 5
 0.000000e+00 1.000000e+00 0.000000e+00 0.000000e+00 0.000000e+00
 0.000000e+00 6.091922e-01 3.908078e-01 0.000000e+00 0.000000e+00
 0.000000e+00 0.000000e+00 6.091877e-01 3.908124e-01 0.000000e+00
 0.000000e+00 0.000000e+00 0.000000e+00 7.230840e-01 2.769160e-01
 0.000000e+00 0.000000e+00 0.000000e+00 0.000000e+00 0.000000e+00
<ENDHMM>
~h "u"
<BEGINHMM>
<NUMSTATES> 5
<STATE> 2
<MEAN> 39
 -1.855850e+00 -4.753442e+00 -3.792070e+00 -5.277751e+00 -6.678033e+00 -4.315052e+00 -7.360459e+00 -3.757713e+00 -4.427087e+00 -5.349931e+00 -3.947358e+00 -3.381348e+00 6.621365e+01 5.553964e-04 -1.212036e-02 1.207876e-03 4.357898e-03 9.655805e-04 -2.376936e-03 -1.081237e-03 1.244951e-02 1.121276e-02 8.268130e-03 -1.234786e-02 -4.637630e-03 5.836275e-03 -3.734363e-03 -8.413873e-04 1.231055e-03 6.725239e-04 8.750970e-04 -3.835676e-04 1.848913e-03 1.343587e-03 6.312954e-04 8.849612e-04 1.021357e-03 1.023002e-03 -1.336082e-03
<VARIANCE> 39
 8.000034e+01 8.435150e+01 6.703929e+01 1.155089e+02 1.115554e+02 8.515206e+01 1.084864e+02 9.214275e+01 6.178307e+01 6.275272e+01 5.868171e+01 4.115535e+01 1.742063e+02 3.261143e+00 3.063058e+00 2.780131e+00 3.612201e+00 4.196336e+00 3.871527e+00 3.304084e+00 3.909988e+00 3.422770e+00 3.048712e+00 3.080677e+00 2.335816e+00 2.842083e+00 5.004541e-01 5.006894e-01 4.448464e-01 6.230068e-01 7.278261e-01 6.755102e-01 5.966378e-01 7.024820e-01 6.197972e-01 5.583940e-01 5.561758e-01 4.384564e-01 4.351745e-01
<GCONST> 1.367974e+02
<STATE> 3
<MEAN> 39
 -1.859705e+00 -4.779198e+00 -3.786409e+00 -5.259233e+00 -6.677825e+00 -4.318225e+00 -7.357608e+00 -3.731275e+00 -4.397782e+00 -5.334008e+00 -3.973124e+00 -3.387398e+00 6.622083e+01 -6.823608e-03 -1.400387e-02 3.347663e-03 6.193079e-03 2.039520e-03 -1.488034e-03 3.450422e-03 1.514962e-02 1.205327e-02 9.986746e-03 -9.464704e-03 -1.666728e-03 1.124828e-03 -3.297304e-03 -6.238492e-04 8.756047e-04 6.222972e-04 7.085841e-04 4.795071e-04 1.781041e-03 1.276316e-03 1.811129e-04 6.522204e-04 1.595978e-03 1.122304e-03 -2.624138e-03
<VARIANCE> 39
 7.985528e+01 8.428603e+01 6.691143e+01 1.152182e+02 1.114127e+02 8.500677e+01 1.085166e+02 9.183111e+01 6.157051e+01 6.266942e+01 5.877769e+01 4.134288e+01 1.744251e+02 3.254182e+00 3.057445e+00 2.776814e+00 3.599422e+00 4.192819e+00 3.865077e+00 3.292311e+00 3.905924e+00 3.397105e+00 3.036576e+00 3.075067e+00 2.329775e+00 2.830842e+00 4.991486e-01 4.993970e-01 4.445120e-01 6.196127e-01 7.270188e-01 6.747983e-01 5.944945e-01 7.009568e-01 6.150123e-01 5.564316e-01 5.547256e-01 4.365398e-01 4.331729e-01
<GCONST> 1.367090e+02
<STATE> 4
<MEAN> 39
 -1.976413e+00 -4.662807e+00 -3.867424e+00 -5.028944e+00 -6.219819e+00 -4.422924e+00 -6.940572e+00 -3.384442e+00 -4.330793e+00 -5.194080e+00 -3.961072e+00 -3.240127e+00 6.594254e+01 -1.206852e-02 -1.401754e-02 3.549630e-03 8.028679e-03 3.273407e-03 1.716815e-03 7.018722e-03 1.657479e-02 1.066333e-02 9.639859e-03 -5.489946e-03 1.692865e-03 -5.553755e-03 -2.881877e-03 -2.179295e-04 3.020771e-04 6.355781e-04 1.147874e-03 9.130021e-04 1.241622e-03 1.250051e-03 -2.087840e-04 3.210085e-04 1.369086e-03 9.866160e-04 -2.928295e-03
<VARIANCE> 39
 7.810627e+01 8.228356e+01 6.741782e+01 1.122269e+02 1.077178e+02 8.271745e+01 1.019441e+02 8.937893e+01 6.055194e+01 6.079321e+01 5.816121e+01 4.084805e+01 1.789757e+02 3.128228e+00 2.940960e+00 2.697784e+00 3.486325e+00 4.026805e+00 3.756587e+00 3.205895e+00 3.761085e+00 3.286872e+00 2.943741e+00 2.984836e+00 2.258721e+00 2.726436e+00 4.773134e-01 4.788053e-01 4.299923e-01 5.971041e-01 6.984144e-01 6.548060e-01 5.772145e-01 6.733665e-01 5.939323e-01 5.397515e-01 5.372707e-01 4.213881e-01 4.116918e-01
<GCONST> 1.355344e+02
<TRANSP> 5
 0.000000e+00 1.000000e+00 0.000000e+00 0.000000e+00 0.000000e+00
 0.000000e+00 6.067601e-01 3.932399e-01 0.000000e+00 0.000000e+00
 0.000000e+00 0.000000e+00 6.067559e-01 3.932441e-01 0.000000e+00
 0.000000e+00 0.000000e+00 0.000000e+00 7.214656e-01 2.785343e-01
 0.000000e+00 0.000000e+00 0.000000e+00 0.000000e+00 0.000000e+00
<ENDHMM>
~h "v"
<BEGINHMM>
<NUMSTATES> 5
<STATE> 2
<MEAN> 39
 -3.778518e+00 -5.738728e+00 -3.562365e+00 -9.177221e+00 -4.817582e+00 -6.676595e+00 -9.371815e+00 -5.022847e+00 -2.447134e+00 -3.955477e+00 -2.655181e+00 -4.737562e+00 6.824380e+01 -3.093586e-03 -5.692457e-02 -1.513664e-02 -1.795957e-02 -9.839876e-02 -4.335678e-02 -3.146545e-02 -6.415519e-02 -9.153626e-02 -5.158579e-02 2.233094e-02 -4.920119e-03 -3.124436e-02 6.534982e-02 5.368866e-03 2.085179e-02 -1.439079e-03 -4.317495e-02 2.227042e-02 -1.135721e-02 8.344650e-07 -2.551608e-02 8.108024e-03 -8.967586e-03 -3.794972e-03 -6.910072e-03
<VARIANCE> 39
 1.130915e+02 7.542936e+01 9.038402e+01 7.815105e+01 1.097785e+02 7.371404e+01 1.312322e+02 1.368280e+02 3.867938e+01 6.457764e+01 5.265447e+01 3.468132e+01 9.241347e+01 5.281852e+00 2.979441e+00 2.834240e+00 3.034129e+00 4.638017e+00 3.285829e+00 4.246813e+00 5.598308e+00 2.828120e+00 2.628430e+00 3.205574e+00 2.073076e+00 2.697685e+00 7.792311e-01 5.577606e-01 4.295422e-01 5.406086e-01 7.762489e-01 6.080370e-01 8.261474e-01 9.474927e-01 5.265580e-01 4.998645e-01 5.781240e-01 3.659338e-01 4.800819e-01
<GCONST> 1.370266e+02
<STATE> 3
<MEAN> 39
 -3.673456e+00 -5.824467e+00 -3.548496e+00 -9.170380e+00 -5.094981e+00 -6.742356e+00 -9.476107e+00 -5.165895e+00 -2.686903e+00 -4.053658e+00 -2.650402e+00 -4.734720e+00 6.813615e+01 1.062408e-01 -3.885692e-02 1.882578e-02 3.078253e-03 -1.568830e-01 -9.518174e-04 -3.873686e-02 -8.790274e-02 -1.272114e-01 -3.830222e-02 3.107545e-03 -9.666802e-03 -4.088594e-02 5.505129e-02 8.283968e-03 1.683905e-02 1.334981e-02 -2.936080e-02 2.642713e-02 -1.414627e-03 -1.009046e-02 -1.411699e-02 2.963910e-03 -1.021820e-02 -3.736930e-03 -3.816657e-03
<VARIANCE> 39
 1.116481e+02 7.692842e+01 9.353039e+01 7.689044e+01 1.110209e+02 7.722158e+01 1.265001e+02 1.426233e+02 3.829814e+01 6.167353e+01 5.332730e+01 3.700647e+01 9.335404e+01 5.267771e+00 2.888421e+00 2.738536e+00 3.039305e+00 4.645513e+00 3.287211e+00 4.262964e+00 5.570390e+00 2.819786e+00 2.607828e+00 3.226141e+00 2.147256e+00 2.673555e+00 7.689901e-01 5.442640e-01 4.140692e-01 5.373735e-01 7.632973e-01 5.987920e-01 8.364038e-01 9.355678e-01 5.294952e-01 4.973544e-01 5.862533e-01 3.814464e-01 4.781254e-01
<GCONST> 1.370410e+02
<STATE> 4
<MEAN> 39
 -3.169492e+00 -5.565004e+00 -3.693326e+00 -8.478535e+00 -4.881507e+00 -6.482492e+00 -9.086342e+00 -4.668560e+00 -2.915079e+00 -4.043362e+00 -2.750244e+00 -4.455169e+00 6.683192e+01 1.461337e-01 -1.262746e-02 3.555186e-02 4.774756e-02 -1.749761e-01 2.962687e-02 -4.218506e-02 -1.123653e-01 -1.241132e-01 -3.144009e-02 -2.365399e-02 -4.299317e-03 -5.066287e-02 2.283116e-02 5.267459e-03 7.213602e-03 1.860373e-02 -1.737545e-02 1.575930e-02 -1.487100e-03 -8.576011e-03 -1.866616e-03 -2.755169e-05 -9.530199e-03 9.849076e-04 -2.534124e-03
<VARIANCE> 39
 9.965536e+01 7.419283e+01 9.353212e+01 7.759119e+01 1.062839e+02 7.825511e+01 1.143612e+02 1.482270e+02 3.771005e+01 5.718256e+01 5.276570e+01 3.999691e+01 1.018644e+02 4.873335e+00 2.609854e+00 2.625208e+00 2.935648e+00 4.452496e+00 3.101042e+00 4.119875e+00 5.262537e+00 2.791600e+00 2.586559e+00 3.155026e+00 2.169464e+00 2.524669e+00 6.957781e-01 4.914316e-01 3.937974e-01 5.213766e-01 7.154626e-01 5.502065e-01 8.090578e-01 8.672041e-01 5.220377e-01 4.949667e-01 5.772539e-01 3.893473e-01 4.455929e-01
<GCONST> 1.357100e+02
<TRANSP> 5
 0.000000e+00 1.000000e+00 0.000000e+00 0.000000e+00 0.000000e+00
 0.000000e+00 5.687118e-01 4.312882e-01 0.000000e+00 0.000000e+00
 0.000000e+00 0.000000e+00 5.687125e-01 4.312875e-01 0.000000e+00
 0.000000e+00 0.000000e+00 0.000000e+00 6.834392e-01 3.165608e-01
 0.000000e+00 0.000000e+00 0.000000e+00 0.000000e+00 0.000000e+00
<ENDHMM>
~h "w"
<BEGINHMM>
<NUMSTATES> 5
<STATE> 2
<MEAN> 39
 -2.266339e+00 -8.412124e+00 -5.365600e+00 -7.594617e+00 -9.025757e+00 -2.885546e+00 -9.155220e+00 -4.377554e+00 -4.348263e+00 -6.590201e+00 -4.544253e+00 -4.562925e+00 6.606448e+01 -2.245457e-03 5.030368e-03 -6.540596e-04 5.053682e-02 8.848902e-04 -2.936986e-02 -3.991737e-02 -1.756462e-02 2.613646e-02 3.973933e-02 8.331432e-03 2.733765e-02 1.168680e-02 -1.753114e-03 -5.849012e-04 4.213891e-03 -1.999043e-03 2.574763e-03 4.377999e-03 -1.035537e-02 -4.802829e-03 -8.140589e-03 2.173489e-03 7.202220e-03 3.772998e-03 5.533698e-04
<VARIANCE> 39
 6.757957e+01 7.929311e+01 5.610839e+01 1.016758e+02 9.329496e+01 8.178907e+01 1.073458e+02 7.818963e+01 5.218710e+01 5.236549e+01 5.661455e+01 3.886472e+01 1.673791e+02 2.626044e+00 3.078728e+00 2.338027e+00 3.748508e+00 3.808115e+00 3.376807e+00 3.168084e+00 4.222208e+00 3.231191e+00 2.840543e+00 2.943392e+00 2.341043e+00 2.969325e+00 3.941181e-01 4.897155e-01 3.801434e-01 6.065856e-01 6.578282e-01 5.795555e-01 5.977390e-01 7.706639e-01 6.097432e-01 5.399113e-01 5.410427e-01 4.492844e-01 4.098118e-01
<GCONST> 1.339920e+02
<STATE> 3
<MEAN> 39
 -2.283950e+00 -8.390375e+00 -5.365135e+00 -7.514216e+00 -9.015547e+00 -2.930722e+00 -9.236276e+00 -4.414683e+00 -4.328250e+00 -6.510515e+00 -4.499155e+00 -4.492795e+00 6.606216e+01 -2.232666e-03 1.856832e-03 2.452259e-03 4.082982e-02 5.567186e-03 -1.054415e-02 -4.273780e-02 -1.473173e-02 1.348894e-02 3.976514e-02 2.081397e-02 2.805105e-02 1.287827e-02 1.595966e-03 -2.317118e-03 9.776258e-04 -4.969503e-03 1.671516e-03 9.220358e-03 8.066194e-04 4.265458e-03 -4.926309e-03 -2.496068e-03 5.379127e-03 -3.125972e-03 2.172435e-03
<VARIANCE> 39
 6.746497e+01 7.898337e+01 5.582174e+01 1.003676e+02 9.339979e+01 8.220485e+01 1.084409e+02 7.795938e+01 5.219901e+01 5.238420e+01 5.652519e+01 3.903973e+01 1.688470e+02 2.625473e+00 3.087220e+00 2.348534e+00 3.688137e+00 3.807207e+00 3.379480e+00 3.148172e+00 4.177738e+00 3.213863e+00 2.863626e+00 2.970961e+00 2.355538e+00 2.914696e+00 3.920755e-01 4.895750e-01 3.803112e-01 6.068890e-01 6.612301e-01 5.694949e-01 5.801211e-01 7.561067e-01 6.067518e-01 5.423952e-01 5.434985e-01 4.509959e-01 4.108320e-01
<GCONST> 1.339127e+02
<STATE> 4
<MEAN> 39
 -2.384670e+00 -8.150288e+00 -5.479220e+00 -7.146932e+00 -8.411193e+00 -3.120325e+00 -8.839255e+00 -3.997006e+00 -4.320056e+00 -6.373935e+00 -4.392269e+00 -4.141827e+00 6.570170e+01 -2.450954e-03 1.783070e-04 1.991297e-03 2.415697e-02 1.014349e-02 5.762722e-03 -2.540395e-02 1.403342e-03 7.445667e-03 2.705355e-02 2.319668e-02 1.367562e-02 1.155315e-02 -1.632887e-04 -1.582843e-03 2.475674e-04 -3.561904e-03 1.640464e-03 5.416539e-03 4.164146e-03 5.890861e-03 -7.643060e-04 -4.617339e-03 2.771504e-04 -6.670392e-03 1.838329e-03
<VARIANCE> 39
 6.653391e+01 7.730061e+01 5.622070e+01 9.626329e+01 9.265765e+01 7.974085e+01 1.042959e+02 7.569959e+01 5.085155e+01 5.185683e+01 5.622776e+01 3.919900e+01 1.727328e+02 2.554428e+00 2.983493e+00 2.338561e+00 3.555982e+00 3.697658e+00 3.274060e+00 3.089669e+00 3.937202e+00 3.112370e+00 2.823873e+00 2.897516e+00 2.254324e+00 2.854728e+00 3.759266e-01 4.737757e-01 3.768691e-01 5.894468e-01 6.476735e-01 5.512363e-01 5.615803e-01 7.126583e-01 5.857800e-01 5.340769e-01 5.301096e-01 4.311128e-01 3.987557e-01
<GCONST> 1.329354e+02
<TRANSP> 5
 0.000000e+00 1.000000e+00 0.000000e+00 0.000000e+00 0.000000e+00
 0.000000e+00 5.955672e-01 4.044328e-01 0.000000e+00 0.000000e+00
 0.000000e+00 0.000000e+00 5.955672e-01 4.044328e-01 0.000000e+00
 0.000000e+00 0.000000e+00 0.000000e+00 7.080005e-01 2.919995e-01
 0.000000e+00 0.000000e+00 0.000000e+00 0.000000e+00 0.000000e+00
<ENDHMM>
~h "y"
<BEGINHMM>
<NUMSTATES> 5
<STATE> 2
<MEAN> 39
 -2.043535e+00 -4.799833e+00 -2.713861e+00 -4.544357e+00 -6.322340e+00 -5.948827e+00 -5.069522e+00 -3.650538e+00 -4.517533e+00 -5.097195e+00 -4.269908e+00 -3.466768e+00 6.723991e+01 9.277659e-03 3.835090e-02 -2.403725e-04 -3.554372e-02 5.822523e-04 1.591985e-02 2.065403e-02 -3.503420e-03 2.148837e-02 -1.572237e-02 -6.358373e-02 -1.066832e-02 -2.734489e-04 -6.431449e-03 -2.756953e-03 2.423548e-03 1.997866e-03 -1.250952e-03 8.783760e-03 5.442213e-03 4.867124e-03 6.424670e-03 -3.211326e-03 -3.306368e-03 -2.082600e-03 -3.241604e-03
<VARIANCE> 39
 7.647499e+01 7.911792e+01 7.387973e+01 1.179838e+02 9.986880e+01 8.668115e+01 8.897207e+01 7.028632e+01 6.557716e+01 5.230485e+01 6.487974e+01 3.741739e+01 2.079731e+02 2.609491e+00 2.973126e+00 2.973803e+00 3.421406e+00 3.897133e+00 3.745717e+00 3.289136e+00 3.354553e+00 3.217071e+00 2.701741e+00 3.139175e+00 2.151656e+00 2.646882e+00 4.024983e-01 4.746857e-01 4.557653e-01 5.793138e-01 6.672158e-01 6.276362e-01 5.898722e-01 6.017243e-01 5.678771e-01 5.007600e-01 5.580295e-01 4.032175e-01 3.693072e-01
<GCONST> 1.343956e+02
<STATE> 3
<MEAN> 39
 -2.027658e+00 -4.734788e+00 -2.706049e+00 -4.626078e+00 -6.333381e+00 -5.882817e+00 -5.016825e+00 -3.655769e+00 -4.455664e+00 -5.159371e+00 -4.430536e+00 -3.511182e+00 6.725080e+01 4.910648e-03 2.343895e-02 -1.669812e-03 -2.958073e-02 -1.524838e-03 2.407019e-02 2.268404e-02 1.389553e-03 2.013368e-02 -2.455894e-02 -6.121079e-02 -1.635431e-02 2.365574e-03 -1.584270e-03 -5.768828e-03 -1.165497e-03 3.016005e-03 -1.446746e-03 2.699908e-03 2.277436e-04 1.116594e-03 -6.744417e-04 -2.887132e-03 2.188924e-03 -2.802650e-03 1.261449e-03
<VARIANCE> 39
 7.609033e+01 7.935459e+01 7.355282e+01 1.167587e+02 9.974648e+01 8.644611e+01 8.948337e+01 7.075427e+01 6.526237e+01 5.231632e+01 6.502130e+01 3.750151e+01 2.070018e+02 2.653425e+00 3.049463e+00 3.014473e+00 3.485105e+00 3.979702e+00 3.722779e+00 3.315624e+00 3.353360e+00 3.210027e+00 2.732330e+00 3.136940e+00 2.154901e+00 2.682789e+00 4.105441e-01 4.893280e-01 4.634820e-01 5.929264e-01 6.843643e-01 6.253188e-01 5.946962e-01 6.025357e-01 5.681252e-01 5.070947e-01 5.587849e-01 4.031757e-01 3.748350e-01
<GCONST> 1.346526e+02
<STATE> 4
<MEAN> 39
 -2.044233e+00 -4.599371e+00 -2.748052e+00 -4.500043e+00 -6.099550e+00 -5.734180e+00 -4.814255e+00 -3.500700e+00 -4.322873e+00 -5.197202e+00 -4.600121e+00 -3.529075e+00 6.726603e+01 1.058265e-02 7.281826e-03 -1.402747e-02 -1.933653e-02 -1.049035e-03 2.097430e-02 1.211444e-02 -2.660982e-03 4.291647e-03 -2.591307e-02 -3.817166e-02 -1.825942e-02 9.991235e-03 1.081389e-03 -3.554453e-03 -3.725640e-03 3.937540e-03 -3.981140e-04 -1.039401e-03 -2.570612e-03 -8.265681e-04 -3.685540e-03 -5.880956e-04 6.335054e-03 -1.013577e-03 1.354487e-03
<VARIANCE> 39
 7.466603e+01 7.767937e+01 7.284607e+01 1.157844e+02 9.764686e+01 8.534883e+01 8.626724e+01 7.069326e+01 6.399666e+01 5.243425e+01 6.495739e+01 3.768067e+01 2.088311e+02 2.643908e+00 3.047154e+00 2.994776e+00 3.471242e+00 3.954654e+00 3.653771e+00 3.293537e+00 3.298865e+00 3.147835e+00 2.733321e+00 3.034560e+00 2.119535e+00 2.686377e+00 4.079239e-01 4.923756e-01 4.625393e-01 5.923221e-01 6.853722e-01 6.124510e-01 5.888001e-01 5.945159e-01 5.581557e-01 5.077562e-01 5.424594e-01 3.959124e-01 3.726453e-01
<GCONST> 1.342715e+02
<TRANSP> 5
 0.000000e+00 1.000000e+00 0.000000e+00 0.000000e+00 0.000000e+00
 0.000000e+00 6.116557e-01 3.883443e-01 0.000000e+00 0.000000e+00
 0.000000e+00 0.000000e+00 6.116564e-01 3.883437e-01 0.000000e+00
 0.000000e+00 0.000000e+00 0.000000e+00 7.230054e-01 2.769946e-01
 0.000000e+00 0.000000e+00 0.000000e+00 0.000000e+00 0.000000e+00
<ENDHMM>
~h "z"
<BEGINHMM>
<NUMSTATES> 5
<STATE> 2
<MEAN> 39
 -1.392279e+00 -5.967814e+00 -3.049181e+00 -4.058587e+00 -8.850554e+00 -3.173130e+00 -6.173897e+00 -5.364304e+00 -2.356108e+00 -5.525327e+00 -3.684420e+00 -4.087696e+00 7.661519e+01 7.578111e-02 4.179506e-02 4.128502e-02 -2.150262e-02 7.523852e-03 -1.047972e-02 9.311366e-03 6.874016e-03 -1.498392e-02 -2.296549e-02 8.177780e-03 7.873781e-03 2.706454e-02 -4.473206e-03 -1.569497e-03 -1.451895e-03 1.716969e-03 -1.575803e-04 -2.851929e-03 2.287046e-03 2.890459e-03 1.367141e-03 2.646095e-03 5.052028e-04 -1.546160e-04 -2.343402e-03
<VARIANCE> 39
 4.217584e+01 4.443314e+01 5.026550e+01 5.057246e+01 5.507759e+01 5.392712e+01 5.134455e+01 5.222855e+01 4.098412e+01 5.149247e+01 3.320638e+01 2.250474e+01 3.031904e+02 2.059237e+00 2.591994e+00 2.660279e+00 2.701529e+00 3.522391e+00 3.293150e+00 3.384266e+00 2.394771e+00 2.647994e+00 2.997348e+00 2.560354e+00 2.134068e+00 1.734023e+00 3.209737e-01 3.894571e-01 4.206643e-01 4.617043e-01 6.360419e-01 5.121965e-01 7.025257e-01 4.174041e-01 4.973488e-01 5.294641e-01 4.836052e-01 4.183855e-01 2.260940e-01
<GCONST> 1.249549e+02
<STATE> 3
<MEAN> 39
 -1.185035e+00 -5.844550e+00 -2.924410e+00 -4.111409e+00 -8.823235e+00 -3.228652e+00 -6.131048e+00 -5.322850e+00 -2.386312e+00 -5.580647e+00 -3.659444e+00 -4.068364e+00 7.670531e+01 6.207406e-02 3.745070e-02 3.764478e-02 -1.597034e-02 7.053507e-03 -1.785788e-02 1.575845e-02 1.604047e-02 -9.026510e-03 -1.380132e-02 9.676619e-03 7.215865e-03 1.895505e-02 -5.235551e-03 -1.371881e-03 -6.114158e-04 2.049416e-03 -6.641450e-04 -1.950645e-03 1.855799e-03 2.747268e-03 2.698822e-03 3.173030e-03 2.057535e-04 -4.344264e-04 -3.103792e-03
<VARIANCE> 39
 4.089721e+01 4.506007e+01 4.880986e+01 5.123723e+01 5.715627e+01 5.230523e+01 5.031012e+01 5.204449e+01 4.040311e+01 5.129182e+01 3.397713e+01 2.257997e+01 2.946361e+02 2.033077e+00 2.620725e+00 2.633097e+00 2.734084e+00 3.530402e+00 3.207339e+00 3.358568e+00 2.414477e+00 2.638602e+00 2.964239e+00 2.581106e+00 2.160000e+00 1.737565e+00 3.140729e-01 3.868608e-01 4.163246e-01 4.631352e-01 6.363451e-01 5.028571e-01 6.883420e-01 4.266759e-01 5.010221e-01 5.189096e-01 4.887598e-01 4.235785e-01 2.261707e-01
<GCONST> 1.248263e+02
<STATE> 4
<MEAN> 39
 -1.167905e+00 -5.594687e+00 -2.904063e+00 -4.039177e+00 -8.663277e+00 -3.464022e+00 -6.250562e+00 -4.947507e+00 -2.267256e+00 -5.763298e+00 -3.598711e+00 -4.024639e+00 7.598332e+01 4.320556e-02 3.360589e-02 3.798378e-02 -7.299503e-03 7.256381e-03 -2.503663e-02 2.339788e-02 2.910679e-02 4.482714e-03 -5.519199e-04 9.973245e-03 4.758427e-03 1.084417e-02 -5.501426e-03 -1.129367e-03 4.999605e-04 2.372642e-03 -9.658312e-04 -5.931268e-04 1.309864e-03 2.541105e-03 3.677173e-03 3.148149e-03 -2.849739e-04 -6.486397e-04 -3.945347e-03
<VARIANCE> 39
 4.019807e+01 4.713734e+01 4.800580e+01 5.231638e+01 6.102922e+01 4.965639e+01 5.224383e+01 5.486901e+01 3.978219e+01 5.145726e+01 3.544306e+01 2.308105e+01 2.876508e+02 2.063093e+00 2.693160e+00 2.602808e+00 2.799084e+00 3.560731e+00 3.077723e+00 3.453858e+00 2.505070e+00 2.615197e+00 2.925167e+00 2.644157e+00 2.195543e+00 1.794344e+00 3.166059e-01 3.878444e-01 4.151422e-01 4.722387e-01 6.376422e-01 4.878063e-01 6.976976e-01 4.444939e-01 5.016167e-01 5.026709e-01 5.044596e-01 4.295629e-01 2.298214e-01
<GCONST> 1.252111e+02
<TRANSP> 5
 0.000000e+00 1.000000e+00 0.000000e+00 0.000000e+00 0.000000e+00
 0.000000e+00 6.654201e-01 3.345799e-01 0.000000e+00 0.000000e+00
 0.000000e+00 0.000000e+00 6.654203e-01 3.345797e-01 0.000000e+00
 0.000000e+00 0.000000e+00 0.000000e+00 7.796226e-01 2.203774e-01
 0.000000e+00 0.000000e+00 0.000000e+00 0.000000e+00 0.000000e+00
<ENDHMM>
~h "aw"
<BEGINHMM>
<NUMSTATES> 5
<STATE> 2
<MEAN> 39
 -2.018975e+00 -5.991248e+00 -5.222419e+00 -3.101344e+00 -6.423751e+00 -3.003711e+00 -3.175672e+00 -1.450878e+00 -3.772294e+00 -4.172936e+00 -3.960536e+00 -2.248250e+00 6.953239e+01 1.230612e-02 -1.469960e-02 2.405144e-02 1.469269e-02 -6.710865e-03 -2.074595e-02 -1.520427e-02 -3.531484e-02 -9.372477e-04 2.766944e-03 2.949306e-04 -1.461890e-03 3.983105e-02 1.244031e-03 1.793135e-03 -3.498667e-04 1.294309e-03 -9.168839e-05 -9.849644e-04 -2.052246e-03 1.472855e-03 -4.627802e-04 -1.875035e-03 -8.398432e-04 -2.241803e-05 -9.563909e-04
<VARIANCE> 39
 6.572121e+01 7.502439e+01 6.984921e+01 1.283810e+02 9.467167e+01 7.241622e+01 7.709289e+01 7.283060e+01 6.491175e+01 5.618931e+01 5.798269e+01 4.136442e+01 2.031798e+02 2.891753e+00 3.096160e+00 2.461800e+00 3.007746e+00 3.393861e+00 3.612313e+00 2.668833e+00 2.780260e+00 3.067660e+00 2.661417e+00 2.656030e+00 2.163740e+00 3.242663e+00 4.484146e-01 4.965949e-01 3.925548e-01 4.822169e-01 5.688691e-01 6.137892e-01 4.784390e-01 5.135549e-01 5.616701e-01 5.017421e-01 4.911442e-01 3.931510e-01 4.767772e-01
<GCONST> 1.325016e+02
<STATE> 3
<MEAN> 39
 -1.996733e+00 -6.019898e+00 -5.162800e+00 -3.064758e+00 -6.447226e+00 -3.067419e+00 -3.211240e+00 -1.522519e+00 -3.771628e+00 -4.165521e+00 -3.960281e+00 -2.256601e+00 6.962123e+01 1.596606e-02 -9.945223e-03 2.360547e-02 1.879545e-02 -7.942612e-03 -2.273156e-02 -2.038616e-02 -3.128532e-02 -2.879868e-03 -2.800371e-03 -1.973200e-03 -1.690496e-03 3.664513e-02 1.074486e-03 2.034253e-03 -3.024733e-04 1.265599e-03 2.460399e-04 -1.985382e-04 -1.407333e-03 2.092517e-03 -4.725524e-04 -1.926989e-03 -1.148971e-03 3.228312e-04 -1.584265e-03
<VARIANCE> 39
 6.521056e+01 7.543698e+01 7.057604e+01 1.299449e+02 9.523262e+01 7.233112e+01 7.813809e+01 7.352053e+01 6.573988e+01 5.650578e+01 5.779269e+01 4.120227e+01 2.027886e+02 2.883946e+00 3.082180e+00 2.471997e+00 2.999890e+00 3.402614e+00 3.603102e+00 2.689291e+00 2.773863e+00 3.073117e+00 2.661606e+00 2.655587e+00 2.175790e+00 3.202863e+00 4.485750e-01 4.950342e-01 3.936416e-01 4.829995e-01 5.700609e-01 6.149720e-01 4.811214e-01 5.122942e-01 5.607228e-01 5.031816e-01 4.903513e-01 3.946921e-01 4.716108e-01
<GCONST> 1.325544e+02
<STATE> 4
<MEAN> 39
 -2.056442e+00 -5.980414e+00 -5.078914e+00 -3.052516e+00 -6.258143e+00 -3.079229e+00 -3.213464e+00 -1.505329e+00 -3.577949e+00 -4.113476e+00 -3.987598e+00 -2.250650e+00 6.973663e+01 1.732749e-02 -4.193268e-03 2.228384e-02 2.189565e-02 -1.025086e-02 -2.422324e-02 -2.220687e-02 -2.255559e-02 -4.859246e-03 -8.156898e-03 -5.578823e-03 -2.041906e-03 2.984544e-02 1.040765e-03 1.677380e-03 -1.719643e-04 1.055219e-03 2.818574e-04 4.028429e-04 -6.407897e-04 1.946222e-03 -6.416157e-04 -1.858848e-03 -1.578664e-03 5.152149e-04 -1.482851e-03
<VARIANCE> 39
 6.393256e+01 7.469214e+01 7.053258e+01 1.281802e+02 9.431415e+01 7.152076e+01 7.514737e+01 7.283799e+01 6.539628e+01 5.604470e+01 5.682610e+01 4.038722e+01 2.047351e+02 2.825384e+00 2.986456e+00 2.442982e+00 2.964011e+00 3.358026e+00 3.518011e+00 2.686382e+00 2.701933e+00 3.045995e+00 2.607781e+00 2.609318e+00 2.145079e+00 3.153915e+00 4.420099e-01 4.807729e-01 3.868392e-01 4.812215e-01 5.645683e-01 6.031747e-01 4.795650e-01 4.989005e-01 5.537633e-01 4.946503e-01 4.809150e-01 3.886281e-01 4.652981e-01
<GCONST> 1.319816e+02
<TRANSP> 5
 0.000000e+00 1.000000e+00 0.000000e+00 0.000000e+00 0.000000e+00
 0.000000e+00 6.230549e-01 3.769451e-01 0.000000e+00 0.000000e+00
 0.000000e+00 0.000000e+00 6.230584e-01 3.769416e-01 0.000000e+00
 0.000000e+00 0.000000e+00 0.000000e+00 7.340330e-01 2.659670e-01
 0.000000e+00 0.000000e+00 0.000000e+00 0.000000e+00 0.000000e+00
<ENDHMM>
~h "ay"
<BEGINHMM>
<NUMSTATES> 5
<STATE> 2
<MEAN> 39
 -2.719852e+00 -5.749677e+00 -1.797779e+00 -4.183230e+00 -7.301561e+00 -4.792968e+00 -6.909097e+00 -4.582436e+00 -3.145396e+00 -5.898353e+00 -4.638110e+00 -3.315915e+00 7.104325e+01 -3.050400e-03 -2.147016e-03 -1.104864e-02 1.262008e-02 -4.476839e-03 2.709285e-02 -8.904259e-04 -6.613687e-03 8.333662e-03 -1.032166e-03 -1.399335e-02 1.895130e-02 -5.100049e-02 3.404019e-04 -1.635980e-04 -4.922621e-03 -3.206241e-03 1.851643e-03 -1.370235e-04 -2.331055e-04 2.297091e-03 -1.033479e-03 4.858868e-03 -1.459982e-03 -1.792777e-03 3.867242e-04
<VARIANCE> 39
