~o
<STREAMINFO> 1 39
<VECSIZE> 39<NULLD><MFCC_D_A_0><DIAGC>
~h "@"
<BEGINHMM>
<NUMSTATES> 5
<STATE> 2
<MEAN> 39
 -2.044502e+00 -5.049599e+00 -3.801128e+00 -4.117058e+00 -6.325038e+00 -4.810578e+00 -6.603476e+00 -3.521366e+00 -4.320824e+00 -5.071700e+00 -4.017641e+00 -3.509399e+00 6.805766e+01 1.394031e-02 -5.585050e-03 -9.828244e-03 -8.026276e-03 -4.098662e-03 -3.759543e-03 -4.676397e-03 -2.265371e-04 -3.384472e-03 -3.355979e-03 6.349701e-03 -3.242661e-05 2.094220e-02 -3.971393e-04 -1.117002e-03 -1.525927e-03 2.657408e-04 1.154764e-03 -3.900779e-04 -1.447327e-04 -4.189322e-04 -7.596830e-04 6.032703e-04 1.212344e-03 1.174826e-03 -9.391832e-04
<VARIANCE> 39
 8.085501e+01 7.921877e+01 6.934470e+01 1.075151e+02 1.096475e+02 8.649137e+01 1.060946e+02 8.349817e+01 6.536210e+01 5.783863e+01 5.703194e+01 4.198188e+01 1.924071e+02 3.239716e+00 3.222871e+00 2.793343e+00 3.244632e+00 4.044657e+00 3.723146e+00 3.240746e+00 3.708797e+00 3.365460e+00 2.855178e+00 3.055652e+00 2.278208e+00 3.015991e+00 4.990593e-01 5.380822e-01 4.467808e-01 5.683197e-01 7.036659e-01 6.512461e-01 5.835633e-01 6.641283e-01 6.072214e-01 5.344162e-01 5.577899e-01 4.281761e-01 4.687625e-01
<GCONST> 1.362100e+02
<STATE> 3
<MEAN> 39
 -2.014124e+00 -5.065794e+00 -3.828420e+00 -4.138095e+00 -6.328143e+00 -4.824718e+00 -6.611346e+00 -3.523246e+00 -4.330600e+00 -5.076118e+00 -3.999262e+00 -3.504047e+00 6.810392e+01 1.299122e-02 -7.314625e-03 -1.212111e-02 -7.167576e-03 -2.353251e-03 -4.472188e-03 -4.108247e-03 -8.849669e-04 -4.232209e-03 -2.227867e-03 8.325471e-03 2.622805e-03 1.784528e-02 -4.148565e-05 -8.932000e-04 -9.503444e-04 2.486644e-04 8.388834e-04 -2.247281e-05 3.757261e-04 -1.698908e-04 -1.621292e-04 3.596200e-04 2.506342e-04 7.780209e-04 -1.392065e-03
<VARIANCE> 39
 8.087509e+01 7.932644e+01 6.936764e+01 1.074542e+02 1.096823e+02 8.655598e+01 1.062749e+02 8.344681e+01 6.557298e+01 5.794537e+01 5.690195e+01 4.201893e+01 1.926305e+02 3.239980e+00 3.224365e+00 2.802181e+00 3.250788e+00 4.049293e+00 3.722811e+00 3.251501e+00 3.715197e+00 3.365969e+00 2.855036e+00 3.052597e+00 2.281354e+00 3.001072e+00 4.972287e-01 5.380860e-01 4.473333e-01 5.694046e-01 7.026456e-01 6.506194e-01 5.854992e-01 6.652885e-01 6.068939e-01 5.337978e-01 5.569572e-01 4.285524e-01 4.659511e-01
<GCONST> 1.362194e+02
<STATE> 4
<MEAN> 39
 -2.032248e+00 -4.990726e+00 -3.933348e+00 -4.001091e+00 -5.963004e+00 -4.875547e+00 -6.243132e+00 -3.296284e+00 -4.311637e+00 -4.995254e+00 -3.933268e+00 -3.358823e+00 6.804117e+01 1.120635e-02 -8.121322e-03 -1.234506e-02 -6.699906e-03 -9.184925e-04 -4.071406e-03 -1.852838e-03 -6.680026e-04 -3.334114e-03 -6.319648e-04 8.134588e-03 3.911903e-03 1.281225e-02 3.163668e-05 -7.623282e-04 -3.753515e-04 -8.539481e-05 3.226469e-04 5.743004e-04 4.230171e-04 1.720405e-04 4.786018e-04 3.964826e-04 -4.423416e-04 1.238591e-04 -1.230525e-03
<VARIANCE> 39
 7.871687e+01 7.751279e+01 6.965655e+01 1.051697e+02 1.062240e+02 8.515683e+01 1.001197e+02 8.215353e+01 6.502289e+01 5.676952e+01 5.631467e+01 4.141222e+01 1.981658e+02 3.117972e+00 3.107189e+00 2.737025e+00 3.193454e+00 3.890914e+00 3.625515e+00 3.188312e+00 3.619213e+00 3.290250e+00 2.794796e+00 2.971783e+00 2.225020e+00 2.898139e+00 4.755736e-01 5.168663e-01 4.348869e-01 5.578108e-01 6.736097e-01 6.317069e-01 5.733909e-01 6.471802e-01 5.925106e-01 5.213661e-01 5.405254e-01 4.168025e-01 4.447317e-01
<GCONST> 1.352373e+02
<TRANSP> 5
 0.000000e+00 1.000000e+00 0.000000e+00 0.000000e+00 0.000000e+00
 0.000000e+00 5.999295e-01 4.000705e-01 0.000000e+00 0.000000e+00
 0.000000e+00 0.000000e+00 5.999227e-01 4.000774e-01 0.000000e+00
 0.000000e+00 0.000000e+00 0.000000e+00 7.119896e-01 2.880103e-01
 0.000000e+00 0.000000e+00 0.000000e+00 0.000000e+00 0.000000e+00
<ENDHMM>
~h "a"
<BEGINHMM>
<NUMSTATES> 5
<STATE> 2
<MEAN> 39
 -1.916214e+00 -6.087733e+00 -4.151170e+00 -4.788001e+00 -6.434665e+00 -4.362148e+00 -6.028349e+00 -3.437027e+00 -4.084610e+00 -5.251233e+00 -4.446123e+00 -3.415391e+00 6.791055e+01 -4.141785e-03 4.087470e-03 2.488191e-03 -1.201967e-04 1.389521e-03 2.165815e-03 8.675163e-04 -8.760525e-04 4.748240e-04 3.161336e-03 3.800577e-03 1.548545e-03 -5.009664e-03 -1.351681e-03 1.282027e-03 4.615437e-04 1.355605e-03 5.434561e-04 2.647639e-04 4.345747e-04 -7.496604e-04 -1.037223e-05 4.823128e-05 1.202061e-03 1.145246e-04 -1.684201e-03
<VARIANCE> 39
 7.533953e+01 8.368924e+01 6.808342e+01 9.988883e+01 1.037617e+02 8.289513e+01 1.031069e+02 7.769818e+01 6.430772e+01 6.076920e+01 5.942086e+01 4.178573e+01 2.038005e+02 2.854081e+00 3.117690e+00 2.687485e+00 3.176135e+00 3.800475e+00 3.468673e+00 3.142127e+00 3.590471e+00 3.209921e+00 2.760814e+00 2.958640e+00 2.247645e+00 2.813484e+00 4.363376e-01 5.073588e-01 4.252785e-01 5.437158e-01 6.550642e-01 5.998849e-01 5.628536e-01 6.409539e-01 5.776735e-01 5.126747e-01 5.327356e-01 4.196462e-01 4.182129e-01
<GCONST> 1.346350e+02
<STATE> 3
<MEAN> 39
 -1.927436e+00 -6.077137e+00 -4.146292e+00 -4.784236e+00 -6.430436e+00 -4.357304e+00 -6.027821e+00 -3.438949e+00 -4.083946e+00 -5.243316e+00 -4.435545e+00 -3.411422e+00 6.789641e+01 -6.194935e-03 6.381419e-03 2.708073e-03 2.589064e-03 2.642275e-03 2.194297e-03 1.651761e-03 -2.395985e-03 4.326610e-04 3.230914e-03 5.429851e-03 1.460736e-03 -8.060809e-03 -1.180028e-03 1.237769e-03 2.545206e-04 1.257311e-03 4.001227e-04 -7.225526e-05 2.172418e-04 -6.030626e-04 1.250963e-04 -8.773754e-05 7.738729e-04 1.741044e-04 -1.731920e-03
<VARIANCE> 39
 7.543456e+01 8.350581e+01 6.814610e+01 1.001234e+02 1.038072e+02 8.295052e+01 1.030460e+02 7.785017e+01 6.417659e+01 6.081544e+01 5.956179e+01 4.179947e+01 2.037391e+02 2.854573e+00 3.114001e+00 2.684679e+00 3.173086e+00 3.794144e+00 3.466091e+00 3.138533e+00 3.585165e+00 3.207181e+00 2.759680e+00 2.957926e+00 2.243861e+00 2.812707e+00 4.362103e-01 5.065079e-01 4.247560e-01 5.426735e-01 6.538448e-01 5.988650e-01 5.620227e-01 6.400582e-01 5.771267e-01 5.127277e-01 5.327082e-01 4.184732e-01 4.168218e-01
<GCONST> 1.346108e+02
<STATE> 4
<MEAN> 39
 -2.031211e+00 -5.891253e+00 -4.209577e+00 -4.567372e+00 -6.063833e+00 -4.387784e+00 -5.717316e+00 -3.210813e+00 -4.024268e+00 -5.128719e+00 -4.356873e+00 -3.261222e+00 6.769346e+01 -7.267144e-03 7.655133e-03 2.301940e-03 5.045960e-03 3.689806e-03 1.461475e-03 1.476652e-03 -2.948824e-03 1.287805e-03 3.071605e-03 4.991917e-03 1.252593e-03 -1.034026e-02 -9.298336e-04 1.005459e-03 2.292601e-04 9.488661e-04 3.514800e-04 -2.551925e-04 -1.040563e-04 -2.592384e-04 2.801249e-04 -8.269958e-05 2.384509e-04 1.132912e-04 -1.455076e-03
<VARIANCE> 39
 7.387055e+01 8.083398e+01 6.839323e+01 9.807364e+01 1.009191e+02 8.181992e+01 9.671181e+01 7.709982e+01 6.291265e+01 5.928334e+01 5.922519e+01 4.105800e+01 2.087579e+02 2.749187e+00 2.996961e+00 2.622405e+00 3.093663e+00 3.663277e+00 3.398258e+00 3.067561e+00 3.484091e+00 3.131274e+00 2.704620e+00 2.889934e+00 2.181386e+00 2.737926e+00 4.190024e-01 4.863583e-01 4.133030e-01 5.279613e-01 6.319483e-01 5.859379e-01 5.482653e-01 6.211545e-01 5.635154e-01 5.021336e-01 5.192623e-01 4.057629e-01 4.012425e-01
<GCONST> 1.336413e+02
<TRANSP> 5
 0.000000e+00 1.000000e+00 0.000000e+00 0.000000e+00 0.000000e+00
 0.000000e+00 6.096104e-01 3.903896e-01 0.000000e+00 0.000000e+00
 0.000000e+00 0.000000e+00 6.096050e-01 3.903951e-01 0.000000e+00
 0.000000e+00 0.000000e+00 0.000000e+00 7.232167e-01 2.767833e-01
 0.000000e+00 0.000000e+00 0.000000e+00 0.000000e+00 0.000000e+00
<ENDHMM>
~h "b"
<BEGINHMM>
<NUMSTATES> 5
<STATE> 2
<MEAN> 39
 -1.399996e+00 -5.259496e+00 -3.326208e+00 -4.952141e+00 -7.231496e+00 -4.887728e+00 -6.742040e+00 -3.935398e+00 -3.704720e+00 -5.662654e+00 -4.537821e+00 -3.834760e+00 6.884985e+01 -1.343911e-02 3.497397e-03 7.296366e-03 6.228998e-03 -1.596937e-02 -3.259365e-03 6.723417e-03 6.067746e-03 -1.341029e-03 -7.108093e-03 1.396734e-02 -2.150236e-03 -1.111165e-02 -4.779789e-03 -1.675425e-04 -4.798652e-04 -8.549385e-04 2.658994e-03 1.489103e-04 4.731758e-04 6.495327e-04 3.331283e-04 1.235189e-03 -6.537739e-06 -3.000054e-04 -3.441799e-04
<VARIANCE> 39
 7.294057e+01 7.935273e+01 6.503285e+01 1.021391e+02 1.033636e+02 8.447164e+01 1.037555e+02 8.266531e+01 6.200391e+01 5.744016e+01 5.995480e+01 4.210789e+01 1.884343e+02 2.953480e+00 3.306042e+00 2.713297e+00 3.366366e+00 3.839465e+00 3.635230e+00 3.198118e+00 3.623061e+00 3.288146e+00 2.876571e+00 3.091877e+00 2.290915e+00 2.994981e+00 4.451944e-01 5.408675e-01 4.288685e-01 5.868098e-01 6.695786e-01 6.303303e-01 5.765109e-01 6.406789e-01 5.900009e-01 5.376828e-01 5.678175e-01 4.286902e-01 4.541752e-01
<GCONST> 1.353898e+02
<STATE> 3
<MEAN> 39
 -1.439722e+00 -5.249451e+00 -3.313703e+00 -4.936312e+00 -7.265501e+00 -4.893891e+00 -6.729118e+00 -3.926039e+00 -3.708730e+00 -5.681795e+00 -4.509499e+00 -3.841958e+00 6.881843e+01 -2.222615e-02 2.872895e-03 4.385038e-03 4.372871e-03 -1.008290e-02 -1.356490e-03 7.056073e-03 5.403331e-03 3.202356e-04 -2.896562e-03 1.316482e-02 -2.087108e-03 -1.366900e-02 -3.500296e-03 -6.495803e-04 -1.649471e-03 -1.478412e-03 2.455699e-03 1.029393e-03 3.970458e-05 -2.144125e-04 9.143052e-04 2.394865e-03 -5.297670e-04 2.193627e-04 -5.505452e-04
<VARIANCE> 39
 7.300423e+01 7.942101e+01 6.481104e+01 1.019446e+02 1.030001e+02 8.444153e+01 1.036638e+02 8.258231e+01 6.142197e+01 5.728705e+01 5.979174e+01 4.208547e+01 1.889858e+02 2.943856e+00 3.294507e+00 2.718868e+00 3.375367e+00 3.836315e+00 3.626764e+00 3.189114e+00 3.613605e+00 3.276551e+00 2.871068e+00 3.090762e+00 2.292089e+00 2.993541e+00 4.450113e-01 5.396799e-01 4.294856e-01 5.878593e-01 6.707597e-01 6.283413e-01 5.753384e-01 6.399065e-01 5.889047e-01 5.363868e-01 5.685948e-01 4.289908e-01 4.528261e-01
<GCONST> 1.353424e+02
<STATE> 4
<MEAN> 39
 -1.602890e+00 -5.112673e+00 -3.340515e+00 -4.729251e+00 -6.902620e+00 -4.926927e+00 -6.358998e+00 -3.653948e+00 -3.612000e+00 -5.615149e+00 -4.440494e+00 -3.699996e+00 6.875426e+01 -2.534404e-02 -1.072686e-03 -2.614142e-03 6.989269e-04 -5.961540e-03 3.205679e-03 5.016305e-03 3.339826e-03 2.341011e-03 1.791042e-03 1.238764e-02 -1.477056e-03 -1.652538e-02 -1.485440e-03 -1.509874e-03 -2.292023e-03 -1.612704e-03 1.327318e-03 1.502051e-03 -3.910183e-04 -3.497383e-04 9.511369e-04 2.208019e-03 8.486994e-05 4.763520e-04 -6.803034e-04
<VARIANCE> 39
 7.158431e+01 7.687373e+01 6.496385e+01 9.940871e+01 1.000422e+02 8.372897e+01 9.735242e+01 8.057407e+01 5.984473e+01 5.592915e+01 5.904411e+01 4.139309e+01 1.949698e+02 2.847983e+00 3.169642e+00 2.665069e+00 3.307783e+00 3.695738e+00 3.546380e+00 3.120672e+00 3.509675e+00 3.193510e+00 2.808455e+00 3.014075e+00 2.229963e+00 2.906165e+00 4.296092e-01 5.181821e-01 4.201717e-01 5.747361e-01 6.464750e-01 6.124615e-01 5.626156e-01 6.226465e-01 5.748906e-01 5.253590e-01 5.530177e-01 4.162442e-01 4.349667e-01
<GCONST> 1.343661e+02
<TRANSP> 5
 0.000000e+00 1.000000e+00 0.000000e+00 0.000000e+00 0.000000e+00
 0.000000e+00 6.030920e-01 3.969081e-01 0.000000e+00 0.000000e+00
 0.000000e+00 0.000000e+00 6.030920e-01 3.969080e-01 0.000000e+00
 0.000000e+00 0.000000e+00 0.000000e+00 7.153866e-01 2.846134e-01
 0.000000e+00 0.000000e+00 0.000000e+00 0.000000e+00 0.000000e+00
<ENDHMM>
~h "c"
<BEGINHMM>
<NUMSTATES> 5
<STATE> 2
<MEAN> 39
 -3.770506e+00 -6.068529e+00 -3.104039e+00 -4.548532e+00 -6.890151e+00 -2.810472e+00 -5.938024e+00 -4.812226e+00 -2.033813e+00 -5.379262e+00 -4.706388e+00 -3.542005e+00 7.187210e+01 1.349677e-01 -2.717145e-02 -1.981555e-02 -6.523394e-02 -2.948536e-02 6.337407e-02 -1.373754e-02 -1.295000e-02 -4.762887e-03 -1.822234e-02 -6.286215e-03 -1.788525e-02 7.734476e-02 4.529260e-03 5.248633e-03 1.670232e-03 5.555205e-03 -6.804776e-04 -1.484651e-03 8.916326e-03 -3.592192e-03 -8.539333e-03 -4.985203e-03 -8.047210e-03 -1.022661e-03 -1.667691e-02
<VARIANCE> 39
 7.589835e+01 6.480394e+01 6.093107e+01 7.920911e+01 9.453046e+01 7.909415e+01 9.728169e+01 6.042940e+01 5.110880e+01 4.483291e+01 5.521839e+01 3.397930e+01 2.639140e+02 3.598717e+00 2.810275e+00 2.585596e+00 2.904109e+00 3.448884e+00 3.015344e+00 2.861599e+00 3.387401e+00 2.912318e+00 2.466154e+00 2.696274e+00 2.109544e+00 3.026408e+00 5.590550e-01 4.632382e-01 4.193592e-01 5.183298e-01 5.887248e-01 5.261884e-01 5.191336e-01 6.091494e-01 5.196097e-01 4.630871e-01 4.832709e-01 3.989005e-01 4.338899e-01
<GCONST> 1.317624e+02
<STATE> 3
<MEAN> 39
 -3.478561e+00 -6.112984e+00 -3.146886e+00 -4.683667e+00 -6.934617e+00 -2.671151e+00 -5.927356e+00 -4.834156e+00 -2.056911e+00 -5.424827e+00 -4.750612e+00 -3.578263e+00 7.202387e+01 1.303559e-01 -1.645650e-02 -1.511843e-02 -4.718187e-02 -2.961457e-02 5.518533e-02 -4.093784e-03 -1.665457e-02 -1.133247e-02 -2.249819e-02 -2.491868e-02 -1.660057e-02 5.262081e-02 -6.288421e-03 6.163984e-03 2.702817e-03 8.241449e-03 2.006362e-03 -4.570009e-03 2.534969e-03 -2.284441e-03 -1.950080e-03 -1.215508e-04 -6.143545e-03 2.475663e-03 -1.061315e-02
<VARIANCE> 39
 7.420388e+01 6.527393e+01 6.090998e+01 7.991523e+01 9.544585e+01 7.964458e+01 9.830614e+01 6.175808e+01 5.120936e+01 4.532117e+01 5.593106e+01 3.409819e+01 2.603783e+02 3.536518e+00 2.854180e+00 2.609384e+00 2.914311e+00 3.440048e+00 3.031291e+00 2.835106e+00 3.426546e+00 2.878044e+00 2.473642e+00 2.726144e+00 2.108612e+00 2.917516e+00 5.508034e-01 4.694964e-01 4.264150e-01 5.222799e-01 5.936466e-01 5.258314e-01 5.141239e-01 6.167399e-01 5.132112e-01 4.618033e-01 4.905868e-01 3.964780e-01 4.197187e-01
<GCONST> 1.317945e+02
<STATE> 4
<MEAN> 39
 -3.235919e+00 -5.965176e+00 -3.201118e+00 -4.594718e+00 -6.539594e+00 -2.579309e+00 -5.434901e+00 -4.710713e+00 -2.098525e+00 -5.365695e+00 -4.807743e+00 -3.407687e+00 7.215762e+01 9.261015e-02 -2.694993e-03 -9.497545e-03 -2.925875e-02 -1.748803e-02 3.965735e-02 -1.637371e-03 -8.671723e-03 -4.442122e-03 -7.973887e-03 -1.868184e-02 -6.195636e-03 3.848799e-02 -1.078360e-02 4.700059e-03 2.275932e-03 5.337323e-03 2.699591e-03 -4.670527e-03 -6.425611e-04 1.292779e-03 2.206630e-03 3.883849e-03 2.295299e-03 3.638058e-03 -3.999162e-03
<VARIANCE> 39
 6.913638e+01 6.329041e+01 6.121434e+01 7.791151e+01 9.704922e+01 7.976159e+01 9.414299e+01 6.193851e+01 5.118473e+01 4.469212e+01 5.633765e+01 3.452892e+01 2.624390e+02 3.192123e+00 2.746220e+00 2.567990e+00 2.885409e+00 3.343994e+00 3.018747e+00 2.782804e+00 3.340854e+00 2.771957e+00 2.398413e+00 2.666915e+00 2.052407e+00 2.822200e+00 5.030189e-01 4.502238e-01 4.212624e-01 5.141342e-01 5.832609e-01 5.188907e-01 5.004304e-01 6.040975e-01 4.963638e-01 4.470532e-01 4.799840e-01 3.852832e-01 4.018442e-01
<GCONST> 1.308704e+02
<TRANSP> 5
 0.000000e+00 1.000000e+00 0.000000e+00 0.000000e+00 0.000000e+00
 0.000000e+00 6.117032e-01 3.882968e-01 0.000000e+00 0.000000e+00
 0.000000e+00 0.000000e+00 6.117027e-01 3.882973e-01 0.000000e+00
 0.000000e+00 0.000000e+00 0.000000e+00 7.244960e-01 2.755039e-01
 0.000000e+00 0.000000e+00 0.000000e+00 0.000000e+00 0.000000e+00
<ENDHMM>
~h "d"
<BEGINHMM>
<NUMSTATES> 5
<STATE> 2
<MEAN> 39
 -2.031977e+00 -5.577693e+00 -3.125875e+00 -4.236245e+00 -6.833155e+00 -5.093450e+00 -6.788549e+00 -3.719798e+00 -4.036116e+00 -5.289982e+00 -4.229697e+00 -3.443721e+00 6.826896e+01 7.957472e-03 -8.955960e-03 -6.209048e-03 -1.705649e-02 8.657107e-03 8.285302e-03 4.925171e-03 5.770669e-03 5.135054e-03 -4.618371e-04 -4.904159e-03 -3.514774e-03 1.380826e-02 -5.162210e-04 3.891917e-04 1.503441e-03 2.175627e-03 6.783998e-04 1.315346e-03 8.746336e-04 6.267867e-04 1.083677e-03 6.520950e-04 1.853483e-05 4.341802e-05 -3.185899e-03
<VARIANCE> 39
 7.462471e+01 7.914733e+01 7.071542e+01 1.093385e+02 1.058561e+02 8.300706e+01 9.966836e+01 7.913300e+01 6.597682e+01 5.945007e+01 5.991679e+01 4.166219e+01 2.080327e+02 2.741284e+00 3.104274e+00 2.668324e+00 3.309236e+00 3.950815e+00 3.547179e+00 3.213459e+00 3.685566e+00 3.267596e+00 2.791666e+00 3.049064e+00 2.244703e+00 2.903461e+00 4.204987e-01 5.104195e-01 4.218249e-01 5.673016e-01 6.873249e-01 6.200226e-01 5.808819e-01 6.595564e-01 5.858006e-01 5.188600e-01 5.542937e-01 4.191389e-01 4.471035e-01
<GCONST> 1.351973e+02
<STATE> 3
<MEAN> 39
 -2.017035e+00 -5.592639e+00 -3.135142e+00 -4.266260e+00 -6.810203e+00 -5.077942e+00 -6.772187e+00 -3.706470e+00 -4.018714e+00 -5.282461e+00 -4.241387e+00 -3.451800e+00 6.829488e+01 6.006907e-03 -7.426073e-03 -3.036524e-03 -1.196620e-02 9.679053e-03 7.793202e-03 6.346617e-03 5.915325e-03 6.595955e-03 1.501638e-03 -4.035597e-03 -2.076673e-03 9.361103e-03 -8.718133e-04 4.985410e-04 9.842631e-04 2.294656e-03 1.776574e-04 -7.781542e-04 3.229298e-04 4.944711e-04 5.462911e-04 8.685989e-04 8.354461e-04 8.608177e-04 -1.891103e-03
<VARIANCE> 39
 7.459694e+01 7.934097e+01 7.083678e+01 1.091463e+02 1.060271e+02 8.303654e+01 9.971574e+01 7.924934e+01 6.589194e+01 5.967239e+01 5.996143e+01 4.161133e+01 2.080980e+02 2.741904e+00 3.097729e+00 2.667382e+00 3.310304e+00 3.929594e+00 3.536534e+00 3.221570e+00 3.687777e+00 3.261497e+00 2.801332e+00 3.052516e+00 2.242159e+00 2.894077e+00 4.206671e-01 5.109589e-01 4.219239e-01 5.672833e-01 6.856800e-01 6.174445e-01 5.826884e-01 6.598835e-01 5.867156e-01 5.208963e-01 5.539379e-01 4.180178e-01 4.438736e-01
<GCONST> 1.351903e+02
<STATE> 4
<MEAN> 39
 -2.057191e+00 -5.463650e+00 -3.231261e+00 -4.089484e+00 -6.397380e+00 -5.107524e+00 -6.368274e+00 -3.425135e+00 -3.963185e+00 -5.146995e+00 -4.187221e+00 -3.303872e+00 6.819788e+01 3.928486e-03 -4.528120e-03 -1.783929e-03 -5.637812e-03 8.158738e-03 3.633986e-03 6.972935e-03 6.144277e-03 5.194571e-03 3.057803e-03 -1.017550e-03 1.993685e-04 6.204683e-03 -5.815375e-04 4.222643e-04 7.068718e-05 1.685968e-03 -2.690284e-04 -1.270196e-03 1.002844e-04 8.178381e-04 -8.420457e-04 2.830186e-04 1.277719e-03 9.375567e-04 -1.098772e-03
<VARIANCE> 39
 7.228618e+01 7.744477e+01 7.117472e+01 1.063890e+02 1.024841e+02 8.181342e+01 9.359386e+01 7.810703e+01 6.424579e+01 5.820090e+01 5.906440e+01 4.055822e+01 2.124562e+02 2.640678e+00 2.982611e+00 2.613379e+00 3.235834e+00 3.766395e+00 3.458405e+00 3.147858e+00 3.588962e+00 3.178560e+00 2.753636e+00 2.974230e+00 2.176097e+00 2.817461e+00 4.057460e-01 4.910082e-01 4.123183e-01 5.535545e-01 6.580783e-01 6.038139e-01 5.682952e-01 6.411228e-01 5.728283e-01 5.122912e-01 5.377583e-01 4.052548e-01 4.260589e-01
<GCONST> 1.341745e+02
<TRANSP> 5
 0.000000e+00 1.000000e+00 0.000000e+00 0.000000e+00 0.000000e+00
 0.000000e+00 6.096122e-01 3.903879e-01 0.000000e+00 0.000000e+00
 0.000000e+00 0.000000e+00 6.096150e-01 3.903850e-01 0.000000e+00
 0.000000e+00 0.000000e+00 0.000000e+00 7.233747e-01 2.766253e-01
 0.000000e+00 0.000000e+00 0.000000e+00 0.000000e+00 0.000000e+00
<ENDHMM>
~h "e"
<BEGINHMM>
<NUMSTATES> 5
<STATE> 2
<MEAN> 39
 -2.997860e+00 -6.756029e+00 -2.598390e+00 -3.357366e+00 -8.443988e+00 -3.681900e+00 -5.216474e+00 -3.954156e+00 -3.936642e+00 -5.386566e+00 -4.289702e+00 -3.333463e+00 7.022258e+01 -1.688069e-02 -8.555928e-03 2.449206e-02 1.394511e-02 -1.454325e-03 1.703073e-02 1.080340e-03 -1.528652e-02 -8.412666e-03 2.784071e-03 -6.196632e-04 -2.586754e-03 -1.433284e-02 -2.007235e-03 1.537301e-03 -3.823575e-04 -1.512048e-03 7.831352e-04 -1.039603e-03 1.262629e-03 -6.296259e-04 -1.691045e-03 -1.469966e-04 1.041781e-03 7.333382e-04 -2.129802e-03
<VARIANCE> 39
 6.788535e+01 7.473232e+01 6.730453e+01 1.007993e+02 9.294814e+01 8.601766e+01 8.349162e+01 7.216063e+01 6.450142e+01 5.548462e+01 5.126392e+01 3.831850e+01 2.212985e+02 2.875982e+00 3.103783e+00 2.698220e+00 2.936807e+00 3.543087e+00 3.445864e+00 2.775414e+00 3.191209e+00 3.115189e+00 2.555293e+00 2.596052e+00 2.060486e+00 2.647944e+00 4.334561e-01 5.080282e-01 4.163157e-01 4.976770e-01 6.051705e-01 5.757230e-01 4.992924e-01 5.717695e-01 5.576987e-01 4.747066e-01 4.795180e-01 3.800723e-01 3.905798e-01
<GCONST> 1.321875e+02
<STATE> 3
<MEAN> 39
 -3.041688e+00 -6.769547e+00 -2.540494e+00 -3.333552e+00 -8.443271e+00 -3.639670e+00 -5.211700e+00 -3.995670e+00 -3.961989e+00 -5.376390e+00 -4.298131e+00 -3.337579e+00 7.018867e+01 -1.837225e-02 -4.539470e-03 2.212974e-02 1.058234e-02 -4.827405e-04 1.463563e-02 2.766892e-03 -1.637480e-02 -1.259604e-02 2.435315e-03 -2.131081e-05 -1.127932e-03 -1.725765e-02 -3.213243e-04 3.052308e-03 -2.162020e-03 -1.668478e-03 5.250332e-04 -1.487184e-03 6.205103e-04 -8.332899e-04 -1.112629e-03 5.336923e-04 8.461444e-05 5.027960e-04 -2.024162e-03
<VARIANCE> 39
 6.751011e+01 7.517280e+01 6.750903e+01 1.015811e+02 9.295760e+01 8.588998e+01 8.321029e+01 7.178829e+01 6.447860e+01 5.548721e+01 5.115232e+01 3.824176e+01 2.225091e+02 2.871644e+00 3.101126e+00 2.706374e+00 2.947077e+00 3.520111e+00 3.449608e+00 2.768408e+00 3.195858e+00 3.124566e+00 2.554233e+00 2.600006e+00 2.060164e+00 2.633227e+00 4.324772e-01 5.081710e-01 4.165774e-01 4.982894e-01 6.021135e-01 5.751657e-01 4.981852e-01 5.713953e-01 5.589820e-01 4.741450e-01 4.789909e-01 3.802986e-01 3.881068e-01
<GCONST> 1.321709e+02
<STATE> 4
<MEAN> 39
 -3.146134e+00 -6.643012e+00 -2.493787e+00 -3.176338e+00 -8.215874e+00 -3.525761e+00 -4.960924e+00 -3.927366e+00 -3.882701e+00 -5.287017e+00 -4.324876e+00 -3.262654e+00 7.023820e+01 -1.487451e-02 1.988633e-03 1.545330e-02 6.139840e-03 3.408614e-04 9.956797e-03 2.549124e-03 -1.658566e-02 -1.419506e-02 4.513688e-03 -1.929293e-03 -4.342088e-04 -1.644265e-02 8.911078e-04 3.094501e-03 -2.827071e-03 -1.172975e-03 1.146093e-04 -1.825999e-03 -3.030378e-05 -6.359541e-04 4.997227e-05 1.139919e-03 -2.265274e-04 4.432505e-05 -1.447639e-03
<VARIANCE> 39
 6.540685e+01 7.344461e+01 6.753554e+01 1.004092e+02 9.063078e+01 8.452278e+01 7.797841e+01 6.971587e+01 6.400368e+01 5.426314e+01 5.032662e+01 3.738905e+01 2.296673e+02 2.750028e+00 2.976683e+00 2.644835e+00 2.894192e+00 3.359178e+00 3.383678e+00 2.696825e+00 3.103909e+00 3.068399e+00 2.516367e+00 2.543223e+00 2.014324e+00 2.569379e+00 4.124075e-01 4.850966e-01 4.053514e-01 4.866502e-01 5.739385e-01 5.620841e-01 4.844735e-01 5.543941e-01 5.482752e-01 4.666771e-01 4.664739e-01 3.717798e-01 3.723229e-01
<GCONST> 1.311834e+02
<TRANSP> 5
 0.000000e+00 1.000000e+00 0.000000e+00 0.000000e+00 0.000000e+00
 0.000000e+00 6.170705e-01 3.829295e-01 0.000000e+00 0.000000e+00
 0.000000e+00 0.000000e+00 6.170675e-01 3.829325e-01 0.000000e+00
 0.000000e+00 0.000000e+00 0.000000e+00 7.300026e-01 2.699974e-01
 0.000000e+00 0.000000e+00 0.000000e+00 0.000000e+00 0.000000e+00
<ENDHMM>
~h "f"
<BEGINHMM>
<NUMSTATES> 5
<STATE> 2
<MEAN> 39
 -3.495548e+00 -6.957788e+00 -2.774040e+00 -3.979558e+00 -7.563004e+00 -4.291682e+00 -5.666716e+00 -3.705767e+00 -4.752215e+00 -5.738026e+00 -4.334127e+00 -3.125476e+00 6.908966e+01 -1.994163e-02 2.925322e-02 2.360377e-02 1.162578e-02 -4.350254e-03 -7.767949e-03 -3.706252e-03 -8.153173e-03 -2.115315e-02 -1.188797e-02 -1.706011e-02 7.795609e-03 -3.774901e-02 5.533922e-03 -1.043648e-03 2.021884e-04 -8.028591e-04 -5.507297e-03 3.851202e-03 8.443485e-04 -1.914897e-04 1.383365e-04 1.902323e-03 1.612751e-03 -7.819306e-04 -2.448289e-03
<VARIANCE> 39
 7.577594e+01 7.652161e+01 6.700244e+01 1.188511e+02 9.724883e+01 7.801030e+01 7.343655e+01 7.103611e+01 6.233322e+01 5.632300e+01 5.505046e+01 3.313606e+01 1.797193e+02 3.699931e+00 3.157615e+00 2.551120e+00 3.714983e+00 4.121239e+00 3.762099e+00 3.007664e+00 3.348129e+00 3.268423e+00 2.813449e+00 2.703340e+00 2.085621e+00 2.399843e+00 5.414073e-01 5.305188e-01 3.973297e-01 6.577398e-01 6.818227e-01 6.347497e-01 5.420253e-01 6.110408e-01 5.996369e-01 5.198189e-01 4.978001e-01 3.862330e-01 3.679989e-01
<GCONST> 1.339180e+02
<STATE> 3
<MEAN> 39
 -3.538496e+00 -6.897907e+00 -2.733103e+00 -3.952091e+00 -7.583004e+00 -4.321741e+00 -5.671080e+00 -3.713239e+00 -4.800366e+00 -5.756801e+00 -4.372919e+00 -3.116142e+00 6.899556e+01 -8.628299e-03 2.628361e-02 2.260588e-02 1.239629e-02 -1.589010e-02 -1.720912e-03 6.641141e-04 -7.373706e-03 -1.957401e-02 -5.594384e-03 -1.307930e-02 5.586816e-03 -4.168095e-02 6.053481e-03 -9.874129e-04 -6.109621e-04 8.443691e-04 -4.943175e-03 3.108549e-03 1.842383e-03 -1.379043e-04 3.344615e-03 2.681043e-03 1.232092e-03 -5.479460e-04 -2.150421e-03
<VARIANCE> 39
 7.583160e+01 7.676553e+01 6.765448e+01 1.189475e+02 9.848131e+01 7.749139e+01 7.368559e+01 7.073048e+01 6.225358e+01 5.530866e+01 5.446078e+01 3.277881e+01 1.802028e+02 3.704735e+00 3.167463e+00 2.523769e+00 3.714591e+00 4.138516e+00 3.781691e+00 3.010197e+00 3.344905e+00 3.231692e+00 2.800917e+00 2.688848e+00 2.067390e+00 2.401894e+00 5.407670e-01 5.305825e-01 3.936951e-01 6.558433e-01 6.848772e-01 6.382735e-01 5.407259e-01 6.110119e-01 5.951881e-01 5.193298e-01 4.933970e-01 3.812682e-01 3.668146e-01
<GCONST> 1.338337e+02
<STATE> 4
<MEAN> 39
 -3.460557e+00 -6.659964e+00 -2.738135e+00 -3.710545e+00 -7.324625e+00 -4.333009e+00 -5.383956e+00 -3.441125e+00 -4.818602e+00 -5.640434e+00 -4.414567e+00 -3.032170e+00 6.892718e+01 2.449613e-03 2.123165e-02 1.472493e-02 1.600632e-02 -2.439082e-02 -1.660439e-03 7.268636e-03 -4.885219e-03 -1.132806e-02 2.115948e-03 -8.375566e-03 2.443713e-03 -4.037023e-02 5.473985e-03 2.835403e-05 -1.611436e-03 1.705561e-03 -3.144529e-03 2.842172e-03 2.122581e-03 -5.372830e-04 4.799190e-03 1.763780e-03 6.611026e-04 3.090348e-04 -1.700338e-03
<VARIANCE> 39
 7.287018e+01 7.518353e+01 6.843583e+01 1.180000e+02 9.861503e+01 7.786198e+01 7.071187e+01 7.030146e+01 6.237436e+01 5.360966e+01 5.352796e+01 3.253703e+01 1.848864e+02 3.524762e+00 3.076025e+00 2.446793e+00 3.646819e+00 3.980834e+00 3.788470e+00 2.955029e+00 3.276810e+00 3.160733e+00 2.724000e+00 2.644134e+00 2.023213e+00 2.376484e+00 5.157416e-01 5.134121e-01 3.824309e-01 6.392595e-01 6.613498e-01 6.388545e-01 5.301626e-01 6.003001e-01 5.829386e-01 5.061069e-01 4.810593e-01 3.716449e-01 3.577646e-01
<GCONST> 1.330746e+02
<TRANSP> 5
 0.000000e+00 1.000000e+00 0.000000e+00 0.000000e+00 0.000000e+00
 0.000000e+00 6.133296e-01 3.866704e-01 0.000000e+00 0.000000e+00
 0.000000e+00 0.000000e+00 6.133292e-01 3.866708e-01 0.000000e+00
 0.000000e+00 0.000000e+00 0.000000e+00 7.262176e-01 2.737825e-01
 0.000000e+00 0.000000e+00 0.000000e+00 0.000000e+00 0.000000e+00
<ENDHMM>
~h "g"
<BEGINHMM>
<NUMSTATES> 5
<STATE> 2
<MEAN> 39
 -1.378935e+00 -4.368785e+00 -2.819952e+00 -3.780505e+00 -6.817704e+00 -4.244711e+00 -7.414995e+00 -5.101385e+00 -4.570847e+00 -5.027455e+00 -3.542134e+00 -3.595847e+00 6.826227e+01 -2.449238e-03 -2.698483e-02 -2.178171e-04 2.593577e-02 1.163085e-02 1.787394e-02 -2.536736e-02 1.025988e-02 1.653449e-02 -1.268273e-02 -2.604691e-02 -3.606564e-03 1.204138e-02 -2.212363e-03 -2.056373e-03 -2.160836e-03 -5.182812e-04 4.246840e-03 -1.116935e-03 -6.862863e-04 3.289910e-03 3.385717e-03 3.893961e-04 -3.007217e-03 2.526584e-03 -1.136537e-04
<VARIANCE> 39
 7.452100e+01 7.817969e+01 8.473460e+01 1.048248e+02 1.124829e+02 9.308426e+01 1.171592e+02 9.073689e+01 6.723248e+01 6.057736e+01 6.924697e+01 4.373964e+01 2.241606e+02 2.317144e+00 2.765803e+00 2.759982e+00 3.308014e+00 3.853907e+00 3.805405e+00 3.252003e+00 3.833278e+00 3.576308e+00 2.878468e+00 3.292451e+00 2.446732e+00 2.786949e+00 3.496660e-01 4.533670e-01 4.396028e-01 5.769059e-01 6.663218e-01 6.484009e-01 5.801046e-01 6.669575e-01 6.437308e-01 5.289307e-01 5.893918e-01 4.648922e-01 4.153737e-01
<GCONST> 1.361748e+02
<STATE> 3
<MEAN> 39
 -1.392783e+00 -4.417149e+00 -2.821873e+00 -3.714595e+00 -6.782404e+00 -4.203756e+00 -7.475242e+00 -5.074903e+00 -4.536677e+00 -5.058062e+00 -3.598990e+00 -3.604856e+00 6.827200e+01 -6.121252e-03 -2.934013e-02 -4.200017e-03 2.379210e-02 1.807057e-02 1.619456e-02 -2.667437e-02 1.749472e-02 2.389328e-02 -1.201508e-02 -3.008201e-02 9.548434e-04 1.012840e-02 -1.816936e-03 -7.231710e-04 -1.611801e-03 -1.618053e-03 3.091057e-03 -1.731166e-03 2.028537e-04 4.063780e-03 2.215253e-03 6.645933e-04 -1.339392e-03 2.212560e-03 -1.779423e-03
<VARIANCE> 39
 7.448423e+01 7.833852e+01 8.435079e+01 1.050447e+02 1.129749e+02 9.307880e+01 1.172373e+02 9.082183e+01 6.742467e+01 6.087295e+01 6.973509e+01 4.402620e+01 2.238488e+02 2.313077e+00 2.750847e+00 2.762285e+00 3.321503e+00 3.871394e+00 3.812014e+00 3.240524e+00 3.846961e+00 3.568098e+00 2.893680e+00 3.299801e+00 2.445388e+00 2.775446e+00 3.493414e-01 4.501673e-01 4.396892e-01 5.782636e-01 6.692855e-01 6.486123e-01 5.780851e-01 6.680788e-01 6.397954e-01 5.311013e-01 5.896930e-01 4.646642e-01 4.147527e-01
<GCONST> 1.361982e+02
<STATE> 4
<MEAN> 39
 -1.544916e+00 -4.347679e+00 -2.983951e+00 -3.477859e+00 -6.348433e+00 -4.230196e+00 -7.073910e+00 -4.730996e+00 -4.416508e+00 -4.947735e+00 -3.589662e+00 -3.384850e+00 6.806279e+01 -8.283806e-03 -2.434508e-02 -5.569934e-03 1.907544e-02 1.881960e-02 1.429649e-02 -2.468692e-02 2.530166e-02 2.399794e-02 -9.375748e-03 -2.551962e-02 2.715182e-03 1.902439e-03 -1.342460e-03 -2.388255e-04 -8.251986e-04 -2.088199e-03 9.212216e-04 -1.471082e-03 8.304418e-04 4.418168e-03 5.406754e-04 1.491388e-03 7.946246e-04 1.186093e-03 -2.624832e-03
<VARIANCE> 39
 7.269090e+01 7.595066e+01 8.410207e+01 1.013666e+02 1.083330e+02 9.122544e+01 1.088390e+02 8.885963e+01 6.628053e+01 5.918355e+01 6.836086e+01 4.303556e+01 2.294577e+02 2.237386e+00 2.628239e+00 2.698190e+00 3.210654e+00 3.726835e+00 3.723934e+00 3.111996e+00 3.693766e+00 3.449856e+00 2.827512e+00 3.177032e+00 2.341872e+00 2.689699e+00 3.373659e-01 4.287481e-01 4.266604e-01 5.555933e-01 6.437541e-01 6.306679e-01 5.548373e-01 6.389817e-01 6.160811e-01 5.186003e-01 5.659643e-01 4.429330e-01 3.985608e-01
<GCONST> 1.349380e+02
<TRANSP> 5
 0.000000e+00 1.000000e+00 0.000000e+00 0.000000e+00 0.000000e+00
 0.000000e+00 6.049488e-01 3.950512e-01 0.000000e+00 0.000000e+00
 0.000000e+00 0.000000e+00 6.049477e-01 3.950523e-01 0.000000e+00
 0.000000e+00 0.000000e+00 0.000000e+00 7.190329e-01 2.809670e-01
 0.000000e+00 0.000000e+00 0.000000e+00 0.000000e+00 0.000000e+00
<ENDHMM>
~h "h"
<BEGINHMM>
<NUMSTATES> 5
<STATE> 2
<MEAN> 39
 -2.439484e+00 -5.916638e+00 -3.738858e+00 -5.244416e+00 -6.263088e+00 -3.896537e+00 -5.404588e+00 -3.912764e+00 -3.854858e+00 -5.459730e+00 -4.544700e+00 -3.324358e+00 6.783019e+01 1.464584e-02 1.315879e-02 6.738554e-03 6.999141e-03 3.945623e-03 -1.937409e-02 -4.797942e-03 -1.506646e-02 1.425699e-02 2.187031e-03 -1.175301e-03 -6.546318e-03 1.637940e-02 -6.621756e-04 3.804182e-03 1.278225e-03 2.359531e-03 2.113940e-03 -5.375658e-04 -1.898203e-04 8.436432e-04 4.654098e-04 2.260035e-04 -1.722037e-03 5.615372e-04 -4.040256e-03
<VARIANCE> 39
 7.691796e+01 8.735591e+01 7.086283e+01 1.020223e+02 1.092896e+02 8.101309e+01 1.047908e+02 7.696093e+01 6.335825e+01 6.477126e+01 6.361967e+01 4.165712e+01 2.212324e+02 2.744796e+00 3.006116e+00 2.708152e+00 3.081845e+00 3.784468e+00 3.399891e+00 3.165958e+00 3.415720e+00 3.143403e+00 2.763512e+00 2.966412e+00 2.197916e+00 2.666557e+00 4.138614e-01 4.875463e-01 4.240580e-01 5.246764e-01 6.389646e-01 5.749853e-01 5.558733e-01 6.015261e-01 5.647778e-01 5.079008e-01 5.233548e-01 4.080969e-01 3.832338e-01
<GCONST> 1.342942e+02
<STATE> 3
<MEAN> 39
 -2.398322e+00 -5.882206e+00 -3.723323e+00 -5.226740e+00 -6.226389e+00 -3.944324e+00 -5.407071e+00 -3.943363e+00 -3.818243e+00 -5.454572e+00 -4.565008e+00 -3.341078e+00 6.787437e+01 1.335275e-02 2.068138e-02 1.030206e-02 1.174108e-02 9.318092e-03 -1.918532e-02 -2.857579e-03 -1.250855e-02 1.517065e-02 3.080483e-03 -6.711167e-03 -5.301320e-03 8.152517e-03 -8.133969e-04 3.256856e-03 1.145681e-03 1.816445e-03 2.517523e-03 3.526442e-04 1.119054e-03 1.147115e-03 8.159329e-05 2.271936e-04 -2.536842e-03 5.904863e-04 -3.471627e-03
<VARIANCE> 39
 7.718140e+01 8.737366e+01 7.093629e+01 1.027415e+02 1.108395e+02 8.178798e+01 1.052129e+02 7.738058e+01 6.342273e+01 6.498000e+01 6.417953e+01 4.156795e+01 2.201047e+02 2.757202e+00 3.021249e+00 2.720124e+00 3.090065e+00 3.784915e+00 3.415996e+00 3.167905e+00 3.418052e+00 3.152719e+00 2.759523e+00 2.971521e+00 2.198978e+00 2.673991e+00 4.152942e-01 4.905794e-01 4.248037e-01 5.259136e-01 6.382467e-01 5.785687e-01 5.565838e-01 6.023208e-01 5.658791e-01 5.072149e-01 5.233127e-01 4.086666e-01 3.851144e-01
<GCONST> 1.344022e+02
<STATE> 4
<MEAN> 39
 -2.406583e+00 -5.666108e+00 -3.762160e+00 -4.998836e+00 -5.812039e+00 -3.970238e+00 -5.081837e+00 -3.811923e+00 -3.693545e+00 -5.340098e+00 -4.560740e+00 -3.234588e+00 6.778042e+01 1.194823e-02 2.414935e-02 1.220219e-02 1.197888e-02 1.484263e-02 -1.367438e-02 2.900038e-03 -8.142009e-03 1.518826e-02 1.771977e-03 -1.301497e-02 -4.136176e-03 1.900464e-03 -1.011344e-03 1.887824e-03 5.834963e-04 3.287281e-04 1.361065e-03 2.115761e-03 1.602943e-03 1.111697e-03 1.241553e-04 -3.711413e-04 -1.439763e-03 5.991762e-04 -2.705247e-03
<VARIANCE> 39
 7.584373e+01 8.529717e+01 7.049356e+01 1.023245e+02 1.100970e+02 8.160878e+01 1.001636e+02 7.724077e+01 6.290409e+01 6.378242e+01 6.442702e+01 4.073597e+01 2.231713e+02 2.687032e+00 2.951346e+00 2.665682e+00 3.042275e+00 3.682840e+00 3.369764e+00 3.106626e+00 3.332564e+00 3.094119e+00 2.700212e+00 2.920175e+00 2.151206e+00 2.639835e+00 4.033091e-01 4.802121e-01 4.144342e-01 5.164884e-01 6.217692e-01 5.704654e-01 5.472121e-01 5.887094e-01 5.541749e-01 4.957078e-01 5.128682e-01 3.994591e-01 3.750508e-01
<GCONST> 1.337107e+02
<TRANSP> 5
 0.000000e+00 1.000000e+00 0.000000e+00 0.000000e+00 0.000000e+00
 0.000000e+00 6.052339e-01 3.947661e-01 0.000000e+00 0.000000e+00
 0.000000e+00 0.000000e+00 6.052319e-01 3.947680e-01 0.000000e+00
 0.000000e+00 0.000000e+00 0.000000e+00 7.168423e-01 2.831577e-01
 0.000000e+00 0.000000e+00 0.000000e+00 0.000000e+00 0.000000e+00
<ENDHMM>
~h "i"
<BEGINHMM>
<NUMSTATES> 5
<STATE> 2
<MEAN> 39
 -2.640602e+00 -4.794880e+00 -1.974944e+00 -4.083156e+00 -6.977220e+00 -5.363885e+00 -5.921362e+00 -4.256400e+00 -4.672702e+00 -5.305561e+00 -4.322085e+00 -3.407742e+00 6.714729e+01 -3.864715e-03 2.545524e-03 -8.197217e-03 3.836758e-03 -1.477815e-03 7.991205e-04 1.659850e-03 6.705272e-03 4.214500e-03 -1.118159e-03 -1.801673e-03 -1.651462e-03 -1.367455e-02 -2.917927e-05 -7.580558e-05 -1.389545e-03 5.923579e-04 5.798392e-04 2.200020e-04 1.087175e-03 5.615904e-05 1.243920e-03 4.226810e-04 -2.658579e-04 2.847135e-04 -1.255203e-03
<VARIANCE> 39
 7.380037e+01 8.022287e+01 8.145060e+01 1.293091e+02 1.130993e+02 8.951189e+01 9.765138e+01 7.826704e+01 6.553500e+01 5.788041e+01 6.490323e+01 3.991721e+01 1.931049e+02 2.871506e+00 2.922796e+00 2.846367e+00 3.497518e+00 3.893130e+00 3.633735e+00 3.235248e+00 3.400410e+00 3.260419e+00 2.760387e+00 2.972610e+00 2.222471e+00 2.637976e+00 4.334666e-01 4.784043e-01 4.354911e-01 5.875518e-01 6.641430e-01 6.129084e-01 5.717482e-01 6.000965e-01 5.807300e-01 5.090184e-01 5.291302e-01 4.088280e-01 3.963425e-01
<GCONST> 1.351019e+02
<STATE> 3
<MEAN> 39
 -2.650625e+00 -4.787673e+00 -1.993951e+00 -4.070629e+00 -6.983478e+00 -5.363976e+00 -5.917784e+00 -4.242598e+00 -4.666153e+00 -5.310485e+00 -4.321241e+00 -3.411910e+00 6.711201e+01 -4.124988e-03 1.986329e-03 -1.001152e-02 4.746505e-03 -5.010837e-04 1.627547e-03 4.141849e-03 6.244445e-03 6.033688e-03 -1.771831e-04 -1.175591e-03 -1.023064e-03 -1.587359e-02 -2.918892e-04 -3.066029e-04 -6.905406e-04 5.317571e-04 7.725696e-04 4.371343e-04 1.357475e-03 -1.681268e-04 9.795767e-04 5.048988e-04 1.517340e-04 5.958807e-04 -1.152426e-03
<VARIANCE> 39
 7.382693e+01 8.032465e+01 8.149913e+01 1.290977e+02 1.128943e+02 8.952949e+01 9.751721e+01 7.834164e+01 6.549998e+01 5.780637e+01 6.468546e+01 3.992747e+01 1.930359e+02 2.864571e+00 2.912487e+00 2.834719e+00 3.478801e+00 3.892961e+00 3.625201e+00 3.230564e+00 3.392639e+00 3.260396e+00 2.758797e+00 2.966778e+00 2.223540e+00 2.628755e+00 4.321626e-01 4.759104e-01 4.337660e-01 5.850620e-01 6.638024e-01 6.110209e-01 5.702267e-01 5.990642e-01 5.807662e-01 5.084253e-01 5.277854e-01 4.090866e-01 3.947714e-01
<GCONST> 1.350366e+02
<STATE> 4
<MEAN> 39
 -2.702825e+00 -4.663441e+00 -2.165683e+00 -3.888957e+00 -6.657256e+00 -5.347670e+00 -5.594361e+00 -4.018455e+00 -4.593302e+00 -5.227273e+00 -4.289140e+00 -3.263718e+00 6.687374e+01 -5.154174e-03 1.217814e-03 -9.349857e-03 4.475057e-03 9.259420e-04 3.288360e-03 6.333726e-03 5.048117e-03 5.681881e-03 8.229314e-04 1.232443e-03 3.785005e-04 -1.669753e-02 -4.166046e-04 -3.933126e-04 -4.513332e-04 1.565116e-04 9.837134e-04 5.793106e-04 1.163031e-03 -1.290095e-04 6.454994e-04 4.896271e-04 1.558155e-04 6.664008e-04 -9.805243e-04
<VARIANCE> 39
 7.216128e+01 7.869650e+01 8.177992e+01 1.257485e+02 1.096477e+02 8.840469e+01 9.219639e+01 7.797422e+01 6.481520e+01 5.691179e+01 6.366916e+01 3.946733e+01 1.974599e+02 2.749494e+00 2.798370e+00 2.758990e+00 3.386968e+00 3.763989e+00 3.555026e+00 3.153269e+00 3.308623e+00 3.207526e+00 2.702658e+00 2.893745e+00 2.171625e+00 2.547024e+00 4.138601e-01 4.565485e-01 4.216703e-01 5.689113e-01 6.415479e-01 5.990360e-01 5.548425e-01 5.842360e-01 5.713358e-01 4.975697e-01 5.132366e-01 3.992379e-01 3.784187e-01
<GCONST> 1.341026e+02
<TRANSP> 5
 0.000000e+00 1.000000e+00 0.000000e+00 0.000000e+00 0.000000e+00
 0.000000e+00 6.102913e-01 3.897087e-01 0.000000e+00 0.000000e+00
 0.000000e+00 0.000000e+00 6.102843e-01 3.897157e-01 0.000000e+00
 0.000000e+00 0.000000e+00 0.000000e+00 7.232299e-01 2.767701e-01
 0.000000e+00 0.000000e+00 0.000000e+00 0.000000e+00 0.000000e+00
<ENDHMM>
~h "j"
<BEGINHMM>
<NUMSTATES> 5
<STATE> 2
<MEAN> 39
 -2.631915e+00 -5.214467e+00 -2.043134e+00 -3.916043e+00 -7.176937e+00 -5.424835e+00 -6.427951e+00 -3.514962e+00 -3.840246e+00 -5.528727e+00 -4.728482e+00 -3.336497e+00 6.774654e+01 5.175674e-02 1.088184e-02 2.018362e-02 -7.702281e-03 -4.660689e-03 -2.472993e-02 9.888710e-03 -1.562488e-02 -1.364367e-02 -1.193102e-02 -1.705200e-02 -1.482639e-02 4.909150e-02 -1.305976e-02 -3.055840e-03 -6.200643e-03 1.475591e-03 6.758718e-03 9.355457e-04 6.884075e-03 3.666976e-03 1.301911e-04 3.250140e-04 -2.228389e-03 1.349268e-04 -1.194147e-02
<VARIANCE> 39
 6.532005e+01 6.606509e+01 7.570302e+01 1.070651e+02 9.902914e+01 8.373396e+01 9.237849e+01 6.794952e+01 6.005372e+01 5.153020e+01 5.590489e+01 3.621606e+01 1.964554e+02 2.841714e+00 3.202995e+00 2.792444e+00 3.253092e+00 4.074626e+00 3.571329e+00 3.110915e+00 3.301560e+00 3.264593e+00 2.685529e+00 2.796780e+00 2.154387e+00 2.943437e+00 4.595926e-01 5.480563e-01 4.296405e-01 5.687870e-01 7.443503e-01 6.314142e-01 5.822121e-01 6.123722e-01 6.144557e-01 5.088091e-01 5.093137e-01 4.061099e-01 4.380520e-01
<GCONST> 1.340766e+02
<STATE> 3
<MEAN> 39
 -2.573255e+00 -5.203303e+00 -2.011046e+00 -3.935699e+00 -7.155068e+00 -5.489172e+00 -6.390192e+00 -3.537730e+00 -3.868859e+00 -5.543947e+00 -4.774788e+00 -3.363526e+00 6.783121e+01 1.518695e-02 -1.445303e-03 1.132369e-02 -7.807417e-03 1.492753e-02 -2.792657e-02 1.152935e-02 -1.042273e-02 -1.998118e-02 -7.337816e-03 -1.721160e-02 -1.449461e-02 3.391884e-02 -1.730709e-02 -5.396688e-03 -3.294539e-03 -9.010124e-04 9.204590e-03 -1.770235e-03 -5.079517e-04 2.975497e-03 -2.364743e-03 2.491761e-03 5.998509e-04 6.632578e-04 -4.861693e-03
<VARIANCE> 39
 6.471675e+01 6.597470e+01 7.618687e+01 1.085120e+02 9.938918e+01 8.393353e+01 9.239968e+01 6.824408e+01 6.040668e+01 5.178945e+01 5.756349e+01 3.632747e+01 1.959165e+02 2.769956e+00 3.219683e+00 2.793895e+00 3.266653e+00 4.016405e+00 3.607686e+00 3.106301e+00 3.277901e+00 3.274333e+00 2.671785e+00 2.785458e+00 2.153522e+00 2.870485e+00 4.503009e-01 5.486814e-01 4.331058e-01 5.702491e-01 7.357644e-01 6.376683e-01 5.815607e-01 6.056501e-01 6.158127e-01 5.048827e-01 5.071114e-01 4.051786e-01 4.308376e-01
<GCONST> 1.340250e+02
<STATE> 4
<MEAN> 39
 -2.647336e+00 -5.199114e+00 -2.178211e+00 -3.839762e+00 -6.684153e+00 -5.530466e+00 -6.141556e+00 -3.342071e+00 -3.792143e+00 -5.472275e+00 -4.793171e+00 -3.287357e+00 6.778403e+01 -1.865776e-02 -8.290666e-03 8.273950e-03 -1.474724e-02 2.913359e-02 -2.685675e-02 -2.405712e-04 -5.392506e-03 -2.156596e-02 -3.462262e-03 -1.382202e-02 -1.216362e-02 2.723796e-02 -1.093323e-02 -3.027616e-03 -9.286876e-04 -2.160653e-03 3.890231e-03 -1.520163e-04 -3.239852e-03 1.134113e-03 2.579298e-04 7.496285e-04 1.379238e-03 8.492562e-04 -1.045145e-03
<VARIANCE> 39
 6.287327e+01 6.373009e+01 7.764030e+01 1.075083e+02 9.736068e+01 8.442920e+01 8.715989e+01 6.782657e+01 5.986482e+01 5.079129e+01 5.908424e+01 3.601069e+01 2.007209e+02 2.600075e+00 3.094747e+00 2.763569e+00 3.211702e+00 3.840398e+00 3.572462e+00 3.045594e+00 3.186199e+00 3.167450e+00 2.600163e+00 2.727848e+00 2.103510e+00 2.745333e+00 4.222908e-01 5.232452e-01 4.277459e-01 5.571648e-01 7.019389e-01 6.268373e-01 5.672752e-01 5.858490e-01 5.913395e-01 4.921122e-01 4.935302e-01 3.939850e-01 4.031517e-01
<GCONST> 1.330647e+02
<TRANSP> 5
 0.000000e+00 1.000000e+00 0.000000e+00 0.000000e+00 0.000000e+00
 0.000000e+00 6.141948e-01 3.858051e-01 0.000000e+00 0.000000e+00
 0.000000e+00 0.000000e+00 6.141964e-01 3.858037e-01 0.000000e+00
 0.000000e+00 0.000000e+00 0.000000e+00 7.275310e-01 2.724690e-01
 0.000000e+00 0.000000e+00 0.000000e+00 0.000000e+00 0.000000e+00
<ENDHMM>
~h "k"
<BEGINHMM>
<NUMSTATES> 5
<STATE> 2
<MEAN> 39
 -2.160524e+00 -5.883691e+00 -4.194943e+00 -4.942409e+00 -6.141623e+00 -4.667833e+00 -6.311279e+00 -3.361590e+00 -4.454160e+00 -5.187754e+00 -4.189338e+00 -3.605119e+00 6.713613e+01 1.085312e-02 -2.230746e-03 3.096357e-03 7.764360e-03 -5.275457e-03 -1.278153e-02 -2.976040e-03 -2.935915e-03 2.626992e-03 -2.696725e-03 -4.434493e-03 -4.934719e-03 1.710851e-02 -1.978685e-03 7.899414e-04 1.010410e-03 5.656459e-04 -1.012049e-03 9.769308e-04 1.975023e-03 -1.806503e-03 1.244439e-03 -1.459903e-03 -1.270653e-03 5.001586e-04 -3.293005e-03
<VARIANCE> 39
 7.540125e+01 8.290151e+01 6.728695e+01 1.052669e+02 1.089963e+02 8.592154e+01 9.866422e+01 8.059598e+01 6.059067e+01 6.002826e+01 5.840382e+01 4.143770e+01 1.957359e+02 3.131814e+00 3.319601e+00 2.838208e+00 3.434540e+00 4.295135e+00 3.790657e+00 3.301641e+00 3.752073e+00 3.342977e+00 2.979914e+00 3.051694e+00 2.313283e+00 3.170661e+00 4.884785e-01 5.484356e-01 4.592828e-01 5.915403e-01 7.545664e-01 6.591024e-01 5.996966e-01 6.786629e-01 6.098811e-01 5.601026e-01 5.590341e-01 4.337337e-01 4.787941e-01
<GCONST> 1.365635e+02
<STATE> 3
<MEAN> 39
 -2.141876e+00 -5.885209e+00 -4.183287e+00 -4.930658e+00 -6.157386e+00 -4.693993e+00 -6.311434e+00 -3.368235e+00 -4.450397e+00 -5.201488e+00 -4.201650e+00 -3.619029e+00 6.716887e+01 6.119526e-03 -1.184860e-03 5.468611e-03 7.090089e-03 -9.140153e-03 -1.152627e-02 1.335629e-03 -5.344443e-03 4.611398e-03 -5.971829e-03 -5.535133e-03 -3.358820e-03 9.772561e-03 -2.554530e-03 3.136705e-04 1.174158e-03 -1.813895e-04 -1.360266e-03 1.150092e-03 1.992209e-03 -6.154756e-04 1.257397e-03 -1.512485e-03 -1.174972e-04 7.116538e-04 -3.585381e-03
<VARIANCE> 39
 7.532639e+01 8.293508e+01 6.743909e+01 1.054797e+02 1.091444e+02 8.632415e+01 9.837386e+01 8.066155e+01 6.056328e+01 5.978982e+01 5.833336e+01 4.138436e+01 1.948244e+02 3.115954e+00 3.291691e+00 2.832565e+00 3.429368e+00 4.272444e+00 3.783918e+00 3.284052e+00 3.745658e+00 3.333406e+00 2.965473e+00 3.048691e+00 2.306732e+00 3.144722e+00 4.864779e-01 5.432674e-01 4.583356e-01 5.897956e-01 7.498682e-01 6.574333e-01 5.957839e-01 6.771469e-01 6.077583e-01 5.574289e-01 5.580360e-01 4.319637e-01 4.752941e-01
<GCONST> 1.364509e+02
<STATE> 4
<MEAN> 39
 -2.213754e+00 -5.758060e+00 -4.247673e+00 -4.752422e+00 -5.836979e+00 -4.731747e+00 -5.999108e+00 -3.132230e+00 -4.389650e+00 -5.162301e+00 -4.190968e+00 -3.472793e+00 6.696236e+01 -9.266997e-04 -3.674531e-04 7.292126e-03 4.432010e-03 -1.111742e-02 -8.704737e-03 4.131282e-03 -3.371663e-03 6.336941e-03 -7.087038e-03 -3.264852e-03 -1.847007e-03 2.282196e-03 -2.539251e-03 3.001753e-04 1.163937e-03 -3.335738e-04 -4.975290e-04 1.560463e-03 1.009885e-03 7.613960e-04 9.945715e-04 -5.373618e-04 6.860213e-04 6.740193e-04 -2.547898e-03
<VARIANCE> 39
 7.338880e+01 8.058062e+01 6.782487e+01 1.028476e+02 1.058441e+02 8.522316e+01 9.228630e+01 7.928083e+01 5.990623e+01 5.786628e+01 5.753700e+01 4.060734e+01 1.984250e+02 2.967995e+00 3.145365e+00 2.750262e+00 3.336985e+00 4.086114e+00 3.678445e+00 3.192271e+00 3.625132e+00 3.242248e+00 2.870648e+00 2.966682e+00 2.227533e+00 3.015138e+00 4.626587e-01 5.162845e-01 4.429729e-01 5.718265e-01 7.167950e-01 6.387774e-01 5.771351e-01 6.542337e-01 5.892100e-01 5.387814e-01 5.401943e-01 4.162489e-01 4.512527e-01
<GCONST> 1.352517e+02
<TRANSP> 5
 0.000000e+00 1.000000e+00 0.000000e+00 0.000000e+00 0.000000e+00
 0.000000e+00 6.048861e-01 3.951139e-01 0.000000e+00 0.000000e+00
 0.000000e+00 0.000000e+00 6.048875e-01 3.951125e-01 0.000000e+00
 0.000000e+00 0.000000e+00 0.000000e+00 7.181822e-01 2.818178e-01
 0.000000e+00 0.000000e+00 0.000000e+00 0.000000e+00 0.000000e+00
<ENDHMM>
~h "l"
<BEGINHMM>
<NUMSTATES> 5
<STATE> 2
<MEAN> 39
 -1.751246e+00 -5.137830e+00 -3.499208e+00 -4.945052e+00 -6.629975e+00 -4.461445e+00 -5.697158e+00 -4.337260e+00 -3.658453e+00 -5.097654e+00 -4.539788e+00 -3.566398e+00 6.879288e+01 -1.334408e-02 1.454045e-02 8.349590e-03 3.976166e-03 -3.367113e-03 2.156685e-03 2.839698e-03 3.177724e-03 -1.929449e-03 5.599940e-03 5.302840e-03 8.053928e-03 -1.981965e-02 -8.282057e-04 -1.089992e-03 -5.813999e-04 4.153517e-04 3.335616e-04 -2.596619e-04 1.763291e-04 1.310109e-03 9.039834e-04 1.061710e-03 3.309121e-04 4.919448e-04 -9.126707e-04
<VARIANCE> 39
 7.854254e+01 8.697719e+01 7.229283e+01 1.016094e+02 1.071745e+02 8.987764e+01 9.980902e+01 8.349993e+01 6.535094e+01 6.397491e+01 6.330715e+01 4.045602e+01 2.237713e+02 2.757485e+00 2.809071e+00 2.674177e+00 3.166041e+00 3.824470e+00 3.606240e+00 3.175294e+00 3.512546e+00 3.226978e+00 2.795027e+00 2.980693e+00 2.216882e+00 2.462701e+00 4.077825e-01 4.472410e-01 4.046430e-01 5.362030e-01 6.469656e-01 6.124583e-01 5.635335e-01 6.193060e-01 5.750223e-01 5.081779e-01 5.278201e-01 4.088151e-01 3.527517e-01
<GCONST> 1.344007e+02
<STATE> 3
<MEAN> 39
 -1.782946e+00 -5.106546e+00 -3.476648e+00 -4.934062e+00 -6.642822e+00 -4.452502e+00 -5.696594e+00 -4.332437e+00 -3.654946e+00 -5.082675e+00 -4.530329e+00 -3.549064e+00 6.874536e+01 -1.523192e-02 1.105856e-02 7.529084e-03 4.805270e-03 -2.532007e-03 2.983662e-03 3.261894e-03 5.702588e-03 3.454820e-05 7.617975e-03 6.582979e-03 9.054000e-03 -2.096128e-02 -5.650227e-04 -1.693553e-03 -4.256650e-04 4.329746e-04 4.171745e-04 1.058971e-03 3.927723e-04 1.177958e-03 7.355291e-04 6.326413e-04 8.411994e-04 6.266782e-05 -3.625358e-04
<VARIANCE> 39
 7.857049e+01 8.644521e+01 7.247233e+01 1.020429e+02 1.071376e+02 9.016969e+01 9.939429e+01 8.321351e+01 6.548654e+01 6.404584e+01 6.342076e+01 4.030703e+01 2.235931e+02 2.748100e+00 2.798384e+00 2.674864e+00 3.160085e+00 3.806709e+00 3.606713e+00 3.179834e+00 3.503927e+00 3.229101e+00 2.793713e+00 2.981085e+00 2.217644e+00 2.469046e+00 4.070564e-01 4.463952e-01 4.059861e-01 5.352123e-01 6.458272e-01 6.124356e-01 5.653016e-01 6.168638e-01 5.753354e-01 5.080662e-01 5.280413e-01 4.094326e-01 3.533577e-01
<GCONST> 1.343854e+02
<STATE> 4
<MEAN> 39
 -1.887232e+00 -4.944631e+00 -3.555124e+00 -4.730325e+00 -6.361875e+00 -4.465459e+00 -5.423755e+00 -4.118288e+00 -3.617360e+00 -4.971264e+00 -4.493874e+00 -3.401500e+00 6.855932e+01 -1.592042e-02 7.139131e-03 8.045047e-03 5.334157e-03 -1.980142e-03 6.865875e-03 2.309114e-03 6.929850e-03 1.641592e-03 6.715973e-03 8.072542e-03 7.146757e-03 -1.956380e-02 -4.614445e-04 -1.232675e-03 -1.464548e-06 5.394780e-04 3.877522e-04 1.632261e-03 2.524103e-04 8.391436e-04 -9.510777e-05 -1.519559e-04 1.104495e-03 -6.429243e-04 -1.857580e-04
<VARIANCE> 39
 7.673962e+01 8.376225e+01 7.241101e+01 1.007764e+02 1.039249e+02 8.921206e+01 9.368352e+01 8.189991e+01 6.503275e+01 6.271014e+01 6.273418e+01 3.947041e+01 2.283228e+02 2.666058e+00 2.699827e+00 2.620252e+00 3.089216e+00 3.673504e+00 3.542683e+00 3.128791e+00 3.397429e+00 3.182325e+00 2.748238e+00 2.912674e+00 2.170144e+00 2.432532e+00 3.952389e-01 4.304377e-01 3.978387e-01 5.214196e-01 6.236349e-01 6.008304e-01 5.560474e-01 5.973977e-01 5.660027e-01 4.990141e-01 5.139660e-01 4.006796e-01 3.450752e-01
<GCONST> 1.335394e+02
<TRANSP> 5
 0.000000e+00 1.000000e+00 0.000000e+00 0.000000e+00 0.000000e+00
 0.000000e+00 6.109055e-01 3.890945e-01 0.000000e+00 0.000000e+00
 0.000000e+00 0.000000e+00 6.109006e-01 3.890994e-01 0.000000e+00
 0.000000e+00 0.000000e+00 0.000000e+00 7.234697e-01 2.765302e-01
 0.000000e+00 0.000000e+00 0.000000e+00 0.000000e+00 0.000000e+00
<ENDHMM>
~h "m"
<BEGINHMM>
<NUMSTATES> 5
<STATE> 2
<MEAN> 39
 -1.387513e+00 -4.953630e+00 -3.302613e+00 -4.505215e+00 -6.849858e+00 -3.835271e+00 -5.800072e+00 -4.143392e+00 -4.484157e+00 -5.837068e+00 -4.360311e+00 -3.724908e+00 6.796162e+01 -1.319011e-02 5.178204e-03 6.716252e-03 7.252444e-03 3.701748e-03 -1.789198e-02 3.682633e-03 2.155946e-03 -5.410826e-03 5.808282e-03 4.769339e-03 5.930032e-03 -7.423466e-03 -6.656622e-04 -1.472499e-04 -1.060937e-03 5.187091e-04 1.116539e-03 -9.145046e-04 2.042787e-04 1.402269e-03 6.524326e-04 1.803710e-03 -4.521774e-04 -6.428844e-04 -1.543511e-04
<VARIANCE> 39
 7.603892e+01 8.644520e+01 7.263241e+01 1.057809e+02 1.062266e+02 8.981353e+01 1.022624e+02 8.213189e+01 6.456690e+01 6.119210e+01 6.088232e+01 4.073764e+01 2.092945e+02 2.756355e+00 3.015979e+00 2.804244e+00 3.375311e+00 3.830621e+00 3.737938e+00 3.088823e+00 3.497114e+00 3.248180e+00 2.821109e+00 2.971874e+00 2.216256e+00 2.614362e+00 4.084693e-01 4.902229e-01 4.388984e-01 5.786303e-01 6.576542e-01 6.322481e-01 5.512723e-01 6.188235e-01 5.723584e-01 5.162536e-01 5.282342e-01 4.094923e-01 3.877789e-01
<GCONST> 1.348941e+02
<STATE> 3
<MEAN> 39
 -1.412819e+00 -4.944197e+00 -3.289087e+00 -4.485121e+00 -6.843746e+00 -3.871544e+00 -5.795062e+00 -4.141521e+00 -4.492390e+00 -5.820478e+00 -4.351700e+00 -3.713510e+00 6.794307e+01 -1.248980e-02 4.255313e-03 3.891949e-03 7.749237e-03 4.772423e-03 -1.911616e-02 3.324586e-03 4.933509e-03 -3.966230e-03 7.963465e-03 4.007672e-03 4.242570e-03 -6.772496e-03 3.178583e-04 -3.312146e-04 -9.081420e-04 -3.982473e-06 -1.842073e-04 1.573924e-05 -1.263368e-04 1.190447e-03 6.519632e-04 7.417923e-04 -3.076569e-04 -9.217144e-04 4.694336e-04
<VARIANCE> 39
 7.618570e+01 8.633504e+01 7.306864e+01 1.054730e+02 1.058818e+02 8.934749e+01 1.020874e+02 8.229688e+01 6.460081e+01 6.138100e+01 6.064901e+01 4.088258e+01 2.095267e+02 2.762380e+00 3.017584e+00 2.805400e+00 3.365198e+00 3.841407e+00 3.731590e+00 3.087273e+00 3.497457e+00 3.249814e+00 2.826925e+00 2.979399e+00 2.221525e+00 2.618327e+00 4.088954e-01 4.902487e-01 4.384020e-01 5.771355e-01 6.580374e-01 6.312653e-01 5.516652e-01 6.193824e-01 5.728306e-01 5.167207e-01 5.301751e-01 4.102839e-01 3.885584e-01
<GCONST> 1.349113e+02
<STATE> 4
<MEAN> 39
 -1.543391e+00 -4.803952e+00 -3.337036e+00 -4.306883e+00 -6.503014e+00 -3.969586e+00 -5.469954e+00 -3.961182e+00 -4.439318e+00 -5.680594e+00 -4.340962e+00 -3.582611e+00 6.779897e+01 -8.345502e-03 1.487270e-03 1.618146e-03 6.116688e-03 1.980110e-03 -1.507911e-02 1.321765e-03 5.729050e-03 -5.117855e-04 7.388834e-03 3.473557e-03 3.115837e-03 -5.010371e-03 6.294202e-04 -5.896909e-04 -3.913280e-04 -6.230404e-04 -9.237343e-04 9.175861e-04 -1.200498e-04 7.359723e-04 1.028855e-03 -4.333814e-05 -2.690377e-04 -2.416808e-04 6.812712e-04
<VARIANCE> 39
 7.499964e+01 8.434444e+01 7.423059e+01 1.026306e+02 1.031202e+02 8.750079e+01 9.635136e+01 8.099265e+01 6.401003e+01 6.021061e+01 6.026458e+01 4.050665e+01 2.149083e+02 2.664965e+00 2.911237e+00 2.752507e+00 3.282020e+00 3.731433e+00 3.647010e+00 3.019754e+00 3.400454e+00 3.193220e+00 2.769952e+00 2.919116e+00 2.183480e+00 2.558188e+00 3.930546e-01 4.705576e-01 4.275876e-01 5.619121e-01 6.381814e-01 6.148963e-01 5.386212e-01 6.021233e-01 5.628722e-01 5.059059e-01 5.184129e-01 4.024732e-01 3.749691e-01
<GCONST> 1.340468e+02
<TRANSP> 5
 0.000000e+00 1.000000e+00 0.000000e+00 0.000000e+00 0.000000e+00
 0.000000e+00 6.075674e-01 3.924326e-01 0.000000e+00 0.000000e+00
 0.000000e+00 0.000000e+00 6.075646e-01 3.924354e-01 0.000000e+00
 0.000000e+00 0.000000e+00 0.000000e+00 7.195426e-01 2.804574e-01
 0.000000e+00 0.000000e+00 0.000000e+00 0.000000e+00 0.000000e+00
<ENDHMM>
~h "n"
<BEGINHMM>
<NUMSTATES> 5
<STATE> 2
<MEAN> 39
 -2.101256e+00 -5.605221e+00 -3.355419e+00 -4.049356e+00 -6.717185e+00 -4.094575e+00 -6.502596e+00 -3.626760e+00 -4.315102e+00 -5.405853e+00 -4.548831e+00 -3.540586e+00 6.748421e+01 -7.498130e-03 -6.588662e-04 -7.436784e-03 -6.429816e-03 8.377890e-03 3.748533e-03 1.307989e-02 3.588565e-03 -3.058075e-03 1.316104e-03 8.740807e-03 1.214965e-02 -8.829921e-03 -2.358982e-03 -6.318514e-05 -4.516540e-04 -3.711840e-04 1.047160e-03 6.333273e-04 1.322035e-03 2.200817e-03 1.639702e-03 8.841184e-04 -9.985958e-05 -2.552408e-04 -2.081413e-03
<VARIANCE> 39
 7.378807e+01 7.801286e+01 6.782479e+01 1.037548e+02 1.073848e+02 8.125767e+01 1.029309e+02 7.833028e+01 6.109450e+01 5.625358e+01 5.778869e+01 3.985905e+01 1.971405e+02 2.767050e+00 2.989365e+00 2.615029e+00 3.253665e+00 3.830884e+00 3.401636e+00 3.086493e+00 3.718339e+00 3.135046e+00 2.679150e+00 2.946042e+00 2.155877e+00 2.682477e+00 4.281269e-01 4.856939e-01 4.164162e-01 5.539314e-01 6.643970e-01 5.883332e-01 5.571843e-01 6.612588e-01 5.638583e-01 4.982089e-01 5.284203e-01 4.030062e-01 4.026576e-01
<GCONST> 1.339556e+02
<STATE> 3
<MEAN> 39
 -2.122990e+00 -5.610422e+00 -3.370196e+00 -4.059421e+00 -6.694846e+00 -4.083558e+00 -6.474926e+00 -3.617063e+00 -4.316905e+00 -5.400799e+00 -4.530152e+00 -3.516127e+00 6.746284e+01 -1.235647e-02 1.289743e-04 -6.987296e-03 -5.094610e-03 1.264278e-02 4.419085e-03 1.355600e-02 7.413114e-03 1.170682e-03 2.835569e-03 5.942206e-03 9.618530e-03 -1.249136e-02 -1.992779e-03 6.534657e-05 -3.794501e-04 1.191811e-04 1.448374e-03 2.733088e-04 4.388551e-04 1.356094e-03 1.903986e-03 8.613360e-04 -1.020384e-03 -1.123162e-03 -1.386489e-03
<VARIANCE> 39
 7.380045e+01 7.808325e+01 6.786575e+01 1.038962e+02 1.070122e+02 8.125006e+01 1.026232e+02 7.828318e+01 6.101791e+01 5.624845e+01 5.781748e+01 3.983410e+01 1.973948e+02 2.770022e+00 2.993593e+00 2.609170e+00 3.240398e+00 3.812175e+00 3.400534e+00 3.082781e+00 3.711313e+00 3.137783e+00 2.680768e+00 2.937422e+00 2.147922e+00 2.685918e+00 4.283208e-01 4.863713e-01 4.148609e-01 5.516711e-01 6.606717e-01 5.876347e-01 5.569061e-01 6.592391e-01 5.647066e-01 4.979487e-01 5.265030e-01 4.014132e-01 4.027397e-01
<GCONST> 1.339125e+02
<STATE> 4
<MEAN> 39
 -2.250491e+00 -5.483489e+00 -3.505998e+00 -3.884427e+00 -6.269855e+00 -4.124193e+00 -6.073260e+00 -3.320308e+00 -4.235249e+00 -5.288194e+00 -4.446285e+00 -3.325112e+00 6.722044e+01 -1.414835e-02 -8.807931e-05 -5.679117e-03 -2.919142e-03 1.491284e-02 3.558831e-03 1.162994e-02 7.799767e-03 4.927018e-03 3.680556e-03 2.447391e-03 5.707359e-03 -1.144357e-02 -1.173132e-03 -3.671413e-04 -5.554947e-04 4.408196e-05 6.928206e-04 -8.343480e-05 2.740228e-04 2.209955e-04 1.308677e-03 6.105816e-04 -6.417861e-04 -1.064938e-03 -3.751574e-04
<VARIANCE> 39
 7.171298e+01 7.608554e+01 6.839127e+01 1.016773e+02 1.037453e+02 7.990873e+01 9.561308e+01 7.685558e+01 5.990891e+01 5.486422e+01 5.714662e+01 3.925848e+01 2.026099e+02 2.680420e+00 2.892889e+00 2.543041e+00 3.149918e+00 3.653625e+00 3.328710e+00 3.014774e+00 3.590047e+00 3.073555e+00 2.626907e+00 2.858706e+00 2.088285e+00 2.623433e+00 4.124667e-01 4.694941e-01 4.030741e-01 5.353941e-01 6.329559e-01 5.742134e-01 5.434508e-01 6.379126e-01 5.533122e-01 4.879778e-01 5.115823e-01 3.899535e-01 3.886697e-01
<GCONST> 1.329145e+02
<TRANSP> 5
 0.000000e+00 1.000000e+00 0.000000e+00 0.000000e+00 0.000000e+00
 0.000000e+00 6.104065e-01 3.895935e-01 0.000000e+00 0.000000e+00
 0.000000e+00 0.000000e+00 6.104028e-01 3.895971e-01 0.000000e+00
 0.000000e+00 0.000000e+00 0.000000e+00 7.248029e-01 2.751971e-01
 0.000000e+00 0.000000e+00 0.000000e+00 0.000000e+00 0.000000e+00
<ENDHMM>
~h "o"
<BEGINHMM>
<NUMSTATES> 5
<STATE> 2
<MEAN> 39
 -1.894802e+00 -4.854919e+00 -4.343620e+00 -5.988553e+00 -6.117721e+00 -4.276310e+00 -5.897989e+00 -3.967708e+00 -3.908487e+00 -4.814898e+00 -4.075913e+00 -3.767717e+00 6.751471e+01 1.902763e-02 1.861205e-04 3.292119e-02 -1.660500e-04 -2.415884e-02 -6.156913e-03 -9.666122e-03 -9.341794e-03 -1.399035e-02 -1.730423e-02 -1.290493e-02 -1.705984e-02 1.997289e-02 -1.633787e-03 -9.400101e-04 1.701570e-03 1.272151e-03 -4.029469e-04 -7.939852e-04 -6.189382e-04 1.609090e-03 -6.695695e-04 1.153456e-03 2.077527e-03 1.080061e-03 2.879645e-04
<VARIANCE> 39
 8.037000e+01 7.834906e+01 7.434304e+01 1.108952e+02 1.079389e+02 8.926731e+01 1.008081e+02 8.408791e+01 6.238392e+01 5.786653e+01 6.596295e+01 3.990429e+01 1.946761e+02 3.419191e+00 2.991932e+00 3.033602e+00 3.828084e+00 4.156012e+00 3.912117e+00 3.203517e+00 3.729052e+00 3.316873e+00 2.851609e+00 3.050656e+00 2.250122e+00 3.029468e+00 5.352645e-01 5.013096e-01 4.749567e-01 6.565133e-01 7.230216e-01 6.600224e-01 5.730233e-01 6.680081e-01 5.928504e-01 5.275827e-01 5.355065e-01 4.200682e-01 4.629854e-01
<GCONST> 1.367219e+02
<STATE> 3
<MEAN> 39
 -1.851439e+00 -4.852777e+00 -4.262746e+00 -5.994195e+00 -6.185316e+00 -4.291832e+00 -5.922960e+00 -3.978421e+00 -3.938843e+00 -4.853635e+00 -4.101376e+00 -3.808968e+00 6.756368e+01 1.539009e-02 -1.783860e-03 3.713736e-02 2.274298e-03 -2.762643e-02 -5.720538e-03 -1.183588e-02 -7.261834e-03 -1.578931e-02 -1.570962e-02 -7.187554e-03 -1.391941e-02 1.927723e-02 -1.501446e-03 -2.454366e-04 1.992695e-03 9.392106e-04 -1.260654e-03 3.716190e-04 -1.201403e-03 1.320680e-03 -8.658261e-04 4.969862e-04 2.294690e-03 1.532434e-03 -5.976749e-04
<VARIANCE> 39
 7.970667e+01 7.922115e+01 7.496168e+01 1.112304e+02 1.083632e+02 8.964482e+01 1.010208e+02 8.431133e+01 6.260146e+01 5.816221e+01 6.597073e+01 3.985574e+01 1.944053e+02 3.382008e+00 2.990419e+00 3.043980e+00 3.843054e+00 4.177488e+00 3.921098e+00 3.210677e+00 3.715471e+00 3.315499e+00 2.843768e+00 3.043228e+00 2.249679e+00 3.026236e+00 5.294546e-01 5.012991e-01 4.753743e-01 6.580769e-01 7.257326e-01 6.601663e-01 5.748665e-01 6.653599e-01 5.917576e-01 5.256352e-01 5.342038e-01 4.198105e-01 4.621108e-01
<GCONST> 1.367350e+02
<STATE> 4
<MEAN> 39
 -1.895564e+00 -4.785244e+00 -4.225219e+00 -5.857266e+00 -5.926469e+00 -4.338941e+00 -5.624161e+00 -3.699948e+00 -3.913413e+00 -4.857173e+00 -4.114010e+00 -3.654446e+00 6.741332e+01 9.645690e-03 -1.301178e-03 3.925867e-02 2.149445e-03 -3.232574e-02 -2.487589e-03 -1.270640e-02 -6.348203e-03 -1.531203e-02 -1.367020e-02 -1.625641e-03 -9.231824e-03 1.395379e-02 -2.053760e-03 4.482402e-04 1.456419e-03 6.984900e-04 -9.222759e-04 1.235638e-03 -5.829952e-04 5.201742e-04 -4.983529e-04 3.301564e-04 1.904573e-03 1.848946e-03 -2.138844e-03
<VARIANCE> 39
 7.699519e+01 7.838883e+01 7.561414e+01 1.094192e+02 1.068991e+02 8.860882e+01 9.523037e+01 8.232339e+01 6.154757e+01 5.742803e+01 6.462234e+01 3.944497e+01 2.002976e+02 3.203325e+00 2.872870e+00 2.978143e+00 3.755357e+00 4.051480e+00 3.835230e+00 3.130023e+00 3.562342e+00 3.214470e+00 2.765917e+00 2.961225e+00 2.200572e+00 2.915018e+00 5.008252e-01 4.810939e-01 4.634084e-01 6.387342e-01 7.012060e-01 6.435425e-01 5.592704e-01 6.365120e-01 5.732595e-01 5.100396e-01 5.191668e-01 4.088105e-01 4.398381e-01
<GCONST> 1.356878e+02
<TRANSP> 5
 0.000000e+00 1.000000e+00 0.000000e+00 0.000000e+00 0.000000e+00
 0.000000e+00 6.089393e-01 3.910606e-01 0.000000e+00 0.000000e+00
 0.000000e+00 0.000000e+00 6.089380e-01 3.910620e-01 0.000000e+00
 0.000000e+00 0.000000e+00 0.000000e+00 7.228772e-01 2.771228e-01
 0.000000e+00 0.000000e+00 0.000000e+00 0.000000e+00 0.000000e+00
<ENDHMM>
~h "p"
<BEGINHMM>
<NUMSTATES> 5
<STATE> 2
<MEAN> 39
 -2.073279e+00 -5.439283e+00 -4.250084e+00 -5.117815e+00 -6.862317e+00 -4.152616e+00 -6.516691e+00 -4.072670e+00 -3.802274e+00 -4.817455e+00 -4.171836e+00 -3.485806e+00 6.709980e+01 2.177219e-02 9.419863e-03 -4.962001e-05 -1.868115e-03 -2.551962e-02 1.144494e-02 -2.205027e-03 -1.375800e-02 7.695395e-03 9.710538e-03 -3.934168e-03 -5.257239e-03 7.738235e-03 -2.835243e-03 1.150778e-04 8.217010e-04 -5.014488e-05 2.379524e-03 1.307115e-03 -3.093782e-04 2.173571e-04 -9.462439e-04 7.373559e-04 2.465111e-03 -1.662965e-04 -1.548720e-03
<VARIANCE> 39
 7.846209e+01 7.909569e+01 7.166405e+01 1.071011e+02 1.082718e+02 8.490556e+01 1.112677e+02 8.457906e+01 6.361697e+01 6.207079e+01 6.016843e+01 4.210498e+01 1.970378e+02 3.314997e+00 3.261339e+00 3.028975e+00 3.600380e+00 4.157602e+00 3.913817e+00 3.357642e+00 3.801709e+00 3.425514e+00 2.975112e+00 3.129380e+00 2.459516e+00 3.546858e+00 5.300390e-01 5.530158e-01 4.805360e-01 6.286908e-01 7.282960e-01 6.815180e-01 6.005335e-01 6.884097e-01 6.182591e-01 5.583385e-01 5.657219e-01 4.671456e-01 5.505381e-01
<GCONST> 1.377691e+02
<STATE> 3
<MEAN> 39
 -2.034416e+00 -5.420771e+00 -4.245222e+00 -5.123979e+00 -6.908373e+00 -4.119943e+00 -6.523055e+00 -4.096432e+00 -3.786570e+00 -4.795863e+00 -4.173302e+00 -3.494566e+00 6.711314e+01 1.750981e-02 7.934724e-03 7.038399e-04 -3.767931e-03 -1.968828e-02 1.339860e-02 -4.085017e-03 -1.213133e-02 4.423018e-03 8.019762e-03 3.860791e-04 -4.513797e-03 7.312504e-03 -1.929827e-03 -8.084057e-04 1.277061e-04 -7.581875e-04 3.121314e-03 6.874322e-04 -5.442702e-04 8.913921e-04 -1.907430e-03 -9.692402e-04 2.227091e-03 5.762234e-04 1.209008e-04
<VARIANCE> 39
 7.837287e+01 7.952384e+01 7.165540e+01 1.073842e+02 1.086837e+02 8.516474e+01 1.118405e+02 8.480018e+01 6.380628e+01 6.207013e+01 5.990085e+01 4.218900e+01 1.966539e+02 3.303785e+00 3.259016e+00 3.013688e+00 3.591067e+00 4.164701e+00 3.943142e+00 3.365224e+00 3.816231e+00 3.426127e+00 2.979345e+00 3.129807e+00 2.457422e+00 3.516139e+00 5.289623e-01 5.506612e-01 4.783316e-01 6.262247e-01 7.305541e-01 6.866512e-01 6.016675e-01 6.915244e-01 6.183972e-01 5.576608e-01 5.662936e-01 4.673342e-01 5.474888e-01
<GCONST> 1.377818e+02
<STATE> 4
<MEAN> 39
 -2.090256e+00 -5.280575e+00 -4.275246e+00 -4.928074e+00 -6.560370e+00 -4.151936e+00 -6.120920e+00 -3.877496e+00 -3.742616e+00 -4.724750e+00 -4.126429e+00 -3.348915e+00 6.697316e+01 1.407320e-02 6.101175e-03 2.012899e-04 -6.916709e-03 -1.113650e-02 1.168536e-02 -4.428725e-03 -7.260445e-03 -3.699947e-05 3.769004e-03 2.979320e-03 -2.448207e-03 8.561795e-03 -1.028656e-03 -3.881935e-04 -1.440026e-04 -6.428483e-04 2.748149e-03 -5.630939e-04 -9.290874e-05 8.821535e-04 -1.586836e-03 -1.315398e-03 1.053351e-03 5.898407e-04 4.946603e-04
<VARIANCE> 39
 7.678517e+01 7.867986e+01 7.169865e+01 1.055618e+02 1.057655e+02 8.455050e+01 1.060125e+02 8.386529e+01 6.306656e+01 6.072970e+01 5.896404e+01 4.157396e+01 2.017227e+02 3.164825e+00 3.135843e+00 2.923847e+00 3.493938e+00 4.026893e+00 3.872152e+00 3.287177e+00 3.711120e+00 3.347987e+00 2.910841e+00 3.046204e+00 2.383454e+00 3.367111e+00 5.018257e-01 5.268128e-01 4.614324e-01 6.056396e-01 7.058584e-01 6.700454e-01 5.863212e-01 6.706972e-01 6.030010e-01 5.413831e-01 5.496109e-01 4.522691e-01 5.177786e-01
<GCONST> 1.367519e+02
<TRANSP> 5
 0.000000e+00 1.000000e+00 0.000000e+00 0.000000e+00 0.000000e+00
 0.000000e+00 5.995401e-01 4.004599e-01 0.000000e+00 0.000000e+00
 0.000000e+00 0.000000e+00 5.995420e-01 4.004581e-01 0.000000e+00
 0.000000e+00 0.000000e+00 0.000000e+00 7.117539e-01 2.882461e-01
 0.000000e+00 0.000000e+00 0.000000e+00 0.000000e+00 0.000000e+00
<ENDHMM>
~h "q"
<BEGINHMM>
<NUMSTATES> 5
<STATE> 2
<MEAN> 39
 -4.744956e+00 -7.161541e+00 -3.920221e+00 -3.640384e+00 -5.193427e+00 -2.511596e+00 -3.702624e+00 -6.004219e-01 -6.154830e+00 -5.053392e+00 -4.109270e+00 -1.700737e+00 6.028865e+01 3.313537e-02 1.024032e-02 2.390206e-02 4.336511e-02 -5.526553e-03 -5.755179e-02 -2.474012e-02 -1.765426e-02 -1.677730e-02 -9.252071e-03 -1.259609e-02 1.951905e-03 1.874110e-02 -5.301427e-03 1.825569e-03 7.138521e-04 3.063039e-03 3.668802e-03 -2.744687e-03 -2.882931e-03 -1.655411e-03 2.150520e-03 1.820837e-03 -6.319608e-04 -1.477655e-04 -3.861805e-03
<VARIANCE> 39
 5.512410e+01 8.422736e+01 6.093430e+01 8.617453e+01 7.149224e+01 4.617267e+01 6.637461e+01 4.916640e+01 4.414869e+01 4.053082e+01 3.639984e+01 2.557776e+01 1.190453e+02 1.955718e+00 2.474866e+00 2.153735e+00 2.979238e+00 2.712050e+00 2.680099e+00 2.726828e+00 2.952669e+00 2.946321e+00 2.199736e+00 2.462009e+00 1.798699e+00 2.425673e+00 3.162221e-01 4.176274e-01 3.825225e-01 4.974870e-01 4.833794e-01 4.735031e-01 4.514782e-01 5.294957e-01 5.118040e-01 4.260164e-01 4.719462e-01 3.630344e-01 3.513918e-01
<GCONST> 1.248103e+02
<STATE> 3
<MEAN> 39
 -4.652241e+00 -7.122478e+00 -3.830848e+00 -3.528990e+00 -5.206867e+00 -2.694403e+00 -3.797052e+00 -6.639545e-01 -6.198245e+00 -5.071188e+00 -4.146122e+00 -1.694535e+00 6.034644e+01 1.678642e-02 1.294867e-02 2.178437e-02 4.843664e-02 3.262695e-03 -5.948781e-02 -2.852284e-02 -2.259767e-02 -9.930031e-03 -3.384598e-04 -9.845478e-03 1.954689e-03 7.022921e-03 -6.049410e-03 2.257825e-04 -4.626875e-04 4.465234e-04 3.283129e-03 4.470788e-04 -2.039400e-03 -3.910094e-03 4.101620e-05 2.410519e-03 5.745970e-04 -7.668968e-04 -3.938949e-03
<VARIANCE> 39
 5.624207e+01 8.498551e+01 6.198028e+01 8.286189e+01 7.236701e+01 4.623290e+01 6.563629e+01 4.929824e+01 4.340538e+01 3.985839e+01 3.635210e+01 2.529569e+01 1.187468e+02 1.973406e+00 2.518833e+00 2.173505e+00 2.951581e+00 2.747563e+00 2.639735e+00 2.720662e+00 2.983344e+00 2.962437e+00 2.186016e+00 2.462174e+00 1.794591e+00 2.445867e+00 3.188579e-01 4.257470e-01 3.829596e-01 4.921502e-01 4.889587e-01 4.668214e-01 4.528051e-01 5.336915e-01 5.178164e-01 4.226687e-01 4.712839e-01 3.626058e-01 3.531555e-01
<GCONST> 1.248433e+02
<STATE> 4
<MEAN> 39
 -4.677919e+00 -6.529655e+00 -3.579840e+00 -3.240839e+00 -4.995095e+00 -2.959503e+00 -4.257898e+00 -7.826564e-01 -6.063414e+00 -4.866873e+00 -3.994542e+00 -1.583243e+00 6.010853e+01 2.264029e-03 8.756681e-03 1.892870e-02 4.026667e-02 8.190393e-03 -5.415860e-02 -2.836273e-02 -3.201193e-02 -9.375456e-03 1.323819e-02 -2.663876e-03 -2.497036e-04 1.893847e-03 -4.070004e-03 -1.665355e-03 -1.504102e-03 -2.137304e-03 1.904880e-03 2.711043e-03 -2.273197e-04 -4.861835e-03 -2.518600e-03 2.726985e-03 1.275274e-03 -1.752973e-03 -2.002507e-03
<VARIANCE> 39
 5.562306e+01 8.253297e+01 6.451407e+01 7.542599e+01 7.088332e+01 4.610829e+01 6.432817e+01 4.833506e+01 4.203311e+01 3.715229e+01 3.614705e+01 2.520669e+01 1.220767e+02 1.940612e+00 2.529183e+00 2.256247e+00 2.830442e+00 2.713054e+00 2.546702e+00 2.734473e+00 3.008765e+00 2.974759e+00 2.122200e+00 2.386869e+00 1.807407e+00 2.457698e+00 3.188533e-01 4.272611e-01 3.931857e-01 4.740708e-01 4.833389e-01 4.577337e-01 4.593668e-01 5.352218e-01 5.291823e-01 4.097066e-01 4.573136e-01 3.648597e-01 3.537746e-01
<GCONST> 1.244520e+02
<TRANSP> 5
 0.000000e+00 1.000000e+00 0.000000e+00 0.000000e+00 0.000000e+00
 0.000000e+00 6.587976e-01 3.412024e-01 0.000000e+00 0.000000e+00
 0.000000e+00 0.000000e+00 6.587979e-01 3.412021e-01 0.000000e+00
 0.000000e+00 0.000000e+00 0.000000e+00 7.773969e-01 2.226031e-01
 0.000000e+00 0.000000e+00 0.000000e+00 0.000000e+00 0.000000e+00
<ENDHMM>
~h "r"
<BEGINHMM>
<NUMSTATES> 5
<STATE> 2
<MEAN> 39
 -2.013495e+00 -6.021064e+00 -4.209903e+00 -4.146568e+00 -6.839956e+00 -4.177690e+00 -6.692176e+00 -3.711571e+00 -4.215476e+00 -4.921735e+00 -3.799072e+00 -3.308251e+00 6.880434e+01 -1.032761e-03 1.494515e-03 1.664072e-02 7.875582e-04 -8.292777e-03 3.526253e-03 -1.616537e-02 -1.431787e-03 -6.190474e-03 -3.987249e-03 8.112734e-03 1.915349e-03 -6.805229e-03 -9.575746e-04 1.285704e-03 2.990472e-04 -2.873869e-04 -2.563092e-04 2.762508e-04 1.432122e-04 2.355425e-04 8.946455e-04 4.350031e-04 -5.278643e-04 5.577487e-06 -1.733249e-03
<VARIANCE> 39
 7.865804e+01 7.863332e+01 7.043648e+01 1.055540e+02 1.019052e+02 8.720763e+01 1.067054e+02 8.295538e+01 6.830842e+01 5.767803e+01 5.713102e+01 4.046592e+01 1.945208e+02 3.135051e+00 3.100463e+00 2.731705e+00 3.157395e+00 3.785690e+00 3.567206e+00 3.122398e+00 3.722212e+00 3.377311e+00 2.816017e+00 2.936351e+00 2.264789e+00 2.900613e+00 4.790995e-01 5.157802e-01 4.311045e-01 5.474904e-01 6.587117e-01 6.142107e-01 5.595270e-01 6.659352e-01 6.092574e-01 5.265142e-01 5.332938e-01 4.245693e-01 4.453001e-01
<GCONST> 1.353286e+02
<STATE> 3
<MEAN> 39
 -2.015358e+00 -6.017167e+00 -4.171265e+00 -4.147491e+00 -6.861866e+00 -4.172931e+00 -6.728652e+00 -3.712114e+00 -4.225774e+00 -4.932277e+00 -3.783208e+00 -3.303720e+00 6.878726e+01 -1.515649e-03 4.119027e-03 1.643269e-02 1.654584e-04 -9.311103e-03 3.148635e-03 -1.572864e-02 -1.410423e-03 -5.169025e-03 -4.117042e-03 6.419723e-03 1.983976e-03 -9.389012e-03 -4.306863e-04 1.167762e-03 3.296155e-04 -2.265290e-05 -2.422054e-04 -2.583509e-04 7.808435e-04 -1.991189e-04 6.034563e-04 1.912804e-04 -7.002754e-04 1.077384e-04 -1.066586e-03
<VARIANCE> 39
 7.877155e+01 7.854323e+01 7.080511e+01 1.055115e+02 1.018826e+02 8.728328e+01 1.068961e+02 8.306899e+01 6.810821e+01 5.782972e+01 5.707159e+01 4.055344e+01 1.942380e+02 3.114430e+00 3.090338e+00 2.729286e+00 3.165178e+00 3.797785e+00 3.557721e+00 3.124336e+00 3.715041e+00 3.365483e+00 2.820163e+00 2.925221e+00 2.258662e+00 2.873996e+00 4.764687e-01 5.145691e-01 4.299674e-01 5.485092e-01 6.602352e-01 6.125748e-01 5.591565e-01 6.640972e-01 6.065194e-01 5.266339e-01 5.313264e-01 4.229353e-01 4.416213e-01
<GCONST> 1.352775e+02
<STATE> 4
<MEAN> 39
 -2.082251e+00 -5.856150e+00 -4.151412e+00 -3.968332e+00 -6.550386e+00 -4.218036e+00 -6.384722e+00 -3.448472e+00 -4.192530e+00 -4.876610e+00 -3.726706e+00 -3.162983e+00 6.865594e+01 -2.079502e-03 5.126448e-03 1.605893e-02 6.453302e-04 -9.657963e-03 1.903738e-03 -1.228462e-02 -6.616858e-04 -4.980614e-03 -5.047719e-03 4.439254e-03 2.311473e-03 -1.071162e-02 -5.274137e-04 7.786909e-04 6.736076e-04 3.637468e-04 -7.946801e-05 -2.670796e-04 1.206925e-03 -2.480350e-04 8.691550e-05 -4.872883e-05 -5.631293e-04 1.254336e-05 -8.037511e-04
<VARIANCE> 39
 7.641675e+01 7.607890e+01 7.155328e+01 1.034927e+02 9.935646e+01 8.624867e+01 1.006192e+02 8.176436e+01 6.686799e+01 5.658713e+01 5.635422e+01 3.989354e+01 2.001756e+02 2.966306e+00 2.969053e+00 2.669981e+00 3.095816e+00 3.676857e+00 3.485049e+00 3.060137e+00 3.589292e+00 3.284840e+00 2.768527e+00 2.843561e+00 2.198035e+00 2.762312e+00 4.526912e-01 4.929481e-01 4.191474e-01 5.348049e-01 6.375549e-01 5.986983e-01 5.460553e-01 6.404189e-01 5.907366e-01 5.155609e-01 5.153846e-01 4.104156e-01 4.198010e-01
<GCONST> 1.342534e+02
<TRANSP> 5
 0.000000e+00 1.000000e+00 0.000000e+00 0.000000e+00 0.000000e+00
 0.000000e+00 5.997944e-01 4.002056e-01 0.000000e+00 0.000000e+00
 0.000000e+00 0.000000e+00 5.997995e-01 4.002005e-01 0.000000e+00
 0.000000e+00 0.000000e+00 0.000000e+00 7.118107e-01 2.881893e-01
 0.000000e+00 0.000000e+00 0.000000e+00 0.000000e+00 0.000000e+00
<ENDHMM>
~h "s"
<BEGINHMM>
<NUMSTATES> 5
<STATE> 2
<MEAN> 39
 -3.643949e+00 -5.241985e+00 -2.921716e+00 -4.064132e+00 -6.031486e+00 -4.769444e+00 -5.648292e+00 -3.366181e+00 -4.332465e+00 -4.867307e+00 -3.895061e+00 -2.929180e+00 6.733318e+01 1.398139e-02 1.026715e-03 1.164503e-02 9.889174e-03 -1.827630e-02 7.959208e-03 -6.771829e-03 -1.497933e-02 -8.902029e-03 -5.863500e-03 3.437782e-04 -5.338100e-03 -1.566259e-03 1.874443e-03 -9.245414e-05 -3.464720e-04 -5.608501e-04 -1.828247e-03 7.177080e-04 -8.074768e-04 -6.054671e-04 1.153828e-03 -1.212105e-05 5.612540e-05 1.078332e-04 -2.390186e-03
<VARIANCE> 39
 8.843382e+01 8.219435e+01 7.650719e+01 1.145230e+02 1.143428e+02 9.070837e+01 9.545496e+01 8.171014e+01 6.761760e+01 5.831535e+01 5.771351e+01 4.135831e+01 1.873260e+02 3.985608e+00 3.329871e+00 3.009155e+00 3.211236e+00 4.005077e+00 3.668001e+00 3.211175e+00 3.645416e+00 3.292785e+00 2.822401e+00 2.938791e+00 2.258707e+00 2.525937e+00 5.811495e-01 5.406460e-01 4.583116e-01 5.427089e-01 6.746152e-01 6.208387e-01 5.667194e-01 6.417249e-01 5.866092e-01 5.189022e-01 5.313066e-01 4.148160e-01 3.791310e-01
<GCONST> 1.360932e+02
<STATE> 3
<MEAN> 39
 -3.615443e+00 -5.244882e+00 -2.895397e+00 -4.041675e+00 -6.074255e+00 -4.750931e+00 -5.660320e+00 -3.394635e+00 -4.354626e+00 -4.878831e+00 -3.889688e+00 -2.937385e+00 6.732764e+01 1.652748e-02 4.660779e-04 8.750220e-03 8.159237e-03 -1.971086e-02 7.761509e-03 -8.472584e-03 -1.367793e-02 -7.158717e-03 -4.449268e-03 1.548338e-03 -4.979974e-03 -4.560359e-03 1.190665e-03 -7.684666e-04 -1.774220e-03 -7.898827e-04 -3.046010e-04 -2.742553e-05 -9.020298e-04 7.417583e-04 9.301592e-04 8.156615e-04 5.588825e-04 -3.516549e-05 -1.198033e-03
<VARIANCE> 39
 8.778654e+01 8.253183e+01 7.648461e+01 1.148857e+02 1.141025e+02 9.050360e+01 9.570961e+01 8.162765e+01 6.755653e+01 5.824926e+01 5.770803e+01 4.131697e+01 1.875775e+02 3.959245e+00 3.331582e+00 3.002153e+00 3.208152e+00 4.002356e+00 3.658798e+00 3.206595e+00 3.633044e+00 3.289108e+00 2.815611e+00 2.936040e+00 2.257525e+00 2.525455e+00 5.789279e-01 5.403581e-01 4.580735e-01 5.421060e-01 6.754500e-01 6.198748e-01 5.658937e-01 6.382481e-01 5.868866e-01 5.176514e-01 5.310459e-01 4.148759e-01 3.798654e-01
<GCONST> 1.360521e+02
<STATE> 4
<MEAN> 39
 -3.547611e+00 -5.174648e+00 -2.988767e+00 -3.877847e+00 -5.836671e+00 -4.686172e+00 -5.449809e+00 -3.214037e+00 -4.310467e+00 -4.828910e+00 -3.843337e+00 -2.844893e+00 6.714452e+01 1.455436e-02 -1.224081e-03 2.194862e-03 7.862062e-03 -1.558574e-02 4.656324e-03 -8.698456e-03 -8.909931e-03 -7.630218e-03 -1.119743e-03 3.665046e-03 -4.057904e-03 -5.666314e-03 4.665990e-04 -9.415753e-04 -2.251114e-03 -2.631363e-04 7.316392e-04 -5.763154e-04 -6.071227e-04 1.152065e-03 3.826572e-04 9.633863e-04 6.025708e-04 1.680758e-05 -7.236189e-04
<VARIANCE> 39
 8.386407e+01 8.093662e+01 7.668027e+01 1.123416e+02 1.102723e+02 8.868538e+01 9.086858e+01 8.049108e+01 6.623005e+01 5.687850e+01 5.698330e+01 4.057529e+01 1.934344e+02 3.747066e+00 3.197165e+00 2.920730e+00 3.132430e+00 3.853006e+00 3.579802e+00 3.126498e+00 3.515126e+00 3.209490e+00 2.750963e+00 2.858114e+00 2.195940e+00 2.469505e+00 5.475520e-01 5.167255e-01 4.448502e-01 5.292274e-01 6.519259e-01 6.066528e-01 5.509698e-01 6.172836e-01 5.728073e-01 5.055485e-01 5.158579e-01 4.037828e-01 3.668547e-01
<GCONST> 1.350027e+02
<TRANSP> 5
 0.000000e+00 1.000000e+00 0.000000e+00 0.000000e+00 0.000000e+00
 0.000000e+00 6.115566e-01 3.884435e-01 0.000000e+00 0.000000e+00
 0.000000e+00 0.000000e+00 6.115537e-01 3.884462e-01 0.000000e+00
 0.000000e+00 0.000000e+00 0.000000e+00 7.258568e-01 2.741431e-01
 0.000000e+00 0.000000e+00 0.000000e+00 0.000000e+00 0.000000e+00
<ENDHMM>
~h "t"
<BEGINHMM>
<NUMSTATES> 5
<STATE> 2
<MEAN> 39
 -2.604042e+00 -5.601824e+00 -3.997667e+00 -4.521550e+00 -6.645807e+00 -4.552134e+00 -6.166178e+00 -3.499817e+00 -4.509885e+00 -4.958850e+00 -4.115338e+00 -3.103843e+00 6.673355e+01 8.764461e-03 -6.818557e-03 4.993623e-03 2.783737e-03 -5.606171e-03 6.938915e-04 -5.820982e-03 -5.256019e-03 -5.434015e-03 -7.180277e-03 -1.591244e-03 -4.320152e-03 7.311572e-03 -4.525096e-04 -7.519865e-04 1.200027e-03 7.821947e-04 7.226118e-04 -1.114020e-03 -3.463472e-06 4.087398e-04 -3.944463e-04 3.659045e-04 4.683623e-04 -5.267886e-04 -5.864710e-04
<VARIANCE> 39
 7.272396e+01 7.759149e+01 6.713262e+01 1.120366e+02 9.949493e+01 8.019894e+01 9.475439e+01 7.988854e+01 6.135259e+01 5.869276e+01 5.555688e+01 3.841503e+01 1.905187e+02 3.095637e+00 3.099308e+00 2.717888e+00 3.312246e+00 3.767226e+00 3.580858e+00 3.134395e+00 3.531919e+00 3.288289e+00 2.782597e+00 2.910086e+00 2.209001e+00 3.190187e+00 4.946069e-01 5.192382e-01 4.385239e-01 5.703354e-01 6.615787e-01 6.238970e-01 5.662321e-01 6.404971e-01 5.998465e-01 5.232460e-01 5.322489e-01 4.148046e-01 4.950823e-01
<GCONST> 1.349445e+02
<STATE> 3
<MEAN> 39
 -2.587606e+00 -5.620515e+00 -3.988284e+00 -4.516242e+00 -6.654712e+00 -4.556247e+00 -6.176349e+00 -3.515030e+00 -4.521710e+00 -4.970932e+00 -4.117212e+00 -3.113685e+00 6.675038e+01 7.773295e-03 -8.773742e-03 7.387037e-03 4.905534e-03 -4.247288e-03 -1.594854e-03 -5.426713e-03 -4.883996e-03 -6.171844e-03 -6.687431e-03 -6.582384e-04 -4.654591e-03 6.027501e-03 -9.072081e-04 -7.552613e-04 7.783938e-04 7.162912e-04 9.421611e-04 -9.873246e-04 4.946224e-04 3.407028e-04 -5.133722e-04 1.360661e-04 2.524168e-04 1.031567e-04 -9.407952e-04
<VARIANCE> 39
 7.261837e+01 7.767094e+01 6.724540e+01 1.117999e+02 9.963390e+01 8.007507e+01 9.504245e+01 7.980866e+01 6.168280e+01 5.871852e+01 5.554757e+01 3.851531e+01 1.905470e+02 3.084533e+00 3.088420e+00 2.711179e+00 3.305235e+00 3.754207e+00 3.564155e+00 3.126935e+00 3.528489e+00 3.283768e+00 2.778630e+00 2.902421e+00 2.209234e+00 3.165020e+00 4.913243e-01 5.163660e-01 4.367346e-01 5.690138e-01 6.591024e-01 6.214141e-01 5.640110e-01 6.392563e-01 5.992920e-01 5.233816e-01 5.311971e-01 4.148800e-01 4.904418e-01
<GCONST> 1.348734e+02
<STATE> 4
<MEAN> 39
 -2.628678e+00 -5.547266e+00 -4.063617e+00 -4.296137e+00 -6.321753e+00 -4.571434e+00 -5.896783e+00 -3.263306e+00 -4.479258e+00 -4.905098e+00 -4.067312e+00 -2.973102e+00 6.656475e+01 5.157073e-03 -9.517241e-03 7.151430e-03 5.705764e-03 -2.039023e-03 -3.784083e-03 -3.516857e-03 -4.523995e-03 -5.878309e-03 -6.179311e-03 -5.771552e-05 -2.625881e-03 4.796518e-03 -9.756230e-04 -4.727150e-04 2.681937e-04 2.909946e-04 5.998868e-04 -2.724872e-04 5.089768e-04 4.194380e-04 -8.910344e-05 -1.778220e-04 1.436779e-04 6.243004e-04 -6.846774e-04
<VARIANCE> 39
 7.038743e+01 7.566586e+01 6.770342e+01 1.089740e+02 9.719425e+01 7.854605e+01 8.960689e+01 7.834185e+01 6.113700e+01 5.740708e+01 5.459653e+01 3.811187e+01 1.953249e+02 2.941418e+00 2.960729e+00 2.630059e+00 3.229063e+00 3.610693e+00 3.470557e+00 3.044314e+00 3.422017e+00 3.202848e+00 2.713244e+00 2.820346e+00 2.154151e+00 3.029263e+00 4.650056e-01 4.926911e-01 4.211454e-01 5.540642e-01 6.320695e-01 6.039326e-01 5.471903e-01 6.180985e-01 5.832751e-01 5.109360e-01 5.153782e-01 4.032619e-01 4.641780e-01
<GCONST> 1.337641e+02
<TRANSP> 5
 0.000000e+00 1.000000e+00 0.000000e+00 0.000000e+00 0.000000e+00
 0.000000e+00 6.091838e-01 3.908162e-01 0.000000e+00 0.000000e+00
 0.000000e+00 0.000000e+00 6.091837e-01 3.908163e-01 0.000000e+00
 0.000000e+00 0.000000e+00 0.000000e+00 7.230724e-01 2.769276e-01
 0.000000e+00 0.000000e+00 0.000000e+00 0.000000e+00 0.000000e+00
<ENDHMM>
~h "u"
<BEGINHMM>
<NUMSTATES> 5
<STATE> 2
<MEAN> 39
 -1.855940e+00 -4.753574e+00 -3.792043e+00 -5.277618e+00 -6.677999e+00 -4.315069e+00 -7.360258e+00 -3.757688e+00 -4.427061e+00 -5.349898e+00 -3.947398e+00 -3.381336e+00 6.621381e+01 5.553769e-04 -1.211849e-02 1.207629e-03 4.357297e-03 9.652992e-04 -2.376531e-03 -1.081071e-03 1.244754e-02 1.121122e-02 8.267069e-03 -1.234586e-02 -4.637005e-03 5.835268e-03 -3.734015e-03 -8.412420e-04 1.230859e-03 6.724154e-04 8.749987e-04 -3.834214e-04 1.848703e-03 1.343458e-03 6.312516e-04 8.848964e-04 1.021277e-03 1.022873e-03 -1.336074e-03
<VARIANCE> 39
 8.000709e+01 8.435982e+01 6.704476e+01 1.155257e+02 1.115613e+02 8.515860e+01 1.084866e+02 9.214356e+01 6.178862e+01 6.276370e+01 5.868640e+01 4.115881e+01 1.742286e+02 3.261425e+00 3.063346e+00 2.780366e+00 3.612580e+00 4.196829e+00 3.871959e+00 3.304186e+00 3.910287e+00 3.422924e+00 3.048901e+00 3.080862e+00 2.336086e+00 2.842355e+00 5.005029e-01 5.007579e-01 4.448826e-01 6.230889e-01 7.278789e-01 6.755840e-01 5.966905e-01 7.025193e-01 6.198719e-01 5.584666e-01 5.562249e-01 4.384800e-01 4.352084e-01
<GCONST> 1.368008e+02
<STATE> 3
<MEAN> 39
 -1.859770e+00 -4.779304e+00 -3.786379e+00 -5.259100e+00 -6.677806e+00 -4.318241e+00 -7.357317e+00 -3.731257e+00 -4.397754e+00 -5.333953e+00 -3.973163e+00 -3.387383e+00 6.622102e+01 -6.821968e-03 -1.400145e-02 3.347173e-03 6.192141e-03 2.038940e-03 -1.487831e-03 3.449885e-03 1.514672e-02 1.205129e-02 9.984790e-03 -9.462828e-03 -1.666388e-03 1.124510e-03 -3.296980e-03 -6.236450e-04 8.754598e-04 6.221830e-04 7.085032e-04 4.795481e-04 1.780791e-03 1.276174e-03 1.811574e-04 6.521545e-04 1.595758e-03 1.122124e-03 -2.623904e-03
<VARIANCE> 39
 7.986147e+01 8.429559e+01 6.691551e+01 1.152357e+02 1.114160e+02 8.501188e+01 1.085152e+02 9.183399e+01 6.157583e+01 6.267876e+01 5.877958e+01 4.134557e+01 1.744441e+02 3.254300e+00 3.057629e+00 2.777006e+00 3.599701e+00 4.193243e+00 3.865457e+00 3.292365e+00 3.906096e+00 3.397191e+00 3.036728e+00 3.075147e+00 2.330008e+00 2.831052e+00 4.991935e-01 4.994503e-01 4.445315e-01 6.196717e-01 7.270596e-01 6.748381e-01 5.945396e-01 7.009674e-01 6.150538e-01 5.564772e-01 5.547746e-01 4.365529e-01 4.331872e-01
<GCONST> 1.367116e+02
<STATE> 4
<MEAN> 39
 -1.976473e+00 -4.662923e+00 -3.867383e+00 -5.028850e+00 -6.219862e+00 -4.422932e+00 -6.940408e+00 -3.384471e+00 -4.330773e+00 -5.194082e+00 -3.961113e+00 -3.240142e+00 6.594283e+01 -1.206608e-02 -1.401542e-02 3.549109e-03 8.027615e-03 3.272609e-03 1.716596e-03 7.017470e-03 1.657257e-02 1.066181e-02 9.637971e-03 -5.488856e-03 1.692745e-03 -5.552870e-03 -2.881543e-03 -2.178659e-04 3.019945e-04 6.354744e-04 1.147748e-03 9.129872e-04 1.241487e-03 1.249934e-03 -2.086938e-04 3.210059e-04 1.368942e-03 9.864436e-04 -2.928056e-03
<VARIANCE> 39
 7.810859e+01 8.229156e+01 6.741988e+01 1.122394e+02 1.077264e+02 8.272068e+01 1.019509e+02 8.937894e+01 6.055530e+01 6.079918e+01 5.816588e+01 4.084917e+01 1.789965e+02 3.128604e+00 2.941381e+00 2.697984e+00 3.486701e+00 4.027108e+00 3.756858e+00 3.206031e+00 3.761235e+00 3.287188e+00 2.943996e+00 2.985053e+00 2.258804e+00 2.726740e+00 4.773542e-01 4.788496e-01 4.300228e-01 5.971401e-01 6.984519e-01 6.548497e-01 5.772241e-01 6.733915e-01 5.939746e-01 5.397741e-01 5.373074e-01 4.214329e-01 4.117348e-01
<GCONST> 1.355372e+02
<TRANSP> 5
 0.000000e+00 1.000000e+00 0.000000e+00 0.000000e+00 0.000000e+00
 0.000000e+00 6.067541e-01 3.932459e-01 0.000000e+00 0.000000e+00
 0.000000e+00 0.000000e+00 6.067562e-01 3.932438e-01 0.000000e+00
 0.000000e+00 0.000000e+00 0.000000e+00 7.214675e-01 2.785325e-01
 0.000000e+00 0.000000e+00 0.000000e+00 0.000000e+00 0.000000e+00
<ENDHMM>
~h "v"
<BEGINHMM>
<NUMSTATES> 5
<STATE> 2
<MEAN> 39
 -3.778519e+00 -5.738727e+00 -3.562369e+00 -9.177250e+00 -4.817575e+00 -6.676596e+00 -9.371822e+00 -5.022852e+00 -2.447129e+00 -3.955474e+00 -2.655172e+00 -4.737563e+00 6.824380e+01 -3.093578e-03 -5.692462e-02 -1.513677e-02 -1.795952e-02 -9.839875e-02 -4.335685e-02 -3.146544e-02 -6.415526e-02 -9.153616e-02 -5.158587e-02 2.233097e-02 -4.920134e-03 -3.124445e-02 6.534990e-02 5.368875e-03 2.085191e-02 -1.439079e-03 -4.317508e-02 2.227039e-02 -1.135723e-02 8.503557e-07 -2.551612e-02 8.108037e-03 -8.967647e-03 -3.794969e-03 -6.910067e-03
<VARIANCE> 39
 1.130914e+02 7.542969e+01 9.038419e+01 7.815076e+01 1.097787e+02 7.371404e+01 1.312326e+02 1.368283e+02 3.867933e+01 6.457763e+01 5.265453e+01 3.468137e+01 9.241360e+01 5.281846e+00 2.979450e+00 2.834241e+00 3.034129e+00 4.638025e+00 3.285834e+00 4.246817e+00 5.598324e+00 2.828128e+00 2.628431e+00 3.205582e+00 2.073079e+00 2.697694e+00 7.792333e-01 5.577605e-01 4.295433e-01 5.406088e-01 7.762499e-01 6.080378e-01 8.261488e-01 9.474951e-01 5.265592e-01 4.998666e-01 5.781252e-01 3.659343e-01 4.800817e-01
<GCONST> 1.370267e+02
<STATE> 3
<MEAN> 39
 -3.673459e+00 -5.824468e+00 -3.548496e+00 -9.170373e+00 -5.094977e+00 -6.742355e+00 -9.476117e+00 -5.165900e+00 -2.686909e+00 -4.053657e+00 -2.650403e+00 -4.734723e+00 6.813615e+01 1.062411e-01 -3.885696e-02 1.882582e-02 3.078268e-03 -1.568835e-01 -9.518026e-04 -3.873692e-02 -8.790283e-02 -1.272116e-01 -3.830225e-02 3.107657e-03 -9.666767e-03 -4.088596e-02 5.505138e-02 8.283976e-03 1.683907e-02 1.334981e-02 -2.936084e-02 2.642723e-02 -1.414630e-03 -1.009043e-02 -1.411697e-02 2.963919e-03 -1.021819e-02 -3.736939e-03 -3.816655e-03
<VARIANCE> 39
 1.116484e+02 7.692852e+01 9.353049e+01 7.689068e+01 1.110210e+02 7.722205e+01 1.265006e+02 1.426237e+02 3.829819e+01 6.167360e+01 5.332750e+01 3.700650e+01 9.335423e+01 5.267794e+00 2.888429e+00 2.738543e+00 3.039306e+00 4.645515e+00 3.287218e+00 4.262983e+00 5.570396e+00 2.819791e+00 2.607837e+00 3.226151e+00 2.147262e+00 2.673562e+00 7.689931e-01 5.442659e-01 4.140699e-01 5.373756e-01 7.632997e-01 5.987941e-01 8.364038e-01 9.355695e-01 5.294961e-01 4.973544e-01 5.862536e-01 3.814465e-01 4.781277e-01
<GCONST> 1.370411e+02
<STATE> 4
<MEAN> 39
 -3.169488e+00 -5.565006e+00 -3.693322e+00 -8.478518e+00 -4.881514e+00 -6.482493e+00 -9.086338e+00 -4.668564e+00 -2.915081e+00 -4.043363e+00 -2.750246e+00 -4.455171e+00 6.683191e+01 1.461334e-01 -1.262745e-02 3.555200e-02 4.774750e-02 -1.749760e-01 2.962689e-02 -4.218506e-02 -1.123648e-01 -1.241128e-01 -3.144005e-02 -2.365401e-02 -4.299319e-03 -5.066272e-02 2.283112e-02 5.267449e-03 7.213582e-03 1.860371e-02 -1.737544e-02 1.575925e-02 -1.487097e-03 -8.576006e-03 -1.866619e-03 -2.754779e-05 -9.530222e-03 9.849067e-04 -2.534126e-03
<VARIANCE> 39
 9.965525e+01 7.419247e+01 9.353197e+01 7.759124e+01 1.062842e+02 7.825494e+01 1.143609e+02 1.482268e+02 3.770989e+01 5.718254e+01 5.276557e+01 3.999687e+01 1.018644e+02 4.873336e+00 2.609852e+00 2.625202e+00 2.935652e+00 4.452490e+00 3.101040e+00 4.119873e+00 5.262545e+00 2.791603e+00 2.586559e+00 3.155024e+00 2.169466e+00 2.524661e+00 6.957769e-01 4.914312e-01 3.937970e-01 5.213775e-01 7.154603e-01 5.502074e-01 8.090591e-01 8.672024e-01 5.220383e-01 4.949660e-01 5.772529e-01 3.893471e-01 4.455923e-01
<GCONST> 1.357100e+02
<TRANSP> 5
 0.000000e+00 1.000000e+00 0.000000e+00 0.000000e+00 0.000000e+00
 0.000000e+00 5.687121e-01 4.312880e-01 0.000000e+00 0.000000e+00
 0.000000e+00 0.000000e+00 5.687125e-01 4.312874e-01 0.000000e+00
 0.000000e+00 0.000000e+00 0.000000e+00 6.834391e-01 3.165609e-01
 0.000000e+00 0.000000e+00 0.000000e+00 0.000000e+00 0.000000e+00
<ENDHMM>
~h "w"
<BEGINHMM>
<NUMSTATES> 5
<STATE> 2
<MEAN> 39
 -2.266341e+00 -8.412145e+00 -5.365599e+00 -7.594597e+00 -9.025758e+00 -2.885553e+00 -9.155231e+00 -4.377548e+00 -4.348261e+00 -6.590198e+00 -4.544261e+00 -4.562928e+00 6.606448e+01 -2.245453e-03 5.030357e-03 -6.540535e-04 5.053698e-02 8.848942e-04 -2.937002e-02 -3.991728e-02 -1.756456e-02 2.613652e-02 3.973951e-02 8.331444e-03 2.733764e-02 1.168681e-02 -1.753111e-03 -5.849036e-04 4.213875e-03 -1.999045e-03 2.574761e-03 4.377974e-03 -1.035535e-02 -4.802857e-03 -8.140540e-03 2.173491e-03 7.202265e-03 3.772997e-03 5.533643e-04
<VARIANCE> 39
 6.757991e+01 7.929298e+01 5.610874e+01 1.016768e+02 9.329473e+01 8.178916e+01 1.073464e+02 7.818982e+01 5.218738e+01 5.236559e+01 5.661485e+01 3.886471e+01 1.673794e+02 2.626058e+00 3.078754e+00 2.338031e+00 3.748545e+00 3.808132e+00 3.376830e+00 3.168108e+00 4.222252e+00 3.231210e+00 2.840561e+00 2.943392e+00 2.341053e+00 2.969339e+00 3.941214e-01 4.897177e-01 3.801477e-01 6.065891e-01 6.578308e-01 5.795616e-01 5.977405e-01 7.706657e-01 6.097457e-01 5.399149e-01 5.410388e-01 4.492878e-01 4.098166e-01
<GCONST> 1.339922e+02
<STATE> 3
<MEAN> 39
 -2.283950e+00 -8.390385e+00 -5.365139e+00 -7.514236e+00 -9.015562e+00 -2.930714e+00 -9.236305e+00 -4.414697e+00 -4.328251e+00 -6.510503e+00 -4.499153e+00 -4.492804e+00 6.606216e+01 -2.232666e-03 1.856857e-03 2.452272e-03 4.082997e-02 5.567172e-03 -1.054419e-02 -4.273781e-02 -1.473191e-02 1.348908e-02 3.976496e-02 2.081398e-02 2.805115e-02 1.287842e-02 1.595970e-03 -2.317116e-03 9.776355e-04 -4.969478e-03 1.671520e-03 9.220390e-03 8.066189e-04 4.265449e-03 -4.926337e-03 -2.496072e-03 5.379150e-03 -3.125987e-03 2.172434e-03
<VARIANCE> 39
 6.746534e+01 7.898418e+01 5.582229e+01 1.003692e+02 9.340054e+01 8.220541e+01 1.084415e+02 7.796053e+01 5.219962e+01 5.238486e+01 5.652552e+01 3.903990e+01 1.688489e+02 2.625522e+00 3.087261e+00 2.348567e+00 3.688201e+00 3.807235e+00 3.379534e+00 3.148213e+00 4.177769e+00 3.213871e+00 2.863646e+00 2.970995e+00 2.355558e+00 2.914728e+00 3.920772e-01 4.895792e-01 3.803138e-01 6.068919e-01 6.612318e-01 5.694956e-01 5.801267e-01 7.561131e-01 6.067578e-01 5.424008e-01 5.435041e-01 4.509991e-01 4.108346e-01
<GCONST> 1.339131e+02
<STATE> 4
<MEAN> 39
 -2.384667e+00 -8.150311e+00 -5.479239e+00 -7.146953e+00 -8.411200e+00 -3.120337e+00 -8.839285e+00 -3.997007e+00 -4.320056e+00 -6.373920e+00 -4.392271e+00 -4.141835e+00 6.570169e+01 -2.450978e-03 1.783170e-04 1.991302e-03 2.415701e-02 1.014355e-02 5.762691e-03 -2.540402e-02 1.403366e-03 7.445713e-03 2.705349e-02 2.319694e-02 1.367573e-02 1.155320e-02 -1.632826e-04 -1.582849e-03 2.475685e-04 -3.561921e-03 1.640456e-03 5.416544e-03 4.164164e-03 5.890864e-03 -7.643113e-04 -4.617386e-03 2.771388e-04 -6.670472e-03 1.838348e-03
<VARIANCE> 39
 6.653441e+01 7.730116e+01 5.622172e+01 9.626357e+01 9.265897e+01 7.974171e+01 1.042968e+02 7.570061e+01 5.085207e+01 5.185765e+01 5.622858e+01 3.919940e+01 1.727347e+02 2.554453e+00 2.983541e+00 2.338588e+00 3.556022e+00 3.697717e+00 3.274122e+00 3.089693e+00 3.937240e+00 3.112428e+00 2.823906e+00 2.897548e+00 2.254357e+00 2.854786e+00 3.759289e-01 4.737798e-01 3.768736e-01 5.894509e-01 6.476821e-01 5.512424e-01 5.615869e-01 7.126631e-01 5.857837e-01 5.340822e-01 5.301126e-01 4.311186e-01 3.987600e-01
<GCONST> 1.329359e+02
<TRANSP> 5
 0.000000e+00 1.000000e+00 0.000000e+00 0.000000e+00 0.000000e+00
 0.000000e+00 5.955681e-01 4.044320e-01 0.000000e+00 0.000000e+00
 0.000000e+00 0.000000e+00 5.955686e-01 4.044314e-01 0.000000e+00
 0.000000e+00 0.000000e+00 0.000000e+00 7.080006e-01 2.919995e-01
 0.000000e+00 0.000000e+00 0.000000e+00 0.000000e+00 0.000000e+00
<ENDHMM>
~h "y"
<BEGINHMM>
<NUMSTATES> 5
<STATE> 2
<MEAN> 39
 -2.043542e+00 -4.799865e+00 -2.713881e+00 -4.544350e+00 -6.322346e+00 -5.948814e+00 -5.069557e+00 -3.650538e+00 -4.517526e+00 -5.097206e+00 -4.269912e+00 -3.466766e+00 6.723991e+01 9.277596e-03 3.835117e-02 -2.404313e-04 -3.554358e-02 5.821701e-04 1.591986e-02 2.065391e-02 -3.503344e-03 2.148833e-02 -1.572223e-02 -6.358356e-02 -1.066831e-02 -2.734547e-04 -6.431405e-03 -2.756914e-03 2.423504e-03 1.997839e-03 -1.250903e-03 8.783622e-03 5.442148e-03 4.867083e-03 6.424575e-03 -3.211286e-03 -3.306318e-03 -2.082557e-03 -3.241539e-03
<VARIANCE> 39
 7.647668e+01 7.911926e+01 7.388069e+01 1.179859e+02 9.986869e+01 8.668370e+01 8.897330e+01 7.028687e+01 6.557777e+01 5.230568e+01 6.488097e+01 3.741791e+01 2.079775e+02 2.609556e+00 2.973229e+00 2.973857e+00 3.421474e+00 3.897165e+00 3.745780e+00 3.289225e+00 3.354603e+00 3.217092e+00 2.701786e+00 3.139226e+00 2.151712e+00 2.646948e+00 4.025059e-01 4.746922e-01 4.557730e-01 5.793259e-01 6.672286e-01 6.276401e-01 5.898885e-01 6.017255e-01 5.678864e-01 5.007604e-01 5.580345e-01 4.032253e-01 3.693169e-01
<GCONST> 1.343962e+02
<STATE> 3
<MEAN> 39
 -2.027663e+00 -4.734787e+00 -2.706043e+00 -4.626091e+00 -6.333397e+00 -5.882827e+00 -5.016824e+00 -3.655774e+00 -4.455661e+00 -5.159364e+00 -4.430535e+00 -3.511180e+00 6.725081e+01 4.910451e-03 2.343910e-02 -1.669842e-03 -2.958125e-02 -1.524769e-03 2.407062e-02 2.268405e-02 1.389455e-03 2.013379e-02 -2.455924e-02 -6.121109e-02 -1.635416e-02 2.365565e-03 -1.584268e-03 -5.768864e-03 -1.165487e-03 3.016037e-03 -1.446709e-03 2.699892e-03 2.277386e-04 1.116619e-03 -6.744653e-04 -2.887164e-03 2.188909e-03 -2.802676e-03 1.261450e-03
<VARIANCE> 39
 7.609339e+01 7.935854e+01 7.355502e+01 1.167627e+02 9.974840e+01 8.644871e+01 8.948434e+01 7.075605e+01 6.526456e+01 5.231791e+01 6.502334e+01 3.750293e+01 2.070105e+02 2.653525e+00 3.049564e+00 3.014586e+00 3.485213e+00 3.979829e+00 3.722846e+00 3.315740e+00 3.353419e+00 3.210128e+00 2.732429e+00 3.137047e+00 2.154994e+00 2.682840e+00 4.105566e-01 4.893435e-01 4.634997e-01 5.929480e-01 6.843815e-01 6.253396e-01 5.947143e-01 6.025472e-01 5.681483e-01 5.071096e-01 5.588076e-01 4.031877e-01 3.748454e-01
<GCONST> 1.346538e+02
<STATE> 4
<MEAN> 39
 -2.044241e+00 -4.599380e+00 -2.748071e+00 -4.500027e+00 -6.099554e+00 -5.734153e+00 -4.814277e+00 -3.500699e+00 -4.322872e+00 -5.197199e+00 -4.600124e+00 -3.529074e+00 6.726606e+01 1.058248e-02 7.281686e-03 -1.402731e-02 -1.933622e-02 -1.049222e-03 2.097416e-02 1.211431e-02 -2.660902e-03 4.291633e-03 -2.591282e-02 -3.817177e-02 -1.825931e-02 9.991059e-03 1.081365e-03 -3.554397e-03 -3.725557e-03 3.937487e-03 -3.980917e-04 -1.039393e-03 -2.570556e-03 -8.265658e-04 -3.685442e-03 -5.880716e-04 6.334946e-03 -1.013558e-03 1.354416e-03
<VARIANCE> 39
 7.466676e+01 7.768049e+01 7.284584e+01 1.157876e+02 9.764939e+01 8.534962e+01 8.626738e+01 7.069276e+01 6.399735e+01 5.243515e+01 6.495840e+01 3.768097e+01 2.088371e+02 2.643931e+00 3.047223e+00 2.994853e+00 3.471360e+00 3.954725e+00 3.653825e+00 3.293641e+00 3.298958e+00 3.147907e+00 2.733386e+00 3.034613e+00 2.119572e+00 2.686440e+00 4.079323e-01 4.923821e-01 4.625463e-01 5.923414e-01 6.853778e-01 6.124635e-01 5.888146e-01 5.945193e-01 5.581642e-01 5.077695e-01 5.424662e-01 3.959208e-01 3.726529e-01
<GCONST> 1.342721e+02
<TRANSP> 5
 0.000000e+00 1.000000e+00 0.000000e+00 0.000000e+00 0.000000e+00
 0.000000e+00 6.116559e-01 3.883441e-01 0.000000e+00 0.000000e+00
 0.000000e+00 0.000000e+00 6.116556e-01 3.883444e-01 0.000000e+00
 0.000000e+00 0.000000e+00 0.000000e+00 7.230039e-01 2.769962e-01
 0.000000e+00 0.000000e+00 0.000000e+00 0.000000e+00 0.000000e+00
<ENDHMM>
~h "z"
<BEGINHMM>
<NUMSTATES> 5
<STATE> 2
<MEAN> 39
 -1.392280e+00 -5.967815e+00 -3.049181e+00 -4.058587e+00 -8.850554e+00 -3.173131e+00 -6.173896e+00 -5.364301e+00 -2.356110e+00 -5.525327e+00 -3.684421e+00 -4.087695e+00 7.661520e+01 7.578102e-02 4.179498e-02 4.128495e-02 -2.150257e-02 7.523875e-03 -1.047970e-02 9.311306e-03 6.874015e-03 -1.498390e-02 -2.296549e-02 8.177756e-03 7.873787e-03 2.706445e-02 -4.473204e-03 -1.569498e-03 -1.451894e-03 1.716969e-03 -1.575790e-04 -2.851923e-03 2.287046e-03 2.890460e-03 1.367140e-03 2.646092e-03 5.052036e-04 -1.546131e-04 -2.343400e-03
<VARIANCE> 39
 4.217579e+01 4.443316e+01 5.026542e+01 5.057240e+01 5.507758e+01 5.392704e+01 5.134447e+01 5.222852e+01 4.098415e+01 5.149242e+01 3.320638e+01 2.250471e+01 3.031907e+02 2.059235e+00 2.591990e+00 2.660277e+00 2.701529e+00 3.522389e+00 3.293151e+00 3.384263e+00 2.394770e+00 2.647993e+00 2.997347e+00 2.560352e+00 2.134064e+00 1.734021e+00 3.209732e-01 3.894570e-01 4.206639e-01 4.617041e-01 6.360419e-01 5.121951e-01 7.025245e-01 4.174037e-01 4.973484e-01 5.294631e-01 4.836051e-01 4.183856e-01 2.260938e-01
<GCONST> 1.249549e+02
<STATE> 3
<MEAN> 39
 -1.185036e+00 -5.844550e+00 -2.924410e+00 -4.111409e+00 -8.823234e+00 -3.228651e+00 -6.131045e+00 -5.322849e+00 -2.386311e+00 -5.580647e+00 -3.659444e+00 -4.068363e+00 7.670530e+01 6.207413e-02 3.745067e-02 3.764474e-02 -1.597031e-02 7.053488e-03 -1.785791e-02 1.575845e-02 1.604045e-02 -9.026482e-03 -1.380132e-02 9.676619e-03 7.215873e-03 1.895504e-02 -5.235556e-03 -1.371883e-03 -6.114172e-04 2.049413e-03 -6.641436e-04 -1.950643e-03 1.855794e-03 2.747268e-03 2.698822e-03 3.173034e-03 2.057520e-04 -4.344257e-04 -3.103788e-03
<VARIANCE> 39
 4.089719e+01 4.506003e+01 4.880988e+01 5.123729e+01 5.715632e+01 5.230514e+01 5.031005e+01 5.204448e+01 4.040315e+01 5.129185e+01 3.397709e+01 2.257998e+01 2.946367e+02 2.033073e+00 2.620724e+00 2.633096e+00 2.734083e+00 3.530401e+00 3.207332e+00 3.358565e+00 2.414474e+00 2.638600e+00 2.964235e+00 2.581104e+00 2.159999e+00 1.737563e+00 3.140735e-01 3.868605e-01 4.163248e-01 4.631355e-01 6.363453e-01 5.028577e-01 6.883411e-01 4.266755e-01 5.010212e-01 5.189103e-01 4.887594e-01 4.235787e-01 2.261706e-01
<GCONST> 1.248263e+02
<STATE> 4
<MEAN> 39
 -1.167905e+00 -5.594687e+00 -2.904063e+00 -4.039178e+00 -8.663275e+00 -3.464025e+00 -6.250562e+00 -4.947504e+00 -2.267255e+00 -5.763298e+00 -3.598711e+00 -4.024641e+00 7.598332e+01 4.320558e-02 3.360591e-02 3.798375e-02 -7.299507e-03 7.256371e-03 -2.503665e-02 2.339786e-02 2.910676e-02 4.482721e-03 -5.519195e-04 9.973262e-03 4.758438e-03 1.084419e-02 -5.501433e-03 -1.129368e-03 4.999596e-04 2.372645e-03 -9.658310e-04 -5.931217e-04 1.309866e-03 2.541100e-03 3.677179e-03 3.148151e-03 -2.849714e-04 -6.486402e-04 -3.945346e-03
<VARIANCE> 39
 4.019809e+01 4.713737e+01 4.800578e+01 5.231632e+01 6.102925e+01 4.965638e+01 5.224376e+01 5.486896e+01 3.978224e+01 5.145731e+01 3.544308e+01 2.308104e+01 2.876505e+02 2.063094e+00 2.693159e+00 2.602816e+00 2.799080e+00 3.560735e+00 3.077727e+00 3.453857e+00 2.505071e+00 2.615200e+00 2.925167e+00 2.644153e+00 2.195541e+00 1.794344e+00 3.166058e-01 3.878445e-01 4.151430e-01 4.722388e-01 6.376421e-01 4.878063e-01 6.976971e-01 4.444936e-01 5.016167e-01 5.026714e-01 5.044594e-01 4.295626e-01 2.298218e-01
<GCONST> 1.252111e+02
<TRANSP> 5
 0.000000e+00 1.000000e+00 0.000000e+00 0.000000e+00 0.000000e+00
 0.000000e+00 6.654201e-01 3.345799e-01 0.000000e+00 0.000000e+00
 0.000000e+00 0.000000e+00 6.654203e-01 3.345797e-01 0.000000e+00
 0.000000e+00 0.000000e+00 0.000000e+00 7.796228e-01 2.203772e-01
 0.000000e+00 0.000000e+00 0.000000e+00 0.000000e+00 0.000000e+00
<ENDHMM>
~h "aw"
<BEGINHMM>
<NUMSTATES> 5
<STATE> 2
<MEAN> 39
 -2.018972e+00 -5.991252e+00 -5.222435e+00 -3.101327e+00 -6.423745e+00 -3.003690e+00 -3.175644e+00 -1.450865e+00 -3.772289e+00 -4.172932e+00 -3.960538e+00 -2.248237e+00 6.953238e+01 1.230617e-02 -1.469972e-02 2.405166e-02 1.469282e-02 -6.710904e-03 -2.074610e-02 -1.520442e-02 -3.531495e-02 -9.373519e-04 2.766990e-03 2.950502e-04 -1.461935e-03 3.983113e-02 1.244057e-03 1.793150e-03 -3.498713e-04 1.294316e-03 -9.169549e-05 -9.849801e-04 -2.052275e-03 1.472864e-03 -4.627961e-04 -1.875042e-03 -8.398629e-04 -2.241034e-05 -9.563857e-04
<VARIANCE> 39
 6.572159e+01 7.502515e+01 6.985018e+01 1.283824e+02 9.467292e+01 7.241760e+01 7.709357e+01 7.283117e+01 6.491243e+01 5.619048e+01 5.798352e+01 4.136504e+01 2.031828e+02 2.891812e+00 3.096201e+00 2.461827e+00 3.007777e+00 3.393907e+00 3.612367e+00 2.668858e+00 2.780274e+00 3.067706e+00 2.661450e+00 2.656042e+00 2.163784e+00 3.242698e+00 4.484202e-01 4.966013e-01 3.925580e-01 4.822213e-01 5.688822e-01 6.137986e-01 4.784461e-01 5.135589e-01 5.616757e-01 5.017475e-01 4.911491e-01 3.931556e-01 4.767842e-01
<GCONST> 1.325020e+02
<STATE> 3
<MEAN> 39
 -1.996730e+00 -6.019897e+00 -5.162815e+00 -3.064762e+00 -6.447216e+00 -3.067405e+00 -3.211236e+00 -1.522489e+00 -3.771627e+00 -4.165512e+00 -3.960281e+00 -2.256604e+00 6.962127e+01 1.596613e-02 -9.945287e-03 2.360568e-02 1.879555e-02 -7.942719e-03 -2.273170e-02 -2.038614e-02 -3.128546e-02 -2.879950e-03 -2.800409e-03 -1.973282e-03 -1.690479e-03 3.664527e-02 1.074503e-03 2.034258e-03 -3.024772e-04 1.265601e-03 2.460415e-04 -1.985398e-04 -1.407314e-03 2.092526e-03 -4.725620e-04 -1.926998e-03 -1.148978e-03 3.228312e-04 -1.584268e-03
<VARIANCE> 39
 6.521105e+01 7.543810e+01 7.057690e+01 1.299465e+02 9.523353e+01 7.233159e+01 7.813914e+01 7.352100e+01 6.574010e+01 5.650665e+01 5.779369e+01 4.120235e+01 2.027898e+02 2.883980e+00 3.082234e+00 2.472027e+00 2.999916e+00 3.402627e+00 3.603149e+00 2.689308e+00 2.773878e+00 3.073162e+00 2.661625e+00 2.655582e+00 2.175825e+00 3.202888e+00 4.485808e-01 4.950416e-01 3.936460e-01 4.830059e-01 5.700684e-01 6.149808e-01 4.811250e-01 5.122990e-01 5.607280e-01 5.031899e-01 4.903548e-01 3.946956e-01 4.716186e-01
<GCONST> 1.325548e+02
<STATE> 4
<MEAN> 39
 -2.056443e+00 -5.980420e+00 -5.078918e+00 -3.052509e+00 -6.258135e+00 -3.079218e+00 -3.213427e+00 -1.505324e+00 -3.577947e+00 -4.113477e+00 -3.987598e+00 -2.250649e+00 6.973663e+01 1.732745e-02 -4.193302e-03 2.228381e-02 2.189571e-02 -1.025088e-02 -2.422318e-02 -2.220687e-02 -2.255564e-02 -4.859287e-03 -8.156929e-03 -5.578886e-03 -2.041888e-03 2.984539e-02 1.040771e-03 1.677376e-03 -1.719635e-04 1.055222e-03 2.818470e-04 4.028382e-04 -6.407885e-04 1.946219e-03 -6.416172e-04 -1.858852e-03 -1.578669e-03 5.152145e-04 -1.482850e-03
<VARIANCE> 39
 6.393325e+01 7.469316e+01 7.053303e+01 1.281804e+02 9.431564e+01 7.152079e+01 7.514876e+01 7.283826e+01 6.539644e+01 5.604528e+01 5.682664e+01 4.038757e+01 2.047375e+02 2.825419e+00 2.986505e+00 2.442991e+00 2.964062e+00 3.358049e+00 3.518001e+00 2.686410e+00 2.701946e+00 3.046030e+00 2.607802e+00 2.609344e+00 2.145093e+00 3.153926e+00 4.420132e-01 4.807766e-01 3.868421e-01 4.812269e-01 5.645739e-01 6.031817e-01 4.795669e-01 4.989026e-01 5.537691e-01 4.946557e-01 4.809210e-01 3.886309e-01 4.653045e-01
<GCONST> 1.319819e+02
<TRANSP> 5
 0.000000e+00 1.000000e+00 0.000000e+00 0.000000e+00 0.000000e+00
 0.000000e+00 6.230571e-01 3.769428e-01 0.000000e+00 0.000000e+00
 0.000000e+00 0.000000e+00 6.230572e-01 3.769428e-01 0.000000e+00
 0.000000e+00 0.000000e+00 0.000000e+00 7.340351e-01 2.659649e-01
 0.000000e+00 0.000000e+00 0.000000e+00 0.000000e+00 0.000000e+00
<ENDHMM>
~h "ay"
<BEGINHMM>
<NUMSTATES> 5
<STATE> 2
<MEAN> 39
 -2.719851e+00 -5.749670e+00 -1.797768e+00 -4.183229e+00 -7.301566e+00 -4.792968e+00 -6.909093e+00 -4.582431e+00 -3.145394e+00 -5.898355e+00 -4.638106e+00 -3.315913e+00 7.104321e+01 -3.050371e-03 -2.147024e-03 -1.104845e-02 1.262010e-02 -4.476885e-03 2.709268e-02 -8.904150e-04 -6.613736e-03 8.333583e-03 -1.032195e-03 -1.399328e-02 1.895134e-02 -5.100076e-02 3.404070e-04 -1.635961e-04 -4.922606e-03 -3.206225e-03 1.851633e-03 -1.370233e-04 -2.331002e-04 2.297090e-03 -1.033477e-03 4.858857e-03 -1.459983e-03 -1.792776e-03 3.867459e-04
<VARIANCE> 39
