~h "sil"
<BEGINHMM>
<NUMSTATES> 5
<STATE> 2
<MEAN> 39
 -2.361165e+00 -5.436710e+00 -3.606422e+00 -4.345117e+00 -6.457594e+00 -4.451602e+00 -6.027453e+00 -3.565422e+00 -4.205627e+00 -5.165896e+00 -4.219341e+00 -3.305678e+00 6.741419e+01 8.891955e-04 -5.806509e-04 -1.343294e-04 5.696694e-04 -1.536884e-03 2.512651e-05 -3.712188e-05 -2.906239e-04 3.057797e-04 -9.206488e-04 5.269018e-04 8.170358e-04 -6.806754e-04 -1.084748e-03 3.658175e-04 -1.375835e-04 -1.109326e-05 2.876639e-04 6.391308e-04 3.391253e-04 5.021340e-04 3.960514e-04 3.186822e-04 4.106740e-04 8.659418e-05 -1.320952e-03
<VARIANCE> 39
 7.613908e+01 7.942633e+01 7.064298e+01 1.068963e+02 1.043664e+02 8.442190e+01 9.813719e+01 7.929951e+01 6.330093e+01 5.804049e+01 5.868478e+01 4.034313e+01 2.035732e+02 2.918777e+00 2.999896e+00 2.696221e+00 3.234708e+00 3.796805e+00 3.537514e+00 3.122008e+00 3.530123e+00 3.211184e+00 2.751677e+00 2.918783e+00 2.205635e+00 2.767889e+00 4.441071e-01 4.908952e-01 4.235638e-01 5.528627e-01 6.546136e-01 6.068612e-01 5.578120e-01 6.286693e-01 5.758418e-01 5.091527e-01 5.248156e-01 4.099197e-01 4.122296e-01
<GCONST> 1.344485e+02
<STATE> 3
<MEAN> 39
 -2.361165e+00 -5.436710e+00 -3.606422e+00 -4.345117e+00 -6.457594e+00 -4.451602e+00 -6.027453e+00 -3.565422e+00 -4.205627e+00 -5.165896e+00 -4.219341e+00 -3.305678e+00 6.741419e+01 8.891955e-04 -5.806509e-04 -1.343294e-04 5.696694e-04 -1.536884e-03 2.512651e-05 -3.712188e-05 -2.906239e-04 3.057797e-04 -9.206488e-04 5.269018e-04 8.170358e-04 -6.806754e-04 -1.084748e-03 3.658175e-04 -1.375835e-04 -1.109326e-05 2.876639e-04 6.391308e-04 3.391253e-04 5.021340e-04 3.960514e-04 3.186822e-04 4.106740e-04 8.659418e-05 -1.320952e-03
<VARIANCE> 39
 7.613908e+01 7.942633e+01 7.064298e+01 1.068963e+02 1.043664e+02 8.442190e+01 9.813719e+01 7.929951e+01 6.330093e+01 5.804049e+01 5.868478e+01 4.034313e+01 2.035732e+02 2.918777e+00 2.999896e+00 2.696221e+00 3.234708e+00 3.796805e+00 3.537514e+00 3.122008e+00 3.530123e+00 3.211184e+00 2.751677e+00 2.918783e+00 2.205635e+00 2.767889e+00 4.441071e-01 4.908952e-01 4.235638e-01 5.528627e-01 6.546136e-01 6.068612e-01 5.578120e-01 6.286693e-01 5.758418e-01 5.091527e-01 5.248156e-01 4.099197e-01 4.122296e-01
<GCONST> 1.344485e+02
<STATE> 4
<MEAN> 39
 -2.361165e+00 -5.436710e+00 -3.606422e+00 -4.345117e+00 -6.457594e+00 -4.451602e+00 -6.027453e+00 -3.565422e+00 -4.205627e+00 -5.165896e+00 -4.219341e+00 -3.305678e+00 6.741419e+01 8.891955e-04 -5.806509e-04 -1.343294e-04 5.696694e-04 -1.536884e-03 2.512651e-05 -3.712188e-05 -2.906239e-04 3.057797e-04 -9.206488e-04 5.269018e-04 8.170358e-04 -6.806754e-04 -1.084748e-03 3.658175e-04 -1.375835e-04 -1.109326e-05 2.876639e-04 6.391308e-04 3.391253e-04 5.021340e-04 3.960514e-04 3.186822e-04 4.106740e-04 8.659418e-05 -1.320952e-03
<VARIANCE> 39
 7.613908e+01 7.942633e+01 7.064298e+01 1.068963e+02 1.043664e+02 8.442190e+01 9.813719e+01 7.929951e+01 6.330093e+01 5.804049e+01 5.868478e+01 4.034313e+01 2.035732e+02 2.918777e+00 2.999896e+00 2.696221e+00 3.234708e+00 3.796805e+00 3.537514e+00 3.122008e+00 3.530123e+00 3.211184e+00 2.751677e+00 2.918783e+00 2.205635e+00 2.767889e+00 4.441071e-01 4.908952e-01 4.235638e-01 5.528627e-01 6.546136e-01 6.068612e-01 5.578120e-01 6.286693e-01 5.758418e-01 5.091527e-01 5.248156e-01 4.099197e-01 4.122296e-01
<GCONST> 1.344485e+02
<TRANSP> 5
 0.000000e+00 1.000000e+00 0.000000e+00 0.000000e+00 0.000000e+00
 0.000000e+00 6.000000e-01 4.000000e-01 0.000000e+00 0.000000e+00
 0.000000e+00 0.000000e+00 6.000000e-01 4.000000e-01 0.000000e+00
 0.000000e+00 0.000000e+00 0.000000e+00 7.000000e-01 3.000000e-01
 0.000000e+00 0.000000e+00 0.000000e+00 0.000000e+00 0.000000e+00
<ENDHMM>
~h "a"
<BEGINHMM>
<NUMSTATES> 5
<STATE> 2
<MEAN> 39
 -2.361165e+00 -5.436710e+00 -3.606422e+00 -4.345117e+00 -6.457594e+00 -4.451602e+00 -6.027453e+00 -3.565422e+00 -4.205627e+00 -5.165896e+00 -4.219341e+00 -3.305678e+00 6.741419e+01 8.891955e-04 -5.806509e-04 -1.343294e-04 5.696694e-04 -1.536884e-03 2.512651e-05 -3.712188e-05 -2.906239e-04 3.057797e-04 -9.206488e-04 5.269018e-04 8.170358e-04 -6.806754e-04 -1.084748e-03 3.658175e-04 -1.375835e-04 -1.109326e-05 2.876639e-04 6.391308e-04 3.391253e-04 5.021340e-04 3.960514e-04 3.186822e-04 4.106740e-04 8.659418e-05 -1.320952e-03
<VARIANCE> 39
 7.613908e+01 7.942633e+01 7.064298e+01 1.068963e+02 1.043664e+02 8.442190e+01 9.813719e+01 7.929951e+01 6.330093e+01 5.804049e+01 5.868478e+01 4.034313e+01 2.035732e+02 2.918777e+00 2.999896e+00 2.696221e+00 3.234708e+00 3.796805e+00 3.537514e+00 3.122008e+00 3.530123e+00 3.211184e+00 2.751677e+00 2.918783e+00 2.205635e+00 2.767889e+00 4.441071e-01 4.908952e-01 4.235638e-01 5.528627e-01 6.546136e-01 6.068612e-01 5.578120e-01 6.286693e-01 5.758418e-01 5.091527e-01 5.248156e-01 4.099197e-01 4.122296e-01
<GCONST> 1.344485e+02
<STATE> 3
<MEAN> 39
 -2.361165e+00 -5.436710e+00 -3.606422e+00 -4.345117e+00 -6.457594e+00 -4.451602e+00 -6.027453e+00 -3.565422e+00 -4.205627e+00 -5.165896e+00 -4.219341e+00 -3.305678e+00 6.741419e+01 8.891955e-04 -5.806509e-04 -1.343294e-04 5.696694e-04 -1.536884e-03 2.512651e-05 -3.712188e-05 -2.906239e-04 3.057797e-04 -9.206488e-04 5.269018e-04 8.170358e-04 -6.806754e-04 -1.084748e-03 3.658175e-04 -1.375835e-04 -1.109326e-05 2.876639e-04 6.391308e-04 3.391253e-04 5.021340e-04 3.960514e-04 3.186822e-04 4.106740e-04 8.659418e-05 -1.320952e-03
<VARIANCE> 39
 7.613908e+01 7.942633e+01 7.064298e+01 1.068963e+02 1.043664e+02 8.442190e+01 9.813719e+01 7.929951e+01 6.330093e+01 5.804049e+01 5.868478e+01 4.034313e+01 2.035732e+02 2.918777e+00 2.999896e+00 2.696221e+00 3.234708e+00 3.796805e+00 3.537514e+00 3.122008e+00 3.530123e+00 3.211184e+00 2.751677e+00 2.918783e+00 2.205635e+00 2.767889e+00 4.441071e-01 4.908952e-01 4.235638e-01 5.528627e-01 6.546136e-01 6.068612e-01 5.578120e-01 6.286693e-01 5.758418e-01 5.091527e-01 5.248156e-01 4.099197e-01 4.122296e-01
<GCONST> 1.344485e+02
<STATE> 4
<MEAN> 39
 -2.361165e+00 -5.436710e+00 -3.606422e+00 -4.345117e+00 -6.457594e+00 -4.451602e+00 -6.027453e+00 -3.565422e+00 -4.205627e+00 -5.165896e+00 -4.219341e+00 -3.305678e+00 6.741419e+01 8.891955e-04 -5.806509e-04 -1.343294e-04 5.696694e-04 -1.536884e-03 2.512651e-05 -3.712188e-05 -2.906239e-04 3.057797e-04 -9.206488e-04 5.269018e-04 8.170358e-04 -6.806754e-04 -1.084748e-03 3.658175e-04 -1.375835e-04 -1.109326e-05 2.876639e-04 6.391308e-04 3.391253e-04 5.021340e-04 3.960514e-04 3.186822e-04 4.106740e-04 8.659418e-05 -1.320952e-03
<VARIANCE> 39
 7.613908e+01 7.942633e+01 7.064298e+01 1.068963e+02 1.043664e+02 8.442190e+01 9.813719e+01 7.929951e+01 6.330093e+01 5.804049e+01 5.868478e+01 4.034313e+01 2.035732e+02 2.918777e+00 2.999896e+00 2.696221e+00 3.234708e+00 3.796805e+00 3.537514e+00 3.122008e+00 3.530123e+00 3.211184e+00 2.751677e+00 2.918783e+00 2.205635e+00 2.767889e+00 4.441071e-01 4.908952e-01 4.235638e-01 5.528627e-01 6.546136e-01 6.068612e-01 5.578120e-01 6.286693e-01 5.758418e-01 5.091527e-01 5.248156e-01 4.099197e-01 4.122296e-01
<GCONST> 1.344485e+02
<TRANSP> 5
 0.000000e+00 1.000000e+00 0.000000e+00 0.000000e+00 0.000000e+00
 0.000000e+00 6.000000e-01 4.000000e-01 0.000000e+00 0.000000e+00
 0.000000e+00 0.000000e+00 6.000000e-01 4.000000e-01 0.000000e+00
 0.000000e+00 0.000000e+00 0.000000e+00 7.000000e-01 3.000000e-01
 0.000000e+00 0.000000e+00 0.000000e+00 0.000000e+00 0.000000e+00
<ENDHMM>
~h "l"
<BEGINHMM>
<NUMSTATES> 5
<STATE> 2
<MEAN> 39
 -2.361165e+00 -5.436710e+00 -3.606422e+00 -4.345117e+00 -6.457594e+00 -4.451602e+00 -6.027453e+00 -3.565422e+00 -4.205627e+00 -5.165896e+00 -4.219341e+00 -3.305678e+00 6.741419e+01 8.891955e-04 -5.806509e-04 -1.343294e-04 5.696694e-04 -1.536884e-03 2.512651e-05 -3.712188e-05 -2.906239e-04 3.057797e-04 -9.206488e-04 5.269018e-04 8.170358e-04 -6.806754e-04 -1.084748e-03 3.658175e-04 -1.375835e-04 -1.109326e-05 2.876639e-04 6.391308e-04 3.391253e-04 5.021340e-04 3.960514e-04 3.186822e-04 4.106740e-04 8.659418e-05 -1.320952e-03
<VARIANCE> 39
 7.613908e+01 7.942633e+01 7.064298e+01 1.068963e+02 1.043664e+02 8.442190e+01 9.813719e+01 7.929951e+01 6.330093e+01 5.804049e+01 5.868478e+01 4.034313e+01 2.035732e+02 2.918777e+00 2.999896e+00 2.696221e+00 3.234708e+00 3.796805e+00 3.537514e+00 3.122008e+00 3.530123e+00 3.211184e+00 2.751677e+00 2.918783e+00 2.205635e+00 2.767889e+00 4.441071e-01 4.908952e-01 4.235638e-01 5.528627e-01 6.546136e-01 6.068612e-01 5.578120e-01 6.286693e-01 5.758418e-01 5.091527e-01 5.248156e-01 4.099197e-01 4.122296e-01
<GCONST> 1.344485e+02
<STATE> 3
<MEAN> 39
 -2.361165e+00 -5.436710e+00 -3.606422e+00 -4.345117e+00 -6.457594e+00 -4.451602e+00 -6.027453e+00 -3.565422e+00 -4.205627e+00 -5.165896e+00 -4.219341e+00 -3.305678e+00 6.741419e+01 8.891955e-04 -5.806509e-04 -1.343294e-04 5.696694e-04 -1.536884e-03 2.512651e-05 -3.712188e-05 -2.906239e-04 3.057797e-04 -9.206488e-04 5.269018e-04 8.170358e-04 -6.806754e-04 -1.084748e-03 3.658175e-04 -1.375835e-04 -1.109326e-05 2.876639e-04 6.391308e-04 3.391253e-04 5.021340e-04 3.960514e-04 3.186822e-04 4.106740e-04 8.659418e-05 -1.320952e-03
<VARIANCE> 39
 7.613908e+01 7.942633e+01 7.064298e+01 1.068963e+02 1.043664e+02 8.442190e+01 9.813719e+01 7.929951e+01 6.330093e+01 5.804049e+01 5.868478e+01 4.034313e+01 2.035732e+02 2.918777e+00 2.999896e+00 2.696221e+00 3.234708e+00 3.796805e+00 3.537514e+00 3.122008e+00 3.530123e+00 3.211184e+00 2.751677e+00 2.918783e+00 2.205635e+00 2.767889e+00 4.441071e-01 4.908952e-01 4.235638e-01 5.528627e-01 6.546136e-01 6.068612e-01 5.578120e-01 6.286693e-01 5.758418e-01 5.091527e-01 5.248156e-01 4.099197e-01 4.122296e-01
<GCONST> 1.344485e+02
<STATE> 4
<MEAN> 39
 -2.361165e+00 -5.436710e+00 -3.606422e+00 -4.345117e+00 -6.457594e+00 -4.451602e+00 -6.027453e+00 -3.565422e+00 -4.205627e+00 -5.165896e+00 -4.219341e+00 -3.305678e+00 6.741419e+01 8.891955e-04 -5.806509e-04 -1.343294e-04 5.696694e-04 -1.536884e-03 2.512651e-05 -3.712188e-05 -2.906239e-04 3.057797e-04 -9.206488e-04 5.269018e-04 8.170358e-04 -6.806754e-04 -1.084748e-03 3.658175e-04 -1.375835e-04 -1.109326e-05 2.876639e-04 6.391308e-04 3.391253e-04 5.021340e-04 3.960514e-04 3.186822e-04 4.106740e-04 8.659418e-05 -1.320952e-03
<VARIANCE> 39
 7.613908e+01 7.942633e+01 7.064298e+01 1.068963e+02 1.043664e+02 8.442190e+01 9.813719e+01 7.929951e+01 6.330093e+01 5.804049e+01 5.868478e+01 4.034313e+01 2.035732e+02 2.918777e+00 2.999896e+00 2.696221e+00 3.234708e+00 3.796805e+00 3.537514e+00 3.122008e+00 3.530123e+00 3.211184e+00 2.751677e+00 2.918783e+00 2.205635e+00 2.767889e+00 4.441071e-01 4.908952e-01 4.235638e-01 5.528627e-01 6.546136e-01 6.068612e-01 5.578120e-01 6.286693e-01 5.758418e-01 5.091527e-01 5.248156e-01 4.099197e-01 4.122296e-01
<GCONST> 1.344485e+02
<TRANSP> 5
 0.000000e+00 1.000000e+00 0.000000e+00 0.000000e+00 0.000000e+00
 0.000000e+00 6.000000e-01 4.000000e-01 0.000000e+00 0.000000e+00
 0.000000e+00 0.000000e+00 6.000000e-01 4.000000e-01 0.000000e+00
 0.000000e+00 0.000000e+00 0.000000e+00 7.000000e-01 3.000000e-01
 0.000000e+00 0.000000e+00 0.000000e+00 0.000000e+00 0.000000e+00
<ENDHMM>
~h "d"
<BEGINHMM>
<NUMSTATES> 5
<STATE> 2
<MEAN> 39
 -2.361165e+00 -5.436710e+00 -3.606422e+00 -4.345117e+00 -6.457594e+00 -4.451602e+00 -6.027453e+00 -3.565422e+00 -4.205627e+00 -5.165896e+00 -4.219341e+00 -3.305678e+00 6.741419e+01 8.891955e-04 -5.806509e-04 -1.343294e-04 5.696694e-04 -1.536884e-03 2.512651e-05 -3.712188e-05 -2.906239e-04 3.057797e-04 -9.206488e-04 5.269018e-04 8.170358e-04 -6.806754e-04 -1.084748e-03 3.658175e-04 -1.375835e-04 -1.109326e-05 2.876639e-04 6.391308e-04 3.391253e-04 5.021340e-04 3.960514e-04 3.186822e-04 4.106740e-04 8.659418e-05 -1.320952e-03
<VARIANCE> 39
 7.613908e+01 7.942633e+01 7.064298e+01 1.068963e+02 1.043664e+02 8.442190e+01 9.813719e+01 7.929951e+01 6.330093e+01 5.804049e+01 5.868478e+01 4.034313e+01 2.035732e+02 2.918777e+00 2.999896e+00 2.696221e+00 3.234708e+00 3.796805e+00 3.537514e+00 3.122008e+00 3.530123e+00 3.211184e+00 2.751677e+00 2.918783e+00 2.205635e+00 2.767889e+00 4.441071e-01 4.908952e-01 4.235638e-01 5.528627e-01 6.546136e-01 6.068612e-01 5.578120e-01 6.286693e-01 5.758418e-01 5.091527e-01 5.248156e-01 4.099197e-01 4.122296e-01
<GCONST> 1.344485e+02
<STATE> 3
<MEAN> 39
 -2.361165e+00 -5.436710e+00 -3.606422e+00 -4.345117e+00 -6.457594e+00 -4.451602e+00 -6.027453e+00 -3.565422e+00 -4.205627e+00 -5.165896e+00 -4.219341e+00 -3.305678e+00 6.741419e+01 8.891955e-04 -5.806509e-04 -1.343294e-04 5.696694e-04 -1.536884e-03 2.512651e-05 -3.712188e-05 -2.906239e-04 3.057797e-04 -9.206488e-04 5.269018e-04 8.170358e-04 -6.806754e-04 -1.084748e-03 3.658175e-04 -1.375835e-04 -1.109326e-05 2.876639e-04 6.391308e-04 3.391253e-04 5.021340e-04 3.960514e-04 3.186822e-04 4.106740e-04 8.659418e-05 -1.320952e-03
<VARIANCE> 39
 7.613908e+01 7.942633e+01 7.064298e+01 1.068963e+02 1.043664e+02 8.442190e+01 9.813719e+01 7.929951e+01 6.330093e+01 5.804049e+01 5.868478e+01 4.034313e+01 2.035732e+02 2.918777e+00 2.999896e+00 2.696221e+00 3.234708e+00 3.796805e+00 3.537514e+00 3.122008e+00 3.530123e+00 3.211184e+00 2.751677e+00 2.918783e+00 2.205635e+00 2.767889e+00 4.441071e-01 4.908952e-01 4.235638e-01 5.528627e-01 6.546136e-01 6.068612e-01 5.578120e-01 6.286693e-01 5.758418e-01 5.091527e-01 5.248156e-01 4.099197e-01 4.122296e-01
<GCONST> 1.344485e+02
<STATE> 4
<MEAN> 39
 -2.361165e+00 -5.436710e+00 -3.606422e+00 -4.345117e+00 -6.457594e+00 -4.451602e+00 -6.027453e+00 -3.565422e+00 -4.205627e+00 -5.165896e+00 -4.219341e+00 -3.305678e+00 6.741419e+01 8.891955e-04 -5.806509e-04 -1.343294e-04 5.696694e-04 -1.536884e-03 2.512651e-05 -3.712188e-05 -2.906239e-04 3.057797e-04 -9.206488e-04 5.269018e-04 8.170358e-04 -6.806754e-04 -1.084748e-03 3.658175e-04 -1.375835e-04 -1.109326e-05 2.876639e-04 6.391308e-04 3.391253e-04 5.021340e-04 3.960514e-04 3.186822e-04 4.106740e-04 8.659418e-05 -1.320952e-03
<VARIANCE> 39
 7.613908e+01 7.942633e+01 7.064298e+01 1.068963e+02 1.043664e+02 8.442190e+01 9.813719e+01 7.929951e+01 6.330093e+01 5.804049e+01 5.868478e+01 4.034313e+01 2.035732e+02 2.918777e+00 2.999896e+00 2.696221e+00 3.234708e+00 3.796805e+00 3.537514e+00 3.122008e+00 3.530123e+00 3.211184e+00 2.751677e+00 2.918783e+00 2.205635e+00 2.767889e+00 4.441071e-01 4.908952e-01 4.235638e-01 5.528627e-01 6.546136e-01 6.068612e-01 5.578120e-01 6.286693e-01 5.758418e-01 5.091527e-01 5.248156e-01 4.099197e-01 4.122296e-01
<GCONST> 1.344485e+02
<TRANSP> 5
 0.000000e+00 1.000000e+00 0.000000e+00 0.000000e+00 0.000000e+00
 0.000000e+00 6.000000e-01 4.000000e-01 0.000000e+00 0.000000e+00
 0.000000e+00 0.000000e+00 6.000000e-01 4.000000e-01 0.000000e+00
 0.000000e+00 0.000000e+00 0.000000e+00 7.000000e-01 3.000000e-01
 0.000000e+00 0.000000e+00 0.000000e+00 0.000000e+00 0.000000e+00
<ENDHMM>
~h "@"
<BEGINHMM>
<NUMSTATES> 5
<STATE> 2
<MEAN> 39
 -2.361165e+00 -5.436710e+00 -3.606422e+00 -4.345117e+00 -6.457594e+00 -4.451602e+00 -6.027453e+00 -3.565422e+00 -4.205627e+00 -5.165896e+00 -4.219341e+00 -3.305678e+00 6.741419e+01 8.891955e-04 -5.806509e-04 -1.343294e-04 5.696694e-04 -1.536884e-03 2.512651e-05 -3.712188e-05 -2.906239e-04 3.057797e-04 -9.206488e-04 5.269018e-04 8.170358e-04 -6.806754e-04 -1.084748e-03 3.658175e-04 -1.375835e-04 -1.109326e-05 2.876639e-04 6.391308e-04 3.391253e-04 5.021340e-04 3.960514e-04 3.186822e-04 4.106740e-04 8.659418e-05 -1.320952e-03
<VARIANCE> 39
 7.613908e+01 7.942633e+01 7.064298e+01 1.068963e+02 1.043664e+02 8.442190e+01 9.813719e+01 7.929951e+01 6.330093e+01 5.804049e+01 5.868478e+01 4.034313e+01 2.035732e+02 2.918777e+00 2.999896e+00 2.696221e+00 3.234708e+00 3.796805e+00 3.537514e+00 3.122008e+00 3.530123e+00 3.211184e+00 2.751677e+00 2.918783e+00 2.205635e+00 2.767889e+00 4.441071e-01 4.908952e-01 4.235638e-01 5.528627e-01 6.546136e-01 6.068612e-01 5.578120e-01 6.286693e-01 5.758418e-01 5.091527e-01 5.248156e-01 4.099197e-01 4.122296e-01
<GCONST> 1.344485e+02
<STATE> 3
<MEAN> 39
 -2.361165e+00 -5.436710e+00 -3.606422e+00 -4.345117e+00 -6.457594e+00 -4.451602e+00 -6.027453e+00 -3.565422e+00 -4.205627e+00 -5.165896e+00 -4.219341e+00 -3.305678e+00 6.741419e+01 8.891955e-04 -5.806509e-04 -1.343294e-04 5.696694e-04 -1.536884e-03 2.512651e-05 -3.712188e-05 -2.906239e-04 3.057797e-04 -9.206488e-04 5.269018e-04 8.170358e-04 -6.806754e-04 -1.084748e-03 3.658175e-04 -1.375835e-04 -1.109326e-05 2.876639e-04 6.391308e-04 3.391253e-04 5.021340e-04 3.960514e-04 3.186822e-04 4.106740e-04 8.659418e-05 -1.320952e-03
<VARIANCE> 39
 7.613908e+01 7.942633e+01 7.064298e+01 1.068963e+02 1.043664e+02 8.442190e+01 9.813719e+01 7.929951e+01 6.330093e+01 5.804049e+01 5.868478e+01 4.034313e+01 2.035732e+02 2.918777e+00 2.999896e+00 2.696221e+00 3.234708e+00 3.796805e+00 3.537514e+00 3.122008e+00 3.530123e+00 3.211184e+00 2.751677e+00 2.918783e+00 2.205635e+00 2.767889e+00 4.441071e-01 4.908952e-01 4.235638e-01 5.528627e-01 6.546136e-01 6.068612e-01 5.578120e-01 6.286693e-01 5.758418e-01 5.091527e-01 5.248156e-01 4.099197e-01 4.122296e-01
<GCONST> 1.344485e+02
<STATE> 4
<MEAN> 39
 -2.361165e+00 -5.436710e+00 -3.606422e+00 -4.345117e+00 -6.457594e+00 -4.451602e+00 -6.027453e+00 -3.565422e+00 -4.205627e+00 -5.165896e+00 -4.219341e+00 -3.305678e+00 6.741419e+01 8.891955e-04 -5.806509e-04 -1.343294e-04 5.696694e-04 -1.536884e-03 2.512651e-05 -3.712188e-05 -2.906239e-04 3.057797e-04 -9.206488e-04 5.269018e-04 8.170358e-04 -6.806754e-04 -1.084748e-03 3.658175e-04 -1.375835e-04 -1.109326e-05 2.876639e-04 6.391308e-04 3.391253e-04 5.021340e-04 3.960514e-04 3.186822e-04 4.106740e-04 8.659418e-05 -1.320952e-03
<VARIANCE> 39
 7.613908e+01 7.942633e+01 7.064298e+01 1.068963e+02 1.043664e+02 8.442190e+01 9.813719e+01 7.929951e+01 6.330093e+01 5.804049e+01 5.868478e+01 4.034313e+01 2.035732e+02 2.918777e+00 2.999896e+00 2.696221e+00 3.234708e+00 3.796805e+00 3.537514e+00 3.122008e+00 3.530123e+00 3.211184e+00 2.751677e+00 2.918783e+00 2.205635e+00 2.767889e+00 4.441071e-01 4.908952e-01 4.235638e-01 5.528627e-01 6.546136e-01 6.068612e-01 5.578120e-01 6.286693e-01 5.758418e-01 5.091527e-01 5.248156e-01 4.099197e-01 4.122296e-01
<GCONST> 1.344485e+02
<TRANSP> 5
 0.000000e+00 1.000000e+00 0.000000e+00 0.000000e+00 0.000000e+00
 0.000000e+00 6.000000e-01 4.000000e-01 0.000000e+00 0.000000e+00
 0.000000e+00 0.000000e+00 6.000000e-01 4.000000e-01 0.000000e+00
 0.000000e+00 0.000000e+00 0.000000e+00 7.000000e-01 3.000000e-01
 0.000000e+00 0.000000e+00 0.000000e+00 0.000000e+00 0.000000e+00
<ENDHMM>
~h "ng"
<BEGINHMM>
<NUMSTATES> 5
<STATE> 2
<MEAN> 39
 -2.361165e+00 -5.436710e+00 -3.606422e+00 -4.345117e+00 -6.457594e+00 -4.451602e+00 -6.027453e+00 -3.565422e+00 -4.205627e+00 -5.165896e+00 -4.219341e+00 -3.305678e+00 6.741419e+01 8.891955e-04 -5.806509e-04 -1.343294e-04 5.696694e-04 -1.536884e-03 2.512651e-05 -3.712188e-05 -2.906239e-04 3.057797e-04 -9.206488e-04 5.269018e-04 8.170358e-04 -6.806754e-04 -1.084748e-03 3.658175e-04 -1.375835e-04 -1.109326e-05 2.876639e-04 6.391308e-04 3.391253e-04 5.021340e-04 3.960514e-04 3.186822e-04 4.106740e-04 8.659418e-05 -1.320952e-03
<VARIANCE> 39
 7.613908e+01 7.942633e+01 7.064298e+01 1.068963e+02 1.043664e+02 8.442190e+01 9.813719e+01 7.929951e+01 6.330093e+01 5.804049e+01 5.868478e+01 4.034313e+01 2.035732e+02 2.918777e+00 2.999896e+00 2.696221e+00 3.234708e+00 3.796805e+00 3.537514e+00 3.122008e+00 3.530123e+00 3.211184e+00 2.751677e+00 2.918783e+00 2.205635e+00 2.767889e+00 4.441071e-01 4.908952e-01 4.235638e-01 5.528627e-01 6.546136e-01 6.068612e-01 5.578120e-01 6.286693e-01 5.758418e-01 5.091527e-01 5.248156e-01 4.099197e-01 4.122296e-01
<GCONST> 1.344485e+02
<STATE> 3
<MEAN> 39
 -2.361165e+00 -5.436710e+00 -3.606422e+00 -4.345117e+00 -6.457594e+00 -4.451602e+00 -6.027453e+00 -3.565422e+00 -4.205627e+00 -5.165896e+00 -4.219341e+00 -3.305678e+00 6.741419e+01 8.891955e-04 -5.806509e-04 -1.343294e-04 5.696694e-04 -1.536884e-03 2.512651e-05 -3.712188e-05 -2.906239e-04 3.057797e-04 -9.206488e-04 5.269018e-04 8.170358e-04 -6.806754e-04 -1.084748e-03 3.658175e-04 -1.375835e-04 -1.109326e-05 2.876639e-04 6.391308e-04 3.391253e-04 5.021340e-04 3.960514e-04 3.186822e-04 4.106740e-04 8.659418e-05 -1.320952e-03
<VARIANCE> 39
 7.613908e+01 7.942633e+01 7.064298e+01 1.068963e+02 1.043664e+02 8.442190e+01 9.813719e+01 7.929951e+01 6.330093e+01 5.804049e+01 5.868478e+01 4.034313e+01 2.035732e+02 2.918777e+00 2.999896e+00 2.696221e+00 3.234708e+00 3.796805e+00 3.537514e+00 3.122008e+00 3.530123e+00 3.211184e+00 2.751677e+00 2.918783e+00 2.205635e+00 2.767889e+00 4.441071e-01 4.908952e-01 4.235638e-01 5.528627e-01 6.546136e-01 6.068612e-01 5.578120e-01 6.286693e-01 5.758418e-01 5.091527e-01 5.248156e-01 4.099197e-01 4.122296e-01
<GCONST> 1.344485e+02
<STATE> 4
<MEAN> 39
 -2.361165e+00 -5.436710e+00 -3.606422e+00 -4.345117e+00 -6.457594e+00 -4.451602e+00 -6.027453e+00 -3.565422e+00 -4.205627e+00 -5.165896e+00 -4.219341e+00 -3.305678e+00 6.741419e+01 8.891955e-04 -5.806509e-04 -1.343294e-04 5.696694e-04 -1.536884e-03 2.512651e-05 -3.712188e-05 -2.906239e-04 3.057797e-04 -9.206488e-04 5.269018e-04 8.170358e-04 -6.806754e-04 -1.084748e-03 3.658175e-04 -1.375835e-04 -1.109326e-05 2.876639e-04 6.391308e-04 3.391253e-04 5.021340e-04 3.960514e-04 3.186822e-04 4.106740e-04 8.659418e-05 -1.320952e-03
<VARIANCE> 39
 7.613908e+01 7.942633e+01 7.064298e+01 1.068963e+02 1.043664e+02 8.442190e+01 9.813719e+01 7.929951e+01 6.330093e+01 5.804049e+01 5.868478e+01 4.034313e+01 2.035732e+02 2.918777e+00 2.999896e+00 2.696221e+00 3.234708e+00 3.796805e+00 3.537514e+00 3.122008e+00 3.530123e+00 3.211184e+00 2.751677e+00 2.918783e+00 2.205635e+00 2.767889e+00 4.441071e-01 4.908952e-01 4.235638e-01 5.528627e-01 6.546136e-01 6.068612e-01 5.578120e-01 6.286693e-01 5.758418e-01 5.091527e-01 5.248156e-01 4.099197e-01 4.122296e-01
<GCONST> 1.344485e+02
<TRANSP> 5
 0.000000e+00 1.000000e+00 0.000000e+00 0.000000e+00 0.000000e+00
 0.000000e+00 6.000000e-01 4.000000e-01 0.000000e+00 0.000000e+00
 0.000000e+00 0.000000e+00 6.000000e-01 4.000000e-01 0.000000e+00
 0.000000e+00 0.000000e+00 0.000000e+00 7.000000e-01 3.000000e-01
 0.000000e+00 0.000000e+00 0.000000e+00 0.000000e+00 0.000000e+00
<ENDHMM>
~h "n"
<BEGINHMM>
<NUMSTATES> 5
<STATE> 2
<MEAN> 39
 -2.361165e+00 -5.436710e+00 -3.606422e+00 -4.345117e+00 -6.457594e+00 -4.451602e+00 -6.027453e+00 -3.565422e+00 -4.205627e+00 -5.165896e+00 -4.219341e+00 -3.305678e+00 6.741419e+01 8.891955e-04 -5.806509e-04 -1.343294e-04 5.696694e-04 -1.536884e-03 2.512651e-05 -3.712188e-05 -2.906239e-04 3.057797e-04 -9.206488e-04 5.269018e-04 8.170358e-04 -6.806754e-04 -1.084748e-03 3.658175e-04 -1.375835e-04 -1.109326e-05 2.876639e-04 6.391308e-04 3.391253e-04 5.021340e-04 3.960514e-04 3.186822e-04 4.106740e-04 8.659418e-05 -1.320952e-03
<VARIANCE> 39
 7.613908e+01 7.942633e+01 7.064298e+01 1.068963e+02 1.043664e+02 8.442190e+01 9.813719e+01 7.929951e+01 6.330093e+01 5.804049e+01 5.868478e+01 4.034313e+01 2.035732e+02 2.918777e+00 2.999896e+00 2.696221e+00 3.234708e+00 3.796805e+00 3.537514e+00 3.122008e+00 3.530123e+00 3.211184e+00 2.751677e+00 2.918783e+00 2.205635e+00 2.767889e+00 4.441071e-01 4.908952e-01 4.235638e-01 5.528627e-01 6.546136e-01 6.068612e-01 5.578120e-01 6.286693e-01 5.758418e-01 5.091527e-01 5.248156e-01 4.099197e-01 4.122296e-01
<GCONST> 1.344485e+02
<STATE> 3
<MEAN> 39
 -2.361165e+00 -5.436710e+00 -3.606422e+00 -4.345117e+00 -6.457594e+00 -4.451602e+00 -6.027453e+00 -3.565422e+00 -4.205627e+00 -5.165896e+00 -4.219341e+00 -3.305678e+00 6.741419e+01 8.891955e-04 -5.806509e-04 -1.343294e-04 5.696694e-04 -1.536884e-03 2.512651e-05 -3.712188e-05 -2.906239e-04 3.057797e-04 -9.206488e-04 5.269018e-04 8.170358e-04 -6.806754e-04 -1.084748e-03 3.658175e-04 -1.375835e-04 -1.109326e-05 2.876639e-04 6.391308e-04 3.391253e-04 5.021340e-04 3.960514e-04 3.186822e-04 4.106740e-04 8.659418e-05 -1.320952e-03
<VARIANCE> 39
 7.613908e+01 7.942633e+01 7.064298e+01 1.068963e+02 1.043664e+02 8.442190e+01 9.813719e+01 7.929951e+01 6.330093e+01 5.804049e+01 5.868478e+01 4.034313e+01 2.035732e+02 2.918777e+00 2.999896e+00 2.696221e+00 3.234708e+00 3.796805e+00 3.537514e+00 3.122008e+00 3.530123e+00 3.211184e+00 2.751677e+00 2.918783e+00 2.205635e+00 2.767889e+00 4.441071e-01 4.908952e-01 4.235638e-01 5.528627e-01 6.546136e-01 6.068612e-01 5.578120e-01 6.286693e-01 5.758418e-01 5.091527e-01 5.248156e-01 4.099197e-01 4.122296e-01
<GCONST> 1.344485e+02
<STATE> 4
<MEAN> 39
 -2.361165e+00 -5.436710e+00 -3.606422e+00 -4.345117e+00 -6.457594e+00 -4.451602e+00 -6.027453e+00 -3.565422e+00 -4.205627e+00 -5.165896e+00 -4.219341e+00 -3.305678e+00 6.741419e+01 8.891955e-04 -5.806509e-04 -1.343294e-04 5.696694e-04 -1.536884e-03 2.512651e-05 -3.712188e-05 -2.906239e-04 3.057797e-04 -9.206488e-04 5.269018e-04 8.170358e-04 -6.806754e-04 -1.084748e-03 3.658175e-04 -1.375835e-04 -1.109326e-05 2.876639e-04 6.391308e-04 3.391253e-04 5.021340e-04 3.960514e-04 3.186822e-04 4.106740e-04 8.659418e-05 -1.320952e-03
<VARIANCE> 39
 7.613908e+01 7.942633e+01 7.064298e+01 1.068963e+02 1.043664e+02 8.442190e+01 9.813719e+01 7.929951e+01 6.330093e+01 5.804049e+01 5.868478e+01 4.034313e+01 2.035732e+02 2.918777e+00 2.999896e+00 2.696221e+00 3.234708e+00 3.796805e+00 3.537514e+00 3.122008e+00 3.530123e+00 3.211184e+00 2.751677e+00 2.918783e+00 2.205635e+00 2.767889e+00 4.441071e-01 4.908952e-01 4.235638e-01 5.528627e-01 6.546136e-01 6.068612e-01 5.578120e-01 6.286693e-01 5.758418e-01 5.091527e-01 5.248156e-01 4.099197e-01 4.122296e-01
<GCONST> 1.344485e+02
<TRANSP> 5
 0.000000e+00 1.000000e+00 0.000000e+00 0.000000e+00 0.000000e+00
 0.000000e+00 6.000000e-01 4.000000e-01 0.000000e+00 0.000000e+00
 0.000000e+00 0.000000e+00 6.000000e-01 4.000000e-01 0.000000e+00
 0.000000e+00 0.000000e+00 0.000000e+00 7.000000e-01 3.000000e-01
 0.000000e+00 0.000000e+00 0.000000e+00 0.000000e+00 0.000000e+00
<ENDHMM>
~h "i"
<BEGINHMM>
<NUMSTATES> 5
<STATE> 2
<MEAN> 39
 -2.361165e+00 -5.436710e+00 -3.606422e+00 -4.345117e+00 -6.457594e+00 -4.451602e+00 -6.027453e+00 -3.565422e+00 -4.205627e+00 -5.165896e+00 -4.219341e+00 -3.305678e+00 6.741419e+01 8.891955e-04 -5.806509e-04 -1.343294e-04 5.696694e-04 -1.536884e-03 2.512651e-05 -3.712188e-05 -2.906239e-04 3.057797e-04 -9.206488e-04 5.269018e-04 8.170358e-04 -6.806754e-04 -1.084748e-03 3.658175e-04 -1.375835e-04 -1.109326e-05 2.876639e-04 6.391308e-04 3.391253e-04 5.021340e-04 3.960514e-04 3.186822e-04 4.106740e-04 8.659418e-05 -1.320952e-03
<VARIANCE> 39
 7.613908e+01 7.942633e+01 7.064298e+01 1.068963e+02 1.043664e+02 8.442190e+01 9.813719e+01 7.929951e+01 6.330093e+01 5.804049e+01 5.868478e+01 4.034313e+01 2.035732e+02 2.918777e+00 2.999896e+00 2.696221e+00 3.234708e+00 3.796805e+00 3.537514e+00 3.122008e+00 3.530123e+00 3.211184e+00 2.751677e+00 2.918783e+00 2.205635e+00 2.767889e+00 4.441071e-01 4.908952e-01 4.235638e-01 5.528627e-01 6.546136e-01 6.068612e-01 5.578120e-01 6.286693e-01 5.758418e-01 5.091527e-01 5.248156e-01 4.099197e-01 4.122296e-01
<GCONST> 1.344485e+02
<STATE> 3
<MEAN> 39
 -2.361165e+00 -5.436710e+00 -3.606422e+00 -4.345117e+00 -6.457594e+00 -4.451602e+00 -6.027453e+00 -3.565422e+00 -4.205627e+00 -5.165896e+00 -4.219341e+00 -3.305678e+00 6.741419e+01 8.891955e-04 -5.806509e-04 -1.343294e-04 5.696694e-04 -1.536884e-03 2.512651e-05 -3.712188e-05 -2.906239e-04 3.057797e-04 -9.206488e-04 5.269018e-04 8.170358e-04 -6.806754e-04 -1.084748e-03 3.658175e-04 -1.375835e-04 -1.109326e-05 2.876639e-04 6.391308e-04 3.391253e-04 5.021340e-04 3.960514e-04 3.186822e-04 4.106740e-04 8.659418e-05 -1.320952e-03
<VARIANCE> 39
 7.613908e+01 7.942633e+01 7.064298e+01 1.068963e+02 1.043664e+02 8.442190e+01 9.813719e+01 7.929951e+01 6.330093e+01 5.804049e+01 5.868478e+01 4.034313e+01 2.035732e+02 2.918777e+00 2.999896e+00 2.696221e+00 3.234708e+00 3.796805e+00 3.537514e+00 3.122008e+00 3.530123e+00 3.211184e+00 2.751677e+00 2.918783e+00 2.205635e+00 2.767889e+00 4.441071e-01 4.908952e-01 4.235638e-01 5.528627e-01 6.546136e-01 6.068612e-01 5.578120e-01 6.286693e-01 5.758418e-01 5.091527e-01 5.248156e-01 4.099197e-01 4.122296e-01
<GCONST> 1.344485e+02
<STATE> 4
<MEAN> 39
 -2.361165e+00 -5.436710e+00 -3.606422e+00 -4.345117e+00 -6.457594e+00 -4.451602e+00 -6.027453e+00 -3.565422e+00 -4.205627e+00 -5.165896e+00 -4.219341e+00 -3.305678e+00 6.741419e+01 8.891955e-04 -5.806509e-04 -1.343294e-04 5.696694e-04 -1.536884e-03 2.512651e-05 -3.712188e-05 -2.906239e-04 3.057797e-04 -9.206488e-04 5.269018e-04 8.170358e-04 -6.806754e-04 -1.084748e-03 3.658175e-04 -1.375835e-04 -1.109326e-05 2.876639e-04 6.391308e-04 3.391253e-04 5.021340e-04 3.960514e-04 3.186822e-04 4.106740e-04 8.659418e-05 -1.320952e-03
<VARIANCE> 39
 7.613908e+01 7.942633e+01 7.064298e+01 1.068963e+02 1.043664e+02 8.442190e+01 9.813719e+01 7.929951e+01 6.330093e+01 5.804049e+01 5.868478e+01 4.034313e+01 2.035732e+02 2.918777e+00 2.999896e+00 2.696221e+00 3.234708e+00 3.796805e+00 3.537514e+00 3.122008e+00 3.530123e+00 3.211184e+00 2.751677e+00 2.918783e+00 2.205635e+00 2.767889e+00 4.441071e-01 4.908952e-01 4.235638e-01 5.528627e-01 6.546136e-01 6.068612e-01 5.578120e-01 6.286693e-01 5.758418e-01 5.091527e-01 5.248156e-01 4.099197e-01 4.122296e-01
<GCONST> 1.344485e+02
<TRANSP> 5
 0.000000e+00 1.000000e+00 0.000000e+00 0.000000e+00 0.000000e+00
 0.000000e+00 6.000000e-01 4.000000e-01 0.000000e+00 0.000000e+00
 0.000000e+00 0.000000e+00 6.000000e-01 4.000000e-01 0.000000e+00
 0.000000e+00 0.000000e+00 0.000000e+00 7.000000e-01 3.000000e-01
 0.000000e+00 0.000000e+00 0.000000e+00 0.000000e+00 0.000000e+00
<ENDHMM>
~h "s"
<BEGINHMM>
<NUMSTATES> 5
<STATE> 2
<MEAN> 39
 -2.361165e+00 -5.436710e+00 -3.606422e+00 -4.345117e+00 -6.457594e+00 -4.451602e+00 -6.027453e+00 -3.565422e+00 -4.205627e+00 -5.165896e+00 -4.219341e+00 -3.305678e+00 6.741419e+01 8.891955e-04 -5.806509e-04 -1.343294e-04 5.696694e-04 -1.536884e-03 2.512651e-05 -3.712188e-05 -2.906239e-04 3.057797e-04 -9.206488e-04 5.269018e-04 8.170358e-04 -6.806754e-04 -1.084748e-03 3.658175e-04 -1.375835e-04 -1.109326e-05 2.876639e-04 6.391308e-04 3.391253e-04 5.021340e-04 3.960514e-04 3.186822e-04 4.106740e-04 8.659418e-05 -1.320952e-03
<VARIANCE> 39
 7.613908e+01 7.942633e+01 7.064298e+01 1.068963e+02 1.043664e+02 8.442190e+01 9.813719e+01 7.929951e+01 6.330093e+01 5.804049e+01 5.868478e+01 4.034313e+01 2.035732e+02 2.918777e+00 2.999896e+00 2.696221e+00 3.234708e+00 3.796805e+00 3.537514e+00 3.122008e+00 3.530123e+00 3.211184e+00 2.751677e+00 2.918783e+00 2.205635e+00 2.767889e+00 4.441071e-01 4.908952e-01 4.235638e-01 5.528627e-01 6.546136e-01 6.068612e-01 5.578120e-01 6.286693e-01 5.758418e-01 5.091527e-01 5.248156e-01 4.099197e-01 4.122296e-01
<GCONST> 1.344485e+02
<STATE> 3
<MEAN> 39
 -2.361165e+00 -5.436710e+00 -3.606422e+00 -4.345117e+00 -6.457594e+00 -4.451602e+00 -6.027453e+00 -3.565422e+00 -4.205627e+00 -5.165896e+00 -4.219341e+00 -3.305678e+00 6.741419e+01 8.891955e-04 -5.806509e-04 -1.343294e-04 5.696694e-04 -1.536884e-03 2.512651e-05 -3.712188e-05 -2.906239e-04 3.057797e-04 -9.206488e-04 5.269018e-04 8.170358e-04 -6.806754e-04 -1.084748e-03 3.658175e-04 -1.375835e-04 -1.109326e-05 2.876639e-04 6.391308e-04 3.391253e-04 5.021340e-04 3.960514e-04 3.186822e-04 4.106740e-04 8.659418e-05 -1.320952e-03
<VARIANCE> 39
 7.613908e+01 7.942633e+01 7.064298e+01 1.068963e+02 1.043664e+02 8.442190e+01 9.813719e+01 7.929951e+01 6.330093e+01 5.804049e+01 5.868478e+01 4.034313e+01 2.035732e+02 2.918777e+00 2.999896e+00 2.696221e+00 3.234708e+00 3.796805e+00 3.537514e+00 3.122008e+00 3.530123e+00 3.211184e+00 2.751677e+00 2.918783e+00 2.205635e+00 2.767889e+00 4.441071e-01 4.908952e-01 4.235638e-01 5.528627e-01 6.546136e-01 6.068612e-01 5.578120e-01 6.286693e-01 5.758418e-01 5.091527e-01 5.248156e-01 4.099197e-01 4.122296e-01
<GCONST> 1.344485e+02
<STATE> 4
<MEAN> 39
 -2.361165e+00 -5.436710e+00 -3.606422e+00 -4.345117e+00 -6.457594e+00 -4.451602e+00 -6.027453e+00 -3.565422e+00 -4.205627e+00 -5.165896e+00 -4.219341e+00 -3.305678e+00 6.741419e+01 8.891955e-04 -5.806509e-04 -1.343294e-04 5.696694e-04 -1.536884e-03 2.512651e-05 -3.712188e-05 -2.906239e-04 3.057797e-04 -9.206488e-04 5.269018e-04 8.170358e-04 -6.806754e-04 -1.084748e-03 3.658175e-04 -1.375835e-04 -1.109326e-05 2.876639e-04 6.391308e-04 3.391253e-04 5.021340e-04 3.960514e-04 3.186822e-04 4.106740e-04 8.659418e-05 -1.320952e-03
<VARIANCE> 39
 7.613908e+01 7.942633e+01 7.064298e+01 1.068963e+02 1.043664e+02 8.442190e+01 9.813719e+01 7.929951e+01 6.330093e+01 5.804049e+01 5.868478e+01 4.034313e+01 2.035732e+02 2.918777e+00 2.999896e+00 2.696221e+00 3.234708e+00 3.796805e+00 3.537514e+00 3.122008e+00 3.530123e+00 3.211184e+00 2.751677e+00 2.918783e+00 2.205635e+00 2.767889e+00 4.441071e-01 4.908952e-01 4.235638e-01 5.528627e-01 6.546136e-01 6.068612e-01 5.578120e-01 6.286693e-01 5.758418e-01 5.091527e-01 5.248156e-01 4.099197e-01 4.122296e-01
<GCONST> 1.344485e+02
<TRANSP> 5
 0.000000e+00 1.000000e+00 0.000000e+00 0.000000e+00 0.000000e+00
 0.000000e+00 6.000000e-01 4.000000e-01 0.000000e+00 0.000000e+00
 0.000000e+00 0.000000e+00 6.000000e-01 4.000000e-01 0.000000e+00
 0.000000e+00 0.000000e+00 0.000000e+00 7.000000e-01 3.000000e-01
 0.000000e+00 0.000000e+00 0.000000e+00 0.000000e+00 0.000000e+00
<ENDHMM>
~h "e"
<BEGINHMM>
<NUMSTATES> 5
<STATE> 2
<MEAN> 39
 -2.361165e+00 -5.436710e+00 -3.606422e+00 -4.345117e+00 -6.457594e+00 -4.451602e+00 -6.027453e+00 -3.565422e+00 -4.205627e+00 -5.165896e+00 -4.219341e+00 -3.305678e+00 6.741419e+01 8.891955e-04 -5.806509e-04 -1.343294e-04 5.696694e-04 -1.536884e-03 2.512651e-05 -3.712188e-05 -2.906239e-04 3.057797e-04 -9.206488e-04 5.269018e-04 8.170358e-04 -6.806754e-04 -1.084748e-03 3.658175e-04 -1.375835e-04 -1.109326e-05 2.876639e-04 6.391308e-04 3.391253e-04 5.021340e-04 3.960514e-04 3.186822e-04 4.106740e-04 8.659418e-05 -1.320952e-03
<VARIANCE> 39
 7.613908e+01 7.942633e+01 7.064298e+01 1.068963e+02 1.043664e+02 8.442190e+01 9.813719e+01 7.929951e+01 6.330093e+01 5.804049e+01 5.868478e+01 4.034313e+01 2.035732e+02 2.918777e+00 2.999896e+00 2.696221e+00 3.234708e+00 3.796805e+00 3.537514e+00 3.122008e+00 3.530123e+00 3.211184e+00 2.751677e+00 2.918783e+00 2.205635e+00 2.767889e+00 4.441071e-01 4.908952e-01 4.235638e-01 5.528627e-01 6.546136e-01 6.068612e-01 5.578120e-01 6.286693e-01 5.758418e-01 5.091527e-01 5.248156e-01 4.099197e-01 4.122296e-01
<GCONST> 1.344485e+02
<STATE> 3
<MEAN> 39
 -2.361165e+00 -5.436710e+00 -3.606422e+00 -4.345117e+00 -6.457594e+00 -4.451602e+00 -6.027453e+00 -3.565422e+00 -4.205627e+00 -5.165896e+00 -4.219341e+00 -3.305678e+00 6.741419e+01 8.891955e-04 -5.806509e-04 -1.343294e-04 5.696694e-04 -1.536884e-03 2.512651e-05 -3.712188e-05 -2.906239e-04 3.057797e-04 -9.206488e-04 5.269018e-04 8.170358e-04 -6.806754e-04 -1.084748e-03 3.658175e-04 -1.375835e-04 -1.109326e-05 2.876639e-04 6.391308e-04 3.391253e-04 5.021340e-04 3.960514e-04 3.186822e-04 4.106740e-04 8.659418e-05 -1.320952e-03
<VARIANCE> 39
 7.613908e+01 7.942633e+01 7.064298e+01 1.068963e+02 1.043664e+02 8.442190e+01 9.813719e+01 7.929951e+01 6.330093e+01 5.804049e+01 5.868478e+01 4.034313e+01 2.035732e+02 2.918777e+00 2.999896e+00 2.696221e+00 3.234708e+00 3.796805e+00 3.537514e+00 3.122008e+00 3.530123e+00 3.211184e+00 2.751677e+00 2.918783e+00 2.205635e+00 2.767889e+00 4.441071e-01 4.908952e-01 4.235638e-01 5.528627e-01 6.546136e-01 6.068612e-01 5.578120e-01 6.286693e-01 5.758418e-01 5.091527e-01 5.248156e-01 4.099197e-01 4.122296e-01
<GCONST> 1.344485e+02
<STATE> 4
<MEAN> 39
 -2.361165e+00 -5.436710e+00 -3.606422e+00 -4.345117e+00 -6.457594e+00 -4.451602e+00 -6.027453e+00 -3.565422e+00 -4.205627e+00 -5.165896e+00 -4.219341e+00 -3.305678e+00 6.741419e+01 8.891955e-04 -5.806509e-04 -1.343294e-04 5.696694e-04 -1.536884e-03 2.512651e-05 -3.712188e-05 -2.906239e-04 3.057797e-04 -9.206488e-04 5.269018e-04 8.170358e-04 -6.806754e-04 -1.084748e-03 3.658175e-04 -1.375835e-04 -1.109326e-05 2.876639e-04 6.391308e-04 3.391253e-04 5.021340e-04 3.960514e-04 3.186822e-04 4.106740e-04 8.659418e-05 -1.320952e-03
<VARIANCE> 39
 7.613908e+01 7.942633e+01 7.064298e+01 1.068963e+02 1.043664e+02 8.442190e+01 9.813719e+01 7.929951e+01 6.330093e+01 5.804049e+01 5.868478e+01 4.034313e+01 2.035732e+02 2.918777e+00 2.999896e+00 2.696221e+00 3.234708e+00 3.796805e+00 3.537514e+00 3.122008e+00 3.530123e+00 3.211184e+00 2.751677e+00 2.918783e+00 2.205635e+00 2.767889e+00 4.441071e-01 4.908952e-01 4.235638e-01 5.528627e-01 6.546136e-01 6.068612e-01 5.578120e-01 6.286693e-01 5.758418e-01 5.091527e-01 5.248156e-01 4.099197e-01 4.122296e-01
<GCONST> 1.344485e+02
<TRANSP> 5
 0.000000e+00 1.000000e+00 0.000000e+00 0.000000e+00 0.000000e+00
 0.000000e+00 6.000000e-01 4.000000e-01 0.000000e+00 0.000000e+00
 0.000000e+00 0.000000e+00 6.000000e-01 4.000000e-01 0.000000e+00
 0.000000e+00 0.000000e+00 0.000000e+00 7.000000e-01 3.000000e-01
 0.000000e+00 0.000000e+00 0.000000e+00 0.000000e+00 0.000000e+00
<ENDHMM>
~h "k"
<BEGINHMM>
<NUMSTATES> 5
<STATE> 2
<MEAN> 39
 -2.361165e+00 -5.436710e+00 -3.606422e+00 -4.345117e+00 -6.457594e+00 -4.451602e+00 -6.027453e+00 -3.565422e+00 -4.205627e+00 -5.165896e+00 -4.219341e+00 -3.305678e+00 6.741419e+01 8.891955e-04 -5.806509e-04 -1.343294e-04 5.696694e-04 -1.536884e-03 2.512651e-05 -3.712188e-05 -2.906239e-04 3.057797e-04 -9.206488e-04 5.269018e-04 8.170358e-04 -6.806754e-04 -1.084748e-03 3.658175e-04 -1.375835e-04 -1.109326e-05 2.876639e-04 6.391308e-04 3.391253e-04 5.021340e-04 3.960514e-04 3.186822e-04 4.106740e-04 8.659418e-05 -1.320952e-03
<VARIANCE> 39
 7.613908e+01 7.942633e+01 7.064298e+01 1.068963e+02 1.043664e+02 8.442190e+01 9.813719e+01 7.929951e+01 6.330093e+01 5.804049e+01 5.868478e+01 4.034313e+01 2.035732e+02 2.918777e+00 2.999896e+00 2.696221e+00 3.234708e+00 3.796805e+00 3.537514e+00 3.122008e+00 3.530123e+00 3.211184e+00 2.751677e+00 2.918783e+00 2.205635e+00 2.767889e+00 4.441071e-01 4.908952e-01 4.235638e-01 5.528627e-01 6.546136e-01 6.068612e-01 5.578120e-01 6.286693e-01 5.758418e-01 5.091527e-01 5.248156e-01 4.099197e-01 4.122296e-01
<GCONST> 1.344485e+02
<STATE> 3
<MEAN> 39
 -2.361165e+00 -5.436710e+00 -3.606422e+00 -4.345117e+00 -6.457594e+00 -4.451602e+00 -6.027453e+00 -3.565422e+00 -4.205627e+00 -5.165896e+00 -4.219341e+00 -3.305678e+00 6.741419e+01 8.891955e-04 -5.806509e-04 -1.343294e-04 5.696694e-04 -1.536884e-03 2.512651e-05 -3.712188e-05 -2.906239e-04 3.057797e-04 -9.206488e-04 5.269018e-04 8.170358e-04 -6.806754e-04 -1.084748e-03 3.658175e-04 -1.375835e-04 -1.109326e-05 2.876639e-04 6.391308e-04 3.391253e-04 5.021340e-04 3.960514e-04 3.186822e-04 4.106740e-04 8.659418e-05 -1.320952e-03
<VARIANCE> 39
 7.613908e+01 7.942633e+01 7.064298e+01 1.068963e+02 1.043664e+02 8.442190e+01 9.813719e+01 7.929951e+01 6.330093e+01 5.804049e+01 5.868478e+01 4.034313e+01 2.035732e+02 2.918777e+00 2.999896e+00 2.696221e+00 3.234708e+00 3.796805e+00 3.537514e+00 3.122008e+00 3.530123e+00 3.211184e+00 2.751677e+00 2.918783e+00 2.205635e+00 2.767889e+00 4.441071e-01 4.908952e-01 4.235638e-01 5.528627e-01 6.546136e-01 6.068612e-01 5.578120e-01 6.286693e-01 5.758418e-01 5.091527e-01 5.248156e-01 4.099197e-01 4.122296e-01
<GCONST> 1.344485e+02
<STATE> 4
<MEAN> 39
 -2.361165e+00 -5.436710e+00 -3.606422e+00 -4.345117e+00 -6.457594e+00 -4.451602e+00 -6.027453e+00 -3.565422e+00 -4.205627e+00 -5.165896e+00 -4.219341e+00 -3.305678e+00 6.741419e+01 8.891955e-04 -5.806509e-04 -1.343294e-04 5.696694e-04 -1.536884e-03 2.512651e-05 -3.712188e-05 -2.906239e-04 3.057797e-04 -9.206488e-04 5.269018e-04 8.170358e-04 -6.806754e-04 -1.084748e-03 3.658175e-04 -1.375835e-04 -1.109326e-05 2.876639e-04 6.391308e-04 3.391253e-04 5.021340e-04 3.960514e-04 3.186822e-04 4.106740e-04 8.659418e-05 -1.320952e-03
<VARIANCE> 39
 7.613908e+01 7.942633e+01 7.064298e+01 1.068963e+02 1.043664e+02 8.442190e+01 9.813719e+01 7.929951e+01 6.330093e+01 5.804049e+01 5.868478e+01 4.034313e+01 2.035732e+02 2.918777e+00 2.999896e+00 2.696221e+00 3.234708e+00 3.796805e+00 3.537514e+00 3.122008e+00 3.530123e+00 3.211184e+00 2.751677e+00 2.918783e+00 2.205635e+00 2.767889e+00 4.441071e-01 4.908952e-01 4.235638e-01 5.528627e-01 6.546136e-01 6.068612e-01 5.578120e-01 6.286693e-01 5.758418e-01 5.091527e-01 5.248156e-01 4.099197e-01 4.122296e-01
<GCONST> 1.344485e+02
<TRANSP> 5
 0.000000e+00 1.000000e+00 0.000000e+00 0.000000e+00 0.000000e+00
 0.000000e+00 6.000000e-01 4.000000e-01 0.000000e+00 0.000000e+00
 0.000000e+00 0.000000e+00 6.000000e-01 4.000000e-01 0.000000e+00
 0.000000e+00 0.000000e+00 0.000000e+00 7.000000e-01 3.000000e-01
 0.000000e+00 0.000000e+00 0.000000e+00 0.000000e+00 0.000000e+00
<ENDHMM>
~h "u"
<BEGINHMM>
<NUMSTATES> 5
<STATE> 2
<MEAN> 39
 -2.361165e+00 -5.436710e+00 -3.606422e+00 -4.345117e+00 -6.457594e+00 -4.451602e+00 -6.027453e+00 -3.565422e+00 -4.205627e+00 -5.165896e+00 -4.219341e+00 -3.305678e+00 6.741419e+01 8.891955e-04 -5.806509e-04 -1.343294e-04 5.696694e-04 -1.536884e-03 2.512651e-05 -3.712188e-05 -2.906239e-04 3.057797e-04 -9.206488e-04 5.269018e-04 8.170358e-04 -6.806754e-04 -1.084748e-03 3.658175e-04 -1.375835e-04 -1.109326e-05 2.876639e-04 6.391308e-04 3.391253e-04 5.021340e-04 3.960514e-04 3.186822e-04 4.106740e-04 8.659418e-05 -1.320952e-03
<VARIANCE> 39
 7.613908e+01 7.942633e+01 7.064298e+01 1.068963e+02 1.043664e+02 8.442190e+01 9.813719e+01 7.929951e+01 6.330093e+01 5.804049e+01 5.868478e+01 4.034313e+01 2.035732e+02 2.918777e+00 2.999896e+00 2.696221e+00 3.234708e+00 3.796805e+00 3.537514e+00 3.122008e+00 3.530123e+00 3.211184e+00 2.751677e+00 2.918783e+00 2.205635e+00 2.767889e+00 4.441071e-01 4.908952e-01 4.235638e-01 5.528627e-01 6.546136e-01 6.068612e-01 5.578120e-01 6.286693e-01 5.758418e-01 5.091527e-01 5.248156e-01 4.099197e-01 4.122296e-01
<GCONST> 1.344485e+02
<STATE> 3
<MEAN> 39
 -2.361165e+00 -5.436710e+00 -3.606422e+00 -4.345117e+00 -6.457594e+00 -4.451602e+00 -6.027453e+00 -3.565422e+00 -4.205627e+00 -5.165896e+00 -4.219341e+00 -3.305678e+00 6.741419e+01 8.891955e-04 -5.806509e-04 -1.343294e-04 5.696694e-04 -1.536884e-03 2.512651e-05 -3.712188e-05 -2.906239e-04 3.057797e-04 -9.206488e-04 5.269018e-04 8.170358e-04 -6.806754e-04 -1.084748e-03 3.658175e-04 -1.375835e-04 -1.109326e-05 2.876639e-04 6.391308e-04 3.391253e-04 5.021340e-04 3.960514e-04 3.186822e-04 4.106740e-04 8.659418e-05 -1.320952e-03
<VARIANCE> 39
 7.613908e+01 7.942633e+01 7.064298e+01 1.068963e+02 1.043664e+02 8.442190e+01 9.813719e+01 7.929951e+01 6.330093e+01 5.804049e+01 5.868478e+01 4.034313e+01 2.035732e+02 2.918777e+00 2.999896e+00 2.696221e+00 3.234708e+00 3.796805e+00 3.537514e+00 3.122008e+00 3.530123e+00 3.211184e+00 2.751677e+00 2.918783e+00 2.205635e+00 2.767889e+00 4.441071e-01 4.908952e-01 4.235638e-01 5.528627e-01 6.546136e-01 6.068612e-01 5.578120e-01 6.286693e-01 5.758418e-01 5.091527e-01 5.248156e-01 4.099197e-01 4.122296e-01
<GCONST> 1.344485e+02
<STATE> 4
<MEAN> 39
 -2.361165e+00 -5.436710e+00 -3.606422e+00 -4.345117e+00 -6.457594e+00 -4.451602e+00 -6.027453e+00 -3.565422e+00 -4.205627e+00 -5.165896e+00 -4.219341e+00 -3.305678e+00 6.741419e+01 8.891955e-04 -5.806509e-04 -1.343294e-04 5.696694e-04 -1.536884e-03 2.512651e-05 -3.712188e-05 -2.906239e-04 3.057797e-04 -9.206488e-04 5.269018e-04 8.170358e-04 -6.806754e-04 -1.084748e-03 3.658175e-04 -1.375835e-04 -1.109326e-05 2.876639e-04 6.391308e-04 3.391253e-04 5.021340e-04 3.960514e-04 3.186822e-04 4.106740e-04 8.659418e-05 -1.320952e-03
<VARIANCE> 39
 7.613908e+01 7.942633e+01 7.064298e+01 1.068963e+02 1.043664e+02 8.442190e+01 9.813719e+01 7.929951e+01 6.330093e+01 5.804049e+01 5.868478e+01 4.034313e+01 2.035732e+02 2.918777e+00 2.999896e+00 2.696221e+00 3.234708e+00 3.796805e+00 3.537514e+00 3.122008e+00 3.530123e+00 3.211184e+00 2.751677e+00 2.918783e+00 2.205635e+00 2.767889e+00 4.441071e-01 4.908952e-01 4.235638e-01 5.528627e-01 6.546136e-01 6.068612e-01 5.578120e-01 6.286693e-01 5.758418e-01 5.091527e-01 5.248156e-01 4.099197e-01 4.122296e-01
<GCONST> 1.344485e+02
<TRANSP> 5
 0.000000e+00 1.000000e+00 0.000000e+00 0.000000e+00 0.000000e+00
 0.000000e+00 6.000000e-01 4.000000e-01 0.000000e+00 0.000000e+00
 0.000000e+00 0.000000e+00 6.000000e-01 4.000000e-01 0.000000e+00
 0.000000e+00 0.000000e+00 0.000000e+00 7.000000e-01 3.000000e-01
 0.000000e+00 0.000000e+00 0.000000e+00 0.000000e+00 0.000000e+00
<ENDHMM>
~h "m"
<BEGINHMM>
<NUMSTATES> 5
<STATE> 2
<MEAN> 39
 -2.361165e+00 -5.436710e+00 -3.606422e+00 -4.345117e+00 -6.457594e+00 -4.451602e+00 -6.027453e+00 -3.565422e+00 -4.205627e+00 -5.165896e+00 -4.219341e+00 -3.305678e+00 6.741419e+01 8.891955e-04 -5.806509e-04 -1.343294e-04 5.696694e-04 -1.536884e-03 2.512651e-05 -3.712188e-05 -2.906239e-04 3.057797e-04 -9.206488e-04 5.269018e-04 8.170358e-04 -6.806754e-04 -1.084748e-03 3.658175e-04 -1.375835e-04 -1.109326e-05 2.876639e-04 6.391308e-04 3.391253e-04 5.021340e-04 3.960514e-04 3.186822e-04 4.106740e-04 8.659418e-05 -1.320952e-03
<VARIANCE> 39
 7.613908e+01 7.942633e+01 7.064298e+01 1.068963e+02 1.043664e+02 8.442190e+01 9.813719e+01 7.929951e+01 6.330093e+01 5.804049e+01 5.868478e+01 4.034313e+01 2.035732e+02 2.918777e+00 2.999896e+00 2.696221e+00 3.234708e+00 3.796805e+00 3.537514e+00 3.122008e+00 3.530123e+00 3.211184e+00 2.751677e+00 2.918783e+00 2.205635e+00 2.767889e+00 4.441071e-01 4.908952e-01 4.235638e-01 5.528627e-01 6.546136e-01 6.068612e-01 5.578120e-01 6.286693e-01 5.758418e-01 5.091527e-01 5.248156e-01 4.099197e-01 4.122296e-01
<GCONST> 1.344485e+02
<STATE> 3
<MEAN> 39
 -2.361165e+00 -5.436710e+00 -3.606422e+00 -4.345117e+00 -6.457594e+00 -4.451602e+00 -6.027453e+00 -3.565422e+00 -4.205627e+00 -5.165896e+00 -4.219341e+00 -3.305678e+00 6.741419e+01 8.891955e-04 -5.806509e-04 -1.343294e-04 5.696694e-04 -1.536884e-03 2.512651e-05 -3.712188e-05 -2.906239e-04 3.057797e-04 -9.206488e-04 5.269018e-04 8.170358e-04 -6.806754e-04 -1.084748e-03 3.658175e-04 -1.375835e-04 -1.109326e-05 2.876639e-04 6.391308e-04 3.391253e-04 5.021340e-04 3.960514e-04 3.186822e-04 4.106740e-04 8.659418e-05 -1.320952e-03
<VARIANCE> 39
 7.613908e+01 7.942633e+01 7.064298e+01 1.068963e+02 1.043664e+02 8.442190e+01 9.813719e+01 7.929951e+01 6.330093e+01 5.804049e+01 5.868478e+01 4.034313e+01 2.035732e+02 2.918777e+00 2.999896e+00 2.696221e+00 3.234708e+00 3.796805e+00 3.537514e+00 3.122008e+00 3.530123e+00 3.211184e+00 2.751677e+00 2.918783e+00 2.205635e+00 2.767889e+00 4.441071e-01 4.908952e-01 4.235638e-01 5.528627e-01 6.546136e-01 6.068612e-01 5.578120e-01 6.286693e-01 5.758418e-01 5.091527e-01 5.248156e-01 4.099197e-01 4.122296e-01
<GCONST> 1.344485e+02
<STATE> 4
<MEAN> 39
 -2.361165e+00 -5.436710e+00 -3.606422e+00 -4.345117e+00 -6.457594e+00 -4.451602e+00 -6.027453e+00 -3.565422e+00 -4.205627e+00 -5.165896e+00 -4.219341e+00 -3.305678e+00 6.741419e+01 8.891955e-04 -5.806509e-04 -1.343294e-04 5.696694e-04 -1.536884e-03 2.512651e-05 -3.712188e-05 -2.906239e-04 3.057797e-04 -9.206488e-04 5.269018e-04 8.170358e-04 -6.806754e-04 -1.084748e-03 3.658175e-04 -1.375835e-04 -1.109326e-05 2.876639e-04 6.391308e-04 3.391253e-04 5.021340e-04 3.960514e-04 3.186822e-04 4.106740e-04 8.659418e-05 -1.320952e-03
<VARIANCE> 39
 7.613908e+01 7.942633e+01 7.064298e+01 1.068963e+02 1.043664e+02 8.442190e+01 9.813719e+01 7.929951e+01 6.330093e+01 5.804049e+01 5.868478e+01 4.034313e+01 2.035732e+02 2.918777e+00 2.999896e+00 2.696221e+00 3.234708e+00 3.796805e+00 3.537514e+00 3.122008e+00 3.530123e+00 3.211184e+00 2.751677e+00 2.918783e+00 2.205635e+00 2.767889e+00 4.441071e-01 4.908952e-01 4.235638e-01 5.528627e-01 6.546136e-01 6.068612e-01 5.578120e-01 6.286693e-01 5.758418e-01 5.091527e-01 5.248156e-01 4.099197e-01 4.122296e-01
<GCONST> 1.344485e+02
<TRANSP> 5
 0.000000e+00 1.000000e+00 0.000000e+00 0.000000e+00 0.000000e+00
 0.000000e+00 6.000000e-01 4.000000e-01 0.000000e+00 0.000000e+00
 0.000000e+00 0.000000e+00 6.000000e-01 4.000000e-01 0.000000e+00
 0.000000e+00 0.000000e+00 0.000000e+00 7.000000e-01 3.000000e-01
 0.000000e+00 0.000000e+00 0.000000e+00 0.000000e+00 0.000000e+00
<ENDHMM>
~h "f"
<BEGINHMM>
<NUMSTATES> 5
<STATE> 2
<MEAN> 39
 -2.361165e+00 -5.436710e+00 -3.606422e+00 -4.345117e+00 -6.457594e+00 -4.451602e+00 -6.027453e+00 -3.565422e+00 -4.205627e+00 -5.165896e+00 -4.219341e+00 -3.305678e+00 6.741419e+01 8.891955e-04 -5.806509e-04 -1.343294e-04 5.696694e-04 -1.536884e-03 2.512651e-05 -3.712188e-05 -2.906239e-04 3.057797e-04 -9.206488e-04 5.269018e-04 8.170358e-04 -6.806754e-04 -1.084748e-03 3.658175e-04 -1.375835e-04 -1.109326e-05 2.876639e-04 6.391308e-04 3.391253e-04 5.021340e-04 3.960514e-04 3.186822e-04 4.106740e-04 8.659418e-05 -1.320952e-03
<VARIANCE> 39
 7.613908e+01 7.942633e+01 7.064298e+01 1.068963e+02 1.043664e+02 8.442190e+01 9.813719e+01 7.929951e+01 6.330093e+01 5.804049e+01 5.868478e+01 4.034313e+01 2.035732e+02 2.918777e+00 2.999896e+00 2.696221e+00 3.234708e+00 3.796805e+00 3.537514e+00 3.122008e+00 3.530123e+00 3.211184e+00 2.751677e+00 2.918783e+00 2.205635e+00 2.767889e+00 4.441071e-01 4.908952e-01 4.235638e-01 5.528627e-01 6.546136e-01 6.068612e-01 5.578120e-01 6.286693e-01 5.758418e-01 5.091527e-01 5.248156e-01 4.099197e-01 4.122296e-01
<GCONST> 1.344485e+02
<STATE> 3
<MEAN> 39
 -2.361165e+00 -5.436710e+00 -3.606422e+00 -4.345117e+00 -6.457594e+00 -4.451602e+00 -6.027453e+00 -3.565422e+00 -4.205627e+00 -5.165896e+00 -4.219341e+00 -3.305678e+00 6.741419e+01 8.891955e-04 -5.806509e-04 -1.343294e-04 5.696694e-04 -1.536884e-03 2.512651e-05 -3.712188e-05 -2.906239e-04 3.057797e-04 -9.206488e-04 5.269018e-04 8.170358e-04 -6.806754e-04 -1.084748e-03 3.658175e-04 -1.375835e-04 -1.109326e-05 2.876639e-04 6.391308e-04 3.391253e-04 5.021340e-04 3.960514e-04 3.186822e-04 4.106740e-04 8.659418e-05 -1.320952e-03
<VARIANCE> 39
 7.613908e+01 7.942633e+01 7.064298e+01 1.068963e+02 1.043664e+02 8.442190e+01 9.813719e+01 7.929951e+01 6.330093e+01 5.804049e+01 5.868478e+01 4.034313e+01 2.035732e+02 2.918777e+00 2.999896e+00 2.696221e+00 3.234708e+00 3.796805e+00 3.537514e+00 3.122008e+00 3.530123e+00 3.211184e+00 2.751677e+00 2.918783e+00 2.205635e+00 2.767889e+00 4.441071e-01 4.908952e-01 4.235638e-01 5.528627e-01 6.546136e-01 6.068612e-01 5.578120e-01 6.286693e-01 5.758418e-01 5.091527e-01 5.248156e-01 4.099197e-01 4.122296e-01
<GCONST> 1.344485e+02
<STATE> 4
<MEAN> 39
 -2.361165e+00 -5.436710e+00 -3.606422e+00 -4.345117e+00 -6.457594e+00 -4.451602e+00 -6.027453e+00 -3.565422e+00 -4.205627e+00 -5.165896e+00 -4.219341e+00 -3.305678e+00 6.741419e+01 8.891955e-04 -5.806509e-04 -1.343294e-04 5.696694e-04 -1.536884e-03 2.512651e-05 -3.712188e-05 -2.906239e-04 3.057797e-04 -9.206488e-04 5.269018e-04 8.170358e-04 -6.806754e-04 -1.084748e-03 3.658175e-04 -1.375835e-04 -1.109326e-05 2.876639e-04 6.391308e-04 3.391253e-04 5.021340e-04 3.960514e-04 3.186822e-04 4.106740e-04 8.659418e-05 -1.320952e-03
<VARIANCE> 39
 7.613908e+01 7.942633e+01 7.064298e+01 1.068963e+02 1.043664e+02 8.442190e+01 9.813719e+01 7.929951e+01 6.330093e+01 5.804049e+01 5.868478e+01 4.034313e+01 2.035732e+02 2.918777e+00 2.999896e+00 2.696221e+00 3.234708e+00 3.796805e+00 3.537514e+00 3.122008e+00 3.530123e+00 3.211184e+00 2.751677e+00 2.918783e+00 2.205635e+00 2.767889e+00 4.441071e-01 4.908952e-01 4.235638e-01 5.528627e-01 6.546136e-01 6.068612e-01 5.578120e-01 6.286693e-01 5.758418e-01 5.091527e-01 5.248156e-01 4.099197e-01 4.122296e-01
<GCONST> 1.344485e+02
<TRANSP> 5
 0.000000e+00 1.000000e+00 0.000000e+00 0.000000e+00 0.000000e+00
 0.000000e+00 6.000000e-01 4.000000e-01 0.000000e+00 0.000000e+00
 0.000000e+00 0.000000e+00 6.000000e-01 4.000000e-01 0.000000e+00
 0.000000e+00 0.000000e+00 0.000000e+00 7.000000e-01 3.000000e-01
 0.000000e+00 0.000000e+00 0.000000e+00 0.000000e+00 0.000000e+00
<ENDHMM>
~h "h"
<BEGINHMM>
<NUMSTATES> 5
<STATE> 2
<MEAN> 39
 -2.361165e+00 -5.436710e+00 -3.606422e+00 -4.345117e+00 -6.457594e+00 -4.451602e+00 -6.027453e+00 -3.565422e+00 -4.205627e+00 -5.165896e+00 -4.219341e+00 -3.305678e+00 6.741419e+01 8.891955e-04 -5.806509e-04 -1.343294e-04 5.696694e-04 -1.536884e-03 2.512651e-05 -3.712188e-05 -2.906239e-04 3.057797e-04 -9.206488e-04 5.269018e-04 8.170358e-04 -6.806754e-04 -1.084748e-03 3.658175e-04 -1.375835e-04 -1.109326e-05 2.876639e-04 6.391308e-04 3.391253e-04 5.021340e-04 3.960514e-04 3.186822e-04 4.106740e-04 8.659418e-05 -1.320952e-03
<VARIANCE> 39
 7.613908e+01 7.942633e+01 7.064298e+01 1.068963e+02 1.043664e+02 8.442190e+01 9.813719e+01 7.929951e+01 6.330093e+01 5.804049e+01 5.868478e+01 4.034313e+01 2.035732e+02 2.918777e+00 2.999896e+00 2.696221e+00 3.234708e+00 3.796805e+00 3.537514e+00 3.122008e+00 3.530123e+00 3.211184e+00 2.751677e+00 2.918783e+00 2.205635e+00 2.767889e+00 4.441071e-01 4.908952e-01 4.235638e-01 5.528627e-01 6.546136e-01 6.068612e-01 5.578120e-01 6.286693e-01 5.758418e-01 5.091527e-01 5.248156e-01 4.099197e-01 4.122296e-01
<GCONST> 1.344485e+02
<STATE> 3
<MEAN> 39
 -2.361165e+00 -5.436710e+00 -3.606422e+00 -4.345117e+00 -6.457594e+00 -4.451602e+00 -6.027453e+00 -3.565422e+00 -4.205627e+00 -5.165896e+00 -4.219341e+00 -3.305678e+00 6.741419e+01 8.891955e-04 -5.806509e-04 -1.343294e-04 5.696694e-04 -1.536884e-03 2.512651e-05 -3.712188e-05 -2.906239e-04 3.057797e-04 -9.206488e-04 5.269018e-04 8.170358e-04 -6.806754e-04 -1.084748e-03 3.658175e-04 -1.375835e-04 -1.109326e-05 2.876639e-04 6.391308e-04 3.391253e-04 5.021340e-04 3.960514e-04 3.186822e-04 4.106740e-04 8.659418e-05 -1.320952e-03
<VARIANCE> 39
 7.613908e+01 7.942633e+01 7.064298e+01 1.068963e+02 1.043664e+02 8.442190e+01 9.813719e+01 7.929951e+01 6.330093e+01 5.804049e+01 5.868478e+01 4.034313e+01 2.035732e+02 2.918777e+00 2.999896e+00 2.696221e+00 3.234708e+00 3.796805e+00 3.537514e+00 3.122008e+00 3.530123e+00 3.211184e+00 2.751677e+00 2.918783e+00 2.205635e+00 2.767889e+00 4.441071e-01 4.908952e-01 4.235638e-01 5.528627e-01 6.546136e-01 6.068612e-01 5.578120e-01 6.286693e-01 5.758418e-01 5.091527e-01 5.248156e-01 4.099197e-01 4.122296e-01
<GCONST> 1.344485e+02
<STATE> 4
<MEAN> 39
 -2.361165e+00 -5.436710e+00 -3.606422e+00 -4.345117e+00 -6.457594e+00 -4.451602e+00 -6.027453e+00 -3.565422e+00 -4.205627e+00 -5.165896e+00 -4.219341e+00 -3.305678e+00 6.741419e+01 8.891955e-04 -5.806509e-04 -1.343294e-04 5.696694e-04 -1.536884e-03 2.512651e-05 -3.712188e-05 -2.906239e-04 3.057797e-04 -9.206488e-04 5.269018e-04 8.170358e-04 -6.806754e-04 -1.084748e-03 3.658175e-04 -1.375835e-04 -1.109326e-05 2.876639e-04 6.391308e-04 3.391253e-04 5.021340e-04 3.960514e-04 3.186822e-04 4.106740e-04 8.659418e-05 -1.320952e-03
<VARIANCE> 39
 7.613908e+01 7.942633e+01 7.064298e+01 1.068963e+02 1.043664e+02 8.442190e+01 9.813719e+01 7.929951e+01 6.330093e+01 5.804049e+01 5.868478e+01 4.034313e+01 2.035732e+02 2.918777e+00 2.999896e+00 2.696221e+00 3.234708e+00 3.796805e+00 3.537514e+00 3.122008e+00 3.530123e+00 3.211184e+00 2.751677e+00 2.918783e+00 2.205635e+00 2.767889e+00 4.441071e-01 4.908952e-01 4.235638e-01 5.528627e-01 6.546136e-01 6.068612e-01 5.578120e-01 6.286693e-01 5.758418e-01 5.091527e-01 5.248156e-01 4.099197e-01 4.122296e-01
<GCONST> 1.344485e+02
<TRANSP> 5
 0.000000e+00 1.000000e+00 0.000000e+00 0.000000e+00 0.000000e+00
 0.000000e+00 6.000000e-01 4.000000e-01 0.000000e+00 0.000000e+00
 0.000000e+00 0.000000e+00 6.000000e-01 4.000000e-01 0.000000e+00
 0.000000e+00 0.000000e+00 0.000000e+00 7.000000e-01 3.000000e-01
 0.000000e+00 0.000000e+00 0.000000e+00 0.000000e+00 0.000000e+00
<ENDHMM>
~h "p"
<BEGINHMM>
<NUMSTATES> 5
<STATE> 2
<MEAN> 39
 -2.361165e+00 -5.436710e+00 -3.606422e+00 -4.345117e+00 -6.457594e+00 -4.451602e+00 -6.027453e+00 -3.565422e+00 -4.205627e+00 -5.165896e+00 -4.219341e+00 -3.305678e+00 6.741419e+01 8.891955e-04 -5.806509e-04 -1.343294e-04 5.696694e-04 -1.536884e-03 2.512651e-05 -3.712188e-05 -2.906239e-04 3.057797e-04 -9.206488e-04 5.269018e-04 8.170358e-04 -6.806754e-04 -1.084748e-03 3.658175e-04 -1.375835e-04 -1.109326e-05 2.876639e-04 6.391308e-04 3.391253e-04 5.021340e-04 3.960514e-04 3.186822e-04 4.106740e-04 8.659418e-05 -1.320952e-03
<VARIANCE> 39
 7.613908e+01 7.942633e+01 7.064298e+01 1.068963e+02 1.043664e+02 8.442190e+01 9.813719e+01 7.929951e+01 6.330093e+01 5.804049e+01 5.868478e+01 4.034313e+01 2.035732e+02 2.918777e+00 2.999896e+00 2.696221e+00 3.234708e+00 3.796805e+00 3.537514e+00 3.122008e+00 3.530123e+00 3.211184e+00 2.751677e+00 2.918783e+00 2.205635e+00 2.767889e+00 4.441071e-01 4.908952e-01 4.235638e-01 5.528627e-01 6.546136e-01 6.068612e-01 5.578120e-01 6.286693e-01 5.758418e-01 5.091527e-01 5.248156e-01 4.099197e-01 4.122296e-01
<GCONST> 1.344485e+02
<STATE> 3
<MEAN> 39
 -2.361165e+00 -5.436710e+00 -3.606422e+00 -4.345117e+00 -6.457594e+00 -4.451602e+00 -6.027453e+00 -3.565422e+00 -4.205627e+00 -5.165896e+00 -4.219341e+00 -3.305678e+00 6.741419e+01 8.891955e-04 -5.806509e-04 -1.343294e-04 5.696694e-04 -1.536884e-03 2.512651e-05 -3.712188e-05 -2.906239e-04 3.057797e-04 -9.206488e-04 5.269018e-04 8.170358e-04 -6.806754e-04 -1.084748e-03 3.658175e-04 -1.375835e-04 -1.109326e-05 2.876639e-04 6.391308e-04 3.391253e-04 5.021340e-04 3.960514e-04 3.186822e-04 4.106740e-04 8.659418e-05 -1.320952e-03
<VARIANCE> 39
 7.613908e+01 7.942633e+01 7.064298e+01 1.068963e+02 1.043664e+02 8.442190e+01 9.813719e+01 7.929951e+01 6.330093e+01 5.804049e+01 5.868478e+01 4.034313e+01 2.035732e+02 2.918777e+00 2.999896e+00 2.696221e+00 3.234708e+00 3.796805e+00 3.537514e+00 3.122008e+00 3.530123e+00 3.211184e+00 2.751677e+00 2.918783e+00 2.205635e+00 2.767889e+00 4.441071e-01 4.908952e-01 4.235638e-01 5.528627e-01 6.546136e-01 6.068612e-01 5.578120e-01 6.286693e-01 5.758418e-01 5.091527e-01 5.248156e-01 4.099197e-01 4.122296e-01
<GCONST> 1.344485e+02
<STATE> 4
<MEAN> 39
 -2.361165e+00 -5.436710e+00 -3.606422e+00 -4.345117e+00 -6.457594e+00 -4.451602e+00 -6.027453e+00 -3.565422e+00 -4.205627e+00 -5.165896e+00 -4.219341e+00 -3.305678e+00 6.741419e+01 8.891955e-04 -5.806509e-04 -1.343294e-04 5.696694e-04 -1.536884e-03 2.512651e-05 -3.712188e-05 -2.906239e-04 3.057797e-04 -9.206488e-04 5.269018e-04 8.170358e-04 -6.806754e-04 -1.084748e-03 3.658175e-04 -1.375835e-04 -1.109326e-05 2.876639e-04 6.391308e-04 3.391253e-04 5.021340e-04 3.960514e-04 3.186822e-04 4.106740e-04 8.659418e-05 -1.320952e-03
<VARIANCE> 39
 7.613908e+01 7.942633e+01 7.064298e+01 1.068963e+02 1.043664e+02 8.442190e+01 9.813719e+01 7.929951e+01 6.330093e+01 5.804049e+01 5.868478e+01 4.034313e+01 2.035732e+02 2.918777e+00 2.999896e+00 2.696221e+00 3.234708e+00 3.796805e+00 3.537514e+00 3.122008e+00 3.530123e+00 3.211184e+00 2.751677e+00 2.918783e+00 2.205635e+00 2.767889e+00 4.441071e-01 4.908952e-01 4.235638e-01 5.528627e-01 6.546136e-01 6.068612e-01 5.578120e-01 6.286693e-01 5.758418e-01 5.091527e-01 5.248156e-01 4.099197e-01 4.122296e-01
<GCONST> 1.344485e+02
<TRANSP> 5
 0.000000e+00 1.000000e+00 0.000000e+00 0.000000e+00 0.000000e+00
 0.000000e+00 6.000000e-01 4.000000e-01 0.000000e+00 0.000000e+00
 0.000000e+00 0.000000e+00 6.000000e-01 4.000000e-01 0.000000e+00
 0.000000e+00 0.000000e+00 0.000000e+00 7.000000e-01 3.000000e-01
 0.000000e+00 0.000000e+00 0.000000e+00 0.000000e+00 0.000000e+00
<ENDHMM>
~h "t"
<BEGINHMM>
<NUMSTATES> 5
<STATE> 2
<MEAN> 39
 -2.361165e+00 -5.436710e+00 -3.606422e+00 -4.345117e+00 -6.457594e+00 -4.451602e+00 -6.027453e+00 -3.565422e+00 -4.205627e+00 -5.165896e+00 -4.219341e+00 -3.305678e+00 6.741419e+01 8.891955e-04 -5.806509e-04 -1.343294e-04 5.696694e-04 -1.536884e-03 2.512651e-05 -3.712188e-05 -2.906239e-04 3.057797e-04 -9.206488e-04 5.269018e-04 8.170358e-04 -6.806754e-04 -1.084748e-03 3.658175e-04 -1.375835e-04 -1.109326e-05 2.876639e-04 6.391308e-04 3.391253e-04 5.021340e-04 3.960514e-04 3.186822e-04 4.106740e-04 8.659418e-05 -1.320952e-03
<VARIANCE> 39
 7.613908e+01 7.942633e+01 7.064298e+01 1.068963e+02 1.043664e+02 8.442190e+01 9.813719e+01 7.929951e+01 6.330093e+01 5.804049e+01 5.868478e+01 4.034313e+01 2.035732e+02 2.918777e+00 2.999896e+00 2.696221e+00 3.234708e+00 3.796805e+00 3.537514e+00 3.122008e+00 3.530123e+00 3.211184e+00 2.751677e+00 2.918783e+00 2.205635e+00 2.767889e+00 4.441071e-01 4.908952e-01 4.235638e-01 5.528627e-01 6.546136e-01 6.068612e-01 5.578120e-01 6.286693e-01 5.758418e-01 5.091527e-01 5.248156e-01 4.099197e-01 4.122296e-01
<GCONST> 1.344485e+02
<STATE> 3
<MEAN> 39
 -2.361165e+00 -5.436710e+00 -3.606422e+00 -4.345117e+00 -6.457594e+00 -4.451602e+00 -6.027453e+00 -3.565422e+00 -4.205627e+00 -5.165896e+00 -4.219341e+00 -3.305678e+00 6.741419e+01 8.891955e-04 -5.806509e-04 -1.343294e-04 5.696694e-04 -1.536884e-03 2.512651e-05 -3.712188e-05 -2.906239e-04 3.057797e-04 -9.206488e-04 5.269018e-04 8.170358e-04 -6.806754e-04 -1.084748e-03 3.658175e-04 -1.375835e-04 -1.109326e-05 2.876639e-04 6.391308e-04 3.391253e-04 5.021340e-04 3.960514e-04 3.186822e-04 4.106740e-04 8.659418e-05 -1.320952e-03
<VARIANCE> 39
 7.613908e+01 7.942633e+01 7.064298e+01 1.068963e+02 1.043664e+02 8.442190e+01 9.813719e+01 7.929951e+01 6.330093e+01 5.804049e+01 5.868478e+01 4.034313e+01 2.035732e+02 2.918777e+00 2.999896e+00 2.696221e+00 3.234708e+00 3.796805e+00 3.537514e+00 3.122008e+00 3.530123e+00 3.211184e+00 2.751677e+00 2.918783e+00 2.205635e+00 2.767889e+00 4.441071e-01 4.908952e-01 4.235638e-01 5.528627e-01 6.546136e-01 6.068612e-01 5.578120e-01 6.286693e-01 5.758418e-01 5.091527e-01 5.248156e-01 4.099197e-01 4.122296e-01
<GCONST> 1.344485e+02
<STATE> 4
<MEAN> 39
 -2.361165e+00 -5.436710e+00 -3.606422e+00 -4.345117e+00 -6.457594e+00 -4.451602e+00 -6.027453e+00 -3.565422e+00 -4.205627e+00 -5.165896e+00 -4.219341e+00 -3.305678e+00 6.741419e+01 8.891955e-04 -5.806509e-04 -1.343294e-04 5.696694e-04 -1.536884e-03 2.512651e-05 -3.712188e-05 -2.906239e-04 3.057797e-04 -9.206488e-04 5.269018e-04 8.170358e-04 -6.806754e-04 -1.084748e-03 3.658175e-04 -1.375835e-04 -1.109326e-05 2.876639e-04 6.391308e-04 3.391253e-04 5.021340e-04 3.960514e-04 3.186822e-04 4.106740e-04 8.659418e-05 -1.320952e-03
<VARIANCE> 39
 7.613908e+01 7.942633e+01 7.064298e+01 1.068963e+02 1.043664e+02 8.442190e+01 9.813719e+01 7.929951e+01 6.330093e+01 5.804049e+01 5.868478e+01 4.034313e+01 2.035732e+02 2.918777e+00 2.999896e+00 2.696221e+00 3.234708e+00 3.796805e+00 3.537514e+00 3.122008e+00 3.530123e+00 3.211184e+00 2.751677e+00 2.918783e+00 2.205635e+00 2.767889e+00 4.441071e-01 4.908952e-01 4.235638e-01 5.528627e-01 6.546136e-01 6.068612e-01 5.578120e-01 6.286693e-01 5.758418e-01 5.091527e-01 5.248156e-01 4.099197e-01 4.122296e-01
<GCONST> 1.344485e+02
<TRANSP> 5
 0.000000e+00 1.000000e+00 0.000000e+00 0.000000e+00 0.000000e+00
 0.000000e+00 6.000000e-01 4.000000e-01 0.000000e+00 0.000000e+00
 0.000000e+00 0.000000e+00 6.000000e-01 4.000000e-01 0.000000e+00
 0.000000e+00 0.000000e+00 0.000000e+00 7.000000e-01 3.000000e-01
 0.000000e+00 0.000000e+00 0.000000e+00 0.000000e+00 0.000000e+00
<ENDHMM>
~h "y"
<BEGINHMM>
<NUMSTATES> 5
<STATE> 2
<MEAN> 39
 -2.361165e+00 -5.436710e+00 -3.606422e+00 -4.345117e+00 -6.457594e+00 -4.451602e+00 -6.027453e+00 -3.565422e+00 -4.205627e+00 -5.165896e+00 -4.219341e+00 -3.305678e+00 6.741419e+01 8.891955e-04 -5.806509e-04 -1.343294e-04 5.696694e-04 -1.536884e-03 2.512651e-05 -3.712188e-05 -2.906239e-04 3.057797e-04 -9.206488e-04 5.269018e-04 8.170358e-04 -6.806754e-04 -1.084748e-03 3.658175e-04 -1.375835e-04 -1.109326e-05 2.876639e-04 6.391308e-04 3.391253e-04 5.021340e-04 3.960514e-04 3.186822e-04 4.106740e-04 8.659418e-05 -1.320952e-03
<VARIANCE> 39
 7.613908e+01 7.942633e+01 7.064298e+01 1.068963e+02 1.043664e+02 8.442190e+01 9.813719e+01 7.929951e+01 6.330093e+01 5.804049e+01 5.868478e+01 4.034313e+01 2.035732e+02 2.918777e+00 2.999896e+00 2.696221e+00 3.234708e+00 3.796805e+00 3.537514e+00 3.122008e+00 3.530123e+00 3.211184e+00 2.751677e+00 2.918783e+00 2.205635e+00 2.767889e+00 4.441071e-01 4.908952e-01 4.235638e-01 5.528627e-01 6.546136e-01 6.068612e-01 5.578120e-01 6.286693e-01 5.758418e-01 5.091527e-01 5.248156e-01 4.099197e-01 4.122296e-01
<GCONST> 1.344485e+02
<STATE> 3
<MEAN> 39
 -2.361165e+00 -5.436710e+00 -3.606422e+00 -4.345117e+00 -6.457594e+00 -4.451602e+00 -6.027453e+00 -3.565422e+00 -4.205627e+00 -5.165896e+00 -4.219341e+00 -3.305678e+00 6.741419e+01 8.891955e-04 -5.806509e-04 -1.343294e-04 5.696694e-04 -1.536884e-03 2.512651e-05 -3.712188e-05 -2.906239e-04 3.057797e-04 -9.206488e-04 5.269018e-04 8.170358e-04 -6.806754e-04 -1.084748e-03 3.658175e-04 -1.375835e-04 -1.109326e-05 2.876639e-04 6.391308e-04 3.391253e-04 5.021340e-04 3.960514e-04 3.186822e-04 4.106740e-04 8.659418e-05 -1.320952e-03
<VARIANCE> 39
 7.613908e+01 7.942633e+01 7.064298e+01 1.068963e+02 1.043664e+02 8.442190e+01 9.813719e+01 7.929951e+01 6.330093e+01 5.804049e+01 5.868478e+01 4.034313e+01 2.035732e+02 2.918777e+00 2.999896e+00 2.696221e+00 3.234708e+00 3.796805e+00 3.537514e+00 3.122008e+00 3.530123e+00 3.211184e+00 2.751677e+00 2.918783e+00 2.205635e+00 2.767889e+00 4.441071e-01 4.908952e-01 4.235638e-01 5.528627e-01 6.546136e-01 6.068612e-01 5.578120e-01 6.286693e-01 5.758418e-01 5.091527e-01 5.248156e-01 4.099197e-01 4.122296e-01
<GCONST> 1.344485e+02
<STATE> 4
<MEAN> 39
 -2.361165e+00 -5.436710e+00 -3.606422e+00 -4.345117e+00 -6.457594e+00 -4.451602e+00 -6.027453e+00 -3.565422e+00 -4.205627e+00 -5.165896e+00 -4.219341e+00 -3.305678e+00 6.741419e+01 8.891955e-04 -5.806509e-04 -1.343294e-04 5.696694e-04 -1.536884e-03 2.512651e-05 -3.712188e-05 -2.906239e-04 3.057797e-04 -9.206488e-04 5.269018e-04 8.170358e-04 -6.806754e-04 -1.084748e-03 3.658175e-04 -1.375835e-04 -1.109326e-05 2.876639e-04 6.391308e-04 3.391253e-04 5.021340e-04 3.960514e-04 3.186822e-04 4.106740e-04 8.659418e-05 -1.320952e-03
<VARIANCE> 39
 7.613908e+01 7.942633e+01 7.064298e+01 1.068963e+02 1.043664e+02 8.442190e+01 9.813719e+01 7.929951e+01 6.330093e+01 5.804049e+01 5.868478e+01 4.034313e+01 2.035732e+02 2.918777e+00 2.999896e+00 2.696221e+00 3.234708e+00 3.796805e+00 3.537514e+00 3.122008e+00 3.530123e+00 3.211184e+00 2.751677e+00 2.918783e+00 2.205635e+00 2.767889e+00 4.441071e-01 4.908952e-01 4.235638e-01 5.528627e-01 6.546136e-01 6.068612e-01 5.578120e-01 6.286693e-01 5.758418e-01 5.091527e-01 5.248156e-01 4.099197e-01 4.122296e-01
<GCONST> 1.344485e+02
<TRANSP> 5
 0.000000e+00 1.000000e+00 0.000000e+00 0.000000e+00 0.000000e+00
 0.000000e+00 6.000000e-01 4.000000e-01 0.000000e+00 0.000000e+00
 0.000000e+00 0.000000e+00 6.000000e-01 4.000000e-01 0.000000e+00
 0.000000e+00 0.000000e+00 0.000000e+00 7.000000e-01 3.000000e-01
 0.000000e+00 0.000000e+00 0.000000e+00 0.000000e+00 0.000000e+00
<ENDHMM>
~h "q"
<BEGINHMM>
<NUMSTATES> 5
<STATE> 2
<MEAN> 39
 -2.361165e+00 -5.436710e+00 -3.606422e+00 -4.345117e+00 -6.457594e+00 -4.451602e+00 -6.027453e+00 -3.565422e+00 -4.205627e+00 -5.165896e+00 -4.219341e+00 -3.305678e+00 6.741419e+01 8.891955e-04 -5.806509e-04 -1.343294e-04 5.696694e-04 -1.536884e-03 2.512651e-05 -3.712188e-05 -2.906239e-04 3.057797e-04 -9.206488e-04 5.269018e-04 8.170358e-04 -6.806754e-04 -1.084748e-03 3.658175e-04 -1.375835e-04 -1.109326e-05 2.876639e-04 6.391308e-04 3.391253e-04 5.021340e-04 3.960514e-04 3.186822e-04 4.106740e-04 8.659418e-05 -1.320952e-03
<VARIANCE> 39
 7.613908e+01 7.942633e+01 7.064298e+01 1.068963e+02 1.043664e+02 8.442190e+01 9.813719e+01 7.929951e+01 6.330093e+01 5.804049e+01 5.868478e+01 4.034313e+01 2.035732e+02 2.918777e+00 2.999896e+00 2.696221e+00 3.234708e+00 3.796805e+00 3.537514e+00 3.122008e+00 3.530123e+00 3.211184e+00 2.751677e+00 2.918783e+00 2.205635e+00 2.767889e+00 4.441071e-01 4.908952e-01 4.235638e-01 5.528627e-01 6.546136e-01 6.068612e-01 5.578120e-01 6.286693e-01 5.758418e-01 5.091527e-01 5.248156e-01 4.099197e-01 4.122296e-01
<GCONST> 1.344485e+02
<STATE> 3
<MEAN> 39
 -2.361165e+00 -5.436710e+00 -3.606422e+00 -4.345117e+00 -6.457594e+00 -4.451602e+00 -6.027453e+00 -3.565422e+00 -4.205627e+00 -5.165896e+00 -4.219341e+00 -3.305678e+00 6.741419e+01 8.891955e-04 -5.806509e-04 -1.343294e-04 5.696694e-04 -1.536884e-03 2.512651e-05 -3.712188e-05 -2.906239e-04 3.057797e-04 -9.206488e-04 5.269018e-04 8.170358e-04 -6.806754e-04 -1.084748e-03 3.658175e-04 -1.375835e-04 -1.109326e-05 2.876639e-04 6.391308e-04 3.391253e-04 5.021340e-04 3.960514e-04 3.186822e-04 4.106740e-04 8.659418e-05 -1.320952e-03
<VARIANCE> 39
 7.613908e+01 7.942633e+01 7.064298e+01 1.068963e+02 1.043664e+02 8.442190e+01 9.813719e+01 7.929951e+01 6.330093e+01 5.804049e+01 5.868478e+01 4.034313e+01 2.035732e+02 2.918777e+00 2.999896e+00 2.696221e+00 3.234708e+00 3.796805e+00 3.537514e+00 3.122008e+00 3.530123e+00 3.211184e+00 2.751677e+00 2.918783e+00 2.205635e+00 2.767889e+00 4.441071e-01 4.908952e-01 4.235638e-01 5.528627e-01 6.546136e-01 6.068612e-01 5.578120e-01 6.286693e-01 5.758418e-01 5.091527e-01 5.248156e-01 4.099197e-01 4.122296e-01
<GCONST> 1.344485e+02
<STATE> 4
<MEAN> 39
 -2.361165e+00 -5.436710e+00 -3.606422e+00 -4.345117e+00 -6.457594e+00 -4.451602e+00 -6.027453e+00 -3.565422e+00 -4.205627e+00 -5.165896e+00 -4.219341e+00 -3.305678e+00 6.741419e+01 8.891955e-04 -5.806509e-04 -1.343294e-04 5.696694e-04 -1.536884e-03 2.512651e-05 -3.712188e-05 -2.906239e-04 3.057797e-04 -9.206488e-04 5.269018e-04 8.170358e-04 -6.806754e-04 -1.084748e-03 3.658175e-04 -1.375835e-04 -1.109326e-05 2.876639e-04 6.391308e-04 3.391253e-04 5.021340e-04 3.960514e-04 3.186822e-04 4.106740e-04 8.659418e-05 -1.320952e-03
<VARIANCE> 39
 7.613908e+01 7.942633e+01 7.064298e+01 1.068963e+02 1.043664e+02 8.442190e+01 9.813719e+01 7.929951e+01 6.330093e+01 5.804049e+01 5.868478e+01 4.034313e+01 2.035732e+02 2.918777e+00 2.999896e+00 2.696221e+00 3.234708e+00 3.796805e+00 3.537514e+00 3.122008e+00 3.530123e+00 3.211184e+00 2.751677e+00 2.918783e+00 2.205635e+00 2.767889e+00 4.441071e-01 4.908952e-01 4.235638e-01 5.528627e-01 6.546136e-01 6.068612e-01 5.578120e-01 6.286693e-01 5.758418e-01 5.091527e-01 5.248156e-01 4.099197e-01 4.122296e-01
<GCONST> 1.344485e+02
<TRANSP> 5
 0.000000e+00 1.000000e+00 0.000000e+00 0.000000e+00 0.000000e+00
 0.000000e+00 6.000000e-01 4.000000e-01 0.000000e+00 0.000000e+00
 0.000000e+00 0.000000e+00 6.000000e-01 4.000000e-01 0.000000e+00
 0.000000e+00 0.000000e+00 0.000000e+00 7.000000e-01 3.000000e-01
 0.000000e+00 0.000000e+00 0.000000e+00 0.000000e+00 0.000000e+00
<ENDHMM>
~h "b"
<BEGINHMM>
<NUMSTATES> 5
<STATE> 2
<MEAN> 39
 -2.361165e+00 -5.436710e+00 -3.606422e+00 -4.345117e+00 -6.457594e+00 -4.451602e+00 -6.027453e+00 -3.565422e+00 -4.205627e+00 -5.165896e+00 -4.219341e+00 -3.305678e+00 6.741419e+01 8.891955e-04 -5.806509e-04 -1.343294e-04 5.696694e-04 -1.536884e-03 2.512651e-05 -3.712188e-05 -2.906239e-04 3.057797e-04 -9.206488e-04 5.269018e-04 8.170358e-04 -6.806754e-04 -1.084748e-03 3.658175e-04 -1.375835e-04 -1.109326e-05 2.876639e-04 6.391308e-04 3.391253e-04 5.021340e-04 3.960514e-04 3.186822e-04 4.106740e-04 8.659418e-05 -1.320952e-03
<VARIANCE> 39
 7.613908e+01 7.942633e+01 7.064298e+01 1.068963e+02 1.043664e+02 8.442190e+01 9.813719e+01 7.929951e+01 6.330093e+01 5.804049e+01 5.868478e+01 4.034313e+01 2.035732e+02 2.918777e+00 2.999896e+00 2.696221e+00 3.234708e+00 3.796805e+00 3.537514e+00 3.122008e+00 3.530123e+00 3.211184e+00 2.751677e+00 2.918783e+00 2.205635e+00 2.767889e+00 4.441071e-01 4.908952e-01 4.235638e-01 5.528627e-01 6.546136e-01 6.068612e-01 5.578120e-01 6.286693e-01 5.758418e-01 5.091527e-01 5.248156e-01 4.099197e-01 4.122296e-01
<GCONST> 1.344485e+02
<STATE> 3
<MEAN> 39
 -2.361165e+00 -5.436710e+00 -3.606422e+00 -4.345117e+00 -6.457594e+00 -4.451602e+00 -6.027453e+00 -3.565422e+00 -4.205627e+00 -5.165896e+00 -4.219341e+00 -3.305678e+00 6.741419e+01 8.891955e-04 -5.806509e-04 -1.343294e-04 5.696694e-04 -1.536884e-03 2.512651e-05 -3.712188e-05 -2.906239e-04 3.057797e-04 -9.206488e-04 5.269018e-04 8.170358e-04 -6.806754e-04 -1.084748e-03 3.658175e-04 -1.375835e-04 -1.109326e-05 2.876639e-04 6.391308e-04 3.391253e-04 5.021340e-04 3.960514e-04 3.186822e-04 4.106740e-04 8.659418e-05 -1.320952e-03
<VARIANCE> 39
 7.613908e+01 7.942633e+01 7.064298e+01 1.068963e+02 1.043664e+02 8.442190e+01 9.813719e+01 7.929951e+01 6.330093e+01 5.804049e+01 5.868478e+01 4.034313e+01 2.035732e+02 2.918777e+00 2.999896e+00 2.696221e+00 3.234708e+00 3.796805e+00 3.537514e+00 3.122008e+00 3.530123e+00 3.211184e+00 2.751677e+00 2.918783e+00 2.205635e+00 2.767889e+00 4.441071e-01 4.908952e-01 4.235638e-01 5.528627e-01 6.546136e-01 6.068612e-01 5.578120e-01 6.286693e-01 5.758418e-01 5.091527e-01 5.248156e-01 4.099197e-01 4.122296e-01
<GCONST> 1.344485e+02
<STATE> 4
<MEAN> 39
 -2.361165e+00 -5.436710e+00 -3.606422e+00 -4.345117e+00 -6.457594e+00 -4.451602e+00 -6.027453e+00 -3.565422e+00 -4.205627e+00 -5.165896e+00 -4.219341e+00 -3.305678e+00 6.741419e+01 8.891955e-04 -5.806509e-04 -1.343294e-04 5.696694e-04 -1.536884e-03 2.512651e-05 -3.712188e-05 -2.906239e-04 3.057797e-04 -9.206488e-04 5.269018e-04 8.170358e-04 -6.806754e-04 -1.084748e-03 3.658175e-04 -1.375835e-04 -1.109326e-05 2.876639e-04 6.391308e-04 3.391253e-04 5.021340e-04 3.960514e-04 3.186822e-04 4.106740e-04 8.659418e-05 -1.320952e-03
<VARIANCE> 39
 7.613908e+01 7.942633e+01 7.064298e+01 1.068963e+02 1.043664e+02 8.442190e+01 9.813719e+01 7.929951e+01 6.330093e+01 5.804049e+01 5.868478e+01 4.034313e+01 2.035732e+02 2.918777e+00 2.999896e+00 2.696221e+00 3.234708e+00 3.796805e+00 3.537514e+00 3.122008e+00 3.530123e+00 3.211184e+00 2.751677e+00 2.918783e+00 2.205635e+00 2.767889e+00 4.441071e-01 4.908952e-01 4.235638e-01 5.528627e-01 6.546136e-01 6.068612e-01 5.578120e-01 6.286693e-01 5.758418e-01 5.091527e-01 5.248156e-01 4.099197e-01 4.122296e-01
<GCONST> 1.344485e+02
<TRANSP> 5
 0.000000e+00 1.000000e+00 0.000000e+00 0.000000e+00 0.000000e+00
 0.000000e+00 6.000000e-01 4.000000e-01 0.000000e+00 0.000000e+00
 0.000000e+00 0.000000e+00 6.000000e-01 4.000000e-01 0.000000e+00
 0.000000e+00 0.000000e+00 0.000000e+00 7.000000e-01 3.000000e-01
 0.000000e+00 0.000000e+00 0.000000e+00 0.000000e+00 0.000000e+00
<ENDHMM>
~h "o"
<BEGINHMM>
<NUMSTATES> 5
<STATE> 2
<MEAN> 39
 -2.361165e+00 -5.436710e+00 -3.606422e+00 -4.345117e+00 -6.457594e+00 -4.451602e+00 -6.027453e+00 -3.565422e+00 -4.205627e+00 -5.165896e+00 -4.219341e+00 -3.305678e+00 6.741419e+01 8.891955e-04 -5.806509e-04 -1.343294e-04 5.696694e-04 -1.536884e-03 2.512651e-05 -3.712188e-05 -2.906239e-04 3.057797e-04 -9.206488e-04 5.269018e-04 8.170358e-04 -6.806754e-04 -1.084748e-03 3.658175e-04 -1.375835e-04 -1.109326e-05 2.876639e-04 6.391308e-04 3.391253e-04 5.021340e-04 3.960514e-04 3.186822e-04 4.106740e-04 8.659418e-05 -1.320952e-03
<VARIANCE> 39
 7.613908e+01 7.942633e+01 7.064298e+01 1.068963e+02 1.043664e+02 8.442190e+01 9.813719e+01 7.929951e+01 6.330093e+01 5.804049e+01 5.868478e+01 4.034313e+01 2.035732e+02 2.918777e+00 2.999896e+00 2.696221e+00 3.234708e+00 3.796805e+00 3.537514e+00 3.122008e+00 3.530123e+00 3.211184e+00 2.751677e+00 2.918783e+00 2.205635e+00 2.767889e+00 4.441071e-01 4.908952e-01 4.235638e-01 5.528627e-01 6.546136e-01 6.068612e-01 5.578120e-01 6.286693e-01 5.758418e-01 5.091527e-01 5.248156e-01 4.099197e-01 4.122296e-01
<GCONST> 1.344485e+02
<STATE> 3
<MEAN> 39
 -2.361165e+00 -5.436710e+00 -3.606422e+00 -4.345117e+00 -6.457594e+00 -4.451602e+00 -6.027453e+00 -3.565422e+00 -4.205627e+00 -5.165896e+00 -4.219341e+00 -3.305678e+00 6.741419e+01 8.891955e-04 -5.806509e-04 -1.343294e-04 5.696694e-04 -1.536884e-03 2.512651e-05 -3.712188e-05 -2.906239e-04 3.057797e-04 -9.206488e-04 5.269018e-04 8.170358e-04 -6.806754e-04 -1.084748e-03 3.658175e-04 -1.375835e-04 -1.109326e-05 2.876639e-04 6.391308e-04 3.391253e-04 5.021340e-04 3.960514e-04 3.186822e-04 4.106740e-04 8.659418e-05 -1.320952e-03
<VARIANCE> 39
 7.613908e+01 7.942633e+01 7.064298e+01 1.068963e+02 1.043664e+02 8.442190e+01 9.813719e+01 7.929951e+01 6.330093e+01 5.804049e+01 5.868478e+01 4.034313e+01 2.035732e+02 2.918777e+00 2.999896e+00 2.696221e+00 3.234708e+00 3.796805e+00 3.537514e+00 3.122008e+00 3.530123e+00 3.211184e+00 2.751677e+00 2.918783e+00 2.205635e+00 2.767889e+00 4.441071e-01 4.908952e-01 4.235638e-01 5.528627e-01 6.546136e-01 6.068612e-01 5.578120e-01 6.286693e-01 5.758418e-01 5.091527e-01 5.248156e-01 4.099197e-01 4.122296e-01
<GCONST> 1.344485e+02
<STATE> 4
<MEAN> 39
 -2.361165e+00 -5.436710e+00 -3.606422e+00 -4.345117e+00 -6.457594e+00 -4.451602e+00 -6.027453e+00 -3.565422e+00 -4.205627e+00 -5.165896e+00 -4.219341e+00 -3.305678e+00 6.741419e+01 8.891955e-04 -5.806509e-04 -1.343294e-04 5.696694e-04 -1.536884e-03 2.512651e-05 -3.712188e-05 -2.906239e-04 3.057797e-04 -9.206488e-04 5.269018e-04 8.170358e-04 -6.806754e-04 -1.084748e-03 3.658175e-04 -1.375835e-04 -1.109326e-05 2.876639e-04 6.391308e-04 3.391253e-04 5.021340e-04 3.960514e-04 3.186822e-04 4.106740e-04 8.659418e-05 -1.320952e-03
<VARIANCE> 39
 7.613908e+01 7.942633e+01 7.064298e+01 1.068963e+02 1.043664e+02 8.442190e+01 9.813719e+01 7.929951e+01 6.330093e+01 5.804049e+01 5.868478e+01 4.034313e+01 2.035732e+02 2.918777e+00 2.999896e+00 2.696221e+00 3.234708e+00 3.796805e+00 3.537514e+00 3.122008e+00 3.530123e+00 3.211184e+00 2.751677e+00 2.918783e+00 2.205635e+00 2.767889e+00 4.441071e-01 4.908952e-01 4.235638e-01 5.528627e-01 6.546136e-01 6.068612e-01 5.578120e-01 6.286693e-01 5.758418e-01 5.091527e-01 5.248156e-01 4.099197e-01 4.122296e-01
<GCONST> 1.344485e+02
<TRANSP> 5
 0.000000e+00 1.000000e+00 0.000000e+00 0.000000e+00 0.000000e+00
 0.000000e+00 6.000000e-01 4.000000e-01 0.000000e+00 0.000000e+00
 0.000000e+00 0.000000e+00 6.000000e-01 4.000000e-01 0.000000e+00
 0.000000e+00 0.000000e+00 0.000000e+00 7.000000e-01 3.000000e-01
 0.000000e+00 0.000000e+00 0.000000e+00 0.000000e+00 0.000000e+00
<ENDHMM>
~h "ny"
<BEGINHMM>
<NUMSTATES> 5
<STATE> 2
<MEAN> 39
 -2.361165e+00 -5.436710e+00 -3.606422e+00 -4.345117e+00 -6.457594e+00 -4.451602e+00 -6.027453e+00 -3.565422e+00 -4.205627e+00 -5.165896e+00 -4.219341e+00 -3.305678e+00 6.741419e+01 8.891955e-04 -5.806509e-04 -1.343294e-04 5.696694e-04 -1.536884e-03 2.512651e-05 -3.712188e-05 -2.906239e-04 3.057797e-04 -9.206488e-04 5.269018e-04 8.170358e-04 -6.806754e-04 -1.084748e-03 3.658175e-04 -1.375835e-04 -1.109326e-05 2.876639e-04 6.391308e-04 3.391253e-04 5.021340e-04 3.960514e-04 3.186822e-04 4.106740e-04 8.659418e-05 -1.320952e-03
<VARIANCE> 39
 7.613908e+01 7.942633e+01 7.064298e+01 1.068963e+02 1.043664e+02 8.442190e+01 9.813719e+01 7.929951e+01 6.330093e+01 5.804049e+01 5.868478e+01 4.034313e+01 2.035732e+02 2.918777e+00 2.999896e+00 2.696221e+00 3.234708e+00 3.796805e+00 3.537514e+00 3.122008e+00 3.530123e+00 3.211184e+00 2.751677e+00 2.918783e+00 2.205635e+00 2.767889e+00 4.441071e-01 4.908952e-01 4.235638e-01 5.528627e-01 6.546136e-01 6.068612e-01 5.578120e-01 6.286693e-01 5.758418e-01 5.091527e-01 5.248156e-01 4.099197e-01 4.122296e-01
<GCONST> 1.344485e+02
<STATE> 3
<MEAN> 39
 -2.361165e+00 -5.436710e+00 -3.606422e+00 -4.345117e+00 -6.457594e+00 -4.451602e+00 -6.027453e+00 -3.565422e+00 -4.205627e+00 -5.165896e+00 -4.219341e+00 -3.305678e+00 6.741419e+01 8.891955e-04 -5.806509e-04 -1.343294e-04 5.696694e-04 -1.536884e-03 2.512651e-05 -3.712188e-05 -2.906239e-04 3.057797e-04 -9.206488e-04 5.269018e-04 8.170358e-04 -6.806754e-04 -1.084748e-03 3.658175e-04 -1.375835e-04 -1.109326e-05 2.876639e-04 6.391308e-04 3.391253e-04 5.021340e-04 3.960514e-04 3.186822e-04 4.106740e-04 8.659418e-05 -1.320952e-03
<VARIANCE> 39
 7.613908e+01 7.942633e+01 7.064298e+01 1.068963e+02 1.043664e+02 8.442190e+01 9.813719e+01 7.929951e+01 6.330093e+01 5.804049e+01 5.868478e+01 4.034313e+01 2.035732e+02 2.918777e+00 2.999896e+00 2.696221e+00 3.234708e+00 3.796805e+00 3.537514e+00 3.122008e+00 3.530123e+00 3.211184e+00 2.751677e+00 2.918783e+00 2.205635e+00 2.767889e+00 4.441071e-01 4.908952e-01 4.235638e-01 5.528627e-01 6.546136e-01 6.068612e-01 5.578120e-01 6.286693e-01 5.758418e-01 5.091527e-01 5.248156e-01 4.099197e-01 4.122296e-01
<GCONST> 1.344485e+02
<STATE> 4
<MEAN> 39
 -2.361165e+00 -5.436710e+00 -3.606422e+00 -4.345117e+00 -6.457594e+00 -4.451602e+00 -6.027453e+00 -3.565422e+00 -4.205627e+00 -5.165896e+00 -4.219341e+00 -3.305678e+00 6.741419e+01 8.891955e-04 -5.806509e-04 -1.343294e-04 5.696694e-04 -1.536884e-03 2.512651e-05 -3.712188e-05 -2.906239e-04 3.057797e-04 -9.206488e-04 5.269018e-04 8.170358e-04 -6.806754e-04 -1.084748e-03 3.658175e-04 -1.375835e-04 -1.109326e-05 2.876639e-04 6.391308e-04 3.391253e-04 5.021340e-04 3.960514e-04 3.186822e-04 4.106740e-04 8.659418e-05 -1.320952e-03
<VARIANCE> 39
 7.613908e+01 7.942633e+01 7.064298e+01 1.068963e+02 1.043664e+02 8.442190e+01 9.813719e+01 7.929951e+01 6.330093e+01 5.804049e+01 5.868478e+01 4.034313e+01 2.035732e+02 2.918777e+00 2.999896e+00 2.696221e+00 3.234708e+00 3.796805e+00 3.537514e+00 3.122008e+00 3.530123e+00 3.211184e+00 2.751677e+00 2.918783e+00 2.205635e+00 2.767889e+00 4.441071e-01 4.908952e-01 4.235638e-01 5.528627e-01 6.546136e-01 6.068612e-01 5.578120e-01 6.286693e-01 5.758418e-01 5.091527e-01 5.248156e-01 4.099197e-01 4.122296e-01
<GCONST> 1.344485e+02
<TRANSP> 5
 0.000000e+00 1.000000e+00 0.000000e+00 0.000000e+00 0.000000e+00
 0.000000e+00 6.000000e-01 4.000000e-01 0.000000e+00 0.000000e+00
 0.000000e+00 0.000000e+00 6.000000e-01 4.000000e-01 0.000000e+00
 0.000000e+00 0.000000e+00 0.000000e+00 7.000000e-01 3.000000e-01
 0.000000e+00 0.000000e+00 0.000000e+00 0.000000e+00 0.000000e+00
<ENDHMM>
~h "g"
<BEGINHMM>
<NUMSTATES> 5
<STATE> 2
<MEAN> 39
 -2.361165e+00 -5.436710e+00 -3.606422e+00 -4.345117e+00 -6.457594e+00 -4.451602e+00 -6.027453e+00 -3.565422e+00 -4.205627e+00 -5.165896e+00 -4.219341e+00 -3.305678e+00 6.741419e+01 8.891955e-04 -5.806509e-04 -1.343294e-04 5.696694e-04 -1.536884e-03 2.512651e-05 -3.712188e-05 -2.906239e-04 3.057797e-04 -9.206488e-04 5.269018e-04 8.170358e-04 -6.806754e-04 -1.084748e-03 3.658175e-04 -1.375835e-04 -1.109326e-05 2.876639e-04 6.391308e-04 3.391253e-04 5.021340e-04 3.960514e-04 3.186822e-04 4.106740e-04 8.659418e-05 -1.320952e-03
<VARIANCE> 39
 7.613908e+01 7.942633e+01 7.064298e+01 1.068963e+02 1.043664e+02 8.442190e+01 9.813719e+01 7.929951e+01 6.330093e+01 5.804049e+01 5.868478e+01 4.034313e+01 2.035732e+02 2.918777e+00 2.999896e+00 2.696221e+00 3.234708e+00 3.796805e+00 3.537514e+00 3.122008e+00 3.530123e+00 3.211184e+00 2.751677e+00 2.918783e+00 2.205635e+00 2.767889e+00 4.441071e-01 4.908952e-01 4.235638e-01 5.528627e-01 6.546136e-01 6.068612e-01 5.578120e-01 6.286693e-01 5.758418e-01 5.091527e-01 5.248156e-01 4.099197e-01 4.122296e-01
<GCONST> 1.344485e+02
<STATE> 3
<MEAN> 39
 -2.361165e+00 -5.436710e+00 -3.606422e+00 -4.345117e+00 -6.457594e+00 -4.451602e+00 -6.027453e+00 -3.565422e+00 -4.205627e+00 -5.165896e+00 -4.219341e+00 -3.305678e+00 6.741419e+01 8.891955e-04 -5.806509e-04 -1.343294e-04 5.696694e-04 -1.536884e-03 2.512651e-05 -3.712188e-05 -2.906239e-04 3.057797e-04 -9.206488e-04 5.269018e-04 8.170358e-04 -6.806754e-04 -1.084748e-03 3.658175e-04 -1.375835e-04 -1.109326e-05 2.876639e-04 6.391308e-04 3.391253e-04 5.021340e-04 3.960514e-04 3.186822e-04 4.106740e-04 8.659418e-05 -1.320952e-03
<VARIANCE> 39
 7.613908e+01 7.942633e+01 7.064298e+01 1.068963e+02 1.043664e+02 8.442190e+01 9.813719e+01 7.929951e+01 6.330093e+01 5.804049e+01 5.868478e+01 4.034313e+01 2.035732e+02 2.918777e+00 2.999896e+00 2.696221e+00 3.234708e+00 3.796805e+00 3.537514e+00 3.122008e+00 3.530123e+00 3.211184e+00 2.751677e+00 2.918783e+00 2.205635e+00 2.767889e+00 4.441071e-01 4.908952e-01 4.235638e-01 5.528627e-01 6.546136e-01 6.068612e-01 5.578120e-01 6.286693e-01 5.758418e-01 5.091527e-01 5.248156e-01 4.099197e-01 4.122296e-01
<GCONST> 1.344485e+02
<STATE> 4
<MEAN> 39
 -2.361165e+00 -5.436710e+00 -3.606422e+00 -4.345117e+00 -6.457594e+00 -4.451602e+00 -6.027453e+00 -3.565422e+00 -4.205627e+00 -5.165896e+00 -4.219341e+00 -3.305678e+00 6.741419e+01 8.891955e-04 -5.806509e-04 -1.343294e-04 5.696694e-04 -1.536884e-03 2.512651e-05 -3.712188e-05 -2.906239e-04 3.057797e-04 -9.206488e-04 5.269018e-04 8.170358e-04 -6.806754e-04 -1.084748e-03 3.658175e-04 -1.375835e-04 -1.109326e-05 2.876639e-04 6.391308e-04 3.391253e-04 5.021340e-04 3.960514e-04 3.186822e-04 4.106740e-04 8.659418e-05 -1.320952e-03
<VARIANCE> 39
 7.613908e+01 7.942633e+01 7.064298e+01 1.068963e+02 1.043664e+02 8.442190e+01 9.813719e+01 7.929951e+01 6.330093e+01 5.804049e+01 5.868478e+01 4.034313e+01 2.035732e+02 2.918777e+00 2.999896e+00 2.696221e+00 3.234708e+00 3.796805e+00 3.537514e+00 3.122008e+00 3.530123e+00 3.211184e+00 2.751677e+00 2.918783e+00 2.205635e+00 2.767889e+00 4.441071e-01 4.908952e-01 4.235638e-01 5.528627e-01 6.546136e-01 6.068612e-01 5.578120e-01 6.286693e-01 5.758418e-01 5.091527e-01 5.248156e-01 4.099197e-01 4.122296e-01
<GCONST> 1.344485e+02
<TRANSP> 5
 0.000000e+00 1.000000e+00 0.000000e+00 0.000000e+00 0.000000e+00
 0.000000e+00 6.000000e-01 4.000000e-01 0.000000e+00 0.000000e+00
 0.000000e+00 0.000000e+00 6.000000e-01 4.000000e-01 0.000000e+00
 0.000000e+00 0.000000e+00 0.000000e+00 7.000000e-01 3.000000e-01
 0.000000e+00 0.000000e+00 0.000000e+00 0.000000e+00 0.000000e+00
<ENDHMM>
~h "r"
<BEGINHMM>
<NUMSTATES> 5
<STATE> 2
<MEAN> 39
 -2.361165e+00 -5.436710e+00 -3.606422e+00 -4.345117e+00 -6.457594e+00 -4.451602e+00 -6.027453e+00 -3.565422e+00 -4.205627e+00 -5.165896e+00 -4.219341e+00 -3.305678e+00 6.741419e+01 8.891955e-04 -5.806509e-04 -1.343294e-04 5.696694e-04 -1.536884e-03 2.512651e-05 -3.712188e-05 -2.906239e-04 3.057797e-04 -9.206488e-04 5.269018e-04 8.170358e-04 -6.806754e-04 -1.084748e-03 3.658175e-04 -1.375835e-04 -1.109326e-05 2.876639e-04 6.391308e-04 3.391253e-04 5.021340e-04 3.960514e-04 3.186822e-04 4.106740e-04 8.659418e-05 -1.320952e-03
<VARIANCE> 39
 7.613908e+01 7.942633e+01 7.064298e+01 1.068963e+02 1.043664e+02 8.442190e+01 9.813719e+01 7.929951e+01 6.330093e+01 5.804049e+01 5.868478e+01 4.034313e+01 2.035732e+02 2.918777e+00 2.999896e+00 2.696221e+00 3.234708e+00 3.796805e+00 3.537514e+00 3.122008e+00 3.530123e+00 3.211184e+00 2.751677e+00 2.918783e+00 2.205635e+00 2.767889e+00 4.441071e-01 4.908952e-01 4.235638e-01 5.528627e-01 6.546136e-01 6.068612e-01 5.578120e-01 6.286693e-01 5.758418e-01 5.091527e-01 5.248156e-01 4.099197e-01 4.122296e-01
<GCONST> 1.344485e+02
<STATE> 3
<MEAN> 39
 -2.361165e+00 -5.436710e+00 -3.606422e+00 -4.345117e+00 -6.457594e+00 -4.451602e+00 -6.027453e+00 -3.565422e+00 -4.205627e+00 -5.165896e+00 -4.219341e+00 -3.305678e+00 6.741419e+01 8.891955e-04 -5.806509e-04 -1.343294e-04 5.696694e-04 -1.536884e-03 2.512651e-05 -3.712188e-05 -2.906239e-04 3.057797e-04 -9.206488e-04 5.269018e-04 8.170358e-04 -6.806754e-04 -1.084748e-03 3.658175e-04 -1.375835e-04 -1.109326e-05 2.876639e-04 6.391308e-04 3.391253e-04 5.021340e-04 3.960514e-04 3.186822e-04 4.106740e-04 8.659418e-05 -1.320952e-03
<VARIANCE> 39
 7.613908e+01 7.942633e+01 7.064298e+01 1.068963e+02 1.043664e+02 8.442190e+01 9.813719e+01 7.929951e+01 6.330093e+01 5.804049e+01 5.868478e+01 4.034313e+01 2.035732e+02 2.918777e+00 2.999896e+00 2.696221e+00 3.234708e+00 3.796805e+00 3.537514e+00 3.122008e+00 3.530123e+00 3.211184e+00 2.751677e+00 2.918783e+00 2.205635e+00 2.767889e+00 4.441071e-01 4.908952e-01 4.235638e-01 5.528627e-01 6.546136e-01 6.068612e-01 5.578120e-01 6.286693e-01 5.758418e-01 5.091527e-01 5.248156e-01 4.099197e-01 4.122296e-01
<GCONST> 1.344485e+02
<STATE> 4
<MEAN> 39
 -2.361165e+00 -5.436710e+00 -3.606422e+00 -4.345117e+00 -6.457594e+00 -4.451602e+00 -6.027453e+00 -3.565422e+00 -4.205627e+00 -5.165896e+00 -4.219341e+00 -3.305678e+00 6.741419e+01 8.891955e-04 -5.806509e-04 -1.343294e-04 5.696694e-04 -1.536884e-03 2.512651e-05 -3.712188e-05 -2.906239e-04 3.057797e-04 -9.206488e-04 5.269018e-04 8.170358e-04 -6.806754e-04 -1.084748e-03 3.658175e-04 -1.375835e-04 -1.109326e-05 2.876639e-04 6.391308e-04 3.391253e-04 5.021340e-04 3.960514e-04 3.186822e-04 4.106740e-04 8.659418e-05 -1.320952e-03
<VARIANCE> 39
 7.613908e+01 7.942633e+01 7.064298e+01 1.068963e+02 1.043664e+02 8.442190e+01 9.813719e+01 7.929951e+01 6.330093e+01 5.804049e+01 5.868478e+01 4.034313e+01 2.035732e+02 2.918777e+00 2.999896e+00 2.696221e+00 3.234708e+00 3.796805e+00 3.537514e+00 3.122008e+00 3.530123e+00 3.211184e+00 2.751677e+00 2.918783e+00 2.205635e+00 2.767889e+00 4.441071e-01 4.908952e-01 4.235638e-01 5.528627e-01 6.546136e-01 6.068612e-01 5.578120e-01 6.286693e-01 5.758418e-01 5.091527e-01 5.248156e-01 4.099197e-01 4.122296e-01
<GCONST> 1.344485e+02
<TRANSP> 5
 0.000000e+00 1.000000e+00 0.000000e+00 0.000000e+00 0.000000e+00
 0.000000e+00 6.000000e-01 4.000000e-01 0.000000e+00 0.000000e+00
 0.000000e+00 0.000000e+00 6.000000e-01 4.000000e-01 0.000000e+00
 0.000000e+00 0.000000e+00 0.000000e+00 7.000000e-01 3.000000e-01
 0.000000e+00 0.000000e+00 0.000000e+00 0.000000e+00 0.000000e+00
<ENDHMM>
~h "ay"
<BEGINHMM>
<NUMSTATES> 5
<STATE> 2
<MEAN> 39
 -2.361165e+00 -5.436710e+00 -3.606422e+00 -4.345117e+00 -6.457594e+00 -4.451602e+00 -6.027453e+00 -3.565422e+00 -4.205627e+00 -5.165896e+00 -4.219341e+00 -3.305678e+00 6.741419e+01 8.891955e-04 -5.806509e-04 -1.343294e-04 5.696694e-04 -1.536884e-03 2.512651e-05 -3.712188e-05 -2.906239e-04 3.057797e-04 -9.206488e-04 5.269018e-04 8.170358e-04 -6.806754e-04 -1.084748e-03 3.658175e-04 -1.375835e-04 -1.109326e-05 2.876639e-04 6.391308e-04 3.391253e-04 5.021340e-04 3.960514e-04 3.186822e-04 4.106740e-04 8.659418e-05 -1.320952e-03
<VARIANCE> 39
 7.613908e+01 7.942633e+01 7.064298e+01 1.068963e+02 1.043664e+02 8.442190e+01 9.813719e+01 7.929951e+01 6.330093e+01 5.804049e+01 5.868478e+01 4.034313e+01 2.035732e+02 2.918777e+00 2.999896e+00 2.696221e+00 3.234708e+00 3.796805e+00 3.537514e+00 3.122008e+00 3.530123e+00 3.211184e+00 2.751677e+00 2.918783e+00 2.205635e+00 2.767889e+00 4.441071e-01 4.908952e-01 4.235638e-01 5.528627e-01 6.546136e-01 6.068612e-01 5.578120e-01 6.286693e-01 5.758418e-01 5.091527e-01 5.248156e-01 4.099197e-01 4.122296e-01
<GCONST> 1.344485e+02
<STATE> 3
<MEAN> 39
 -2.361165e+00 -5.436710e+00 -3.606422e+00 -4.345117e+00 -6.457594e+00 -4.451602e+00 -6.027453e+00 -3.565422e+00 -4.205627e+00 -5.165896e+00 -4.219341e+00 -3.305678e+00 6.741419e+01 8.891955e-04 -5.806509e-04 -1.343294e-04 5.696694e-04 -1.536884e-03 2.512651e-05 -3.712188e-05 -2.906239e-04 3.057797e-04 -9.206488e-04 5.269018e-04 8.170358e-04 -6.806754e-04 -1.084748e-03 3.658175e-04 -1.375835e-04 -1.109326e-05 2.876639e-04 6.391308e-04 3.391253e-04 5.021340e-04 3.960514e-04 3.186822e-04 4.106740e-04 8.659418e-05 -1.320952e-03
<VARIANCE> 39
 7.613908e+01 7.942633e+01 7.064298e+01 1.068963e+02 1.043664e+02 8.442190e+01 9.813719e+01 7.929951e+01 6.330093e+01 5.804049e+01 5.868478e+01 4.034313e+01 2.035732e+02 2.918777e+00 2.999896e+00 2.696221e+00 3.234708e+00 3.796805e+00 3.537514e+00 3.122008e+00 3.530123e+00 3.211184e+00 2.751677e+00 2.918783e+00 2.205635e+00 2.767889e+00 4.441071e-01 4.908952e-01 4.235638e-01 5.528627e-01 6.546136e-01 6.068612e-01 5.578120e-01 6.286693e-01 5.758418e-01 5.091527e-01 5.248156e-01 4.099197e-01 4.122296e-01
<GCONST> 1.344485e+02
<STATE> 4
<MEAN> 39
 -2.361165e+00 -5.436710e+00 -3.606422e+00 -4.345117e+00 -6.457594e+00 -4.451602e+00 -6.027453e+00 -3.565422e+00 -4.205627e+00 -5.165896e+00 -4.219341e+00 -3.305678e+00 6.741419e+01 8.891955e-04 -5.806509e-04 -1.343294e-04 5.696694e-04 -1.536884e-03 2.512651e-05 -3.712188e-05 -2.906239e-04 3.057797e-04 -9.206488e-04 5.269018e-04 8.170358e-04 -6.806754e-04 -1.084748e-03 3.658175e-04 -1.375835e-04 -1.109326e-05 2.876639e-04 6.391308e-04 3.391253e-04 5.021340e-04 3.960514e-04 3.186822e-04 4.106740e-04 8.659418e-05 -1.320952e-03
<VARIANCE> 39
 7.613908e+01 7.942633e+01 7.064298e+01 1.068963e+02 1.043664e+02 8.442190e+01 9.813719e+01 7.929951e+01 6.330093e+01 5.804049e+01 5.868478e+01 4.034313e+01 2.035732e+02 2.918777e+00 2.999896e+00 2.696221e+00 3.234708e+00 3.796805e+00 3.537514e+00 3.122008e+00 3.530123e+00 3.211184e+00 2.751677e+00 2.918783e+00 2.205635e+00 2.767889e+00 4.441071e-01 4.908952e-01 4.235638e-01 5.528627e-01 6.546136e-01 6.068612e-01 5.578120e-01 6.286693e-01 5.758418e-01 5.091527e-01 5.248156e-01 4.099197e-01 4.122296e-01
<GCONST> 1.344485e+02
<TRANSP> 5
 0.000000e+00 1.000000e+00 0.000000e+00 0.000000e+00 0.000000e+00
 0.000000e+00 6.000000e-01 4.000000e-01 0.000000e+00 0.000000e+00
 0.000000e+00 0.000000e+00 6.000000e-01 4.000000e-01 0.000000e+00
 0.000000e+00 0.000000e+00 0.000000e+00 7.000000e-01 3.000000e-01
 0.000000e+00 0.000000e+00 0.000000e+00 0.000000e+00 0.000000e+00
<ENDHMM>
~h "j"
<BEGINHMM>
<NUMSTATES> 5
<STATE> 2
<MEAN> 39
 -2.361165e+00 -5.436710e+00 -3.606422e+00 -4.345117e+00 -6.457594e+00 -4.451602e+00 -6.027453e+00 -3.565422e+00 -4.205627e+00 -5.165896e+00 -4.219341e+00 -3.305678e+00 6.741419e+01 8.891955e-04 -5.806509e-04 -1.343294e-04 5.696694e-04 -1.536884e-03 2.512651e-05 -3.712188e-05 -2.906239e-04 3.057797e-04 -9.206488e-04 5.269018e-04 8.170358e-04 -6.806754e-04 -1.084748e-03 3.658175e-04 -1.375835e-04 -1.109326e-05 2.876639e-04 6.391308e-04 3.391253e-04 5.021340e-04 3.960514e-04 3.186822e-04 4.106740e-04 8.659418e-05 -1.320952e-03
<VARIANCE> 39
 7.613908e+01 7.942633e+01 7.064298e+01 1.068963e+02 1.043664e+02 8.442190e+01 9.813719e+01 7.929951e+01 6.330093e+01 5.804049e+01 5.868478e+01 4.034313e+01 2.035732e+02 2.918777e+00 2.999896e+00 2.696221e+00 3.234708e+00 3.796805e+00 3.537514e+00 3.122008e+00 3.530123e+00 3.211184e+00 2.751677e+00 2.918783e+00 2.205635e+00 2.767889e+00 4.441071e-01 4.908952e-01 4.235638e-01 5.528627e-01 6.546136e-01 6.068612e-01 5.578120e-01 6.286693e-01 5.758418e-01 5.091527e-01 5.248156e-01 4.099197e-01 4.122296e-01
<GCONST> 1.344485e+02
<STATE> 3
<MEAN> 39
 -2.361165e+00 -5.436710e+00 -3.606422e+00 -4.345117e+00 -6.457594e+00 -4.451602e+00 -6.027453e+00 -3.565422e+00 -4.205627e+00 -5.165896e+00 -4.219341e+00 -3.305678e+00 6.741419e+01 8.891955e-04 -5.806509e-04 -1.343294e-04 5.696694e-04 -1.536884e-03 2.512651e-05 -3.712188e-05 -2.906239e-04 3.057797e-04 -9.206488e-04 5.269018e-04 8.170358e-04 -6.806754e-04 -1.084748e-03 3.658175e-04 -1.375835e-04 -1.109326e-05 2.876639e-04 6.391308e-04 3.391253e-04 5.021340e-04 3.960514e-04 3.186822e-04 4.106740e-04 8.659418e-05 -1.320952e-03
<VARIANCE> 39
 7.613908e+01 7.942633e+01 7.064298e+01 1.068963e+02 1.043664e+02 8.442190e+01 9.813719e+01 7.929951e+01 6.330093e+01 5.804049e+01 5.868478e+01 4.034313e+01 2.035732e+02 2.918777e+00 2.999896e+00 2.696221e+00 3.234708e+00 3.796805e+00 3.537514e+00 3.122008e+00 3.530123e+00 3.211184e+00 2.751677e+00 2.918783e+00 2.205635e+00 2.767889e+00 4.441071e-01 4.908952e-01 4.235638e-01 5.528627e-01 6.546136e-01 6.068612e-01 5.578120e-01 6.286693e-01 5.758418e-01 5.091527e-01 5.248156e-01 4.099197e-01 4.122296e-01
<GCONST> 1.344485e+02
<STATE> 4
<MEAN> 39
 -2.361165e+00 -5.436710e+00 -3.606422e+00 -4.345117e+00 -6.457594e+00 -4.451602e+00 -6.027453e+00 -3.565422e+00 -4.205627e+00 -5.165896e+00 -4.219341e+00 -3.305678e+00 6.741419e+01 8.891955e-04 -5.806509e-04 -1.343294e-04 5.696694e-04 -1.536884e-03 2.512651e-05 -3.712188e-05 -2.906239e-04 3.057797e-04 -9.206488e-04 5.269018e-04 8.170358e-04 -6.806754e-04 -1.084748e-03 3.658175e-04 -1.375835e-04 -1.109326e-05 2.876639e-04 6.391308e-04 3.391253e-04 5.021340e-04 3.960514e-04 3.186822e-04 4.106740e-04 8.659418e-05 -1.320952e-03
<VARIANCE> 39
 7.613908e+01 7.942633e+01 7.064298e+01 1.068963e+02 1.043664e+02 8.442190e+01 9.813719e+01 7.929951e+01 6.330093e+01 5.804049e+01 5.868478e+01 4.034313e+01 2.035732e+02 2.918777e+00 2.999896e+00 2.696221e+00 3.234708e+00 3.796805e+00 3.537514e+00 3.122008e+00 3.530123e+00 3.211184e+00 2.751677e+00 2.918783e+00 2.205635e+00 2.767889e+00 4.441071e-01 4.908952e-01 4.235638e-01 5.528627e-01 6.546136e-01 6.068612e-01 5.578120e-01 6.286693e-01 5.758418e-01 5.091527e-01 5.248156e-01 4.099197e-01 4.122296e-01
<GCONST> 1.344485e+02
<TRANSP> 5
 0.000000e+00 1.000000e+00 0.000000e+00 0.000000e+00 0.000000e+00
 0.000000e+00 6.000000e-01 4.000000e-01 0.000000e+00 0.000000e+00
 0.000000e+00 0.000000e+00 6.000000e-01 4.000000e-01 0.000000e+00
 0.000000e+00 0.000000e+00 0.000000e+00 7.000000e-01 3.000000e-01
 0.000000e+00 0.000000e+00 0.000000e+00 0.000000e+00 0.000000e+00
<ENDHMM>
~h "kh"
<BEGINHMM>
<NUMSTATES> 5
<STATE> 2
<MEAN> 39
 -2.361165e+00 -5.436710e+00 -3.606422e+00 -4.345117e+00 -6.457594e+00 -4.451602e+00 -6.027453e+00 -3.565422e+00 -4.205627e+00 -5.165896e+00 -4.219341e+00 -3.305678e+00 6.741419e+01 8.891955e-04 -5.806509e-04 -1.343294e-04 5.696694e-04 -1.536884e-03 2.512651e-05 -3.712188e-05 -2.906239e-04 3.057797e-04 -9.206488e-04 5.269018e-04 8.170358e-04 -6.806754e-04 -1.084748e-03 3.658175e-04 -1.375835e-04 -1.109326e-05 2.876639e-04 6.391308e-04 3.391253e-04 5.021340e-04 3.960514e-04 3.186822e-04 4.106740e-04 8.659418e-05 -1.320952e-03
<VARIANCE> 39
 7.613908e+01 7.942633e+01 7.064298e+01 1.068963e+02 1.043664e+02 8.442190e+01 9.813719e+01 7.929951e+01 6.330093e+01 5.804049e+01 5.868478e+01 4.034313e+01 2.035732e+02 2.918777e+00 2.999896e+00 2.696221e+00 3.234708e+00 3.796805e+00 3.537514e+00 3.122008e+00 3.530123e+00 3.211184e+00 2.751677e+00 2.918783e+00 2.205635e+00 2.767889e+00 4.441071e-01 4.908952e-01 4.235638e-01 5.528627e-01 6.546136e-01 6.068612e-01 5.578120e-01 6.286693e-01 5.758418e-01 5.091527e-01 5.248156e-01 4.099197e-01 4.122296e-01
<GCONST> 1.344485e+02
<STATE> 3
<MEAN> 39
 -2.361165e+00 -5.436710e+00 -3.606422e+00 -4.345117e+00 -6.457594e+00 -4.451602e+00 -6.027453e+00 -3.565422e+00 -4.205627e+00 -5.165896e+00 -4.219341e+00 -3.305678e+00 6.741419e+01 8.891955e-04 -5.806509e-04 -1.343294e-04 5.696694e-04 -1.536884e-03 2.512651e-05 -3.712188e-05 -2.906239e-04 3.057797e-04 -9.206488e-04 5.269018e-04 8.170358e-04 -6.806754e-04 -1.084748e-03 3.658175e-04 -1.375835e-04 -1.109326e-05 2.876639e-04 6.391308e-04 3.391253e-04 5.021340e-04 3.960514e-04 3.186822e-04 4.106740e-04 8.659418e-05 -1.320952e-03
<VARIANCE> 39
 7.613908e+01 7.942633e+01 7.064298e+01 1.068963e+02 1.043664e+02 8.442190e+01 9.813719e+01 7.929951e+01 6.330093e+01 5.804049e+01 5.868478e+01 4.034313e+01 2.035732e+02 2.918777e+00 2.999896e+00 2.696221e+00 3.234708e+00 3.796805e+00 3.537514e+00 3.122008e+00 3.530123e+00 3.211184e+00 2.751677e+00 2.918783e+00 2.205635e+00 2.767889e+00 4.441071e-01 4.908952e-01 4.235638e-01 5.528627e-01 6.546136e-01 6.068612e-01 5.578120e-01 6.286693e-01 5.758418e-01 5.091527e-01 5.248156e-01 4.099197e-01 4.122296e-01
<GCONST> 1.344485e+02
<STATE> 4
<MEAN> 39
 -2.361165e+00 -5.436710e+00 -3.606422e+00 -4.345117e+00 -6.457594e+00 -4.451602e+00 -6.027453e+00 -3.565422e+00 -4.205627e+00 -5.165896e+00 -4.219341e+00 -3.305678e+00 6.741419e+01 8.891955e-04 -5.806509e-04 -1.343294e-04 5.696694e-04 -1.536884e-03 2.512651e-05 -3.712188e-05 -2.906239e-04 3.057797e-04 -9.206488e-04 5.269018e-04 8.170358e-04 -6.806754e-04 -1.084748e-03 3.658175e-04 -1.375835e-04 -1.109326e-05 2.876639e-04 6.391308e-04 3.391253e-04 5.021340e-04 3.960514e-04 3.186822e-04 4.106740e-04 8.659418e-05 -1.320952e-03
<VARIANCE> 39
 7.613908e+01 7.942633e+01 7.064298e+01 1.068963e+02 1.043664e+02 8.442190e+01 9.813719e+01 7.929951e+01 6.330093e+01 5.804049e+01 5.868478e+01 4.034313e+01 2.035732e+02 2.918777e+00 2.999896e+00 2.696221e+00 3.234708e+00 3.796805e+00 3.537514e+00 3.122008e+00 3.530123e+00 3.211184e+00 2.751677e+00 2.918783e+00 2.205635e+00 2.767889e+00 4.441071e-01 4.908952e-01 4.235638e-01 5.528627e-01 6.546136e-01 6.068612e-01 5.578120e-01 6.286693e-01 5.758418e-01 5.091527e-01 5.248156e-01 4.099197e-01 4.122296e-01
<GCONST> 1.344485e+02
<TRANSP> 5
 0.000000e+00 1.000000e+00 0.000000e+00 0.000000e+00 0.000000e+00
 0.000000e+00 6.000000e-01 4.000000e-01 0.000000e+00 0.000000e+00
 0.000000e+00 0.000000e+00 6.000000e-01 4.000000e-01 0.000000e+00
 0.000000e+00 0.000000e+00 0.000000e+00 7.000000e-01 3.000000e-01
 0.000000e+00 0.000000e+00 0.000000e+00 0.000000e+00 0.000000e+00
<ENDHMM>
~h "aw"
<BEGINHMM>
<NUMSTATES> 5
<STATE> 2
<MEAN> 39
 -2.361165e+00 -5.436710e+00 -3.606422e+00 -4.345117e+00 -6.457594e+00 -4.451602e+00 -6.027453e+00 -3.565422e+00 -4.205627e+00 -5.165896e+00 -4.219341e+00 -3.305678e+00 6.741419e+01 8.891955e-04 -5.806509e-04 -1.343294e-04 5.696694e-04 -1.536884e-03 2.512651e-05 -3.712188e-05 -2.906239e-04 3.057797e-04 -9.206488e-04 5.269018e-04 8.170358e-04 -6.806754e-04 -1.084748e-03 3.658175e-04 -1.375835e-04 -1.109326e-05 2.876639e-04 6.391308e-04 3.391253e-04 5.021340e-04 3.960514e-04 3.186822e-04 4.106740e-04 8.659418e-05 -1.320952e-03
<VARIANCE> 39
