~o
<STREAMINFO> 1 39
<VECSIZE> 39<NULLD><MFCC_D_A_0><DIAGC>
~h "proto"
<BEGINHMM>
<NUMSTATES> 5
<STATE> 2
<MEAN> 39
 -2.361163e+00 -5.436684e+00 -3.606505e+00 -4.344953e+00 -6.457521e+00 -4.451596e+00 -6.027385e+00 -3.565503e+00 -4.205769e+00 -5.165998e+00 -4.219221e+00 -3.305664e+00 6.741933e+01 8.892317e-04 -5.806410e-04 -1.343325e-04 5.696742e-04 -1.536921e-03 2.512287e-05 -3.711805e-05 -2.906257e-04 3.057732e-04 -9.206502e-04 5.268913e-04 8.170382e-04 -6.806576e-04 -1.084729e-03 3.658228e-04 -1.375843e-04 -1.109394e-05 2.876610e-04 6.391385e-04 3.391214e-04 5.021515e-04 3.960428e-04 3.186887e-04 4.106755e-04 8.659549e-05 -1.320953e-03
<VARIANCE> 39
 7.615086e+01 7.944635e+01 7.065453e+01 1.069318e+02 1.044021e+02 8.443864e+01 9.814817e+01 7.931328e+01 6.331483e+01 5.805337e+01 5.870295e+01 4.035014e+01 2.029614e+02 2.919601e+00 3.000638e+00 2.696801e+00 3.235495e+00 3.797835e+00 3.538289e+00 3.122398e+00 3.530797e+00 3.211710e+00 2.752178e+00 2.919142e+00 2.206200e+00 2.768679e+00 4.442441e-01 4.910374e-01 4.236371e-01 5.529776e-01 6.547455e-01 6.069641e-01 5.579157e-01 6.287679e-01 5.759500e-01 5.092444e-01 5.249189e-01 4.099956e-01 4.123602e-01
<GCONST> 1.344538e+02
<STATE> 3
<MEAN> 39
 -2.361163e+00 -5.436684e+00 -3.606505e+00 -4.344953e+00 -6.457521e+00 -4.451596e+00 -6.027385e+00 -3.565503e+00 -4.205769e+00 -5.165998e+00 -4.219221e+00 -3.305664e+00 6.741933e+01 8.892317e-04 -5.806410e-04 -1.343325e-04 5.696742e-04 -1.536921e-03 2.512287e-05 -3.711805e-05 -2.906257e-04 3.057732e-04 -9.206502e-04 5.268913e-04 8.170382e-04 -6.806576e-04 -1.084729e-03 3.658228e-04 -1.375843e-04 -1.109394e-05 2.876610e-04 6.391385e-04 3.391214e-04 5.021515e-04 3.960428e-04 3.186887e-04 4.106755e-04 8.659549e-05 -1.320953e-03
<VARIANCE> 39
 7.615086e+01 7.944635e+01 7.065453e+01 1.069318e+02 1.044021e+02 8.443864e+01 9.814817e+01 7.931328e+01 6.331483e+01 5.805337e+01 5.870295e+01 4.035014e+01 2.029614e+02 2.919601e+00 3.000638e+00 2.696801e+00 3.235495e+00 3.797835e+00 3.538289e+00 3.122398e+00 3.530797e+00 3.211710e+00 2.752178e+00 2.919142e+00 2.206200e+00 2.768679e+00 4.442441e-01 4.910374e-01 4.236371e-01 5.529776e-01 6.547455e-01 6.069641e-01 5.579157e-01 6.287679e-01 5.759500e-01 5.092444e-01 5.249189e-01 4.099956e-01 4.123602e-01
<GCONST> 1.344538e+02
<STATE> 4
<MEAN> 39
 -2.361163e+00 -5.436684e+00 -3.606505e+00 -4.344953e+00 -6.457521e+00 -4.451596e+00 -6.027385e+00 -3.565503e+00 -4.205769e+00 -5.165998e+00 -4.219221e+00 -3.305664e+00 6.741933e+01 8.892317e-04 -5.806410e-04 -1.343325e-04 5.696742e-04 -1.536921e-03 2.512287e-05 -3.711805e-05 -2.906257e-04 3.057732e-04 -9.206502e-04 5.268913e-04 8.170382e-04 -6.806576e-04 -1.084729e-03 3.658228e-04 -1.375843e-04 -1.109394e-05 2.876610e-04 6.391385e-04 3.391214e-04 5.021515e-04 3.960428e-04 3.186887e-04 4.106755e-04 8.659549e-05 -1.320953e-03
<VARIANCE> 39
 7.615086e+01 7.944635e+01 7.065453e+01 1.069318e+02 1.044021e+02 8.443864e+01 9.814817e+01 7.931328e+01 6.331483e+01 5.805337e+01 5.870295e+01 4.035014e+01 2.029614e+02 2.919601e+00 3.000638e+00 2.696801e+00 3.235495e+00 3.797835e+00 3.538289e+00 3.122398e+00 3.530797e+00 3.211710e+00 2.752178e+00 2.919142e+00 2.206200e+00 2.768679e+00 4.442441e-01 4.910374e-01 4.236371e-01 5.529776e-01 6.547455e-01 6.069641e-01 5.579157e-01 6.287679e-01 5.759500e-01 5.092444e-01 5.249189e-01 4.099956e-01 4.123602e-01
<GCONST> 1.344538e+02
<TRANSP> 5
 0.000000e+00 1.000000e+00 0.000000e+00 0.000000e+00 0.000000e+00
 0.000000e+00 6.000000e-01 4.000000e-01 0.000000e+00 0.000000e+00
 0.000000e+00 0.000000e+00 6.000000e-01 4.000000e-01 0.000000e+00
 0.000000e+00 0.000000e+00 0.000000e+00 7.000000e-01 3.000000e-01
 0.000000e+00 0.000000e+00 0.000000e+00 0.000000e+00 0.000000e+00
<ENDHMM>
