~o
<STREAMINFO> 1 39
<VECSIZE> 39<NULLD><MFCC_D_A_0><DIAGC>
~h "@"
<BEGINHMM>
<NUMSTATES> 5
<STATE> 2
<MEAN> 39
 -1.325773e+00 -4.229594e+00 -3.356707e+00 -4.498279e+00 -6.230674e+00 -5.856981e+00 -8.565441e+00 -3.928353e+00 -4.317218e+00 -4.687916e+00 -3.984905e+00 -3.943368e+00 6.816092e+01 5.026001e-01 -2.295863e-01 -9.017842e-02 -1.995087e-01 -1.147071e-01 -1.872672e-01 -1.924970e-01 -1.192143e-02 -3.455588e-02 -1.090158e-02 1.347638e-03 -5.053054e-02 6.176717e-01 -8.845498e-03 -3.207935e-02 -1.522642e-02 -6.045708e-03 -3.265300e-02 4.796493e-03 2.995028e-02 3.571259e-03 -9.464069e-03 -2.589915e-02 4.878868e-03 -4.774800e-03 3.494008e-02
<VARIANCE> 39
 9.069730e+01 8.547095e+01 6.266402e+01 1.105826e+02 1.290907e+02 9.487557e+01 1.162150e+02 9.103268e+01 7.282596e+01 6.623154e+01 5.478235e+01 4.222956e+01 1.503418e+02 5.942270e+00 5.004834e+00 4.301859e+00 4.603255e+00 5.949529e+00 5.427655e+00 4.593038e+00 5.522315e+00 5.154592e+00 4.081002e+00 4.409829e+00 3.092156e+00 5.114468e+00 9.547576e-01 9.148863e-01 7.064666e-01 8.472870e-01 1.076185e+00 9.608009e-01 8.470110e-01 9.920080e-01 9.225581e-01 7.505559e-01 8.213249e-01 5.916722e-01 8.517773e-01
<GCONST> 1.477356e+02
<STATE> 3
<MEAN> 39
 -3.010982e-01 -4.769027e+00 -3.659792e+00 -4.986811e+00 -6.493656e+00 -6.364186e+00 -8.828816e+00 -4.014446e+00 -4.392692e+00 -4.793344e+00 -3.913131e+00 -4.018738e+00 6.971549e+01 4.823003e-01 -2.110863e-01 -1.475067e-01 -1.141739e-01 -1.746223e-01 -1.198395e-01 -7.293936e-02 -2.568784e-02 -5.602073e-02 -6.804658e-02 -1.417304e-02 -4.329708e-02 5.131841e-01 -9.313188e-02 3.861476e-02 1.831668e-02 5.537797e-02 7.411274e-03 6.963356e-02 7.820325e-02 1.236757e-02 5.759631e-05 -2.138755e-02 -1.518712e-02 1.709400e-03 -1.211431e-01
<VARIANCE> 39
 8.692538e+01 8.281438e+01 6.395901e+01 1.106688e+02 1.321208e+02 9.777618e+01 1.196892e+02 9.140400e+01 7.739756e+01 6.866593e+01 5.536488e+01 4.211264e+01 1.354424e+02 5.597594e+00 5.139678e+00 4.246250e+00 4.375302e+00 5.905157e+00 5.491124e+00 4.755133e+00 5.568447e+00 5.106187e+00 4.026231e+00 4.386223e+00 3.028047e+00 4.831082e+00 8.966303e-01 8.967003e-01 6.899626e-01 8.025064e-01 1.082398e+00 9.403392e-01 8.603652e-01 1.011946e+00 9.066887e-01 7.546884e-01 8.176613e-01 5.763540e-01 7.732142e-01
<GCONST> 1.473336e+02
<STATE> 4
<MEAN> 39
 7.379694e-01 -4.629645e+00 -4.325257e+00 -4.324901e+00 -6.181902e+00 -6.403727e+00 -7.798048e+00 -3.550617e+00 -4.673353e+00 -4.679454e+00 -3.991066e+00 -3.882246e+00 7.013789e+01 2.007247e-01 -7.043600e-02 -3.804586e-02 2.658420e-02 -1.365834e-01 1.041719e-01 6.179653e-02 2.751955e-03 -5.331455e-02 -7.264633e-02 -6.437512e-02 -2.512773e-02 9.545815e-02 -1.171014e-01 2.673674e-02 3.856593e-02 1.457989e-02 2.330243e-02 5.937109e-02 3.501284e-02 1.007593e-02 -1.585423e-03 -1.038915e-02 -1.076101e-02 -3.068781e-03 -9.256008e-02
<VARIANCE> 39
 7.872865e+01 7.938297e+01 6.011201e+01 1.064379e+02 1.195470e+02 8.921138e+01 1.076180e+02 8.908823e+01 7.764082e+01 6.420895e+01 5.243573e+01 4.045442e+01 1.393813e+02 3.835679e+00 4.216709e+00 3.379455e+00 3.552495e+00 4.661429e+00 4.425367e+00 3.930476e+00 4.544138e+00 4.233038e+00 3.329961e+00 3.593024e+00 2.533997e+00 3.378417e+00 6.097112e-01 7.005423e-01 5.428333e-01 6.418163e-01 7.976222e-01 7.528997e-01 7.144785e-01 8.212302e-01 7.624495e-01 6.228299e-01 6.545908e-01 4.780171e-01 5.815873e-01
<GCONST> 1.405888e+02
<TRANSP> 5
 0.000000e+00 1.000000e+00 0.000000e+00 0.000000e+00 0.000000e+00
 0.000000e+00 4.060347e-01 5.939654e-01 0.000000e+00 0.000000e+00
 0.000000e+00 0.000000e+00 4.034574e-01 5.965425e-01 0.000000e+00
 0.000000e+00 0.000000e+00 0.000000e+00 3.982551e-01 6.017449e-01
 0.000000e+00 0.000000e+00 0.000000e+00 0.000000e+00 0.000000e+00
<ENDHMM>
~h "a"
<BEGINHMM>
<NUMSTATES> 5
<STATE> 2
<MEAN> 39
 1.012718e+00 -9.866545e+00 -5.833569e+00 -6.444393e+00 -6.808037e+00 -5.030392e+00 -6.487140e+00 -3.013157e+00 -3.969196e+00 -6.128543e+00 -6.005146e+00 -4.607956e+00 7.118735e+01 8.778280e-02 -8.235059e-02 -4.351292e-02 1.163786e-01 5.669465e-02 8.705391e-02 2.676228e-02 5.705413e-02 -3.662319e-02 -5.386744e-02 -1.120802e-01 -5.089386e-03 -8.040231e-02 -1.129288e-01 1.941870e-01 8.299077e-02 7.875907e-02 1.084124e-02 -4.821200e-03 -2.727489e-03 -6.725746e-02 -5.347752e-03 3.188537e-02 3.721783e-02 2.744164e-02 -1.834368e-01
<VARIANCE> 39
 5.959919e+01 1.043894e+02 5.515101e+01 8.856185e+01 1.023110e+02 7.750452e+01 1.242225e+02 7.363698e+01 7.609711e+01 7.402753e+01 5.930513e+01 4.602364e+01 1.579137e+02 2.082022e+00 3.934761e+00 2.481992e+00 2.839925e+00 3.758742e+00 3.285908e+00 3.267528e+00 3.789318e+00 3.310143e+00 2.808816e+00 3.087023e+00 2.379491e+00 2.890712e+00 3.396169e-01 6.535126e-01 4.022672e-01 4.865968e-01 6.276238e-01 5.811089e-01 5.818118e-01 6.826919e-01 5.954186e-01 5.312260e-01 5.452247e-01 4.523711e-01 4.067637e-01
<GCONST> 1.344693e+02
<STATE> 3
<MEAN> 39
 9.975017e-01 -9.600075e+00 -5.784814e+00 -6.097901e+00 -6.716341e+00 -4.935267e+00 -6.436552e+00 -3.012227e+00 -4.030601e+00 -6.152451e+00 -6.123885e+00 -4.577300e+00 7.073276e+01 -7.971220e-02 3.039520e-01 9.692560e-02 2.377111e-01 2.831585e-02 5.117280e-02 3.814533e-02 -6.838790e-02 -2.786358e-02 1.137022e-02 -4.628082e-02 2.244555e-02 -3.889475e-01 -9.185026e-02 1.648447e-01 7.523584e-02 4.659060e-02 -5.602734e-03 -1.480870e-02 4.228148e-03 -6.887594e-02 -2.944383e-03 2.438135e-02 4.053819e-02 1.561805e-02 -1.232363e-01
<VARIANCE> 39
 5.971309e+01 1.027048e+02 5.306302e+01 8.420756e+01 1.025756e+02 7.395412e+01 1.245712e+02 7.353168e+01 7.519927e+01 7.471429e+01 6.005960e+01 4.574885e+01 1.596334e+02 1.796266e+00 3.629537e+00 2.308367e+00 2.697014e+00 3.560721e+00 3.084918e+00 3.109136e+00 3.714430e+00 3.092444e+00 2.644474e+00 2.910951e+00 2.261159e+00 2.546591e+00 2.991704e-01 6.015300e-01 3.713472e-01 4.673591e-01 5.931293e-01 5.420610e-01 5.583689e-01 6.577382e-01 5.633121e-01 5.060499e-01 5.255760e-01 4.317847e-01 3.728547e-01
<GCONST> 1.326249e+02
<STATE> 4
<MEAN> 39
 -3.016974e-01 -7.902650e+00 -6.232306e+00 -4.950080e+00 -5.977964e+00 -4.872305e+00 -5.197432e+00 -2.468851e+00 -4.105199e+00 -5.706816e+00 -5.598848e+00 -3.951189e+00 6.781285e+01 -2.107274e-01 4.472122e-01 1.927928e-01 2.376899e-01 -2.995208e-02 7.740813e-02 -2.841032e-03 -1.282713e-01 -3.442054e-02 4.946890e-02 3.867243e-02 1.831988e-02 -5.183171e-01 -4.039365e-02 3.281647e-02 4.675776e-02 -1.613768e-02 -4.709516e-03 -1.666996e-02 -1.583949e-02 -3.198387e-02 -2.318224e-03 6.826044e-03 2.960968e-02 3.692333e-03 8.605360e-03
<VARIANCE> 39
 6.875591e+01 9.173755e+01 5.004078e+01 7.651795e+01 9.161658e+01 6.694482e+01 1.021787e+02 7.095361e+01 6.893013e+01 6.803900e+01 5.968624e+01 4.528449e+01 1.962501e+02 1.521068e+00 2.670229e+00 1.959181e+00 2.265727e+00 2.951265e+00 2.684341e+00 2.655111e+00 3.123265e+00 2.661087e+00 2.340577e+00 2.472054e+00 1.977413e+00 1.869102e+00 2.496711e-01 4.481445e-01 3.165992e-01 4.008906e-01 4.970631e-01 4.633780e-01 4.665481e-01 5.388178e-01 4.817470e-01 4.329222e-01 4.506610e-01 3.638567e-01 2.994346e-01
<GCONST> 1.273555e+02
<TRANSP> 5
 0.000000e+00 1.000000e+00 0.000000e+00 0.000000e+00 0.000000e+00
 0.000000e+00 3.804680e-01 6.195320e-01 0.000000e+00 0.000000e+00
 0.000000e+00 0.000000e+00 3.789570e-01 6.210430e-01 0.000000e+00
 0.000000e+00 0.000000e+00 0.000000e+00 5.386354e-01 4.613646e-01
 0.000000e+00 0.000000e+00 0.000000e+00 0.000000e+00 0.000000e+00
<ENDHMM>
~h "b"
<BEGINHMM>
<NUMSTATES> 5
<STATE> 2
<MEAN> 39
 2.450149e+00 -4.155058e+00 -2.707898e+00 -5.700745e+00 -9.520915e+00 -5.277400e+00 -9.526962e+00 -6.098083e+00 -4.423885e+00 -6.690022e+00 -5.855049e+00 -5.695438e+00 6.860731e+01 2.425619e-01 1.371262e-01 1.523247e-02 8.415409e-02 -2.559409e-02 -1.437943e-01 -6.396894e-02 3.970900e-02 1.407861e-01 -7.049731e-02 -1.725967e-01 -1.675417e-01 1.246452e-01 -1.265834e-01 -1.514360e-01 -3.750158e-03 -9.978212e-02 1.338864e-02 -1.759835e-02 2.799297e-02 7.915156e-02 4.054251e-02 2.882245e-02 6.988037e-02 6.507234e-02 1.182104e-01
<VARIANCE> 39
 4.559590e+01 8.454548e+01 5.058727e+01 9.240797e+01 9.145952e+01 7.621702e+01 1.012001e+02 9.187458e+01 5.718845e+01 6.094767e+01 6.888934e+01 4.138300e+01 1.451243e+02 2.618997e+00 4.987436e+00 3.267215e+00 4.325471e+00 4.139054e+00 4.057492e+00 3.557871e+00 4.349345e+00 4.033512e+00 3.496775e+00 4.171253e+00 2.853572e+00 4.239076e+00 4.010205e-01 8.260497e-01 5.400468e-01 7.651692e-01 7.583427e-01 7.040744e-01 6.687789e-01 7.833489e-01 7.133675e-01 6.784933e-01 8.006399e-01 5.385301e-01 6.553949e-01
<GCONST> 1.395546e+02
<STATE> 3
<MEAN> 39
 2.630885e+00 -4.334915e+00 -2.693334e+00 -5.833954e+00 -9.586484e+00 -5.641088e+00 -9.514853e+00 -5.863899e+00 -4.033105e+00 -6.751354e+00 -5.981805e+00 -5.905794e+00 6.924074e+01 -4.712586e-02 -1.698799e-01 2.159282e-02 -8.328457e-02 -2.478439e-02 -1.437143e-01 3.010422e-02 1.755637e-01 1.592240e-01 4.754169e-04 2.454921e-03 1.028400e-02 2.747172e-01 -1.284353e-01 -1.162902e-01 6.490004e-03 -9.555133e-02 -8.891693e-03 2.984689e-02 1.875086e-02 4.288740e-02 -1.034112e-02 3.973801e-02 1.081059e-01 1.017831e-01 6.449888e-02
<VARIANCE> 39
 4.215931e+01 8.569409e+01 5.057907e+01 9.105737e+01 8.768196e+01 7.570216e+01 1.036830e+02 8.744980e+01 5.709780e+01 6.448698e+01 6.953465e+01 4.317787e+01 1.391162e+02 2.374026e+00 5.120326e+00 3.516796e+00 4.643140e+00 4.301005e+00 4.177133e+00 3.631008e+00 4.539258e+00 4.069434e+00 3.641020e+00 4.219959e+00 3.002827e+00 4.445844e+00 3.888264e-01 8.606345e-01 5.669306e-01 8.307729e-01 8.045357e-01 7.428448e-01 6.797559e-01 8.142656e-01 7.359406e-01 7.077945e-01 8.657384e-01 5.703261e-01 6.839209e-01
<GCONST> 1.403880e+02
<STATE> 4
<MEAN> 39
 2.388932e+00 -3.863035e+00 -2.877754e+00 -5.696019e+00 -9.268513e+00 -6.190589e+00 -8.299672e+00 -4.881058e+00 -3.948514e+00 -6.819898e+00 -6.133049e+00 -5.417943e+00 6.922318e+01 -2.203001e-01 -1.912784e-01 2.840399e-02 -2.167411e-01 -2.519422e-02 2.952645e-02 3.084130e-02 1.236004e-01 2.795790e-02 9.629872e-02 2.212272e-01 2.319594e-01 1.880679e-01 -6.181463e-02 -6.758103e-02 -7.908923e-03 -1.088427e-01 -1.355106e-02 3.760573e-02 -3.224813e-02 -1.297740e-02 -1.580188e-02 4.817051e-02 9.914276e-02 8.114023e-02 6.030870e-02
<VARIANCE> 39
 4.152571e+01 8.063084e+01 4.828012e+01 8.911150e+01 8.265691e+01 7.168186e+01 8.838349e+01 7.883601e+01 5.177887e+01 5.955690e+01 6.230966e+01 4.124171e+01 1.499614e+02 1.962434e+00 4.013293e+00 3.184543e+00 4.363422e+00 3.770516e+00 3.751179e+00 3.262708e+00 3.847081e+00 3.508376e+00 3.356365e+00 3.681601e+00 2.651030e+00 3.468588e+00 3.279429e-01 6.881958e-01 4.821407e-01 7.729092e-01 6.869453e-01 6.817590e-01 5.947590e-01 6.894735e-01 6.350361e-01 6.154969e-01 6.949973e-01 5.029562e-01 5.554319e-01
<GCONST> 1.357505e+02
<TRANSP> 5
 0.000000e+00 1.000000e+00 0.000000e+00 0.000000e+00 0.000000e+00
 0.000000e+00 4.340077e-01 5.659922e-01 0.000000e+00 0.000000e+00
 0.000000e+00 0.000000e+00 4.293585e-01 5.706415e-01 0.000000e+00
 0.000000e+00 0.000000e+00 0.000000e+00 4.780734e-01 5.219266e-01
 0.000000e+00 0.000000e+00 0.000000e+00 0.000000e+00 0.000000e+00
<ENDHMM>
~h "c"
<BEGINHMM>
<NUMSTATES> 5
<STATE> 2
<MEAN> 39
 -7.185474e+00 -6.140600e+00 -3.693537e+00 -5.924318e+00 -7.240204e+00 -4.761259e+00 -6.525149e+00 -4.757143e+00 -1.898170e+00 -4.564283e+00 -4.300330e+00 -3.457282e+00 7.531393e+01 5.523994e-02 -4.016201e-01 -2.323386e-01 -3.017942e-01 -6.783026e-02 -3.035825e-02 -4.799861e-02 1.097217e-01 1.526926e-01 2.431515e-02 1.383365e-01 -9.242053e-02 7.748300e-01 2.965554e-01 -6.932142e-02 4.484182e-02 -7.835349e-03 -1.220379e-01 6.667570e-02 -5.942894e-02 -6.463733e-02 -2.212149e-02 -4.799213e-02 -4.547201e-02 -7.377471e-02 -2.497841e-02
<VARIANCE> 39
 9.412244e+01 4.385598e+01 4.174637e+01 5.299671e+01 6.324350e+01 5.565381e+01 7.907964e+01 3.964346e+01 3.429464e+01 3.097203e+01 3.580678e+01 2.492076e+01 3.332437e+02 6.631468e+00 2.524309e+00 2.181132e+00 2.546536e+00 3.548932e+00 2.835505e+00 2.922077e+00 2.796353e+00 2.706376e+00 2.136471e+00 2.454767e+00 2.053004e+00 4.724558e+00 1.116322e+00 3.908675e-01 3.992119e-01 5.159995e-01 6.086211e-01 5.075064e-01 4.940128e-01 5.435264e-01 5.048862e-01 4.056685e-01 4.249583e-01 3.616391e-01 7.074138e-01
<GCONST> 1.286550e+02
<STATE> 3
<MEAN> 39
 -4.887254e+00 -7.258730e+00 -3.857121e+00 -6.081891e+00 -8.031803e+00 -4.495082e+00 -6.515869e+00 -4.922630e+00 -1.589778e+00 -4.683618e+00 -4.598248e+00 -4.100073e+00 7.736507e+01 7.872723e-01 -4.007375e-01 -1.242657e-01 -1.562862e-01 -3.084718e-01 2.293363e-01 -1.378419e-01 -8.139279e-02 2.033555e-02 -6.724335e-02 -1.362991e-01 -2.603037e-01 3.056084e-01 9.252887e-02 2.931558e-02 5.415369e-02 7.036513e-03 -2.809678e-02 5.807887e-02 -2.917145e-02 -4.872060e-02 -6.118973e-02 -2.266235e-02 -3.665533e-02 -1.007670e-02 -1.088733e-01
<VARIANCE> 39
 7.967729e+01 5.012585e+01 3.932693e+01 5.546687e+01 6.096445e+01 5.753460e+01 8.053557e+01 3.995537e+01 3.592010e+01 3.343389e+01 3.896671e+01 2.495017e+01 3.244008e+02 6.302667e+00 2.802288e+00 2.124528e+00 2.377339e+00 3.249535e+00 2.743838e+00 2.474100e+00 2.628001e+00 2.592891e+00 2.103915e+00 2.322131e+00 1.945048e+00 3.099412e+00 1.018138e+00 3.930958e-01 3.644399e-01 4.518436e-01 5.543924e-01 4.785762e-01 4.607782e-01 5.046358e-01 4.767501e-01 3.921448e-01 3.856193e-01 3.268069e-01 4.918661e-01
<GCONST> 1.265726e+02
<STATE> 4
<MEAN> 39
 -2.283206e+00 -6.448917e+00 -3.051446e+00 -2.796805e+00 -8.716221e+00 -3.589444e-01 -3.286352e+00 -5.822877e+00 -1.378554e+00 -4.197453e+00 -4.142683e+00 -4.187027e+00 8.788828e+01 3.835409e-02 2.638882e-03 3.133157e-02 5.196949e-03 -4.763420e-02 6.948546e-02 -4.188545e-04 -2.035938e-02 6.744301e-03 -1.693052e-02 -1.242726e-02 -1.027565e-02 -5.277914e-02 -5.192695e-03 2.094494e-03 9.868122e-03 1.273532e-03 -8.872843e-03 -8.341391e-05 -5.704996e-03 -8.280197e-03 2.364580e-03 -2.182304e-03 3.730485e-03 9.104202e-03 -6.046129e-03
<VARIANCE> 39
 2.690772e+01 2.772618e+01 3.131920e+01 3.159109e+01 3.018613e+01 4.838005e+01 3.129988e+01 2.884374e+01 3.309149e+01 2.366929e+01 2.655791e+01 2.318962e+01 1.437330e+02 1.267420e+00 1.312902e+00 1.195416e+00 1.436162e+00 1.890814e+00 2.296177e+00 1.728410e+00 1.969966e+00 2.029421e+00 1.720027e+00 1.636943e+00 1.566255e+00 2.321182e+00 1.988174e-01 2.007002e-01 1.874201e-01 2.495592e-01 3.461102e-01 3.912489e-01 3.246306e-01 3.685364e-01 3.750078e-01 3.291757e-01 3.040683e-01 2.898437e-01 3.007714e-01
<GCONST> 1.079836e+02
<TRANSP> 5
 0.000000e+00 1.000000e+00 0.000000e+00 0.000000e+00 0.000000e+00
 0.000000e+00 5.852308e-01 4.147692e-01 0.000000e+00 0.000000e+00
 0.000000e+00 0.000000e+00 5.285971e-01 4.714029e-01 0.000000e+00
 0.000000e+00 0.000000e+00 0.000000e+00 9.630774e-01 3.692258e-02
 0.000000e+00 0.000000e+00 0.000000e+00 0.000000e+00 0.000000e+00
<ENDHMM>
~h "d"
<BEGINHMM>
<NUMSTATES> 5
<STATE> 2
<MEAN> 39
 3.057549e-01 -5.395803e+00 -1.099344e+00 -3.300786e+00 -9.308039e+00 -6.523361e+00 -9.422057e+00 -4.442075e+00 -4.150169e+00 -6.750922e+00 -5.429491e+00 -4.641360e+00 6.890202e+01 3.632848e-02 -2.631184e-03 1.387039e-01 -4.995818e-02 -7.427753e-02 -1.595398e-01 -1.208947e-01 1.519596e-01 -2.612009e-02 -3.720180e-02 1.515695e-02 -5.808828e-02 1.958591e-01 -4.802344e-02 -1.386628e-01 -1.485728e-02 -1.479011e-01 -2.468984e-02 2.113005e-02 3.243095e-02 6.106564e-02 4.275365e-03 4.863410e-02 6.771307e-02 3.360680e-02 1.346846e-01
<VARIANCE> 39
 5.847288e+01 7.776775e+01 6.676833e+01 1.043784e+02 1.145094e+02 7.439294e+01 1.110079e+02 7.750742e+01 7.310726e+01 6.229091e+01 5.949266e+01 4.216494e+01 1.669138e+02 2.243493e+00 4.524557e+00 2.865344e+00 4.205483e+00 4.850221e+00 4.304651e+00 3.623675e+00 4.647524e+00 3.819326e+00 3.064336e+00 3.727660e+00 2.572354e+00 4.236907e+00 3.690776e-01 7.966703e-01 4.700755e-01 7.758309e-01 8.861062e-01 8.065594e-01 6.952984e-01 8.402827e-01 6.837776e-01 5.953353e-01 6.944635e-01 5.045947e-01 7.536315e-01
<GCONST> 1.399246e+02
<STATE> 3
<MEAN> 39
 3.971050e-01 -5.805934e+00 -9.537697e-01 -3.769915e+00 -9.606417e+00 -6.758978e+00 -9.502020e+00 -3.988623e+00 -4.127253e+00 -6.718760e+00 -5.276084e+00 -4.682481e+00 6.974348e+01 -4.505096e-02 -2.411838e-01 7.412554e-02 -2.624957e-01 -1.392979e-01 -7.854121e-02 -4.414595e-03 2.224190e-01 -1.831323e-02 6.509486e-02 1.380417e-01 1.279823e-02 3.551955e-01 -3.429115e-02 -6.625601e-02 -1.882135e-02 -6.824255e-02 -3.273937e-03 5.345950e-02 5.763946e-02 -1.335324e-02 5.414835e-03 3.600090e-02 3.122078e-02 2.796064e-02 2.097150e-02
<VARIANCE> 39
 5.533207e+01 7.861932e+01 6.721272e+01 1.064599e+02 1.157490e+02 7.494508e+01 1.123323e+02 7.827399e+01 7.583570e+01 6.256991e+01 6.077039e+01 4.360049e+01 1.641166e+02 2.162752e+00 4.661675e+00 3.045431e+00 4.307500e+00 4.905345e+00 4.430310e+00 3.887680e+00 4.853749e+00 3.916872e+00 3.179248e+00 3.824088e+00 2.665875e+00 4.294348e+00 3.461929e-01 7.911439e-01 4.722756e-01 7.888255e-01 9.111738e-01 7.931653e-01 7.181168e-01 8.571674e-01 6.924635e-01 6.043885e-01 7.311260e-01 5.178670e-01 7.286265e-01
<GCONST> 1.404792e+02
<STATE> 4
<MEAN> 39
 1.637418e-01 -5.711301e+00 -1.559292e+00 -3.634803e+00 -8.817445e+00 -6.786828e+00 -8.334246e+00 -3.169022e+00 -4.384872e+00 -6.023955e+00 -4.853657e+00 -4.270127e+00 6.981880e+01 -1.030024e-01 -1.524387e-01 4.870905e-02 -1.997690e-01 -5.005724e-02 7.475408e-02 8.344116e-02 6.745599e-02 -2.105804e-02 8.576579e-02 1.017830e-01 4.233085e-02 1.142608e-01 -1.202245e-02 8.900939e-03 -8.544088e-04 -7.344680e-03 1.528614e-02 3.406250e-02 2.253717e-02 -6.838441e-02 -2.489888e-03 3.598145e-04 -5.432039e-03 1.388535e-02 -3.459715e-02
<VARIANCE> 39
 5.751449e+01 7.833449e+01 6.783619e+01 1.101243e+02 1.071236e+02 7.160505e+01 9.928285e+01 7.618897e+01 7.386800e+01 5.882273e+01 5.761669e+01 4.132458e+01 1.824083e+02 1.724666e+00 3.624220e+00 2.817261e+00 3.761578e+00 4.080167e+00 3.789845e+00 3.525765e+00 4.040744e+00 3.360655e+00 2.849589e+00 3.311619e+00 2.428356e+00 3.307322e+00 2.764583e-01 6.088825e-01 4.127607e-01 6.568112e-01 7.396851e-01 6.710626e-01 6.246436e-01 7.368503e-01 5.960613e-01 5.387092e-01 6.168204e-01 4.492984e-01 5.354592e-01
<GCONST> 1.357646e+02
<TRANSP> 5
 0.000000e+00 1.000000e+00 0.000000e+00 0.000000e+00 0.000000e+00
 0.000000e+00 3.839375e-01 6.160625e-01 0.000000e+00 0.000000e+00
 0.000000e+00 0.000000e+00 3.794621e-01 6.205379e-01 0.000000e+00
 0.000000e+00 0.000000e+00 0.000000e+00 4.325469e-01 5.674531e-01
 0.000000e+00 0.000000e+00 0.000000e+00 0.000000e+00 0.000000e+00
<ENDHMM>
~h "e"
<BEGINHMM>
<NUMSTATES> 5
<STATE> 2
<MEAN> 39
 -1.283138e+00 -9.477460e+00 -2.172390e+00 -4.328709e+00 -1.129915e+01 -4.613128e+00 -4.835411e+00 -4.064572e+00 -4.931771e+00 -6.232292e+00 -4.754157e+00 -3.837998e+00 7.403903e+01 -1.420288e-01 -9.988251e-02 1.632155e-01 5.381737e-02 7.220109e-03 1.451855e-01 1.440540e-01 5.479112e-02 -4.091730e-02 1.151791e-02 -4.751486e-03 -2.825414e-04 -7.671385e-02 -6.661531e-02 1.218863e-01 -4.914766e-03 3.560455e-02 5.882631e-02 -6.033151e-03 -2.338281e-02 -8.002584e-03 4.240018e-02 5.041459e-03 -6.551386e-03 9.423099e-03 -1.260333e-01
<VARIANCE> 39
 4.746702e+01 7.799854e+01 5.766465e+01 8.503020e+01 8.047359e+01 8.034126e+01 7.869650e+01 5.994832e+01 6.325440e+01 5.259811e+01 4.438081e+01 3.186824e+01 2.217899e+02 1.909344e+00 2.916364e+00 2.322151e+00 2.041031e+00 2.512452e+00 2.914931e+00 2.184061e+00 2.510962e+00 2.594483e+00 2.122593e+00 1.998721e+00 1.651855e+00 2.438994e+00 3.363186e-01 5.123537e-01 3.796633e-01 3.765742e-01 4.755458e-01 5.232986e-01 4.072699e-01 4.772356e-01 5.006452e-01 4.134525e-01 3.987356e-01 3.210213e-01 3.575616e-01
<GCONST> 1.257572e+02
<STATE> 3
<MEAN> 39
 -1.684535e+00 -9.578726e+00 -1.765413e+00 -4.150180e+00 -1.117861e+01 -4.253916e+00 -4.595200e+00 -4.093836e+00 -5.004951e+00 -6.295458e+00 -4.850658e+00 -3.803848e+00 7.376462e+01 -1.874401e-01 1.771138e-01 7.146636e-02 1.477332e-01 8.386339e-02 6.496725e-02 7.296344e-02 4.444454e-02 5.833634e-03 -2.778748e-03 -1.277190e-02 8.389992e-03 -3.027630e-01 -2.511550e-02 1.089183e-01 -3.702184e-02 2.762600e-02 3.826540e-02 -3.354521e-02 -2.878844e-02 -6.412600e-03 2.304171e-02 -4.807794e-03 -5.824757e-03 2.917764e-03 -8.377463e-02
<VARIANCE> 39
 4.614030e+01 7.923206e+01 5.775140e+01 8.525660e+01 7.982384e+01 7.826689e+01 7.610526e+01 5.900309e+01 6.277159e+01 5.310147e+01 4.304801e+01 3.158974e+01 2.271360e+02 1.518163e+00 2.622572e+00 2.046817e+00 1.882530e+00 2.333180e+00 2.672812e+00 1.960492e+00 2.189178e+00 2.441379e+00 1.911633e+00 1.852328e+00 1.569509e+00 2.041970e+00 2.811876e-01 4.512918e-01 3.451109e-01 3.411384e-01 4.397964e-01 4.709018e-01 3.674047e-01 4.285738e-01 4.686328e-01 3.687162e-01 3.638950e-01 3.077084e-01 3.051395e-01
<GCONST> 1.228654e+02
<STATE> 4
<MEAN> 39
 -3.313054e+00 -6.181283e+00 -1.569955e+00 -1.403040e+00 -8.899551e+00 -7.120585e-02 -3.344976e+00 -5.262871e+00 -1.527539e+00 -5.181415e+00 -4.563498e+00 -3.592795e+00 8.298498e+01 -3.407363e-02 5.730082e-02 4.388753e-03 4.131835e-02 1.744125e-03 3.607728e-02 -2.638157e-03 -7.973169e-03 2.776339e-02 -1.622504e-05 -4.477444e-03 -1.107241e-03 -1.052786e-01 3.978762e-03 2.664856e-03 7.449132e-04 6.010875e-04 -2.303143e-03 -3.171656e-03 -7.566594e-03 -5.043535e-03 1.732773e-03 -3.482405e-03 -1.115826e-03 1.553492e-03 -2.505083e-04
<VARIANCE> 39
 3.292558e+01 3.668676e+01 4.117114e+01 4.300415e+01 3.952755e+01 6.703683e+01 3.347292e+01 3.340474e+01 4.270337e+01 3.257357e+01 2.856303e+01 2.236121e+01 2.078058e+02 9.125052e-01 1.315580e+00 1.426207e+00 1.395262e+00 1.876395e+00 2.569562e+00 1.539737e+00 1.684373e+00 2.083214e+00 1.698826e+00 1.557580e+00 1.412407e+00 1.697215e+00 1.425777e-01 1.999442e-01 2.171591e-01 2.401893e-01 3.339150e-01 4.083051e-01 2.891306e-01 3.196781e-01 3.800312e-01 3.201780e-01 2.886263e-01 2.652895e-01 2.201809e-01
<GCONST> 1.090924e+02
<TRANSP> 5
 0.000000e+00 1.000000e+00 0.000000e+00 0.000000e+00 0.000000e+00
 0.000000e+00 4.975539e-01 5.024461e-01 0.000000e+00 0.000000e+00
 0.000000e+00 0.000000e+00 5.019963e-01 4.980037e-01 0.000000e+00
 0.000000e+00 0.000000e+00 0.000000e+00 9.501705e-01 4.982951e-02
 0.000000e+00 0.000000e+00 0.000000e+00 0.000000e+00 0.000000e+00
<ENDHMM>
~h "f"
<BEGINHMM>
<NUMSTATES> 5
<STATE> 2
<MEAN> 39
 -6.374434e+00 -8.364431e+00 -1.321529e+00 -3.929072e+00 -9.031177e+00 -6.089885e+00 -5.213737e+00 -4.684063e+00 -5.207076e+00 -5.650857e+00 -4.919539e+00 -3.766639e+00 6.791206e+01 -5.180582e-01 -7.453078e-02 -2.561109e-02 5.543226e-01 2.165571e-01 -1.260162e-01 2.213739e-01 -2.271558e-02 -3.267870e-02 -3.357599e-02 4.316711e-02 7.672843e-02 -2.728458e-01 1.589189e-01 -3.236187e-02 6.854750e-03 -1.473857e-01 -1.301931e-01 4.814126e-02 -8.398566e-02 -1.266763e-02 8.561888e-03 -2.309001e-02 1.464059e-03 -8.810751e-03 8.000188e-02
<VARIANCE> 39
 8.352804e+01 5.836662e+01 5.344945e+01 1.284338e+02 1.038071e+02 7.112614e+01 6.402953e+01 4.734586e+01 5.585645e+01 4.780197e+01 4.084352e+01 2.360253e+01 1.107664e+02 6.964890e+00 3.394963e+00 2.617601e+00 6.926311e+00 5.323912e+00 4.224814e+00 3.227931e+00 2.929452e+00 4.017844e+00 3.018491e+00 2.812550e+00 2.114600e+00 1.987670e+00 1.100253e+00 6.362287e-01 3.947562e-01 1.123147e+00 8.770362e-01 7.106187e-01 5.937230e-01 5.554261e-01 7.262314e-01 5.715209e-01 4.975449e-01 3.955075e-01 2.846374e-01
<GCONST> 1.352678e+02
<STATE> 3
<MEAN> 39
 -6.962022e+00 -8.826999e+00 -1.334053e+00 -3.400770e+00 -9.104862e+00 -6.160875e+00 -4.908275e+00 -4.708312e+00 -5.151324e+00 -5.800227e+00 -5.049382e+00 -3.645289e+00 6.747170e+01 2.073011e-01 -5.815422e-02 2.334048e-02 -1.142110e-01 -2.770542e-01 5.290104e-02 4.582032e-02 -3.703997e-02 -3.629698e-02 -7.815004e-02 -3.282216e-02 5.893273e-02 5.384989e-03 2.345687e-01 1.760765e-02 2.258668e-02 -1.740138e-01 -1.599195e-01 8.344526e-02 -6.660604e-02 -1.947735e-02 -1.122928e-02 -1.297863e-02 8.914534e-04 -2.348643e-02 7.810886e-02
<VARIANCE> 39
 7.986760e+01 6.232434e+01 5.605349e+01 1.137521e+02 1.097104e+02 6.992271e+01 6.160680e+01 4.540430e+01 5.347395e+01 4.391546e+01 4.218444e+01 2.202339e+01 1.152460e+02 8.159551e+00 4.020682e+00 3.026768e+00 7.075412e+00 5.952442e+00 4.225447e+00 3.185701e+00 3.013096e+00 3.868172e+00 2.981427e+00 2.844646e+00 2.028283e+00 2.272596e+00 1.153158e+00 7.208217e-01 4.293274e-01 1.169245e+00 9.311995e-01 7.036871e-01 5.891982e-01 5.709034e-01 7.190165e-01 5.851926e-01 5.254076e-01 3.814917e-01 3.359714e-01
<GCONST> 1.362847e+02
<STATE> 4
<MEAN> 39
 -6.472637e+00 -9.256206e+00 -1.475009e+00 -4.417613e+00 -9.887590e+00 -5.644683e+00 -3.728314e+00 -4.219581e+00 -5.573298e+00 -6.698643e+00 -5.449975e+00 -3.210883e+00 6.524565e+01 4.583399e-01 1.250365e-01 1.280198e-02 -2.794171e-01 -3.308200e-01 1.563439e-01 -9.660605e-02 -8.683160e-02 -3.384399e-02 -1.735872e-02 9.198479e-03 6.721933e-03 1.750867e-02 9.648959e-02 1.431773e-02 -2.142167e-03 -3.722270e-02 -2.082605e-02 4.368958e-02 -4.510855e-02 -1.464337e-02 -3.826512e-03 4.106980e-03 -6.280489e-03 -2.765863e-02 3.706498e-02
<VARIANCE> 39
 6.687642e+01 6.006251e+01 5.578097e+01 1.236971e+02 1.010472e+02 6.166767e+01 4.973734e+01 4.422239e+01 5.153083e+01 4.052555e+01 4.349353e+01 2.207886e+01 1.324206e+02 5.870378e+00 3.516686e+00 2.787939e+00 5.446111e+00 4.742787e+00 3.580996e+00 2.975735e+00 2.717497e+00 3.217520e+00 2.764357e+00 2.690919e+00 1.982007e+00 2.303212e+00 8.067880e-01 5.941496e-01 3.766280e-01 9.463248e-01 6.815841e-01 5.989112e-01 5.078261e-01 4.875868e-01 5.816182e-01 5.187276e-01 4.943057e-01 3.603324e-01 3.458679e-01
<GCONST> 1.319650e+02
<TRANSP> 5
 0.000000e+00 1.000000e+00 0.000000e+00 0.000000e+00 0.000000e+00
 0.000000e+00 5.726021e-01 4.273979e-01 0.000000e+00 0.000000e+00
 0.000000e+00 0.000000e+00 5.806610e-01 4.193390e-01 0.000000e+00
 0.000000e+00 0.000000e+00 0.000000e+00 6.956639e-01 3.043361e-01
 0.000000e+00 0.000000e+00 0.000000e+00 0.000000e+00 0.000000e+00
<ENDHMM>
~h "g"
<BEGINHMM>
<NUMSTATES> 5
<STATE> 2
<MEAN> 39
 2.541917e+00 -2.626184e+00 -3.654211e-01 -4.926401e+00 -9.834002e+00 -4.379871e+00 -1.238302e+01 -8.878622e+00 -6.045825e+00 -4.297945e+00 -8.257365e-02 -5.357201e+00 6.861453e+01 2.476574e-02 -1.734452e-01 1.988604e-01 1.561953e-01 -1.520798e-01 -1.357399e-01 -2.263248e-01 -2.678730e-01 -1.021313e-01 -1.082022e-01 3.116713e-01 3.718733e-02 1.918361e-01 -7.619256e-03 -4.588864e-02 -9.176753e-03 6.234440e-03 2.974567e-02 -4.723269e-02 8.949894e-02 2.397937e-02 8.916444e-02 2.091938e-02 -1.048061e-01 -3.887495e-02 1.967948e-02
<VARIANCE> 39
 5.830650e+01 7.908963e+01 1.126374e+02 9.429297e+01 1.604564e+02 1.626453e+02 1.744254e+02 1.173647e+02 8.909151e+01 8.692693e+01 1.133904e+02 5.650179e+01 1.345099e+02 1.535904e+00 2.983338e+00 4.412847e+00 4.757994e+00 5.698138e+00 6.515548e+00 5.745658e+00 5.969268e+00 6.366606e+00 4.436215e+00 6.005246e+00 3.871604e+00 3.122294e+00 2.622495e-01 4.660383e-01 6.322132e-01 8.344059e-01 9.805357e-01 1.095091e+00 9.859717e-01 1.048630e+00 1.070116e+00 8.377229e-01 1.085774e+00 7.244967e-01 5.211382e-01
<GCONST> 1.478056e+02
<STATE> 3
<MEAN> 39
 2.589362e+00 -3.841074e+00 1.278050e-01 -4.543169e+00 -1.035927e+01 -4.403172e+00 -1.301203e+01 -9.649014e+00 -5.254164e+00 -4.849214e+00 -5.982597e-01 -5.600267e+00 6.977907e+01 -4.907411e-02 -2.281263e-01 1.290614e-01 1.059573e-01 -1.492035e-02 -2.514281e-01 4.363254e-02 -6.742798e-02 2.839445e-01 -1.922795e-02 -1.124191e-01 -5.590515e-02 1.682147e-01 -4.009169e-02 1.011785e-03 -3.992192e-02 -4.891178e-02 6.967277e-02 -5.282968e-03 8.222261e-02 1.320826e-01 3.440490e-02 1.690206e-03 -9.342182e-02 2.926990e-03 -2.318509e-02
<VARIANCE> 39
 5.730141e+01 7.618859e+01 1.213306e+02 9.146487e+01 1.720965e+02 1.749476e+02 2.025030e+02 1.405420e+02 1.015083e+02 8.742366e+01 1.396052e+02 6.080711e+01 1.224685e+02 1.343247e+00 2.729620e+00 4.024359e+00 4.443860e+00 5.946411e+00 5.656231e+00 4.667035e+00 6.157876e+00 6.025568e+00 4.290511e+00 6.030995e+00 3.736953e+00 2.972842e+00 2.256896e-01 4.320221e-01 6.110467e-01 7.706724e-01 1.005609e+00 9.622429e-01 8.273560e-01 1.049900e+00 1.026139e+00 8.016828e-01 1.051036e+00 7.182331e-01 4.847661e-01
<GCONST> 1.469462e+02
<STATE> 4
<MEAN> 39
 2.339848e-01 -2.427472e+00 -6.075001e-02 -2.790865e+00 -7.523076e+00 -5.899220e+00 -8.516588e+00 -7.923989e+00 -5.543078e+00 -4.689027e+00 -1.291877e+00 -3.882574e+00 6.713982e+01 -1.996499e-01 -8.103353e-02 -7.468320e-02 -2.857474e-02 1.823951e-01 1.278318e-02 1.499487e-01 3.624477e-01 2.086529e-01 5.070387e-03 -2.116054e-01 4.571313e-02 -9.795691e-02 -2.615467e-02 1.930475e-03 -6.889559e-02 -5.785653e-02 7.305406e-02 4.762226e-02 2.062781e-02 9.290683e-02 -4.301903e-02 9.095944e-03 -1.707851e-02 3.439655e-04 -1.283438e-02
<VARIANCE> 39
 8.578706e+01 7.509808e+01 1.333051e+02 9.383818e+01 1.400261e+02 1.604970e+02 1.420773e+02 1.248219e+02 8.735160e+01 7.076968e+01 1.406582e+02 5.678496e+01 2.083281e+02 1.053823e+00 2.128596e+00 2.606514e+00 2.848669e+00 3.544831e+00 3.838294e+00 2.963376e+00 4.194623e+00 3.791731e+00 2.909250e+00 3.923436e+00 2.488086e+00 2.212477e+00 1.753955e-01 3.364135e-01 4.210393e-01 5.242372e-01 6.014135e-01 6.074185e-01 5.066566e-01 6.977144e-01 6.887756e-01 5.302872e-01 6.845986e-01 4.748829e-01 3.391596e-01
<GCONST> 1.365564e+02
<TRANSP> 5
 0.000000e+00 1.000000e+00 0.000000e+00 0.000000e+00 0.000000e+00
 0.000000e+00 6.483531e-01 3.516468e-01 0.000000e+00 0.000000e+00
 0.000000e+00 0.000000e+00 6.583065e-01 3.416936e-01 0.000000e+00
 0.000000e+00 0.000000e+00 0.000000e+00 6.347982e-01 3.652018e-01
 0.000000e+00 0.000000e+00 0.000000e+00 0.000000e+00 0.000000e+00
<ENDHMM>
~h "h"
<BEGINHMM>
<NUMSTATES> 5
<STATE> 2
<MEAN> 39
 -8.125895e-01 -8.653347e+00 -4.432672e+00 -7.036228e+00 -4.340423e+00 -3.685507e+00 -4.357840e+00 -5.229357e+00 -4.146296e+00 -7.392016e+00 -7.024172e+00 -3.832145e+00 6.962721e+01 -1.907865e-01 1.083548e-01 1.655688e-02 5.946964e-02 1.425458e-01 6.914683e-02 2.275369e-01 -7.940510e-02 4.144722e-03 -9.784842e-02 -7.282558e-02 1.566539e-02 -2.124320e-01 9.880515e-04 9.929741e-02 2.643110e-02 4.215059e-02 -9.153748e-02 -2.850667e-02 -6.118008e-02 3.228081e-02 2.166291e-02 5.698862e-02 4.728318e-02 -1.414096e-03 -7.649171e-02
<VARIANCE> 39
 6.967438e+01 1.036021e+02 6.581149e+01 9.451037e+01 1.359983e+02 7.353561e+01 1.216847e+02 7.658924e+01 7.728612e+01 9.019814e+01 8.435594e+01 4.566483e+01 1.844493e+02 1.415429e+00 2.570252e+00 2.363326e+00 2.545467e+00 3.434295e+00 3.008143e+00 3.181472e+00 3.155318e+00 2.887954e+00 2.794239e+00 2.876410e+00 2.226856e+00 1.690690e+00 2.278145e-01 4.182857e-01 3.484923e-01 4.095842e-01 5.575360e-01 4.933738e-01 5.293941e-01 5.318978e-01 5.162079e-01 5.148839e-01 5.242878e-01 4.042771e-01 2.320018e-01
<GCONST> 1.309754e+02
<STATE> 3
<MEAN> 39
 -9.932872e-01 -8.101294e+00 -4.453551e+00 -6.951484e+00 -3.952792e+00 -3.711756e+00 -3.898922e+00 -5.375098e+00 -3.844756e+00 -7.312889e+00 -7.253323e+00 -3.799328e+00 6.918157e+01 -1.616307e-01 2.597025e-01 5.057091e-02 1.347924e-01 -7.218475e-03 2.994798e-02 9.781457e-02 3.398606e-02 3.840018e-02 2.808107e-02 -1.429917e-02 2.464297e-02 -3.298553e-01 1.219398e-02 6.087493e-02 1.521162e-02 2.301667e-02 -6.969799e-02 -2.373907e-02 -6.084916e-02 4.374676e-02 9.034386e-03 4.603470e-02 4.053715e-02 4.950940e-03 -4.018803e-02
<VARIANCE> 39
 7.086313e+01 9.952676e+01 6.626707e+01 9.204056e+01 1.479277e+02 7.621649e+01 1.313919e+02 7.989200e+01 8.044561e+01 8.799261e+01 8.785134e+01 4.512317e+01 1.828532e+02 1.362255e+00 2.347042e+00 2.179236e+00 2.387745e+00 3.215197e+00 2.883529e+00 2.997734e+00 2.867088e+00 2.784214e+00 2.624212e+00 2.689299e+00 2.121361e+00 1.546073e+00 2.164304e-01 3.954124e-01 3.383432e-01 4.047744e-01 5.468310e-01 4.801050e-01 5.292525e-01 5.009855e-01 5.048920e-01 4.877745e-01 4.896467e-01 3.899429e-01 2.246009e-01
<GCONST> 1.298957e+02
<STATE> 4
<MEAN> 39
 -4.557278e+00 -4.193082e+00 -5.216586e+00 -5.331504e+00 -3.255024e-01 -1.937992e+00 -6.722717e-01 -4.415372e+00 -2.356740e+00 -6.628357e+00 -7.079888e+00 -1.747342e+00 6.034326e+01 -2.252021e-01 2.744626e-01 1.245494e-01 1.679736e-01 -2.514835e-01 7.655090e-02 -1.136135e-01 1.709775e-01 -1.074475e-01 1.058327e-01 1.926257e-01 2.022426e-02 -4.600766e-01 1.232638e-02 -1.189604e-03 1.021778e-02 -1.581740e-02 -3.573663e-02 -2.764952e-02 -3.458287e-02 -5.050464e-03 -1.662892e-02 1.827339e-03 2.821108e-02 -1.325218e-02 2.520884e-02
<VARIANCE> 39
 1.108919e+02 9.131847e+01 5.915797e+01 7.467448e+01 1.657105e+02 7.902199e+01 1.091562e+02 8.281114e+01 8.518236e+01 8.224530e+01 1.565570e+02 5.797712e+01 2.434351e+02 9.855586e-01 1.590821e+00 1.594119e+00 1.740372e+00 2.431672e+00 2.302255e+00 2.363153e+00 2.274212e+00 2.462016e+00 2.187215e+00 2.314810e+00 1.831705e+00 1.070413e+00 1.462035e-01 2.518206e-01 2.438453e-01 2.975312e-01 3.834552e-01 3.716166e-01 3.896169e-01 3.911916e-01 4.059878e-01 3.866549e-01 3.849153e-01 3.112874e-01 1.504951e-01
<GCONST> 1.237940e+02
<TRANSP> 5
 0.000000e+00 1.000000e+00 0.000000e+00 0.000000e+00 0.000000e+00
 0.000000e+00 4.098575e-01 5.901425e-01 0.000000e+00 0.000000e+00
 0.000000e+00 0.000000e+00 4.103489e-01 5.896510e-01 0.000000e+00
 0.000000e+00 0.000000e+00 0.000000e+00 7.277989e-01 2.722011e-01
 0.000000e+00 0.000000e+00 0.000000e+00 0.000000e+00 0.000000e+00
<ENDHMM>
~h "i"
<BEGINHMM>
<NUMSTATES> 5
<STATE> 2
<MEAN> 39
 -1.212610e+00 -3.237855e+00 5.062493e+00 -6.120667e+00 -1.122703e+01 -8.565672e+00 -7.237294e+00 -7.173541e+00 -6.161347e+00 -5.958036e+00 -4.257972e+00 -4.123716e+00 6.871587e+01 -2.734219e-03 1.809933e-01 5.124105e-01 -1.401459e-01 -1.564557e-01 -1.058787e-01 -1.524310e-01 -2.120120e-01 -1.481904e-02 -3.075921e-02 -1.146035e-01 6.083781e-02 7.677934e-03 -8.779173e-02 3.009030e-02 -2.193896e-01 9.675349e-02 1.714846e-01 6.124910e-02 1.194802e-01 9.767550e-02 6.055662e-02 2.388837e-02 -8.505249e-03 6.590962e-03 -1.380832e-01
<VARIANCE> 39
 4.728252e+01 7.793626e+01 1.096112e+02 2.032554e+02 1.378102e+02 1.097534e+02 1.104995e+02 7.548745e+01 7.330073e+01 5.158963e+01 8.936229e+01 3.776314e+01 1.253986e+02 2.544258e+00 2.679882e+00 3.590056e+00 5.625628e+00 4.922477e+00 4.285206e+00 4.019150e+00 3.461510e+00 3.502158e+00 2.878226e+00 3.439702e+00 2.476629e+00 2.632357e+00 4.016652e-01 4.576761e-01 5.492485e-01 9.072935e-01 8.717243e-01 7.249200e-01 6.844876e-01 5.935034e-01 6.198217e-01 5.307416e-01 6.098027e-01 4.470986e-01 3.902813e-01
<GCONST> 1.386724e+02
<STATE> 3
<MEAN> 39
 -1.400808e+00 -2.791833e+00 5.377678e+00 -6.053913e+00 -1.112858e+01 -8.622229e+00 -7.197143e+00 -7.448363e+00 -5.988036e+00 -5.961548e+00 -4.614288e+00 -4.008775e+00 6.839326e+01 -1.354871e-01 2.294043e-01 -9.702844e-02 2.014189e-01 1.879070e-01 6.442221e-02 1.191198e-01 1.128366e-02 6.367407e-02 1.421687e-02 -9.025322e-02 2.950376e-02 -3.442000e-01 -6.296864e-02 -5.280295e-03 -2.298462e-01 7.103958e-02 1.405556e-01 5.865747e-02 9.025613e-02 8.238768e-02 3.060627e-02 2.619732e-02 1.265314e-02 -6.183375e-03 -9.470593e-02
<VARIANCE> 39
 4.649369e+01 7.671603e+01 1.083147e+02 2.153135e+02 1.336811e+02 1.076524e+02 1.129980e+02 7.850528e+01 7.196466e+01 5.056048e+01 8.721194e+01 3.771335e+01 1.251424e+02 2.106075e+00 2.468336e+00 3.073413e+00 4.628076e+00 4.183513e+00 3.915520e+00 3.596029e+00 3.123219e+00 3.196995e+00 2.677556e+00 3.150971e+00 2.279400e+00 2.304066e+00 3.256757e-01 4.253486e-01 4.871210e-01 8.130702e-01 7.713730e-01 6.744118e-01 6.517358e-01 5.516813e-01 5.798066e-01 5.029937e-01 5.754784e-01 4.206791e-01 3.496715e-01
<GCONST> 1.358966e+02
<STATE> 4
<MEAN> 39
 -2.669376e+00 -4.894137e-01 4.304582e+00 -3.659935e+00 -8.893864e+00 -8.475706e+00 -6.494775e+00 -6.966481e+00 -6.274759e+00 -5.807379e+00 -4.817638e+00 -3.120817e+00 6.393098e+01 -2.247626e-01 1.162835e-01 -4.624512e-01 3.070292e-01 2.612835e-01 2.644676e-01 1.243445e-01 1.624107e-01 3.896330e-02 4.064076e-02 1.464807e-02 2.992062e-02 -4.949633e-01 -1.649803e-02 -6.031861e-02 -9.358270e-02 -3.918608e-02 4.339854e-02 1.729904e-02 2.091637e-02 3.325454e-02 8.457608e-03 9.621039e-03 1.752380e-02 -5.142864e-03 3.751555e-02
<VARIANCE> 39
 5.841238e+01 8.510008e+01 9.844157e+01 2.196935e+02 1.157087e+02 9.982858e+01 8.577716e+01 8.564201e+01 6.764984e+01 5.270068e+01 7.893968e+01 4.024697e+01 1.627807e+02 1.467053e+00 1.909835e+00 2.271544e+00 3.370260e+00 2.978047e+00 3.138908e+00 2.855822e+00 2.560759e+00 2.727519e+00 2.297802e+00 2.607887e+00 1.958441e+00 1.573235e+00 2.208448e-01 3.129076e-01 3.371389e-01 5.297245e-01 5.081485e-01 5.001321e-01 4.850422e-01 4.509481e-01 4.709478e-01 4.135464e-01 4.434232e-01 3.442685e-01 2.455121e-01
<GCONST> 1.287670e+02
<TRANSP> 5
 0.000000e+00 1.000000e+00 0.000000e+00 0.000000e+00 0.000000e+00
 0.000000e+00 5.050998e-01 4.949002e-01 0.000000e+00 0.000000e+00
 0.000000e+00 0.000000e+00 4.990508e-01 5.009493e-01 0.000000e+00
 0.000000e+00 0.000000e+00 0.000000e+00 6.845140e-01 3.154859e-01
 0.000000e+00 0.000000e+00 0.000000e+00 0.000000e+00 0.000000e+00
<ENDHMM>
~h "j"
<BEGINHMM>
<NUMSTATES> 5
<STATE> 2
<MEAN> 39
 -2.094202e+00 -2.704818e+00 2.009081e+00 -3.939622e+00 -8.592334e+00 -7.440785e+00 -7.494177e+00 -4.880925e+00 -4.466438e+00 -5.965850e+00 -5.488725e+00 -3.412577e+00 6.788661e+01 -2.636480e-02 -2.602032e-03 6.049699e-01 -2.525629e-01 -3.559970e-01 -2.213561e-01 -1.983339e-01 -1.725284e-01 9.618104e-02 1.111041e-01 -2.400649e-02 1.101467e-01 3.580382e-01 6.993569e-02 -1.850083e-01 -1.240379e-01 -7.430281e-02 -9.170613e-02 -1.834587e-02 1.327065e-02 4.771043e-02 3.315026e-02 -1.721910e-02 7.545629e-03 1.084758e-02 1.210033e-01
<VARIANCE> 39
 5.276999e+01 6.234694e+01 7.101903e+01 1.215473e+02 1.014706e+02 8.041460e+01 7.709824e+01 5.147366e+01 5.027494e+01 3.926369e+01 4.933541e+01 3.014918e+01 1.481040e+02 4.395333e+00 4.625558e+00 3.610274e+00 5.156548e+00 6.654745e+00 4.239111e+00 3.317211e+00 3.288690e+00 3.342943e+00 2.811609e+00 2.966571e+00 2.298494e+00 4.289011e+00 8.206196e-01 8.017696e-01 6.062518e-01 9.152060e-01 1.306895e+00 7.155155e-01 5.891655e-01 6.528138e-01 6.254472e-01 5.576581e-01 5.124883e-01 4.403281e-01 5.811448e-01
<GCONST> 1.381895e+02
<STATE> 3
<MEAN> 39
 -1.352981e+00 -3.680869e+00 2.909614e+00 -4.278047e+00 -1.016044e+01 -7.870807e+00 -7.833993e+00 -5.158164e+00 -4.074390e+00 -5.987518e+00 -5.615521e+00 -3.116377e+00 6.950100e+01 1.367380e-01 -3.560005e-01 5.285772e-02 -1.454384e-01 -3.523245e-01 -1.699833e-01 -6.462055e-02 4.125280e-02 8.311965e-02 5.318963e-02 -3.262912e-03 5.881764e-02 3.380533e-01 -2.117756e-02 -7.319319e-02 -2.215241e-01 7.550487e-03 9.534569e-02 5.928409e-02 6.113589e-02 9.102156e-02 -9.140484e-03 -3.583345e-02 4.130517e-02 -2.922954e-02 -1.597016e-02
<VARIANCE> 39
 4.315334e+01 6.299672e+01 7.430169e+01 1.438087e+02 1.025760e+02 8.159593e+01 7.747948e+01 4.989582e+01 5.263158e+01 3.914116e+01 5.165866e+01 2.949506e+01 1.454314e+02 3.716324e+00 4.983064e+00 4.050394e+00 4.675573e+00 6.343699e+00 4.228297e+00 3.463379e+00 3.321910e+00 3.327248e+00 2.717696e+00 2.707331e+00 2.323572e+00 4.035768e+00 6.742863e-01 8.498291e-01 6.346521e-01 8.944908e-01 1.234428e+00 7.258179e-01 6.098343e-01 6.292843e-01 6.430763e-01 5.475789e-01 5.100390e-01 4.522521e-01 5.647138e-01
<GCONST> 1.378488e+02
<STATE> 4
<MEAN> 39
 -1.097258e+00 -4.414576e+00 1.603267e+00 -3.763225e+00 -9.681321e+00 -7.990573e+00 -7.454084e+00 -4.245915e+00 -3.971907e+00 -6.108165e+00 -5.593423e+00 -3.093282e+00 6.986359e+01 -8.291692e-02 -1.991758e-01 -3.557819e-01 -3.368760e-02 1.104718e-01 5.565366e-02 1.959763e-02 1.278676e-01 -6.425567e-05 1.785101e-02 8.546137e-02 -2.216844e-02 4.363867e-02 -5.396857e-02 1.903553e-02 -8.129946e-02 1.989667e-02 8.701716e-02 6.549290e-02 4.421126e-03 -9.338621e-03 -2.370122e-02 -2.816006e-02 4.711360e-02 -2.149473e-02 -2.632978e-02
<VARIANCE> 39
 4.019192e+01 5.689046e+01 7.275047e+01 1.421116e+02 9.648726e+01 7.105219e+01 6.972391e+01 5.211322e+01 5.216106e+01 3.655482e+01 5.152168e+01 2.740276e+01 1.697973e+02 2.551709e+00 3.570091e+00 3.384462e+00 3.762162e+00 4.549541e+00 3.566341e+00 2.926907e+00 2.999845e+00 2.893054e+00 2.416100e+00 2.311421e+00 2.047665e+00 3.019721e+00 4.380877e-01 6.337542e-01 5.379035e-01 7.145302e-01 8.876243e-01 6.431105e-01 5.565320e-01 5.306916e-01 5.492809e-01 4.759867e-01 4.220101e-01 3.869175e-01 4.713702e-01
<GCONST> 1.320199e+02
<TRANSP> 5
 0.000000e+00 1.000000e+00 0.000000e+00 0.000000e+00 0.000000e+00
 0.000000e+00 4.954163e-01 5.045837e-01 0.000000e+00 0.000000e+00
 0.000000e+00 0.000000e+00 4.692716e-01 5.307283e-01 0.000000e+00
 0.000000e+00 0.000000e+00 0.000000e+00 5.352626e-01 4.647373e-01
 0.000000e+00 0.000000e+00 0.000000e+00 0.000000e+00 0.000000e+00
<ENDHMM>
~h "k"
<BEGINHMM>
<NUMSTATES> 5
<STATE> 2
<MEAN> 39
 -3.691265e+00 -5.901724e+00 -4.996706e+00 -5.941449e+00 -4.442965e+00 -5.580061e+00 -7.605758e+00 -2.736918e+00 -4.707118e+00 -3.672470e+00 -3.841676e+00 -4.617236e+00 6.432555e+01 2.564236e-02 -6.484516e-01 -3.629415e-01 -4.001644e-01 4.214696e-01 -3.988177e-01 -1.355879e-02 2.701384e-01 1.528889e-02 1.756234e-01 4.243484e-03 -3.969551e-02 8.158818e-01 2.055353e-01 -9.580183e-02 4.397452e-02 -8.601572e-02 -1.477200e-01 -5.590243e-02 1.308461e-02 -3.245791e-02 3.509250e-03 -9.573777e-02 -2.834646e-02 -3.080439e-02 3.062716e-01
<VARIANCE> 39
 6.671851e+01 8.055045e+01 7.021358e+01 1.076419e+02 1.460734e+02 9.683419e+01 1.101752e+02 8.068074e+01 5.747616e+01 7.254887e+01 5.472241e+01 4.901328e+01 1.440267e+02 5.146904e+00 5.793638e+00 4.877545e+00 5.462727e+00 9.323344e+00 5.913098e+00 5.269886e+00 5.508291e+00 5.085436e+00 4.982120e+00 4.478045e+00 3.466809e+00 6.283851e+00 8.420269e-01 9.971833e-01 7.951957e-01 9.585360e-01 1.689891e+00 1.059290e+00 9.779523e-01 1.007112e+00 9.676124e-01 9.658975e-01 8.345076e-01 6.519235e-01 9.910012e-01
<GCONST> 1.503503e+02
<STATE> 3
<MEAN> 39
 -2.561831e+00 -7.721682e+00 -5.593102e+00 -7.015403e+00 -4.391986e+00 -6.649102e+00 -7.374051e+00 -2.291239e+00 -4.507837e+00 -3.867751e+00 -4.082187e+00 -4.817470e+00 6.754610e+01 5.352299e-01 -5.052015e-01 -1.001593e-01 -2.811432e-01 -2.533181e-01 -3.040386e-01 1.135347e-01 4.185074e-02 3.276243e-02 -1.999060e-01 -1.077996e-01 -9.910988e-02 9.689479e-01 1.094038e-01 8.459094e-02 1.126179e-01 6.995790e-02 -1.647841e-01 9.726273e-02 1.795599e-02 -9.689176e-02 -1.242849e-02 -9.126000e-02 -2.023493e-02 -1.369236e-03 -5.130364e-02
<VARIANCE> 39
 6.825471e+01 8.535295e+01 7.203859e+01 1.131779e+02 1.447600e+02 1.039025e+02 1.121724e+02 8.279726e+01 5.893046e+01 7.783774e+01 5.678613e+01 4.992474e+01 1.326708e+02 5.557353e+00 5.787786e+00 4.632092e+00 5.098085e+00 8.432038e+00 6.199482e+00 5.264623e+00 5.558633e+00 5.100813e+00 5.178208e+00 4.567476e+00 3.444327e+00 5.929205e+00 8.938810e-01 9.796780e-01 7.581884e-01 8.957768e-01 1.533552e+00 1.080202e+00 9.499654e-01 1.017566e+00 9.282106e-01 9.787162e-01 8.476968e-01 6.391668e-01 9.152371e-01
<GCONST> 1.503058e+02
<STATE> 4
<MEAN> 39
 -1.235999e+00 -8.057129e+00 -5.666660e+00 -6.446919e+00 -5.521217e+00 -6.493364e+00 -6.373230e+00 -2.291477e+00 -4.545754e+00 -4.745314e+00 -4.542966e+00 -4.622180e+00 6.866298e+01 3.839855e-01 -1.338093e-01 1.083072e-01 -2.663860e-02 -3.486342e-01 7.795176e-03 6.911992e-02 -1.469751e-01 -4.770231e-02 -2.150142e-01 -1.037227e-01 -2.192846e-02 3.782104e-01 -5.198681e-02 1.029239e-01 6.376632e-02 4.409754e-02 8.519081e-03 9.539320e-02 -3.984176e-02 -4.916066e-02 -1.409801e-02 2.604729e-02 5.181830e-03 1.924969e-02 -1.466343e-01
<VARIANCE> 39
 6.693599e+01 8.619937e+01 6.276761e+01 1.044684e+02 1.109434e+02 9.441557e+01 9.643095e+01 7.840263e+01 6.067582e+01 6.842461e+01 5.479219e+01 4.370415e+01 1.469820e+02 4.325564e+00 4.631404e+00 3.528110e+00 4.104334e+00 5.745871e+00 5.060975e+00 4.272468e+00 4.542906e+00 4.263480e+00 4.096193e+00 3.851904e+00 2.763660e+00 4.408304e+00 6.476153e-01 7.815142e-01 5.622824e-01 7.082692e-01 1.014242e+00 8.727558e-01 7.507150e-01 8.210812e-01 7.527665e-01 7.491251e-01 6.931345e-01 5.161927e-01 7.018895e-01
<GCONST> 1.429686e+02
<TRANSP> 5
 0.000000e+00 1.000000e+00 0.000000e+00 0.000000e+00 0.000000e+00
 0.000000e+00 5.542089e-01 4.457911e-01 0.000000e+00 0.000000e+00
 0.000000e+00 0.000000e+00 5.089040e-01 4.910960e-01 0.000000e+00
 0.000000e+00 0.000000e+00 0.000000e+00 4.486702e-01 5.513299e-01
 0.000000e+00 0.000000e+00 0.000000e+00 0.000000e+00 0.000000e+00
<ENDHMM>
~h "l"
<BEGINHMM>
<NUMSTATES> 5
<STATE> 2
<MEAN> 39
 2.802537e+00 -6.619394e+00 -5.318627e+00 -7.471491e+00 -7.347302e+00 -6.185191e+00 -5.362990e+00 -7.049486e+00 -1.898257e+00 -3.969952e+00 -6.273889e+00 -4.995739e+00 7.226352e+01 6.171456e-03 7.877389e-02 3.784223e-02 1.326467e-01 -6.774763e-02 7.303225e-02 7.049628e-02 -1.384597e-01 1.559352e-02 -1.593523e-02 -1.603536e-01 3.381912e-02 -1.734387e-01 -7.342245e-02 5.529692e-02 4.844433e-02 1.599993e-03 4.284379e-02 3.498401e-02 -1.442263e-02 6.497344e-02 -6.075361e-02 -3.105196e-02 3.336969e-02 3.308294e-02 -6.472877e-02
<VARIANCE> 39
 5.814119e+01 9.954317e+01 7.147746e+01 9.245853e+01 1.411021e+02 1.063839e+02 1.325408e+02 1.171875e+02 8.199310e+01 1.063008e+02 7.572005e+01 3.970808e+01 1.462082e+02 1.223426e+00 2.145360e+00 2.204700e+00 2.545658e+00 3.449140e+00 3.326149e+00 3.495657e+00 3.871869e+00 3.057921e+00 3.005879e+00 3.070248e+00 2.093980e+00 1.330179e+00 1.907745e-01 3.227590e-01 3.141578e-01 4.108203e-01 5.443512e-01 5.554884e-01 6.040000e-01 6.920605e-01 5.364906e-01 5.116030e-01 5.354966e-01 3.851203e-01 1.879578e-01
<GCONST> 1.311236e+02
<STATE> 3
<MEAN> 39
 2.579835e+00 -6.270950e+00 -5.125342e+00 -7.139838e+00 -7.490902e+00 -6.012018e+00 -5.265726e+00 -7.047228e+00 -2.123501e+00 -4.169299e+00 -6.490808e+00 -4.836377e+00 7.170407e+01 -1.138896e-01 1.552618e-01 1.192429e-01 1.304274e-01 -1.318528e-02 1.427913e-01 1.739902e-02 4.239642e-02 -1.118744e-01 -8.985101e-02 -3.924314e-02 8.233596e-02 -2.750545e-01 -5.939762e-02 3.740945e-02 3.460991e-02 -4.779592e-03 4.850519e-02 2.380209e-02 -1.665794e-02 7.716622e-02 -5.146107e-02 -2.365483e-02 3.908094e-02 1.941091e-02 -4.456163e-02
<VARIANCE> 39
 5.989669e+01 1.043018e+02 6.837598e+01 8.880200e+01 1.380884e+02 1.071258e+02 1.329440e+02 1.149973e+02 8.061400e+01 1.038149e+02 7.917580e+01 4.018798e+01 1.542277e+02 1.096652e+00 2.015433e+00 1.978415e+00 2.399404e+00 3.137181e+00 3.107765e+00 3.223929e+00 3.608107e+00 2.933836e+00 2.828198e+00 2.845938e+00 2.028905e+00 1.262721e+00 1.662329e-01 3.033969e-01 2.865807e-01 3.845128e-01 5.123209e-01 5.395389e-01 5.675040e-01 6.434525e-01 5.168574e-01 4.919238e-01 5.032870e-01 3.755762e-01 1.745595e-01
<GCONST> 1.294188e+02
<STATE> 4
<MEAN> 39
 -2.174642e-01 -2.624768e+00 -4.792175e+00 -5.260243e+00 -6.503831e+00 -5.212048e+00 -4.564312e+00 -5.119624e+00 -2.767217e+00 -4.137455e+00 -5.619889e+00 -4.100860e+00 6.543278e+01 -2.672226e-01 1.611756e-01 1.989058e-01 1.809264e-01 -4.748061e-02 2.129854e-01 -8.978482e-02 1.355808e-01 -1.592468e-01 -1.029887e-01 1.078701e-01 7.844868e-02 -4.156488e-01 -2.672870e-02 4.709207e-03 1.766313e-02 -4.849287e-03 2.914565e-02 -1.636603e-03 -3.605694e-04 1.362179e-02 -2.294822e-02 -6.781308e-03 2.177092e-02 3.539829e-03 -6.485484e-03
<VARIANCE> 39
 8.115907e+01 1.104137e+02 6.042591e+01 8.122291e+01 1.047842e+02 9.820283e+01 9.738332e+01 9.406087e+01 7.260618e+01 8.700761e+01 7.915684e+01 4.130568e+01 2.491857e+02 8.783382e-01 1.483740e+00 1.540904e+00 1.858191e+00 2.387429e+00 2.555912e+00 2.501088e+00 2.742425e+00 2.491204e+00 2.273782e+00 2.400559e+00 1.806686e+00 9.989403e-01 1.276717e-01 2.210053e-01 2.212762e-01 3.062514e-01 3.775250e-01 4.247150e-01 4.101183e-01 4.581802e-01 4.327581e-01 3.954056e-01 4.101187e-01 3.285024e-01 1.311221e-01
<GCONST> 1.226877e+02
<TRANSP> 5
 0.000000e+00 1.000000e+00 0.000000e+00 0.000000e+00 0.000000e+00
 0.000000e+00 4.376673e-01 5.623327e-01 0.000000e+00 0.000000e+00
 0.000000e+00 0.000000e+00 4.350865e-01 5.649136e-01 0.000000e+00
 0.000000e+00 0.000000e+00 0.000000e+00 6.769858e-01 3.230141e-01
 0.000000e+00 0.000000e+00 0.000000e+00 0.000000e+00 0.000000e+00
<ENDHMM>
~h "m"
<BEGINHMM>
<NUMSTATES> 5
<STATE> 2
<MEAN> 39
 3.303702e+00 -3.940586e+00 -3.974703e+00 -5.133868e+00 -8.433897e+00 -1.668744e+00 -6.539133e+00 -6.948967e+00 -6.038875e+00 -7.600557e+00 -5.500789e+00 -5.122514e+00 6.828823e+01 8.592916e-02 2.323963e-01 9.122092e-03 1.593553e-01 4.915689e-03 2.386168e-01 1.122764e-01 -2.165740e-01 -1.087869e-01 -2.102477e-01 -1.948225e-01 -1.466134e-01 -1.578600e-01 -8.122846e-02 -7.461352e-02 -1.995703e-02 -5.511773e-02 6.384544e-02 -8.766260e-02 -1.649015e-02 9.914103e-02 8.512264e-02 7.053160e-02 3.891179e-03 2.390566e-02 5.827655e-02
<VARIANCE> 39
 5.784467e+01 1.068134e+02 5.991231e+01 1.015675e+02 1.169898e+02 9.621692e+01 1.120121e+02 9.044705e+01 6.695757e+01 6.517765e+01 6.272723e+01 3.648291e+01 1.561897e+02 1.430943e+00 2.770403e+00 3.412613e+00 3.929579e+00 3.449924e+00 3.981835e+00 2.953954e+00 3.453939e+00 3.499348e+00 2.628471e+00 3.228302e+00 2.210897e+00 1.852205e+00 2.050156e-01 4.369092e-01 4.924022e-01 6.506179e-01 5.566201e-01 6.361714e-01 5.156075e-01 6.026698e-01 5.889299e-01 4.897435e-01 5.536759e-01 3.919727e-01 2.664779e-01
<GCONST> 1.327049e+02
<STATE> 3
<MEAN> 39
 3.275145e+00 -3.750305e+00 -4.048435e+00 -4.939793e+00 -8.209925e+00 -1.464771e+00 -6.366493e+00 -7.119758e+00 -6.038461e+00 -7.834467e+00 -5.913483e+00 -5.324359e+00 6.818397e+01 -8.009721e-02 7.541391e-02 -1.828331e-02 8.259362e-02 1.290106e-01 4.431346e-03 6.028821e-02 3.407381e-02 7.024966e-02 -4.029822e-02 -1.495937e-01 -6.008033e-02 -6.199493e-02 -8.517036e-02 -7.375379e-02 -1.071856e-02 -5.702991e-02 5.615750e-02 -1.009360e-01 -2.558489e-02 1.254800e-01 7.638245e-02 8.535678e-02 3.708345e-02 4.898100e-02 4.995575e-02
<VARIANCE> 39
 6.021036e+01 1.024814e+02 6.086711e+01 9.697475e+01 1.224075e+02 9.742207e+01 1.114994e+02 9.200243e+01 6.816773e+01 6.523480e+01 6.267171e+01 3.721294e+01 1.579033e+02 1.382432e+00 2.797034e+00 3.170100e+00 3.507206e+00 3.503272e+00 3.847294e+00 2.835103e+00 3.366601e+00 3.498460e+00 2.644737e+00 3.342659e+00 2.152575e+00 1.925993e+00 1.996139e-01 4.265187e-01 4.988977e-01 6.171744e-01 5.642028e-01 6.480858e-01 4.955461e-01 5.851730e-01 5.792720e-01 4.848455e-01 5.451052e-01 3.898206e-01 2.560988e-01
<GCONST> 1.323320e+02
<STATE> 4
<MEAN> 39
 2.110608e+00 -1.932034e+00 -4.003061e+00 -4.149419e+00 -6.908219e+00 -1.977877e+00 -5.235877e+00 -6.231845e+00 -6.390084e+00 -7.614988e+00 -6.315544e+00 -5.397671e+00 6.569592e+01 -2.611971e-01 -9.929043e-03 2.678646e-02 6.192352e-02 1.408542e-01 -7.052068e-02 -1.816590e-02 2.093420e-01 1.044953e-01 9.973311e-02 1.871501e-02 6.649327e-02 -1.246456e-01 -4.318448e-02 -7.284544e-02 -1.115806e-02 -6.697464e-02 2.843700e-02 -4.786969e-02 -2.164344e-02 6.606667e-02 3.246540e-02 4.350080e-02 4.097004e-02 3.624703e-02 5.644425e-02
<VARIANCE> 39
 7.248338e+01 1.062974e+02 5.751723e+01 8.902959e+01 1.138814e+02 8.804156e+01 9.577165e+01 8.458332e+01 6.617769e+01 6.136000e+01 6.693924e+01 3.946785e+01 1.922481e+02 1.228047e+00 2.336559e+00 2.490921e+00 2.836323e+00 2.990929e+00 3.187913e+00 2.484975e+00 2.837452e+00 2.879103e+00 2.432080e+00 2.836580e+00 1.968119e+00 1.608208e+00 1.947259e-01 3.745001e-01 4.130021e-01 4.979469e-01 5.105081e-01 5.351866e-01 4.301963e-01 5.129604e-01 5.059731e-01 4.273083e-01 4.785970e-01 3.540323e-01 2.337957e-01
<GCONST> 1.284175e+02
<TRANSP> 5
 0.000000e+00 1.000000e+00 0.000000e+00 0.000000e+00 0.000000e+00
 0.000000e+00 4.229230e-01 5.770770e-01 0.000000e+00 0.000000e+00
 0.000000e+00 0.000000e+00 4.179880e-01 5.820119e-01 0.000000e+00
 0.000000e+00 0.000000e+00 0.000000e+00 5.703375e-01 4.296625e-01
 0.000000e+00 0.000000e+00 0.000000e+00 0.000000e+00 0.000000e+00
<ENDHMM>
~h "n"
<BEGINHMM>
<NUMSTATES> 5
<STATE> 2
<MEAN> 39
 8.524549e-01 -5.982519e+00 -2.461103e+00 -3.319752e+00 -8.727554e+00 -4.837777e+00 -8.605923e+00 -4.435644e+00 -5.108882e+00 -6.601996e+00 -6.791035e+00 -5.101137e+00 6.831254e+01 1.574324e-03 5.136223e-01 1.717203e-01 3.526348e-01 1.284727e-02 1.072551e-01 5.031905e-02 -1.819743e-01 -6.004859e-02 -8.089156e-02 -9.615573e-02 -4.879807e-02 -4.872685e-01 -6.617597e-02 -3.999375e-02 -6.706553e-03 -6.797575e-02 5.755037e-02 -3.053529e-03 3.576130e-02 3.237507e-02 8.658648e-03 3.171576e-02 5.615825e-02 3.721763e-02 3.991834e-02
<VARIANCE> 39
 5.762836e+01 8.303392e+01 5.134624e+01 9.098566e+01 1.138702e+02 6.271352e+01 1.121537e+02 8.004327e+01 5.489966e+01 5.781277e+01 5.463285e+01 3.638665e+01 1.631647e+02 1.513924e+00 2.928076e+00 2.251105e+00 2.837118e+00 3.307994e+00 2.701497e+00 2.690564e+00 4.425585e+00 2.731140e+00 2.343957e+00 2.739732e+00 1.890186e+00 2.020898e+00 2.610648e-01 4.646575e-01 3.664716e-01 4.966773e-01 5.880622e-01 4.844759e-01 4.921422e-01 7.413331e-01 4.983217e-01 4.274658e-01 4.949395e-01 3.501289e-01 3.123438e-01
<GCONST> 1.290035e+02
<STATE> 3
<MEAN> 39
 7.069576e-01 -5.235682e+00 -2.247735e+00 -2.842526e+00 -8.561193e+00 -4.659593e+00 -8.421021e+00 -4.616824e+00 -5.190866e+00 -6.654409e+00 -6.788505e+00 -5.065342e+00 6.754124e+01 -1.183684e-01 3.762198e-01 1.226138e-01 1.860471e-01 1.339300e-01 9.672409e-02 1.078578e-01 -5.788429e-02 -3.712325e-02 3.812361e-03 1.097605e-02 2.508691e-02 -3.770239e-01 -8.981410e-02 -9.741705e-02 -2.374965e-02 -1.106343e-01 6.591625e-02 -1.929936e-02 2.316390e-02 6.304172e-02 1.877603e-02 4.741432e-02 6.057846e-02 3.622409e-02 7.963151e-02
<VARIANCE> 39
 5.814627e+01 8.210260e+01 5.083078e+01 8.967521e+01 1.129087e+02 6.073189e+01 1.073887e+02 7.760965e+01 5.267109e+01 5.653819e+01 5.265770e+01 3.580558e+01 1.652717e+02 1.738273e+00 2.851886e+00 2.207025e+00 2.816876e+00 3.241748e+00 2.583619e+00 2.636409e+00 4.104816e+00 2.663478e+00 2.295269e+00 2.704173e+00 1.832481e+00 2.120942e+00 2.631187e-01 4.465350e-01 3.667706e-01 4.970409e-01 5.966119e-01 4.751327e-01 4.928740e-01 7.067564e-01 4.817927e-01 4.243020e-01 4.786195e-01 3.430955e-01 3.020400e-01
<GCONST> 1.284303e+02
<STATE> 4
<MEAN> 39
 -2.421741e+00 -4.103564e+00 -3.533773e+00 -1.699066e+00 -5.950468e+00 -3.913159e+00 -6.558285e+00 -2.889156e+00 -4.852283e+00 -5.852885e+00 -5.411161e+00 -3.653592e+00 6.237481e+01 -2.394806e-01 1.217423e-01 3.675074e-02 6.572238e-03 1.368025e-01 6.933928e-02 9.360118e-02 4.086016e-02 1.629112e-02 8.280383e-02 9.635147e-02 7.572765e-02 -2.390464e-01 -5.341772e-02 -8.775890e-02 -1.109352e-02 -8.851780e-02 2.084481e-02 -3.038803e-02 -2.285295e-04 3.086646e-02 1.575063e-02 2.060671e-02 3.057468e-02 1.498229e-02 9.246905e-02
<VARIANCE> 39
 7.240283e+01 6.793176e+01 4.754927e+01 7.816579e+01 8.958679e+01 5.214135e+01 8.004071e+01 6.915729e+01 4.541679e+01 4.836771e+01 4.928130e+01 3.565443e+01 1.956120e+02 1.402916e+00 2.007366e+00 1.684923e+00 2.166530e+00 2.520966e+00 2.201085e+00 2.215833e+00 2.883824e+00 2.277938e+00 2.021625e+00 2.248451e+00 1.591172e+00 1.525141e+00 2.100625e-01 3.428533e-01 2.830917e-01 3.887131e-01 4.501606e-01 3.884633e-01 4.093015e-01 5.282189e-01 4.213515e-01 3.781496e-01 4.006750e-01 3.040577e-01 2.266394e-01
<GCONST> 1.214922e+02
<TRANSP> 5
 0.000000e+00 1.000000e+00 0.000000e+00 0.000000e+00 0.000000e+00
 0.000000e+00 3.740820e-01 6.259180e-01 0.000000e+00 0.000000e+00
 0.000000e+00 0.000000e+00 3.728997e-01 6.271003e-01 0.000000e+00
 0.000000e+00 0.000000e+00 0.000000e+00 6.277577e-01 3.722423e-01
 0.000000e+00 0.000000e+00 0.000000e+00 0.000000e+00 0.000000e+00
<ENDHMM>
~h "o"
<BEGINHMM>
<NUMSTATES> 5
<STATE> 2
<MEAN> 39
 -5.339602e-01 -2.758613e+00 -6.819563e+00 -1.200001e+01 -3.713678e+00 -2.504667e+00 -5.392121e+00 -6.119983e+00 -3.523432e+00 -3.100104e+00 -1.976888e+00 -4.836395e+00 6.537155e+01 4.973648e-01 -1.450804e-01 -2.076551e-01 -8.712431e-01 9.102765e-02 6.045921e-02 2.529836e-02 -1.911774e-01 -4.007676e-02 1.194678e-02 1.368145e-01 -1.154990e-01 7.926240e-01 6.666666e-02 -2.620987e-02 9.356605e-02 9.649984e-02 -4.891422e-02 -9.397349e-02 -3.142304e-02 -2.785300e-02 3.726729e-04 -3.195411e-02 -1.363944e-02 -1.776480e-02 8.811722e-02
<VARIANCE> 39
 9.734044e+01 7.605159e+01 9.276397e+01 1.504261e+02 1.211744e+02 1.094912e+02 1.096878e+02 9.009583e+01 6.794875e+01 5.683286e+01 8.080785e+01 4.010785e+01 1.353931e+02 7.780900e+00 3.860986e+00 6.489690e+00 8.723849e+00 6.800440e+00 7.090806e+00 4.640173e+00 6.089071e+00 5.340262e+00 4.191369e+00 5.218198e+00 3.197568e+00 4.862950e+00 1.204653e+00 6.599231e-01 1.020290e+00 1.495383e+00 1.192005e+00 1.108713e+00 8.240696e-01 1.074754e+00 9.094889e-01 7.460725e-01 8.594763e-01 5.742224e-01 7.557902e-01
<GCONST> 1.512095e+02
<STATE> 3
<MEAN> 39
 1.143308e+00 -3.178573e+00 -6.468235e+00 -1.356666e+01 -3.627884e+00 -3.540965e+00 -5.440536e+00 -6.714179e+00 -3.331755e+00 -3.198398e+00 -1.402798e+00 -5.289700e+00 6.817705e+01 4.236119e-01 -1.735122e-01 1.169821e-01 -6.531386e-02 -1.715431e-01 -3.922273e-01 -9.703981e-02 -1.177139e-01 -4.916255e-03 -2.096987e-02 7.793948e-02 -1.079153e-01 5.675255e-01 -5.665958e-02 -1.120627e-03 9.866007e-02 2.669679e-01 -6.495632e-02 -6.660032e-02 -6.213348e-03 3.835689e-02 -1.089711e-02 -3.486450e-02 -4.361486e-02 1.149475e-02 -1.222640e-01
<VARIANCE> 39
 8.521143e+01 8.251373e+01 1.009451e+02 1.451588e+02 1.376418e+02 1.269588e+02 1.140061e+02 9.239417e+01 7.248578e+01 6.252648e+01 9.242160e+01 3.843947e+01 1.041932e+02 7.126851e+00 4.033127e+00 6.014408e+00 8.137440e+00 7.701687e+00 7.965956e+00 4.501953e+00 5.892913e+00 4.885484e+00 4.277260e+00 4.728279e+00 2.935234e+00 4.449424e+00 1.148683e+00 6.828616e-01 9.309030e-01 1.389150e+00 1.343302e+00 1.137804e+00 8.312181e-01 1.043293e+00 8.402807e-01 7.469525e-01 7.922018e-01 5.490566e-01 6.509414e-01
<GCONST> 1.507743e+02
<STATE> 4
<MEAN> 39
 2.452086e+00 -3.439284e+00 -7.303675e+00 -1.160342e+01 -5.038500e+00 -4.505938e+00 -4.656410e+00 -6.505293e+00 -3.639244e+00 -3.322241e+00 -2.320539e+00 -4.821444e+00 6.840739e+01 -3.177869e-03 -5.864051e-02 3.693375e-01 5.875419e-01 -3.187916e-01 -2.796633e-01 -6.636842e-02 5.377958e-02 -1.621900e-01 -1.304522e-01 -1.178006e-01 6.642204e-03 -1.376327e-01 -1.249769e-01 6.799377e-03 9.070346e-02 8.596536e-02 1.140967e-02 1.898092e-02 7.315848e-03 1.297110e-02 -4.142459e-03 -5.797624e-03 -1.639857e-02 2.686747e-02 -1.122741e-01
<VARIANCE> 39
 7.105500e+01 8.480579e+01 8.924814e+01 1.133048e+02 1.139833e+02 1.256962e+02 1.110629e+02 8.340084e+01 6.219270e+01 6.107228e+01 8.560764e+01 3.469548e+01 1.190194e+02 4.017154e+00 3.355096e+00 3.978948e+00 4.967005e+00 5.080513e+00 5.801911e+00 3.533327e+00 4.051669e+00 3.548795e+00 3.158690e+00 3.416983e+00 2.292552e+00 3.051049e+00 6.020887e-01 5.611972e-01 6.007939e-01 8.427860e-01 8.696479e-01 8.697792e-01 6.013445e-01 6.973174e-01 6.290939e-01 5.703660e-01 5.882322e-01 4.239709e-01 4.828849e-01
<GCONST> 1.404892e+02
<TRANSP> 5
 0.000000e+00 1.000000e+00 0.000000e+00 0.000000e+00 0.000000e+00
 0.000000e+00 6.226373e-01 3.773627e-01 0.000000e+00 0.000000e+00
 0.000000e+00 0.000000e+00 6.159214e-01 3.840786e-01 0.000000e+00
 0.000000e+00 0.000000e+00 0.000000e+00 5.692551e-01 4.307449e-01
 0.000000e+00 0.000000e+00 0.000000e+00 0.000000e+00 0.000000e+00
<ENDHMM>
~h "p"
<BEGINHMM>
<NUMSTATES> 5
<STATE> 2
<MEAN> 39
 -3.701904e+00 -5.599276e+00 -4.788504e+00 -7.047695e+00 -8.025363e+00 -3.236262e+00 -1.213912e+01 -6.284769e+00 -3.469773e+00 -3.799847e+00 -3.619021e+00 -5.006661e+00 6.421944e+01 4.373288e-01 -4.157433e-01 -2.105403e-01 -4.782159e-01 -2.873608e-02 -2.113618e-01 -8.724464e-02 -2.949592e-02 7.499946e-02 1.307220e-01 1.233853e-01 -4.764023e-02 1.011592e+00 1.712601e-01 -1.090051e-01 -8.046966e-03 -1.027363e-01 -6.536143e-02 -4.520193e-02 -2.332034e-02 -7.213889e-03 -1.731923e-02 -3.271024e-02 -3.155225e-02 -3.159679e-02 2.740893e-01
<VARIANCE> 39
 9.207284e+01 7.916754e+01 7.550974e+01 9.750670e+01 1.156680e+02 8.166130e+01 1.349848e+02 9.293368e+01 6.336051e+01 6.931142e+01 5.611535e+01 4.772102e+01 1.514005e+02 7.297513e+00 5.796848e+00 6.175900e+00 6.730224e+00 7.916434e+00 6.779397e+00 5.983077e+00 6.650796e+00 5.493335e+00 4.952688e+00 5.119381e+00 3.939086e+00 9.595431e+00 1.239852e+00 1.076367e+00 1.008932e+00 1.265507e+00 1.416683e+00 1.258562e+00 1.111867e+00 1.242800e+00 1.013155e+00 9.474615e-01 9.712161e-01 7.733968e-01 1.697828e+00
<GCONST> 1.547103e+02
<STATE> 3
<MEAN> 39
 -1.177838e+00 -7.358265e+00 -4.882332e+00 -8.614915e+00 -9.155329e+00 -3.582717e+00 -1.307461e+01 -6.851786e+00 -3.319685e+00 -3.703816e+00 -3.181281e+00 -5.345333e+00 6.851718e+01 5.613374e-01 -4.497295e-01 -8.534623e-02 -4.274414e-01 -1.800164e-01 -2.390349e-01 -7.556067e-02 -2.852876e-02 3.407499e-02 -4.390258e-02 -5.202434e-02 -7.861292e-02 1.005502e+00 1.737305e-03 5.464577e-02 6.271420e-02 7.105845e-02 -1.694842e-02 1.189962e-02 1.730097e-02 1.674724e-02 -1.047601e-02 -5.767101e-02 -6.771708e-02 -1.042917e-02 -7.690015e-02
<VARIANCE> 39
 8.233201e+01 7.837936e+01 8.362086e+01 1.070783e+02 1.367193e+02 9.963388e+01 1.515360e+02 1.009937e+02 7.212196e+01 7.450246e+01 6.373148e+01 4.940306e+01 1.098217e+02 7.218970e+00 6.355167e+00 6.450679e+00 7.054518e+00 8.695612e+00 7.950620e+00 6.260928e+00 7.245449e+00 6.003917e+00 5.134163e+00 5.642396e+00 4.345916e+00 8.919891e+00 1.268153e+00 1.142962e+00 1.038770e+00 1.295706e+00 1.550917e+00 1.422107e+00 1.166249e+00 1.351383e+00 1.084048e+00 9.895498e-01 1.038867e+00 8.510086e-01 1.540887e+00
<GCONST> 1.568518e+02
<STATE> 4
<MEAN> 39
 1.073816e+00 -7.093334e+00 -5.533485e+00 -8.099015e+00 -7.227412e+00 -5.338911e+00 -7.904738e+00 -4.935166e+00 -2.863879e+00 -3.685549e+00 -3.833538e+00 -4.564850e+00 7.024663e+01 3.809974e-01 -1.756236e-01 1.132721e-01 -1.561493e-01 -1.792482e-01 -1.861209e-01 -3.002492e-02 2.414298e-02 -2.815355e-02 -1.851619e-01 -2.306358e-01 -6.072517e-02 5.323927e-01 -1.565709e-01 1.459184e-01 6.482419e-02 1.300155e-01 5.745776e-02 7.166876e-02 2.749123e-02 1.311733e-02 -2.190639e-02 -2.168478e-02 -9.434588e-03 1.136620e-02 -2.893034e-01
<VARIANCE> 39
 6.495416e+01 8.099866e+01 8.341359e+01 1.080831e+02 1.219423e+02 1.024099e+02 1.280086e+02 9.176905e+01 7.333656e+01 6.693235e+01 6.436569e+01 4.241411e+01 1.155571e+02 5.116309e+00 4.868989e+00 4.726353e+00 5.940239e+00 6.192283e+00 6.361658e+00 4.537594e+00 5.043827e+00 4.782979e+00 3.811357e+00 4.381773e+00 3.249388e+00 5.781359e+00 8.586874e-01 8.882163e-01 7.961298e-01 1.032027e+00 1.103882e+00 1.131359e+00 8.414624e-01 9.277841e-01 8.469338e-01 7.116462e-01 8.055809e-01 6.355936e-01 9.605024e-01
<GCONST> 1.482758e+02
<TRANSP> 5
 0.000000e+00 1.000000e+00 0.000000e+00 0.000000e+00 0.000000e+00
 0.000000e+00 7.409943e-01 2.590056e-01 0.000000e+00 0.000000e+00
 0.000000e+00 0.000000e+00 7.402939e-01 2.597061e-01 0.000000e+00
 0.000000e+00 0.000000e+00 0.000000e+00 5.159253e-01 4.840747e-01
 0.000000e+00 0.000000e+00 0.000000e+00 0.000000e+00 0.000000e+00
<ENDHMM>
~h "q"
<BEGINHMM>
<NUMSTATES> 5
<STATE> 2
<MEAN> 39
 -3.418262e+00 -1.389678e+01 -4.198648e+00 -8.218336e+00 -6.315955e+00 -1.542939e+00 -1.382693e+00 -2.794996e+00 -9.068750e+00 -9.109663e+00 -6.966835e+00 -2.642673e+00 6.361892e+01 -6.508544e-02 1.573648e-01 -1.604736e-01 -4.205193e-03 2.977208e-01 4.442758e-02 -2.673064e-02 6.441105e-02 7.541943e-02 -1.444534e-01 8.818723e-02 2.537714e-03 -1.729784e-01 9.493932e-03 6.306874e-02 4.175559e-03 2.362980e-02 -1.046170e-02 -5.843004e-02 -2.774940e-02 -2.894140e-03 -3.340277e-04 -2.478383e-04 -6.718725e-03 -1.911407e-03 -1.587448e-02
<VARIANCE> 39
 5.160062e+01 1.304073e+02 4.286133e+01 9.099896e+01 4.707921e+01 3.885125e+01 4.724055e+01 4.004769e+01 3.629852e+01 5.188563e+01 3.159476e+01 2.285103e+01 6.869885e+01 1.162863e+00 2.460030e+00 1.378628e+00 3.018646e+00 2.112484e+00 1.845938e+00 1.384489e+00 1.424408e+00 2.090166e+00 2.378709e+00 1.821123e+00 1.778431e+00 1.348895e+00 1.739564e-01 2.923693e-01 2.443162e-01 4.360525e-01 3.517217e-01 2.736174e-01 2.163244e-01 2.580608e-01 4.288504e-01 4.132001e-01 3.075611e-01 3.177753e-01 1.487603e-01
<GCONST> 1.133590e+02
<STATE> 3
<MEAN> 39
 -3.594378e+00 -1.138361e+01 -4.728668e+00 -5.693280e+00 -5.164442e+00 -2.307580e+00 -7.548120e-01 -2.154242e+00 -9.372646e+00 -8.914989e+00 -5.470831e+00 -1.845013e+00 6.328371e+01 -3.421730e-01 3.724439e-01 -9.888642e-02 2.355030e-01 2.154546e-01 4.809034e-02 1.210973e-02 8.278970e-02 1.290529e-01 1.251956e-02 1.387881e-01 6.701171e-02 -5.197759e-01 -2.874395e-03 3.023904e-03 3.670087e-02 3.015423e-03 -4.956330e-02 -1.557311e-02 -1.270694e-02 -3.733093e-03 -2.225257e-03 5.472168e-02 1.693499e-02 1.767980e-02 -7.096641e-03
<VARIANCE> 39
 5.445590e+01 1.155942e+02 5.065195e+01 9.215346e+01 5.076422e+01 3.523541e+01 4.524790e+01 5.231842e+01 4.453786e+01 6.745669e+01 2.913328e+01 2.470113e+01 6.690416e+01 1.320544e+00 2.177930e+00 1.609209e+00 2.995864e+00 2.144572e+00 1.795130e+00 1.793122e+00 1.636065e+00 2.237920e+00 2.366248e+00 1.786450e+00 1.549519e+00 1.305682e+00 1.908174e-01 2.669556e-01 2.424329e-01 4.405635e-01 3.503155e-01 3.061238e-01 2.927119e-01 2.722145e-01 3.938262e-01 4.772635e-01 3.204856e-01 3.107842e-01 1.299949e-01
<GCONST> 1.149325e+02
<STATE> 4
<MEAN> 39
 -7.251458e+00 -5.870453e+00 -5.651944e+00 -3.432782e+00 -2.117286e-01 -2.981237e+00 -3.199235e+00 1.360946e+00 -5.228507e+00 -4.898953e+00 -4.284880e-01 1.736688e+00 5.446487e+01 -2.900742e-02 8.635050e-03 -5.034927e-02 1.677539e-02 1.805032e-03 2.634626e-03 6.223286e-03 -1.635556e-02 2.255202e-02 2.743932e-02 1.081329e-02 -9.037592e-03 -6.657417e-02 1.694563e-02 -6.885279e-03 -1.701574e-03 -4.894805e-03 7.433245e-04 -7.986233e-03 -6.737342e-03 -6.217039e-03 -4.138680e-03 -3.497729e-03 -7.955906e-03 -6.653406e-03 2.657592e-02
<VARIANCE> 39
 2.558683e+01 2.088701e+01 4.430496e+01 2.971159e+01 4.543732e+01 2.165123e+01 4.206916e+01 2.587455e+01 2.387525e+01 2.783024e+01 2.170703e+01 1.947427e+01 5.411087e+01 6.227504e-01 8.354242e-01 1.056072e+00 9.596017e-01 1.648939e+00 1.322591e+00 1.661825e+00 1.512282e+00 1.739662e+00 1.582673e+00 1.474471e+00 1.203451e+00 7.127612e-01 1.186517e-01 1.513751e-01 1.802637e-01 1.782264e-01 3.103476e-01 2.511315e-01 2.934437e-01 2.837895e-01 3.543900e-01 3.073912e-01 2.952994e-01 2.401313e-01 9.812568e-02
<GCONST> 9.819078e+01
<TRANSP> 5
 0.000000e+00 1.000000e+00 0.000000e+00 0.000000e+00 0.000000e+00
 0.000000e+00 8.962052e-01 1.037947e-01 0.000000e+00 0.000000e+00
 0.000000e+00 0.000000e+00 8.412504e-01 1.587496e-01 0.000000e+00
 0.000000e+00 0.000000e+00 0.000000e+00 9.856011e-01 1.439890e-02
 0.000000e+00 0.000000e+00 0.000000e+00 0.000000e+00 0.000000e+00
<ENDHMM>
~h "r"
<BEGINHMM>
<NUMSTATES> 5
<STATE> 2
<MEAN> 39
 3.561585e-01 -8.087521e+00 -5.537752e+00 -4.611744e+00 -8.488220e+00 -5.189696e+00 -8.569882e+00 -4.047946e+00 -3.636826e+00 -4.740978e+00 -3.760781e+00 -3.713247e+00 7.146431e+01 5.865329e-02 -7.679065e-02 6.934616e-02 1.141631e-01 -1.654307e-01 4.427636e-02 -1.274394e-01 -3.234049e-02 -4.815075e-02 6.255183e-03 1.183702e-01 3.101959e-02 -2.612660e-02 -4.876577e-02 6.177605e-02 6.149074e-02 -2.913751e-02 2.435243e-02 2.505391e-02 1.560744e-02 -5.001180e-03 -5.063917e-02 -2.255202e-03 -7.948793e-03 -2.637096e-02 -6.006195e-02
<VARIANCE> 39
 7.315105e+01 7.752431e+01 6.534031e+01 8.859662e+01 1.071619e+02 8.219807e+01 1.218153e+02 9.284739e+01 8.742123e+01 6.314048e+01 5.226902e+01 3.995835e+01 1.422655e+02 3.384547e+00 3.670863e+00 3.088690e+00 3.120378e+00 4.263243e+00 3.859486e+00 3.344177e+00 4.447746e+00 4.218030e+00 3.319961e+00 3.272493e+00 2.532904e+00 3.138660e+00 5.720776e-01 6.372272e-01 4.972544e-01 5.671174e-01 7.562480e-01 6.858538e-01 6.009141e-01 8.006340e-01 7.781739e-01 6.262690e-01 5.960763e-01 4.847806e-01 5.142728e-01
<GCONST> 1.385143e+02
<STATE> 3
<MEAN> 39
 5.402935e-01 -8.152493e+00 -5.346559e+00 -4.507199e+00 -8.777477e+00 -5.093526e+00 -8.780018e+00 -4.110572e+00 -3.826781e+00 -4.769722e+00 -3.585093e+00 -3.716230e+00 7.142782e+01 -1.999374e-02 6.451149e-02 1.621055e-01 4.974243e-02 -9.778529e-02 7.925506e-02 -6.455790e-02 -3.614744e-02 -1.329088e-01 6.869533e-04 7.360783e-02 -1.935123e-02 -1.430205e-01 -5.751422e-02 7.045536e-02 5.068628e-02 -3.828297e-02 5.048009e-02 7.596204e-03 4.032676e-02 -1.502575e-02 -3.618802e-02 -3.189210e-03 -3.824664e-02 -2.198293e-02 -5.102982e-02
<VARIANCE> 39
 7.328990e+01 7.826762e+01 6.897093e+01 8.667711e+01 1.090875e+02 8.231876e+01 1.253320e+02 9.323495e+01 8.805952e+01 6.304934e+01 5.211844e+01 3.932377e+01 1.422092e+02 3.053356e+00 3.424417e+00 2.949954e+00 2.963169e+00 4.191511e+00 3.620836e+00 3.275506e+00 4.489179e+00 4.072314e+00 3.284422e+00 3.126906e+00 2.440075e+00 2.865295e+00 5.040232e-01 5.947880e-01 4.810038e-01 5.401595e-01 7.329607e-01 6.567844e-01 5.806395e-01 7.900510e-01 7.431345e-01 6.070471e-01 5.663553e-01 4.659947e-01 4.614383e-01
<GCONST> 1.373380e+02
<STATE> 4
<MEAN> 39
 6.095223e-01 -7.198358e+00 -5.660594e+00 -3.705653e+00 -8.031903e+00 -5.233003e+00 -7.413295e+00 -3.368375e+00 -4.552700e+00 -4.245176e+00 -3.185825e+00 -3.368680e+00 7.078241e+01 -1.604427e-01 1.782952e-01 2.197819e-01 1.733944e-02 1.570227e-03 1.008892e-01 2.177164e-02 -7.659747e-02 -1.282607e-01 3.038408e-03 -2.550495e-02 -3.548627e-02 -2.510224e-01 -4.070964e-02 3.038907e-02 3.675340e-02 -3.378447e-02 3.704460e-02 -1.803019e-02 1.893595e-02 -1.486211e-02 -6.449542e-03 -1.480509e-02 -4.496044e-02 -7.240037e-03 5.889095e-03
<VARIANCE> 39
 7.405926e+01 7.273891e+01 7.062704e+01 8.855955e+01 1.000795e+02 7.798790e+01 1.112373e+02 8.986930e+01 8.364379e+01 5.744218e+01 5.090833e+01 3.754400e+01 1.584847e+02 2.352365e+00 2.798980e+00 2.558084e+00 2.677594e+00 3.534397e+00 3.148848e+00 2.920733e+00 3.736156e+00 3.500302e+00 2.876886e+00 2.687509e+00 2.120337e+00 2.198460e+00 3.910844e-01 4.745151e-01 4.142101e-01 4.779893e-01 6.016613e-01 5.741565e-01 5.133116e-01 6.541069e-01 6.251229e-01 5.224403e-01 4.854087e-01 3.975977e-01 3.751125e-01
<GCONST> 1.325242e+02
<TRANSP> 5
 0.000000e+00 1.000000e+00 0.000000e+00 0.000000e+00 0.000000e+00
 0.000000e+00 3.575861e-01 6.424139e-01 0.000000e+00 0.000000e+00
 0.000000e+00 0.000000e+00 3.530088e-01 6.469913e-01 0.000000e+00
 0.000000e+00 0.000000e+00 0.000000e+00 4.431594e-01 5.568406e-01
 0.000000e+00 0.000000e+00 0.000000e+00 0.000000e+00 0.000000e+00
<ENDHMM>
~h "s"
<BEGINHMM>
<NUMSTATES> 5
<STATE> 2
<MEAN> 39
 -1.117814e+01 -1.455139e+00 3.552365e-02 -6.503299e+00 -4.713407e-01 -8.386982e+00 -3.662363e+00 -2.192139e+00 -4.042027e+00 -4.356590e+00 -2.402212e+00 -2.684739e+00 6.812975e+01 -1.490794e+00 1.855376e-01 2.651637e-01 -3.174910e-01 5.420515e-01 -2.199653e-01 4.733221e-01 2.110648e-01 2.294535e-01 1.986580e-02 4.802921e-01 2.178202e-01 1.612663e-01 3.421244e-01 -1.745089e-01 -1.239385e-01 -9.622362e-03 -2.404298e-01 3.213550e-02 -1.496677e-01 -8.112795e-02 -9.520152e-04 -1.949616e-02 -4.193010e-02 -4.245428e-02 6.138828e-02
<VARIANCE> 39
 1.389818e+02 1.113304e+02 8.546112e+01 1.371852e+02 1.786569e+02 1.280018e+02 1.113102e+02 7.491363e+01 8.148177e+01 5.756670e+01 5.417176e+01 4.255745e+01 1.083861e+02 1.073944e+01 6.106350e+00 5.776100e+00 4.099122e+00 7.198323e+00 5.292290e+00 4.399593e+00 4.474597e+00 4.182489e+00 3.600557e+00 3.678449e+00 2.876263e+00 1.834180e+00 1.490749e+00 8.521703e-01 7.886272e-01 6.572670e-01 1.010664e+00 8.489758e-01 7.297084e-01 7.849115e-01 7.386405e-01 6.532661e-01 6.682103e-01 5.116066e-01 2.777778e-01
<GCONST> 1.460757e+02
<STATE> 3
<MEAN> 39
 -1.268064e+01 -2.420870e+00 5.467439e-02 -6.811854e+00 -1.017272e+00 -8.411251e+00 -3.172238e+00 -2.274734e+00 -3.516551e+00 -4.234073e+00 -1.571458e+00 -2.292995e+00 6.897144e+01 5.820051e-01 -3.024593e-01 -2.464011e-01 -8.542193e-02 -4.674458e-01 -1.073217e-01 -2.112817e-01 -1.965546e-01 6.332338e-02 2.078019e-02 8.862059e-03 -3.961586e-02 2.174250e-01 5.605872e-01 -7.646164e-02 -1.048539e-01 3.428212e-02 -1.813018e-01 6.956350e-03 -1.795406e-01 -1.088403e-01 -5.836596e-02 -2.086047e-02 -1.355487e-01 -8.227365e-02 3.488733e-02
<VARIANCE> 39
 1.334331e+02 1.183578e+02 9.470161e+01 1.324951e+02 1.735069e+02 1.343794e+02 1.001661e+02 7.548383e+01 8.426714e+01 5.640495e+01 4.733653e+01 4.344269e+01 1.009218e+02 1.289980e+01 5.514329e+00 5.793798e+00 3.532003e+00 6.045277e+00 4.392053e+00 4.560725e+00 4.886487e+00 4.401834e+00 3.676739e+00 3.639004e+00 2.914632e+00 2.106510e+00 1.497421e+00 8.470425e-01 7.996813e-01 5.806428e-01 9.075912e-01 7.780341e-01 7.701576e-01 8.090625e-01 7.443743e-01 6.546644e-01 6.270924e-01 4.990503e-01 3.219780e-01
<GCONST> 1.456716e+02
<STATE> 4
<MEAN> 39
 -9.522644e+00 -3.673118e+00 -1.427703e+00 -4.597067e+00 -3.149663e+00 -7.048707e+00 -3.273467e+00 -1.988455e+00 -3.827137e+00 -3.472064e+00 -1.417731e+00 -1.621584e+00 6.729007e+01 1.348547e+00 -2.719356e-01 -2.869901e-01 1.052145e-02 -5.157890e-01 -1.496940e-02 -4.663309e-01 -2.832125e-01 -9.205823e-02 -4.691403e-02 -2.387860e-01 -1.584574e-01 1.028208e-01 9.388153e-02 1.187405e-02 1.613912e-02 -9.536654e-04 2.673720e-02 2.453594e-02 -4.254688e-02 -8.876057e-03 -3.193419e-02 -1.456864e-02 -4.593383e-02 -3.382365e-02 -3.328318e-03
<VARIANCE> 39
 1.282188e+02 9.336919e+01 8.965871e+01 1.256188e+02 1.375877e+02 1.186922e+02 8.830774e+01 8.210812e+01 8.135308e+01 5.406976e+01 5.201820e+01 4.401991e+01 1.312294e+02 7.726648e+00 4.468800e+00 4.122284e+00 3.327380e+00 4.282133e+00 3.727588e+00 3.842864e+00 4.126381e+00 3.664840e+00 3.203861e+00 3.006268e+00 2.468849e+00 2.382656e+00 1.154299e+00 6.316081e-01 5.982282e-01 5.058063e-01 6.558241e-01 6.280798e-01 6.426303e-01 6.556087e-01 6.355350e-01 5.249684e-01 5.311837e-01 4.144200e-01 3.500901e-01
<GCONST> 1.400952e+02
<TRANSP> 5
 0.000000e+00 1.000000e+00 0.000000e+00 0.000000e+00 0.000000e+00
 0.000000e+00 6.736266e-01 3.263734e-01 0.000000e+00 0.000000e+00
 0.000000e+00 0.000000e+00 6.431974e-01 3.568026e-01 0.000000e+00
 0.000000e+00 0.000000e+00 0.000000e+00 6.277730e-01 3.722270e-01
 0.000000e+00 0.000000e+00 0.000000e+00 0.000000e+00 0.000000e+00
<ENDHMM>
~h "t"
<BEGINHMM>
<NUMSTATES> 5
<STATE> 2
<MEAN> 39
 -3.540809e+00 -4.549777e+00 -3.924006e+00 -3.909817e+00 -6.987887e+00 -5.731791e+00 -6.606240e+00 -3.854311e+00 -4.618356e+00 -4.496828e+00 -4.180027e+00 -3.170197e+00 6.403331e+01 -2.093283e-01 -1.762209e-01 -1.705251e-01 -1.550056e-01 8.909813e-02 -2.001546e-02 5.876652e-02 5.552582e-02 4.549201e-02 1.072571e-01 1.122873e-01 1.202054e-01 1.633935e-02 1.200557e-01 -1.844075e-01 -8.410525e-03 -1.768153e-01 -4.459783e-02 -4.766813e-02 -2.095467e-02 1.278318e-02 -2.459984e-02 -1.601911e-02 -2.899615e-02 -1.517576e-02 3.369046e-01
<VARIANCE> 39
 6.551643e+01 6.244757e+01 4.940402e+01 9.663166e+01 8.252107e+01 6.850469e+01 8.432928e+01 7.189971e+01 5.568911e+01 5.527129e+01 4.399754e+01 3.430944e+01 1.634839e+02 4.202658e+00 4.443241e+00 2.957253e+00 4.176318e+00 4.140392e+00 4.292130e+00 3.324558e+00 3.878286e+00 3.951469e+00 3.052772e+00 3.175055e+00 2.455208e+00 6.065964e+00 7.406915e-01 7.662102e-01 5.162821e-01 7.465690e-01 7.843451e-01 7.805591e-01 6.349344e-01 7.266582e-01 7.467982e-01 5.864395e-01 6.114056e-01 4.751360e-01 9.982599e-01
<GCONST> 1.386369e+02
<STATE> 3
<MEAN> 39
 -3.341631e+00 -5.401941e+00 -4.340306e+00 -4.683121e+00 -7.035506e+00 -5.956961e+00 -6.526579e+00 -3.699456e+00 -4.644468e+00 -4.393115e+00 -4.084120e+00 -3.031325e+00 6.527512e+01 1.524420e-01 -4.276980e-01 -1.377877e-01 -3.972619e-01 -4.265818e-02 -7.050940e-02 1.701127e-02 5.485282e-02 -2.855407e-02 1.533138e-02 -1.114522e-02 4.447240e-02 5.876922e-01 1.382884e-01 -6.986105e-02 4.797153e-02 -7.600316e-02 -3.556777e-02 5.380743e-03 -4.835755e-02 -3.999034e-03 -2.441477e-02 -4.955194e-02 -4.600594e-02 -4.245329e-02 1.844067e-01
<VARIANCE> 39
 6.520282e+01 6.689856e+01 4.887266e+01 1.031144e+02 8.038349e+01 6.733324e+01 8.249944e+01 6.929578e+01 5.659569e+01 5.442336e+01 4.287532e+01 3.408949e+01 1.652722e+02 4.748897e+00 4.823753e+00 3.332134e+00 4.534541e+00 4.295569e+00 4.478646e+00 3.668324e+00 4.174714e+00 4.362063e+00 3.266494e+00 3.324843e+00 2.640795e+00 6.869438e+00 8.110473e-01 7.865915e-01 5.567965e-01 7.786194e-01 8.170593e-01 7.947860e-01 6.756358e-01 7.564376e-01 7.831682e-01 6.181030e-01 6.306313e-01 4.854393e-01 1.042372e+00
<GCONST> 1.402910e+02
<STATE> 4
<MEAN> 39
 -3.349984e+00 -5.566972e+00 -4.977433e+00 -4.510112e+00 -6.584706e+00 -5.544023e+00 -5.888871e+00 -2.978180e+00 -4.781163e+00 -4.364032e+00 -3.947424e+00 -2.685766e+00 6.452740e+01 1.596781e-01 -3.015862e-01 1.551427e-02 -2.952072e-01 -3.213560e-02 9.440175e-03 -7.486977e-02 2.385432e-02 -3.433073e-02 -3.671818e-02 -4.115707e-02 -3.069680e-02 4.397417e-01 7.548716e-02 9.698502e-03 5.887203e-02 -2.963685e-02 -1.305286e-02 2.120635e-03 -6.574374e-02 -2.004815e-02 -1.279155e-02 -3.832826e-02 -1.324831e-02 -3.816590e-02 7.797441e-02
<VARIANCE> 39
 6.704359e+01 6.473358e+01 4.779057e+01 1.077330e+02 7.213730e+01 6.065066e+01 7.307800e+01 6.759023e+01 5.482563e+01 5.098763e+01 4.108924e+01 3.275676e+01 1.863473e+02 3.668058e+00 3.607538e+00 2.933842e+00 3.868294e+00 3.755798e+00 3.803576e+00 3.302039e+00 3.511257e+00 3.615309e+00 2.837931e+00 2.937382e+00 2.327054e+00 4.807127e+00 6.087350e-01 5.914569e-01 4.626857e-01 6.452852e-01 6.627776e-01 6.577439e-01 5.646635e-01 6.403080e-01 6.614625e-01 5.386832e-01 5.389673e-01 4.275554e-01 7.651821e-01
<GCONST> 1.349530e+02
<TRANSP> 5
 0.000000e+00 1.000000e+00 0.000000e+00 0.000000e+00 0.000000e+00
 0.000000e+00 4.366170e-01 5.633830e-01 0.000000e+00 0.000000e+00
 0.000000e+00 0.000000e+00 4.179660e-01 5.820340e-01 0.000000e+00
 0.000000e+00 0.000000e+00 0.000000e+00 5.004793e-01 4.995206e-01
 0.000000e+00 0.000000e+00 0.000000e+00 0.000000e+00 0.000000e+00
<ENDHMM>
~h "u"
<BEGINHMM>
<NUMSTATES> 5
<STATE> 2
<MEAN> 39
 2.245100e-01 -2.852451e+00 -3.671291e+00 -8.802418e+00 -8.467535e+00 -2.930088e+00 -1.199791e+01 -6.746529e+00 -4.765656e+00 -5.307374e+00 -2.557086e+00 -3.592473e+00 6.628665e+01 4.293214e-01 -1.216905e-01 -8.296211e-02 -6.092532e-01 -9.694098e-03 7.339541e-03 -3.966761e-01 -1.372988e-01 -1.007980e-01 1.407188e-02 1.915939e-01 -3.585422e-02 6.621560e-01 -9.500775e-03 -1.357757e-02 1.269459e-02 8.844902e-02 3.888539e-02 -3.686729e-02 5.959681e-02 8.304525e-03 1.196842e-02 1.828988e-02 -4.898217e-02 -4.735078e-02 -1.156453e-02
<VARIANCE> 39
 8.401252e+01 8.762077e+01 6.119439e+01 1.543779e+02 1.449570e+02 9.787550e+01 1.310851e+02 1.280313e+02 6.609111e+01 8.262537e+01 6.456918e+01 4.497185e+01 1.164890e+02 5.699446e+00 4.513560e+00 4.305250e+00 7.269005e+00 7.479903e+00 7.214946e+00 5.579992e+00 7.423034e+00 5.483432e+00 5.238351e+00 5.084285e+00 3.868831e+00 4.508736e+00 9.374164e-01 7.790109e-01 7.062342e-01 1.268113e+00 1.311341e+00 1.283191e+00 1.023124e+00 1.348362e+00 9.982232e-01 9.381260e-01 9.004606e-01 7.265697e-01 7.515987e-01
<GCONST> 1.522478e+02
<STATE> 3
<MEAN> 39
 1.529135e+00 -3.253286e+00 -3.993275e+00 -9.595016e+00 -8.455261e+00 -3.330483e+00 -1.230068e+01 -6.664214e+00 -4.624267e+00 -5.172852e+00 -2.557259e+00 -3.932255e+00 6.802195e+01 1.415696e-01 -1.386768e-01 -3.338632e-02 -9.983994e-02 1.049346e-01 -1.656761e-01 9.251792e-03 5.367991e-02 2.357484e-02 5.103082e-02 -8.416416e-02 -1.377430e-01 3.181788e-01 -1.483632e-01 -1.005365e-02 4.050771e-02 1.789781e-01 4.194915e-02 -5.047968e-02 1.566102e-01 8.134658e-02 2.270241e-02 -2.024719e-02 -7.088504e-02 -5.273466e-03 -1.261162e-01
<VARIANCE> 39
 7.347282e+01 8.721594e+01 6.079865e+01 1.562482e+02 1.398909e+02 1.023081e+02 1.399838e+02 1.263078e+02 6.673206e+01 8.786012e+01 7.072108e+01 4.476201e+01 1.013194e+02 5.072753e+00 4.347492e+00 3.910694e+00 6.633228e+00 7.083416e+00 6.868683e+00 5.233284e+00 7.066070e+00 5.305685e+00 5.247335e+00 5.029982e+00 3.698446e+00 4.001043e+00 7.709219e-01 7.060916e-01 6.334221e-01 1.117593e+00 1.183365e+00 1.199800e+00 9.564921e-01 1.264372e+00 9.635485e-01 9.393449e-01 9.252409e-01 7.042813e-01 6.286490e-01
<GCONST> 1.503810e+02
<STATE> 4
<MEAN> 39
 1.386356e+00 -2.478714e+00 -4.425639e+00 -8.866501e+00 -7.353789e+00 -4.716542e+00 -9.697790e+00 -5.047203e+00 -4.900394e+00 -4.958710e+00 -3.443349e+00 -3.882484e+00 6.691034e+01 -2.816732e-01 -1.610883e-01 6.834724e-02 3.016843e-01 1.595205e-01 -9.652293e-02 2.910155e-01 1.916520e-01 3.773954e-02 -5.388009e-02 -1.717121e-01 -7.330719e-02 -9.893361e-02 -9.909183e-02 -4.678242e-02 3.478552e-02 5.208245e-02 6.021827e-03 8.703994e-03 4.898617e-02 2.185537e-02 1.198409e-02 -2.248023e-02 6.156809e-03 1.685118e-02 -3.863278e-02
<VARIANCE> 39
 7.579647e+01 8.812177e+01 5.578774e+01 1.398188e+02 1.128635e+02 8.446799e+01 1.127492e+02 1.037621e+02 6.202129e+01 7.100757e+01 6.548788e+01 4.029118e+01 1.165153e+02 3.379658e+00 3.288156e+00 2.963590e+00 4.738436e+00 4.923190e+00 4.882874e+00 3.762831e+00 4.702196e+00 4.060515e+00 3.943223e+00 3.892677e+00 2.835029e+00 2.879930e+00 5.094242e-01 5.325685e-01 4.731772e-01 8.067464e-01 8.096611e-01 8.287537e-01 6.724532e-01 8.463563e-01 7.273037e-01 7.068726e-01 7.030926e-01 5.267046e-01 4.439523e-01
<GCONST> 1.406364e+02
<TRANSP> 5
 0.000000e+00 1.000000e+00 0.000000e+00 0.000000e+00 0.000000e+00
 0.000000e+00 6.039085e-01 3.960915e-01 0.000000e+00 0.000000e+00
 0.000000e+00 0.000000e+00 5.566686e-01 4.433314e-01 0.000000e+00
 0.000000e+00 0.000000e+00 0.000000e+00 5.063235e-01 4.936765e-01
 0.000000e+00 0.000000e+00 0.000000e+00 0.000000e+00 0.000000e+00
<ENDHMM>
~h "v"
<BEGINHMM>
<NUMSTATES> 5
<STATE> 2
<MEAN> 39
 -7.098830e+00 -6.619565e+00 -4.669026e+00 -1.245460e+01 -7.087982e+00 -7.333251e+00 -1.532500e+01 -7.308371e+00 -1.784585e+00 -1.461676e+00 -2.449020e+00 -6.426044e+00 7.286436e+01 -4.130874e-01 6.424767e-02 2.241006e-02 -1.894276e-01 1.873042e-01 -2.483695e-01 1.196261e-01 7.085727e-02 6.787566e-02 2.780331e-02 6.651491e-02 2.958137e-02 2.383236e-01 9.962070e-02 -2.024816e-02 1.112434e-02 2.838733e-02 -7.679287e-02 2.042273e-02 -1.402878e-03 -1.855789e-03 -3.267092e-02 -4.648722e-03 -2.616818e-03 -4.948424e-04 1.593928e-03
<VARIANCE> 39
 1.375541e+02 7.908414e+01 6.187303e+01 5.494021e+01 1.357917e+02 6.746529e+01 1.375072e+02 1.283460e+02 4.992638e+01 7.748957e+01 4.424771e+01 2.659619e+01 4.953227e+01 1.047631e+01 4.875683e+00 4.727044e+00 4.112587e+00 8.451756e+00 4.188509e+00 6.281492e+00 7.263547e+00 3.402511e+00 3.752737e+00 4.037340e+00 2.685162e+00 3.964989e+00 1.644141e+00 8.998964e-01 8.595100e-01 7.146938e-01 1.515924e+00 7.784415e-01 1.190080e+00 1.282209e+00 5.927569e-01 7.225485e-01 7.957742e-01 4.957527e-01 7.875384e-01
<GCONST> 1.463096e+02
<STATE> 3
<MEAN> 39
 -8.085418e+00 -7.738119e+00 -1.354637e+00 -9.626019e+00 -1.055157e+01 -9.741659e+00 -1.685765e+01 -6.697582e+00 -3.727326e+00 -4.410697e+00 -2.723186e+00 -5.801278e+00 7.380863e+01 1.787101e-01 1.483043e-02 1.317780e-02 -2.435615e-02 -8.156784e-02 -2.102714e-02 3.906823e-02 -1.070488e-01 -8.177970e-02 4.905810e-02 2.314886e-02 4.626417e-02 5.309228e-03 6.993158e-02 -1.943731e-02 1.854332e-02 1.554134e-02 -2.777449e-02 3.616925e-02 1.517823e-02 -2.796579e-02 4.375241e-03 -1.796867e-02 -4.214803e-02 -2.900424e-02 -8.479488e-03
<VARIANCE> 39
 1.492968e+02 8.249739e+01 6.397548e+01 4.094704e+01 1.489653e+02 9.866424e+01 1.015142e+02 1.373031e+02 5.709779e+01 4.671859e+01 5.695450e+01 4.329473e+01 3.648576e+01 1.011190e+01 5.925090e+00 3.211016e+00 3.266941e+00 1.072651e+01 4.473771e+00 8.256784e+00 1.025067e+01 4.291373e+00 3.379457e+00 5.905979e+00 3.529057e+00 3.788897e+00 1.466367e+00 1.033329e+00 4.953682e-01 5.758735e-01 1.917014e+00 9.088266e-01 1.675164e+00 1.746038e+00 7.934629e-01 5.980762e-01 1.292264e+00 6.528542e-01 7.550414e-01
<GCONST> 1.487900e+02
<STATE> 4
<MEAN> 39
 -5.503360e+00 -1.482144e+00 -7.592421e-01 -1.188186e+01 -2.185462e+00 -1.120386e+01 -7.028849e+00 -7.005126e+00 -2.317886e+00 -6.514728e-01 -1.941976e+00 -3.398349e+00 6.916526e+01 1.416401e+00 -2.996714e-01 3.419264e-01 -7.775455e-02 -7.810509e-01 5.994253e-01 -1.628712e-01 -8.246082e-01 -2.525830e-01 -2.188452e-01 -2.996899e-01 -4.468389e-01 -4.702104e-02 -1.005244e-01 -2.687939e-02 -2.699359e-02 2.318015e-02 -6.057958e-03 9.029637e-02 -1.370054e-01 1.254500e-01 2.918682e-02 -1.065639e-01 -6.258725e-02 -3.443879e-02 -2.689456e-03
<VARIANCE> 39
 6.997591e+01 1.206896e+02 1.896052e+02 3.654850e+01 3.918214e+01 1.097945e+02 7.549857e+01 3.221133e+02 3.137038e+01 2.786957e+01 5.988142e+01 4.157381e+01 5.411378e+01 7.777487e+00 3.003567e+00 2.133039e+00 3.275791e+00 2.569913e+00 4.063991e+00 4.192065e+00 4.526037e+00 2.411308e+00 2.355582e+00 3.960917e+00 3.310975e+00 2.970303e+00 1.173625e+00 3.859503e-01 3.241448e-01 5.856858e-01 4.793424e-01 7.148831e-01 8.697631e-01 8.000017e-01 4.623413e-01 4.499012e-01 7.321541e-01 4.419747e-01 4.308990e-01
<GCONST> 1.349684e+02
<TRANSP> 5
 0.000000e+00 1.000000e+00 0.000000e+00 0.000000e+00 0.000000e+00
 0.000000e+00 9.612713e-01 3.872875e-02 0.000000e+00 0.000000e+00
 0.000000e+00 0.000000e+00 9.546791e-01 4.532088e-02 0.000000e+00
 0.000000e+00 0.000000e+00 0.000000e+00 8.073028e-01 1.926972e-01
 0.000000e+00 0.000000e+00 0.000000e+00 0.000000e+00 0.000000e+00
<ENDHMM>
~h "w"
<BEGINHMM>
<NUMSTATES> 5
<STATE> 2
<MEAN> 39
 1.261368e+00 -1.305981e+01 -5.879624e+00 -1.391730e+01 -1.468292e+01 2.365312e+00 -1.805071e+01 -9.193068e+00 -3.944631e+00 -8.529467e+00 -4.912013e+00 -8.322405e+00 7.115797e+01 6.388120e-02 -1.644164e-01 1.936789e-02 3.116157e-02 -7.168454e-02 5.569471e-02 -7.726094e-02 -1.857882e-02 3.128965e-02 -5.388239e-02 -1.464039e-02 -3.130858e-02 6.938597e-02 -4.538783e-02 1.624886e-02 2.560453e-02 5.743351e-02 1.513970e-02 -5.910573e-02 1.519065e-02 6.838943e-03 3.998842e-03 1.739854e-02 -5.249720e-03 2.071449e-02 -2.094107e-02
<VARIANCE> 39
 3.761019e+01 6.317906e+01 4.278019e+01 8.973089e+01 8.118898e+01 7.751970e+01 1.048944e+02 7.543417e+01 6.101469e+01 4.555801e+01 5.605540e+01 3.554642e+01 6.733720e+01 2.501217e+00 4.244240e+00 2.429776e+00 4.997952e+00 4.632598e+00 4.061392e+00 3.646742e+00 6.057881e+00 4.447779e+00 3.596566e+00 3.434426e+00 3.245779e+00 3.453594e+00 4.395448e-01 6.732827e-01 4.100427e-01 8.072473e-01 7.983823e-01 7.325588e-01 7.294647e-01 1.126172e+00 7.871357e-01 6.916875e-01 6.197817e-01 6.706535e-01 5.525066e-01
<GCONST> 1.373405e+02
<STATE> 3
<MEAN> 39
 1.691818e+00 -1.351594e+01 -4.976858e+00 -1.247884e+01 -1.559254e+01 2.316489e+00 -1.777201e+01 -9.388151e+00 -4.055793e+00 -8.804797e+00 -4.365983e+00 -7.991166e+00 7.079826e+01 -1.712357e-02 -1.326378e-01 4.524389e-02 1.466846e-01 -6.966933e-03 -3.948358e-02 -4.872047e-02 9.201294e-02 6.069103e-02 -2.324432e-03 -5.144962e-02 2.184896e-03 1.571745e-03 -3.045675e-02 5.470243e-02 4.621631e-03 3.316641e-02 1.011244e-02 -4.346132e-02 3.919392e-02 6.597035e-03 1.155157e-02 2.232895e-02 -1.623840e-02 9.716695e-03 -4.366453e-02
<VARIANCE> 39
 3.106162e+01 6.274398e+01 4.275643e+01 8.586813e+01 7.834998e+01 8.049394e+01 1.216819e+02 8.142803e+01 5.826624e+01 5.116594e+01 6.110533e+01 3.814325e+01 7.013161e+01 1.929426e+00 4.004247e+00 2.343899e+00 4.650546e+00 4.507248e+00 3.493926e+00 3.570839e+00 5.877404e+00 4.094830e+00 3.809347e+00 3.364252e+00 3.387686e+00 2.991771e+00 3.442501e-01 6.521093e-01 3.942504e-01 7.397138e-01 8.014153e-01 5.935122e-01 6.748691e-01 1.022099e+00 7.142149e-01 7.374587e-01 6.020244e-01 6.834851e-01 4.656731e-01
<GCONST> 1.357919e+02
<STATE> 4
<MEAN> 39
 -2.124786e+00 -1.241616e+01 -6.309643e+00 -1.066312e+01 -1.119889e+01 -2.454795e+00 -1.016160e+01 -5.089321e+00 -5.126251e+00 -9.545583e+00 -7.190783e+00 -5.178857e+00 6.208900e+01 -1.164343e-01 9.559550e-02 -4.103895e-03 1.159720e-01 3.996697e-02 -1.200260e-01 8.099340e-02 2.135991e-02 1.055275e-02 2.219522e-02 -3.904957e-02 1.653278e-02 -1.626105e-01 -2.031003e-02 3.708901e-02 1.405613e-03 1.521182e-02 1.314570e-02 -1.526761e-02 2.361953e-02 -1.264445e-02 1.556986e-03 1.397217e-02 -3.460226e-03 4.818575e-03 -1.800973e-02
<VARIANCE> 39
 5.652921e+01 8.358766e+01 3.115065e+01 7.030308e+01 7.088254e+01 6.329270e+01 9.337428e+01 4.234608e+01 4.023528e+01 4.527268e+01 4.328293e+01 3.368481e+01 1.105821e+02 1.325966e+00 3.200021e+00 1.526620e+00 3.249478e+00 2.960066e+00 2.423872e+00 2.605524e+00 2.892350e+00 2.628193e+00 2.479873e+00 2.320159e+00 2.254539e+00 1.925013e+00 1.971331e-01 4.474519e-01 2.523326e-01 5.220769e-01 4.775923e-01 4.136172e-01 4.894517e-01 5.317888e-01 4.908240e-01 4.768996e-01 4.170148e-01 4.264626e-01 2.419390e-01
<GCONST> 1.232191e+02
<TRANSP> 5
 0.000000e+00 1.000000e+00 0.000000e+00 0.000000e+00 0.000000e+00
 0.000000e+00 9.115041e-01 8.849590e-02 0.000000e+00 0.000000e+00
 0.000000e+00 0.000000e+00 8.709701e-01 1.290299e-01 0.000000e+00
 0.000000e+00 0.000000e+00 0.000000e+00 9.162173e-01 8.378276e-02
 0.000000e+00 0.000000e+00 0.000000e+00 0.000000e+00 0.000000e+00
<ENDHMM>
~h "y"
<BEGINHMM>
<NUMSTATES> 5
<STATE> 2
<MEAN> 39
 -1.100079e+00 -4.958637e+00 -9.794466e-01 -5.021888e+00 -8.388246e+00 -8.297760e+00 -4.403365e+00 -4.229424e+00 -5.625633e+00 -5.277835e+00 -3.591026e+00 -3.572491e+00 6.766377e+01 2.860593e-01 -1.416480e-02 1.592567e-01 -1.265873e-01 -1.975109e-02 -5.687244e-02 1.836544e-01 2.738592e-02 -1.233828e-01 -1.602964e-01 -2.990916e-01 -1.643118e-01 2.612721e-01 1.775293e-02 -4.359346e-02 -2.965911e-02 -5.622180e-02 4.946313e-02 1.036678e-01 1.861122e-02 1.161404e-02 2.073514e-02 -4.599079e-02 -3.814330e-02 -2.805860e-02 2.919467e-02
<VARIANCE> 39
 6.777812e+01 7.794267e+01 7.876768e+01 1.536732e+02 1.024110e+02 1.011501e+02 1.002188e+02 5.760121e+01 8.021275e+01 4.276820e+01 7.625668e+01 3.491443e+01 1.787515e+02 2.341006e+00 3.048126e+00 4.250778e+00 3.407010e+00 3.984647e+00 4.271394e+00 3.876719e+00 3.579015e+00 3.661929e+00 2.680201e+00 3.756385e+00 2.298099e+00 2.583759e+00 3.471909e-01 4.456593e-01 5.805582e-01 5.946592e-01 7.081267e-01 6.846071e-01 6.065395e-01 5.806019e-01 6.388859e-01 4.536518e-01 6.352921e-01 4.219051e-01 3.374088e-01
<GCONST> 1.359230e+02
<STATE> 3
<MEAN> 39
 -4.237514e-01 -4.847192e+00 9.421539e-02 -6.262223e+00 -8.588730e+00 -8.182560e+00 -3.600596e+00 -4.374187e+00 -4.949178e+00 -5.932932e+00 -4.304450e+00 -3.809192e+00 6.825101e+01 3.689932e-01 -2.926548e-01 -1.041463e-01 -2.297624e-01 7.909562e-02 1.255771e-01 2.324886e-01 9.195260e-02 8.668796e-03 -2.101485e-01 -3.150844e-01 -1.750867e-01 4.108429e-01 -1.712702e-02 -5.881602e-02 -1.397332e-01 4.648903e-02 8.524022e-02 8.745013e-02 -4.213843e-02 1.234294e-02 9.521883e-03 -7.253458e-03 3.977073e-02 4.687661e-03 -4.821425e-02
<VARIANCE> 39
 6.052967e+01 8.588504e+01 8.653558e+01 1.522547e+02 1.031874e+02 9.605943e+01 1.111119e+02 5.945549e+01 8.134785e+01 4.437949e+01 8.128239e+01 3.509675e+01 1.584959e+02 2.525451e+00 3.552930e+00 5.185006e+00 4.233735e+00 5.199092e+00 4.625262e+00 4.048758e+00 3.666305e+00 4.130554e+00 2.855081e+00 4.304515e+00 2.440038e+00 3.336663e+00 3.155457e-01 5.572776e-01 6.631868e-01 6.867263e-01 7.888234e-01 6.961129e-01 6.872397e-01 6.437470e-01 6.895042e-01 4.844780e-01 6.789901e-01 4.434102e-01 3.289982e-01
<GCONST> 1.387666e+02
<STATE> 4
<MEAN> 39
 3.894982e-01 -4.363779e+00 -1.314558e+00 -6.650437e+00 -6.553545e+00 -7.784183e+00 -1.776989e+00 -4.091477e+00 -4.451703e+00 -5.898427e+00 -6.337476e+00 -4.161109e+00 6.763644e+01 2.048284e-01 -2.256525e-01 -4.359184e-01 6.010637e-02 2.718136e-01 2.606383e-01 -6.149375e-03 1.150867e-01 -8.542481e-02 -1.318740e-01 -1.260217e-01 -1.252631e-01 4.745748e-02 -3.261056e-02 5.313856e-02 -5.191328e-02 7.447290e-02 3.663941e-02 1.810609e-02 -8.558944e-02 -1.422939e-02 6.821542e-03 2.331775e-02 7.202809e-02 2.247367e-02 -9.338485e-02
<VARIANCE> 39
 6.255655e+01 8.993906e+01 8.082498e+01 1.465072e+02 1.137517e+02 8.813163e+01 1.094276e+02 5.542471e+01 8.664932e+01 5.526228e+01 9.334830e+01 3.531382e+01 1.493307e+02 2.289019e+00 3.226649e+00 3.932305e+00 4.022651e+00 4.766580e+00 3.863342e+00 3.487298e+00 3.182636e+00 3.437666e+00 3.157849e+00 3.808808e+00 2.261055e+00 2.587436e+00 2.804720e-01 4.719324e-01 5.418691e-01 6.404877e-01 7.899543e-01 6.131064e-01 6.063916e-01 5.515423e-01 5.718470e-01 5.154940e-01 6.185484e-01 3.997250e-01 2.675197e-01
<GCONST> 1.359267e+02
<TRANSP> 5
 0.000000e+00 1.000000e+00 0.000000e+00 0.000000e+00 0.000000e+00
 0.000000e+00 4.466711e-01 5.533290e-01 0.000000e+00 0.000000e+00
 0.000000e+00 0.000000e+00 4.628761e-01 5.371239e-01 0.000000e+00
 0.000000e+00 0.000000e+00 0.000000e+00 6.019768e-01 3.980232e-01
 0.000000e+00 0.000000e+00 0.000000e+00 0.000000e+00 0.000000e+00
<ENDHMM>
~h "z"
<BEGINHMM>
<NUMSTATES> 5
<STATE> 2
<MEAN> 39
 -3.779268e+00 -6.619425e+00 1.187490e+00 4.113255e-01 -9.453853e+00 -5.908382e-01 -4.348155e+00 -6.195124e+00 -1.553357e+00 -6.856901e+00 -5.318260e+00 -3.579439e+00 8.537983e+01 1.242876e-03 2.445412e-02 -9.247907e-02 2.638573e-02 -3.086839e-03 5.582954e-02 2.978823e-03 2.953344e-03 4.285564e-02 1.139726e-01 1.488112e-01 1.089495e-01 -8.670031e-02 4.629987e-03 1.514410e-03 1.323950e-02 -1.316853e-02 -7.115919e-03 1.663744e-02 1.707214e-02 -1.602671e-02 -2.964631e-03 -4.397449e-04 -1.549231e-02 -9.529386e-04 4.693576e-03
<VARIANCE> 39
 2.388864e+01 1.613444e+01 4.232981e+01 4.650272e+01 2.388521e+01 7.218729e+01 2.303742e+01 2.283788e+01 3.803305e+01 3.646313e+01 3.300878e+01 1.614522e+01 1.863788e+02 7.801822e-01 1.022964e+00 1.567894e+00 1.705246e+00 2.028438e+00 3.709932e+00 1.830364e+00 1.612076e+00 2.436004e+00 1.894393e+00 1.907018e+00 1.230091e+00 1.844664e+00 1.318755e-01 1.866224e-01 2.159358e-01 2.729651e-01 3.966710e-01 6.215358e-01 3.596421e-01 3.250611e-01 4.487244e-01 3.377755e-01 3.448050e-01 2.284608e-01 2.269600e-01
<GCONST> 1.085348e+02
<STATE> 3
<MEAN> 39
 -9.898615e-01 -6.752960e+00 -1.453905e+00 -1.992134e+00 -9.640676e+00 8.934755e-01 -3.078055e+00 -7.085327e+00 -1.367914e+00 -3.067117e+00 -2.769503e+00 -3.467689e+00 8.937824e+01 -1.496664e-02 4.297804e-03 -1.007245e-02 1.738673e-02 -6.035464e-03 8.228421e-05 7.358636e-03 1.802034e-02 1.849877e-02 1.334730e-02 5.872951e-03 8.966077e-03 -3.513665e-02 -4.142225e-04 -8.932446e-04 3.583404e-03 -2.430141e-03 7.021934e-05 2.545168e-03 1.149958e-03 -1.430328e-03 6.366402e-04 -2.806103e-03 -1.357952e-03 -1.415747e-03 1.910100e-03
<VARIANCE> 39
 1.867116e+01 2.026558e+01 4.103306e+01 3.392558e+01 3.251725e+01 4.607970e+01 1.889609e+01 2.804499e+01 2.744444e+01 2.519762e+01 2.299077e+01 1.407483e+01 9.245303e+01 7.850349e-01 1.306020e+00 1.762347e+00 1.352699e+00 2.613373e+00 2.900272e+00 1.593206e+00 2.103754e+00 2.628700e+00 1.825666e+00 1.769359e+00 1.428573e+00 1.834273e+00 1.318068e-01 2.195797e-01 2.435260e-01 2.107396e-01 5.207139e-01 4.675493e-01 3.004557e-01 4.127196e-01 5.148456e-01 3.420750e-01 3.247956e-01 3.036709e-01 2.580594e-01
<GCONST> 1.070928e+02
<STATE> 4
<MEAN> 39
 -2.768805e+00 -4.861809e+00 2.417231e-01 1.067026e+00 -9.077957e+00 -8.161433e-01 -3.163364e+00 -3.663200e+00 -3.963171e-01 -5.968874e+00 -3.878344e+00 -3.203293e+00 8.146942e+01 -9.652051e-02 -5.547419e-03 -4.980497e-03 -6.156228e-05 1.955560e-02 7.388934e-02 6.801842e-02 3.679971e-02 5.458777e-02 -4.761834e-02 -1.800392e-02 1.994952e-02 -1.118063e-01 -6.756564e-04 -4.234534e-03 1.416451e-02 -2.236947e-02 8.051679e-03 -1.715097e-02 -4.839073e-03 -8.612739e-03 -1.039455e-02 -1.311969e-02 -8.627652e-04 -6.686748e-03 2.383307e-02
<VARIANCE> 39
 3.196795e+01 1.339662e+01 5.143761e+01 3.022804e+01 3.633735e+01 4.700742e+01 1.508634e+01 2.860721e+01 2.361326e+01 3.642295e+01 1.917081e+01 1.390405e+01 2.135903e+02 5.697620e-01 9.952045e-01 1.605020e+00 1.356742e+00 2.632132e+00 1.661305e+00 1.055415e+00 2.043255e+00 2.138734e+00 1.955169e+00 1.793895e+00 1.860990e+00 9.497188e-01 8.570775e-02 1.608665e-01 2.262191e-01 2.343154e-01 4.708400e-01 2.423773e-01 2.057716e-01 4.146438e-01 4.050114e-01 3.183050e-01 3.731895e-01 4.284676e-01 1.352877e-01
<GCONST> 1.036074e+02
<TRANSP> 5
 0.000000e+00 1.000000e+00 0.000000e+00 0.000000e+00 0.000000e+00
 0.000000e+00 9.777530e-01 2.224704e-02 0.000000e+00 0.000000e+00
 0.000000e+00 0.000000e+00 9.906542e-01 9.345862e-03 0.000000e+00
 0.000000e+00 0.000000e+00 0.000000e+00 9.696270e-01 3.037295e-02
 0.000000e+00 0.000000e+00 0.000000e+00 0.000000e+00 0.000000e+00
<ENDHMM>
~h "aw"
<BEGINHMM>
<NUMSTATES> 5
<STATE> 2
<MEAN> 39
 -1.220823e+00 -6.643099e+00 -8.125678e+00 -8.554139e-01 -5.407758e+00 -2.751136e+00 -6.025121e-01 2.196453e+00 -4.718579e+00 -3.253894e+00 -2.588716e+00 -5.268468e-01 6.930315e+01 -6.226480e-02 -9.120148e-02 -1.011208e-01 -1.615171e-01 8.162564e-02 2.917550e-01 9.746981e-02 1.588968e-01 1.875421e-01 1.644523e-01 8.442599e-02 4.044375e-02 5.163925e-02 7.375801e-03 6.372748e-02 5.965912e-02 3.780252e-02 -2.799924e-02 -4.292259e-02 -7.835387e-02 -7.385421e-02 -3.573823e-02 -3.723379e-02 -3.594474e-02 -5.097162e-02 -4.026350e-02
<VARIANCE> 39
 5.699160e+01 6.776405e+01 3.855225e+01 1.150219e+02 4.942815e+01 5.722425e+01 5.084122e+01 6.810843e+01 5.799352e+01 4.919045e+01 4.385497e+01 3.387529e+01 1.795396e+02 2.202493e+00 3.060422e+00 1.645026e+00 2.085147e+00 2.480637e+00 3.446085e+00 2.006694e+00 1.945412e+00 2.849088e+00 2.143614e+00 2.413338e+00 1.843907e+00 3.697543e+00 3.689873e-01 4.976245e-01 2.954904e-01 3.223393e-01 4.268106e-01 6.218997e-01 3.313036e-01 3.616145e-01 5.432501e-01 3.996729e-01 4.306867e-01 3.318632e-01 5.409545e-01
<GCONST> 1.245575e+02
<STATE> 3
<MEAN> 39
 -1.318761e+00 -6.605454e+00 -7.923398e+00 -1.032778e+00 -5.048130e+00 -2.185943e+00 -7.074449e-01 2.136702e+00 -4.575090e+00 -2.833048e+00 -2.370432e+00 -5.247302e-01 6.934344e+01 1.588294e-02 1.156610e-01 -1.234735e-02 -7.002506e-02 1.634634e-02 1.418743e-01 -9.864525e-02 -2.455731e-02 4.322394e-02 4.706753e-02 9.253718e-03 -8.755658e-02 -7.271041e-02 2.133231e-03 6.108541e-02 4.465568e-02 3.475210e-02 -2.138377e-02 -4.464945e-02 -5.955783e-02 -5.644472e-02 -3.787095e-02 -1.562974e-02 9.598115e-04 -2.294304e-02 -5.621548e-02
<VARIANCE> 39
 5.583414e+01 6.756123e+01 4.159134e+01 1.320956e+02 5.001661e+01 5.695399e+01 5.430935e+01 7.111592e+01 6.249323e+01 4.838723e+01 4.627779e+01 3.715971e+01 1.768606e+02 2.368809e+00 3.068986e+00 1.770057e+00 2.153937e+00 2.447171e+00 3.523481e+00 2.021701e+00 2.024582e+00 2.951041e+00 2.170260e+00 2.383721e+00 1.822978e+00 2.871612e+00 3.577145e-01 5.093843e-01 2.974673e-01 3.312971e-01 4.215725e-01 6.331059e-01 3.439915e-01 3.721116e-01 5.913662e-01 4.195901e-01 4.217057e-01 3.168002e-01 4.843476e-01
<GCONST> 1.251159e+02
<STATE> 4
<MEAN> 39
 -7.370189e-01 -4.187601e+00 -7.384511e+00 7.230143e+00 -2.256720e+00 -1.126782e+00 1.814110e+00 6.031296e+00 -6.283443e+00 7.533088e-01 8.487620e-01 2.624189e+00 6.815190e+01 4.057209e-03 2.364689e-02 1.435537e-02 7.756767e-03 -1.734025e-02 1.061473e-03 -1.499546e-02 -3.631381e-02 -2.483140e-02 6.182922e-03 -6.972903e-03 -2.123142e-02 -2.374429e-02 5.738274e-03 -5.264947e-03 7.004342e-03 -1.749855e-03 -1.099473e-02 -1.508107e-02 -7.795872e-03 -1.113972e-02 -1.024705e-02 -4.357606e-03 -5.555332e-03 -1.983764e-03 1.022666e-02
<VARIANCE> 39
 5.261421e+01 3.651759e+01 3.449554e+01 8.245870e+01 4.728178e+01 5.407969e+01 3.752474e+01 5.817493e+01 6.010915e+01 3.528049e+01 4.278482e+01 3.177536e+01 8.430352e+01 1.679013e+00 1.796452e+00 1.621324e+00 1.847648e+00 1.947286e+00 2.323328e+00 1.821033e+00 1.849964e+00 2.518111e+00 1.763637e+00 1.895366e+00 1.465309e+00 1.368533e+00 2.457305e-01 3.159409e-01 2.641952e-01 2.910151e-01 3.196617e-01 4.032529e-01 3.276544e-01 3.311709e-01 4.501913e-01 3.308839e-01 3.333269e-01 2.590150e-01 2.075558e-01
<GCONST> 1.144695e+02
<TRANSP> 5
 0.000000e+00 1.000000e+00 0.000000e+00 0.000000e+00 0.000000e+00
 0.000000e+00 6.745589e-01 3.254411e-01 0.000000e+00 0.000000e+00
 0.000000e+00 0.000000e+00 6.636321e-01 3.363679e-01 0.000000e+00
 0.000000e+00 0.000000e+00 0.000000e+00 9.703206e-01 2.967938e-02
 0.000000e+00 0.000000e+00 0.000000e+00 0.000000e+00 0.000000e+00
<ENDHMM>
~h "ay"
<BEGINHMM>
<NUMSTATES> 5
<STATE> 2
<MEAN> 39
 1.282637e-01 -1.182770e+01 -1.069669e+00 -5.656651e+00 -1.117288e+01 -6.468393e+00 -7.497893e+00 -3.120425e+00 -2.984446e+00 -7.520195e+00 -5.690389e+00 -4.443416e+00 7.719324e+01 4.527614e-02 -1.470512e-01 5.732207e-01 1.837526e-01 -4.673779e-01 2.856942e-01 -2.419996e-01 -1.800872e-01 -5.450612e-02 -1.639162e-01 -9.145835e-02 3.335013e-02 -2.235387e-01 -1.743530e-01 2.782155e-01 -1.067922e-02 2.777523e-02 7.639746e-02 -3.150920e-02 2.211428e-02 -1.148906e-01 -8.028910e-02 1.034347e-01 1.336244e-02 5.557166e-02 -1.755826e-01
<VARIANCE> 39
