~o
<STREAMINFO> 1 39
<VECSIZE> 39<NULLD><MFCC_D_A_0><DIAGC>
~h "@"
<BEGINHMM>
<NUMSTATES> 5
<STATE> 2
<MEAN> 39
 -1.311805e+00 -4.217501e+00 -3.358059e+00 -4.499597e+00 -6.221629e+00 -5.854559e+00 -8.572894e+00 -3.931365e+00 -4.318467e+00 -4.683821e+00 -3.978394e+00 -3.944213e+00 6.815814e+01 5.061172e-01 -2.331932e-01 -9.070766e-02 -1.983623e-01 -1.174976e-01 -1.913772e-01 -1.930667e-01 -1.210573e-02 -3.492264e-02 -1.103770e-02 6.106901e-04 -5.038479e-02 6.185100e-01 -8.265045e-03 -3.268697e-02 -1.580589e-02 -5.575617e-03 -3.392322e-02 4.280006e-03 3.068225e-02 2.254198e-03 -9.148786e-03 -2.559134e-02 4.648450e-03 -5.012413e-03 3.588814e-02
<VARIANCE> 39
 9.069667e+01 8.548453e+01 6.275338e+01 1.106017e+02 1.290957e+02 9.475906e+01 1.160497e+02 9.100372e+01 7.288802e+01 6.627303e+01 5.479636e+01 4.225312e+01 1.500351e+02 5.936717e+00 5.013134e+00 4.307567e+00 4.603893e+00 5.948681e+00 5.432382e+00 4.590530e+00 5.519908e+00 5.151636e+00 4.082098e+00 4.406356e+00 3.091998e+00 5.117678e+00 9.544984e-01 9.157982e-01 7.069968e-01 8.475036e-01 1.076696e+00 9.610627e-01 8.479618e-01 9.912007e-01 9.219172e-01 7.507787e-01 8.211134e-01 5.920432e-01 8.517334e-01
<GCONST> 1.477388e+02
<STATE> 3
<MEAN> 39
 -2.803621e-01 -4.764274e+00 -3.663401e+00 -4.985323e+00 -6.491944e+00 -6.369348e+00 -8.836048e+00 -4.020006e+00 -4.394109e+00 -4.788209e+00 -3.907719e+00 -4.020577e+00 6.971548e+01 4.860942e-01 -2.148639e-01 -1.493184e-01 -1.132288e-01 -1.789984e-01 -1.225927e-01 -7.184349e-02 -2.779437e-02 -5.653753e-02 -6.808518e-02 -1.507645e-02 -4.366039e-02 5.153083e-01 -9.307557e-02 3.888898e-02 1.795564e-02 5.516779e-02 7.022398e-03 7.079566e-02 7.874725e-02 1.154237e-02 -3.140541e-05 -2.138992e-02 -1.558559e-02 1.433567e-03 -1.207445e-01
<VARIANCE> 39
 8.679058e+01 8.279725e+01 6.402535e+01 1.106736e+02 1.320899e+02 9.780183e+01 1.194515e+02 9.137723e+01 7.746314e+01 6.875919e+01 5.536838e+01 4.212670e+01 1.350725e+02 5.594139e+00 5.151237e+00 4.252747e+00 4.376849e+00 5.909007e+00 5.490085e+00 4.761172e+00 5.570954e+00 5.103549e+00 4.026710e+00 4.384204e+00 3.027857e+00 4.835687e+00 8.962535e-01 8.976793e-01 6.906834e-01 8.031011e-01 1.083139e+00 9.416347e-01 8.613683e-01 1.011343e+00 9.062615e-01 7.551463e-01 8.175119e-01 5.767701e-01 7.738034e-01
<GCONST> 1.473428e+02
<STATE> 4
<MEAN> 39
 7.671356e-01 -4.630983e+00 -4.333652e+00 -4.325038e+00 -6.188664e+00 -6.411354e+00 -7.802737e+00 -3.561584e+00 -4.675857e+00 -4.675048e+00 -3.987347e+00 -3.885262e+00 7.014427e+01 2.040209e-01 -7.293819e-02 -4.019861e-02 2.646044e-02 -1.399143e-01 1.045311e-01 6.358767e-02 1.768315e-04 -5.417731e-02 -7.325397e-02 -6.665689e-02 -2.580542e-02 9.773627e-02 -1.176352e-01 2.746899e-02 3.892641e-02 1.431440e-02 2.390853e-02 6.079934e-02 3.485319e-02 1.000318e-02 -1.557980e-03 -1.053120e-02 -1.119414e-02 -3.173655e-03 -9.274647e-02
<VARIANCE> 39
 7.839954e+01 7.938805e+01 6.017227e+01 1.064368e+02 1.195052e+02 8.926415e+01 1.073861e+02 8.907553e+01 7.774019e+01 6.432604e+01 5.244915e+01 4.045898e+01 1.388975e+02 3.833742e+00 4.226492e+00 3.384103e+00 3.555358e+00 4.665723e+00 4.425260e+00 3.943063e+00 4.546320e+00 4.232124e+00 3.330485e+00 3.589813e+00 2.533711e+00 3.382777e+00 6.095663e-01 7.018233e-01 5.438676e-01 6.432202e-01 7.987740e-01 7.543108e-01 7.150764e-01 8.212435e-01 7.627344e-01 6.234940e-01 6.547713e-01 4.783460e-01 5.822793e-01
<GCONST> 1.406059e+02
<TRANSP> 5
 0.000000e+00 1.000000e+00 0.000000e+00 0.000000e+00 0.000000e+00
 0.000000e+00 4.059550e-01 5.940449e-01 0.000000e+00 0.000000e+00
 0.000000e+00 0.000000e+00 4.033905e-01 5.966094e-01 0.000000e+00
 0.000000e+00 0.000000e+00 0.000000e+00 3.981717e-01 6.018283e-01
 0.000000e+00 0.000000e+00 0.000000e+00 0.000000e+00 0.000000e+00
<ENDHMM>
~h "a"
<BEGINHMM>
<NUMSTATES> 5
<STATE> 2
<MEAN> 39
 1.010270e+00 -9.872190e+00 -5.830176e+00 -6.448487e+00 -6.810654e+00 -5.029342e+00 -6.490342e+00 -3.010176e+00 -3.966673e+00 -6.129720e+00 -6.004638e+00 -4.609008e+00 7.118861e+01 8.840184e-02 -8.414984e-02 -4.345051e-02 1.154928e-01 5.686112e-02 8.681437e-02 2.680943e-02 5.754260e-02 -3.663017e-02 -5.371647e-02 -1.123760e-01 -4.191990e-03 -7.850509e-02 -1.130054e-01 1.944710e-01 8.293080e-02 7.900316e-02 1.087258e-02 -5.262329e-03 -2.712556e-03 -6.722963e-02 -5.368621e-03 3.212761e-02 3.755669e-02 2.744984e-02 -1.833947e-01
<VARIANCE> 39
 5.965205e+01 1.044293e+02 5.513409e+01 8.860774e+01 1.022665e+02 7.749720e+01 1.243592e+02 7.364513e+01 7.617561e+01 7.403757e+01 5.930988e+01 4.608028e+01 1.578714e+02 2.087320e+00 3.941324e+00 2.485881e+00 2.844380e+00 3.764768e+00 3.289607e+00 3.270890e+00 3.793672e+00 3.313707e+00 2.812375e+00 3.090270e+00 2.383223e+00 2.896497e+00 3.401633e-01 6.549245e-01 4.026263e-01 4.872102e-01 6.285344e-01 5.819210e-01 5.823203e-01 6.839849e-01 5.962145e-01 5.319057e-01 5.457614e-01 4.528425e-01 4.078185e-01
<GCONST> 1.345117e+02
<STATE> 3
<MEAN> 39
 9.961072e-01 -9.608074e+00 -5.782048e+00 -6.102546e+00 -6.719066e+00 -4.935531e+00 -6.439411e+00 -3.009029e+00 -4.028059e+00 -6.152490e+00 -6.123172e+00 -4.576761e+00 7.073747e+01 -7.919871e-02 3.033901e-01 9.682500e-02 2.374110e-01 2.838995e-02 5.026205e-02 3.831322e-02 -6.818564e-02 -2.787863e-02 1.199448e-02 -4.568927e-02 2.303092e-02 -3.874916e-01 -9.179913e-02 1.653948e-01 7.538187e-02 4.687541e-02 -5.687358e-03 -1.492666e-02 4.143991e-03 -6.898299e-02 -2.938543e-03 2.449304e-02 4.098464e-02 1.538872e-02 -1.233954e-01
<VARIANCE> 39
 5.974381e+01 1.026981e+02 5.303336e+01 8.422951e+01 1.025469e+02 7.394924e+01 1.247376e+02 7.355135e+01 7.529179e+01 7.473651e+01 6.005996e+01 4.580117e+01 1.595422e+02 1.800730e+00 3.636527e+00 2.312524e+00 2.702462e+00 3.565397e+00 3.088200e+00 3.113293e+00 3.719588e+00 3.096273e+00 2.647967e+00 2.915319e+00 2.264073e+00 2.552179e+00 2.996207e-01 6.025582e-01 3.715076e-01 4.679310e-01 5.939737e-01 5.425910e-01 5.590010e-01 6.588060e-01 5.640969e-01 5.066338e-01 5.261924e-01 4.323361e-01 3.735814e-01
<GCONST> 1.326663e+02
<STATE> 4
<MEAN> 39
 -2.961818e-01 -7.909772e+00 -6.229190e+00 -4.956862e+00 -5.982406e+00 -4.875223e+00 -5.201888e+00 -2.470741e+00 -4.101758e+00 -5.706135e+00 -5.600099e+00 -3.953809e+00 6.782724e+01 -2.102736e-01 4.479979e-01 1.932625e-01 2.380663e-01 -2.974734e-02 7.680382e-02 -2.827542e-03 -1.282939e-01 -3.461757e-02 4.994058e-02 3.973023e-02 1.838026e-02 -5.177578e-01 -4.027900e-02 3.314974e-02 4.709559e-02 -1.596207e-02 -4.696859e-03 -1.651271e-02 -1.594089e-02 -3.208689e-02 -2.370905e-03 6.739836e-03 2.967312e-02 3.548513e-03 8.498083e-03
<VARIANCE> 39
 6.873837e+01 9.173799e+01 5.004585e+01 7.655414e+01 9.168945e+01 6.695700e+01 1.023700e+02 7.098018e+01 6.903630e+01 6.810097e+01 5.974162e+01 4.531982e+01 1.961214e+02 1.524773e+00 2.676055e+00 1.962781e+00 2.270431e+00 2.956026e+00 2.688535e+00 2.660118e+00 3.128792e+00 2.665638e+00 2.343526e+00 2.476309e+00 1.979309e+00 1.873376e+00 2.501263e-01 4.488280e-01 3.168045e-01 4.014337e-01 4.974213e-01 4.636367e-01 4.671240e-01 5.395203e-01 4.823644e-01 4.333876e-01 4.515508e-01 3.644151e-01 3.000292e-01
<GCONST> 1.274028e+02
<TRANSP> 5
 0.000000e+00 1.000000e+00 0.000000e+00 0.000000e+00 0.000000e+00
 0.000000e+00 3.805964e-01 6.194036e-01 0.000000e+00 0.000000e+00
 0.000000e+00 0.000000e+00 3.790657e-01 6.209344e-01 0.000000e+00
 0.000000e+00 0.000000e+00 0.000000e+00 5.381173e-01 4.618827e-01
 0.000000e+00 0.000000e+00 0.000000e+00 0.000000e+00 0.000000e+00
<ENDHMM>
~h "b"
<BEGINHMM>
<NUMSTATES> 5
<STATE> 2
<MEAN> 39
 2.465753e+00 -4.132332e+00 -2.704912e+00 -5.692906e+00 -9.502186e+00 -5.274112e+00 -9.529526e+00 -6.108056e+00 -4.419415e+00 -6.678940e+00 -5.847248e+00 -5.699799e+00 6.860766e+01 2.474097e-01 1.381576e-01 1.501961e-02 8.404293e-02 -2.725204e-02 -1.446927e-01 -6.779712e-02 3.791244e-02 1.360037e-01 -6.864594e-02 -1.730106e-01 -1.694891e-01 1.238846e-01 -1.262414e-01 -1.527545e-01 -4.678361e-03 -1.000585e-01 1.291684e-02 -1.856088e-02 2.755231e-02 7.888476e-02 4.071427e-02 2.889066e-02 7.018921e-02 6.533267e-02 1.191615e-01
<VARIANCE> 39
 4.558706e+01 8.463316e+01 5.057757e+01 9.241659e+01 9.131329e+01 7.611002e+01 1.011207e+02 9.183115e+01 5.713238e+01 6.097324e+01 6.886373e+01 4.143338e+01 1.447886e+02 2.620030e+00 4.985950e+00 3.268308e+00 4.320327e+00 4.128124e+00 4.054345e+00 3.554696e+00 4.351228e+00 4.026138e+00 3.498170e+00 4.168987e+00 2.853800e+00 4.241581e+00 4.004613e-01 8.262883e-01 5.404187e-01 7.649320e-01 7.574837e-01 7.040474e-01 6.688152e-01 7.827621e-01 7.118194e-01 6.794350e-01 8.002978e-01 5.385979e-01 6.559620e-01
<GCONST> 1.395402e+02
<STATE> 3
<MEAN> 39
 2.653974e+00 -4.311948e+00 -2.690736e+00 -5.825717e+00 -9.571770e+00 -5.639481e+00 -9.523300e+00 -5.876226e+00 -4.037127e+00 -6.737372e+00 -5.974137e+00 -5.913061e+00 6.924043e+01 -4.194055e-02 -1.712514e-01 2.028980e-02 -8.416022e-02 -2.720985e-02 -1.466808e-01 2.517984e-02 1.734049e-01 1.557086e-01 2.384747e-03 2.345487e-03 8.919462e-03 2.755117e-01 -1.282882e-01 -1.182315e-01 5.678629e-03 -9.583026e-02 -9.612992e-03 2.864973e-02 1.856817e-02 4.271996e-02 -9.159506e-03 3.946837e-02 1.082634e-01 1.023005e-01 6.570104e-02
<VARIANCE> 39
 4.192149e+01 8.583388e+01 5.056271e+01 9.103674e+01 8.760723e+01 7.554161e+01 1.035759e+02 8.738240e+01 5.706760e+01 6.451597e+01 6.951897e+01 4.322001e+01 1.387404e+02 2.373432e+00 5.118963e+00 3.517774e+00 4.635111e+00 4.291351e+00 4.176418e+00 3.628490e+00 4.538216e+00 4.062661e+00 3.645267e+00 4.218730e+00 3.003530e+00 4.447354e+00 3.882119e-01 8.618018e-01 5.671546e-01 8.305384e-01 8.047481e-01 7.430516e-01 6.800238e-01 8.133600e-01 7.347407e-01 7.085974e-01 8.656861e-01 5.706468e-01 6.846338e-01
<GCONST> 1.403718e+02
<STATE> 4
<MEAN> 39
 2.420932e+00 -3.845851e+00 -2.875094e+00 -5.691542e+00 -9.262112e+00 -6.197194e+00 -8.318230e+00 -4.894469e+00 -3.954012e+00 -6.802779e+00 -6.124471e+00 -5.426109e+00 6.922911e+01 -2.152046e-01 -1.953161e-01 2.616101e-02 -2.187120e-01 -2.833419e-02 2.472287e-02 2.541670e-02 1.214618e-01 2.751963e-02 9.777678e-02 2.211419e-01 2.316000e-01 1.905994e-01 -6.147597e-02 -6.939863e-02 -8.635442e-03 -1.087067e-01 -1.463334e-02 3.699576e-02 -3.141420e-02 -1.314097e-02 -1.471795e-02 4.750809e-02 9.907749e-02 8.153230e-02 6.148625e-02
<VARIANCE> 39
 4.106732e+01 8.077151e+01 4.827665e+01 8.906528e+01 8.261896e+01 7.149126e+01 8.827613e+01 7.877281e+01 5.180575e+01 5.961292e+01 6.229823e+01 4.127406e+01 1.494443e+02 1.961108e+00 4.018823e+00 3.186675e+00 4.356213e+00 3.766676e+00 3.759292e+00 3.263055e+00 3.848291e+00 3.504697e+00 3.362163e+00 3.681645e+00 2.652901e+00 3.471121e+00 3.274508e-01 6.899636e-01 4.822945e-01 7.731366e-01 6.882822e-01 6.824014e-01 5.957777e-01 6.890080e-01 6.346233e-01 6.161999e-01 6.952980e-01 5.033894e-01 5.562623e-01
<GCONST> 1.357463e+02
<TRANSP> 5
 0.000000e+00 1.000000e+00 0.000000e+00 0.000000e+00 0.000000e+00
 0.000000e+00 4.337181e-01 5.662820e-01 0.000000e+00 0.000000e+00
 0.000000e+00 0.000000e+00 4.290783e-01 5.709217e-01 0.000000e+00
 0.000000e+00 0.000000e+00 0.000000e+00 4.778500e-01 5.221500e-01
 0.000000e+00 0.000000e+00 0.000000e+00 0.000000e+00 0.000000e+00
<ENDHMM>
~h "c"
<BEGINHMM>
<NUMSTATES> 5
<STATE> 2
<MEAN> 39
 -7.183310e+00 -6.140854e+00 -3.693764e+00 -5.921527e+00 -7.239715e+00 -4.759998e+00 -6.526498e+00 -4.756824e+00 -1.897786e+00 -4.565740e+00 -4.301356e+00 -3.457429e+00 7.531098e+01 5.538240e-02 -4.013602e-01 -2.323838e-01 -3.012618e-01 -6.748470e-02 -2.981310e-02 -4.799680e-02 1.095101e-01 1.526982e-01 2.426213e-02 1.382091e-01 -9.245570e-02 7.737998e-01 2.962609e-01 -6.929722e-02 4.483198e-02 -7.958715e-03 -1.220200e-01 6.662477e-02 -5.939280e-02 -6.472842e-02 -2.212835e-02 -4.785648e-02 -4.540861e-02 -7.367352e-02 -2.494411e-02
<VARIANCE> 39
 9.408182e+01 4.385712e+01 4.174038e+01 5.298018e+01 6.322602e+01 5.564272e+01 7.907854e+01 3.964311e+01 3.428521e+01 3.096560e+01 3.580346e+01 2.491748e+01 3.333127e+02 6.628256e+00 2.523621e+00 2.180737e+00 2.544228e+00 3.547108e+00 2.834585e+00 2.921360e+00 2.795769e+00 2.705752e+00 2.135669e+00 2.453896e+00 2.052619e+00 4.723693e+00 1.115754e+00 3.906740e-01 3.990986e-01 5.155984e-01 6.083630e-01 5.072419e-01 4.938992e-01 5.434834e-01 5.046777e-01 4.055400e-01 4.247856e-01 3.615495e-01 7.071713e-01
<GCONST> 1.286436e+02
<STATE> 3
<MEAN> 39
 -4.886513e+00 -7.258066e+00 -3.857528e+00 -6.078902e+00 -8.030176e+00 -4.493406e+00 -6.517406e+00 -4.922715e+00 -1.589400e+00 -4.684109e+00 -4.599184e+00 -4.099874e+00 7.736084e+01 7.863747e-01 -4.002162e-01 -1.243213e-01 -1.562548e-01 -3.082463e-01 2.293974e-01 -1.376187e-01 -8.166650e-02 2.039136e-02 -6.683946e-02 -1.360406e-01 -2.600988e-01 3.050704e-01 9.231766e-02 2.926957e-02 5.418265e-02 6.842031e-03 -2.823942e-02 5.794461e-02 -2.915073e-02 -4.869010e-02 -6.109407e-02 -2.254929e-02 -3.653876e-02 -1.007630e-02 -1.086809e-01
<VARIANCE> 39
 7.965952e+01 5.012123e+01 3.931488e+01 5.544287e+01 6.094761e+01 5.752701e+01 8.053669e+01 3.995890e+01 3.591120e+01 3.342811e+01 3.895727e+01 2.494707e+01 3.244930e+02 6.298611e+00 2.800846e+00 2.123751e+00 2.376276e+00 3.247962e+00 2.743104e+00 2.473963e+00 2.627963e+00 2.592112e+00 2.102945e+00 2.321096e+00 1.944269e+00 3.099219e+00 1.017526e+00 3.928467e-01 3.642712e-01 4.515270e-01 5.541394e-01 4.784594e-01 4.607004e-01 5.046950e-01 4.765622e-01 3.920071e-01 3.854671e-01 3.267321e-01 4.919223e-01
<GCONST> 1.265619e+02
<STATE> 4
<MEAN> 39
 -2.283869e+00 -6.448924e+00 -3.051659e+00 -2.796524e+00 -8.715843e+00 -3.588562e-01 -3.286701e+00 -5.823163e+00 -1.378898e+00 -4.197456e+00 -4.142606e+00 -4.186931e+00 8.788560e+01 3.830129e-02 2.606653e-03 3.128816e-02 5.148027e-03 -4.762995e-02 6.944164e-02 -4.129387e-04 -2.034150e-02 6.765550e-03 -1.687745e-02 -1.238625e-02 -1.028825e-02 -5.272681e-02 -5.177299e-03 2.080565e-03 9.867106e-03 1.265175e-03 -8.877202e-03 -9.136135e-05 -5.711856e-03 -8.274907e-03 2.364032e-03 -2.185032e-03 3.729443e-03 9.099163e-03 -6.029578e-03
<VARIANCE> 39
 2.691368e+01 2.772648e+01 3.131523e+01 3.158837e+01 3.018803e+01 4.838004e+01 3.130127e+01 2.884726e+01 3.309133e+01 2.366833e+01 2.655803e+01 2.319015e+01 1.438169e+02 1.267263e+00 1.312863e+00 1.195286e+00 1.436038e+00 1.890858e+00 2.296058e+00 1.728432e+00 1.970072e+00 2.029492e+00 1.720042e+00 1.637003e+00 1.566203e+00 2.321080e+00 1.988065e-01 2.007000e-01 1.874136e-01 2.495319e-01 3.461129e-01 3.912362e-01 3.246319e-01 3.685621e-01 3.750344e-01 3.291832e-01 3.040830e-01 2.898406e-01 3.007619e-01
<GCONST> 1.079841e+02
<TRANSP> 5
 0.000000e+00 1.000000e+00 0.000000e+00 0.000000e+00 0.000000e+00
 0.000000e+00 5.852575e-01 4.147425e-01 0.000000e+00 0.000000e+00
 0.000000e+00 0.000000e+00 5.286966e-01 4.713035e-01 0.000000e+00
 0.000000e+00 0.000000e+00 0.000000e+00 9.630892e-01 3.691081e-02
 0.000000e+00 0.000000e+00 0.000000e+00 0.000000e+00 0.000000e+00
<ENDHMM>
~h "d"
<BEGINHMM>
<NUMSTATES> 5
<STATE> 2
<MEAN> 39
 2.965906e-01 -5.393521e+00 -1.101973e+00 -3.306358e+00 -9.307136e+00 -6.533282e+00 -9.418105e+00 -4.436910e+00 -4.143664e+00 -6.749061e+00 -5.426981e+00 -4.646435e+00 6.889383e+01 3.548743e-02 -1.058989e-03 1.392847e-01 -5.078515e-02 -7.448872e-02 -1.585515e-01 -1.212525e-01 1.519411e-01 -2.529265e-02 -3.747573e-02 1.498818e-02 -5.863018e-02 1.942769e-01 -4.773186e-02 -1.383708e-01 -1.467509e-02 -1.473176e-01 -2.466010e-02 2.130472e-02 3.245961e-02 6.149258e-02 4.012829e-03 4.869794e-02 6.757677e-02 3.403101e-02 1.343757e-01
<VARIANCE> 39
 5.844615e+01 7.768018e+01 6.677789e+01 1.043038e+02 1.144367e+02 7.442522e+01 1.109064e+02 7.749331e+01 7.312981e+01 6.226095e+01 5.949905e+01 4.215044e+01 1.670328e+02 2.241013e+00 4.519718e+00 2.862863e+00 4.200850e+00 4.844906e+00 4.303813e+00 3.622756e+00 4.645813e+00 3.817082e+00 3.062796e+00 3.728462e+00 2.568561e+00 4.233777e+00 3.687914e-01 7.955605e-01 4.696725e-01 7.755935e-01 8.854074e-01 8.056852e-01 6.953536e-01 8.402358e-01 6.834227e-01 5.949244e-01 6.946356e-01 5.038865e-01 7.528603e-01
<GCONST> 1.399037e+02
<STATE> 3
<MEAN> 39
 3.864260e-01 -5.799894e+00 -9.559159e-01 -3.775166e+00 -9.605373e+00 -6.766898e+00 -9.498055e+00 -3.982615e+00 -4.120148e+00 -6.716670e+00 -5.274331e+00 -4.687979e+00 6.973060e+01 -4.551731e-02 -2.392503e-01 7.520752e-02 -2.620376e-01 -1.391035e-01 -7.725058e-02 -4.816928e-03 2.228968e-01 -1.807900e-02 6.468870e-02 1.371576e-01 1.291534e-02 3.532615e-01 -3.407779e-02 -6.653962e-02 -1.854447e-02 -6.772743e-02 -3.073080e-03 5.330273e-02 5.748888e-02 -1.302377e-02 5.063344e-03 3.589554e-02 3.100441e-02 2.846565e-02 2.126805e-02
<VARIANCE> 39
 5.532198e+01 7.858566e+01 6.723151e+01 1.063511e+02 1.156855e+02 7.489317e+01 1.122337e+02 7.826828e+01 7.585816e+01 6.253080e+01 6.076665e+01 4.358567e+01 1.643242e+02 2.158995e+00 4.656603e+00 3.041060e+00 4.304530e+00 4.899446e+00 4.426284e+00 3.885468e+00 4.851672e+00 3.913188e+00 3.176996e+00 3.823682e+00 2.662513e+00 4.290817e+00 3.457990e-01 7.902382e-01 4.716764e-01 7.884566e-01 9.101030e-01 7.923969e-01 7.180271e-01 8.568278e-01 6.918284e-01 6.039013e-01 7.309292e-01 5.171750e-01 7.279743e-01
<GCONST> 1.404533e+02
<STATE> 4
<MEAN> 39
 1.488283e-01 -5.701090e+00 -1.558296e+00 -3.634846e+00 -8.815712e+00 -6.798931e+00 -8.334194e+00 -3.155538e+00 -4.373792e+00 -6.020141e+00 -4.854881e+00 -4.276071e+00 6.978813e+01 -1.030762e-01 -1.515978e-01 5.016374e-02 -1.979610e-01 -4.917979e-02 7.535143e-02 8.249356e-02 6.853417e-02 -2.174957e-02 8.458100e-02 1.000739e-01 4.314014e-02 1.132302e-01 -1.173443e-02 7.885524e-03 -9.244244e-04 -7.166325e-03 1.533836e-02 3.338689e-02 2.219469e-02 -6.837733e-02 -2.893256e-03 4.060426e-04 -5.315871e-03 1.419124e-02 -3.364778e-02
<VARIANCE> 39
 5.750922e+01 7.833959e+01 6.788992e+01 1.099483e+02 1.070268e+02 7.153748e+01 9.914381e+01 7.618177e+01 7.387154e+01 5.877574e+01 5.759514e+01 4.132249e+01 1.827430e+02 1.720937e+00 3.619908e+00 2.811368e+00 3.761368e+00 4.073169e+00 3.786162e+00 3.522834e+00 4.038434e+00 3.355279e+00 2.847464e+00 3.310255e+00 2.425793e+00 3.302743e+00 2.760686e-01 6.087147e-01 4.123713e-01 6.560593e-01 7.384351e-01 6.707939e-01 6.244776e-01 7.362084e-01 5.949997e-01 5.384248e-01 6.164085e-01 4.487576e-01 5.349934e-01
<GCONST> 1.357343e+02
<TRANSP> 5
 0.000000e+00 1.000000e+00 0.000000e+00 0.000000e+00 0.000000e+00
 0.000000e+00 3.840457e-01 6.159543e-01 0.000000e+00 0.000000e+00
 0.000000e+00 0.000000e+00 3.795565e-01 6.204436e-01 0.000000e+00
 0.000000e+00 0.000000e+00 0.000000e+00 4.332959e-01 5.667041e-01
 0.000000e+00 0.000000e+00 0.000000e+00 0.000000e+00 0.000000e+00
<ENDHMM>
~h "e"
<BEGINHMM>
<NUMSTATES> 5
<STATE> 2
<MEAN> 39
 -1.283401e+00 -9.477504e+00 -2.173695e+00 -4.329901e+00 -1.129828e+01 -4.614225e+00 -4.835652e+00 -4.063483e+00 -4.932358e+00 -6.232451e+00 -4.753854e+00 -3.838184e+00 7.403693e+01 -1.419141e-01 -9.968586e-02 1.630633e-01 5.389448e-02 7.311462e-03 1.451369e-01 1.440657e-01 5.483858e-02 -4.075986e-02 1.157255e-02 -4.741851e-03 -1.733841e-04 -7.687264e-02 -6.660338e-02 1.218527e-01 -4.883434e-03 3.562272e-02 5.880103e-02 -6.039072e-03 -2.337305e-02 -8.044277e-03 4.240118e-02 5.031809e-03 -6.548029e-03 9.455524e-03 -1.260255e-01
<VARIANCE> 39
 4.747153e+01 7.799463e+01 5.765760e+01 8.501836e+01 8.046793e+01 8.032716e+01 7.869707e+01 5.994977e+01 6.324810e+01 5.259777e+01 4.437745e+01 3.186829e+01 2.217891e+02 1.909196e+00 2.915829e+00 2.321532e+00 2.040550e+00 2.512269e+00 2.914289e+00 2.184107e+00 2.511020e+00 2.594244e+00 2.122440e+00 1.998666e+00 1.651781e+00 2.438881e+00 3.363245e-01 5.123113e-01 3.796338e-01 3.765184e-01 4.754981e-01 5.232301e-01 4.073052e-01 4.772711e-01 5.006118e-01 4.133995e-01 3.987173e-01 3.210131e-01 3.575621e-01
<GCONST> 1.257547e+02
<STATE> 3
<MEAN> 39
 -1.684393e+00 -9.578998e+00 -1.766891e+00 -4.151081e+00 -1.117777e+01 -4.254974e+00 -4.595496e+00 -4.092713e+00 -5.005528e+00 -6.295874e+00 -4.850374e+00 -3.803722e+00 7.376216e+01 -1.873854e-01 1.771581e-01 7.140537e-02 1.477996e-01 8.392899e-02 6.499317e-02 7.299890e-02 4.444494e-02 5.959523e-03 -2.791817e-03 -1.276042e-02 8.520870e-03 -3.028649e-01 -2.514480e-02 1.088498e-01 -3.698279e-02 2.758906e-02 3.825853e-02 -3.351649e-02 -2.876410e-02 -6.448735e-03 2.300461e-02 -4.811388e-03 -5.827851e-03 2.910092e-03 -8.372409e-02
<VARIANCE> 39
 4.614432e+01 7.922828e+01 5.775173e+01 8.524467e+01 7.982590e+01 7.824844e+01 7.610812e+01 5.900315e+01 6.277028e+01 5.310569e+01 4.304525e+01 3.159008e+01 2.271235e+02 1.518063e+00 2.622636e+00 2.046504e+00 1.882374e+00 2.333136e+00 2.672410e+00 1.960593e+00 2.189393e+00 2.441334e+00 1.911671e+00 1.852189e+00 1.569518e+00 2.042210e+00 2.812146e-01 4.512427e-01 3.451109e-01 3.410857e-01 4.397803e-01 4.708599e-01 3.674367e-01 4.286046e-01 4.686499e-01 3.686847e-01 3.639004e-01 3.077150e-01 3.051482e-01
<GCONST> 1.228648e+02
<STATE> 4
<MEAN> 39
 -3.313250e+00 -6.181022e+00 -1.570899e+00 -1.402823e+00 -8.898781e+00 -7.203937e-02 -3.345493e+00 -5.262349e+00 -1.528114e+00 -5.181938e+00 -4.563532e+00 -3.592477e+00 8.298193e+01 -3.407905e-02 5.727396e-02 4.382472e-03 4.130854e-02 1.741290e-03 3.611789e-02 -2.622533e-03 -8.004692e-03 2.777670e-02 5.707610e-06 -4.465932e-03 -1.101907e-03 -1.052675e-01 3.974851e-03 2.659407e-03 7.425919e-04 5.904689e-04 -2.312917e-03 -3.161879e-03 -7.550739e-03 -5.047923e-03 1.723937e-03 -3.480223e-03 -1.110676e-03 1.554374e-03 -2.471500e-04
<VARIANCE> 39
 3.293103e+01 3.668580e+01 4.117527e+01 4.300908e+01 3.952657e+01 6.702636e+01 3.347512e+01 3.340859e+01 4.270173e+01 3.257732e+01 2.856475e+01 2.236187e+01 2.078934e+02 9.124790e-01 1.315552e+00 1.425972e+00 1.395348e+00 1.876290e+00 2.569317e+00 1.539818e+00 1.684413e+00 2.083225e+00 1.698964e+00 1.557619e+00 1.412387e+00 1.697187e+00 1.425824e-01 1.999365e-01 2.171331e-01 2.402039e-01 3.339170e-01 4.082786e-01 2.891400e-01 3.196751e-01 3.800628e-01 3.202060e-01 2.886384e-01 2.652910e-01 2.201865e-01
<GCONST> 1.090933e+02
<TRANSP> 5
 0.000000e+00 1.000000e+00 0.000000e+00 0.000000e+00 0.000000e+00
 0.000000e+00 4.975987e-01 5.024013e-01 0.000000e+00 0.000000e+00
 0.000000e+00 0.000000e+00 5.020259e-01 4.979741e-01 0.000000e+00
 0.000000e+00 0.000000e+00 0.000000e+00 9.501841e-01 4.981586e-02
 0.000000e+00 0.000000e+00 0.000000e+00 0.000000e+00 0.000000e+00
<ENDHMM>
~h "f"
<BEGINHMM>
<NUMSTATES> 5
<STATE> 2
<MEAN> 39
 -6.374906e+00 -8.362989e+00 -1.322658e+00 -3.929381e+00 -9.030164e+00 -6.090846e+00 -5.213515e+00 -4.682670e+00 -5.207676e+00 -5.651408e+00 -4.918567e+00 -3.766440e+00 6.791328e+01 -5.191022e-01 -7.439188e-02 -2.587039e-02 5.547215e-01 2.173050e-01 -1.258071e-01 2.215861e-01 -2.260364e-02 -3.239772e-02 -3.330863e-02 4.353103e-02 7.673251e-02 -2.735109e-01 1.589618e-01 -3.246302e-02 6.812596e-03 -1.474344e-01 -1.302202e-01 4.819392e-02 -8.401111e-02 -1.274439e-02 8.623018e-03 -2.303501e-02 1.476437e-03 -8.825163e-03 7.997508e-02
<VARIANCE> 39
 8.354401e+01 5.834473e+01 5.343418e+01 1.283784e+02 1.037957e+02 7.111848e+01 6.404139e+01 4.735231e+01 5.585019e+01 4.779952e+01 4.083628e+01 2.360090e+01 1.108000e+02 6.962667e+00 3.393342e+00 2.616219e+00 6.921928e+00 5.322867e+00 4.223016e+00 3.226952e+00 2.928789e+00 4.016549e+00 3.017444e+00 2.811696e+00 2.113701e+00 1.986613e+00 1.099999e+00 6.358911e-01 3.945541e-01 1.122282e+00 8.769298e-01 7.103363e-01 5.935617e-01 5.553982e-01 7.260335e-01 5.713293e-01 4.973636e-01 3.953535e-01 2.844741e-01
<GCONST> 1.352570e+02
<STATE> 3
<MEAN> 39
 -6.964827e+00 -8.825604e+00 -1.335768e+00 -3.400018e+00 -9.102595e+00 -6.161681e+00 -4.907629e+00 -4.707263e+00 -5.151438e+00 -5.799615e+00 -5.047352e+00 -3.645113e+00 6.747153e+01 2.067572e-01 -5.829059e-02 2.300858e-02 -1.138649e-01 -2.766878e-01 5.302075e-02 4.596949e-02 -3.719189e-02 -3.608028e-02 -7.783014e-02 -3.260960e-02 5.891287e-02 4.871868e-03 2.348793e-01 1.757407e-02 2.261565e-02 -1.741755e-01 -1.601021e-01 8.344175e-02 -6.669078e-02 -1.956814e-02 -1.128080e-02 -1.299842e-02 7.817680e-04 -2.350860e-02 7.822437e-02
<VARIANCE> 39
 7.988396e+01 6.229939e+01 5.603580e+01 1.136820e+02 1.096906e+02 6.991109e+01 6.161701e+01 4.540862e+01 5.346597e+01 4.391814e+01 4.216959e+01 2.202105e+01 1.152777e+02 8.159291e+00 4.018145e+00 3.025357e+00 7.071403e+00 5.950813e+00 4.223262e+00 3.184926e+00 3.012846e+00 3.866961e+00 2.980858e+00 2.843741e+00 2.027516e+00 2.271706e+00 1.152994e+00 7.204975e-01 4.291462e-01 1.168614e+00 9.310561e-01 7.034248e-01 5.891097e-01 5.708311e-01 7.188703e-01 5.851224e-01 5.252878e-01 3.813542e-01 3.357569e-01
<GCONST> 1.362749e+02
<STATE> 4
<MEAN> 39
 -6.481605e+00 -9.256370e+00 -1.481201e+00 -4.416151e+00 -9.883169e+00 -5.645020e+00 -3.726370e+00 -4.219130e+00 -5.573974e+00 -6.698635e+00 -5.446424e+00 -3.209485e+00 6.523270e+01 4.580427e-01 1.248259e-01 1.275290e-02 -2.793659e-01 -3.306801e-01 1.563163e-01 -9.665594e-02 -8.696494e-02 -3.352875e-02 -1.705939e-02 9.074112e-03 6.605636e-03 1.733224e-02 9.671476e-02 1.428938e-02 -2.018316e-03 -3.738686e-02 -2.096350e-02 4.365398e-02 -4.518532e-02 -1.467937e-02 -3.924866e-03 4.005736e-03 -6.410396e-03 -2.765301e-02 3.724632e-02
<VARIANCE> 39
 6.689034e+01 6.001255e+01 5.575518e+01 1.235613e+02 1.009596e+02 6.162238e+01 4.971706e+01 4.420543e+01 5.149133e+01 4.052373e+01 4.346408e+01 2.207254e+01 1.325712e+02 5.866453e+00 3.513257e+00 2.785879e+00 5.441211e+00 4.739104e+00 3.578452e+00 2.974050e+00 2.716243e+00 3.215827e+00 2.764223e+00 2.689783e+00 1.981041e+00 2.300955e+00 8.061892e-01 5.935472e-01 3.763788e-01 9.453361e-01 6.809410e-01 5.984427e-01 5.075927e-01 4.874143e-01 5.813023e-01 5.187804e-01 4.941370e-01 3.601371e-01 3.454504e-01
<GCONST> 1.319430e+02
<TRANSP> 5
 0.000000e+00 1.000000e+00 0.000000e+00 0.000000e+00 0.000000e+00
 0.000000e+00 5.724775e-01 4.275225e-01 0.000000e+00 0.000000e+00
 0.000000e+00 0.000000e+00 5.805573e-01 4.194427e-01 0.000000e+00
 0.000000e+00 0.000000e+00 0.000000e+00 6.958611e-01 3.041389e-01
 0.000000e+00 0.000000e+00 0.000000e+00 0.000000e+00 0.000000e+00
<ENDHMM>
~h "g"
<BEGINHMM>
<NUMSTATES> 5
<STATE> 2
<MEAN> 39
 2.543802e+00 -2.626334e+00 -3.648012e-01 -4.926249e+00 -9.834873e+00 -4.379906e+00 -1.238271e+01 -8.878088e+00 -6.047174e+00 -4.299310e+00 -8.253241e-02 -5.359081e+00 6.861607e+01 2.472325e-02 -1.732481e-01 1.990672e-01 1.564566e-01 -1.523314e-01 -1.355030e-01 -2.263394e-01 -2.677799e-01 -1.020534e-01 -1.082082e-01 3.116221e-01 3.693874e-02 1.914583e-01 -7.652908e-03 -4.587036e-02 -9.242045e-03 6.211807e-03 2.981067e-02 -4.716488e-02 8.953907e-02 2.396273e-02 8.923876e-02 2.105035e-02 -1.047912e-01 -3.883019e-02 1.955184e-02
<VARIANCE> 39
 5.829665e+01 7.907504e+01 1.126581e+02 9.426910e+01 1.604573e+02 1.626502e+02 1.744484e+02 1.173797e+02 8.910594e+01 8.693925e+01 1.134298e+02 5.651109e+01 1.344578e+02 1.534892e+00 2.982662e+00 4.412439e+00 4.757133e+00 5.698138e+00 6.515180e+00 5.745420e+00 5.968976e+00 6.366695e+00 4.436460e+00 6.005067e+00 3.871611e+00 3.121320e+00 2.621155e-01 4.658836e-01 6.321486e-01 8.342137e-01 9.805275e-01 1.095047e+00 9.859773e-01 1.048624e+00 1.070086e+00 8.376793e-01 1.085661e+00 7.245312e-01 5.209545e-01
<GCONST> 1.478026e+02
<STATE> 3
<MEAN> 39
 2.589504e+00 -3.841115e+00 1.286242e-01 -4.541520e+00 -1.036107e+01 -4.401938e+00 -1.301220e+01 -9.647515e+00 -5.254664e+00 -4.851091e+00 -6.000090e-01 -5.601115e+00 6.977921e+01 -4.926410e-02 -2.279033e-01 1.290940e-01 1.060624e-01 -1.490351e-02 -2.512400e-01 4.357107e-02 -6.742357e-02 2.840147e-01 -1.897534e-02 -1.124121e-01 -5.578990e-02 1.677093e-01 -4.012897e-02 9.617552e-04 -4.001983e-02 -4.902023e-02 6.979612e-02 -5.327082e-03 8.220062e-02 1.320740e-01 3.437844e-02 1.754302e-03 -9.342015e-02 3.009949e-03 -2.311868e-02
<VARIANCE> 39
 5.730235e+01 7.618339e+01 1.213260e+02 9.143865e+01 1.720636e+02 1.749279e+02 2.024910e+02 1.405437e+02 1.015054e+02 8.741753e+01 1.396192e+02 6.080487e+01 1.224775e+02 1.342312e+00 2.728621e+00 4.022766e+00 4.442418e+00 5.944407e+00 5.654464e+00 4.664519e+00 6.156413e+00 6.022923e+00 4.288785e+00 6.029671e+00 3.735964e+00 2.971520e+00 2.255646e-01 4.318614e-01 6.108985e-01 7.704258e-01 1.005271e+00 9.618886e-01 8.269739e-01 1.049538e+00 1.025700e+00 8.014023e-01 1.050812e+00 7.180759e-01 4.846428e-01
<GCONST> 1.469361e+02
<STATE> 4
<MEAN> 39
 2.328845e-01 -2.425147e+00 -6.062222e-02 -2.790472e+00 -7.524931e+00 -5.898928e+00 -8.516699e+00 -7.923717e+00 -5.545178e+00 -4.689596e+00 -1.293210e+00 -3.882490e+00 6.713631e+01 -1.997819e-01 -8.092408e-02 -7.488886e-02 -2.862340e-02 1.825416e-01 1.289311e-02 1.498640e-01 3.623446e-01 2.085954e-01 5.430247e-03 -2.112939e-01 4.599261e-02 -9.817921e-02 -2.615522e-02 1.853252e-03 -6.890799e-02 -5.788158e-02 7.306018e-02 4.759033e-02 2.061879e-02 9.290659e-02 -4.301176e-02 9.040236e-03 -1.710183e-02 3.746892e-04 -1.272319e-02
<VARIANCE> 39
 8.577904e+01 7.510807e+01 1.333061e+02 9.383533e+01 1.399797e+02 1.604526e+02 1.420369e+02 1.247885e+02 8.733669e+01 7.075137e+01 1.405935e+02 5.678264e+01 2.083280e+02 1.053424e+00 2.127708e+00 2.605725e+00 2.847780e+00 3.543615e+00 3.836242e+00 2.962302e+00 4.193120e+00 3.790299e+00 2.908237e+00 3.922056e+00 2.487333e+00 2.211684e+00 1.753381e-01 3.362923e-01 4.209220e-01 5.240070e-01 6.011750e-01 6.070052e-01 5.064049e-01 6.974152e-01 6.884638e-01 5.300910e-01 6.843520e-01 4.747448e-01 3.390460e-01
<GCONST> 1.365443e+02
<TRANSP> 5
 0.000000e+00 1.000000e+00 0.000000e+00 0.000000e+00 0.000000e+00
 0.000000e+00 6.483167e-01 3.516833e-01 0.000000e+00 0.000000e+00
 0.000000e+00 0.000000e+00 6.581495e-01 3.418505e-01 0.000000e+00
 0.000000e+00 0.000000e+00 0.000000e+00 6.348566e-01 3.651435e-01
 0.000000e+00 0.000000e+00 0.000000e+00 0.000000e+00 0.000000e+00
<ENDHMM>
~h "h"
<BEGINHMM>
<NUMSTATES> 5
<STATE> 2
<MEAN> 39
 -8.270522e-01 -8.660511e+00 -4.420779e+00 -7.063025e+00 -4.321867e+00 -3.698103e+00 -4.364510e+00 -5.222164e+00 -4.144433e+00 -7.399454e+00 -7.037858e+00 -3.844844e+00 6.962798e+01 -1.931951e-01 1.063165e-01 1.758031e-02 5.797552e-02 1.437379e-01 6.970043e-02 2.258731e-01 -7.763807e-02 5.012940e-03 -9.657663e-02 -7.370694e-02 1.829789e-02 -2.129915e-01 1.331985e-03 9.883006e-02 2.553476e-02 4.246357e-02 -9.176560e-02 -2.835941e-02 -6.089938e-02 3.227672e-02 2.213516e-02 5.771936e-02 4.751609e-02 -1.210682e-03 -7.653934e-02
<VARIANCE> 39
 6.952304e+01 1.033873e+02 6.558456e+01 9.480389e+01 1.361601e+02 7.350081e+01 1.213974e+02 7.642519e+01 7.722755e+01 9.015082e+01 8.445120e+01 4.579185e+01 1.843235e+02 1.417968e+00 2.565264e+00 2.365435e+00 2.545136e+00 3.428199e+00 3.005572e+00 3.180941e+00 3.156016e+00 2.884785e+00 2.800421e+00 2.873545e+00 2.231048e+00 1.686677e+00 2.276000e-01 4.182986e-01 3.488863e-01 4.099590e-01 5.567046e-01 4.932482e-01 5.288348e-01 5.315883e-01 5.158026e-01 5.166893e-01 5.236130e-01 4.042573e-01 2.316371e-01
<GCONST> 1.309642e+02
<STATE> 3
<MEAN> 39
 -1.015077e+00 -8.112641e+00 -4.439235e+00 -6.980564e+00 -3.933577e+00 -3.722331e+00 -3.911172e+00 -5.360866e+00 -3.840195e+00 -7.314712e+00 -7.267606e+00 -3.805074e+00 6.917715e+01 -1.629678e-01 2.575392e-01 4.880016e-02 1.348106e-01 -7.411326e-03 3.051013e-02 9.737641e-02 3.525671e-02 3.971547e-02 3.086370e-02 -1.419484e-02 2.711346e-02 -3.310626e-01 1.271379e-02 6.115421e-02 1.420549e-02 2.377366e-02 -7.005468e-02 -2.375826e-02 -6.014462e-02 4.321889e-02 8.904153e-03 4.603156e-02 4.069526e-02 4.764169e-03 -4.048304e-02
<VARIANCE> 39
 7.075011e+01 9.923038e+01 6.609638e+01 9.239613e+01 1.480712e+02 7.614344e+01 1.310839e+02 7.974092e+01 8.037713e+01 8.791843e+01 8.794092e+01 4.513615e+01 1.827836e+02 1.362953e+00 2.343381e+00 2.177570e+00 2.388990e+00 3.210230e+00 2.879495e+00 2.992607e+00 2.867130e+00 2.780196e+00 2.626312e+00 2.686178e+00 2.124606e+00 1.543765e+00 2.162903e-01 3.951662e-01 3.391785e-01 4.052574e-01 5.461132e-01 4.796023e-01 5.284966e-01 5.009308e-01 5.042598e-01 4.887386e-01 4.889807e-01 3.898478e-01 2.241733e-01
<GCONST> 1.298753e+02
<STATE> 4
<MEAN> 39
 -4.704156e+00 -4.189364e+00 -5.169815e+00 -5.295245e+00 -2.908249e-01 -1.895564e+00 -6.196480e-01 -4.326200e+00 -2.348503e+00 -6.627495e+00 -7.065651e+00 -1.746522e+00 6.018908e+01 -2.302116e-01 2.719385e-01 1.243421e-01 1.729642e-01 -2.541601e-01 7.831275e-02 -1.044292e-01 1.729680e-01 -1.063211e-01 1.053410e-01 1.961447e-01 2.415228e-02 -4.635607e-01 1.266641e-02 -1.328820e-03 9.988705e-03 -1.611136e-02 -3.520558e-02 -2.723417e-02 -3.370816e-02 -5.057295e-03 -1.664661e-02 1.477932e-03 2.777077e-02 -1.318758e-02 2.549939e-02
<VARIANCE> 39
 1.127062e+02 9.049442e+01 5.926721e+01 7.537906e+01 1.645894e+02 7.890649e+01 1.093162e+02 8.309129e+01 8.452840e+01 8.184329e+01 1.560207e+02 5.774453e+01 2.447583e+02 9.842322e-01 1.580334e+00 1.591672e+00 1.748741e+00 2.421286e+00 2.306446e+00 2.361012e+00 2.263540e+00 2.449306e+00 2.194992e+00 2.319288e+00 1.826840e+00 1.066141e+00 1.453997e-01 2.502542e-01 2.430484e-01 2.965489e-01 3.819389e-01 3.727680e-01 3.879244e-01 3.894035e-01 4.040412e-01 3.868987e-01 3.846584e-01 3.100494e-01 1.492270e-01
<GCONST> 1.237297e+02
<TRANSP> 5
 0.000000e+00 1.000000e+00 0.000000e+00 0.000000e+00 0.000000e+00
 0.000000e+00 4.105677e-01 5.894323e-01 0.000000e+00 0.000000e+00
 0.000000e+00 0.000000e+00 4.110837e-01 5.889163e-01 0.000000e+00
 0.000000e+00 0.000000e+00 0.000000e+00 7.303230e-01 2.696770e-01
 0.000000e+00 0.000000e+00 0.000000e+00 0.000000e+00 0.000000e+00
<ENDHMM>
~h "i"
<BEGINHMM>
<NUMSTATES> 5
<STATE> 2
<MEAN> 39
 -1.217801e+00 -3.237360e+00 5.067190e+00 -6.120223e+00 -1.122224e+01 -8.568107e+00 -7.231330e+00 -7.166770e+00 -6.164853e+00 -5.961929e+00 -4.254023e+00 -4.124140e+00 6.871193e+01 -7.102503e-04 1.811346e-01 5.127690e-01 -1.394698e-01 -1.596843e-01 -1.083948e-01 -1.543717e-01 -2.125259e-01 -1.655338e-02 -2.997550e-02 -1.134911e-01 6.093178e-02 8.120695e-03 -8.779290e-02 2.975532e-02 -2.200827e-01 9.679580e-02 1.713459e-01 6.090449e-02 1.195676e-01 9.768543e-02 6.117630e-02 2.433915e-02 -8.894004e-03 6.652364e-03 -1.380187e-01
<VARIANCE> 39
 4.729783e+01 7.795599e+01 1.096355e+02 2.032226e+02 1.379571e+02 1.096988e+02 1.105860e+02 7.557833e+01 7.328297e+01 5.157447e+01 8.937678e+01 3.777957e+01 1.254674e+02 2.547379e+00 2.681730e+00 3.590987e+00 5.628117e+00 4.929899e+00 4.293756e+00 4.022839e+00 3.460164e+00 3.502255e+00 2.882335e+00 3.438747e+00 2.477737e+00 2.631929e+00 4.018259e-01 4.579298e-01 5.491897e-01 9.073427e-01 8.724918e-01 7.258625e-01 6.847704e-01 5.938487e-01 6.203044e-01 5.308002e-01 6.099558e-01 4.471876e-01 3.900368e-01
<GCONST> 1.386891e+02
<STATE> 3
<MEAN> 39
 -1.403095e+00 -2.791266e+00 5.382015e+00 -6.053455e+00 -1.113017e+01 -8.630566e+00 -7.194125e+00 -7.443469e+00 -5.992172e+00 -5.962437e+00 -4.609552e+00 -4.009247e+00 6.839015e+01 -1.343848e-01 2.291768e-01 -9.787208e-02 2.019636e-01 1.860588e-01 6.255455e-02 1.182764e-01 1.090334e-02 6.350155e-02 1.526768e-02 -9.040326e-02 2.959376e-02 -3.437800e-01 -6.354655e-02 -5.272242e-03 -2.301857e-01 7.090499e-02 1.414525e-01 5.909135e-02 9.068446e-02 8.239491e-02 3.126116e-02 2.618292e-02 1.217273e-02 -6.198262e-03 -9.474663e-02
<VARIANCE> 39
 4.651858e+01 7.674014e+01 1.083294e+02 2.152611e+02 1.337605e+02 1.078298e+02 1.130148e+02 7.860901e+01 7.193102e+01 5.056768e+01 8.722520e+01 3.772980e+01 1.251954e+02 2.108106e+00 2.468096e+00 3.074298e+00 4.628988e+00 4.192007e+00 3.924685e+00 3.599414e+00 3.124051e+00 3.198304e+00 2.681427e+00 3.152156e+00 2.280483e+00 2.302091e+00 3.259057e-01 4.258003e-01 4.872486e-01 8.132880e-01 7.721937e-01 6.759210e-01 6.518235e-01 5.517415e-01 5.800683e-01 5.033301e-01 5.757611e-01 4.209079e-01 3.495155e-01
<GCONST> 1.359180e+02
<STATE> 4
<MEAN> 39
 -2.670424e+00 -4.942298e-01 4.302525e+00 -3.660779e+00 -8.897129e+00 -8.478471e+00 -6.494970e+00 -6.961907e+00 -6.276884e+00 -5.808650e+00 -4.817975e+00 -3.122078e+00 6.393221e+01 -2.249119e-01 1.163418e-01 -4.629342e-01 3.070154e-01 2.614532e-01 2.641183e-01 1.244467e-01 1.619002e-01 3.929101e-02 4.076428e-02 1.419800e-02 2.996999e-02 -4.948014e-01 -1.688052e-02 -6.016674e-02 -9.355756e-02 -3.941051e-02 4.390257e-02 1.761844e-02 2.107217e-02 3.318806e-02 8.712692e-03 9.474865e-03 1.744922e-02 -5.098339e-03 3.747246e-02
<VARIANCE> 39
 5.843209e+01 8.508360e+01 9.839728e+01 2.197421e+02 1.157663e+02 9.994283e+01 8.577718e+01 8.566084e+01 6.762917e+01 5.271388e+01 7.894124e+01 4.025846e+01 1.628167e+02 1.468115e+00 1.909687e+00 2.271896e+00 3.371960e+00 2.981474e+00 3.142764e+00 2.857069e+00 2.561578e+00 2.729311e+00 2.299461e+00 2.610265e+00 1.959507e+00 1.572212e+00 2.211154e-01 3.131192e-01 3.373595e-01 5.298856e-01 5.087680e-01 5.011190e-01 4.852207e-01 4.510530e-01 4.711473e-01 4.138061e-01 4.436886e-01 3.444406e-01 2.454946e-01
<GCONST> 1.287846e+02
<TRANSP> 5
 0.000000e+00 1.000000e+00 0.000000e+00 0.000000e+00 0.000000e+00
 0.000000e+00 5.052051e-01 4.947948e-01 0.000000e+00 0.000000e+00
 0.000000e+00 0.000000e+00 4.991859e-01 5.008140e-01 0.000000e+00
 0.000000e+00 0.000000e+00 0.000000e+00 6.844119e-01 3.155881e-01
 0.000000e+00 0.000000e+00 0.000000e+00 0.000000e+00 0.000000e+00
<ENDHMM>
~h "j"
<BEGINHMM>
<NUMSTATES> 5
<STATE> 2
<MEAN> 39
 -2.124399e+00 -2.714348e+00 2.047433e+00 -3.927554e+00 -8.621500e+00 -7.480931e+00 -7.509048e+00 -4.888424e+00 -4.462824e+00 -5.984519e+00 -5.484015e+00 -3.396147e+00 6.791895e+01 -1.726208e-02 -1.361554e-02 6.011150e-01 -2.488065e-01 -3.661720e-01 -2.249713e-01 -1.965758e-01 -1.748638e-01 1.015314e-01 1.129765e-01 -2.628425e-02 1.101891e-01 3.629904e-01 7.093889e-02 -1.839221e-01 -1.267977e-01 -7.525320e-02 -8.907527e-02 -1.517530e-02 1.423534e-02 4.919771e-02 3.504770e-02 -1.749107e-02 3.799843e-03 8.847297e-03 1.188037e-01
<VARIANCE> 39
 5.281678e+01 6.240356e+01 7.084233e+01 1.210062e+02 1.018751e+02 8.020580e+01 7.730321e+01 5.149522e+01 5.011367e+01 3.926674e+01 4.932411e+01 3.010245e+01 1.484110e+02 4.417640e+00 4.656726e+00 3.618763e+00 5.146850e+00 6.697856e+00 4.236365e+00 3.316829e+00 3.291402e+00 3.351075e+00 2.802675e+00 2.969506e+00 2.301262e+00 4.281334e+00 8.232126e-01 8.032143e-01 6.072707e-01 9.132405e-01 1.315166e+00 7.152852e-01 5.885938e-01 6.547921e-01 6.283170e-01 5.561811e-01 5.154312e-01 4.419755e-01 5.811486e-01
<GCONST> 1.382283e+02
<STATE> 3
<MEAN> 39
 -1.371917e+00 -3.703679e+00 2.938456e+00 -4.262136e+00 -1.019687e+01 -7.914371e+00 -7.841831e+00 -5.162424e+00 -4.053627e+00 -6.002596e+00 -5.620041e+00 -3.104484e+00 6.953577e+01 1.429902e-01 -3.615679e-01 4.701171e-02 -1.444096e-01 -3.540148e-01 -1.696097e-01 -6.132448e-02 4.301343e-02 9.136494e-02 5.264533e-02 -1.117808e-02 5.570540e-02 3.396502e-01 -2.205337e-02 -6.960149e-02 -2.217963e-01 7.045958e-03 9.860598e-02 6.228419e-02 6.111946e-02 9.229142e-02 -1.028212e-02 -3.752355e-02 3.888995e-02 -3.017747e-02 -1.929595e-02
<VARIANCE> 39
 4.309482e+01 6.315074e+01 7.398450e+01 1.432237e+02 1.030823e+02 8.134527e+01 7.755180e+01 4.989571e+01 5.234235e+01 3.911702e+01 5.157028e+01 2.941283e+01 1.457495e+02 3.717484e+00 4.987680e+00 4.059977e+00 4.665976e+00 6.356652e+00 4.224743e+00 3.470019e+00 3.325753e+00 3.345223e+00 2.707189e+00 2.716300e+00 2.321478e+00 4.027916e+00 6.744258e-01 8.507388e-01 6.356056e-01 8.927353e-01 1.241377e+00 7.250787e-01 6.100282e-01 6.310568e-01 6.443594e-01 5.457543e-01 5.111601e-01 4.524136e-01 5.637193e-01
<GCONST> 1.378516e+02
<STATE> 4
<MEAN> 39
 -1.106847e+00 -4.433836e+00 1.615687e+00 -3.742984e+00 -9.702604e+00 -8.026172e+00 -7.450782e+00 -4.243349e+00 -3.945816e+00 -6.123307e+00 -5.610375e+00 -3.087859e+00 6.988983e+01 -7.870870e-02 -1.986494e-01 -3.582255e-01 -3.218462e-02 1.119166e-01 5.968360e-02 2.024482e-02 1.293067e-01 2.398929e-03 1.486233e-02 7.762492e-02 -2.506380e-02 4.013396e-02 -5.439768e-02 2.196711e-02 -8.005149e-02 2.040696e-02 8.730204e-02 6.722683e-02 3.629869e-03 -1.037289e-02 -2.678561e-02 -2.887459e-02 4.693745e-02 -2.110742e-02 -2.947913e-02
<VARIANCE> 39
 4.016470e+01 5.700333e+01 7.252731e+01 1.416239e+02 9.674818e+01 7.085709e+01 6.958817e+01 5.213364e+01 5.191901e+01 3.648604e+01 5.135311e+01 2.734157e+01 1.699984e+02 2.549920e+00 3.563687e+00 3.385363e+00 3.755940e+00 4.551920e+00 3.567578e+00 2.931729e+00 3.003287e+00 2.898656e+00 2.409566e+00 2.321620e+00 2.046399e+00 3.017193e+00 4.373205e-01 6.323326e-01 5.394634e-01 7.129024e-01 8.896897e-01 6.425455e-01 5.571498e-01 5.338427e-01 5.501204e-01 4.744091e-01 4.215002e-01 3.861064e-01 4.700148e-01
<GCONST> 1.320012e+02
<TRANSP> 5
 0.000000e+00 1.000000e+00 0.000000e+00 0.000000e+00 0.000000e+00
 0.000000e+00 4.956912e-01 5.043088e-01 0.000000e+00 0.000000e+00
 0.000000e+00 0.000000e+00 4.696254e-01 5.303746e-01 0.000000e+00
 0.000000e+00 0.000000e+00 0.000000e+00 5.357336e-01 4.642663e-01
 0.000000e+00 0.000000e+00 0.000000e+00 0.000000e+00 0.000000e+00
<ENDHMM>
~h "k"
<BEGINHMM>
<NUMSTATES> 5
<STATE> 2
<MEAN> 39
 -3.711114e+00 -5.894195e+00 -5.002963e+00 -5.951883e+00 -4.426442e+00 -5.554010e+00 -7.595185e+00 -2.729460e+00 -4.703225e+00 -3.667236e+00 -3.821590e+00 -4.615896e+00 6.430221e+01 3.223341e-02 -6.447665e-01 -3.633106e-01 -4.013438e-01 4.252989e-01 -3.978140e-01 -1.711699e-02 2.646684e-01 1.345503e-02 1.742084e-01 4.157064e-03 -4.291407e-02 8.224352e-01 2.054379e-01 -9.655926e-02 4.383879e-02 -8.661255e-02 -1.474982e-01 -5.630846e-02 1.242323e-02 -3.277484e-02 3.908354e-03 -9.549775e-02 -2.850358e-02 -3.164916e-02 3.069787e-01
<VARIANCE> 39
 6.694094e+01 8.039107e+01 7.019334e+01 1.075218e+02 1.461442e+02 9.698332e+01 1.104437e+02 8.068213e+01 5.756761e+01 7.248158e+01 5.480649e+01 4.914097e+01 1.443330e+02 5.178243e+00 5.786734e+00 4.878807e+00 5.456368e+00 9.333281e+00 5.920628e+00 5.265371e+00 5.536509e+00 5.084659e+00 4.982689e+00 4.479459e+00 3.486685e+00 6.313219e+00 8.447089e-01 9.956488e-01 7.956736e-01 9.574171e-01 1.691952e+00 1.061954e+00 9.776529e-01 1.009241e+00 9.684002e-01 9.665793e-01 8.374354e-01 6.534534e-01 9.938539e-01
<GCONST> 1.503997e+02
<STATE> 3
<MEAN> 39
 -2.561820e+00 -7.708928e+00 -5.602408e+00 -7.036135e+00 -4.361490e+00 -6.629973e+00 -7.379228e+00 -2.299803e+00 -4.506126e+00 -3.868868e+00 -4.061582e+00 -4.834821e+00 6.755272e+01 5.376977e-01 -5.059136e-01 -9.909654e-02 -2.833198e-01 -2.550804e-01 -3.072844e-01 1.082427e-01 3.954451e-02 3.553753e-02 -1.985107e-01 -1.053233e-01 -1.019553e-01 9.734298e-01 1.093256e-01 8.319301e-02 1.126106e-01 6.955784e-02 -1.658801e-01 9.700896e-02 1.729649e-02 -9.606963e-02 -1.159198e-02 -9.064380e-02 -2.060444e-02 -1.333312e-03 -5.159664e-02
<VARIANCE> 39
 6.806384e+01 8.534178e+01 7.201270e+01 1.132204e+02 1.454265e+02 1.041023e+02 1.121635e+02 8.270594e+01 5.899541e+01 7.766070e+01 5.678711e+01 5.016220e+01 1.324250e+02 5.570038e+00 5.785326e+00 4.626462e+00 5.092586e+00 8.445161e+00 6.206684e+00 5.258473e+00 5.561918e+00 5.100269e+00 5.176960e+00 4.557613e+00 3.451447e+00 5.954438e+00 8.961667e-01 9.790851e-01 7.577596e-01 8.948064e-01 1.535341e+00 1.082141e+00 9.496706e-01 1.018035e+00 9.281464e-01 9.781609e-01 8.476242e-01 6.399286e-01 9.191838e-01
<GCONST> 1.503237e+02
<STATE> 4
<MEAN> 39
 -1.228845e+00 -8.051352e+00 -5.673257e+00 -6.474271e+00 -5.500887e+00 -6.486415e+00 -6.387728e+00 -2.302055e+00 -4.535542e+00 -4.742177e+00 -4.516502e+00 -4.642738e+00 6.868288e+01 3.876414e-01 -1.388123e-01 1.096882e-01 -2.831535e-02 -3.537435e-01 5.395334e-03 6.495646e-02 -1.456776e-01 -4.434274e-02 -2.119618e-01 -1.028588e-01 -2.254463e-02 3.826485e-01 -5.136544e-02 1.023564e-01 6.376483e-02 4.433933e-02 8.773986e-03 9.606930e-02 -3.928167e-02 -4.837233e-02 -1.434348e-02 2.619950e-02 4.354112e-03 1.945527e-02 -1.464971e-01
<VARIANCE> 39
 6.666227e+01 8.629959e+01 6.272866e+01 1.047364e+02 1.114038e+02 9.446545e+01 9.656477e+01 7.830645e+01 6.081627e+01 6.827733e+01 5.486092e+01 4.396431e+01 1.465316e+02 4.331542e+00 4.641323e+00 3.523837e+00 4.103896e+00 5.749137e+00 5.069304e+00 4.268097e+00 4.542212e+00 4.265084e+00 4.093661e+00 3.844192e+00 2.764989e+00 4.423838e+00 6.489744e-01 7.824287e-01 5.615482e-01 7.082756e-01 1.015537e+00 8.739765e-01 7.495177e-01 8.214102e-01 7.523108e-01 7.485619e-01 6.923721e-01 5.162787e-01 7.055678e-01
<GCONST> 1.429881e+02
<TRANSP> 5
 0.000000e+00 1.000000e+00 0.000000e+00 0.000000e+00 0.000000e+00
 0.000000e+00 5.552847e-01 4.447153e-01 0.000000e+00 0.000000e+00
 0.000000e+00 0.000000e+00 5.096689e-01 4.903311e-01 0.000000e+00
 0.000000e+00 0.000000e+00 0.000000e+00 4.493320e-01 5.506681e-01
 0.000000e+00 0.000000e+00 0.000000e+00 0.000000e+00 0.000000e+00
<ENDHMM>
~h "l"
<BEGINHMM>
<NUMSTATES> 5
<STATE> 2
<MEAN> 39
 2.805659e+00 -6.624955e+00 -5.321474e+00 -7.468797e+00 -7.356451e+00 -6.186848e+00 -5.365961e+00 -7.055807e+00 -1.904770e+00 -3.976178e+00 -6.274228e+00 -5.003983e+00 7.225154e+01 6.638511e-03 7.743754e-02 3.793578e-02 1.325232e-01 -6.994496e-02 7.520610e-02 7.014181e-02 -1.401195e-01 1.615395e-02 -1.567260e-02 -1.604541e-01 3.503244e-02 -1.730009e-01 -7.401916e-02 5.590315e-02 4.842719e-02 9.846177e-04 4.321893e-02 3.523751e-02 -1.460574e-02 6.542665e-02 -6.033829e-02 -3.090292e-02 3.331584e-02 3.328149e-02 -6.500558e-02
<VARIANCE> 39
 5.801004e+01 9.946470e+01 7.145117e+01 9.242857e+01 1.409950e+02 1.063518e+02 1.325710e+02 1.172327e+02 8.199614e+01 1.062919e+02 7.575022e+01 3.972972e+01 1.466320e+02 1.217085e+00 2.149498e+00 2.203856e+00 2.547905e+00 3.454762e+00 3.334044e+00 3.493123e+00 3.870530e+00 3.057130e+00 3.007788e+00 3.072343e+00 2.094093e+00 1.330046e+00 1.900390e-01 3.234312e-01 3.141701e-01 4.119657e-01 5.444422e-01 5.565790e-01 6.034038e-01 6.923348e-01 5.364674e-01 5.119915e-01 5.361426e-01 3.852070e-01 1.877862e-01
<GCONST> 1.311282e+02
<STATE> 3
<MEAN> 39
 2.582615e+00 -6.277615e+00 -5.128444e+00 -7.138575e+00 -7.501798e+00 -6.011300e+00 -5.269026e+00 -7.056886e+00 -2.128616e+00 -4.173855e+00 -6.492421e+00 -4.842236e+00 7.169156e+01 -1.141861e-01 1.545375e-01 1.190971e-01 1.295144e-01 -1.475568e-02 1.451580e-01 1.666960e-02 4.120991e-02 -1.107251e-01 -8.954697e-02 -3.939536e-02 8.375842e-02 -2.746720e-01 -5.993402e-02 3.801735e-02 3.455278e-02 -5.407302e-03 4.924320e-02 2.393971e-02 -1.676121e-02 7.779016e-02 -5.131475e-02 -2.377991e-02 3.914358e-02 1.943275e-02 -4.473986e-02
<VARIANCE> 39
 5.979513e+01 1.042178e+02 6.835753e+01 8.875204e+01 1.380084e+02 1.070935e+02 1.330058e+02 1.150219e+02 8.058895e+01 1.038115e+02 7.919017e+01 4.019083e+01 1.546718e+02 1.091657e+00 2.017302e+00 1.978109e+00 2.404049e+00 3.141339e+00 3.118182e+00 3.222615e+00 3.607466e+00 2.935407e+00 2.829220e+00 2.847505e+00 2.028926e+00 1.262175e+00 1.654305e-01 3.036653e-01 2.866301e-01 3.852299e-01 5.126877e-01 5.402984e-01 5.670146e-01 6.436825e-01 5.170233e-01 4.923692e-01 5.038669e-01 3.755433e-01 1.744086e-01
<GCONST> 1.294225e+02
<STATE> 4
<MEAN> 39
 -2.247927e-01 -2.628142e+00 -4.794756e+00 -5.259158e+00 -6.512835e+00 -5.210502e+00 -4.570307e+00 -5.122062e+00 -2.771000e+00 -4.142968e+00 -5.620635e+00 -4.103427e+00 6.541374e+01 -2.677667e-01 1.610903e-01 1.985000e-01 1.799157e-01 -4.775876e-02 2.145482e-01 -9.018248e-02 1.350055e-01 -1.584376e-01 -1.029192e-01 1.077593e-01 7.917872e-02 -4.153928e-01 -2.691878e-02 4.972480e-03 1.764899e-02 -5.068657e-03 2.965190e-02 -1.744692e-03 -3.157388e-04 1.410821e-02 -2.306528e-02 -6.839510e-03 2.190089e-02 3.448412e-03 -6.535367e-03
<VARIANCE> 39
 8.122920e+01 1.103429e+02 6.038663e+01 8.115312e+01 1.046743e+02 9.811617e+01 9.741409e+01 9.401868e+01 7.255282e+01 8.695868e+01 7.911514e+01 4.129529e+01 2.495441e+02 8.751085e-01 1.482081e+00 1.539551e+00 1.860071e+00 2.386686e+00 2.559310e+00 2.499241e+00 2.740565e+00 2.492224e+00 2.272688e+00 2.400545e+00 1.805997e+00 9.973865e-01 1.271675e-01 2.207313e-01 2.211536e-01 3.063403e-01 3.774799e-01 4.249446e-01 4.098289e-01 4.579135e-01 4.331205e-01 3.954758e-01 4.103090e-01 3.282958e-01 1.309252e-01
<GCONST> 1.226696e+02
<TRANSP> 5
 0.000000e+00 1.000000e+00 0.000000e+00 0.000000e+00 0.000000e+00
 0.000000e+00 4.378129e-01 5.621871e-01 0.000000e+00 0.000000e+00
 0.000000e+00 0.000000e+00 4.352528e-01 5.647472e-01 0.000000e+00
 0.000000e+00 0.000000e+00 0.000000e+00 6.774349e-01 3.225651e-01
 0.000000e+00 0.000000e+00 0.000000e+00 0.000000e+00 0.000000e+00
<ENDHMM>
~h "m"
<BEGINHMM>
<NUMSTATES> 5
<STATE> 2
<MEAN> 39
 3.302758e+00 -3.940360e+00 -3.974311e+00 -5.132072e+00 -8.428722e+00 -1.670122e+00 -6.533773e+00 -6.946956e+00 -6.039881e+00 -7.601333e+00 -5.505050e+00 -5.122377e+00 6.828764e+01 8.584638e-02 2.321905e-01 8.595543e-03 1.599611e-01 4.539277e-03 2.378558e-01 1.122693e-01 -2.166014e-01 -1.083744e-01 -2.085225e-01 -1.940783e-01 -1.469152e-01 -1.573595e-01 -8.114827e-02 -7.472989e-02 -2.006637e-02 -5.558959e-02 6.358243e-02 -8.710542e-02 -1.697618e-02 9.941370e-02 8.553218e-02 7.076263e-02 4.237045e-03 2.389940e-02 5.832279e-02
<VARIANCE> 39
 5.785872e+01 1.068196e+02 5.993029e+01 1.015470e+02 1.169507e+02 9.621118e+01 1.119133e+02 9.045033e+01 6.696416e+01 6.519725e+01 6.268374e+01 3.648637e+01 1.562046e+02 1.430811e+00 2.770143e+00 3.413243e+00 3.927069e+00 3.448061e+00 3.978866e+00 2.953157e+00 3.454467e+00 3.497794e+00 2.630351e+00 3.230047e+00 2.210654e+00 1.851585e+00 2.050465e-01 4.368117e-01 4.922947e-01 6.492624e-01 5.562114e-01 6.353476e-01 5.154412e-01 6.024883e-01 5.882064e-01 4.898241e-01 5.532211e-01 3.919587e-01 2.663902e-01
<GCONST> 1.326950e+02
<STATE> 3
<MEAN> 39
 3.274348e+00 -3.749769e+00 -4.049238e+00 -4.938364e+00 -8.206235e+00 -1.466303e+00 -6.362885e+00 -7.116936e+00 -6.038209e+00 -7.831899e+00 -5.915131e+00 -5.324676e+00 6.818402e+01 -7.994952e-02 7.508294e-02 -1.887784e-02 8.228751e-02 1.285741e-01 4.703175e-03 5.940485e-02 3.464212e-02 7.104116e-02 -3.918189e-02 -1.486431e-01 -6.045973e-02 -6.163767e-02 -8.513415e-02 -7.369865e-02 -1.073928e-02 -5.736811e-02 5.628316e-02 -1.007245e-01 -2.575072e-02 1.256316e-01 7.648888e-02 8.519999e-02 3.708768e-02 4.906535e-02 4.981796e-02
<VARIANCE> 39
 6.022434e+01 1.025032e+02 6.087410e+01 9.696431e+01 1.223839e+02 9.741592e+01 1.114438e+02 9.198409e+01 6.816097e+01 6.521564e+01 6.265085e+01 3.721645e+01 1.579462e+02 1.382427e+00 2.797285e+00 3.170067e+00 3.505107e+00 3.502223e+00 3.846047e+00 2.834167e+00 3.368249e+00 3.495909e+00 2.647634e+00 3.341474e+00 2.152946e+00 1.924610e+00 1.996209e-01 4.264186e-01 4.988727e-01 6.164988e-01 5.639162e-01 6.477915e-01 4.955542e-01 5.850561e-01 5.790412e-01 4.844184e-01 5.449665e-01 3.898543e-01 2.560563e-01
<GCONST> 1.323255e+02
<STATE> 4
<MEAN> 39
 2.110023e+00 -1.930928e+00 -4.003530e+00 -4.147919e+00 -6.905726e+00 -1.980133e+00 -5.235887e+00 -6.228198e+00 -6.389093e+00 -7.612953e+00 -6.315617e+00 -5.397950e+00 6.569357e+01 -2.611225e-01 -9.891485e-03 2.649158e-02 6.172626e-02 1.408363e-01 -7.033356e-02 -1.858781e-02 2.095264e-01 1.048424e-01 1.001875e-01 1.909054e-02 6.637434e-02 -1.248323e-01 -4.321244e-02 -7.270741e-02 -1.114671e-02 -6.693884e-02 2.862914e-02 -4.799689e-02 -2.146938e-02 6.594770e-02 3.236678e-02 4.340978e-02 4.083865e-02 3.633064e-02 5.631138e-02
<VARIANCE> 39
 7.247244e+01 1.063495e+02 5.753498e+01 8.901379e+01 1.138435e+02 8.802905e+01 9.573753e+01 8.454449e+01 6.615572e+01 6.135996e+01 6.693325e+01 3.946733e+01 1.922555e+02 1.227929e+00 2.336636e+00 2.489775e+00 2.834781e+00 2.990542e+00 3.187569e+00 2.484885e+00 2.837542e+00 2.877740e+00 2.429955e+00 2.833030e+00 1.968431e+00 1.607206e+00 1.947232e-01 3.744543e-01 4.130607e-01 4.977381e-01 5.103519e-01 5.351605e-01 4.301228e-01 5.128556e-01 5.058336e-01 4.275469e-01 4.790675e-01 3.539598e-01 2.336804e-01
<GCONST> 1.284114e+02
<TRANSP> 5
 0.000000e+00 1.000000e+00 0.000000e+00 0.000000e+00 0.000000e+00
 0.000000e+00 4.228270e-01 5.771730e-01 0.000000e+00 0.000000e+00
 0.000000e+00 0.000000e+00 4.178814e-01 5.821186e-01 0.000000e+00
 0.000000e+00 0.000000e+00 0.000000e+00 5.704234e-01 4.295766e-01
 0.000000e+00 0.000000e+00 0.000000e+00 0.000000e+00 0.000000e+00
<ENDHMM>
~h "n"
<BEGINHMM>
<NUMSTATES> 5
<STATE> 2
<MEAN> 39
 8.714349e-01 -5.989013e+00 -2.456925e+00 -3.311033e+00 -8.744249e+00 -4.831200e+00 -8.618651e+00 -4.441821e+00 -5.103380e+00 -6.597239e+00 -6.785071e+00 -5.100955e+00 6.832759e+01 1.670956e-03 5.144682e-01 1.716501e-01 3.528735e-01 1.452505e-02 1.075793e-01 5.165792e-02 -1.806447e-01 -6.107176e-02 -8.186625e-02 -9.620048e-02 -4.921683e-02 -4.870322e-01 -6.656060e-02 -4.005668e-02 -6.651105e-03 -6.847064e-02 5.812303e-02 -3.405296e-03 3.575782e-02 3.275006e-02 8.514316e-03 3.144807e-02 5.584778e-02 3.692552e-02 3.987743e-02
<VARIANCE> 39
 5.748048e+01 8.308522e+01 5.135377e+01 9.079252e+01 1.137391e+02 6.273113e+01 1.123469e+02 8.004408e+01 5.494603e+01 5.780614e+01 5.458751e+01 3.638555e+01 1.627955e+02 1.513149e+00 2.928807e+00 2.251102e+00 2.836455e+00 3.308713e+00 2.702038e+00 2.690328e+00 4.425689e+00 2.731961e+00 2.340363e+00 2.739047e+00 1.889899e+00 2.021877e+00 2.610132e-01 4.644499e-01 3.664516e-01 4.965715e-01 5.887649e-01 4.843926e-01 4.921398e-01 7.414010e-01 4.983568e-01 4.267727e-01 4.950314e-01 3.502393e-01 3.125396e-01
<GCONST> 1.289966e+02
<STATE> 3
<MEAN> 39
 7.249904e-01 -5.240144e+00 -2.243841e+00 -2.833477e+00 -8.572319e+00 -4.653774e+00 -8.430261e+00 -4.619540e+00 -5.187716e+00 -6.652024e+00 -6.783459e+00 -5.066557e+00 6.755568e+01 -1.192189e-01 3.770438e-01 1.224993e-01 1.853090e-01 1.365953e-01 9.580821e-02 1.086935e-01 -5.611754e-02 -3.811871e-02 3.016529e-03 1.065385e-02 2.390533e-02 -3.772175e-01 -9.015653e-02 -9.740700e-02 -2.395095e-02 -1.110351e-01 6.577138e-02 -1.984069e-02 2.298625e-02 6.282356e-02 1.888196e-02 4.768614e-02 6.050932e-02 3.609064e-02 7.938070e-02
<VARIANCE> 39
 5.797298e+01 8.217606e+01 5.082462e+01 8.951354e+01 1.127390e+02 6.074115e+01 1.075297e+02 7.760662e+01 5.270189e+01 5.653028e+01 5.261119e+01 3.581885e+01 1.649433e+02 1.738069e+00 2.851756e+00 2.206153e+00 2.813454e+00 3.239744e+00 2.584342e+00 2.636308e+00 4.104223e+00 2.665622e+00 2.292310e+00 2.703435e+00 1.830175e+00 2.120880e+00 2.630963e-01 4.462857e-01 3.667826e-01 4.965648e-01 5.970533e-01 4.750980e-01 4.929113e-01 7.064127e-01 4.820533e-01 4.236045e-01 4.786361e-01 3.429786e-01 3.021096e-01
<GCONST> 1.284173e+02
<STATE> 4
<MEAN> 39
 -2.409206e+00 -4.110799e+00 -3.530065e+00 -1.687454e+00 -5.965551e+00 -3.917069e+00 -6.568331e+00 -2.886985e+00 -4.848164e+00 -5.850585e+00 -5.400252e+00 -3.654267e+00 6.238082e+01 -2.403314e-01 1.221810e-01 3.602099e-02 4.367215e-03 1.378036e-01 6.700304e-02 9.324784e-02 4.188943e-02 1.635283e-02 8.365685e-02 9.624481e-02 7.495597e-02 -2.391928e-01 -5.343546e-02 -8.774627e-02 -1.153452e-02 -8.869591e-02 2.018118e-02 -3.070783e-02 -6.404836e-04 3.053844e-02 1.575850e-02 2.101488e-02 3.056526e-02 1.501895e-02 9.228881e-02
<VARIANCE> 39
 7.230602e+01 6.802802e+01 4.753735e+01 7.797971e+01 8.941897e+01 5.216279e+01 8.015124e+01 6.917098e+01 4.546893e+01 4.835990e+01 4.920790e+01 3.568715e+01 1.954085e+02 1.402265e+00 2.007169e+00 1.684424e+00 2.161672e+00 2.519768e+00 2.202989e+00 2.216195e+00 2.884259e+00 2.280499e+00 2.019539e+00 2.249900e+00 1.590023e+00 1.523429e+00 2.100266e-01 3.427197e-01 2.830850e-01 3.881149e-01 4.498209e-01 3.886099e-01 4.097624e-01 5.281029e-01 4.218497e-01 3.778898e-01 4.009797e-01 3.037513e-01 2.264624e-01
<GCONST> 1.214835e+02
<TRANSP> 5
 0.000000e+00 1.000000e+00 0.000000e+00 0.000000e+00 0.000000e+00
 0.000000e+00 3.742141e-01 6.257858e-01 0.000000e+00 0.000000e+00
 0.000000e+00 0.000000e+00 3.730230e-01 6.269770e-01 0.000000e+00
 0.000000e+00 0.000000e+00 0.000000e+00 6.280894e-01 3.719107e-01
 0.000000e+00 0.000000e+00 0.000000e+00 0.000000e+00 0.000000e+00
<ENDHMM>
~h "o"
<BEGINHMM>
<NUMSTATES> 5
<STATE> 2
<MEAN> 39
 -5.328850e-01 -2.760653e+00 -6.821329e+00 -1.199837e+01 -3.716408e+00 -2.501525e+00 -5.393057e+00 -6.120206e+00 -3.522462e+00 -3.100458e+00 -1.977509e+00 -4.836271e+00 6.537264e+01 4.975792e-01 -1.450453e-01 -2.080614e-01 -8.714399e-01 9.112182e-02 6.039372e-02 2.531047e-02 -1.912850e-01 -4.017954e-02 1.186531e-02 1.369464e-01 -1.156572e-01 7.927394e-01 6.658179e-02 -2.617090e-02 9.361614e-02 9.656185e-02 -4.883970e-02 -9.404556e-02 -3.137966e-02 -2.781533e-02 3.486134e-04 -3.194897e-02 -1.363930e-02 -1.775331e-02 8.807422e-02
<VARIANCE> 39
 9.733241e+01 7.604071e+01 9.274625e+01 1.504053e+02 1.211357e+02 1.094798e+02 1.096939e+02 9.011086e+01 6.794688e+01 5.680896e+01 8.081218e+01 4.011469e+01 1.354079e+02 7.779840e+00 3.860738e+00 6.489061e+00 8.723572e+00 6.799386e+00 7.091372e+00 4.640055e+00 6.089698e+00 5.340717e+00 4.191744e+00 5.218394e+00 3.198211e+00 4.862758e+00 1.204438e+00 6.599339e-01 1.020194e+00 1.495296e+00 1.191851e+00 1.108708e+00 8.240246e-01 1.074905e+00 9.095809e-01 7.461497e-01 8.595016e-01 5.743222e-01 7.557200e-01
<GCONST> 1.512087e+02
<STATE> 3
<MEAN> 39
 1.145570e+00 -3.179387e+00 -6.471380e+00 -1.356590e+01 -3.629757e+00 -3.539796e+00 -5.441099e+00 -6.713544e+00 -3.332195e+00 -3.198431e+00 -1.401911e+00 -5.290413e+00 6.817800e+01 4.233782e-01 -1.733258e-01 1.170772e-01 -6.515527e-02 -1.714459e-01 -3.923208e-01 -9.697358e-02 -1.176956e-01 -5.100702e-03 -2.101468e-02 7.805626e-02 -1.079157e-01 5.672578e-01 -5.674310e-02 -1.142385e-03 9.880789e-02 2.670630e-01 -6.499026e-02 -6.663473e-02 -6.230916e-03 3.839357e-02 -1.085916e-02 -3.485022e-02 -4.368304e-02 1.151019e-02 -1.222923e-01
<VARIANCE> 39
 8.519696e+01 8.249745e+01 1.009082e+02 1.451505e+02 1.375886e+02 1.269377e+02 1.140044e+02 9.240311e+01 7.246989e+01 6.250799e+01 9.242646e+01 3.843537e+01 1.041914e+02 7.123653e+00 4.032294e+00 6.011912e+00 8.136348e+00 7.699058e+00 7.964281e+00 4.500907e+00 5.892845e+00 4.885165e+00 4.276439e+00 4.727807e+00 2.934822e+00 4.448678e+00 1.148394e+00 6.827793e-01 9.306219e-01 1.389024e+00 1.342950e+00 1.137671e+00 8.310570e-01 1.043268e+00 8.402466e-01 7.468380e-01 7.921309e-01 5.490235e-01 6.508464e-01
<GCONST> 1.507679e+02
<STATE> 4
<MEAN> 39
 2.452881e+00 -3.438787e+00 -7.304345e+00 -1.160242e+01 -5.038897e+00 -4.504728e+00 -4.657810e+00 -6.504077e+00 -3.640244e+00 -3.322240e+00 -2.318716e+00 -4.822037e+00 6.840669e+01 -3.440537e-03 -5.865129e-02 3.695852e-01 5.877773e-01 -3.187450e-01 -2.798206e-01 -6.634574e-02 5.378636e-02 -1.621216e-01 -1.303919e-01 -1.179661e-01 6.632369e-03 -1.377484e-01 -1.249235e-01 6.747553e-03 9.071519e-02 8.594869e-02 1.137938e-02 1.897617e-02 7.302196e-03 1.298962e-02 -4.132160e-03 -5.780259e-03 -1.643048e-02 2.685512e-02 -1.122034e-01
<VARIANCE> 39
 7.106203e+01 8.478707e+01 8.922662e+01 1.133022e+02 1.139404e+02 1.256819e+02 1.110609e+02 8.342474e+01 6.217815e+01 6.106060e+01 8.560503e+01 3.469292e+01 1.190107e+02 4.016402e+00 3.354449e+00 3.977334e+00 4.966673e+00 5.079839e+00 5.801617e+00 3.532634e+00 4.051575e+00 3.548299e+00 3.158299e+00 3.416339e+00 2.292360e+00 3.050785e+00 6.020222e-01 5.610983e-01 6.007022e-01 8.426977e-01 8.695646e-01 8.697190e-01 6.012512e-01 6.973065e-01 6.289942e-01 5.703245e-01 5.881201e-01 4.239032e-01 4.828443e-01
<GCONST> 1.404845e+02
<TRANSP> 5
 0.000000e+00 1.000000e+00 0.000000e+00 0.000000e+00 0.000000e+00
 0.000000e+00 6.225184e-01 3.774816e-01 0.000000e+00 0.000000e+00
 0.000000e+00 0.000000e+00 6.158026e-01 3.841974e-01 0.000000e+00
 0.000000e+00 0.000000e+00 0.000000e+00 5.692652e-01 4.307347e-01
 0.000000e+00 0.000000e+00 0.000000e+00 0.000000e+00 0.000000e+00
<ENDHMM>
~h "p"
<BEGINHMM>
<NUMSTATES> 5
<STATE> 2
<MEAN> 39
 -3.689386e+00 -5.596128e+00 -4.791842e+00 -7.051419e+00 -8.027603e+00 -3.232981e+00 -1.214336e+01 -6.294338e+00 -3.464688e+00 -3.795381e+00 -3.618502e+00 -5.008942e+00 6.423227e+01 4.354578e-01 -4.155810e-01 -2.131870e-01 -4.786028e-01 -2.895876e-02 -2.118334e-01 -8.714109e-02 -2.940529e-02 7.421769e-02 1.307941e-01 1.236717e-01 -4.897416e-02 1.009554e+00 1.712638e-01 -1.091993e-01 -7.821951e-03 -1.025412e-01 -6.530733e-02 -4.454833e-02 -2.305286e-02 -6.298664e-03 -1.796705e-02 -3.318778e-02 -3.128583e-02 -3.138507e-02 2.736505e-01
<VARIANCE> 39
 9.197780e+01 7.916514e+01 7.551318e+01 9.749066e+01 1.156278e+02 8.171458e+01 1.350929e+02 9.287482e+01 6.337531e+01 6.928828e+01 5.610571e+01 4.771440e+01 1.511923e+02 7.299827e+00 5.797544e+00 6.180765e+00 6.727690e+00 7.911790e+00 6.779623e+00 5.982562e+00 6.646435e+00 5.497514e+00 4.951634e+00 5.119705e+00 3.934747e+00 9.582869e+00 1.240063e+00 1.076430e+00 1.009307e+00 1.264898e+00 1.415603e+00 1.258430e+00 1.111341e+00 1.241780e+00 1.013777e+00 9.470233e-01 9.712902e-01 7.728325e-01 1.696528e+00
<GCONST> 1.547023e+02
<STATE> 3
<MEAN> 39
 -1.171807e+00 -7.354843e+00 -4.888593e+00 -8.618444e+00 -9.156697e+00 -3.580045e+00 -1.307741e+01 -6.856517e+00 -3.319629e+00 -3.700972e+00 -3.178604e+00 -5.349104e+00 6.852177e+01 5.600366e-01 -4.494116e-01 -8.605227e-02 -4.280106e-01 -1.797388e-01 -2.367778e-01 -7.421324e-02 -2.609218e-02 3.182139e-02 -4.558666e-02 -5.033524e-02 -7.870679e-02 1.002485e+00 2.040314e-03 5.473647e-02 6.353869e-02 7.106256e-02 -1.697083e-02 1.237218e-02 1.786040e-02 1.722794e-02 -1.077547e-02 -5.807428e-02 -6.752034e-02 -1.002635e-02 -7.691637e-02
<VARIANCE> 39
 8.224256e+01 7.839228e+01 8.363705e+01 1.070736e+02 1.366934e+02 9.974983e+01 1.515898e+02 1.009132e+02 7.214197e+01 7.447497e+01 6.374521e+01 4.938269e+01 1.097182e+02 7.218986e+00 6.354484e+00 6.456563e+00 7.055784e+00 8.692532e+00 7.949567e+00 6.256493e+00 7.240905e+00 6.009658e+00 5.132692e+00 5.645137e+00 4.344184e+00 8.898269e+00 1.268599e+00 1.142953e+00 1.039699e+00 1.295748e+00 1.550166e+00 1.422102e+00 1.164970e+00 1.350155e+00 1.084193e+00 9.891961e-01 1.039293e+00 8.503851e-01 1.539563e+00
<GCONST> 1.568451e+02
<STATE> 4
<MEAN> 39
 1.075808e+00 -7.084817e+00 -5.538570e+00 -8.106108e+00 -7.232219e+00 -5.330529e+00 -7.903911e+00 -4.933722e+00 -2.870686e+00 -3.690010e+00 -3.821877e+00 -4.570395e+00 7.024228e+01 3.813109e-01 -1.757343e-01 1.142760e-01 -1.561038e-01 -1.806709e-01 -1.836806e-01 -2.742009e-02 2.686904e-02 -3.101787e-02 -1.873807e-01 -2.288873e-01 -6.039009e-02 5.297915e-01 -1.562035e-01 1.457784e-01 6.545682e-02 1.305196e-01 5.702670e-02 7.036889e-02 2.763802e-02 1.230208e-02 -2.136403e-02 -2.134540e-02 -1.023410e-02 1.157507e-02 -2.883900e-01
<VARIANCE> 39
 6.490814e+01 8.102414e+01 8.339649e+01 1.080622e+02 1.219545e+02 1.025868e+02 1.280865e+02 9.169326e+01 7.341727e+01 6.691042e+01 6.437762e+01 4.238291e+01 1.155014e+02 5.112128e+00 4.867000e+00 4.729653e+00 5.939269e+00 6.187980e+00 6.362799e+00 4.522514e+00 5.032213e+00 4.783442e+00 3.808338e+00 4.381109e+00 3.245424e+00 5.773718e+00 8.588936e-01 8.882198e-01 7.969955e-01 1.032083e+00 1.102780e+00 1.131613e+00 8.405803e-01 9.261460e-01 8.472115e-01 7.109826e-01 8.053491e-01 6.349078e-01 9.594571e-01
<GCONST> 1.482608e+02
<TRANSP> 5
 0.000000e+00 1.000000e+00 0.000000e+00 0.000000e+00 0.000000e+00
 0.000000e+00 7.408471e-01 2.591529e-01 0.000000e+00 0.000000e+00
 0.000000e+00 0.000000e+00 7.402083e-01 2.597917e-01 0.000000e+00
 0.000000e+00 0.000000e+00 0.000000e+00 5.160735e-01 4.839266e-01
 0.000000e+00 0.000000e+00 0.000000e+00 0.000000e+00 0.000000e+00
<ENDHMM>
~h "q"
<BEGINHMM>
<NUMSTATES> 5
<STATE> 2
<MEAN> 39
 -3.415696e+00 -1.389542e+01 -4.199650e+00 -8.219054e+00 -6.315479e+00 -1.542398e+00 -1.383133e+00 -2.794582e+00 -9.068976e+00 -9.108082e+00 -6.966963e+00 -2.643259e+00 6.362023e+01 -6.514131e-02 1.575878e-01 -1.605401e-01 -4.197396e-03 2.978129e-01 4.428403e-02 -2.679099e-02 6.432477e-02 7.538151e-02 -1.444618e-01 8.815738e-02 2.468966e-03 -1.730789e-01 9.438813e-03 6.306428e-02 4.179148e-03 2.362819e-02 -1.046381e-02 -5.844405e-02 -2.775917e-02 -2.855668e-03 -3.148811e-04 -2.491915e-04 -6.717023e-03 -1.909065e-03 -1.585472e-02
<VARIANCE> 39
 5.160162e+01 1.304142e+02 4.286637e+01 9.103039e+01 4.708005e+01 3.885040e+01 4.724031e+01 4.004471e+01 3.629531e+01 5.189912e+01 3.159322e+01 2.285009e+01 6.868741e+01 1.162938e+00 2.460082e+00 1.378612e+00 3.019300e+00 2.112654e+00 1.846117e+00 1.384284e+00 1.424503e+00 2.090363e+00 2.378408e+00 1.821413e+00 1.778276e+00 1.348857e+00 1.739342e-01 2.923431e-01 2.443146e-01 4.361005e-01 3.517314e-01 2.736524e-01 2.162994e-01 2.580883e-01 4.288577e-01 4.131472e-01 3.076000e-01 3.177506e-01 1.487646e-01
<GCONST> 1.133597e+02
<STATE> 3
<MEAN> 39
 -3.593194e+00 -1.138005e+01 -4.729208e+00 -5.691721e+00 -5.164154e+00 -2.308473e+00 -7.547369e-01 -2.152538e+00 -9.372327e+00 -8.913033e+00 -5.470560e+00 -1.845352e+00 6.328347e+01 -3.424278e-01 3.724255e-01 -9.888790e-02 2.356423e-01 2.154517e-01 4.798846e-02 1.210076e-02 8.287125e-02 1.291238e-01 1.250013e-02 1.387202e-01 6.699726e-02 -5.197647e-01 -2.905652e-03 2.970355e-03 3.669706e-02 3.023396e-03 -4.955691e-02 -1.554891e-02 -1.268401e-02 -3.714898e-03 -2.223787e-03 5.471982e-02 1.692886e-02 1.766644e-02 -7.079577e-03
<VARIANCE> 39
 5.446096e+01 1.155924e+02 5.065766e+01 9.218321e+01 5.076216e+01 3.523454e+01 4.524518e+01 5.232463e+01 4.452847e+01 6.746050e+01 2.912820e+01 2.469962e+01 6.689967e+01 1.320891e+00 2.177336e+00 1.609187e+00 2.996224e+00 2.145107e+00 1.795536e+00 1.792909e+00 1.636219e+00 2.237682e+00 2.366251e+00 1.786939e+00 1.549261e+00 1.305562e+00 1.908192e-01 2.669158e-01 2.424626e-01 4.406583e-01 3.504224e-01 3.062183e-01 2.926899e-01 2.722601e-01 3.938285e-01 4.772555e-01 3.206133e-01 3.107388e-01 1.299927e-01
<GCONST> 1.149341e+02
<STATE> 4
<MEAN> 39
 -7.251333e+00 -5.870193e+00 -5.651952e+00 -3.432574e+00 -2.116632e-01 -2.981245e+00 -3.199158e+00 1.361069e+00 -5.228455e+00 -4.898704e+00 -4.285533e-01 1.736618e+00 5.446515e+01 -2.903540e-02 8.613662e-03 -5.034783e-02 1.679828e-02 1.809730e-03 2.631072e-03 6.239893e-03 -1.634930e-02 2.255110e-02 2.743294e-02 1.081539e-02 -9.034026e-03 -6.657563e-02 1.695300e-02 -6.886126e-03 -1.702624e-03 -4.895041e-03 7.396186e-04 -7.990300e-03 -6.736347e-03 -6.217942e-03 -4.137024e-03 -3.496425e-03 -7.952780e-03 -6.653218e-03 2.657508e-02
<VARIANCE> 39
 2.558928e+01 2.088645e+01 4.430486e+01 2.971425e+01 4.543682e+01 2.165132e+01 4.206877e+01 2.587528e+01 2.387423e+01 2.782928e+01 2.170775e+01 1.947460e+01 5.411279e+01 6.228106e-01 8.353973e-01 1.056082e+00 9.596446e-01 1.648973e+00 1.322640e+00 1.661797e+00 1.512316e+00 1.739651e+00 1.582696e+00 1.474535e+00 1.203454e+00 7.127754e-01 1.186662e-01 1.513769e-01 1.802707e-01 1.782371e-01 3.103546e-01 2.511396e-01 2.934438e-01 2.837900e-01 3.543856e-01 3.073946e-01 2.953069e-01 2.401311e-01 9.812869e-02
<GCONST> 9.819151e+01
<TRANSP> 5
 0.000000e+00 1.000000e+00 0.000000e+00 0.000000e+00 0.000000e+00
 0.000000e+00 8.962414e-01 1.037586e-01 0.000000e+00 0.000000e+00
 0.000000e+00 0.000000e+00 8.412979e-01 1.587021e-01 0.000000e+00
 0.000000e+00 0.000000e+00 0.000000e+00 9.856018e-01 1.439819e-02
 0.000000e+00 0.000000e+00 0.000000e+00 0.000000e+00 0.000000e+00
<ENDHMM>
~h "r"
<BEGINHMM>
<NUMSTATES> 5
<STATE> 2
<MEAN> 39
 3.741982e-01 -8.087723e+00 -5.554058e+00 -4.618951e+00 -8.487498e+00 -5.217232e+00 -8.558412e+00 -4.041081e+00 -3.637415e+00 -4.728307e+00 -3.749228e+00 -3.711731e+00 7.148489e+01 5.670118e-02 -7.409393e-02 6.947214e-02 1.128425e-01 -1.634837e-01 4.455779e-02 -1.239833e-01 -3.490230e-02 -4.472455e-02 2.374103e-03 1.136355e-01 3.191154e-02 -2.674543e-02 -4.983528e-02 6.319424e-02 6.344230e-02 -2.902742e-02 2.560181e-02 2.660397e-02 1.554666e-02 -6.272262e-03 -5.065500e-02 -3.213868e-03 -8.152457e-03 -2.609401e-02 -6.151700e-02
<VARIANCE> 39
 7.304081e+01 7.743911e+01 6.530699e+01 8.852876e+01 1.070786e+02 8.264645e+01 1.215021e+02 9.275541e+01 8.751524e+01 6.320535e+01 5.217062e+01 3.993648e+01 1.417391e+02 3.393211e+00 3.672981e+00 3.088310e+00 3.121149e+00 4.275702e+00 3.867181e+00 3.352261e+00 4.433988e+00 4.233253e+00 3.316358e+00 3.274788e+00 2.533026e+00 3.133816e+00 5.738927e-01 6.379492e-01 4.976734e-01 5.669568e-01 7.584237e-01 6.883531e-01 6.013423e-01 7.976031e-01 7.795557e-01 6.262304e-01 5.957056e-01 4.852218e-01 5.129213e-01
<GCONST> 1.385243e+02
<STATE> 3
<MEAN> 39
 5.539603e-01 -8.143276e+00 -5.356584e+00 -4.514075e+00 -8.775500e+00 -5.119297e+00 -8.763067e+00 -4.115768e+00 -3.820999e+00 -4.765481e+00 -3.581529e+00 -3.711051e+00 7.144203e+01 -2.279794e-02 6.782202e-02 1.645251e-01 4.867749e-02 -9.471507e-02 8.247327e-02 -6.234243e-02 -4.107488e-02 -1.293935e-01 -3.026461e-03 7.008982e-02 -1.843088e-02 -1.447974e-01 -5.803222e-02 7.040650e-02 5.134962e-02 -3.828422e-02 5.124076e-02 8.450392e-03 3.989910e-02 -1.471944e-02 -3.649312e-02 -2.987638e-03 -3.717480e-02 -2.180342e-02 -5.093645e-02
<VARIANCE> 39
 7.313519e+01 7.808602e+01 6.897937e+01 8.660391e+01 1.090978e+02 8.262535e+01 1.249573e+02 9.313074e+01 8.818915e+01 6.313017e+01 5.205972e+01 3.925013e+01 1.416121e+02 3.064331e+00 3.425818e+00 2.951005e+00 2.964543e+00 4.204894e+00 3.628077e+00 3.280100e+00 4.479435e+00 4.082210e+00 3.284065e+00 3.127301e+00 2.440801e+00 2.860868e+00 5.054531e-01 5.952685e-01 4.816803e-01 5.405115e-01 7.341610e-01 6.580418e-01 5.808959e-01 7.892549e-01 7.448437e-01 6.071228e-01 5.664434e-01 4.663499e-01 4.608431e-01
<GCONST> 1.373492e+02
<STATE> 4
<MEAN> 39
 6.219759e-01 -7.186374e+00 -5.668418e+00 -3.710577e+00 -8.026974e+00 -5.249228e+00 -7.397908e+00 -3.382111e+00 -4.542073e+00 -4.243417e+00 -3.185876e+00 -3.363350e+00 7.079436e+01 -1.622256e-01 1.792569e-01 2.207034e-01 1.648900e-02 4.998906e-03 1.045716e-01 2.258928e-02 -7.922488e-02 -1.258646e-01 1.040978e-03 -2.708849e-02 -3.520739e-02 -2.507421e-01 -4.077049e-02 2.983802e-02 3.670498e-02 -3.350201e-02 3.720592e-02 -1.818478e-02 1.864603e-02 -1.375885e-02 -7.227141e-03 -1.448186e-02 -4.410790e-02 -6.955220e-03 6.176992e-03
<VARIANCE> 39
 7.377351e+01 7.255260e+01 7.062779e+01 8.851502e+01 1.001640e+02 7.811481e+01 1.109485e+02 8.972422e+01 8.377834e+01 5.747452e+01 5.085283e+01 3.747426e+01 1.578299e+02 2.359360e+00 2.800272e+00 2.563793e+00 2.681837e+00 3.545466e+00 3.150767e+00 2.925297e+00 3.732057e+00 3.501895e+00 2.879041e+00 2.685987e+00 2.121684e+00 2.197403e+00 3.916732e-01 4.745212e-01 4.146482e-01 4.785672e-01 6.019846e-01 5.746117e-01 5.135306e-01 6.542713e-01 6.258957e-01 5.222619e-01 4.854625e-01 3.976319e-01 3.748623e-01
<GCONST> 1.325290e+02
<TRANSP> 5
 0.000000e+00 1.000000e+00 0.000000e+00 0.000000e+00 0.000000e+00
 0.000000e+00 3.571985e-01 6.428015e-01 0.000000e+00 0.000000e+00
 0.000000e+00 0.000000e+00 3.526224e-01 6.473776e-01 0.000000e+00
 0.000000e+00 0.000000e+00 0.000000e+00 4.430495e-01 5.569505e-01
 0.000000e+00 0.000000e+00 0.000000e+00 0.000000e+00 0.000000e+00
<ENDHMM>
~h "s"
<BEGINHMM>
<NUMSTATES> 5
<STATE> 2
<MEAN> 39
 -1.118361e+01 -1.450022e+00 3.533530e-02 -6.503703e+00 -4.686522e-01 -8.391142e+00 -3.660892e+00 -2.194024e+00 -4.037683e+00 -4.357723e+00 -2.401000e+00 -2.682363e+00 6.813181e+01 -1.491616e+00 1.856581e-01 2.643021e-01 -3.171550e-01 5.431075e-01 -2.192131e-01 4.734771e-01 2.112490e-01 2.291454e-01 1.994871e-02 4.803577e-01 2.180699e-01 1.615330e-01 3.422134e-01 -1.748662e-01 -1.238903e-01 -9.780301e-03 -2.405003e-01 3.229000e-02 -1.498716e-01 -8.085129e-02 -1.162138e-03 -1.943314e-02 -4.195493e-02 -4.241045e-02 6.137322e-02
<VARIANCE> 39
 1.389728e+02 1.112464e+02 8.545184e+01 1.371789e+02 1.786566e+02 1.279897e+02 1.112277e+02 7.486623e+01 8.147748e+01 5.756474e+01 5.413974e+01 4.253486e+01 1.083647e+02 1.074182e+01 6.105170e+00 5.777196e+00 4.100636e+00 7.199365e+00 5.291398e+00 4.400059e+00 4.473530e+00 4.183200e+00 3.599816e+00 3.676574e+00 2.875655e+00 1.833157e+00 1.490946e+00 8.518345e-01 7.887824e-01 6.576763e-01 1.010618e+00 8.492354e-01 7.298090e-01 7.847006e-01 7.387831e-01 6.530524e-01 6.678380e-01 5.114510e-01 2.776956e-01
<GCONST> 1.460704e+02
<STATE> 3
<MEAN> 39
 -1.268706e+01 -2.416428e+00 5.398965e-02 -6.811732e+00 -1.013546e+00 -8.413280e+00 -3.170112e+00 -2.275414e+00 -3.513422e+00 -4.234574e+00 -1.570295e+00 -2.289726e+00 6.897359e+01 5.809917e-01 -3.028097e-01 -2.467418e-01 -8.560435e-02 -4.663297e-01 -1.063887e-01 -2.113286e-01 -1.959408e-01 6.321000e-02 2.100622e-02 8.852035e-03 -3.930138e-02 2.174086e-01 5.607269e-01 -7.659937e-02 -1.047047e-01 3.408134e-02 -1.813961e-01 6.959301e-03 -1.796811e-01 -1.086800e-01 -5.824172e-02 -2.091086e-02 -1.355617e-01 -8.233010e-02 3.474046e-02
<VARIANCE> 39
 1.334574e+02 1.183146e+02 9.470017e+01 1.324812e+02 1.734786e+02 1.343839e+02 1.000867e+02 7.545025e+01 8.423988e+01 5.640246e+01 4.729977e+01 4.342187e+01 1.009118e+02 1.290216e+01 5.511647e+00 5.793721e+00 3.532276e+00 6.047128e+00 4.391782e+00 4.559392e+00 4.885317e+00 4.400420e+00 3.676121e+00 3.637162e+00 2.914223e+00 2.105503e+00 1.497577e+00 8.468521e-01 7.998568e-01 5.809476e-01 9.075772e-01 7.780774e-01 7.700334e-01 8.087687e-01 7.441102e-01 6.546103e-01 6.268164e-01 4.989530e-01 3.218659e-01
<GCONST> 1.456648e+02
<STATE> 4
<MEAN> 39
 -9.533615e+00 -3.667982e+00 -1.428632e+00 -4.598824e+00 -3.140314e+00 -7.050533e+00 -3.271056e+00 -1.986032e+00 -3.822574e+00 -3.471651e+00 -1.415459e+00 -1.617188e+00 6.729256e+01 1.347843e+00 -2.723734e-01 -2.870264e-01 1.007552e-02 -5.149184e-01 -1.415019e-02 -4.666798e-01 -2.824441e-01 -9.186479e-02 -4.692281e-02 -2.387106e-01 -1.584333e-01 1.024944e-01 9.439957e-02 1.194759e-02 1.633210e-02 -9.726423e-04 2.640061e-02 2.432981e-02 -4.269701e-02 -9.065131e-03 -3.191078e-02 -1.461178e-02 -4.601964e-02 -3.403890e-02 -3.563225e-03
<VARIANCE> 39
 1.283521e+02 9.336396e+01 8.965244e+01 1.256131e+02 1.375951e+02 1.187059e+02 8.825152e+01 8.211433e+01 8.130002e+01 5.406290e+01 5.199265e+01 4.400311e+01 1.311826e+02 7.729871e+00 4.467613e+00 4.122971e+00 3.327763e+00 4.282921e+00 3.727998e+00 3.841581e+00 4.125656e+00 3.663285e+00 3.203312e+00 3.005054e+00 2.468565e+00 2.382454e+00 1.154580e+00 6.314810e-01 5.982887e-01 5.059029e-01 6.560217e-01 6.281594e-01 6.423106e-01 6.555389e-01 6.351337e-01 5.248390e-01 5.310064e-01 4.143847e-01 3.501032e-01
<GCONST> 1.400916e+02
<TRANSP> 5
 0.000000e+00 1.000000e+00 0.000000e+00 0.000000e+00 0.000000e+00
 0.000000e+00 6.736006e-01 3.263994e-01 0.000000e+00 0.000000e+00
 0.000000e+00 0.000000e+00 6.431355e-01 3.568645e-01 0.000000e+00
 0.000000e+00 0.000000e+00 0.000000e+00 6.279346e-01 3.720654e-01
 0.000000e+00 0.000000e+00 0.000000e+00 0.000000e+00 0.000000e+00
<ENDHMM>
~h "t"
<BEGINHMM>
<NUMSTATES> 5
<STATE> 2
<MEAN> 39
 -3.540911e+00 -4.549956e+00 -3.923818e+00 -3.910336e+00 -6.987740e+00 -5.732228e+00 -6.606203e+00 -3.854494e+00 -4.618368e+00 -4.497122e+00 -4.180338e+00 -3.170110e+00 6.403371e+01 -2.093898e-01 -1.761867e-01 -1.705777e-01 -1.550833e-01 8.906420e-02 -2.013012e-02 5.883050e-02 5.567479e-02 4.550643e-02 1.072788e-01 1.123373e-01 1.201974e-01 1.637886e-02 1.200707e-01 -1.844402e-01 -8.467413e-03 -1.768569e-01 -4.457545e-02 -4.767827e-02 -2.103140e-02 1.278015e-02 -2.459830e-02 -1.600437e-02 -2.901840e-02 -1.520678e-02 3.369446e-01
<VARIANCE> 39
 6.551610e+01 6.244548e+01 4.940940e+01 9.664076e+01 8.252459e+01 6.850248e+01 8.433652e+01 7.189964e+01 5.568447e+01 5.527581e+01 4.399553e+01 3.430816e+01 1.634621e+02 4.204423e+00 4.443868e+00 2.956947e+00 4.177041e+00 4.140844e+00 4.292963e+00 3.324724e+00 3.878897e+00 3.952093e+00 3.053020e+00 3.175112e+00 2.455182e+00 6.067988e+00 7.409391e-01 7.663158e-01 5.163007e-01 7.466740e-01 7.843643e-01 7.806469e-01 6.349631e-01 7.267088e-01 7.469287e-01 5.864937e-01 6.114555e-01 4.751503e-01 9.985452e-01
<GCONST> 1.386402e+02
<STATE> 3
<MEAN> 39
 -3.341673e+00 -5.401911e+00 -4.340336e+00 -4.683865e+00 -7.035469e+00 -5.957500e+00 -6.526588e+00 -3.699435e+00 -4.644485e+00 -4.393308e+00 -4.084356e+00 -3.031388e+00 6.527551e+01 1.524135e-01 -4.276841e-01 -1.379234e-01 -3.974160e-01 -4.264689e-02 -7.055569e-02 1.690030e-02 5.493022e-02 -2.852947e-02 1.541996e-02 -1.110335e-02 4.440857e-02 5.877123e-01 1.383259e-01 -6.989322e-02 4.795017e-02 -7.602739e-02 -3.557726e-02 5.405662e-03 -4.841744e-02 -4.049096e-03 -2.441514e-02 -4.954701e-02 -4.601024e-02 -4.247751e-02 1.844232e-01
<VARIANCE> 39
 6.519793e+01 6.689983e+01 4.887809e+01 1.031176e+02 8.038599e+01 6.732481e+01 8.249548e+01 6.928584e+01 5.659346e+01 5.442205e+01 4.287328e+01 3.408272e+01 1.652505e+02 4.750582e+00 4.823974e+00 3.332066e+00 4.534922e+00 4.295861e+00 4.479443e+00 3.668076e+00 4.174926e+00 4.362406e+00 3.266636e+00 3.324915e+00 2.640439e+00 6.870587e+00 8.112801e-01 7.866318e-01 5.568484e-01 7.787005e-01 8.170585e-01 7.948369e-01 6.756377e-01 7.564871e-01 7.832974e-01 6.181530e-01 6.307139e-01 4.854377e-01 1.042562e+00
<GCONST> 1.402924e+02
<STATE> 4
<MEAN> 39
 -3.349478e+00 -5.566732e+00 -4.978150e+00 -4.511444e+00 -6.584522e+00 -5.544873e+00 -5.889511e+00 -2.977600e+00 -4.780932e+00 -4.364140e+00 -3.947676e+00 -2.686183e+00 6.452774e+01 1.595946e-01 -3.015989e-01 1.547516e-02 -2.952874e-01 -3.215384e-02 9.449976e-03 -7.498848e-02 2.383886e-02 -3.435299e-02 -3.668333e-02 -4.106878e-02 -3.076905e-02 4.396579e-01 7.551510e-02 9.668945e-03 5.891846e-02 -2.960717e-02 -1.306978e-02 2.148821e-03 -6.574105e-02 -2.009193e-02 -1.281455e-02 -3.835324e-02 -1.323262e-02 -3.816113e-02 7.798798e-02
<VARIANCE> 39
 6.703427e+01 6.474023e+01 4.779609e+01 1.077268e+02 7.214433e+01 6.065308e+01 7.307166e+01 6.758833e+01 5.481477e+01 5.098487e+01 4.108612e+01 3.275332e+01 1.863272e+02 3.668803e+00 3.607568e+00 2.934332e+00 3.868368e+00 3.755860e+00 3.803777e+00 3.301957e+00 3.511265e+00 3.615530e+00 2.838185e+00 2.937665e+00 2.327202e+00 4.807446e+00 6.088011e-01 5.914565e-01 4.627006e-01 6.453801e-01 6.628116e-01 6.578335e-01 5.646060e-01 6.403352e-01 6.614463e-01 5.386903e-01 5.390167e-01 4.275353e-01 7.651649e-01
<GCONST> 1.349538e+02
<TRANSP> 5
 0.000000e+00 1.000000e+00 0.000000e+00 0.000000e+00 0.000000e+00
 0.000000e+00 4.366788e-01 5.633212e-01 0.000000e+00 0.000000e+00
 0.000000e+00 0.000000e+00 4.179924e-01 5.820076e-01 0.000000e+00
 0.000000e+00 0.000000e+00 0.000000e+00 5.004761e-01 4.995240e-01
 0.000000e+00 0.000000e+00 0.000000e+00 0.000000e+00 0.000000e+00
<ENDHMM>
~h "u"
<BEGINHMM>
<NUMSTATES> 5
<STATE> 2
<MEAN> 39
 2.413403e-01 -2.865550e+00 -3.666215e+00 -8.801982e+00 -8.490341e+00 -2.917712e+00 -1.201452e+01 -6.756353e+00 -4.758113e+00 -5.305721e+00 -2.563266e+00 -3.598958e+00 6.629646e+01 4.255260e-01 -1.194051e-01 -8.183470e-02 -6.119449e-01 -5.253842e-03 8.581425e-03 -3.970458e-01 -1.337122e-01 -9.972851e-02 1.461808e-02 1.922560e-01 -3.625966e-02 6.617540e-01 -1.020183e-02 -1.287470e-02 1.295883e-02 8.846714e-02 3.989780e-02 -3.726056e-02 6.016918e-02 8.865050e-03 1.089136e-02 1.770084e-02 -4.873422e-02 -4.698074e-02 -1.173593e-02
<VARIANCE> 39
 8.376925e+01 8.764859e+01 6.122818e+01 1.544082e+02 1.450660e+02 9.782877e+01 1.314660e+02 1.279706e+02 6.606712e+01 8.264594e+01 6.460378e+01 4.506885e+01 1.164662e+02 5.703402e+00 4.506392e+00 4.302821e+00 7.270362e+00 7.484657e+00 7.219551e+00 5.584317e+00 7.420724e+00 5.484127e+00 5.240948e+00 5.086885e+00 3.873778e+00 4.509825e+00 9.389216e-01 7.778862e-01 7.059819e-01 1.268522e+00 1.312659e+00 1.283400e+00 1.024182e+00 1.349318e+00 9.988881e-01 9.386006e-01 9.010239e-01 7.275401e-01 7.524911e-01
<GCONST> 1.522615e+02
<STATE> 3
<MEAN> 39
 1.528669e+00 -3.251466e+00 -3.984641e+00 -9.604673e+00 -8.457080e+00 -3.321009e+00 -1.231424e+01 -6.657322e+00 -4.619009e+00 -5.170752e+00 -2.560936e+00 -3.938032e+00 6.802982e+01 1.375848e-01 -1.350172e-01 -3.203675e-02 -1.004751e-01 1.099734e-01 -1.682160e-01 1.040388e-02 5.666616e-02 2.081698e-02 4.966446e-02 -8.310057e-02 -1.369795e-01 3.179656e-01 -1.476090e-01 -1.095550e-02 4.030818e-02 1.804033e-01 4.047510e-02 -5.146697e-02 1.573372e-01 8.052666e-02 2.208436e-02 -2.046948e-02 -7.113145e-02 -4.957682e-03 -1.256403e-01
<VARIANCE> 39
 7.352078e+01 8.715884e+01 6.085767e+01 1.562152e+02 1.398317e+02 1.021888e+02 1.403184e+02 1.261444e+02 6.665675e+01 8.784743e+01 7.070242e+01 4.484118e+01 1.011976e+02 5.087193e+00 4.337866e+00 3.909140e+00 6.624533e+00 7.080899e+00 6.853963e+00 5.231461e+00 7.061222e+00 5.302908e+00 5.247782e+00 5.033202e+00 3.701140e+00 4.004701e+00 7.744552e-01 7.047704e-01 6.331389e-01 1.115536e+00 1.185793e+00 1.197181e+00 9.560107e-01 1.264429e+00 9.628498e-01 9.389900e-01 9.253162e-01 7.042942e-01 6.288033e-01
<GCONST> 1.503765e+02
<STATE> 4
<MEAN> 39
 1.386774e+00 -2.476965e+00 -4.421759e+00 -8.875259e+00 -7.353775e+00 -4.713686e+00 -9.713156e+00 -5.046168e+00 -4.908767e+00 -4.958251e+00 -3.437387e+00 -3.885737e+00 6.692401e+01 -2.809150e-01 -1.609091e-01 6.838064e-02 3.030593e-01 1.581891e-01 -9.724481e-02 2.926237e-01 1.910931e-01 3.542265e-02 -5.432351e-02 -1.718304e-01 -7.251308e-02 -9.865936e-02 -9.843313e-02 -4.761831e-02 3.442628e-02 5.209458e-02 5.027765e-03 8.931248e-03 4.903106e-02 2.152589e-02 1.279706e-02 -2.198230e-02 5.705985e-03 1.668597e-02 -3.833009e-02
<VARIANCE> 39
 7.578403e+01 8.806841e+01 5.584584e+01 1.397950e+02 1.127603e+02 8.446637e+01 1.130271e+02 1.036432e+02 6.202096e+01 7.098922e+01 6.542979e+01 4.031516e+01 1.163389e+02 3.384814e+00 3.288922e+00 2.964057e+00 4.732111e+00 4.929627e+00 4.876501e+00 3.760097e+00 4.700527e+00 4.060583e+00 3.941577e+00 3.892199e+00 2.835906e+00 2.881296e+00 5.113851e-01 5.325825e-01 4.732254e-01 8.059477e-01 8.104783e-01 8.274740e-01 6.718167e-01 8.461173e-01 7.266607e-01 7.065808e-01 7.026424e-01 5.266800e-01 4.439875e-01
<GCONST> 1.406339e+02
<TRANSP> 5
 0.000000e+00 1.000000e+00 0.000000e+00 0.000000e+00 0.000000e+00
 0.000000e+00 6.040363e-01 3.959637e-01 0.000000e+00 0.000000e+00
 0.000000e+00 0.000000e+00 5.565393e-01 4.434607e-01 0.000000e+00
 0.000000e+00 0.000000e+00 0.000000e+00 5.065624e-01 4.934377e-01
 0.000000e+00 0.000000e+00 0.000000e+00 0.000000e+00 0.000000e+00
<ENDHMM>
~h "v"
<BEGINHMM>
<NUMSTATES> 5
<STATE> 2
<MEAN> 39
 -7.100488e+00 -6.617517e+00 -4.669247e+00 -1.245425e+01 -7.084538e+00 -7.336514e+00 -1.532277e+01 -7.306801e+00 -1.783359e+00 -1.461197e+00 -2.449966e+00 -6.425776e+00 7.286465e+01 -4.131908e-01 6.443504e-02 2.243516e-02 -1.891844e-01 1.872246e-01 -2.484318e-01 1.198893e-01 7.078321e-02 6.808814e-02 2.759620e-02 6.649305e-02 2.983029e-02 2.382522e-01 9.969783e-02 -2.027740e-02 1.114655e-02 2.840180e-02 -7.689019e-02 2.045269e-02 -1.393030e-03 -1.805488e-03 -3.276449e-02 -4.690441e-03 -2.571579e-03 -5.034993e-04 1.601775e-03
<VARIANCE> 39
 1.375791e+02 7.908936e+01 6.188091e+01 5.492060e+01 1.358068e+02 6.742307e+01 1.375394e+02 1.283551e+02 4.992085e+01 7.750606e+01 4.424351e+01 2.658442e+01 4.952660e+01 1.047864e+01 4.874727e+00 4.727821e+00 4.110349e+00 8.452765e+00 4.187316e+00 6.281285e+00 7.262603e+00 3.401567e+00 3.752311e+00 4.036268e+00 2.684532e+00 3.962210e+00 1.644456e+00 8.996388e-01 8.596501e-01 7.143638e-01 1.516138e+00 7.781383e-01 1.190049e+00 1.281918e+00 5.925439e-01 7.225385e-01 7.954381e-01 4.957266e-01 7.870314e-01
<GCONST> 1.463042e+02
<STATE> 3
<MEAN> 39
 -8.083134e+00 -7.738259e+00 -1.355143e+00 -9.627357e+00 -1.055047e+01 -9.737234e+00 -1.686085e+01 -6.700879e+00 -3.724425e+00 -4.408912e+00 -2.724521e+00 -5.803935e+00 7.380664e+01 1.788439e-01 1.477824e-02 1.332595e-02 -2.426229e-02 -8.176180e-02 -2.113034e-02 3.907282e-02 -1.070311e-01 -8.186058e-02 4.899259e-02 2.319284e-02 4.625827e-02 5.300831e-03 6.995283e-02 -1.940714e-02 1.857186e-02 1.553163e-02 -2.780707e-02 3.615841e-02 1.519341e-02 -2.797007e-02 4.325046e-03 -1.798160e-02 -4.210556e-02 -2.896863e-02 -8.482425e-03
<VARIANCE> 39
 1.492815e+02 8.250722e+01 6.397732e+01 4.095353e+01 1.489794e+02 9.867358e+01 1.015267e+02 1.373537e+02 5.710168e+01 4.671724e+01 5.694663e+01 4.328164e+01 3.649484e+01 1.011003e+01 5.924687e+00 3.211037e+00 3.267768e+00 1.072536e+01 4.474230e+00 8.255723e+00 1.025380e+01 4.291428e+00 3.379485e+00 5.904130e+00 3.529393e+00 3.789750e+00 1.466220e+00 1.033255e+00 4.954500e-01 5.760248e-01 1.916783e+00 9.089627e-01 1.674769e+00 1.746523e+00 7.934142e-01 5.980955e-01 1.291742e+00 6.529539e-01 7.551612e-01
<GCONST> 1.487912e+02
<STATE> 4
<MEAN> 39
 -5.502352e+00 -1.484336e+00 -7.603099e-01 -1.187826e+01 -2.187167e+00 -1.120347e+01 -7.028637e+00 -7.000703e+00 -2.317920e+00 -6.542535e-01 -1.942248e+00 -3.398535e+00 6.916330e+01 1.416126e+00 -2.993778e-01 3.419777e-01 -7.843976e-02 -7.812487e-01 5.988403e-01 -1.631208e-01 -8.247354e-01 -2.533453e-01 -2.189654e-01 -2.989137e-01 -4.464051e-01 -4.665389e-02 -1.005151e-01 -2.682906e-02 -2.701305e-02 2.300380e-02 -5.946987e-03 9.039063e-02 -1.369937e-01 1.252566e-01 2.909556e-02 -1.062864e-01 -6.267277e-02 -3.459847e-02 -2.500821e-03
<VARIANCE> 39
 6.992382e+01 1.206728e+02 1.895225e+02 3.656879e+01 3.920919e+01 1.097713e+02 7.548767e+01 3.220197e+02 3.136098e+01 2.787407e+01 5.985639e+01 4.154015e+01 5.412085e+01 7.773925e+00 3.001421e+00 2.133006e+00 3.276514e+00 2.569712e+00 4.063054e+00 4.192830e+00 4.525817e+00 2.410663e+00 2.354795e+00 3.959137e+00 3.310184e+00 2.970829e+00 1.173437e+00 3.859913e-01 3.239782e-01 5.857027e-01 4.792263e-01 7.146642e-01 8.699841e-01 7.999558e-01 4.621376e-01 4.499200e-01 7.318635e-01 4.418596e-01 4.309535e-01
<GCONST> 1.349624e+02
<TRANSP> 5
 0.000000e+00 1.000000e+00 0.000000e+00 0.000000e+00 0.000000e+00
 0.000000e+00 9.612474e-01 3.875258e-02 0.000000e+00 0.000000e+00
 0.000000e+00 0.000000e+00 9.546674e-01 4.533257e-02 0.000000e+00
 0.000000e+00 0.000000e+00 0.000000e+00 8.073695e-01 1.926305e-01
 0.000000e+00 0.000000e+00 0.000000e+00 0.000000e+00 0.000000e+00
<ENDHMM>
~h "w"
<BEGINHMM>
<NUMSTATES> 5
<STATE> 2
<MEAN> 39
 1.262148e+00 -1.306054e+01 -5.880353e+00 -1.391802e+01 -1.468274e+01 2.364192e+00 -1.804979e+01 -9.192232e+00 -3.944493e+00 -8.529115e+00 -4.912643e+00 -8.322593e+00 7.115840e+01 6.388003e-02 -1.643140e-01 1.940664e-02 3.119980e-02 -7.173026e-02 5.566607e-02 -7.719439e-02 -1.855192e-02 3.129879e-02 -5.379890e-02 -1.454839e-02 -3.131737e-02 6.922776e-02 -4.540417e-02 1.627611e-02 2.559259e-02 5.742400e-02 1.516886e-02 -5.910933e-02 1.519711e-02 6.804216e-03 3.974041e-03 1.742238e-02 -5.213118e-03 2.073731e-02 -2.091555e-02
<VARIANCE> 39
 3.760158e+01 6.317585e+01 4.277878e+01 8.973652e+01 8.119139e+01 7.752213e+01 1.048958e+02 7.542961e+01 6.100913e+01 4.554753e+01 5.605398e+01 3.554729e+01 6.733370e+01 2.500429e+00 4.243345e+00 2.429539e+00 4.997429e+00 4.632769e+00 4.061522e+00 3.645918e+00 6.057686e+00 4.446774e+00 3.595864e+00 3.433854e+00 3.245684e+00 3.452689e+00 4.393773e-01 6.731398e-01 4.100151e-01 8.071150e-01 7.984499e-01 7.325794e-01 7.292633e-01 1.126120e+00 7.869235e-01 6.915389e-01 6.196752e-01 6.706351e-01 5.523139e-01
<GCONST> 1.373360e+02
<STATE> 3
<MEAN> 39
 1.692898e+00 -1.351679e+01 -4.976068e+00 -1.247954e+01 -1.559392e+01 2.317189e+00 -1.777444e+01 -9.389402e+00 -4.055307e+00 -8.804254e+00 -4.364254e+00 -7.992438e+00 7.079964e+01 -1.712565e-02 -1.324078e-01 4.516406e-02 1.465698e-01 -6.947541e-03 -3.936093e-02 -4.868851e-02 9.188576e-02 6.055548e-02 -2.195373e-03 -5.126762e-02 2.142631e-03 1.411982e-03 -3.043872e-02 5.459630e-02 4.611251e-03 3.319374e-02 1.013111e-02 -4.345180e-02 3.916015e-02 6.617700e-03 1.156176e-02 2.229379e-02 -1.627912e-02 9.731608e-03 -4.362260e-02
<VARIANCE> 39
 3.104750e+01 6.273123e+01 4.275457e+01 8.584453e+01 7.834288e+01 8.048834e+01 1.216707e+02 8.143123e+01 5.826154e+01 5.115403e+01 6.110205e+01 3.813229e+01 7.012122e+01 1.928966e+00 4.002429e+00 2.343967e+00 4.649787e+00 4.506757e+00 3.493288e+00 3.570283e+00 5.877665e+00 4.093758e+00 3.807996e+00 3.363541e+00 3.386973e+00 2.990887e+00 3.441284e-01 6.517704e-01 3.942832e-01 7.395610e-01 8.013905e-01 5.933639e-01 6.747276e-01 1.022060e+00 7.140074e-01 7.371813e-01 6.018375e-01 6.833325e-01 4.654798e-01
<GCONST> 1.357842e+02
<STATE> 4
<MEAN> 39
 -2.130512e+00 -1.241029e+01 -6.310480e+00 -1.066030e+01 -1.119635e+01 -2.455902e+00 -1.016585e+01 -5.089937e+00 -5.125821e+00 -9.542707e+00 -7.188688e+00 -5.180553e+00 6.208007e+01 -1.162992e-01 9.537508e-02 -4.069353e-03 1.158484e-01 3.998765e-02 -1.198411e-01 8.087654e-02 2.133706e-02 1.054733e-02 2.218709e-02 -3.913698e-02 1.663302e-02 -1.624567e-01 -2.027103e-02 3.702108e-02 1.423264e-03 1.523878e-02 1.312916e-02 -1.526466e-02 2.358302e-02 -1.262125e-02 1.551776e-03 1.391127e-02 -3.473750e-03 4.827370e-03 -1.796455e-02
<VARIANCE> 39
 5.660119e+01 8.356231e+01 3.114851e+01 7.028790e+01 7.086285e+01 6.328352e+01 9.334160e+01 4.235900e+01 4.023167e+01 4.526426e+01 4.328080e+01 3.368481e+01 1.106659e+02 1.325362e+00 3.197755e+00 1.526971e+00 3.248448e+00 2.959080e+00 2.423304e+00 2.605231e+00 2.891722e+00 2.628172e+00 2.479532e+00 2.320024e+00 2.254088e+00 1.923496e+00 1.970277e-01 4.471444e-01 2.524307e-01 5.219511e-01 4.775192e-01 4.135588e-01 4.894269e-01 5.316578e-01 4.908576e-01 4.767803e-01 4.169716e-01 4.263666e-01 2.417827e-01
<GCONST> 1.232136e+02
<TRANSP> 5
 0.000000e+00 1.000000e+00 0.000000e+00 0.000000e+00 0.000000e+00
 0.000000e+00 9.114776e-01 8.852243e-02 0.000000e+00 0.000000e+00
 0.000000e+00 0.000000e+00 8.709745e-01 1.290255e-01 0.000000e+00
 0.000000e+00 0.000000e+00 0.000000e+00 9.162999e-01 8.370004e-02
 0.000000e+00 0.000000e+00 0.000000e+00 0.000000e+00 0.000000e+00
<ENDHMM>
~h "y"
<BEGINHMM>
<NUMSTATES> 5
<STATE> 2
<MEAN> 39
 -1.100462e+00 -4.959576e+00 -9.815642e-01 -5.022788e+00 -8.389692e+00 -8.296709e+00 -4.402438e+00 -4.230425e+00 -5.624299e+00 -5.275984e+00 -3.588511e+00 -3.570784e+00 6.766349e+01 2.857904e-01 -1.410672e-02 1.594180e-01 -1.266043e-01 -1.959612e-02 -5.669791e-02 1.834783e-01 2.741428e-02 -1.235508e-01 -1.602158e-01 -2.991064e-01 -1.642942e-01 2.610159e-01 1.768474e-02 -4.353273e-02 -2.959633e-02 -5.619477e-02 4.955509e-02 1.035967e-01 1.854396e-02 1.158041e-02 2.071538e-02 -4.606861e-02 -3.825003e-02 -2.805516e-02 2.914476e-02
<VARIANCE> 39
 6.779148e+01 7.793037e+01 7.876736e+01 1.536035e+02 1.024071e+02 1.011834e+02 1.002101e+02 5.759369e+01 8.020152e+01 4.275425e+01 7.623650e+01 3.490991e+01 1.787949e+02 2.339395e+00 3.046118e+00 4.249243e+00 3.404803e+00 3.982689e+00 4.269256e+00 3.875103e+00 3.578337e+00 3.659419e+00 2.678802e+00 3.753772e+00 2.296809e+00 2.582219e+00 3.469767e-01 4.453695e-01 5.803186e-01 5.943854e-01 7.078557e-01 6.842570e-01 6.062961e-01 5.804623e-01 6.386167e-01 4.534217e-01 6.348195e-01 4.216634e-01 3.372673e-01
<GCONST> 1.359087e+02
<STATE> 3
<MEAN> 39
 -4.246806e-01 -4.846704e+00 9.335208e-02 -6.262858e+00 -8.589535e+00 -8.181192e+00 -3.600669e+00 -4.375576e+00 -4.948149e+00 -5.931432e+00 -4.302410e+00 -3.807881e+00 6.824928e+01 3.686621e-01 -2.922449e-01 -1.036467e-01 -2.299044e-01 7.929669e-02 1.254290e-01 2.322880e-01 9.188335e-02 8.551239e-03 -2.103472e-01 -3.154694e-01 -1.751942e-01 4.106124e-01 -1.707753e-02 -5.881327e-02 -1.396743e-01 4.644031e-02 8.516006e-02 8.736824e-02 -4.205518e-02 1.230204e-02 9.502379e-03 -7.318185e-03 3.971496e-02 4.673067e-03 -4.812832e-02
<VARIANCE> 39
 6.054470e+01 8.588022e+01 8.655304e+01 1.521970e+02 1.031938e+02 9.607387e+01 1.110982e+02 5.944139e+01 8.133182e+01 4.436986e+01 8.128049e+01 3.509731e+01 1.585562e+02 2.524168e+00 3.550642e+00 5.184174e+00 4.232471e+00 5.196254e+00 4.623629e+00 4.048756e+00 3.666025e+00 4.128153e+00 2.853884e+00 4.302046e+00 2.438950e+00 3.334955e+00 3.154207e-01 5.568496e-01 6.631239e-01 6.865790e-01 7.885457e-01 6.958377e-01 6.870184e-01 6.436822e-01 6.892071e-01 4.842673e-01 6.786920e-01 4.432203e-01 3.288704e-01
<GCONST> 1.387565e+02
<STATE> 4
<MEAN> 39
 3.875227e-01 -4.360497e+00 -1.316084e+00 -6.651014e+00 -6.553365e+00 -7.782116e+00 -1.778263e+00 -4.092760e+00 -4.450437e+00 -5.897428e+00 -6.337409e+00 -4.160263e+00 6.763020e+01 2.044203e-01 -2.251357e-01 -4.350274e-01 6.001430e-02 2.716554e-01 2.606962e-01 -6.156602e-03 1.149012e-01 -8.570447e-02 -1.320227e-01 -1.262208e-01 -1.251778e-01 4.711364e-02 -3.249100e-02 5.289770e-02 -5.196503e-02 7.436525e-02 3.655651e-02 1.801147e-02 -8.548280e-02 -1.421786e-02 6.742187e-03 2.327982e-02 7.210341e-02 2.250430e-02 -9.314211e-02
<VARIANCE> 39
 6.255889e+01 8.993522e+01 8.082185e+01 1.464805e+02 1.137419e+02 8.812448e+01 1.094135e+02 5.540322e+01 8.661646e+01 5.524514e+01 9.335495e+01 3.531947e+01 1.494039e+02 2.287869e+00 3.224022e+00 3.930582e+00 4.021388e+00 4.763366e+00 3.860996e+00 3.486969e+00 3.181604e+00 3.435891e+00 3.156456e+00 3.807122e+00 2.260383e+00 2.585994e+00 2.802700e-01 4.715385e-01 5.415865e-01 6.402966e-01 7.893252e-01 6.126116e-01 6.061795e-01 5.513396e-01 5.715162e-01 5.151433e-01 6.183110e-01 3.995555e-01 2.673214e-01
<GCONST> 1.359123e+02
<TRANSP> 5
 0.000000e+00 1.000000e+00 0.000000e+00 0.000000e+00 0.000000e+00
 0.000000e+00 4.466648e-01 5.533352e-01 0.000000e+00 0.000000e+00
 0.000000e+00 0.000000e+00 4.628215e-01 5.371786e-01 0.000000e+00
 0.000000e+00 0.000000e+00 0.000000e+00 6.020270e-01 3.979730e-01
 0.000000e+00 0.000000e+00 0.000000e+00 0.000000e+00 0.000000e+00
<ENDHMM>
~h "z"
<BEGINHMM>
<NUMSTATES> 5
<STATE> 2
<MEAN> 39
 -3.783368e+00 -6.618282e+00 1.186689e+00 4.093742e-01 -9.453310e+00 -5.938971e-01 -4.349837e+00 -6.195681e+00 -1.556099e+00 -6.859098e+00 -5.319346e+00 -3.579389e+00 8.536536e+01 9.760335e-04 2.458601e-02 -9.271809e-02 2.678604e-02 -2.777073e-03 5.570576e-02 2.994620e-03 3.093154e-03 4.294458e-02 1.141926e-01 1.490011e-01 1.089096e-01 -8.710843e-02 4.645714e-03 1.471643e-03 1.327172e-02 -1.321347e-02 -7.125871e-03 1.661845e-02 1.707484e-02 -1.601405e-02 -2.865419e-03 -3.723942e-04 -1.551620e-02 -9.602541e-04 4.729314e-03
<VARIANCE> 39
 2.391671e+01 1.612541e+01 4.231786e+01 4.651080e+01 2.387907e+01 7.217616e+01 2.303443e+01 2.283243e+01 3.804343e+01 3.646285e+01 3.300362e+01 1.614533e+01 1.868757e+02 7.798385e-01 1.022684e+00 1.567535e+00 1.705246e+00 2.027884e+00 3.708847e+00 1.829669e+00 1.611785e+00 2.435686e+00 1.893758e+00 1.906640e+00 1.229901e+00 1.844180e+00 1.318394e-01 1.865796e-01 2.158749e-01 2.729086e-01 3.965572e-01 6.213136e-01 3.594915e-01 3.249481e-01 4.486332e-01 3.376631e-01 3.447075e-01 2.283892e-01 2.269030e-01
<GCONST> 1.085303e+02
<STATE> 3
<MEAN> 39
 -9.912219e-01 -6.752441e+00 -1.453880e+00 -1.992086e+00 -9.640403e+00 8.931789e-01 -3.078097e+00 -7.085244e+00 -1.368183e+00 -3.067433e+00 -2.769639e+00 -3.467465e+00 8.937454e+01 -1.500782e-02 4.304390e-03 -1.010267e-02 1.741537e-02 -5.996638e-03 6.204098e-05 7.368347e-03 1.805418e-02 1.856977e-02 1.343377e-02 5.889683e-03 8.945298e-03 -3.517612e-02 -3.996221e-04 -8.969073e-04 3.585217e-03 -2.435114e-03 6.873632e-05 2.530457e-03 1.129653e-03 -1.431019e-03 6.432096e-04 -2.806200e-03 -1.358306e-03 -1.416361e-03 1.925969e-03
<VARIANCE> 39
 1.868759e+01 2.026208e+01 4.103015e+01 3.392377e+01 3.251592e+01 4.607981e+01 1.889481e+01 2.804435e+01 2.744333e+01 2.519322e+01 2.298952e+01 1.407463e+01 9.260587e+01 7.849121e-01 1.305926e+00 1.762216e+00 1.352603e+00 2.613163e+00 2.900048e+00 1.593126e+00 2.103734e+00 2.628413e+00 1.825362e+00 1.769245e+00 1.428472e+00 1.834014e+00 1.317960e-01 2.195687e-01 2.435196e-01 2.107349e-01 5.206813e-01 4.675040e-01 3.004090e-01 4.127272e-01 5.148104e-01 3.420559e-01 3.247787e-01 3.036541e-01 2.580374e-01
<GCONST> 1.070926e+02
<STATE> 4
<MEAN> 39
 -2.774788e+00 -4.861828e+00 2.380152e-01 1.063207e+00 -9.075922e+00 -8.196001e-01 -3.164434e+00 -3.664589e+00 -3.978430e-01 -5.967099e+00 -3.878318e+00 -3.203061e+00 8.145420e+01 -9.634849e-02 -5.723752e-03 -5.173687e-03 -2.937801e-04 1.947391e-02 7.359716e-02 6.784932e-02 3.679877e-02 5.466475e-02 -4.739584e-02 -1.780983e-02 1.989140e-02 -1.115140e-01 -6.165691e-04 -4.290444e-03 1.420055e-02 -2.244544e-02 8.009386e-03 -1.714172e-02 -4.886714e-03 -8.630947e-03 -1.044333e-02 -1.317875e-02 -8.265845e-04 -6.611092e-03 2.392794e-02
<VARIANCE> 39
 3.201902e+01 1.338349e+01 5.143687e+01 3.024394e+01 3.632830e+01 4.700525e+01 1.509028e+01 2.861441e+01 2.360109e+01 3.639057e+01 1.917089e+01 1.390750e+01 2.141258e+02 5.702884e-01 9.954679e-01 1.604838e+00 1.357633e+00 2.631446e+00 1.661177e+00 1.055315e+00 2.044538e+00 2.137539e+00 1.954321e+00 1.793900e+00 1.860992e+00 9.507017e-01 8.578163e-02 1.609086e-01 2.262530e-01 2.344926e-01 4.707670e-01 2.423733e-01 2.057054e-01 4.148776e-01 4.048029e-01 3.182959e-01 3.731721e-01 4.284153e-01 1.353958e-01
<GCONST> 1.036142e+02
<TRANSP> 5
 0.000000e+00 1.000000e+00 0.000000e+00 0.000000e+00 0.000000e+00
 0.000000e+00 9.777589e-01 2.224109e-02 0.000000e+00 0.000000e+00
 0.000000e+00 0.000000e+00 9.906554e-01 9.344604e-03 0.000000e+00
 0.000000e+00 0.000000e+00 0.000000e+00 9.696519e-01 3.034810e-02
 0.000000e+00 0.000000e+00 0.000000e+00 0.000000e+00 0.000000e+00
<ENDHMM>
~h "aw"
<BEGINHMM>
<NUMSTATES> 5
<STATE> 2
<MEAN> 39
 -1.216350e+00 -6.640267e+00 -8.125962e+00 -8.598583e-01 -5.406789e+00 -2.753451e+00 -6.073356e-01 2.197106e+00 -4.717413e+00 -3.254492e+00 -2.590243e+00 -5.305297e-01 6.930770e+01 -6.251901e-02 -9.085576e-02 -1.010706e-01 -1.610482e-01 8.173801e-02 2.919545e-01 9.739035e-02 1.588179e-01 1.873362e-01 1.645963e-01 8.469655e-02 4.045888e-02 5.076086e-02 7.181776e-03 6.368225e-02 5.968994e-02 3.790776e-02 -2.802368e-02 -4.288825e-02 -7.815407e-02 -7.391483e-02 -3.575527e-02 -3.714877e-02 -3.581884e-02 -5.079257e-02 -4.042178e-02
<VARIANCE> 39
 5.698594e+01 6.778481e+01 3.854468e+01 1.150595e+02 4.942576e+01 5.722393e+01 5.084126e+01 6.808849e+01 5.796607e+01 4.917643e+01 4.384957e+01 3.387505e+01 1.795657e+02 2.199582e+00 3.057673e+00 1.644245e+00 2.085202e+00 2.479963e+00 3.445054e+00 2.006126e+00 1.944720e+00 2.846754e+00 2.142523e+00 2.412641e+00 1.843707e+00 3.693041e+00 3.686145e-01 4.972253e-01 2.953516e-01 3.223440e-01 4.266384e-01 6.217455e-01 3.312554e-01 3.615521e-01 5.426970e-01 3.995450e-01 4.306356e-01 3.318139e-01 5.404789e-01
<GCONST> 1.245443e+02
<STATE> 3
<MEAN> 39
 -1.316037e+00 -6.603975e+00 -7.924144e+00 -1.037143e+00 -5.047806e+00 -2.187559e+00 -7.109842e-01 2.136718e+00 -4.574321e+00 -2.833323e+00 -2.371194e+00 -5.275078e-01 6.934594e+01 1.542729e-02 1.154327e-01 -1.222975e-02 -6.956542e-02 1.622261e-02 1.420468e-01 -9.836590e-02 -2.473661e-02 4.301799e-02 4.724051e-02 9.571902e-03 -8.710783e-02 -7.326294e-02 2.047830e-03 6.104077e-02 4.467111e-02 3.475945e-02 -2.146247e-02 -4.477688e-02 -5.952037e-02 -5.641941e-02 -3.781490e-02 -1.566740e-02 9.305940e-04 -2.284844e-02 -5.618706e-02
<VARIANCE> 39
 5.583747e+01 6.758681e+01 4.158583e+01 1.321048e+02 5.001450e+01 5.696000e+01 5.432322e+01 7.111758e+01 6.246558e+01 4.837089e+01 4.625304e+01 3.715900e+01 1.769126e+02 2.366057e+00 3.066713e+00 1.769110e+00 2.153482e+00 2.445774e+00 3.521287e+00 2.021047e+00 2.023803e+00 2.948127e+00 2.169276e+00 2.382734e+00 1.822681e+00 2.868120e+00 3.572510e-01 5.089504e-01 2.973145e-01 3.312568e-01 4.213103e-01 6.327294e-01 3.438398e-01 3.719645e-01 5.908031e-01 4.194034e-01 4.215322e-01 3.167161e-01 4.837863e-01
<GCONST> 1.250997e+02
<STATE> 4
<MEAN> 39
 -7.372611e-01 -4.188096e+00 -7.384986e+00 7.227933e+00 -2.257907e+00 -1.127999e+00 1.812577e+00 6.030741e+00 -6.283120e+00 7.521977e-01 8.473206e-01 2.622887e+00 6.815152e+01 3.985221e-03 2.360166e-02 1.436080e-02 7.834509e-03 -1.734710e-02 1.097836e-03 -1.495365e-02 -3.629326e-02 -2.479721e-02 6.189294e-03 -6.990855e-03 -2.118742e-02 -2.381745e-02 5.739421e-03 -5.254039e-03 6.993535e-03 -1.752195e-03 -1.099486e-02 -1.508590e-02 -7.793303e-03 -1.113917e-02 -1.025029e-02 -4.361622e-03 -5.557151e-03 -1.992020e-03 1.022542e-02
<VARIANCE> 39
 5.262518e+01 3.652723e+01 3.450006e+01 8.246171e+01 4.729424e+01 5.409282e+01 3.753185e+01 5.817427e+01 6.009803e+01 3.527786e+01 4.278354e+01 3.177800e+01 8.433550e+01 1.678777e+00 1.796517e+00 1.621389e+00 1.847433e+00 1.947200e+00 2.323123e+00 1.820852e+00 1.849756e+00 2.517485e+00 1.763335e+00 1.895338e+00 1.465334e+00 1.368237e+00 2.457002e-01 3.159291e-01 2.641988e-01 2.909894e-01 3.196372e-01 4.032050e-01 3.276260e-01 3.311298e-01 4.500878e-01 3.308371e-01 3.333309e-01 2.590338e-01 2.074829e-01
<GCONST> 1.144686e+02
<TRANSP> 5
 0.000000e+00 1.000000e+00 0.000000e+00 0.000000e+00 0.000000e+00
 0.000000e+00 6.745408e-01 3.254593e-01 0.000000e+00 0.000000e+00
 0.000000e+00 0.000000e+00 6.635749e-01 3.364251e-01 0.000000e+00
 0.000000e+00 0.000000e+00 0.000000e+00 9.703315e-01 2.966853e-02
 0.000000e+00 0.000000e+00 0.000000e+00 0.000000e+00 0.000000e+00
<ENDHMM>
~h "ay"
<BEGINHMM>
<NUMSTATES> 5
<STATE> 2
<MEAN> 39
 1.294289e-01 -1.182681e+01 -1.073034e+00 -5.655916e+00 -1.117277e+01 -6.473876e+00 -7.500409e+00 -3.116794e+00 -2.986805e+00 -7.519327e+00 -5.689723e+00 -4.445423e+00 7.719347e+01 4.534547e-02 -1.464094e-01 5.728836e-01 1.842642e-01 -4.671776e-01 2.851821e-01 -2.418979e-01 -1.803482e-01 -5.540228e-02 -1.640740e-01 -9.151294e-02 3.340222e-02 -2.240470e-01 -1.744116e-01 2.782383e-01 -1.062542e-02 2.771587e-02 7.647370e-02 -3.127775e-02 2.230557e-02 -1.148892e-01 -8.023402e-02 1.034712e-01 1.342274e-02 5.565784e-02 -1.756541e-01
<VARIANCE> 39
